<?xml version="1.0" encoding="ISO-8859-1"?>
<smile version="1.0" id="Network1" numsamples="1000" discsamples="10000">
	<nodes>
		<cpt id="TimePeriod">
			<state id="Period1" />
			<state id="Period2" />
			<state id="Period3" />
			<state id="Period4" />
			<state id="Period5" />
			<state id="Period6" />
			<state id="Period7" />
			<state id="Period8" />
			<state id="Period9" />
			<state id="Period10" />
			<state id="Period11" />
			<state id="Period12" />
			<state id="Period13" />
			<state id="Period14" />
			<state id="Period15" />
			<state id="Period16" />
			<state id="Period17" />
			<state id="Period18" />
			<state id="Period19" />
			<state id="Period20" />
			<state id="Period21" />
			<state id="Period22" />
			<state id="Period23" />
			<state id="Period24" />
			<state id="Period25" />
			<probabilities>0.04 0.04 0.04 0.04 0.04 0.04 0.04 0.04 0.04 0.04 0.04 0.04 0.04 0.04 0.04 0.04 0.04 0.04 0.04 0.04 0.04 0.04 0.04 0.04 0.04</probabilities>
		</cpt>
		<cpt id="Assimilator">
			<state id="Absent" />
			<state id="Present" />
			<parents>TimePeriod</parents>
			<probabilities>1 0 1 0 0.8181818181818182 0.1818181818181818 0.5454545454545454 0.4545454545454546 0.4545454545454546 0.5454545454545454 0.1818181818181818 0.8181818181818182 0.1818181818181818 0.8181818181818182 0.09090909090909091 0.9090909090909092 0.09090909090909091 0.9090909090909092 0.09090909090909091 0.9090909090909092 0.09090909090909091 0.9090909090909092 0.09090909090909091 0.9090909090909092 0.09090909090909091 0.9090909090909092 0.09090909090909091 0.9090909090909092 0.09090909090909091 0.9090909090909092 0.09090909090909091 0.9090909090909092 0.09090909090909091 0.9090909090909092 0.09090909090909091 0.9090909090909092 0.09090909090909091 0.9090909090909092 0 1 0 1 0 1 0 1 0 1 0 1</probabilities>
		</cpt>
		<cpt id="Pylon">
			<state id="Absent" />
			<state id="Present" />
			<parents>TimePeriod</parents>
			<probabilities>1 0 0 1 0 1 0 1 0 1 0 1 0 1 0 1 0 1 0 1 0 1 0 1 0 1 0 1 0 1 0 1 0 1 0 1 0 1 0 1 0 1 0 1 0 1 0 1 0 1</probabilities>
		</cpt>
		<cpt id="Gateway">
			<state id="Absent" />
			<state id="Present" />
			<parents>Pylon TimePeriod</parents>
			<probabilities>1 0 1 0 0.5 0.5 0.5 0.5 0.5 0.5 0.5 0.5 0.5 0.5 0.5 0.5 0.5 0.5 0.5 0.5 0.5 0.5 0.5 0.5 0.5 0.5 0.5 0.5 0.5 0.5 0.5 0.5 0.5 0.5 0.5 0.5 0.5 0.5 0.5 0.5 0.5 0.5 0.5 0.5 0.5 0.5 0.5 0.5 0.5 0.5 0.5 0.5 0.5454545454545454 0.4545454545454546 0.3636363636363637 0.6363636363636364 0.1818181818181818 0.8181818181818182 0 1 0 1 0 1 0 1 0 1 0 1 0 1 0 1 0 1 0 1 0 1 0 1 0 1 0 1 0 1 0 1 0 1 0 1 0 1 0 1 0 1</probabilities>
		</cpt>
		<cpt id="Zealot">
			<state id="Absent" />
			<state id="Present" />
			<parents>Gateway TimePeriod</parents>
			<probabilities>1 0 1 0 1 0 1 0 1 0 1 0 1 0 1 0 1 0 1 0 1 0 1 0 1 0 1 0 1 0 1 0 1 0 1 0 1 0 1 0 1 0 1 0 1 0 1 0 1 0 0.5 0.5 1 0 0.7142857142857142 0.2857142857142857 0.6666666666666666 0.3333333333333333 0.7272727272727273 0.2727272727272727 0.5454545454545454 0.4545454545454546 0.3636363636363637 0.6363636363636364 0.2727272727272727 0.7272727272727273 0.1818181818181818 0.8181818181818182 0.1818181818181818 0.8181818181818182 0.1818181818181818 0.8181818181818182 0.09090909090909091 0.9090909090909092 0 1 0 1 0 1 0 1 0 1 0 1 0 1 0 1 0 1 0 1 0 1 0 1 0 1</probabilities>
		</cpt>
		<cpt id="CyberCore">
			<state id="Absent" />
			<state id="Present" />
			<parents>Gateway TimePeriod</parents>
			<probabilities>1 0 1 0 1 0 1 0 1 0 0.5 0.5 0.5 0.5 0.5 0.5 0.5 0.5 0.5 0.5 0.5 0.5 1 0 0.5 0.5 0.5 0.5 0.5 0.5 0.5 0.5 0.5 0.5 0.5 0.5 1 0 1 0 0.5 0.5 0.5 0.5 0.5 0.5 0.5 0.5 0.5 0.5 0.5294906862223545 0.4705093137776455 1 0 0.7142857142857142 0.2857142857142857 0.4444444444444444 0.5555555555555556 0.4545454545454546 0.5454545454545454 0.1818181818181818 0.8181818181818182 0.1818181818181818 0.8181818181818182 0.09090909090909091 0.9090909090909092 0.09090909090909091 0.9090909090909092 0.09090909090909091 0.9090909090909092 0.09090909090909091 0.9090909090909092 0.09090909090909091 0.9090909090909092 0.09090909090909091 0.9090909090909092 0.09090909090909091 0.9090909090909092 0.09090909090909091 0.9090909090909092 0.09090909090909091 0.9090909090909092 0.09090909090909091 0.9090909090909092 0.09090909090909091 0.9090909090909092 0.09090909090909091 0.9090909090909092 0 1 0 1 0 1 0 1 0 1 0 1</probabilities>
		</cpt>
		<cpt id="CitadelOfAdun">
			<state id="Absent" />
			<state id="Present" />
			<parents>CyberCore Assimilator TimePeriod</parents>
			<probabilities>1 0 1 0 1 0 1 0 1 0 1 0 1 0 1 0 1 0 1 0 1 0 1 0 1 0 1 0 1 0 1 0 1 0 1 0 1 0 1 0 1 0 1 0 1 0 1 0 1 0 1 0 1 0 0.5 0.5 1 0 1 0 1 0 1 0 1 0 1 0 1 0 1 0 1 0 1 0 1 0 1 0 0.5 0.5 0.5 0.5 0.5 0.5 0.5 0.5 0.5 0.5 0.5 0.5 0.5 0.5 0.5 0.5 0.5 0.5 0.5 0.5 1 0 1 0 0.5 0.5 0.5 0.5 0.5 0.5 0.5 0.5 0.5 0.5 0.5 0.5 0.5 0.5 0.5 0.5 0.5 0.5 0.5 0.5 0.5 0.5 0.5 0.5 0.5 0.5 0.5 0.5 0.5 0.5 0.5 0.5 0.5 0.5 0.5 0.5 0.5 0.5 0.5 0.5 0.5 0.5 0.5 0.5 0.5 0.5 0.5 0.5 0.7000000000000001 0.3 1 0 1 0 1 0 1 0 0.7777777777777777 0.2222222222222222 0.7000000000000001 0.3 0.7000000000000001 0.3 0.7000000000000001 0.3 0.7000000000000001 0.3 0.5 0.5 0.2 0.8 0.2 0.8 0.2 0.8 0.2 0.8 0.1 0.9 0.1 0.9 0.1 0.9 0.1818181818181818 0.8181818181818182 0.09090909090909091 0.9090909090909092 0 1 0 1 0 1 0 1</probabilities>
		</cpt>
		<cpt id="TemplarArchives">
			<state id="Absent" />
			<state id="Present" />
			<parents>CitadelOfAdun TimePeriod</parents>
			<probabilities>1 0 1 0 1 0 1 0 1 0 1 0 1 0 1 0 1 0 1 0 1 0 1 0 1 0 1 0 1 0 1 0 1 0 1 0 1 0 1 0 1 0 1 0 1 0 1 0 1 0 0.5 0.5 0.3333333333333333 0.6666666666666666 0 1 0.4 0.6000000000000001 0.375 0.625 0.25 0.75 1 0 0.6666666666666666 0.3333333333333333 0.6666666666666666 0.3333333333333333 0.3333333333333333 0.6666666666666666 0 1 0.4 0.6000000000000001 0.375 0.625 0.25 0.75 0.125 0.875 0 1 0.1111111111111111 0.8888888888888888 0.1111111111111111 0.8888888888888888 0.1111111111111111 0.8888888888888888 0.1111111111111111 0.8888888888888888 0.2 0.8 0.1818181818181818 0.8181818181818182 0.09090909090909091 0.9090909090909092 0.09090909090909091 0.9090909090909092 0 1</probabilities>
		</cpt>
		<cpt id="DarkTemplar">
			<state id="Absent" />
			<state id="Present" />
			<parents>TemplarArchives TimePeriod</parents>
			<probabilities>1 0 1 0 1 0 1 0 1 0 1 0 1 0 1 0 1 0 1 0 1 0 1 0 1 0 1 0 1 0 1 0 1 0 1 0 1 0 1 0 1 0 1 0 1 0 1 0 1 0 0.5 0.5 0.5 0.5 0.6666666666666666 0.3333333333333333 0.6666666666666666 0.3333333333333333 0.8 0.2 0.5 0.5 0.5714285714285714 0.4285714285714286 1 0 1 0 0.5 0.5 0.6666666666666666 0.3333333333333333 0.6666666666666666 0.3333333333333333 0.8 0.2 0.5 0.5 0.5714285714285714 0.4285714285714286 0.375 0.625 0.25 0.75 0.25 0.75 0.25 0.75 0.25 0.75 0.25 0.75 0.3333333333333333 0.6666666666666666 0.3 0.7000000000000001 0.3 0.7000000000000001 0.2727272727272727 0.7272727272727273</probabilities>
		</cpt>
		<cpt id="RoboticsFacility">
			<state id="Absent" />
			<state id="Present" />
			<parents>CyberCore Assimilator TimePeriod</parents>
			<probabilities>1 0 1 0 1 0 1 0 1 0 1 0 1 0 1 0 1 0 1 0 1 0 1 0 1 0 1 0 1 0 1 0 1 0 1 0 1 0 1 0 1 0 1 0 1 0 1 0 1 0 1 0 1 0 0.5 0.5 1 0 1 0 1 0 1 0 1 0 1 0 1 0 1 0 1 0 1 0 1 0 1 0 0.5 0.5 0.5 0.5 0.5 0.5 0.5 0.5 0.5 0.5 0.5 0.5 0.5 0.5 0.5 0.5 0.5 0.5 0.5 0.5 1 0 1 0 0.5 0.5 0.5 0.5 0.5 0.5 0.5 0.5 0.5 0.5 0.5 0.5 0.5 0.5 0.5 0.5 0.5 0.5 0.5 0.5 0.5 0.5 0.5 0.5 0.5 0.5 0.5 0.5 0.5 0.5 0.5 0.5 0.5 0.5 0.5 0.5 0.5 0.5 0.5 0.5 0.5 0.5 0.5 0.5 0.5 0.5 0.5 0.5 0.5 0.5 1 0 1 0 1 0 0.8888888888888888 0.1111111111111111 0.6666666666666666 0.3333333333333333 0.6000000000000001 0.4 0.5 0.5 0.5 0.5 0.4 0.6000000000000001 0.3 0.7000000000000001 0.3 0.7000000000000001 0.2 0.8 0.2 0.8 0.1 0.9 0.1 0.9 0.1 0.9 0.1 0.9 0.09090909090909091 0.9090909090909092 0.09090909090909091 0.9090909090909092 0.09090909090909091 0.9090909090909092 0.09090909090909091 0.9090909090909092 0 1 0 1</probabilities>
		</cpt>
		<cpt id="RoboticsSupportBay">
			<state id="Absent" />
			<state id="Present" />
			<parents>RoboticsFacility TimePeriod</parents>
			<probabilities>1 0 1 0 1 0 1 0 1 0 1 0 1 0 1 0 1 0 1 0 1 0 1 0 1 0 1 0 1 0 1 0 1 0 1 0 1 0 1 0 1 0 1 0 1 0 1 0 1 0 0.5 0.5 0 1 0.1666666666666667 0.8333333333333333 0.2857142857142857 0.7142857142857142 0.2857142857142857 0.7142857142857142 1 0 0.6666666666666666 0.3333333333333333 0.25 0.75 0.2 0.8 0 1 0.1666666666666667 0.8333333333333333 0.2857142857142857 0.7142857142857142 0.2857142857142857 0.7142857142857142 0.375 0.625 0.375 0.625 0.4444444444444444 0.5555555555555556 0.4444444444444444 0.5555555555555556 0.4444444444444444 0.5555555555555556 0.3333333333333333 0.6666666666666666 0.4 0.6000000000000001 0.4 0.6000000000000001 0.4 0.6000000000000001 0.4 0.6000000000000001 0.4545454545454546 0.5454545454545454 0.1818181818181818 0.8181818181818182</probabilities>
		</cpt>
		<cpt id="Forge">
			<state id="Absent" />
			<state id="Present" />
			<parents>Pylon TimePeriod</parents>
			<probabilities>1 0 1 0 1 0 1 0 1 0 1 0 1 0 1 0 1 0 1 0 1 0 1 0 1 0 1 0 1 0 1 0 1 0 1 0 1 0 1 0 1 0 1 0 1 0 1 0 1 0 0.5 0.5 1 0 0.7272727272727273 0.2727272727272727 0.6363636363636364 0.3636363636363637 0.6363636363636364 0.3636363636363637 0.6363636363636364 0.3636363636363637 0.6363636363636364 0.3636363636363637 0.5454545454545454 0.4545454545454546 0.5454545454545454 0.4545454545454546 0.5454545454545454 0.4545454545454546 0.5454545454545454 0.4545454545454546 0.5454545454545454 0.4545454545454546 0.4545454545454546 0.5454545454545454 0.4545454545454546 0.5454545454545454 0.1818181818181818 0.8181818181818182 0.09090909090909091 0.9090909090909092 0.09090909090909091 0.9090909090909092 0.09090909090909091 0.9090909090909092 0.09090909090909091 0.9090909090909092 0.09090909090909091 0.9090909090909092 0.09090909090909091 0.9090909090909092 0.09090909090909091 0.9090909090909092 0.09090909090909091 0.9090909090909092 0.09090909090909091 0.9090909090909092 0 1</probabilities>
		</cpt>
		<cpt id="PhotonCannon">
			<state id="Absent" />
			<state id="Present" />
			<parents>Forge TimePeriod</parents>
			<probabilities>1 0 1 0 1 0 1 0 1 0 1 0 1 0 1 0 1 0 1 0 1 0 1 0 1 0 1 0 1 0 1 0 1 0 1 0 1 0 1 0 1 0 1 0 1 0 1 0 1 0 0.5 0.5 0 1 1 0 0.5 0.5 0 1 0 1 0 1 0.2 0.8 0 1 0 1 0 1 0 1 0.1666666666666667 0.8333333333333333 0.1666666666666667 0.8333333333333333 0.4444444444444444 0.5555555555555556 0.4 0.6000000000000001 0.1 0.9 0 1 0 1 0 1 0 1 0 1 0 1 0 1 0.09090909090909091 0.9090909090909092</probabilities>
		</cpt>
		<cpt id="Stargate">
			<state id="Absent" />
			<state id="Present" />
			<parents>CyberCore Assimilator TimePeriod</parents>
			<probabilities>1 0 1 0 1 0 1 0 1 0 1 0 1 0 1 0 1 0 1 0 1 0 1 0 1 0 1 0 1 0 1 0 1 0 1 0 1 0 1 0 1 0 1 0 1 0 1 0 1 0 1 0 1 0 0.5 0.5 1 0 1 0 1 0 1 0 1 0 1 0 1 0 1 0 1 0 1 0 1 0 1 0 0.5 0.5 0.5 0.5 0.5 0.5 0.5 0.5 0.5 0.5 0.5 0.5 0.5 0.5 0.5 0.5 0.5 0.5 0.5 0.5 1 0 1 0 0.5 0.5 0.5 0.5 0.5 0.5 0.5 0.5 0.5 0.5 0.5 0.5 0.5 0.5 0.5 0.5 0.5 0.5 0.5 0.5 0.5 0.5 0.5 0.5 0.5 0.5 0.5 0.5 0.5 0.5 0.5 0.5 0.5 0.5 0.5 0.5 0.5 0.5 0.5 0.5 0.5 0.5 0.5 0.5 0.5 0.5 0.5 0.5 0.6000000000000001 0.4 1 0 1 0 1 0 1 0 0.8888888888888888 0.1111111111111111 0.7000000000000001 0.3 0.7000000000000001 0.3 0.6000000000000001 0.4 0.5 0.5 0.5 0.5 0.5 0.5 0.5 0.5 0.5 0.5 0.4 0.6000000000000001 0.3 0.7000000000000001 0.2 0.8 0.2 0.8 0.2727272727272727 0.7272727272727273 0.2727272727272727 0.7272727272727273 0.2727272727272727 0.7272727272727273 0.2727272727272727 0.7272727272727273 0.1818181818181818 0.8181818181818182 0.09090909090909091 0.9090909090909092</probabilities>
		</cpt>
		<cpt id="Observatory">
			<state id="Absent" />
			<state id="Present" />
			<parents>RoboticsFacility TimePeriod</parents>
			<probabilities>1 0 1 0 1 0 1 0 1 0 1 0 1 0 1 0 1 0 1 0 1 0 1 0 1 0 1 0 1 0 1 0 1 0 1 0 1 0 1 0 1 0 1 0 1 0 1 0 1 0 0.5 0.5 0.6000000000000001 0.4 0.3333333333333333 0.6666666666666666 0.4285714285714286 0.5714285714285714 0.2857142857142857 0.7142857142857142 1 0 1 0 1 0 0.8 0.2 0.6000000000000001 0.4 0.3333333333333333 0.6666666666666666 0.4285714285714286 0.5714285714285714 0.2857142857142857 0.7142857142857142 0.375 0.625 0.125 0.875 0.2222222222222222 0.7777777777777777 0.2222222222222222 0.7777777777777777 0.1111111111111111 0.8888888888888888 0.1111111111111111 0.8888888888888888 0 1 0 1 0 1 0 1 0.09090909090909091 0.9090909090909092 0 1</probabilities>
		</cpt>
		<cpt id="ArbiterTribunal">
			<state id="Absent" />
			<state id="Present" />
			<parents>TemplarArchives Stargate TimePeriod</parents>
			<probabilities>1 0 1 0 1 0 1 0 1 0 1 0 1 0 1 0 1 0 1 0 1 0 1 0 1 0 1 0 1 0 1 0 1 0 1 0 1 0 1 0 1 0 1 0 1 0 1 0 1 0 1 0 1 0 1 0 1 0 0.5 0.5 0.5 0.5 1 0 1 0 1 0 1 0 1 0 1 0 1 0 1 0 1 0 0.5 0.5 0.5 0.5 0.5 0.5 0.5 0.5 0.5 0.5 0.5 0.5 0.5 0.5 1 0 1 0 1 0 1 0 1 0 0.5 0.5 0.5 0.5 0.5 0.5 1 0 1 0 1 0 1 0 0.5 0.5 0.5 0.5 1 0 1 0 1 0 1 0 1 0 1 0 1 0 0.5 0.5 0.5 0.5 0.5 0.5 1 0 1 0 1 0 1 0 0.5 0.5 1 0 1 0 1 0 1 0 1 0 1 0 1 0 1 0 1 0 1 0 1 0 1 0 1 0 1 0 1 0 0.8571428571428571 0.1428571428571429 0.875 0.125 0.875 0.125 0.875 0.125 0.75 0.25 0.75 0.25 0.75 0.25 0.7777777777777777 0.2222222222222222 0.7000000000000001 0.3</probabilities>
		</cpt>
		<cpt id="FleetBeacon">
			<state id="Absent" />
			<state id="Present" />
			<parents>Stargate TimePeriod</parents>
			<probabilities>1 0 1 0 1 0 1 0 1 0 1 0 1 0 1 0 1 0 1 0 1 0 1 0 1 0 1 0 1 0 1 0 1 0 1 0 1 0 1 0 1 0 1 0 1 0 1 0 1 0 0.5 0.5 1 0 1 0 1 0 1 0 1 0 1 0 1 0 1 0 1 0 1 0 1 0 1 0 1 0 1 0 1 0 1 0 0.875 0.125 0.875 0.125 0.875 0.125 0.875 0.125 0.875 0.125 0.875 0.125 0.8888888888888888 0.1111111111111111 0.7000000000000001 0.3</probabilities>
		</cpt>
		<cpt id="ShieldBattery">
			<state id="Absent" />
			<state id="Present" />
			<parents>Gateway TimePeriod</parents>
			<probabilities>1 0 1 0 1 0 1 0 1 0 1 0 1 0 1 0 1 0 1 0 1 0 1 0 1 0 1 0 1 0 1 0 1 0 1 0 1 0 1 0 1 0 1 0 1 0 1 0 1 0 0.5 0.5 1 0 1 0 1 0 1 0 1 0 1 0 1 0 1 0 1 0 1 0 1 0 1 0 1 0 1 0 1 0 1 0 1 0 1 0 1 0 1 0 1 0 1 0 1 0 0.9090909090909092 0.09090909090909091</probabilities>
		</cpt>
		<cpt id="Dragoon">
			<state id="Absent" />
			<state id="Present" />
			<parents>CyberCore Assimilator TimePeriod</parents>
			<probabilities>1 0 1 0 1 0 1 0 1 0 1 0 1 0 1 0 1 0 1 0 1 0 1 0 1 0 1 0 1 0 1 0 1 0 1 0 1 0 1 0 1 0 1 0 1 0 1 0 1 0 1 0 1 0 1 0 1 0 1 0 1 0 1 0 1 0 1 0 1 0 1 0 1 0 1 0 1 0 1 0 1 0 1 0 1 0 1 0 1 0 1 0 1 0 1 0 1 0 1 0 1 0 1 0 1 0 1 0 1 0 1 0 1 0 1 0 1 0 1 0 1 0 1 0 1 0 1 0 1 0 1 0 1 0 1 0 1 0 1 0 1 0 1 0 1 0 1 0 1 0 0.5 0.5 0.5 0.5 1 0 0.8 0.2 0.1666666666666667 0.8333333333333333 0.4444444444444444 0.5555555555555556 0.4444444444444444 0.5555555555555556 0.5 0.5 0.5 0.5 0.5 0.5 0.5 0.5 0.5 0.5 0.5 0.5 0.5 0.5 0.5 0.5 0.4 0.6000000000000001 0.3 0.7000000000000001 0.2 0.8 0.2 0.8 0.2727272727272727 0.7272727272727273 0.1818181818181818 0.8181818181818182 0 1 0 1 0 1 0 1</probabilities>
		</cpt>
		<cpt id="HighTemplar">
			<state id="Absent" />
			<state id="Present" />
			<parents>TemplarArchives TimePeriod</parents>
			<probabilities>1 0 1 0 1 0 1 0 1 0 1 0 1 0 1 0 1 0 1 0 1 0 1 0 1 0 1 0 1 0 1 0 1 0 1 0 1 0 1 0 1 0 1 0 1 0 1 0 1 0 0.5 0.5 1 0 0.3333333333333333 0.6666666666666666 0 1 0.4 0.6000000000000001 0.1666666666666667 0.8333333333333333 0.2857142857142857 0.7142857142857142 1 0 1 0 1 0 0.3333333333333333 0.6666666666666666 0 1 0.4 0.6000000000000001 0.1666666666666667 0.8333333333333333 0.2857142857142857 0.7142857142857142 0.375 0.625 0.375 0.625 0.375 0.625 0.375 0.625 0.25 0.75 0.25 0.75 0.2222222222222222 0.7777777777777777 0.3 0.7000000000000001 0.3 0.7000000000000001 0 1</probabilities>
		</cpt>
		<cpt id="Shuttle">
			<state id="Absent" />
			<state id="Present" />
			<parents>RoboticsFacility TimePeriod</parents>
			<probabilities>1 0 1 0 1 0 1 0 1 0 1 0 1 0 1 0 1 0 1 0 1 0 1 0 1 0 1 0 1 0 1 0 1 0 1 0 1 0 1 0 1 0 1 0 1 0 1 0 1 0 0.5 0.5 0.2 0.8 0.3333333333333333 0.6666666666666666 0.1428571428571429 0.8571428571428571 0.1428571428571429 0.8571428571428571 1 0 0.6666666666666666 0.3333333333333333 0.25 0.75 0.4 0.6000000000000001 0.2 0.8 0.3333333333333333 0.6666666666666666 0.1428571428571429 0.8571428571428571 0.1428571428571429 0.8571428571428571 0 1 0 1 0.1111111111111111 0.8888888888888888 0 1 0 1 0 1 0.1 0.9 0 1 0 1 0 1 0.09090909090909091 0.9090909090909092 0.09090909090909091 0.9090909090909092</probabilities>
		</cpt>
		<cpt id="Reaver">
			<state id="Absent" />
			<state id="Present" />
			<parents>RoboticsSupportBay TimePeriod</parents>
			<probabilities>1 0 1 0 1 0 1 0 1 0 1 0 1 0 1 0 1 0 1 0 1 0 1 0 1 0 1 0 1 0 1 0 1 0 1 0 1 0 1 0 1 0 1 0 1 0 1 0 1 0 0.5 0.5 0.2 0.8 0 1 0 1 0 1 0 1 1 0 0.3333333333333333 0.6666666666666666 0.25 0.75 0.2 0.8 0 1 0 1 0 1 0 1 0 1 0 1 0 1 0 1 0.1666666666666667 0.8333333333333333 0.1666666666666667 0.8333333333333333 0 1 0 1 0 1 0 1 0 1</probabilities>
		</cpt>
		<cpt id="Observer">
			<state id="Absent" />
			<state id="Present" />
			<parents>Observatory TimePeriod</parents>
			<probabilities>1 0 1 0 1 0 1 0 1 0 1 0 1 0 1 0 1 0 1 0 1 0 1 0 1 0 1 0 1 0 1 0 1 0 1 0 1 0 1 0 1 0 1 0 1 0 1 0 1 0 0.5 0.5 0.5 0.5 0.25 0.75 0 1 0.2 0.8 0 1 0.2857142857142857 0.7142857142857142 0.2857142857142857 0.7142857142857142 1 0 0.5 0.5 0.25 0.75 0 1 0.2 0.8 0 1 0.2857142857142857 0.7142857142857142 0.2857142857142857 0.7142857142857142 0.1428571428571429 0.8571428571428571 0.25 0.75 0 1 0.2 0.8 0.2 0.8 0 1 0 1 0 1 0 1</probabilities>
		</cpt>
		<cpt id="Carrier">
			<state id="Absent" />
			<state id="Present" />
			<parents>FleetBeacon TimePeriod</parents>
			<probabilities>1 0 1 0 1 0 1 0 1 0 1 0 1 0 1 0 1 0 1 0 1 0 1 0 1 0 1 0 1 0 1 0 1 0 1 0 1 0 1 0 1 0 1 0 1 0 1 0 1 0 0.5 0.5 0.5 0.5 0.5 0.5 0.5 0.5 0.5 0.5 0.5 0.5 0.5 0.5 0.5 0.5 0.5 0.5 1 0 1 0 0.5 0.5 1 0 0 1 0 1 0 1 0 1 1 0 1 0 1 0 0 1 0 1 0 1 0 1 0 1</probabilities>
		</cpt>
		<cpt id="Scout">
			<state id="Absent" />
			<state id="Present" />
			<parents>Stargate TimePeriod</parents>
			<probabilities>1 0 1 0 1 0 1 0 1 0 1 0 1 0 1 0 1 0 1 0 1 0 1 0 1 0 1 0 1 0 1 0 1 0 1 0 1 0 1 0 1 0 1 0 1 0 1 0 1 0 0.5 0.5 1 0 1 0 1 0 1 0 1 0 1 0 1 0 1 0 1 0 1 0 1 0 1 0 1 0 1 0 1 0 1 0 1 0 1 0 1 0 1 0 1 0 1 0 1 0 1 0</probabilities>
		</cpt>
		<cpt id="Corsair">
			<state id="Absent" />
			<state id="Present" />
			<parents>Stargate TimePeriod</parents>
			<probabilities>1 0 1 0 1 0 1 0 1 0 1 0 1 0 1 0 1 0 1 0 1 0 1 0 1 0 1 0 1 0 1 0 1 0 1 0 1 0 1 0 1 0 1 0 1 0 1 0 1 0 0.5 0.5 0.25 0.75 0.4 0.6000000000000001 0 1 0 1 0 1 1 0 0 1 0 1 0.25 0.75 0.4 0.6000000000000001 0 1 0 1 0 1 0 1 0.1666666666666667 0.8333333333333333 0.2857142857142857 0.7142857142857142 0.375 0.625 0.375 0.625 0.375 0.625 0.375 0.625 0.375 0.625 0.375 0.625 0.4444444444444444 0.5555555555555556 0.5 0.5</probabilities>
		</cpt>
		<cpt id="Arbiter">
			<state id="Absent" />
			<state id="Present" />
			<parents>ArbiterTribunal TimePeriod</parents>
			<probabilities>1 0 1 0 1 0 1 0 1 0 1 0 1 0 1 0 1 0 1 0 1 0 1 0 1 0 1 0 1 0 1 0 1 0 1 0 1 0 1 0 1 0 1 0 1 0 1 0 1 0 0.5 0.5 0.5 0.5 0.5 0.5 0.5 0.5 0.5 0.5 0.5 0.5 0.5 0.5 0.5 0.5 1 0 1 0 1 0 0.5 0.5 0 1 0.5 0.5 0.5 0.5 0.5 0.5 1 0 1 0 1 0 0 1 0.5 0.5 0.5 0.5 0.5 0.5 0 1 0 1</probabilities>
		</cpt>
		<cpt id="DarkArchon">
			<state id="Absent" />
			<state id="Present" />
			<parents>DarkTemplar TimePeriod</parents>
			<probabilities>1 0 1 0 1 0 1 0 1 0 1 0 1 0 1 0 1 0 1 0 1 0 1 0 1 0 1 0 1 0 1 0 1 0 1 0 1 0 1 0 1 0 1 0 1 0 1 0 1 0 0.5 0.5 1 0 1 0 1 0 1 0 1 0 1 0 1 0 1 0 1 0 1 0 1 0 1 0 1 0 1 0 1 0 1 0 1 0 1 0 1 0 1 0 1 0 1 0 1 0 0.75 0.25</probabilities>
		</cpt>
		<cpt id="Archon">
			<state id="Absent" />
			<state id="Present" />
			<parents>HighTemplar TimePeriod</parents>
			<probabilities>1 0 1 0 1 0 1 0 1 0 1 0 1 0 1 0 1 0 1 0 1 0 1 0 1 0 1 0 1 0 1 0 1 0 1 0 1 0 1 0 1 0 1 0 1 0 1 0 1 0 0.5 0.5 0.5 0.5 1 0 0.6666666666666666 0.3333333333333333 0.6666666666666666 0.3333333333333333 0.8 0.2 0.8 0.2 0.8 0.2 0.8 0.2 0.8 0.2 1 0 0.6666666666666666 0.3333333333333333 0.6666666666666666 0.3333333333333333 0.8 0.2 0.8 0.2 0.8 0.2 0.8 0.2 0.8 0.2 0.8 0.2 0.8333333333333333 0.1666666666666667 0.8333333333333333 0.1666666666666667 0.8571428571428571 0.1428571428571429 0.5714285714285714 0.4285714285714286 0.5714285714285714 0.4285714285714286 0.4545454545454546 0.5454545454545454</probabilities>
		</cpt>
	</nodes>
</smile>
