<?xml version="1.0" encoding="ISO-8859-1"?>
<smile version="1.0" id="Network1" numsamples="1000" discsamples="10000">
	<nodes>
		<cpt id="TimePeriod">
			<state id="Period1" />
			<state id="Period2" />
			<state id="Period3" />
			<state id="Period4" />
			<state id="Period5" />
			<state id="Period6" />
			<state id="Period7" />
			<state id="Period8" />
			<state id="Period9" />
			<state id="Period10" />
			<state id="Period11" />
			<state id="Period12" />
			<state id="Period13" />
			<state id="Period14" />
			<state id="Period15" />
			<state id="Period16" />
			<state id="Period17" />
			<state id="Period18" />
			<state id="Period19" />
			<state id="Period20" />
			<state id="Period21" />
			<state id="Period22" />
			<state id="Period23" />
			<state id="Period24" />
			<state id="Period25" />
			<probabilities>0.04000000000000002 0.04000000000000002 0.04000000000000002 0.04000000000000002 0.04000000000000002 0.04000000000000002 0.04000000000000002 0.04000000000000002 0.04000000000000002 0.04000000000000002 0.04000000000000002 0.04000000000000002 0.04000000000000002 0.04000000000000002 0.04000000000000002 0.04000000000000002 0.04000000000000002 0.04000000000000002 0.04000000000000002 0.04000000000000002 0.04000000000000002 0.04000000000000002 0.04000000000000002 0.04000000000000002 0.04000000000000002</probabilities>
		</cpt>
		<cpt id="Assimilator">
			<state id="Absent" />
			<state id="Present" />
			<parents>TimePeriod</parents>
			<probabilities>1 0 0.3333333333333333 0.6666666666666666 0.3333333333333333 0.6666666666666666 0.3333333333333333 0.6666666666666666 0.3333333333333333 0.6666666666666666 0.3333333333333333 0.6666666666666666 0.3333333333333333 0.6666666666666666 0.3333333333333333 0.6666666666666666 0.3333333333333333 0.6666666666666666 0.3333333333333333 0.6666666666666666 0.3333333333333333 0.6666666666666666 1 0 0.3333333333333333 0.6666666666666666 0.3333333333333333 0.6666666666666666 0.3333333333333333 0.6666666666666666 0.3333333333333333 0.6666666666666666 0.3333333333333333 0.6666666666666666 0.3333333333333333 0.6666666666666666 0.3333333333333333 0.6666666666666666 0.3333333333333333 0.6666666666666666 0.3333333333333333 0.6666666666666666 0.3333333333333333 0.6666666666666666 0.3333333333333333 0.6666666666666666 0.3333333333333333 0.6666666666666666 0.3333333333333333 0.6666666666666666</probabilities>
		</cpt>
		<cpt id="Pylon">
			<state id="Absent" />
			<state id="Present" />
			<parents>TimePeriod</parents>
			<probabilities>1 0 0.3333333333333333 0.6666666666666666 0.3333333333333333 0.6666666666666666 0.3333333333333333 0.6666666666666666 0.3333333333333333 0.6666666666666666 0.3333333333333333 0.6666666666666666 0.3333333333333333 0.6666666666666666 0.3333333333333333 0.6666666666666666 0.3333333333333333 0.6666666666666666 0.3333333333333333 0.6666666666666666 0.3333333333333333 0.6666666666666666 0.3333333333333333 0.6666666666666666 0.3333333333333333 0.6666666666666666 0.3333333333333333 0.6666666666666666 0.3333333333333333 0.6666666666666666 0.3333333333333333 0.6666666666666666 0.3333333333333333 0.6666666666666666 0.3333333333333333 0.6666666666666666 0.3333333333333333 0.6666666666666666 0.3333333333333333 0.6666666666666666 0.3333333333333333 0.6666666666666666 0.3333333333333333 0.6666666666666666 0.3333333333333333 0.6666666666666666 0.3333333333333333 0.6666666666666666 0.3333333333333333 0.6666666666666666</probabilities>
		</cpt>
		<cpt id="Gateway">
			<state id="Absent" />
			<state id="Present" />
			<parents>Pylon TimePeriod</parents>
			<probabilities>1 0 1 0 1 0 1 0 1 0 1 0 1 0 1 0 1 0 1 0 1 0 1 0 1 0 1 0 1 0 1 0 1 0 1 0 1 0 1 0 1 0 1 0 1 0 1 0 1 0 1 0 0.3333333333333333 0.6666666666666666 0.3333333333333333 0.6666666666666666 0.3333333333333333 0.6666666666666666 0.3333333333333333 0.6666666666666666 0.3333333333333333 0.6666666666666666 0.3333333333333333 0.6666666666666666 0.3333333333333333 0.6666666666666666 0.3333333333333333 0.6666666666666666 0.3333333333333333 0.6666666666666666 0.3333333333333333 0.6666666666666666 0.3333333333333333 0.6666666666666666 0.3333333333333333 0.6666666666666666 0.3333333333333333 0.6666666666666666 0.3333333333333333 0.6666666666666666 0.3333333333333333 0.6666666666666666 0.3333333333333333 0.6666666666666666 0.3333333333333333 0.6666666666666666 0.3333333333333333 0.6666666666666666 0.3333333333333333 0.6666666666666666 0.3333333333333333 0.6666666666666666 0.3333333333333333 0.6666666666666666 0.3333333333333333 0.6666666666666666 0.3333333333333333 0.6666666666666666 0.3333333333333333 0.6666666666666666</probabilities>
		</cpt>
		<cpt id="Zealot">
			<state id="Absent" />
			<state id="Present" />
			<parents>Gateway TimePeriod</parents>
			<probabilities>1 0 1 0 1 0 1 0 1 0 1 0 1 0 1 0 1 0 1 0 1 0 1 0 1 0 1 0 1 0 1 0 1 0 1 0 1 0 1 0 1 0 1 0 1 0 1 0 1 0 1 0 0.3333333333333333 0.6666666666666666 0.3333333333333333 0.6666666666666666 0.3333333333333333 0.6666666666666666 0.3333333333333333 0.6666666666666666 0.3333333333333333 0.6666666666666666 0.3333333333333333 0.6666666666666666 0.3333333333333333 0.6666666666666666 0.3333333333333333 0.6666666666666666 0.3333333333333333 0.6666666666666666 0.3333333333333333 0.6666666666666666 1 0 0.3333333333333333 0.6666666666666666 0.3333333333333333 0.6666666666666666 0.3333333333333333 0.6666666666666666 0.3333333333333333 0.6666666666666666 0.3333333333333333 0.6666666666666666 0.3333333333333333 0.6666666666666666 0.3333333333333333 0.6666666666666666 0.3333333333333333 0.6666666666666666 0.3333333333333333 0.6666666666666666 0.3333333333333333 0.6666666666666666 0.3333333333333333 0.6666666666666666 0.3333333333333333 0.6666666666666666 0.3333333333333333 0.6666666666666666</probabilities>
		</cpt>
		<cpt id="CyberCore">
			<state id="Absent" />
			<state id="Present" />
			<parents>Gateway TimePeriod</parents>
			<probabilities>1 0 1 0 1 0 1 0 1 0 1 0 1 0 1 0 1 0 1 0 1 0 1 0 1 0 1 0 1 0 1 0 1 0 1 0 1 0 1 0 1 0 1 0 1 0 1 0 1 0 1 0 0.3333333333333333 0.6666666666666666 0.3333333333333333 0.6666666666666666 0.3333333333333333 0.6666666666666666 0.3333333333333333 0.6666666666666666 0.3333333333333333 0.6666666666666666 0.3333333333333333 0.6666666666666666 0.3333333333333333 0.6666666666666666 0.3333333333333333 0.6666666666666666 0.3333333333333333 0.6666666666666666 0.3333333333333333 0.6666666666666666 1 0 0.3333333333333333 0.6666666666666666 0.3333333333333333 0.6666666666666666 0.3333333333333333 0.6666666666666666 0.3333333333333333 0.6666666666666666 0.3333333333333333 0.6666666666666666 0.3333333333333333 0.6666666666666666 1 0 0.6666666666666666 0.3333333333333333 0.3333333333333333 0.6666666666666666 0.3333333333333333 0.6666666666666666 0.3333333333333333 0.6666666666666666 0.3333333333333333 0.6666666666666666 0.3333333333333333 0.6666666666666666</probabilities>
		</cpt>
		<cpt id="CitadelOfAdun">
			<state id="Absent" />
			<state id="Present" />
			<parents>CyberCore Assimilator TimePeriod</parents>
			<probabilities>1 0 1 0 1 0 1 0 1 0 1 0 1 0 1 0 1 0 1 0 1 0 1 0 1 0 1 0 1 0 1 0 1 0 1 0 1 0 1 0 1 0 1 0 1 0 1 0 1 0 1 0 1 0 1 0 1 0 1 0 1 0 1 0 1 0 1 0 1 0 1 0 1 0 1 0 1 0 1 0 1 0 1 0 1 0 1 0 1 0 1 0 1 0 1 0 1 0 1 0 1 0 1 0 1 0 1 0 1 0 1 0 1 0 1 0 1 0 1 0 1 0 1 0 1 0 1 0 1 0 1 0 1 0 1 0 1 0 1 0 1 0 1 0 1 0 1 0 1 0 1 0 1 0 1 0 0.6666666666666666 0.3333333333333333 0.6666666666666666 0.3333333333333333 0.6666666666666666 0.3333333333333333 0.6666666666666666 0.3333333333333333 0.6666666666666666 0.3333333333333333 0.3333333333333333 0.6666666666666666 0.3333333333333333 0.6666666666666666 0.3333333333333333 0.6666666666666666 1 0 0.3333333333333333 0.6666666666666666 0.3333333333333333 0.6666666666666666 0.3333333333333333 0.6666666666666666 0.3333333333333333 0.6666666666666666 0.3333333333333333 0.6666666666666666 0.3333333333333333 0.6666666666666666 1 0 1 0 1 0 1 0 1 0 1 0 1 0</probabilities>
		</cpt>
		<cpt id="TemplarArchives">
			<state id="Absent" />
			<state id="Present" />
			<parents>CitadelOfAdun TimePeriod</parents>
			<probabilities>1 0 1 0 1 0 1 0 1 0 1 0 1 0 1 0 1 0 1 0 1 0 1 0 1 0 1 0 1 0 1 0 1 0 1 0 1 0 1 0 1 0 1 0 1 0 1 0 1 0 1 0 1 0 1 0 1 0 1 0 1 0 1 0 1 0 1 0 0.6666666666666666 0.3333333333333333 0.3333333333333333 0.6666666666666666 1 0 0.3333333333333333 0.6666666666666666 0.3333333333333333 0.6666666666666666 0.3333333333333333 0.6666666666666666 0.3333333333333333 0.6666666666666666 0.3333333333333333 0.6666666666666666 0.3333333333333333 0.6666666666666666 1 0 1 0 1 0 1 0 1 0 1 0 1 0</probabilities>
		</cpt>
		<cpt id="DarkTemplar">
			<state id="Absent" />
			<state id="Present" />
			<parents>TemplarArchives TimePeriod</parents>
			<probabilities>1 0 1 0 1 0 1 0 1 0 1 0 1 0 1 0 1 0 1 0 1 0 1 0 1 0 1 0 1 0 1 0 1 0 1 0 1 0 1 0 1 0 1 0 1 0 1 0 1 0 1 0 1 0 1 0 1 0 1 0 1 0 1 0 1 0 1 0 1 0 1 0 1 0 1 0 1 0 1 0 1 0 1 0 0.6666666666666666 0.3333333333333333 1 0 1 0 1 0 1 0 1 0 1 0 1 0</probabilities>
		</cpt>
		<cpt id="RoboticsFacility">
			<state id="Absent" />
			<state id="Present" />
			<parents>CyberCore Assimilator TimePeriod</parents>
			<probabilities>1 0 1 0 1 0 1 0 1 0 1 0 1 0 1 0 1 0 1 0 1 0 1 0 1 0 1 0 1 0 1 0 1 0 1 0 1 0 1 0 1 0 1 0 1 0 1 0 1 0 1 0 1 0 1 0 1 0 1 0 1 0 1 0 1 0 1 0 1 0 1 0 1 0 1 0 1 0 1 0 1 0 1 0 1 0 1 0 1 0 1 0 1 0 1 0 1 0 1 0 1 0 1 0 1 0 1 0 1 0 1 0 1 0 1 0 1 0 1 0 1 0 1 0 1 0 1 0 1 0 1 0 1 0 1 0 1 0 1 0 1 0 1 0 1 0 1 0 1 0 1 0 0.3333333333333333 0.6666666666666666 0.3333333333333333 0.6666666666666666 0.3333333333333333 0.6666666666666666 0.3333333333333333 0.6666666666666666 0.3333333333333333 0.6666666666666666 0.3333333333333333 0.6666666666666666 0.3333333333333333 0.6666666666666666 0.3333333333333333 0.6666666666666666 0.3333333333333333 0.6666666666666666 0.3333333333333333 0.6666666666666666 1 0 0.3333333333333333 0.6666666666666666 0.3333333333333333 0.6666666666666666 0.3333333333333333 0.6666666666666666 0.3333333333333333 0.6666666666666666 0.3333333333333333 0.6666666666666666 0.3333333333333333 0.6666666666666666 1 0 1 0 1 0 1 0 1 0 0.6666666666666666 0.3333333333333333 0.3333333333333333 0.6666666666666666</probabilities>
		</cpt>
		<cpt id="RoboticsSupportBay">
			<state id="Absent" />
			<state id="Present" />
			<parents>RoboticsFacility TimePeriod</parents>
			<probabilities>1 0 1 0 1 0 1 0 1 0 1 0 1 0 1 0 1 0 1 0 1 0 1 0 1 0 1 0 1 0 1 0 1 0 1 0 1 0 1 0 1 0 1 0 1 0 1 0 1 0 1 0 0.3333333333333333 0.6666666666666666 0.3333333333333333 0.6666666666666666 0.3333333333333333 0.6666666666666666 0.3333333333333333 0.6666666666666666 0.3333333333333333 0.6666666666666666 0.3333333333333333 0.6666666666666666 0.3333333333333333 0.6666666666666666 0.3333333333333333 0.6666666666666666 0.3333333333333333 0.6666666666666666 0.3333333333333333 0.6666666666666666 1 0 0.3333333333333333 0.6666666666666666 0.3333333333333333 0.6666666666666666 0.3333333333333333 0.6666666666666666 0.3333333333333333 0.6666666666666666 0.3333333333333333 0.6666666666666666 0.3333333333333333 0.6666666666666666 1 0 1 0 1 0 1 0 1 0 1 0 0.6666666666666666 0.3333333333333333</probabilities>
		</cpt>
		<cpt id="Forge">
			<state id="Absent" />
			<state id="Present" />
			<parents>Pylon TimePeriod</parents>
			<probabilities>1 0 1 0 1 0 1 0 1 0 1 0 1 0 1 0 1 0 1 0 1 0 1 0 1 0 1 0 1 0 1 0 1 0 1 0 1 0 1 0 1 0 1 0 1 0 1 0 1 0 1 0 1 0 1 0 1 0 0.6666666666666666 0.3333333333333333 0.6666666666666666 0.3333333333333333 0.6666666666666666 0.3333333333333333 0.6666666666666666 0.3333333333333333 0.6666666666666666 0.3333333333333333 0.6666666666666666 0.3333333333333333 0.6666666666666666 0.3333333333333333 1 0 0.6666666666666666 0.3333333333333333 0.6666666666666666 0.3333333333333333 0.6666666666666666 0.3333333333333333 0.6666666666666666 0.3333333333333333 0.3333333333333333 0.6666666666666666 0.3333333333333333 0.6666666666666666 1 0 1 0 1 0 1 0 1 0 1 0 1 0</probabilities>
		</cpt>
		<cpt id="PhotonCannon">
			<state id="Absent" />
			<state id="Present" />
			<parents>Forge TimePeriod</parents>
			<probabilities>1 0 1 0 1 0 1 0 1 0 1 0 1 0 1 0 1 0 1 0 1 0 1 0 1 0 1 0 1 0 1 0 1 0 1 0 1 0 1 0 1 0 1 0 1 0 1 0 1 0 1 0 1 0 1 0 1 0 1 0 1 0 0.5 0.5 0.5 0.5 0.5 0.5 0.5 0.5 0.5 0.5 1 0 0.5 0.5 0.5 0.5 0.5 0.5 0.5 0.5 0.6666666666666666 0.3333333333333333 0.3333333333333333 0.6666666666666666 1 0 1 0 1 0 1 0 1 0 1 0 1 0</probabilities>
		</cpt>
		<cpt id="Stargate">
			<state id="Absent" />
			<state id="Present" />
			<parents>CyberCore Assimilator TimePeriod</parents>
			<probabilities>1 0 1 0 1 0 1 0 1 0 1 0 1 0 1 0 1 0 1 0 1 0 1 0 1 0 1 0 1 0 1 0 1 0 1 0 1 0 1 0 1 0 1 0 1 0 1 0 1 0 1 0 1 0 1 0 1 0 1 0 1 0 1 0 1 0 1 0 1 0 1 0 1 0 1 0 1 0 1 0 1 0 1 0 1 0 1 0 1 0 1 0 1 0 1 0 1 0 1 0 1 0 1 0 1 0 1 0 1 0 1 0 1 0 1 0 1 0 1 0 1 0 1 0 1 0 1 0 1 0 1 0 1 0 1 0 1 0 1 0 1 0 1 0 1 0 1 0 1 0 1 0 1 0 1 0 1 0 1 0 1 0 1 0 1 0 1 0 1 0 1 0 1 0 1 0 1 0 1 0 1 0 1 0 1 0 1 0 1 0 1 0 1 0 1 0 1 0 1 0</probabilities>
		</cpt>
		<cpt id="Observatory">
			<state id="Absent" />
			<state id="Present" />
			<parents>RoboticsFacility TimePeriod</parents>
			<probabilities>1 0 1 0 1 0 1 0 1 0 1 0 1 0 1 0 1 0 1 0 1 0 1 0 1 0 1 0 1 0 1 0 1 0 1 0 1 0 1 0 1 0 1 0 1 0 1 0 1 0 1 0 0.3333333333333333 0.6666666666666666 0.3333333333333333 0.6666666666666666 0.3333333333333333 0.6666666666666666 0.3333333333333333 0.6666666666666666 0.3333333333333333 0.6666666666666666 0.3333333333333333 0.6666666666666666 0.3333333333333333 0.6666666666666666 0.3333333333333333 0.6666666666666666 0.3333333333333333 0.6666666666666666 0.3333333333333333 0.6666666666666666 1 0 0.3333333333333333 0.6666666666666666 0.3333333333333333 0.6666666666666666 0.3333333333333333 0.6666666666666666 0.3333333333333333 0.6666666666666666 0.3333333333333333 0.6666666666666666 0.3333333333333333 0.6666666666666666 1 0 1 0 1 0 1 0 1 0 1 0 1 0</probabilities>
		</cpt>
		<cpt id="ArbiterTribunal">
			<state id="Absent" />
			<state id="Present" />
			<parents>TemplarArchives Stargate TimePeriod</parents>
			<probabilities>1 0 1 0 1 0 1 0 1 0 1 0 1 0 1 0 1 0 1 0 1 0 1 0 1 0 1 0 1 0 1 0 1 0 1 0 1 0 1 0 1 0 1 0 1 0 1 0 1 0 1 0 1 0 1 0 1 0 1 0 1 0 1 0 1 0 1 0 1 0 1 0 1 0 1 0 1 0 1 0 1 0 1 0 1 0 1 0 1 0 1 0 1 0 1 0 1 0 1 0 1 0 1 0 1 0 1 0 1 0 1 0 1 0 1 0 1 0 1 0 1 0 1 0 1 0 1 0 1 0 1 0 1 0 1 0 1 0 1 0 1 0 1 0 1 0 1 0 1 0 1 0 1 0 1 0 1 0 1 0 1 0 1 0 1 0 1 0 1 0 1 0 1 0 1 0 1 0 1 0 1 0 1 0 1 0 1 0 1 0 1 0 1 0 1 0 1 0 1 0</probabilities>
		</cpt>
		<cpt id="FleetBeacon">
			<state id="Absent" />
			<state id="Present" />
			<parents>Stargate TimePeriod</parents>
			<probabilities>1 0 1 0 1 0 1 0 1 0 1 0 1 0 1 0 1 0 1 0 1 0 1 0 1 0 1 0 1 0 1 0 1 0 1 0 1 0 1 0 1 0 1 0 1 0 1 0 1 0 1 0 1 0 1 0 1 0 1 0 1 0 1 0 1 0 1 0 1 0 1 0 1 0 1 0 1 0 1 0 1 0 1 0 1 0 1 0 1 0 1 0 1 0 1 0 1 0 1 0</probabilities>
		</cpt>
		<cpt id="ShieldBattery">
			<state id="Absent" />
			<state id="Present" />
			<parents>Gateway TimePeriod</parents>
			<probabilities>1 0 1 0 1 0 1 0 1 0 1 0 1 0 1 0 1 0 1 0 1 0 1 0 1 0 1 0 1 0 1 0 1 0 1 0 1 0 1 0 1 0 1 0 1 0 1 0 1 0 1 0 1 0 1 0 1 0 1 0 1 0 1 0 1 0 1 0 1 0 1 0 1 0 1 0 1 0 1 0 1 0 1 0 1 0 1 0 1 0 1 0 1 0 1 0 1 0 1 0</probabilities>
		</cpt>
		<cpt id="Dragoon">
			<state id="Absent" />
			<state id="Present" />
			<parents>CyberCore Assimilator TimePeriod</parents>
			<probabilities>1 0 1 0 1 0 1 0 1 0 1 0 1 0 1 0 1 0 1 0 1 0 1 0 1 0 1 0 1 0 1 0 1 0 1 0 1 0 1 0 1 0 1 0 1 0 1 0 1 0 1 0 1 0 1 0 1 0 1 0 1 0 1 0 1 0 1 0 1 0 1 0 1 0 1 0 1 0 1 0 1 0 1 0 1 0 1 0 1 0 1 0 1 0 1 0 1 0 1 0 1 0 1 0 1 0 1 0 1 0 1 0 1 0 1 0 1 0 1 0 1 0 1 0 1 0 1 0 1 0 1 0 1 0 1 0 1 0 1 0 1 0 1 0 1 0 1 0 1 0 1 0 0.3333333333333333 0.6666666666666666 0.3333333333333333 0.6666666666666666 0.3333333333333333 0.6666666666666666 0.3333333333333333 0.6666666666666666 0.3333333333333333 0.6666666666666666 0.3333333333333333 0.6666666666666666 0.3333333333333333 0.6666666666666666 0.3333333333333333 0.6666666666666666 0.3333333333333333 0.6666666666666666 0.3333333333333333 0.6666666666666666 1 0 0.3333333333333333 0.6666666666666666 0.3333333333333333 0.6666666666666666 0.3333333333333333 0.6666666666666666 0.3333333333333333 0.6666666666666666 0.3333333333333333 0.6666666666666666 0.3333333333333333 0.6666666666666666 1 0 1 0 0.6666666666666666 0.3333333333333333 0.3333333333333333 0.6666666666666666 0.3333333333333333 0.6666666666666666 0.3333333333333333 0.6666666666666666 0.3333333333333333 0.6666666666666666</probabilities>
		</cpt>
		<cpt id="HighTemplar">
			<state id="Absent" />
			<state id="Present" />
			<parents>TemplarArchives TimePeriod</parents>
			<probabilities>1 0 1 0 1 0 1 0 1 0 1 0 1 0 1 0 1 0 1 0 1 0 1 0 1 0 1 0 1 0 1 0 1 0 1 0 1 0 1 0 1 0 1 0 1 0 1 0 1 0 1 0 1 0 1 0 1 0 1 0 1 0 1 0 1 0 1 0 0.5 0.5 0.6666666666666666 0.3333333333333333 1 0 0.6666666666666666 0.3333333333333333 0.6666666666666666 0.3333333333333333 0.3333333333333333 0.6666666666666666 0.3333333333333333 0.6666666666666666 0.3333333333333333 0.6666666666666666 0.3333333333333333 0.6666666666666666 1 0 1 0 1 0 1 0 1 0 1 0 1 0</probabilities>
		</cpt>
		<cpt id="Shuttle">
			<state id="Absent" />
			<state id="Present" />
			<parents>RoboticsFacility TimePeriod</parents>
			<probabilities>1 0 1 0 1 0 1 0 1 0 1 0 1 0 1 0 1 0 1 0 1 0 1 0 1 0 1 0 1 0 1 0 1 0 1 0 1 0 1 0 1 0 1 0 1 0 1 0 1 0 1 0 0.6666666666666666 0.3333333333333333 0.6666666666666666 0.3333333333333333 0.6666666666666666 0.3333333333333333 0.3333333333333333 0.6666666666666666 0.3333333333333333 0.6666666666666666 0.3333333333333333 0.6666666666666666 0.3333333333333333 0.6666666666666666 0.3333333333333333 0.6666666666666666 0.3333333333333333 0.6666666666666666 0.3333333333333333 0.6666666666666666 1 0 0.3333333333333333 0.6666666666666666 0.3333333333333333 0.6666666666666666 0.3333333333333333 0.6666666666666666 0.3333333333333333 0.6666666666666666 0.3333333333333333 0.6666666666666666 0.3333333333333333 0.6666666666666666 1 0 1 0 1 0 1 0 1 0 1 0 1 0</probabilities>
		</cpt>
		<cpt id="Reaver">
			<state id="Absent" />
			<state id="Present" />
			<parents>RoboticsSupportBay TimePeriod</parents>
			<probabilities>1 0 1 0 1 0 1 0 1 0 1 0 1 0 1 0 1 0 1 0 1 0 1 0 1 0 1 0 1 0 1 0 1 0 1 0 1 0 1 0 1 0 1 0 1 0 1 0 1 0 1 0 0.6666666666666666 0.3333333333333333 0.6666666666666666 0.3333333333333333 0.6666666666666666 0.3333333333333333 0.3333333333333333 0.6666666666666666 0.3333333333333333 0.6666666666666666 0.3333333333333333 0.6666666666666666 0.3333333333333333 0.6666666666666666 0.3333333333333333 0.6666666666666666 0.3333333333333333 0.6666666666666666 0.3333333333333333 0.6666666666666666 1 0 0.3333333333333333 0.6666666666666666 0.3333333333333333 0.6666666666666666 0.3333333333333333 0.6666666666666666 0.3333333333333333 0.6666666666666666 0.3333333333333333 0.6666666666666666 0.3333333333333333 0.6666666666666666 1 0 1 0 1 0 1 0 1 0 1 0 1 0</probabilities>
		</cpt>
		<cpt id="Observer">
			<state id="Absent" />
			<state id="Present" />
			<parents>Observatory TimePeriod</parents>
			<probabilities>1 0 1 0 1 0 1 0 1 0 1 0 1 0 1 0 1 0 1 0 1 0 1 0 1 0 1 0 1 0 1 0 1 0 1 0 1 0 1 0 1 0 1 0 1 0 1 0 1 0 1 0 1 0 0.6666666666666666 0.3333333333333333 0.3333333333333333 0.6666666666666666 0.3333333333333333 0.6666666666666666 0.3333333333333333 0.6666666666666666 0.3333333333333333 0.6666666666666666 0.3333333333333333 0.6666666666666666 0.3333333333333333 0.6666666666666666 0.3333333333333333 0.6666666666666666 0.3333333333333333 0.6666666666666666 1 0 0.3333333333333333 0.6666666666666666 0.3333333333333333 0.6666666666666666 0.3333333333333333 0.6666666666666666 0.3333333333333333 0.6666666666666666 0.3333333333333333 0.6666666666666666 0.3333333333333333 0.6666666666666666 1 0 1 0 1 0 1 0 1 0 1 0 1 0</probabilities>
		</cpt>
		<cpt id="Carrier">
			<state id="Absent" />
			<state id="Present" />
			<parents>FleetBeacon TimePeriod</parents>
			<probabilities>1 0 1 0 1 0 1 0 1 0 1 0 1 0 1 0 1 0 1 0 1 0 1 0 1 0 1 0 1 0 1 0 1 0 1 0 1 0 1 0 1 0 1 0 1 0 1 0 1 0 1 0 1 0 1 0 1 0 1 0 1 0 1 0 1 0 1 0 1 0 1 0 1 0 1 0 1 0 1 0 1 0 1 0 1 0 1 0 1 0 1 0 1 0 1 0 1 0 1 0</probabilities>
		</cpt>
		<cpt id="Scout">
			<state id="Absent" />
			<state id="Present" />
			<parents>Stargate TimePeriod</parents>
			<probabilities>1 0 1 0 1 0 1 0 1 0 1 0 1 0 1 0 1 0 1 0 1 0 1 0 1 0 1 0 1 0 1 0 1 0 1 0 1 0 1 0 1 0 1 0 1 0 1 0 1 0 1 0 1 0 1 0 1 0 1 0 1 0 1 0 1 0 1 0 1 0 1 0 1 0 1 0 1 0 1 0 1 0 1 0 1 0 1 0 1 0 1 0 1 0 1 0 1 0 1 0</probabilities>
		</cpt>
		<cpt id="Corsair">
			<state id="Absent" />
			<state id="Present" />
			<parents>Stargate TimePeriod</parents>
			<probabilities>1 0 1 0 1 0 1 0 1 0 1 0 1 0 1 0 1 0 1 0 1 0 1 0 1 0 1 0 1 0 1 0 1 0 1 0 1 0 1 0 1 0 1 0 1 0 1 0 1 0 1 0 1 0 1 0 1 0 1 0 1 0 1 0 1 0 1 0 1 0 1 0 1 0 1 0 1 0 1 0 1 0 1 0 1 0 1 0 1 0 1 0 1 0 1 0 1 0 1 0</probabilities>
		</cpt>
		<cpt id="Arbiter">
			<state id="Absent" />
			<state id="Present" />
			<parents>ArbiterTribunal TimePeriod</parents>
			<probabilities>1 0 1 0 1 0 1 0 1 0 1 0 1 0 1 0 1 0 1 0 1 0 1 0 1 0 1 0 1 0 1 0 1 0 1 0 1 0 1 0 1 0 1 0 1 0 1 0 1 0 1 0 1 0 1 0 1 0 1 0 1 0 1 0 1 0 1 0 1 0 1 0 1 0 1 0 1 0 1 0 1 0 1 0 1 0 1 0 1 0 1 0 1 0 1 0 1 0 1 0</probabilities>
		</cpt>
		<cpt id="DarkArchon">
			<state id="Absent" />
			<state id="Present" />
			<parents>DarkTemplar TimePeriod</parents>
			<probabilities>1 0 1 0 1 0 1 0 1 0 1 0 1 0 1 0 1 0 1 0 1 0 1 0 1 0 1 0 1 0 1 0 1 0 1 0 1 0 1 0 1 0 1 0 1 0 1 0 1 0 1 0 1 0 1 0 1 0 1 0 1 0 1 0 1 0 1 0 1 0 1 0 1 0 1 0 1 0 1 0 1 0 1 0 1 0 1 0 1 0 1 0 1 0 1 0 1 0 1 0</probabilities>
		</cpt>
		<cpt id="Archon">
			<state id="Absent" />
			<state id="Present" />
			<parents>HighTemplar TimePeriod</parents>
			<probabilities>1 0 1 0 1 0 1 0 1 0 1 0 1 0 1 0 1 0 1 0 1 0 1 0 1 0 1 0 1 0 1 0 1 0 1 0 1 0 1 0 1 0 1 0 1 0 1 0 1 0 1 0 1 0 1 0 1 0 1 0 1 0 1 0 1 0 1 0 1 0 1 0 1 0 1 0 1 0 0.3333333333333333 0.6666666666666666 0.3333333333333333 0.6666666666666666 0.3333333333333333 0.6666666666666666 0.3333333333333333 0.6666666666666666 1 0 1 0 1 0 1 0 1 0 1 0 1 0</probabilities>
		</cpt>
		<cpt id="GroundWeapons1">
			<state id="Absent" />
			<state id="Present" />
			<parents>TimePeriod Forge</parents>
			<probabilities>0.7255860264510058 0.2744139735489942 1 0 0.9104026863607715 0.08959731363922839 1 0 0.7451425952691 0.2548574047309 1 0 0.8113854751531298 0.1886145248468703 1 0 0.9041732986940758 0.09582670130592419 0.9195694025250548 0.08043059747494519 0.9297369567658222 0.07026304323417776 0.9708491829899149 0.02915081701008506 0.920874443888637 0.07912555611136302 0.9988609773057331 0.001139022694266993 0.9481361241172404 0.0518638758827596 0.9637096353626193 0.03629036463738083 0.8754791058162484 0.1245208941837516 0.9613665675817387 0.03863343241826142 0.9107675033075233 0.08923249669247667 0.9068821897061663 0.09311781029383368 0.8807440179517336 0.1192559820482664 0.9866751831847869 0.01332481681521316 0.8953105349234602 0.1046894650765396 1 0 0.9366006550577801 0.06339934494221995 0.9407950107153452 0.05920498928465481 0.9453399010227552 0.05466009897724493 0.9395257949467597 0.0604742050532403 0.9366027524377992 0.06339724756220076 0.9395520539030824 0.06044794609691763 0.9010971411220523 0.09890285887794766 0.9885539198755364 0.01144608012446355 1 0 0.7999702164955995 0.2000297835044004 1 0 0.7847911985095182 0.2152088014904817 0.9128407282377558 0.0871592717622442 1 0 0.8758171934403461 0.1241828065596538 1 0 0.8791419326815004 0.1208580673184996 1 0 0.8106778099261998 0.1893221900738001 1 0 0.9525115971539924 0.0474884028460077 1 0 0.7800595726644409 0.219940427335559 1 0 0.8267458691306157 0.1732541308693843 1 0</probabilities>
		</cpt>
		<cpt id="GroundArmor1">
			<state id="Absent" />
			<state id="Present" />
			<parents>TimePeriod Forge</parents>
			<probabilities>0.8243068513248881 0.1756931486751117 1 0 0.937472056842414 0.0625279431575861 1 0 0.9101124860252768 0.08988751397472317 1 0 0.8059791293651184 0.1940208706348816 1 0 0.9211532344229714 0.07884676557702859 0.9534294832398175 0.04657051676018252 0.9858629384010301 0.01413706159896993 0.917223641432697 0.08277635856730305 0.9633977276779044 0.03660227232209563 0.8924257185561564 0.1075742814438437 0.8995760342748016 0.1004239657251984 0.9726749894331711 0.02732501056682887 0.9494845038782683 0.05051549612173169 0.9915256505249583 0.008474349475041646 0.9192156401941214 0.08078435980587856 0.9177592748120502 0.08224072518794981 0.9414546043059064 0.05854539569409362 0.9306005609926067 0.06939943900739322 0.8599861876461877 0.1400138123538122 1 0 0.9299332006123557 0.07006679938764433 0.9239039359906975 0.07609606400930249 0.9891821141101003 0.0108178858898998 0.8800159088285871 0.119984091171413 0.9316627301946163 0.06833726980538384 0.9300401543329659 0.06995984566703405 0.9051944441979262 0.0948055558020738 0.9884828488089528 0.0115171511910472 1 0 0.7533832750053977 0.2466167249946022 1 0 0.7427336991459203 0.2572663008540798 0.8184290693291074 0.1815709306708926 1 0 0.8759002221993303 0.1240997778006696 1 0 0.8267057357349454 0.1732942642650545 1 0 0.8543346201261308 0.1456653798738691 1 0 0.787953858601363 0.212046141398637 1 0 0.9153838364607055 0.0846161635392944 1 0 0.878278402822542 0.1217215971774579 1 0</probabilities>
		</cpt>
		<cpt id="PlasmaShields1">
			<state id="Absent" />
			<state id="Present" />
			<parents>TimePeriod Forge</parents>
			<probabilities>0.8469854188862145 0.1530145811137854 1 0 0.9229817309232861 0.07701826907671391 1 0 0.9914066341367388 0.00859336586326115 1 0 0.8864004299184131 0.113599570081587 1 0 0.9631684591500944 0.03683154084990558 0.9989540251782252 0.001045974821774945 0.9867779939102968 0.01322200608970326 0.9439833555788606 0.05601664442113943 0.9463749357184167 0.05362506428158337 0.9093703908481046 0.0906296091518955 0.8890208900947647 0.1109791099052353 0.9106893315767051 0.08931066842329492 0.9489427720617055 0.05105722793829449 0.91859211193541 0.08140788806458997 0.9471712091157771 0.05282879088422288 0.9820216335514134 0.01797836644858672 0.8966524701300849 0.1033475298699152 0.9089596830189299 0.09104031698107024 0.9049682469470499 0.09503175305295009 1 0 0.9595083311429944 0.04049166885700577 0.9855281988652471 0.01447180113475291 0.9054112663958929 0.09458873360410731 0.9291030780243175 0.07089692197568251 0.9545209664342707 0.04547903356572942 0.9585094740077416 0.04149052599225853 0.9375955946066374 0.06240440539336269 0.9379270372282313 0.06207296277176866 1 0 0.8318904139266873 0.1681095860733128 1 0 0.7852042758283315 0.2147957241716684 0.796023063733324 0.2039769362666759 1 0 0.7525889029891566 0.2474110970108434 1 0 0.8666282677778698 0.1333717322221301 1 0 0.9605776786678691 0.03942232133213067 1 0 0.9957870631367479 0.004212936863252048 1 0 0.8293058390065358 0.1706941609934642 1 0 0.8736089971572549 0.1263910028427451 1 0</probabilities>
		</cpt>
		<cpt id="AirWeapons1">
			<state id="Absent" />
			<state id="Present" />
			<parents>CyberCore TimePeriod</parents>
			<probabilities>0.9005830404083299 0.09941695959166993 1 0 1 0 1 0 1 0 1 0 1 0 1 0 1 0 1 0 1 0 0.9477366036354954 0.05226339636450462 1 0 1 0 1 0 1 0 1 0 1 0 0.7177954904542294 0.2822045095457705 0.9021629292801991 0.09783707071980101 1 0 1 0 1 0 1 0 1 0 1 0 0.8440045137472889 0.155995486252711 0.8690575804324238 0.1309424195675762 0.8932286841047034 0.1067713158952967 0.9732296513592362 0.02677034864076383 0.8513346811977474 0.1486653188022525 0.8662682551061092 0.1337317448938907 0.8600236422490002 0.1399763577509998 0.7922913630564132 0.2077086369435866 0.9328831123435384 0.06711688765646164 0.8826917665650236 0.1173082334349763 1 0 0.8861347991894606 0.1138652008105394 0.9203125251808595 0.07968747481914046 0.8016284296088153 0.1983715703911846 0.8278791620557212 0.1721208379442787 0.7753502819508183 0.2246497180491817 0.7079812909835836 0.2920187090164163 1 0 0.9305328033696613 0.06946719663033876 0.9109958858137837 0.08900411418621629 0.9945305891916406 0.005469410808359403 0.9301095767127561 0.069890423287244 0.7978810351169956 0.2021189648830043 0.9070332644718114 0.0929667355281886</probabilities>
		</cpt>
		<cpt id="AirArmor1">
			<state id="Absent" />
			<state id="Present" />
			<parents>CyberCore TimePeriod</parents>
			<probabilities>0.9418614418573994 0.05813855814260056 1 0 1 0 1 0 1 0 1 0 1 0 1 0 1 0 1 0 1 0 0.9125661195492044 0.08743388045079549 1 0 1 0 1 0 1 0 1 0 1 0 0.8641335550056059 0.1358664449943941 0.9325425728850788 0.06745742711492116 1 0 1 0 1 0 1 0 1 0 1 0 0.903526994338026 0.09647300566197398 0.9083979584650901 0.09160204153490976 0.930173435795116 0.06982656420488395 0.8304865128644888 0.1695134871355111 0.8408592935289985 0.1591407064710015 0.8686782176609557 0.1313217823390443 0.762390047589158 0.2376099524108421 0.7789966729061312 0.2210033270938688 0.8422278993180914 0.1577721006819086 0.771062277508177 0.2289377224918229 1 0 0.8224605018415 0.1775394981585 0.8589113916374488 0.1410886083625511 0.7996118597128066 0.2003881402871934 0.7335501427547345 0.2664498572452654 0.7869446792343796 0.2130553207656204 0.8483829907843572 0.1516170092156429 1 0 0.9842292434152293 0.01577075658477075 0.9324934807334941 0.0675065192665058 0.8640657855656329 0.135934214434367 0.7939931274689115 0.2060068725310885 0.7096948977461427 0.2903051022538573 0.7664475729296451 0.2335524270703549</probabilities>
		</cpt>
		<cpt id="LegEnhancements">
			<state id="Absent" />
			<state id="Present" />
			<parents>TimePeriod CitadelOfAdun</parents>
			<probabilities>0.7979332724863993 0.2020667275136007 1 0 0.8892651403633536 0.1107348596366463 1 0 0.7809235142101243 0.2190764857898756 1 0 0.9588085173675087 0.04119148263249129 0.960794269467131 0.03920573053286905 0.9216504187165687 0.07834958128343128 0.9631942867855052 0.03680571321449482 0.9780511882248716 0.02194881177512842 0.9571316326512103 0.0428683673487899 0.9350232466316714 0.06497675336832869 0.8934730025935919 0.1065269974064082 0.9000745419898559 0.09992545801014408 0.908385029853798 0.09161497014620203 1 0 0.8579400921981415 0.1420599078018585 1 0 0.7752736877097566 0.2247263122902433 1 0 0.943053238737687 0.05694676126231303 0.7628686831526823 0.2371313168473176 1 0 1 0 0.9353534003897117 0.06464659961028824 1 0 0.8309736634378205 0.1690263365621794 1 0 0.9733440557846145 0.02665594421538551 1 0 0.7307347477872407 0.2692652522127592 1 0 0.8522264814771434 0.1477735185228566 1 0 0.8483657856616174 0.1516342143383826 0.8391006760757086 0.1608993239242913 1 0 0.8746936085070025 0.1253063914929975 1 0 0.810942290152267 0.1890577098477329 1 0 0.955207286272205 0.04479271372779498 1 0 0.8386938402649942 0.1613061597350058 1 0 0.7272666461904072 0.2727333538095929 1 0 0.8647773218785422 0.1352226781214579 1 0</probabilities>
		</cpt>
		<cpt id="SingularityCharge">
			<state id="Absent" />
			<state id="Present" />
			<parents>CyberCore TimePeriod</parents>
			<probabilities>0.8564702035947422 0.1435297964052578 1 0 1 0 1 0 1 0 1 0 1 0 1 0 1 0 1 0 1 0 0.9515836777885169 0.04841632221148293 1 0 1 0 1 0 1 0 1 0 1 0 0.8508044157548291 0.1491955842451708 0.951919768208388 0.04808023179161209 1 0 1 0 1 0 1 0 1 0 1 0 0.7902701259739293 0.2097298740260706 0.9381132992542585 0.06188670074574149 0.8364404834334489 0.1635595165665511 0.8631835071966478 0.1368164928033522 0.7283398844603226 0.2716601155396772 0.9889297013029195 0.01107029869708059 0.7948371873628262 0.2051628126371738 0.8555260483222029 0.1444739516777971 0.7724099745709542 0.2275900254290458 0.8438701989496649 0.1561298010503351 1 0 0.8201638454087773 0.1798361545912227 0.9010231773907294 0.0989768226092706 0.878833208848846 0.121166791151154 0.8381722841770958 0.1618277158229043 0.8136755344341102 0.1863244655658898 0.8282336777324753 0.1717663222675246 1 0 0.8811724119023476 0.1188275880976526 0.8999231210732358 0.1000768789267642 0.7693486150856015 0.2306513849143984 0.8473064770695773 0.1526935229304227 0.9976309956060241 0.002369004393975772 0.7592273461198014 0.2407726538801986</probabilities>
		</cpt>
		<cpt id="MindControl">
			<state id="Absent" />
			<state id="Present" />
			<parents>TemplarArchives TimePeriod</parents>
			<probabilities>0.9254556893064063 0.07454431069359363 0.9193388600240058 0.08066113997599421 0.9024644415819636 0.09753555841803648 0.9066000360311521 0.0933999639688478 0.9422340399958025 0.05776596000419752 0.7816785673213346 0.2183214326786654 0.7394779226248006 0.2605220773751995 0.8476786985094149 0.1523213014905851 0.9046912573784077 0.09530874262159225 0.9218188001920831 0.07818119980791691 1 0 0.9070632197230049 0.0929367802769951 1 0 1 0 1 0 1 0 1 0 1 0 0.8866598300148364 0.1133401699851635 0.8624685041747925 0.1375314958252075 0.8471442039821283 0.1528557960178716 0.9024910283042233 0.09750897169577662 0.8280639731250876 0.1719360268749123 0.7940544308071795 0.2059455691928205 0.851355433304863 0.1486445666951371 1 0 1 0 1 0 1 0 1 0 1 0 1 0 1 0 1 0 0.9709388858402701 0.02906111415972996 0.7404169982815427 0.2595830017184572 1 0 0.8349466216006802 0.1650533783993198 0.7758286171991958 0.2241713828008041 0.7937991461050982 0.2062008538949018 0.7466040714756475 0.2533959285243524 0.9492102207495594 0.0507897792504406 0.9942416918582755 0.005758308141724425 1 0 1 0 1 0 1 0 1 0 1 0 1 0</probabilities>
		</cpt>
		<cpt id="Maelstrom">
			<state id="Absent" />
			<state id="Present" />
			<parents>TemplarArchives TimePeriod</parents>
			<probabilities>0.7992239495188905 0.2007760504811094 0.8247731056577672 0.1752268943422327 0.8078685353555853 0.1921314646444146 0.8649745667927549 0.135025433207245 0.8320840624562663 0.1679159375437336 0.9063138025586378 0.09368619744136221 0.7815063732416283 0.2184936267583715 0.8795039586550262 0.1204960413449738 0.897933838680244 0.102066161319756 0.9456736716440393 0.05432632835596081 1 0 0.8491841744486713 0.1508158255513287 1 0 1 0 1 0 1 0 1 0 1 0 0.7229179732031129 0.277082026796887 0.8300245031119993 0.1699754968880006 0.9475688228837997 0.05243117711620021 0.7508749225550269 0.2491250774449731 0.9603316971537024 0.03966830284629769 0.8580856820166456 0.1419143179833543 0.7641342456541308 0.2358657543458692 1 0 1 0 1 0 1 0 1 0 1 0 1 0 1 0 1 0 0.9903817995006254 0.009618200499374717 0.7127332291552909 0.287266770844709 1 0 0.9702668096473304 0.02973319035266962 0.9864396290421933 0.01356037095780666 0.7212353332213032 0.2787646667786967 0.8181877836272273 0.1818122163727726 0.9891337936115329 0.01086620638846708 0.7728148705481484 0.2271851294518515 1 0 1 0 1 0 1 0 1 0 1 0 1 0</probabilities>
		</cpt>
		<cpt id="ArgusTalisman">
			<state id="Absent" />
			<state id="Present" />
			<parents>TemplarArchives TimePeriod</parents>
			<probabilities>0.896431683666637 0.1035683163333631 0.737940825653211 0.2620591743467891 0.9947358055302226 0.005264194469777435 0.8429731807167065 0.1570268192832935 0.9214686369979488 0.07853136300205106 0.8696534745979596 0.1303465254020405 0.92132612412019 0.0786738758798099 0.8121565716723037 0.1878434283276962 0.9655682000326837 0.03443179996731623 0.98287916481103 0.01712083518897 1 0 0.9001845300790896 0.09981546992091034 1 0 1 0 1 0 1 0 1 0 1 0 0.8596690814986896 0.1403309185013103 0.9188915303176439 0.08110846968235609 0.8847545822988723 0.1152454177011277 0.8475686601430497 0.1524313398569503 0.8060317231697136 0.1939682768302863 0.9767764528587596 0.02322354714124031 0.8890332148251463 0.1109667851748536 1 0 1 0 1 0 1 0 1 0 1 0 1 0 1 0 1 0 0.9525779618681318 0.04742203813186825 0.7986429353858007 0.2013570646141993 1 0 0.9003831574618382 0.09961684253816179 0.8235812468966375 0.1764187531033624 0.8161020617223335 0.1838979382776665 0.8076042948998363 0.1923957051001635 0.8122018825123167 0.1877981174876832 0.8398133799933657 0.1601866200066342 1 0 1 0 1 0 1 0 1 0 1 0 1 0</probabilities>
		</cpt>
		<cpt id="KhaydarinAmulet">
			<state id="Absent" />
			<state id="Present" />
			<parents>TemplarArchives TimePeriod</parents>
			<probabilities>0.8875358666514496 0.1124641333485504 0.8989700286061324 0.1010299713938677 0.8283402185199013 0.1716597814800988 0.8781964525390997 0.1218035474609001 0.776626078301615 0.2233739216983848 0.8885480387848938 0.1114519612151063 0.8525008225951345 0.1474991774048654 0.8609394598412206 0.1390605401587794 0.8854420639078549 0.1145579360921451 0.9796496286048645 0.02035037139513552 1 0 0.9611512883592869 0.03884871164071302 1 0 1 0 1 0 1 0 1 0 1 0 0.8745694980510119 0.1254305019489881 0.9119353356330688 0.08806466436693106 0.8895923813881758 0.1104076186118242 0.8161022543115649 0.183897745688435 0.8840196482063438 0.115980351793656 0.7827915106336385 0.2172084893663614 0.9941363978055101 0.005863602194489795 1 0 1 0 1 0 1 0 1 0 1 0 1 0 1 0 1 0 0.9387328764356711 0.061267123564329 0.7752816705428575 0.2247183294571424 1 0 0.7647051049012911 0.235294895098709 0.8166133915451972 0.1833866084548027 0.9831410980501316 0.01685890194986826 0.8541504250589923 0.1458495749410076 0.7290261909840564 0.2709738090159435 0.9973728156809695 0.002627184319030551 1 0 1 0 1 0 1 0 1 0 1 0 1 0</probabilities>
		</cpt>
		<cpt id="PsionicStorm">
			<state id="Absent" />
			<state id="Present" />
			<parents>TemplarArchives TimePeriod</parents>
			<probabilities>0.7963850927179937 0.2036149072820063 0.8074331227577877 0.1925668772422124 0.790964148818515 0.209035851181485 0.9171290850634477 0.08287091493655227 0.8392216540098112 0.1607783459901888 0.9054853660700468 0.09451463392995313 0.7177371297776646 0.2822628702223354 0.9421767703339362 0.05782322966606368 0.811318270737422 0.1886817292625779 0.9480696924057037 0.0519303075942963 1 0 0.8618699607300895 0.1381300392699105 1 0 1 0 1 0 1 0 1 0 1 0 0.7542642343265655 0.2457357656734344 0.8362679875569092 0.1637320124430907 0.8309936746976682 0.1690063253023318 0.8227631953249555 0.1772368046750445 0.9081500933910223 0.09184990660897764 0.8346986728741502 0.1653013271258497 0.7559225407491838 0.2440774592508163 1 0 1 0 1 0 1 0 1 0 1 0 1 0 1 0 1 0 0.8830614579343977 0.1169385420656023 0.8944353257307568 0.1055646742692431 1 0 0.8965417157664781 0.1034582842335219 0.7654284516542121 0.2345715483457878 0.841136598954326 0.1588634010456739 0.7872029780203215 0.2127970219796785 0.7180497634064803 0.2819502365935196 0.7684153581014722 0.2315846418985278 1 0 1 0 1 0 1 0 1 0 1 0 1 0</probabilities>
		</cpt>
		<cpt id="Hallucination">
			<state id="Absent" />
			<state id="Present" />
			<parents>TemplarArchives TimePeriod</parents>
			<probabilities>0.7530146987903341 0.2469853012096658 0.8434098863507226 0.1565901136492774 0.8824611163603061 0.1175388836396939 0.7478773835208462 0.2521226164791537 0.8179841778516526 0.1820158221483474 0.8414369418363283 0.1585630581636716 0.861923467647542 0.138076532352458 0.8269409112110668 0.1730590887889331 0.7711746943422131 0.2288253056577869 0.9039645896540228 0.09603541034597715 1 0 0.8013372076983156 0.1986627923016843 1 0 1 0 1 0 1 0 1 0 1 0 0.8144680711582858 0.1855319288417142 0.9833135645102928 0.01668643548970715 0.8573642401068813 0.1426357598931186 0.9270885377951152 0.07291146220488462 0.8559533996270214 0.1440466003729785 0.984857359433336 0.01514264056666398 0.7294016369992168 0.2705983630007832 1 0 1 0 1 0 1 0 1 0 1 0 1 0 1 0 1 0 0.9556315533432213 0.04436844665677878 0.8677949071592704 0.1322050928407295 1 0 0.8347683631666441 0.1652316368333559 0.9504738710751679 0.04952612892483197 0.8950763971188995 0.1049236028811005 0.8047908529571305 0.1952091470428694 0.8176154752402594 0.1823845247597406 0.9226723277041051 0.07732767229589488 1 0 1 0 1 0 1 0 1 0 1 0 1 0</probabilities>
		</cpt>
		<cpt id="Recall">
			<state id="Absent" />
			<state id="Present" />
			<parents>ArbiterTribunal TimePeriod</parents>
			<probabilities>0.8280268955604657 0.1719731044395342 0.8633638560720783 0.1366361439279217 0.782414257110957 0.2175857428890429 0.8524326157594402 0.1475673842405599 0.9651431350711631 0.03485686492883684 0.9723207310445373 0.02767926895546268 0.754243523481162 0.2457564765188379 0.7170262475641374 0.2829737524358625 0.7578660857078045 0.2421339142921954 0.8314465091176153 0.1685534908823847 0.7719246905774891 0.2280753094225108 0.9032464454653107 0.09675355453468915 0.8013440005886479 0.1986559994113521 0.8958605933776573 0.1041394066223426 0.8750136933603778 0.1249863066396221 0.8230357973808414 0.1769642026191585 0.8472468422102782 0.1527531577897217 0.8520281063659094 0.1479718936340905 0.8469821075828766 0.1530178924171233 0.7142769833795251 0.2857230166204748 0.7138665148827992 0.2861334851172007 0.8677353465130733 0.1322646534869266 0.7479127114474802 0.2520872885525197 0.9365570691811742 0.06344293081882579 0.9594824256002468 0.04051757439975313 1 0 1 0 1 0 1 0 1 0 1 0 1 0 1 0 1 0 1 0 1 0 1 0 1 0 1 0 1 0 1 0 1 0 1 0 1 0 1 0 1 0 1 0 1 0 1 0 1 0</probabilities>
		</cpt>
		<cpt id="StasisField">
			<state id="Absent" />
			<state id="Present" />
			<parents>ArbiterTribunal TimePeriod</parents>
			<probabilities>0.8607685206521296 0.1392314793478704 0.8339358907845094 0.1660641092154906 0.8268457503853198 0.1731542496146801 0.9542707242616136 0.04572927573838639 0.7656718411577318 0.2343281588422682 0.8514008206242055 0.1485991793757945 0.9495451163960494 0.05045488360395054 0.8068128197605198 0.1931871802394801 0.9492437777284786 0.05075622227152144 0.7948581988404904 0.2051418011595096 0.7775089776452975 0.2224910223547024 0.9599274521631371 0.04007254783686286 0.7533290814755519 0.246670918524448 0.7309388674547769 0.2690611325452231 0.7348505814369634 0.2651494185630367 0.8217795311082866 0.1782204688917134 0.8437391374199623 0.1562608625800376 0.9197108702948686 0.08028912970513132 0.8449450993688314 0.1550549006311685 0.9237420208947024 0.07625797910529755 0.8295655158886548 0.1704344841113451 0.8494757273730713 0.1505242726269287 0.8720815628597729 0.1279184371402269 0.7911475367810519 0.2088524632189481 0.7347231043382545 0.2652768956617455 1 0 1 0 1 0 1 0 1 0 1 0 1 0 1 0 1 0 1 0 1 0 1 0 1 0 1 0 1 0 1 0 1 0 1 0 1 0 1 0 1 0 1 0 1 0 1 0 1 0</probabilities>
		</cpt>
		<cpt id="KhaydarinCore">
			<state id="Absent" />
			<state id="Present" />
			<parents>ArbiterTribunal TimePeriod</parents>
			<probabilities>0.893649206305595 0.106350793694405 0.9877748413014375 0.01222515869856253 0.9747140689453477 0.0252859310546522 0.883024852402021 0.116975147597979 0.8575830765625315 0.1424169234374684 0.859221563368617 0.140778436631383 0.9134240216087504 0.08657597839124971 0.7702365102638036 0.2297634897361963 0.7796192495803094 0.2203807504196906 0.9420388538632152 0.05796114613678481 0.9060883817760039 0.09391161822399601 0.8826519865429585 0.1173480134570415 0.7684993933013155 0.2315006066986846 0.7240702665582743 0.2759297334417257 0.8437734228975603 0.1562265771024397 0.7929766512350165 0.2070233487649835 0.9097718527462704 0.09022814725372957 0.7203140968911402 0.2796859031088598 0.8807993544756663 0.1192006455243337 0.8546134441684636 0.1453865558315363 0.872993024207726 0.127006975792274 0.7916937516644969 0.2083062483355031 0.9801760445749476 0.01982395542505241 0.8115309736212156 0.1884690263787843 0.8091894181596394 0.1908105818403606 1 0 1 0 1 0 1 0 1 0 1 0 1 0 1 0 1 0 1 0 1 0 1 0 1 0 1 0 1 0 1 0 1 0 1 0 1 0 1 0 1 0 1 0 1 0 1 0 1 0</probabilities>
		</cpt>
		<cpt id="GraviticThrusters">
			<state id="Absent" />
			<state id="Present" />
			<parents>FleetBeacon TimePeriod</parents>
			<probabilities>0.8142814157886036 0.1857185842113963 0.8355025009588486 0.1644974990411515 0.8740865970955412 0.1259134029044588 0.8052368742890583 0.1947631257109417 0.9231925410714061 0.07680745892859392 0.8563480849974603 0.1436519150025397 0.951970195757757 0.04802980424224291 0.7959470222736879 0.2040529777263121 0.832008399090333 0.1679916009096671 0.9516975280945923 0.04830247190540775 0.8701089043995456 0.1298910956004544 0.9283061835777807 0.07169381642221927 0.851705656994129 0.1482943430058708 0.9091635646060411 0.09083643539395894 0.8842320359316542 0.1157679640683457 0.9577877122738322 0.04221228772616771 0.7441332958341231 0.2558667041658769 0.8485430545247832 0.1514569454752167 0.998452820515197 0.001547179484803051 0.8592217951680632 0.1407782048319368 0.8278694889753144 0.1721305110246854 0.8851189673414031 0.1148810326585969 0.9638595207918719 0.03614047920812811 0.8496940444722843 0.1503059555277156 0.8616483639599709 0.138351636040029 1 0 1 0 1 0 1 0 1 0 1 0 1 0 1 0 1 0 1 0 1 0 1 0 1 0 1 0 1 0 1 0 1 0 1 0 1 0 1 0 1 0 1 0 1 0 1 0 1 0</probabilities>
		</cpt>
		<cpt id="ApialSensors">
			<state id="Absent" />
			<state id="Present" />
			<parents>FleetBeacon TimePeriod</parents>
			<probabilities>0.9199460819295618 0.08005391807043805 0.8473293838952571 0.1526706161047429 0.876182113239399 0.123817886760601 0.9650116227495934 0.03498837725040655 0.741103569789675 0.2588964302103251 0.872874996791736 0.1271250032082639 0.7628929531159715 0.2371070468840285 0.8596095809467897 0.1403904190532102 0.8762581255840074 0.1237418744159926 0.7341843306898939 0.265815669310106 0.7546620582756458 0.2453379417243541 0.7739007149458544 0.2260992850541455 0.8513493750182369 0.1486506249817631 0.8827646112205271 0.1172353887794728 0.8500808101263566 0.1499191898736433 0.9091905987889173 0.09080940121108266 0.8350301174357636 0.1649698825642363 0.8580582981120046 0.1419417018879953 0.7209752862155558 0.2790247137844441 0.7762632439893527 0.2237367560106473 0.8472346301827646 0.1527653698172353 0.8711633706529949 0.128836629347005 0.9044711989460306 0.0955288010539694 0.7934450049798941 0.2065549950201058 0.8971635822491602 0.1028364177508397 1 0 1 0 1 0 1 0 1 0 1 0 1 0 1 0 1 0 1 0 1 0 1 0 1 0 1 0 1 0 1 0 1 0 1 0 1 0 1 0 1 0 1 0 1 0 1 0 1 0</probabilities>
		</cpt>
		<cpt id="ArgusJewel">
			<state id="Absent" />
			<state id="Present" />
			<parents>FleetBeacon TimePeriod</parents>
			<probabilities>0.7393242810970389 0.260675718902961 0.9313034232181665 0.06869657678183347 0.7626592639958409 0.237340736004159 0.8825837324985366 0.1174162675014633 0.8583694833744163 0.1416305166255836 0.9542857761755406 0.04571422382445942 0.8115908437383468 0.1884091562616531 0.7693041823871858 0.2306958176128142 0.8435966661847809 0.156403333815219 0.9650505395370497 0.03494946046295028 0.8128925610647256 0.1871074389352743 0.8149698315127205 0.1850301684872794 0.866468772381674 0.1335312276183261 0.8332173024051091 0.1667826975948909 0.9954751315745259 0.004524868425474062 0.9394891283299846 0.06051087167001535 0.8563356037482502 0.1436643962517497 0.726727067286021 0.273272932713979 0.9300266379282244 0.06997336207177556 0.8407600247150768 0.1592399752849231 0.7903086696218079 0.2096913303781921 0.8364057645199614 0.1635942354800385 0.8456146811828466 0.1543853188171534 0.8962016566092039 0.1037983433907961 0.9522731723375746 0.04772682766242532 1 0 1 0 1 0 1 0 1 0 1 0 1 0 1 0 1 0 1 0 1 0 1 0 1 0 1 0 1 0 1 0 1 0 1 0 1 0 1 0 1 0 1 0 1 0 1 0 1 0</probabilities>
		</cpt>
		<cpt id="DisruptionWeb">
			<state id="Absent" />
			<state id="Present" />
			<parents>FleetBeacon TimePeriod</parents>
			<probabilities>0.746897064521572 0.2531029354784278 0.7613187323779214 0.2386812676220786 0.8902328984483414 0.1097671015516585 0.793660891203207 0.2063391087967929 0.8734163181460446 0.1265836818539554 0.8487647457533869 0.1512352542466131 0.8074929408048389 0.192507059195161 0.8903902291735776 0.1096097708264224 0.7576220315548029 0.242377968445197 0.8690500160287665 0.1309499839712335 0.7934942603120914 0.2065057396879086 0.8274345457567339 0.172565454243266 0.7435241020533351 0.256475897946665 0.9302186655516797 0.06978133444832033 0.9209554606816278 0.07904453931837221 0.838677401498233 0.161322598501767 0.9418064176749987 0.05819358232500133 0.8589835538970359 0.1410164461029641 0.8640610764813395 0.1359389235186605 0.8758736625848318 0.1241263374151683 0.7955045864678235 0.2044954135321764 0.8620325235531978 0.1379674764468022 0.9769087966316997 0.02309120336830024 0.8619298068149127 0.1380701931850873 0.7678193674360989 0.232180632563901 1 0 1 0 1 0 1 0 1 0 1 0 1 0 1 0 1 0 1 0 1 0 1 0 1 0 1 0 1 0 1 0 1 0 1 0 1 0 1 0 1 0 1 0 1 0 1 0 1 0</probabilities>
		</cpt>
		<cpt id="CarrierCapacity">
			<state id="Absent" />
			<state id="Present" />
			<parents>FleetBeacon TimePeriod</parents>
			<probabilities>0.7869614789773876 0.2130385210226125 0.7393600087844096 0.2606399912155904 0.8467400323865308 0.1532599676134692 0.8851165543868682 0.1148834456131317 0.8037839792823733 0.1962160207176266 0.9717694097776871 0.02823059022231289 0.959150913022263 0.04084908697773694 0.7041835949245561 0.2958164050754439 0.8894340231861101 0.1105659768138898 0.9592032714249899 0.04079672857501006 0.7893922481209359 0.210607751879064 0.8614596590808772 0.1385403409191227 0.8987454064719249 0.101254593528075 0.980442173443296 0.01955782655670395 0.863723003272171 0.136276996727829 0.8442401236559247 0.1557598763440752 0.8907545253882223 0.1092454746117776 0.8917938945200002 0.1082061054799997 0.7189689158329565 0.2810310841670434 0.8682539271481816 0.1317460728518184 0.7605605427861949 0.2394394572138051 0.7268186947487392 0.2731813052512608 0.9028642581999664 0.09713574180003362 0.8638845769538932 0.1361154230461067 0.9212457651804079 0.07875423481959211 1 0 1 0 1 0 1 0 1 0 1 0 1 0 1 0 1 0 1 0 1 0 1 0 1 0 1 0 1 0 1 0 1 0 1 0 1 0 1 0 1 0 1 0 1 0 1 0 1 0</probabilities>
		</cpt>
		<cpt id="SensorArray">
			<state id="Absent" />
			<state id="Present" />
			<parents>Observatory TimePeriod</parents>
			<probabilities>0.8331002274908848 0.1668997725091153 1 0 1 0 1 0 1 0 1 0 1 0 1 0 1 0 1 0 1 0 0.8510512083087189 0.1489487916912809 1 0 1 0 1 0 1 0 1 0 1 0 0.987956334603689 0.01204366539631093 0.8800006020796396 0.1199993979203604 0.7869718310148471 0.2130281689851528 0.8256056073451736 0.1743943926548264 0.7483503109516427 0.2516496890483572 0.8989165446051067 0.1010834553948932 0.9664230534642608 0.03357694653573914 1 0 0.7615250273512172 0.2384749726487827 0.77596341092221 0.2240365890777899 0.7783753148548215 0.2216246851451784 0.9191586108446068 0.08084138915539325 0.9103084777732606 0.08969152222673933 0.9025913061398754 0.09740869386012459 0.7550888674177692 0.2449111325822307 0.8878540384445379 0.112145961555462 0.8197415241723915 0.1802584758276084 0.9591362282783865 0.04086377172161346 1 0 0.8632133252387451 0.1367866747612549 0.9701399136551923 0.02986008634480762 0.7927646813420655 0.2072353186579345 0.8517708197079428 0.1482291802920572 0.8486321047327428 0.1513678952672573 0.8376892348552026 0.1623107651447973 1 0 1 0 1 0 1 0 1 0 1 0 1 0</probabilities>
		</cpt>
		<cpt id="GraviticBoosters">
			<state id="Absent" />
			<state id="Present" />
			<parents>Observatory TimePeriod</parents>
			<probabilities>0.9052281009560623 0.09477189904393775 1 0 1 0 1 0 1 0 1 0 1 0 1 0 1 0 1 0 1 0 0.9057884020414602 0.09421159795853969 1 0 1 0 1 0 1 0 1 0 1 0 0.8368914679158933 0.1631085320841067 0.9887495173885987 0.01125048261140125 0.8021066124009578 0.1978933875990421 0.8772564637045386 0.1227435362954613 0.8595578116756149 0.1404421883243852 0.861331070509182 0.1386689294908179 0.77927786110447 0.2207221388955301 1 0 0.928276779914386 0.07172322008561394 0.8246203452546986 0.1753796547453013 0.7899777934158088 0.2100222065841912 0.7849846041766295 0.2150153958233704 0.8021120092178917 0.1978879907821081 0.8070200978075874 0.1929799021924126 0.9677954370699197 0.03220456293008031 0.8300739117399861 0.1699260882600138 0.8933845154095415 0.1066154845904585 0.857963321701305 0.142036678298695 1 0 0.8823814906713264 0.1176185093286735 0.7846446135494893 0.2153553864505106 0.9851860962995194 0.01481390370048055 0.7909916296138985 0.2090083703861015 0.9919326797031474 0.008067320296852686 0.9110702005929412 0.08892979940705877 1 0 1 0 1 0 1 0 1 0 1 0 1 0</probabilities>
		</cpt>
		<cpt id="GraviticDrive">
			<state id="Absent" />
			<state id="Present" />
			<parents>RoboticsSupportBay TimePeriod</parents>
			<probabilities>0.8589747779433338 0.1410252220566662 1 0 1 0 1 0 1 0 1 0 1 0 1 0 1 0 1 0 1 0 0.8663695169418162 0.1336304830581839 1 0 1 0 1 0 1 0 1 0 1 0 0.8459333117301855 0.1540666882698144 0.868696006820882 0.131303993179118 0.7603360036780551 0.2396639963219448 0.915695286185279 0.08430471381472099 0.8796471481354524 0.1203528518645475 0.7902035073335064 0.2097964926664935 0.9411834675350173 0.0588165324649828 1 0 0.8809480537016229 0.1190519462983771 0.9001604323793335 0.09983956762066637 0.7991408660455143 0.2008591339544857 0.8684187661907946 0.1315812338092053 0.7056742543474202 0.2943257456525797 0.7592256697383105 0.2407743302616895 0.9569120788748241 0.04308792112517584 0.9636756211073372 0.0363243788926628 0.744416367670493 0.255583632329507 0.8771171347887186 0.1228828652112814 1 0 0.9320817664502927 0.06791823354970729 0.9725688351894234 0.02743116481057657 0.9621488441007438 0.03785115589925611 0.8506251975383119 0.1493748024616882 0.8192632560758318 0.1807367439241681 0.7824154252245378 0.2175845747754623 1 0 1 0 1 0 1 0 1 0 1 0 0.9842537857183265 0.01574621428167363</probabilities>
		</cpt>
		<cpt id="ScarabDamage">
			<state id="Absent" />
			<state id="Present" />
			<parents>RoboticsSupportBay TimePeriod</parents>
			<probabilities>0.8634441620111193 0.1365558379888806 1 0 1 0 1 0 1 0 1 0 1 0 1 0 1 0 1 0 1 0 0.9211231364328023 0.0788768635671976 1 0 1 0 1 0 1 0 1 0 1 0 0.9953161976002853 0.004683802399714655 0.7866676655978842 0.2133323344021157 0.8903896366191281 0.1096103633808718 0.9287323554758602 0.07126764452413976 0.8082747319881591 0.1917252680118408 0.8986147660204642 0.1013852339795358 0.9077498176778606 0.09225018232213941 1 0 0.7981164295866877 0.2018835704133122 0.7556686381750023 0.2443313618249977 0.8207377700647495 0.1792622299352505 0.8274021119979138 0.1725978880020861 0.7704825006981892 0.2295174993018107 0.9507236356747542 0.04927636432524583 0.8598047365865327 0.1401952634134673 0.8771493266100744 0.1228506733899256 0.8400604790726695 0.1599395209273304 0.7969110567387484 0.2030889432612515 1 0 0.9050351253578906 0.09496487464210947 0.7422687271052373 0.2577312728947626 0.8363196432317818 0.1636803567682181 0.8346865125137893 0.1653134874862106 0.8463957733495026 0.1536042266504973 0.8191371116754385 0.1808628883245615 1 0 1 0 1 0 1 0 1 0 1 0 0.9140185285430883 0.08598147145691172</probabilities>
		</cpt>
		<cpt id="ReaverCapacity">
			<state id="Absent" />
			<state id="Present" />
			<parents>RoboticsSupportBay TimePeriod</parents>
			<probabilities>0.8471341869536124 0.1528658130463875 1 0 1 0 1 0 1 0 1 0 1 0 1 0 1 0 1 0 1 0 0.8407563360368494 0.1592436639631505 1 0 1 0 1 0 1 0 1 0 1 0 0.818881413645026 0.1811185863549739 0.8416872477551555 0.1583127522448445 0.8097660852968613 0.1902339147031387 0.8098235988859651 0.1901764011140348 0.8449096996440481 0.1550903003559519 0.7775819267371351 0.2224180732628648 0.9076166283478415 0.09238337165215847 1 0 0.9218952086393104 0.0781047913606896 0.7612074301446078 0.2387925698553922 0.7700541074346429 0.2299458925653571 0.8784067597729974 0.1215932402270026 0.8233383623133321 0.1766616376866677 0.8499886189470975 0.1500113810529024 0.7895744061693956 0.2104255938306045 0.8192751892047402 0.1807248107952598 0.969738494070164 0.03026150592983604 0.8348674461781661 0.1651325538218338 1 0 0.8070619511530104 0.1929380488469896 0.8178352926448131 0.1821647073551868 0.8743907451948215 0.1256092548051784 0.7809708270301078 0.2190291729698921 0.9809601989033921 0.01903980109660777 0.8819041034926993 0.1180958965073007 1 0 1 0 1 0 1 0 1 0 1 0 0.9278463573011229 0.07215364269887717</probabilities>
		</cpt>
		<cpt id="PlasmaShields2">
			<state id="Absent" />
			<state id="Present" />
			<parents>TimePeriod PlasmaShields1</parents>
			<probabilities>0.8991970951259281 0.100802904874072 0.9979876582940721 0.002012341705927936 0.8835821809347484 0.1164178190652518 0.9901882372597284 0.009811762740271649 0.8644893270221105 0.1355106729778896 0.9999926007623489 7.399237651236612e-006 0.8820050983582327 0.1179949016417674 0.9819654516780636 0.01803454832193635 0.909111035390183 0.09088896460981692 0.9989338316439137 0.001066168356086398 0.8650022139472462 0.1349977860527538 0.9939792027944482 0.006020797205551759 0.9678710401413911 0.03212895985860881 0.9676708783091768 0.0323291216908233 0.9224749626465736 0.07752503735342642 0.9500723214756988 0.04992767852430136 0.8975764597134306 0.1024235402865694 0.9846964825140975 0.01530351748590252 0.8859324907741316 0.1140675092258683 0.9931487143897312 0.006851285610268761 0.9623105061730144 0.03768949382698563 0.9425943795678495 0.05740562043215043 0.971272960399144 0.02872703960085597 0.9939063693334601 0.006093630666539976 0.9529871296082714 0.04701287039172863 0.9989347341173674 0.001065265882632574 0.8900799317002628 0.1099200682997373 0.9703651443485198 0.02963485565148012 0.942878107046084 0.05712189295391596 0.9897715161374567 0.01022848386254315 0.9801879296866131 0.01981207031338686 0.9997990245224332 0.0002009754775667392 0.9309761735765841 0.06902382642341587 0.9887677458058698 0.01123225419413029 0.9506646852035807 0.04933531479641927 0.937352724010703 0.06264727598929687 0.976370080043358 0.02362991995664201 0.9878810740804566 0.01211892591954347 0.9373491387403109 0.06265086125968908 0.9723586455903666 0.02764135440963349 0.9242720885288384 0.07572791147116163 0.9919354221115809 0.008064577888419121 0.7751221419172287 0.2248778580827713 0.9978718396479581 0.002128160352041939 0.8556147959537361 0.1443852040462639 0.9999943968661307 5.603133869259367e-006 0.9221519640086363 0.07784803599136378 0.983484997889775 0.0165150021102251 0.9803870987464795 0.01961290125352052 0.9986429111427215 0.001357088857278568</probabilities>
		</cpt>
		<cpt id="PlasmaShields3">
			<state id="Absent" />
			<state id="Present" />
			<parents>TimePeriod PlasmaShields2</parents>
			<probabilities>0.8210859306655181 0.178914069334482 0.9913664173892421 0.008633582610757756 0.8889873464854977 0.1110126535145023 0.9783536851564185 0.02164631484358147 0.9383628293518961 0.06163717064810388 0.9759211464590056 0.02407885354099446 0.9443471853629648 0.05565281463703525 0.9797002524206713 0.02029974757932871 0.931390100803479 0.06860989919652109 0.9830922118690868 0.01690778813091321 0.9966088487938652 0.003391151206134784 0.9553212313121888 0.04467876868781116 0.8756835902085699 0.1243164097914302 0.9919052182769528 0.008094781723047277 0.9418039695523804 0.05819603044761975 0.9959483673730811 0.004051632626918707 0.8418029952919474 0.1581970047080526 0.9893759572414967 0.01062404275850333 0.9632514525893489 0.03674854741065116 0.9947635238105983 0.00523647618940177 0.9366191583761974 0.06338084162380261 0.9896022617302127 0.01039773826978739 0.9717498941719691 0.028250105828031 0.9994016876664082 0.0005983123335918082 0.8991449082347113 0.1008550917652887 0.9961722929958022 0.003827707004197723 0.8739558067717774 0.1260441932282226 0.9770524677935228 0.02294753220647715 0.8753614077575064 0.1246385922424935 0.9895467464566531 0.01045325354334706 0.8589515028310055 0.1410484971689945 0.9997921711005999 0.0002078288994000446 0.8315845381732145 0.1684154618267854 0.9991788980433489 0.0008211019566511162 0.9303153073929262 0.06968469260707372 0.9828206430085977 0.01717935699140217 0.8196916721078797 0.1803083278921203 0.998473167990819 0.001526832009181089 0.9044819473358079 0.09551805266419208 0.9844727095170094 0.01552729048299056 0.9055274386898522 0.09447256131014788 0.9881173529158446 0.01188264708415539 0.9606702669083884 0.0393297330916116 0.9912063354013845 0.008793664598615528 0.8480667415048868 0.1519332584951131 0.9486420983303782 0.05135790166962193 0.8091010500767799 0.1908989499232202 0.983279011157717 0.01672098884228297 0.8012845274446913 0.1987154725553088 0.9995289459466832 0.0004710540533167248</probabilities>
		</cpt>
		<cpt id="GroundArmor2">
			<state id="Absent" />
			<state id="Present" />
			<parents>TimePeriod GroundArmor1</parents>
			<probabilities>0.8894446250165361 0.1105553749834639 0.9558921684399226 0.04410783156007734 0.9441646591482295 0.05583534085177042 0.9944233578036066 0.005576642196393348 0.9066659170281353 0.09333408297186469 0.9962410091884938 0.003758990811506135 0.9102770517277382 0.08972294827226172 0.9516612985470805 0.0483387014529196 0.9469668076372343 0.05303319236276569 0.9835511770101848 0.01644882298981518 0.8613023545251569 0.1386976454748431 0.9834230612403913 0.01657693875960872 0.9180660435080428 0.08193395649195714 0.9766319108683218 0.02336808913167824 0.9309923003658907 0.06900769963410945 0.9878756591629193 0.01212434083708076 0.8672636555593469 0.1327363444406532 0.9966130841637224 0.003386915836277702 0.9467763026930554 0.05322369730694458 0.9495105530613027 0.05048944693869741 0.9656968890203864 0.03430311097961369 0.9776846988412528 0.02231530115874718 0.9083234783886516 0.09167652161134846 0.9906319678648967 0.009368032135103325 0.8426482565730271 0.1573517434269728 0.9995695904217145 0.0004304095782855872 0.9420201633873714 0.05797983661262848 0.9778413914582881 0.02215860854171196 0.9921782280785445 0.007821771921455487 0.9675794129796834 0.03242058702031653 0.9406525040790356 0.05934749592096448 0.9880384724225226 0.01196152757747723 0.9530015862859976 0.0469984137140024 0.9283015854015333 0.07169841459846676 0.9990177565990837 0.0009822434009164425 0.9413549848877875 0.05864501511221258 0.9660006031065539 0.03399939689344608 0.9630528176659529 0.03694718233404715 0.8922275467209506 0.1077724532790495 0.9769342787084995 0.02306572129150058 0.9701076931504182 0.02989230684958184 0.945248582343445 0.05475141765655495 0.8257610677748658 0.1742389322251341 0.9460009338442178 0.05399906615578221 0.9845080828313992 0.01549191716860078 0.9479844579710784 0.05201554202892145 0.9242965646659692 0.07570343533403087 0.9881099209459792 0.01189007905402091 0.9632696130651522 0.0367303869348478 0.9788776104651773 0.0211223895348227</probabilities>
		</cpt>
		<cpt id="GroundArmor3">
			<state id="Absent" />
			<state id="Present" />
			<parents>TimePeriod GroundArmor2</parents>
			<probabilities>0.8774614242557842 0.1225385757442157 0.9808357753918224 0.01916422460817764 0.9401509055718513 0.05984909442814866 0.995328106036862 0.004671893963138009 0.8267311227006048 0.1732688772993953 0.9849058408287956 0.01509415917120447 0.9242659982935696 0.07573400170643052 0.9781536660861961 0.02184633391380376 0.9086747606230011 0.09132523937699889 0.9962754417315852 0.003724558268414671 0.9071596381640983 0.09284036183590176 0.9899400193424622 0.01005998065753787 0.9152233398278508 0.08477666017214927 0.9839776726922016 0.01602232730779839 0.8430170572142207 0.1569829427857794 0.9907040624971095 0.00929593750289049 0.9201831753528057 0.07981682464719428 0.9682800346657738 0.03171996533422619 0.9704268030324185 0.02957319696758167 0.9767239606117734 0.02327603938822664 0.903684770373877 0.096315229626123 0.9946230775336814 0.005376922466318553 0.881902097011263 0.118097902988737 0.9880670406465447 0.01193295935345522 0.9377793222052435 0.06222067779475651 0.9900068436996143 0.009993156300385714 0.9073178318042191 0.09268216819578089 0.9870546626627019 0.01294533733729803 0.8210081329894666 0.1789918670105332 0.9987346704764931 0.001265329523506867 0.9464150479544807 0.05358495204551926 0.9961782792541468 0.00382172074585313 0.9862852439879762 0.01371475601202379 0.9905355355123729 0.009464464487626884 0.8712415050574031 0.1287584949425968 0.9979312986368298 0.002068701363170071 0.8646840438977119 0.1353159561022882 0.9929826585845032 0.007017341415496901 0.8817425505068538 0.1182574494931462 0.9617406399878156 0.03825936001218441 0.9533410952533342 0.04665890474666591 0.9903089889875483 0.009691011012451701 0.9942084683932173 0.005791531606782544 0.960219632675678 0.03978036732432189 0.9514664299328407 0.04853357006715924 0.9960297408140645 0.003970259185935555 0.8959424513156067 0.1040575486843934 0.9882369363005318 0.01176306369946829 0.8227957444791083 0.1772042555208916 0.99872684279868 0.001273157201320009</probabilities>
		</cpt>
		<cpt id="GroundWeapons2">
			<state id="Absent" />
			<state id="Present" />
			<parents>TimePeriod Forge GroundWeapons1</parents>
			<probabilities>0.992617902559171 0.007382097440828774 0.8439250327422273 0.1560749672577727 1 0 1 0 0.8565140608115075 0.1434859391884926 0.993962848033531 0.006037151966469103 1 0 1 0 0.9538958551901232 0.04610414480987682 0.9588969170617067 0.04110308293829335 1 0 1 0 0.935314362170091 0.06468563782990887 0.9765022970565472 0.02349770294345272 1 0 1 0 0.9818836177181316 0.01811638228186822 0.9926497700674747 0.007350229932525302 0.9656865992604544 0.03431340073954557 0.99826105799682 0.001738942003180154 0.9655598478928514 0.0344401521071486 0.9972814488545646 0.002718551145435317 0.9114151264528677 0.08858487354713227 0.9995982223583645 0.0004017776416354304 0.9814150468358143 0.0185849531641858 0.9901422865917019 0.009857713408298167 0.9235206474484061 0.07647935255159387 0.9999999552214891 4.477851087429058e-008 0.9586074171761149 0.04139258282388501 0.9979541971865636 0.002045802813436329 0.9525948904940221 0.04740510950597791 0.9994235615770484 0.0005764384229516141 0.9997045324157893 0.0002954675842106801 0.9782343526073317 0.0217656473926682 0.9555318738073335 0.04446812619266657 0.9980344859136912 0.001965514086308968 0.9673462638072926 0.03265373619270746 0.9892976045282222 0.01070239547177786 0.9793443938753734 0.02065560612462672 0.9929996762877001 0.007000323712299825 0.9974037341217005 0.00259626587829955 0.9942845474072077 0.005715452592792381 0.9071904268462936 0.09280957315370642 0.9999194327709299 8.056722907017569e-005 0.9177517713554202 0.08224822864457987 0.9695700044907045 0.03042999550929547 1 0 1 0 0.9481963332555004 0.0518036667444996 0.9968170698632909 0.003182930136709139 0.9872726143975362 0.01272738560246388 0.9991761431391891 0.0008238568608109665 0.9727360534794182 0.0272639465205818 0.9955155702126293 0.004484429787370872 0.9906560560741193 0.009343943925880772 0.9961713995779291 0.003828600422070751 0.9943005521558749 0.00569944784412511 0.9997179213307238 0.0002820786692761906 0.9816943357732882 0.0183056642267119 0.999248720999245 0.0007512790007550588 0.9783915682476493 0.02160843175235083 0.998653766730159 0.001346233269840885 0.9687633197606093 0.03123668023939075 0.9999614561234277 3.854387657231354e-005 1 0 1 0 0.9728640152278022 0.02713598477219769 0.965550525706589 0.03444947429341112 1 0 1 0 0.9168225029309887 0.08317749706901133 0.9222950693342257 0.07770493066577427 0.8789669195696913 0.1210330804303087 0.982122242647554 0.01787775735244596 1 0 1 0 0.8635267592270369 0.1364732407729631 0.9925578936393825 0.007442106360617528 1 0 1 0 0.8855004188037539 0.1144995811962462 0.9857027063537907 0.01429729364620934 1 0 1 0 0.9120991415769256 0.08790085842307444 0.9572405961417002 0.04275940385829984 1 0 1 0 0.8653482805974793 0.1346517194025208 0.997095955986111 0.002904044013889093 1 0 1 0 0.905505364461025 0.09449463553897493 0.9380989901464846 0.06190100985351543 1 0 1 0 0.8642335374567475 0.1357664625432526 0.9857466592666232 0.01425334073337681 1 0 1 0</probabilities>
		</cpt>
		<cpt id="GroundWeapons3">
			<state id="Absent" />
			<state id="Present" />
			<parents>TimePeriod Forge GroundWeapons2</parents>
			<probabilities>0.9851486605656772 0.01485133943432283 0.9685709319924415 0.03142906800755853 1 0 1 0 0.9057079723959037 0.09429202760409619 0.9559822701719409 0.04401772982805913 1 0 1 0 0.9585669356776164 0.04143306432238364 0.9905705399557687 0.009429460044231326 1 0 1 0 0.8355480906778147 0.1644519093221852 0.9855510596014138 0.01444894039858627 1 0 1 0 0.9389226497139721 0.06107735028602775 0.9998567001746408 0.0001432998253592233 0.9677217766780549 0.03227822332194512 0.9982926162409619 0.001707383759038196 0.9484561709970636 0.05154382900293649 0.9986848692120813 0.001315130787918616 0.9799948434140112 0.0200051565859888 0.9995286813883604 0.0004713186116394448 0.9449147816278172 0.05508521837218272 0.9989223726106463 0.001077627389353787 0.9588510349226325 0.04114896507736771 0.9888147829879679 0.01118521701203212 0.9374904246852592 0.06250957531474077 0.9970632413237226 0.002936758676277531 0.979851334393941 0.02014866560605891 0.9982443844914354 0.001755615508564678 0.9730008343106388 0.02699916568936125 0.9994481729149628 0.0005518270850373456 0.9730704717670281 0.02692952823297177 0.9959256814311959 0.004074318568804014 0.9817761465542177 0.01822385344578223 0.9975468384348531 0.002453161565146725 0.9515313667698379 0.04846863323016225 0.9986208727356941 0.001379127264305958 0.9233306211243927 0.0766693788756074 0.9999071203846788 9.287961532114536e-005 0.9815943503019475 0.01840564969805245 0.9820435098431032 0.01795649015689686 0.9100851550741568 0.08991484492584317 0.9964825962569286 0.003517403743071403 1 0 1 0 0.9748607473583539 0.02513925264164605 0.9995758427370647 0.0004241572629354045 0.9414439967888202 0.05855600321117983 0.9999548236493517 4.517635064816913e-005 0.9787680511796453 0.02123194882035471 0.9993074762220527 0.0006925237779473066 0.9521188889956702 0.04788111100432974 0.9998393208122025 0.0001606791877975148 0.9956836393607929 0.004316360639207267 0.9999906228600881 9.377139911912004e-006 0.9939368073087349 0.006063192691265173 0.9997801583415719 0.0002198416584282292 0.9556283964670754 0.04437160353292475 0.9996688145467675 0.000331185453232546 0.9444564319525455 0.05554356804745463 0.9999567393793587 4.326062064141048e-005 1 0 1 0 0.9398953766671986 0.0601046233328013 0.9922200206377674 0.007779979362232584 1 0 1 0 0.9377719699295968 0.0622280300704032 0.9544016432326402 0.04559835676735971 0.8648177738996795 0.1351822261003204 0.9987850866483031 0.001214913351696826 1 0 1 0 0.8625223125288037 0.1374776874711962 0.9578632463546655 0.0421367536453346 1 0 1 0 0.9558624365798937 0.04413756342010633 0.9748404320372633 0.02515956796273653 1 0 1 0 0.9477330424110255 0.05226695758897443 0.9935736329804005 0.006426367019599396 1 0 1 0 0.9202989306914902 0.07970106930850984 0.9760397892270419 0.02396021077295803 1 0 1 0 0.8850777715842175 0.1149222284157826 0.984716236207519 0.01528376379248097 1 0 1 0 0.9619617328417789 0.03803826715822103 0.9995545075363388 0.0004454924636610834 1 0 1 0</probabilities>
		</cpt>
		<cpt id="AirArmor2">
			<state id="Absent" />
			<state id="Present" />
			<parents>TimePeriod AirArmor1</parents>
			<probabilities>0.8605260764738187 0.1394739235261812 0.994948412632387 0.005051587367612969 0.9887136581827591 0.01128634181724084 0.9922670691983004 0.007732930801699601 0.814819475985427 0.1851805240145728 0.9871077372810944 0.01289226271890561 0.8892132175094142 0.1107867824905859 0.9910267231858984 0.008973276814101672 0.9790764774640921 0.02092352253590796 0.9799217906015382 0.02007820939846178 0.9415702038980616 0.0584297961019384 0.9813900902515353 0.01860990974846483 0.9935010719368491 0.006498928063150876 0.9731824095290038 0.0268175904709962 0.9570627545182324 0.04293724548176761 0.9103780274733441 0.08962197252665591 0.9883488694154234 0.01165113058457656 0.9505179420312493 0.04948205796875087 0.8972032991797703 0.1027967008202296 0.9861413711818527 0.01385862881814741 0.9298393997936572 0.07016060020634288 0.9392883483426459 0.06071165165735418 0.8588388440528072 0.1411611559471928 0.9938015482001104 0.006198451799889699 0.9532285442189133 0.04677145578108658 0.9388935473426613 0.06110645265733863 0.9768581338343411 0.02314186616565894 0.9846290591027184 0.01537094089728172 0.9353457688270703 0.06465423117292961 0.916648073913814 0.08335192608618604 0.9848952601481885 0.01510473985181144 0.9242958510000737 0.07570414899992634 0.9863568898997766 0.0136431101002233 0.9481812477643434 0.05181875223565667 0.9310707239109997 0.0689292760890004 0.9827245232192143 0.01727547678078564 0.9835945149494919 0.01640548505050804 0.9681834644931879 0.03181653550681209 0.8613233996353999 0.1386766003646 0.9949753343841861 0.005024665615813928 0.7670732455551235 0.2329267544448766 0.9950873005714274 0.004912699428572651 0.9397624886030934 0.06023751139690663 0.9626093274850354 0.03739067251496455 0.9363334743143278 0.06366652568567233 0.9104748217452331 0.08952517825476702 0.9954763122592178 0.004523687740782097 0.9090802989363676 0.09091970106363247 0.979592215873817 0.02040778412618298 0.9395727700609753 0.06042722993902466</probabilities>
		</cpt>
		<cpt id="AirArmor3">
			<state id="Absent" />
			<state id="Present" />
			<parents>TimePeriod AirArmor2</parents>
			<probabilities>0.9042057400152881 0.09579425998471201 0.972178969179085 0.02782103082091493 0.7442794971212493 0.2557205028787509 0.9994899939452099 0.0005100060547901017 0.9717644869983599 0.02823551300164012 0.9613919250063892 0.03860807499361087 0.9821998493855968 0.01780015061440334 0.9906531372093785 0.009346862790621477 0.7438801901764155 0.2561198098235844 0.9992340006606105 0.0007659993393895944 0.8829053902220712 0.1170946097779289 0.9913359222337137 0.008664077766286272 0.8494290618464118 0.1505709381535882 0.9976786071502155 0.002321392849784678 0.8720007368388605 0.1279992631611396 0.9735377835747808 0.02646221642521917 0.9537394669448083 0.04626053305519175 0.9965356215113905 0.003464378488609493 0.9202074109306583 0.0797925890693417 0.9876854645425188 0.01231453545748123 0.9118976831947935 0.0881023168052066 0.9691452030045243 0.0308547969954756 0.9229927886290507 0.07700721137094931 0.9761471604271462 0.02385283957285386 0.9432035963297066 0.05679640367029345 0.9743426743400669 0.02565732565993293 0.8628121958072071 0.1371878041927928 0.997034744990016 0.002965255009983864 0.9178699505480251 0.08213004945197469 0.9705551457772259 0.02944485422277412 0.8719810371412523 0.1280189628587476 0.9927577088990016 0.007242291100998467 0.8014439614439057 0.1985560385560942 0.9911517116049636 0.008848288395036406 0.7881549529318401 0.2118450470681599 0.9862949667882449 0.01370503321175502 0.9351648965101932 0.06483510348980695 0.9970841073170508 0.002915892682949161 0.9251903458981508 0.0748096541018493 0.9584718305028367 0.04152816949716335 0.9485062351018719 0.05149376489812799 0.9780179636646768 0.02198203633532336 0.9844031034722163 0.01559689652778366 0.9942856044881909 0.005714395511809017 0.9057656541507172 0.09423434584928286 0.981584558385513 0.01841544161448696 0.8890935722741261 0.1109064277258738 0.9880944573766227 0.01190554262337735 0.9066021811509232 0.09339781884907682 0.9919745045549863 0.008025495445013678</probabilities>
		</cpt>
		<cpt id="AirWeapons2">
			<state id="Absent" />
			<state id="Present" />
			<parents>TimePeriod AirWeapons1</parents>
			<probabilities>0.9109573760048528 0.08904262399514709 0.9776399452710399 0.02236005472896013 0.9700098055608236 0.02999019443917643 0.9629266601572409 0.03707333984275907 0.8987850210966343 0.1012149789033656 0.9750232412901954 0.02497675870980469 0.9470601034801355 0.05293989651986458 0.9911640432961058 0.008835956703894204 0.9803437471831539 0.01965625281684622 0.9989956075653724 0.001004392434627636 0.9768071229205939 0.02319287707940615 0.9792680025136211 0.02073199748637893 0.862580590017125 0.137419409982875 0.9808383181432062 0.0191616818567939 0.9096920363774971 0.09030796362250296 0.9705358446182623 0.02946415538173785 0.9816754304281119 0.01832456957188811 0.9393482352177796 0.06065176478222043 0.9904076024567305 0.009592397543269378 0.9961334225868653 0.003866577413134555 0.8603865666986296 0.1396134333013704 0.9720019962190982 0.02799800378090161 0.7597868060104579 0.2402131939895421 0.9965079142786828 0.003492085721317251 0.9049449317456518 0.09505506825434806 0.9632412471743432 0.03675875282565669 0.9098228406844011 0.09017715931559892 0.9973495548483591 0.002650445151640935 0.9342201419784887 0.0657798580215114 0.9682120633653727 0.03178793663462732 0.9818898933777599 0.01811010662224007 0.9374657697909641 0.06253423020903594 0.9329795924579034 0.06702040754209655 0.9044831791236577 0.09551682087634224 0.9971997304140778 0.002800269585922184 0.9444092836989435 0.05559071630105639 0.9895593074132568 0.0104406925867432 0.9041526393219298 0.09584736067807012 0.977967518399272 0.02203248160072802 0.9660031286465701 0.03399687135342993 0.9817862710429024 0.0182137289570975 0.9913455413560562 0.008654458643943801 0.8555750409737357 0.1444249590262643 0.9999955092995052 4.49070049469541e-006 0.9827883218195218 0.01721167818047816 0.9994584487818962 0.0005415512181039082 0.9233222258187953 0.07667777418120472 0.9528952725185395 0.04710472748146057 0.8363367473133441 0.163663252686656 0.9874945724879348 0.01250542751206507</probabilities>
		</cpt>
		<cpt id="AirWeapons3">
			<state id="Absent" />
			<state id="Present" />
			<parents>TimePeriod AirWeapons2</parents>
			<probabilities>0.8351512879766634 0.1648487120233366 0.980609199266016 0.01939080073398417 0.9434844291665648 0.05651557083343529 0.9942171399167491 0.005782860083250897 0.9957120742483985 0.004287925751601569 0.9905709856144489 0.009429014385551033 0.754610097959504 0.245389902040496 0.9921379401483671 0.007862059851632805 0.8466364773344637 0.1533635226655364 0.9997837731653019 0.0002162268346982453 0.9784032712808137 0.02159672871918625 0.9990592575790857 0.0009407424209143757 0.9606551636437857 0.03934483635621434 0.9834880761667257 0.0165119238332742 0.9163677271513281 0.0836322728486719 0.9708596278742967 0.02914037212570347 0.847949616412745 0.1520503835872551 0.9914837400324643 0.008516259967535746 0.9807306511237156 0.01926934887628441 0.9999953702359097 4.629764090425725e-006 0.9346154740764645 0.06538452592353561 0.9471119323871027 0.05288806761289728 0.960702914361331 0.03929708563866895 0.9377467182702529 0.06225328172974714 0.8572766482380428 0.1427233517619572 0.9596482133616777 0.04035178663832235 0.7860626827957608 0.2139373172042393 0.9897585963491484 0.01024140365085154 0.7956120815771678 0.2043879184228323 0.9930170092221198 0.00698299077788028 0.8733831773341813 0.1266168226658188 0.9901661007356164 0.009833899264383708 0.9250462777099089 0.07495372229009119 0.9557094460457002 0.0442905539542998 0.8872313568025817 0.1127686431974183 0.9953190353221114 0.004680964677888672 0.9432509081708963 0.05674909182910373 0.9864557009426954 0.01354429905730464 0.8659891492660643 0.1340108507339357 0.9982801178157975 0.001719882184202612 0.8407578838897893 0.1592421161102107 0.9993262888104382 0.000673711189561762 0.942772024893994 0.05722797510600597 0.9735963740050964 0.02640362599490367 0.7929231165014515 0.2070768834985484 0.9998409322696545 0.0001590677303455062 0.8822953347946048 0.1177046652053953 0.9756644635308673 0.02433553646913266 0.9405476157034223 0.05945238429657761 0.9468307142386233 0.05316928576137672</probabilities>
		</cpt>
	</nodes>
	<extensions>
		<genie version="1.0" app="GeNIe 2.0.5079.0" name="Network1" faultnameformat="nodestate">
			<node id="Assimilator">
				<name>Assimilator</name>
				<interior color="e5f6f7" />
				<outline color="000080" />
				<font color="000000" name="Arial" size="8" />
				<position>510 340 576 381</position>
			</node>
			<node id="Pylon">
				<name>Pylon</name>
				<interior color="e5f6f7" />
				<outline color="000080" />
				<font color="000000" name="Arial" size="8" />
				<position>760 247 805 275</position>
			</node>
			<node id="Gateway">
				<name>Gateway</name>
				<interior color="e5f6f7" />
				<outline color="000080" />
				<font color="000000" name="Arial" size="8" />
				<position>736 329 793 364</position>
			</node>
			<node id="Zealot">
				<name>Zealot</name>
				<interior color="99cc00" />
				<outline color="000080" />
				<font color="000000" name="Arial" size="8" />
				<position>634 275 682 305</position>
			</node>
			<node id="CyberCore">
				<name>CyberCore</name>
				<interior color="e5f6f7" />
				<outline color="000080" />
				<font color="000000" name="Arial" size="8" />
				<position>617 390 683 431</position>
			</node>
			<node id="CitadelOfAdun">
				<name>CitadelOfAdun</name>
				<interior color="e5f6f7" />
				<outline color="000080" />
				<font color="000000" name="Arial" size="8" />
				<position>541 449 623 500</position>
			</node>
			<node id="Forge">
				<name>Forge</name>
				<interior color="e5f6f7" />
				<outline color="000080" />
				<font color="000000" name="Arial" size="8" />
				<position>877 299 923 327</position>
			</node>
			<node id="PhotonCannon">
				<name>PhotonCannon</name>
				<interior color="e5f6f7" />
				<outline color="000080" />
				<font color="000000" name="Arial" size="8" />
				<position>977 366 1059 417</position>
			</node>
			<node id="Stargate">
				<name>Stargate</name>
				<interior color="e5f6f7" />
				<outline color="000080" />
				<font color="000000" name="Arial" size="8" />
				<position>709 520 765 555</position>
			</node>
			<node id="RoboticsFacility">
				<name>RoboticsFacility</name>
				<interior color="e5f6f7" />
				<outline color="000080" />
				<font color="000000" name="Arial" size="8" />
				<position>834 477 920 530</position>
			</node>
			<node id="RoboticsSupportBay">
				<name>RoboticsSupportBay</name>
				<interior color="e5f6f7" />
				<outline color="000080" />
				<font color="000000" name="Arial" size="8" />
				<position>903 586 1022 653</position>
			</node>
			<node id="Observatory">
				<name>Observatory</name>
				<interior color="e5f6f7" />
				<outline color="000080" />
				<font color="000000" name="Arial" size="8" />
				<position>961 527 1034 572</position>
			</node>
			<node id="ArbiterTribunal">
				<name>ArbiterTribunal</name>
				<interior color="e5f6f7" />
				<outline color="000080" />
				<font color="000000" name="Arial" size="8" />
				<position>607 627 689 678</position>
			</node>
			<node id="TemplarArchives">
				<name>TemplarArchives</name>
				<interior color="e5f6f7" />
				<outline color="000080" />
				<font color="000000" name="Arial" size="8" />
				<position>569 531 662 589</position>
			</node>
			<node id="FleetBeacon">
				<name>FleetBeacon</name>
				<interior color="e5f6f7" />
				<outline color="000080" />
				<font color="000000" name="Arial" size="8" />
				<position>797 565 870 610</position>
			</node>
			<node id="ShieldBattery">
				<name>ShieldBattery</name>
				<interior color="e5f6f7" />
				<outline color="000080" />
				<font color="000000" name="Arial" size="8" />
				<position>838 393 914 440</position>
			</node>
			<node id="Dragoon">
				<name>Dragoon</name>
				<interior color="99cc00" />
				<outline color="000080" />
				<font color="000000" name="Arial" size="8" />
				<position>456 427 512 462</position>
			</node>
			<node id="DarkTemplar">
				<name>DarkTemplar</name>
				<interior color="99cc00" />
				<outline color="000080" />
				<font color="000000" name="Arial" size="8" />
				<position>436 491 509 536</position>
			</node>
			<node id="HighTemplar">
				<name>HighTemplar</name>
				<interior color="99cc00" />
				<outline color="000080" />
				<font color="000000" name="Arial" size="8" />
				<position>412 561 483 605</position>
			</node>
			<node id="Shuttle">
				<name>Shuttle</name>
				<interior color="99cc00" />
				<outline color="000080" />
				<font color="000000" name="Arial" size="8" />
				<position>982 461 1031 491</position>
			</node>
			<node id="Reaver">
				<name>Reaver</name>
				<interior color="99cc00" />
				<outline color="000080" />
				<font color="000000" name="Arial" size="8" />
				<position>1051 607 1102 638</position>
			</node>
			<node id="Observer">
				<name>Observer</name>
				<interior color="99cc00" />
				<outline color="000080" />
				<font color="000000" name="Arial" size="8" />
				<position>1075 543 1136 581</position>
			</node>
			<node id="Carrier">
				<name>Carrier</name>
				<interior color="99cc00" />
				<outline color="000080" />
				<font color="000000" name="Arial" size="8" />
				<position>784 656 833 686</position>
			</node>
			<node id="Scout">
				<name>Scout</name>
				<interior color="99cc00" />
				<outline color="000080" />
				<font color="000000" name="Arial" size="8" />
				<position>716 691 762 719</position>
			</node>
			<node id="Corsair">
				<name>Corsair</name>
				<interior color="99cc00" />
				<outline color="000080" />
				<font color="000000" name="Arial" size="8" />
				<position>757 690 808 721</position>
			</node>
			<node id="Arbiter">
				<name>Arbiter</name>
				<interior color="99cc00" />
				<outline color="000080" />
				<font color="000000" name="Arial" size="8" />
				<position>504 691 553 721</position>
			</node>
			<node id="DarkArchon">
				<name>DarkArchon</name>
				<interior color="99cc00" />
				<outline color="000080" />
				<font color="000000" name="Arial" size="8" />
				<position>339 483 410 527</position>
			</node>
			<node id="Archon">
				<name>Archon</name>
				<interior color="99cc00" />
				<outline color="000080" />
				<font color="000000" name="Arial" size="8" />
				<position>327 580 379 612</position>
			</node>
			<node id="TimePeriod">
				<name>TimePeriod</name>
				<interior color="ffcc00" />
				<outline color="000080" />
				<font color="000000" name="Arial" size="8" />
				<position>420 252 491 296</position>
			</node>
			<node id="GroundWeapons1">
				<name>GroundWeapons1</name>
				<interior color="ff99cc" />
				<outline color="000080" />
				<font color="000000" name="Arial" size="8" />
				<position>662 147 766 202</position>
			</node>
			<node id="GroundArmor1">
				<name>GroundArmor1</name>
				<interior color="ff99cc" />
				<outline color="000080" />
				<font color="000000" name="Arial" size="8" />
				<position>899 141 988 189</position>
			</node>
			<node id="PlasmaShields1">
				<name>PlasmaShields1</name>
				<interior color="ff99cc" />
				<outline color="000080" />
				<font color="000000" name="Arial" size="8" />
				<position>783 154 880 185</position>
			</node>
			<node id="AirWeapons1">
				<name>AirWeapons1</name>
				<interior color="ff99cc" />
				<outline color="000080" />
				<font color="000000" name="Arial" size="8" />
				<position>244 242 340 284</position>
			</node>
			<node id="AirArmor1">
				<name>AirArmor1</name>
				<interior color="ff99cc" />
				<outline color="000080" />
				<font color="000000" name="Arial" size="8" />
				<position>241 296 310 332</position>
			</node>
			<node id="LegEnhancements">
				<name>LegEnhancements</name>
				<interior color="ff99cc" />
				<outline color="000080" />
				<font color="000000" name="Arial" size="8" />
				<position>212 445 324 490</position>
			</node>
			<node id="SingularityCharge">
				<name>SingularityCharge</name>
				<interior color="ff99cc" />
				<outline color="000080" />
				<font color="000000" name="Arial" size="8" />
				<position>147 365 260 417</position>
			</node>
			<node id="MindControl">
				<name>MindControl</name>
				<interior color="ff99cc" />
				<outline color="000080" />
				<font color="000000" name="Arial" size="8" />
				<position>163 673 243 723</position>
			</node>
			<node id="Maelstrom">
				<name>Maelstrom</name>
				<interior color="ff99cc" />
				<outline color="000080" />
				<font color="000000" name="Arial" size="8" />
				<position>258 680 333 726</position>
			</node>
			<node id="ArgusTalisman">
				<name>ArgusTalisman</name>
				<interior color="ff99cc" />
				<outline color="000080" />
				<font color="000000" name="Arial" size="8" />
				<position>227 739 329 787</position>
			</node>
			<node id="KhaydarinAmulet">
				<name>KhaydarinAmulet</name>
				<interior color="ff99cc" />
				<outline color="000080" />
				<font color="000000" name="Arial" size="8" />
				<position>327 721 424 767</position>
			</node>
			<node id="PsionicStorm">
				<name>PsionicStorm</name>
				<interior color="ff99cc" />
				<outline color="000080" />
				<font color="000000" name="Arial" size="8" />
				<position>415 766 500 802</position>
			</node>
			<node id="Hallucination">
				<name>Hallucination</name>
				<interior color="ff99cc" />
				<outline color="000080" />
				<font color="000000" name="Arial" size="8" />
				<position>338 790 411 835</position>
			</node>
			<node id="Recall">
				<name>Recall</name>
				<interior color="ff99cc" />
				<outline color="000080" />
				<font color="000000" name="Arial" size="8" />
				<position>562 750 608 778</position>
			</node>
			<node id="StasisField">
				<name>StasisField</name>
				<interior color="ff99cc" />
				<outline color="000080" />
				<font color="000000" name="Arial" size="8" />
				<position>569 784 643 822</position>
			</node>
			<node id="KhaydarinCore">
				<name>KhaydarinCore</name>
				<interior color="ff99cc" />
				<outline color="000080" />
				<font color="000000" name="Arial" size="8" />
				<position>603 831 704 891</position>
			</node>
			<node id="GraviticThrusters">
				<name>GraviticThrusters</name>
				<interior color="ff99cc" />
				<outline color="000080" />
				<font color="000000" name="Arial" size="8" />
				<position>762 819 866 863</position>
			</node>
			<node id="ApialSensors">
				<name>ApialSensors</name>
				<interior color="ff99cc" />
				<outline color="000080" />
				<font color="000000" name="Arial" size="8" />
				<position>872 809 955 852</position>
			</node>
			<node id="ArgusJewel">
				<name>ArgusJewel</name>
				<interior color="ff99cc" />
				<outline color="000080" />
				<font color="000000" name="Arial" size="8" />
				<position>847 868 929 910</position>
			</node>
			<node id="DisruptionWeb">
				<name>DisruptionWeb</name>
				<interior color="ff99cc" />
				<outline color="000080" />
				<font color="000000" name="Arial" size="8" />
				<position>936 851 1018 902</position>
			</node>
			<node id="CarrierCapacity">
				<name>CarrierCapacity</name>
				<interior color="ff99cc" />
				<outline color="000080" />
				<font color="000000" name="Arial" size="8" />
				<position>1025 890 1119 937</position>
			</node>
			<node id="SensorArray">
				<name>SensorArray</name>
				<interior color="ff99cc" />
				<outline color="000080" />
				<font color="000000" name="Arial" size="8" />
				<position>1231 417 1313 468</position>
			</node>
			<node id="GraviticBoosters">
				<name>GraviticBoosters</name>
				<interior color="ff99cc" />
				<outline color="000080" />
				<font color="000000" name="Arial" size="8" />
				<position>1169 364 1264 419</position>
			</node>
			<node id="GraviticDrive">
				<name>GraviticDrive</name>
				<interior color="ff99cc" />
				<outline color="000080" />
				<font color="000000" name="Arial" size="8" />
				<position>1182 730 1258 777</position>
			</node>
			<node id="ScarabDamage">
				<name>ScarabDamage</name>
				<interior color="ff99cc" />
				<outline color="000080" />
				<font color="000000" name="Arial" size="8" />
				<position>1279 718 1390 770</position>
			</node>
			<node id="ReaverCapacity">
				<name>ReaverCapacity</name>
				<interior color="ff99cc" />
				<outline color="000080" />
				<font color="000000" name="Arial" size="8" />
				<position>1174 793 1310 865</position>
			</node>
			<node id="PlasmaShields2">
				<name>PlasmaShields2</name>
				<interior color="ff99cc" />
				<outline color="000080" />
				<font color="000000" name="Arial" size="8" />
				<position>782 86 879 117</position>
			</node>
			<node id="PlasmaShields3">
				<name>PlasmaShields3</name>
				<interior color="ff99cc" />
				<outline color="000080" />
				<font color="000000" name="Arial" size="8" />
				<position>794 33 891 64</position>
			</node>
			<node id="GroundArmor2">
				<name>GroundArmor2</name>
				<interior color="ff99cc" />
				<outline color="000080" />
				<font color="000000" name="Arial" size="8" />
				<position>922 76 1011 124</position>
			</node>
			<node id="GroundArmor3">
				<name>GroundArmor3</name>
				<interior color="ff99cc" />
				<outline color="000080" />
				<font color="000000" name="Arial" size="8" />
				<position>967 19 1056 67</position>
			</node>
			<node id="GroundWeapons2">
				<name>GroundWeapons2</name>
				<interior color="ff99cc" />
				<outline color="000080" />
				<font color="000000" name="Arial" size="8" />
				<position>657 74 761 129</position>
			</node>
			<node id="GroundWeapons3">
				<name>GroundWeapons3</name>
				<interior color="ff99cc" />
				<outline color="000080" />
				<font color="000000" name="Arial" size="8" />
				<position>636 0 740 55</position>
			</node>
			<node id="AirArmor3">
				<name>AirArmor3</name>
				<interior color="ff99cc" />
				<outline color="000080" />
				<font color="000000" name="Arial" size="8" />
				<position>18 312 87 348</position>
			</node>
			<node id="AirArmor2">
				<name>AirArmor2</name>
				<interior color="ff99cc" />
				<outline color="000080" />
				<font color="000000" name="Arial" size="8" />
				<position>133 299 198 335</position>
			</node>
			<node id="AirWeapons2">
				<name>AirWeapons2</name>
				<interior color="ff99cc" />
				<outline color="000080" />
				<font color="000000" name="Arial" size="8" />
				<position>136 206 232 248</position>
			</node>
			<node id="AirWeapons3">
				<name>AirWeapons3</name>
				<interior color="ff99cc" />
				<outline color="000080" />
				<font color="000000" name="Arial" size="8" />
				<position>23 213 119 255</position>
			</node>
		</genie>
	</extensions>
</smile>
