<?xml version="1.0" encoding="ISO-8859-1"?>
<smile version="1.0" id="Network1" numsamples="1000" discsamples="10000">
	<nodes>
		<cpt id="TimePeriod">
			<state id="Period1" />
			<state id="Period2" />
			<state id="Period3" />
			<state id="Period4" />
			<state id="Period5" />
			<state id="Period6" />
			<state id="Period7" />
			<state id="Period8" />
			<state id="Period9" />
			<state id="Period10" />
			<state id="Period11" />
			<state id="Period12" />
			<state id="Period13" />
			<state id="Period14" />
			<state id="Period15" />
			<state id="Period16" />
			<state id="Period17" />
			<state id="Period18" />
			<state id="Period19" />
			<state id="Period20" />
			<state id="Period21" />
			<state id="Period22" />
			<state id="Period23" />
			<state id="Period24" />
			<state id="Period25" />
			<probabilities>0.04946972010178113 0.04946972010178113 0.04946972010178113 0.04946972010178113 0.04946972010178113 0.04946972010178113 0.04946972010178113 0.04946972010178113 0.04946972010178113 0.04946972010178113 0.04885903307888037 0.04641628498727732 0.04641628498727732 0.0462127226463104 0.04356641221374043 0.04112366412213737 0.03705241730279896 0.03277760814249361 0.03094554707379133 0.02748498727735367 0.02504223918575062 0.02259949109414756 0.02117455470737912 0.01873180661577607 0.01689974554707378</probabilities>
		</cpt>
		<cpt id="Assimilator">
			<state id="Absent" />
			<state id="Present" />
			<parents>TimePeriod</parents>
			<probabilities>0.9997946611909651 0.0002053388090349076 0.9997946611909651 0.0002053388090349076 0.942299794661191 0.05770020533880904 0.9402464065708419 0.05975359342915812 0.4494866529774128 0.5505133470225874 0.4433264887063655 0.5566735112936345 0.1558521560574949 0.8441478439425052 0.08809034907597536 0.9119096509240248 0.06139630390143737 0.9386036960985628 0.04086242299794661 0.9591375770020535 0.03097713097713098 0.9690228690228692 0.006345733041575492 0.9936542669584245 0.001969365426695843 0.9980306345733042 0.001978021978021978 0.9980219780219781 0.002097902097902098 0.9979020979020979 0.002222222222222222 0.9977777777777778 0.002465753424657534 0.9975342465753425 0.002786377708978328 0.9972136222910218 0.002950819672131148 0.9970491803278689 0.003321033210332103 0.9966789667896679 0.003643724696356275 0.9963562753036437 0.004035874439461884 0.995964125560538 0.00430622009569378 0.9956937799043062 0.004864864864864866 0.9951351351351352 0.005389221556886228 0.9946107784431139</probabilities>
		</cpt>
		<cpt id="Pylon">
			<state id="Absent" />
			<state id="Present" />
			<parents>TimePeriod</parents>
			<probabilities>0.9997946611909651 0.0002053388090349076 0.06960985626283367 0.9303901437371664 0.008008213552361396 0.9919917864476386 0.001848049281314168 0.9981519507186859 0.001848049281314168 0.9981519507186859 0.001848049281314168 0.9981519507186859 0.001848049281314168 0.9981519507186859 0.001848049281314168 0.9981519507186859 0.001848049281314168 0.9981519507186859 0.001848049281314168 0.9981519507186859 0.001871101871101871 0.9981288981288983 0.001969365426695843 0.9980306345733042 0.001969365426695843 0.9980306345733042 0.001978021978021978 0.9980219780219781 0.002097902097902098 0.9979020979020979 0.002222222222222222 0.9977777777777778 0.002465753424657534 0.9975342465753425 0.002786377708978328 0.9972136222910218 0.002950819672131148 0.9970491803278689 0.003321033210332103 0.9966789667896679 0.003643724696356275 0.9963562753036437 0.004035874439461884 0.995964125560538 0.00430622009569378 0.9956937799043062 0.004864864864864866 0.9951351351351352 0.005389221556886228 0.9946107784431139</probabilities>
		</cpt>
		<cpt id="Gateway">
			<state id="Absent" />
			<state id="Present" />
			<parents>Pylon TimePeriod</parents>
			<probabilities>0.9997946611909651 0.0002053388090349076 0.9970588235294117 0.002941176470588235 0.975 0.025 0.9 0.1 0.9 0.1 0.9 0.1 0.9 0.1 0.9 0.1 0.9 0.1 0.9 0.1 0.9 0.1 0.9 0.1 0.9 0.1 0.9 0.1 0.9 0.1 0.9 0.1 0.9 0.1 0.9 0.1 0.9 0.1 0.9 0.1 0.9 0.1 0.9 0.1 0.9 0.1 0.9 0.1 0.9 0.1 0.9 0.1 0.5548458149779736 0.4451541850220265 0.2167355371900827 0.7832644628099175 0.08809034907597536 0.9119096509240248 0.06960985626283367 0.9303901437371664 0.06960985626283367 0.9303901437371664 0.06960985626283367 0.9303901437371664 0.06960985626283367 0.9303901437371664 0.04702258726899384 0.9529774127310062 0.03675564681724846 0.9632443531827516 0.0288981288981289 0.9711018711018712 0.001969365426695843 0.9980306345733042 0.001969365426695843 0.9980306345733042 0.001978021978021978 0.9980219780219781 0.002097902097902098 0.9979020979020979 0.002222222222222222 0.9977777777777778 0.002465753424657534 0.9975342465753425 0.002786377708978328 0.9972136222910218 0.002950819672131148 0.9970491803278689 0.003321033210332103 0.9966789667896679 0.003643724696356275 0.9963562753036437 0.004035874439461884 0.995964125560538 0.00430622009569378 0.9956937799043062 0.004864864864864866 0.9951351351351352 0.005389221556886228 0.9946107784431139</probabilities>
		</cpt>
		<cpt id="Zealot">
			<state id="Absent" />
			<state id="Present" />
			<parents>Gateway TimePeriod</parents>
			<probabilities>0.9997946611909651 0.0002053388090349076 0.9996491228070175 0.0003508771929824562 0.9990740740740741 0.000925925925925926 0.9976744186046511 0.002325581395348837 0.9970588235294117 0.002941176470588235 0.9970588235294117 0.002941176470588235 0.9970588235294117 0.002941176470588235 0.9970588235294117 0.002941176470588235 0.9956521739130434 0.004347826086956522 0.9944444444444444 0.005555555555555556 0.9928571428571429 0.007142857142857143 0.9 0.1 0.9 0.1 0.9 0.1 0.9 0.1 0.9 0.1 0.9 0.1 0.9 0.1 0.9 0.1 0.9 0.1 0.9 0.1 0.9 0.1 0.9 0.1 0.9 0.1 0.9 0.1 0.9 0.1 0.9995073891625617 0.0004926108374384237 0.6260526315789474 0.3739473684210526 0.2020224719101124 0.7979775280898878 0.0526431718061674 0.9473568281938327 0.006387665198237886 0.9936123348017623 0.006387665198237886 0.9936123348017623 0.004185022026431718 0.9958149779735684 0.02774193548387097 0.9722580645161291 0.03808510638297872 0.9619148936170213 0.03824786324786325 0.9617521367521369 0.03260393873085339 0.9673960612691466 0.01728665207877462 0.9827133479212254 0.01296703296703297 0.9870329670329671 0.00675990675990676 0.9932400932400933 0.004691358024691358 0.9953086419753087 0.005205479452054795 0.9947945205479453 0.005882352941176471 0.9941176470588237 0.006229508196721311 0.9937704918032788 0.007011070110701107 0.992988929889299 0.007692307692307692 0.9923076923076923 0.008520179372197309 0.9914798206278026 0.009090909090909091 0.9909090909090909 0.01027027027027027 0.9897297297297297 0.01137724550898204 0.988622754491018</probabilities>
		</cpt>
		<cpt id="CyberCore">
			<state id="Absent" />
			<state id="Present" />
			<parents>Gateway TimePeriod</parents>
			<probabilities>0.9997946611909651 0.0002053388090349076 0.9996491228070175 0.0003508771929824562 0.9990740740740741 0.000925925925925926 0.9976744186046511 0.002325581395348837 0.9970588235294117 0.002941176470588235 0.9970588235294117 0.002941176470588235 0.9970588235294117 0.002941176470588235 0.9970588235294117 0.002941176470588235 0.9956521739130434 0.004347826086956522 0.9944444444444444 0.005555555555555556 0.9928571428571429 0.007142857142857143 0.9 0.1 0.9 0.1 0.9 0.1 0.9 0.1 0.9 0.1 0.9 0.1 0.9 0.1 0.9 0.1 0.9 0.1 0.9 0.1 0.9 0.1 0.9 0.1 0.9 0.1 0.9 0.1 0.9 0.1 0.9995073891625617 0.0004926108374384237 0.999736842105263 0.0002631578947368421 0.9525842696629214 0.04741573033707866 0.5129955947136564 0.4870044052863436 0.4050660792951543 0.594933920704846 0.4028634361233481 0.597136563876652 0.4028634361233481 0.597136563876652 0.2320430107526882 0.7679569892473119 0.0848936170212766 0.9151063829787235 0.06175213675213676 0.9382478632478634 0.05448577680525164 0.9455142231947484 0.05229759299781181 0.9477024070021882 0.05032967032967033 0.9496703296703297 0.0324009324009324 0.9675990675990677 0.01703703703703704 0.982962962962963 0.005205479452054795 0.9947945205479453 0.002786377708978328 0.9972136222910218 0.002950819672131148 0.9970491803278689 0.003321033210332103 0.9966789667896679 0.003643724696356275 0.9963562753036437 0.004035874439461884 0.995964125560538 0.00430622009569378 0.9956937799043062 0.004864864864864866 0.9951351351351352 0.005389221556886228 0.9946107784431139</probabilities>
		</cpt>
		<cpt id="CitadelOfAdun">
			<state id="Absent" />
			<state id="Present" />
			<parents>CyberCore Assimilator TimePeriod</parents>
			<probabilities>0.9997946611909651 0.0002053388090349076 0.9997946611909651 0.0002053388090349076 0.9997821350762528 0.0002178649237472767 0.9997816593886462 0.0002183406113537118 0.9995391705069124 0.0004608294930875576 0.999537037037037 0.000462962962962963 0.9986842105263158 0.001315789473684211 0.9976744186046511 0.002325581395348837 0.9966666666666666 0.003333333333333334 0.995 0.005000000000000001 0.9933333333333333 0.006666666666666667 0.9666666666666666 0.03333333333333333 0.9 0.1 0.9 0.1 0.9 0.1 0.9 0.1 0.9 0.1 0.9 0.1 0.9 0.1 0.9 0.1 0.9 0.1 0.9 0.1 0.9 0.1 0.9 0.1 0.9 0.1 0.9 0.1 0.9 0.1 0.9965517241379309 0.003448275862068966 0.9888888888888889 0.01111111111111111 0.998 0.002 0.95 0.05 0.999290780141844 0.0007092198581560284 0.9994252873563219 0.0005747126436781609 0.9990099009900991 0.0009900990099009901 0.9973684210526315 0.002631578947368421 0.9964285714285713 0.003571428571428571 0.9956521739130434 0.004347826086956522 0.9958333333333332 0.004166666666666667 0.9956521739130434 0.004347826086956522 0.9928571428571429 0.007142857142857143 0.9857142857142858 0.01428571428571429 0.95 0.05 0.9 0.1 0.9 0.1 0.9 0.1 0.9 0.1 0.9 0.1 0.9 0.1 0.9 0.1 0.9 0.1 0.9 0.1 0.9 0.1 0.9 0.1 0.9 0.1 0.9666666666666666 0.03333333333333333 0.9 0.1 0.9 0.1 0.9 0.1 0.9 0.1 0.9 0.1 0.9 0.1 0.9 0.1 0.9 0.1 0.9 0.1 0.9 0.1 0.9 0.1 0.9 0.1 0.9 0.1 0.9 0.1 0.9 0.1 0.9 0.1 0.9 0.1 0.9 0.1 0.9 0.1 0.9 0.1 0.9 0.1 0.9 0.1 0.9 0.1 0.9954545454545454 0.004545454545454546 0.9495454545454545 0.05045454545454545 0.903690036900369 0.096309963099631 0.8966911764705883 0.1033088235294118 0.893014705882353 0.1069852941176471 0.9187150837988827 0.08128491620111733 0.925522041763341 0.07447795823665894 0.8338636363636363 0.1661363636363636 0.5009237875288684 0.4990762124711316 0.426036866359447 0.573963133640553 0.3808314087759815 0.6191685912240186 0.3170673076923077 0.6829326923076924 0.2804511278195489 0.7195488721804512 0.2552197802197803 0.7447802197802199 0.2226006191950465 0.7773993808049536 0.18 0.82 0.1398523985239852 0.8601476014760148 0.1129554655870445 0.8870445344129555 0.08923766816143497 0.910762331838565 0.07607655502392345 0.9239234449760765 0.06972972972972974 0.9302702702702703 0.0532934131736527 0.9467065868263473</probabilities>
		</cpt>
		<cpt id="TemplarArchives">
			<state id="Absent" />
			<state id="Present" />
			<parents>CitadelOfAdun TimePeriod</parents>
			<probabilities>0.9997946611909651 0.0002053388090349076 0.9997946611909651 0.0002053388090349076 0.9997946611909651 0.0002053388090349076 0.9997946611909651 0.0002053388090349076 0.9997899159663864 0.0002100840336134454 0.9997830802603037 0.0002169197396963124 0.9997821350762528 0.0002178649237472767 0.9997816593886462 0.0002183406113537118 0.9997816593886462 0.0002183406113537118 0.9997802197802197 0.0002197802197802198 0.9997549019607842 0.0002450980392156863 0.9995850622406639 0.0004149377593360996 0.9995192307692309 0.0004807692307692308 0.9994652406417112 0.0005347593582887701 0.9993103448275862 0.0006896551724137932 0.9991525423728814 0.0008474576271186442 0.998936170212766 0.001063829787234043 0.9986111111111111 0.001388888888888889 0.9981818181818181 0.001818181818181818 0.9973684210526315 0.002631578947368421 0.9964285714285713 0.003571428571428571 0.995 0.005000000000000001 0.99375 0.00625 0.9923076923076923 0.007692307692307693 0.9888888888888889 0.01111111111111111 0.9 0.1 0.9 0.1 0.9 0.1 0.9 0.1 0.9916666666666667 0.008333333333333333 0.4407407407407407 0.5592592592592592 0.09999999999999999 0.9 0.09666666666666667 0.9033333333333333 0.03 0.9700000000000001 0.1181818181818182 0.8818181818181818 0.5932432432432433 0.4067567567567568 0.7460829493087557 0.2539170506912443 0.2156 0.7844 0.1446096654275093 0.8553903345724907 0.1540350877192983 0.8459649122807017 0.1177083333333333 0.8822916666666666 0.09522058823529411 0.9047794117647059 0.05912698412698413 0.9408730158730158 0.06733067729083665 0.9326693227091634 0.06367521367521369 0.9363247863247864 0.04045454545454545 0.9595454545454545 0.04852941176470588 0.9514705882352941 0.04587628865979382 0.9541237113402061 0.02254335260115607 0.9774566473988439 0.01823899371069182 0.9817610062893082</probabilities>
		</cpt>
		<cpt id="DarkTemplar">
			<state id="Absent" />
			<state id="Present" />
			<parents>TemplarArchives TimePeriod</parents>
			<probabilities>0.9997946611909651 0.0002053388090349076 0.9997946611909651 0.0002053388090349076 0.9997946611909651 0.0002053388090349076 0.9997946611909651 0.0002053388090349076 0.9997946611909651 0.0002053388090349076 0.9997881355932203 0.000211864406779661 0.9997830802603037 0.0002169197396963124 0.9997826086956522 0.0002173913043478261 0.9997816593886462 0.0002183406113537118 0.9997816593886462 0.0002183406113537118 0.9997782705099778 0.000221729490022173 0.9997512437810945 0.0002487562189054726 0.9996168582375478 0.0003831417624521073 0.9995555555555555 0.0004444444444444445 0.999468085106383 0.0005319148936170213 0.9927152317880795 0.00728476821192053 0.9991596638655462 0.0008403361344537816 0.9988372093023257 0.001162790697674419 0.9985915492957748 0.001408450704225352 0.9980769230769231 0.001923076923076923 0.9972222222222221 0.002777777777777778 0.9965517241379309 0.003448275862068966 0.9958333333333332 0.004166666666666667 0.99375 0.00625 0.990909090909091 0.009090909090909092 0.9 0.1 0.9 0.1 0.9 0.1 0.9 0.1 0.9 0.1 0.99375 0.00625 0.3666666666666666 0.6333333333333333 0.06785714285714285 0.9321428571428572 0.09666666666666667 0.9033333333333333 0.06333333333333333 0.9366666666666667 0.09354838709677418 0.9064516129032259 0.4982142857142857 0.5017857142857143 0.8573604060913705 0.1426395939086294 0.8696969696969698 0.1303030303030303 0.8466942148760331 0.153305785123967 0.8388235294117648 0.1611764705882353 0.8093117408906883 0.1906882591093118 0.7936974789915966 0.2063025210084034 0.7187234042553192 0.2812765957446808 0.5904545454545455 0.4095454545454545 0.4900943396226415 0.5099056603773584 0.3943589743589744 0.6056410256410256 0.3327956989247312 0.6672043010752689 0.3170588235294117 0.6829411764705882 0.2668789808917197 0.7331210191082802</probabilities>
		</cpt>
		<cpt id="RoboticsFacility">
			<state id="Absent" />
			<state id="Present" />
			<parents>CyberCore Assimilator TimePeriod</parents>
			<probabilities>0.9997946611909651 0.0002053388090349076 0.9997946611909651 0.0002053388090349076 0.9997821350762528 0.0002178649237472767 0.9997816593886462 0.0002183406113537118 0.9995391705069124 0.0004608294930875576 0.999537037037037 0.000462962962962963 0.9986842105263158 0.001315789473684211 0.9976744186046511 0.002325581395348837 0.9966666666666666 0.003333333333333334 0.995 0.005000000000000001 0.9933333333333333 0.006666666666666667 0.9666666666666666 0.03333333333333333 0.9 0.1 0.9 0.1 0.9 0.1 0.9 0.1 0.9 0.1 0.9 0.1 0.9 0.1 0.9 0.1 0.9 0.1 0.9 0.1 0.9 0.1 0.9 0.1 0.9 0.1 0.9 0.1 0.9 0.1 0.9965517241379309 0.003448275862068966 0.9888888888888889 0.01111111111111111 0.998 0.002 0.95 0.05 0.999290780141844 0.0007092198581560284 0.9994252873563219 0.0005747126436781609 0.9990099009900991 0.0009900990099009901 0.9973684210526315 0.002631578947368421 0.9964285714285713 0.003571428571428571 0.9956521739130434 0.004347826086956522 0.9958333333333332 0.004166666666666667 0.9956521739130434 0.004347826086956522 0.9928571428571429 0.007142857142857143 0.9857142857142858 0.01428571428571429 0.95 0.05 0.9 0.1 0.9 0.1 0.9 0.1 0.9 0.1 0.9 0.1 0.9 0.1 0.9 0.1 0.9 0.1 0.9 0.1 0.9 0.1 0.9 0.1 0.9 0.1 0.9666666666666666 0.03333333333333333 0.9 0.1 0.9 0.1 0.9 0.1 0.9 0.1 0.9 0.1 0.9 0.1 0.9 0.1 0.9 0.1 0.9 0.1 0.9 0.1 0.9 0.1 0.9 0.1 0.9 0.1 0.9 0.1 0.9 0.1 0.9 0.1 0.9 0.1 0.9 0.1 0.9 0.1 0.9 0.1 0.9 0.1 0.9 0.1 0.9 0.1 0.9954545454545454 0.004545454545454546 0.9995454545454545 0.0004545454545454546 0.999630996309963 0.0003690036900369004 0.9591911764705882 0.04080882352941177 0.79375 0.20625 0.7818435754189944 0.2181564245810056 0.7932714617169373 0.2067285382830626 0.781590909090909 0.2184090909090909 0.7711316397228637 0.2288683602771363 0.6794930875576036 0.3205069124423963 0.4593533487297922 0.5406466512702078 0.4036057692307692 0.5963942307692308 0.3105263157894737 0.6894736842105264 0.2524725274725275 0.7475274725274727 0.2164086687306502 0.7835913312693499 0.18 0.82 0.1730627306273063 0.8269372693726936 0.1331983805668016 0.8668016194331983 0.09820627802690582 0.9017937219730942 0.08086124401913875 0.9191387559808611 0.06432432432432433 0.9356756756756757 0.04730538922155689 0.9526946107784431</probabilities>
		</cpt>
		<cpt id="RoboticsSupportBay">
			<state id="Absent" />
			<state id="Present" />
			<parents>RoboticsFacility TimePeriod</parents>
			<probabilities>0.9997946611909651 0.0002053388090349076 0.9997946611909651 0.0002053388090349076 0.9997946611909651 0.0002053388090349076 0.9997946611909651 0.0002053388090349076 0.9997946611909651 0.0002053388090349076 0.9997946611909651 0.0002053388090349076 0.9997899159663864 0.0002100840336134454 0.999767981438515 0.0002320185614849188 0.9997555012224938 0.0002444987775061125 0.9997487437185929 0.0002512562814070352 0.9997402597402597 0.0002597402597402597 0.9997206703910614 0.0002793296089385475 0.9996855345911949 0.0003144654088050315 0.9995475113122173 0.0004524886877828055 0.9994475138121547 0.0005524861878453039 0.9992307692307694 0.0007692307692307693 0.9989247311827958 0.001075268817204301 0.9985714285714287 0.001428571428571429 0.9981818181818181 0.001818181818181818 0.9978723404255319 0.002127659574468085 0.996969696969697 0.003030303030303031 0.9954545454545454 0.004545454545454546 0.9941176470588234 0.005882352941176471 0.9916666666666667 0.008333333333333333 0.9875 0.0125 0.9 0.1 0.9 0.1 0.9 0.1 0.9 0.1 0.9 0.1 0.9 0.1 0.9916666666666667 0.008333333333333333 0.9807017543859649 0.01929824561403509 0.6189873417721519 0.3810126582278481 0.31 0.6900000000000001 0.2670103092783505 0.7329896907216494 0.309 0.691 0.4635714285714286 0.5364285714285714 0.6676595744680851 0.3323404255319149 0.7024096385542168 0.2975903614457831 0.7242753623188406 0.2757246376811594 0.5967032967032967 0.4032967032967033 0.4838582677165355 0.5161417322834645 0.4139442231075697 0.5860557768924303 0.3640000000000001 0.636 0.3297674418604651 0.6702325581395349 0.3014851485148515 0.6985148514851485 0.2689119170984456 0.7310880829015544 0.2120689655172414 0.7879310344827586 0.186875 0.813125</probabilities>
		</cpt>
		<cpt id="Forge">
			<state id="Absent" />
			<state id="Present" />
			<parents>Pylon TimePeriod</parents>
			<probabilities>0.9997946611909651 0.0002053388090349076 0.9970588235294117 0.002941176470588235 0.975 0.025 0.9 0.1 0.9 0.1 0.9 0.1 0.9 0.1 0.9 0.1 0.9 0.1 0.9 0.1 0.9 0.1 0.9 0.1 0.9 0.1 0.9 0.1 0.9 0.1 0.9 0.1 0.9 0.1 0.9 0.1 0.9 0.1 0.9 0.1 0.9 0.1 0.9 0.1 0.9 0.1 0.9 0.1 0.9 0.1 0.9 0.1 0.9997797356828194 0.0002202643171806168 0.9997933884297521 0.0002066115702479339 0.997741273100616 0.002258726899383984 0.9628336755646817 0.03716632443531828 0.8848049281314169 0.1151950718685832 0.7410677618069815 0.2589322381930185 0.6691991786447639 0.3308008213552361 0.5377823408624229 0.462217659137577 0.32217659137577 0.6778234086242301 0.2347193347193347 0.7652806652806654 0.1989059080962801 0.8010940919037199 0.1792122538293217 0.8207877461706784 0.1602197802197802 0.8397802197802199 0.127972027972028 0.8720279720279721 0.09851851851851852 0.9014814814814816 0.08191780821917807 0.918082191780822 0.07708978328173374 0.9229102167182663 0.07508196721311475 0.9249180327868853 0.04760147601476015 0.9523985239852399 0.0319838056680162 0.9680161943319838 0.03094170403587444 0.9690582959641255 0.02822966507177034 0.9717703349282296 0.02648648648648649 0.9735135135135136 0.02335329341317365 0.9766467065868264</probabilities>
		</cpt>
		<cpt id="PhotonCannon">
			<state id="Absent" />
			<state id="Present" />
			<parents>Forge TimePeriod</parents>
			<probabilities>0.9997946611909651 0.0002053388090349076 0.9997946611909651 0.0002053388090349076 0.9997946611909651 0.0002053388090349076 0.9997942386831276 0.000205761316872428 0.9997867803837952 0.0002132196162046909 0.999767981438515 0.0002320185614849188 0.9997229916897507 0.0002770083102493075 0.9996932515337423 0.0003067484662576687 0.9996183206106869 0.0003816793893129771 0.9993630573248409 0.0006369426751592357 0.9991150442477876 0.0008849557522123894 0.998901098901099 0.001098901098901099 0.9987804878048782 0.001219512195121951 0.9986301369863014 0.00136986301369863 0.9981818181818181 0.001818181818181818 0.9975000000000001 0.002500000000000001 0.9966666666666666 0.003333333333333334 0.996 0.004 0.9956521739130434 0.004347826086956522 0.9923076923076923 0.007692307692307693 0.9875 0.0125 0.9857142857142858 0.01428571428571429 0.9833333333333334 0.01666666666666667 0.9800000000000001 0.02 0.975 0.025 0.9 0.1 0.9 0.1 0.9 0.1 0.95 0.05 0.731578947368421 0.2684210526315789 0.6298245614035087 0.3701754385964912 0.4716535433070866 0.5283464566929134 0.295679012345679 0.7043209876543209 0.2915929203539823 0.7084070796460177 0.386404833836858 0.613595166163142 0.118970189701897 0.881029810298103 0.05149863760217983 0.9485013623978202 0.04228723404255319 0.9577127659574468 0.03890339425587468 0.9610966057441254 0.03973333333333334 0.9602666666666667 0.04617486338797814 0.953825136612022 0.05029761904761904 0.949702380952381 0.03645484949832776 0.9635451505016723 0.0314487632508834 0.9685512367491167 0.03436293436293437 0.9656370656370656 0.02041666666666667 0.9795833333333333 0.01797235023041475 0.9820276497695852 0.01911764705882353 0.9808823529411764 0.01602209944751381 0.9839779005524861 0.02378048780487805 0.9762195121951219</probabilities>
		</cpt>
		<cpt id="Stargate">
			<state id="Absent" />
			<state id="Present" />
			<parents>CyberCore Assimilator TimePeriod</parents>
			<probabilities>0.9997946611909651 0.0002053388090349076 0.9997946611909651 0.0002053388090349076 0.9997821350762528 0.0002178649237472767 0.9997816593886462 0.0002183406113537118 0.9995391705069124 0.0004608294930875576 0.999537037037037 0.000462962962962963 0.9986842105263158 0.001315789473684211 0.9976744186046511 0.002325581395348837 0.9966666666666666 0.003333333333333334 0.995 0.005000000000000001 0.9933333333333333 0.006666666666666667 0.9666666666666666 0.03333333333333333 0.9 0.1 0.9 0.1 0.9 0.1 0.9 0.1 0.9 0.1 0.9 0.1 0.9 0.1 0.9 0.1 0.9 0.1 0.9 0.1 0.9 0.1 0.9 0.1 0.9 0.1 0.9 0.1 0.9 0.1 0.9965517241379309 0.003448275862068966 0.9888888888888889 0.01111111111111111 0.998 0.002 0.95 0.05 0.999290780141844 0.0007092198581560284 0.9994252873563219 0.0005747126436781609 0.9990099009900991 0.0009900990099009901 0.9973684210526315 0.002631578947368421 0.9964285714285713 0.003571428571428571 0.9956521739130434 0.004347826086956522 0.9958333333333332 0.004166666666666667 0.9956521739130434 0.004347826086956522 0.9928571428571429 0.007142857142857143 0.9857142857142858 0.01428571428571429 0.95 0.05 0.9 0.1 0.9 0.1 0.9 0.1 0.9 0.1 0.9 0.1 0.9 0.1 0.9 0.1 0.9 0.1 0.9 0.1 0.9 0.1 0.9 0.1 0.9 0.1 0.9666666666666666 0.03333333333333333 0.9 0.1 0.9 0.1 0.9 0.1 0.9 0.1 0.9 0.1 0.9 0.1 0.9 0.1 0.9 0.1 0.9 0.1 0.9 0.1 0.9 0.1 0.9 0.1 0.9 0.1 0.9 0.1 0.9 0.1 0.9 0.1 0.9 0.1 0.9 0.1 0.9 0.1 0.9 0.1 0.9 0.1 0.9 0.1 0.9 0.1 0.9954545454545454 0.004545454545454546 0.9995454545454545 0.0004545454545454546 0.999630996309963 0.0003690036900369004 0.9996323529411764 0.0003676470588235294 0.9996323529411764 0.0003676470588235294 0.9997206703910614 0.0002793296089385475 0.999767981438515 0.0002320185614849188 0.9997727272727272 0.0002272727272727273 0.9997690531177829 0.0002309468822170901 0.9997695852534562 0.0002304147465437788 0.9997690531177829 0.0002309468822170901 0.9997596153846153 0.0002403846153846154 0.969674185463659 0.03032581453634085 0.8541208791208791 0.1458791208791209 0.7643962848297214 0.2356037151702786 0.7013114754098361 0.2986885245901639 0.6490774907749077 0.3509225092250922 0.5866396761133603 0.4133603238866397 0.5376681614349776 0.4623318385650224 0.5210526315789473 0.4789473684210526 0.4372972972972973 0.5627027027027027 0.358682634730539 0.641317365269461</probabilities>
		</cpt>
		<cpt id="Observatory">
			<state id="Absent" />
			<state id="Present" />
			<parents>RoboticsFacility TimePeriod</parents>
			<probabilities>0.9997946611909651 0.0002053388090349076 0.9997946611909651 0.0002053388090349076 0.9997946611909651 0.0002053388090349076 0.9997946611909651 0.0002053388090349076 0.9997946611909651 0.0002053388090349076 0.9997946611909651 0.0002053388090349076 0.9997899159663864 0.0002100840336134454 0.999767981438515 0.0002320185614849188 0.9997555012224938 0.0002444987775061125 0.9997487437185929 0.0002512562814070352 0.9997402597402597 0.0002597402597402597 0.9997206703910614 0.0002793296089385475 0.9996855345911949 0.0003144654088050315 0.9995475113122173 0.0004524886877828055 0.9994475138121547 0.0005524861878453039 0.9992307692307694 0.0007692307692307693 0.9989247311827958 0.001075268817204301 0.9985714285714287 0.001428571428571429 0.9981818181818181 0.001818181818181818 0.9978723404255319 0.002127659574468085 0.996969696969697 0.003030303030303031 0.9954545454545454 0.004545454545454546 0.9941176470588234 0.005882352941176471 0.9916666666666667 0.008333333333333333 0.9875 0.0125 0.9 0.1 0.9 0.1 0.9 0.1 0.9 0.1 0.9 0.1 0.9 0.1 0.9916666666666667 0.008333333333333333 0.963157894736842 0.03684210526315789 0.9227848101265823 0.07721518987341772 0.8766666666666668 0.1233333333333333 0.7721649484536083 0.2278350515463918 0.7290000000000001 0.271 0.7992857142857143 0.2007142857142857 0.8676595744680852 0.1323404255319149 0.8349397590361445 0.1650602409638554 0.7278985507246377 0.2721014492753623 0.5893772893772894 0.4106227106227106 0.4838582677165355 0.5161417322834645 0.3382470119521913 0.6617529880478087 0.2662222222222222 0.7337777777777778 0.2134883720930232 0.7865116279069767 0.1925742574257426 0.8074257425742574 0.1497409326424871 0.850259067357513 0.1086206896551724 0.8913793103448275 0.07437500000000001 0.925625</probabilities>
		</cpt>
		<cpt id="ArbiterTribunal">
			<state id="Absent" />
			<state id="Present" />
			<parents>TemplarArchives Stargate TimePeriod</parents>
			<probabilities>0.9997946611909651 0.0002053388090349076 0.9997946611909651 0.0002053388090349076 0.9997946611909651 0.0002053388090349076 0.9997946611909651 0.0002053388090349076 0.9997946611909651 0.0002053388090349076 0.9997881355932203 0.000211864406779661 0.9997830802603037 0.0002169197396963124 0.9997826086956522 0.0002173913043478261 0.9997816593886462 0.0002183406113537118 0.9997816593886462 0.0002183406113537118 0.9997782705099778 0.000221729490022173 0.9997512437810945 0.0002487562189054726 0.9996168582375478 0.0003831417624521073 0.9995555555555555 0.0004444444444444445 0.999468085106383 0.0005319148936170213 0.999337748344371 0.0006622516556291391 0.9991525423728814 0.0008474576271186442 0.9988095238095238 0.001190476190476191 0.9985507246376812 0.001449275362318841 0.9979591836734693 0.002040816326530612 0.9970588235294117 0.002941176470588235 0.9962962962962962 0.003703703703703704 0.9956521739130434 0.004347826086956522 0.99375 0.00625 0.990909090909091 0.009090909090909092 0.9 0.1 0.9 0.1 0.9 0.1 0.9 0.1 0.9 0.1 0.9 0.1 0.9 0.1 0.9 0.1 0.9 0.1 0.9 0.1 0.9 0.1 0.9 0.1 0.9 0.1 0.9 0.1 0.9 0.1 0.9 0.1 0.95 0.05 0.9666666666666666 0.03333333333333333 0.9666666666666666 0.03333333333333333 0.975 0.025 0.9666666666666666 0.03333333333333333 0.9666666666666666 0.03333333333333333 0.95 0.05 0.9 0.1 0.9 0.1 0.9 0.1 0.9 0.1 0.9 0.1 0.9 0.1 0.9 0.1 0.99375 0.00625 0.9962962962962962 0.003703703703703704 0.9964285714285713 0.003571428571428571 0.9966666666666666 0.003333333333333334 0.9966666666666666 0.003333333333333334 0.996774193548387 0.003225806451612903 0.9982142857142856 0.001785714285714286 0.999492385786802 0.0005076142131979696 0.9995670995670996 0.0004329004329004329 0.9995867768595041 0.0004132231404958678 0.9995884773662552 0.000411522633744856 0.9994871794871795 0.0005128205128205128 0.9993902439024391 0.0006097560975609757 0.9993150684931507 0.0006849315068493151 0.99921875 0.00078125 0.9991071428571429 0.0008928571428571428 0.998936170212766 0.001063829787234043 0.9988505747126437 0.001149425287356322 0.9984848484848486 0.001515151515151515 0.998 0.002 0.9 0.1 0.9 0.1 0.9 0.1 0.9 0.1 0.9 0.1 0.9 0.1 0.9 0.1 0.9 0.1 0.9 0.1 0.9 0.1 0.9 0.1 0.9 0.1 0.9 0.1 0.9 0.1 0.9 0.1 0.9923076923076923 0.007692307692307693 0.9981132075471697 0.001886792452830189 0.9986666666666668 0.001333333333333334 0.9988888888888889 0.001111111111111111 0.9989247311827958 0.001075268817204301 0.9990099009900991 0.0009900990099009901 0.9990196078431373 0.0009803921568627451 0.9990000000000001 0.001 0.9990476190476192 0.0009523809523809525 0.9990740740740741 0.000925925925925926</probabilities>
		</cpt>
		<cpt id="FleetBeacon">
			<state id="Absent" />
			<state id="Present" />
			<parents>Stargate TimePeriod</parents>
			<probabilities>0.9997946611909651 0.0002053388090349076 0.9997946611909651 0.0002053388090349076 0.9997946611909651 0.0002053388090349076 0.9997946611909651 0.0002053388090349076 0.9997946611909651 0.0002053388090349076 0.9997946611909651 0.0002053388090349076 0.9997946611909651 0.0002053388090349076 0.9997946611909651 0.0002053388090349076 0.9997946611909651 0.0002053388090349076 0.9997946611909651 0.0002053388090349076 0.9997920997920998 0.0002079002079002079 0.9997811816192559 0.0002188183807439825 0.9997811816192559 0.0002188183807439825 0.9997802197802197 0.0002197802197802198 0.9997668997668997 0.0002331002331002331 0.9997455470737914 0.0002544529262086515 0.9996794871794871 0.0003205128205128205 0.9995951417004049 0.0004048582995951417 0.9995327102803738 0.0004672897196261682 0.9994318181818183 0.0005681818181818183 0.9993103448275862 0.0006896551724137932 0.9991666666666667 0.0008333333333333334 0.9990825688073396 0.0009174311926605505 0.9987654320987655 0.001234567901234568 0.9983333333333333 0.001666666666666667 0.9 0.1 0.9 0.1 0.9 0.1 0.9 0.1 0.9 0.1 0.9 0.1 0.9 0.1 0.9 0.1 0.9 0.1 0.9 0.1 0.9 0.1 0.9 0.1 0.9 0.1 0.9 0.1 0.9 0.1 0.9923076923076923 0.007692307692307693 0.9981481481481481 0.001851851851851852 0.9727272727272729 0.02727272727272728 0.9554347826086957 0.04456521739130434 0.9364583333333334 0.06354166666666666 0.9116504854368932 0.08834951456310679 0.8548076923076924 0.1451923076923077 0.7712871287128713 0.2287128712871287 0.7419047619047621 0.2580952380952382 0.5546296296296296 0.4453703703703704</probabilities>
		</cpt>
		<cpt id="ShieldBattery">
			<state id="Absent" />
			<state id="Present" />
			<parents>Gateway TimePeriod</parents>
			<probabilities>0.9997946611909651 0.0002053388090349076 0.9996491228070175 0.0003508771929824562 0.9990740740740741 0.000925925925925926 0.9976744186046511 0.002325581395348837 0.9970588235294117 0.002941176470588235 0.9970588235294117 0.002941176470588235 0.9970588235294117 0.002941176470588235 0.9970588235294117 0.002941176470588235 0.9956521739130434 0.004347826086956522 0.9944444444444444 0.005555555555555556 0.9928571428571429 0.007142857142857143 0.9 0.1 0.9 0.1 0.9 0.1 0.9 0.1 0.9 0.1 0.9 0.1 0.9 0.1 0.9 0.1 0.9 0.1 0.9 0.1 0.9 0.1 0.9 0.1 0.9 0.1 0.9 0.1 0.9 0.1 0.9995073891625617 0.0004926108374384237 0.999736842105263 0.0002631578947368421 0.7840449438202247 0.2159550561797753 0.6297356828193833 0.3702643171806168 0.6077092511013216 0.3922907488986784 0.6011013215859031 0.3988986784140969 0.5768722466960352 0.4231277533039648 0.5546236559139784 0.4453763440860215 0.5572340425531914 0.4427659574468085 0.5553418803418804 0.4446581196581197 0.5424507658643326 0.4575492341356674 0.5424507658643326 0.4575492341356674 0.5404395604395604 0.4595604395604396 0.5242424242424243 0.4757575757575758 0.5083950617283951 0.4916049382716049 0.5038356164383562 0.4961643835616438 0.5043343653250775 0.4956656346749226 0.5045901639344262 0.4954098360655738 0.5051660516605167 0.4948339483394834 0.505668016194332 0.494331983805668 0.5062780269058296 0.4937219730941704 0.5066985645933014 0.4933014354066985 0.5075675675675676 0.4924324324324325 0.5083832335329342 0.4916167664670659</probabilities>
		</cpt>
		<cpt id="Dragoon">
			<state id="Absent" />
			<state id="Present" />
			<parents>CyberCore Assimilator TimePeriod</parents>
			<probabilities>0.9997946611909651 0.0002053388090349076 0.9997946611909651 0.0002053388090349076 0.9997821350762528 0.0002178649237472767 0.9997816593886462 0.0002183406113537118 0.9995391705069124 0.0004608294930875576 0.999537037037037 0.000462962962962963 0.9986842105263158 0.001315789473684211 0.9976744186046511 0.002325581395348837 0.9966666666666666 0.003333333333333334 0.995 0.005000000000000001 0.9933333333333333 0.006666666666666667 0.9666666666666666 0.03333333333333333 0.9 0.1 0.9 0.1 0.9 0.1 0.9 0.1 0.9 0.1 0.9 0.1 0.9 0.1 0.9 0.1 0.9 0.1 0.9 0.1 0.9 0.1 0.9 0.1 0.9 0.1 0.9 0.1 0.9 0.1 0.9965517241379309 0.003448275862068966 0.9888888888888889 0.01111111111111111 0.998 0.002 0.95 0.05 0.999290780141844 0.0007092198581560284 0.9994252873563219 0.0005747126436781609 0.9990099009900991 0.0009900990099009901 0.9973684210526315 0.002631578947368421 0.9964285714285713 0.003571428571428571 0.9956521739130434 0.004347826086956522 0.9958333333333332 0.004166666666666667 0.9956521739130434 0.004347826086956522 0.9928571428571429 0.007142857142857143 0.9857142857142858 0.01428571428571429 0.95 0.05 0.9 0.1 0.9 0.1 0.9 0.1 0.9 0.1 0.9 0.1 0.9 0.1 0.9 0.1 0.9 0.1 0.9 0.1 0.9 0.1 0.9 0.1 0.9 0.1 0.9666666666666666 0.03333333333333333 0.9 0.1 0.9 0.1 0.9 0.1 0.9 0.1 0.9 0.1 0.9 0.1 0.9 0.1 0.9 0.1 0.9 0.1 0.9 0.1 0.9 0.1 0.9 0.1 0.9 0.1 0.9 0.1 0.9 0.1 0.9 0.1 0.9 0.1 0.9 0.1 0.9 0.1 0.9 0.1 0.9 0.1 0.9 0.1 0.9 0.1 0.9954545454545454 0.004545454545454546 0.995 0.005 0.6970479704797048 0.3029520295202952 0.3856617647058824 0.6143382352941176 0.1540441176470588 0.8459558823529412 0.332122905027933 0.667877094972067 0.3640371229698376 0.6359628770301624 0.1111363636363636 0.8888636363636364 0.06905311778290993 0.9309468822170901 0.05046082949308756 0.9495391705069125 0.03441108545034642 0.9655889145496536 0.02139423076923077 0.9786057692307694 0.01979949874686717 0.9802005012531329 0.02170329670329671 0.9782967032967035 0.0151702786377709 0.9848297213622292 0.01278688524590164 0.9872131147540985 0.01070110701107011 0.9892988929889299 0.01174089068825911 0.9882591093117409 0.008520179372197309 0.9914798206278026 0.009090909090909091 0.9909090909090909 0.004864864864864866 0.9951351351351352 0.005389221556886228 0.9946107784431139</probabilities>
		</cpt>
		<cpt id="HighTemplar">
			<state id="Absent" />
			<state id="Present" />
			<parents>TemplarArchives TimePeriod</parents>
			<probabilities>0.9997946611909651 0.0002053388090349076 0.9997946611909651 0.0002053388090349076 0.9997946611909651 0.0002053388090349076 0.9997946611909651 0.0002053388090349076 0.9997946611909651 0.0002053388090349076 0.9997881355932203 0.000211864406779661 0.9997830802603037 0.0002169197396963124 0.9997826086956522 0.0002173913043478261 0.9997816593886462 0.0002183406113537118 0.9997816593886462 0.0002183406113537118 0.9997782705099778 0.000221729490022173 0.9997512437810945 0.0002487562189054726 0.9996168582375478 0.0003831417624521073 0.9995555555555555 0.0004444444444444445 0.999468085106383 0.0005319148936170213 0.999337748344371 0.0006622516556291391 0.9907563025210084 0.009243697478991597 0.9988372093023257 0.001162790697674419 0.9985915492957748 0.001408450704225352 0.9980769230769231 0.001923076923076923 0.9972222222222221 0.002777777777777778 0.9965517241379309 0.003448275862068966 0.9958333333333332 0.004166666666666667 0.99375 0.00625 0.990909090909091 0.009090909090909092 0.9 0.1 0.9 0.1 0.9 0.1 0.9 0.1 0.9 0.1 0.99375 0.00625 0.9962962962962962 0.003703703703703704 0.9964285714285713 0.003571428571428571 0.9633333333333333 0.03666666666666667 0.9633333333333333 0.03666666666666667 0.7709677419354838 0.2290322580645161 0.7482142857142856 0.2517857142857143 0.8522842639593908 0.1477157360406091 0.7051948051948053 0.2948051948051948 0.45 0.55 0.3525490196078431 0.6474509803921569 0.3072874493927126 0.6927125506072874 0.2810924369747899 0.7189075630252101 0.2591489361702128 0.7408510638297873 0.2268181818181818 0.7731818181818181 0.2070754716981132 0.7929245283018868 0.1841025641025641 0.8158974358974359 0.15 0.8500000000000001 0.1464705882352941 0.8535294117647059 0.1140127388535032 0.8859872611464968</probabilities>
		</cpt>
		<cpt id="Shuttle">
			<state id="Absent" />
			<state id="Present" />
			<parents>RoboticsFacility TimePeriod</parents>
			<probabilities>0.9997946611909651 0.0002053388090349076 0.9997946611909651 0.0002053388090349076 0.9997946611909651 0.0002053388090349076 0.9997946611909651 0.0002053388090349076 0.9997946611909651 0.0002053388090349076 0.9997946611909651 0.0002053388090349076 0.9997899159663864 0.0002100840336134454 0.999767981438515 0.0002320185614849188 0.9997555012224938 0.0002444987775061125 0.9997487437185929 0.0002512562814070352 0.9997402597402597 0.0002597402597402597 0.9997206703910614 0.0002793296089385475 0.9996855345911949 0.0003144654088050315 0.9995475113122173 0.0004524886877828055 0.9994475138121547 0.0005524861878453039 0.9992307692307694 0.0007692307692307693 0.9989247311827958 0.001075268817204301 0.9985714285714287 0.001428571428571429 0.9981818181818181 0.001818181818181818 0.9978723404255319 0.002127659574468085 0.996969696969697 0.003030303030303031 0.9954545454545454 0.004545454545454546 0.9941176470588234 0.005882352941176471 0.9916666666666667 0.008333333333333333 0.9875 0.0125 0.9 0.1 0.9 0.1 0.9 0.1 0.9 0.1 0.9 0.1 0.9 0.1 0.9916666666666667 0.008333333333333333 0.9982456140350876 0.001754385964912281 0.99873417721519 0.001265822784810127 0.9988888888888889 0.001111111111111111 0.9989690721649485 0.001030927835051546 0.9990000000000001 0.001 0.9992857142857143 0.0007142857142857143 0.9953191489361702 0.004680851063829788 0.9875502008032128 0.01244979919678715 0.9018115942028986 0.09818840579710146 0.7505494505494506 0.2494505494505494 0.6610236220472441 0.3389763779527559 0.6330677290836654 0.3669322709163346 0.5995555555555556 0.4004444444444444 0.5948837209302326 0.4051162790697674 0.5935643564356437 0.4064356435643564 0.5694300518134715 0.4305699481865285 0.5511494252873563 0.4488505747126436 0.524375 0.475625</probabilities>
		</cpt>
		<cpt id="Reaver">
			<state id="Absent" />
			<state id="Present" />
			<parents>RoboticsSupportBay TimePeriod</parents>
			<probabilities>0.9997946611909651 0.0002053388090349076 0.9997946611909651 0.0002053388090349076 0.9997946611909651 0.0002053388090349076 0.9997946611909651 0.0002053388090349076 0.9997946611909651 0.0002053388090349076 0.9997946611909651 0.0002053388090349076 0.9997946611909651 0.0002053388090349076 0.9997942386831276 0.000205761316872428 0.9997811816192559 0.0002188183807439825 0.9997647058823528 0.0002352941176470588 0.9997560975609755 0.0002439024390243902 0.999742268041237 0.0002577319587628866 0.999738219895288 0.0002617801047120419 0.99973474801061 0.0002652519893899204 0.9997183098591549 0.0002816901408450704 0.9996960486322187 0.000303951367781155 0.9996078431372549 0.0003921568627450981 0.9994791666666667 0.0005208333333333333 0.9993670886075949 0.0006329113924050633 0.99921875 0.00078125 0.9990291262135922 0.000970873786407767 0.9987804878048782 0.001219512195121951 0.998529411764706 0.001470588235294118 0.9979166666666666 0.002083333333333333 0.9972972972972973 0.002702702702702703 0.9 0.1 0.9 0.1 0.9 0.1 0.9 0.1 0.9 0.1 0.9 0.1 0.9 0.1 0.95 0.05 0.8677419354838709 0.132258064516129 0.3476190476190476 0.6523809523809524 0.1930555555555556 0.8069444444444445 0.07000000000000001 0.9299999999999999 0.1039473684210526 0.8960526315789472 0.07468354430379748 0.9253164556962025 0.06533333333333334 0.9346666666666667 0.07662337662337664 0.9233766233766234 0.3504504504504504 0.6495495495495495 0.4916666666666667 0.5083333333333333 0.5263513513513515 0.4736486486486486 0.5340277777777778 0.4659722222222222 0.5579310344827586 0.4420689655172413 0.5485915492957747 0.4514084507042253 0.5485915492957747 0.4514084507042253 0.5282608695652175 0.4717391304347826 0.533587786259542 0.466412213740458</probabilities>
		</cpt>
		<cpt id="Observer">
			<state id="Absent" />
			<state id="Present" />
			<parents>Observatory TimePeriod</parents>
			<probabilities>0.9997946611909651 0.0002053388090349076 0.9997946611909651 0.0002053388090349076 0.9997946611909651 0.0002053388090349076 0.9997946611909651 0.0002053388090349076 0.9997946611909651 0.0002053388090349076 0.9997946611909651 0.0002053388090349076 0.9997946611909651 0.0002053388090349076 0.9997938144329897 0.0002061855670103093 0.9997920997920998 0.0002079002079002079 0.9997899159663864 0.0002100840336134454 0.9997821350762528 0.0002178649237472767 0.9997674418604651 0.0002325581395348837 0.9997668997668997 0.0002331002331002331 0.9997641509433961 0.0002358490566037736 0.999742268041237 0.0002577319587628866 0.9996969696969696 0.000303030303030303 0.999604743083004 0.0003952569169960474 0.9994791666666667 0.0005208333333333333 0.9992805755395684 0.0007194244604316548 0.999056603773585 0.0009433962264150944 0.9987179487179487 0.001282051282051282 0.9983333333333333 0.001666666666666667 0.9977777777777778 0.002222222222222222 0.9966666666666666 0.003333333333333334 0.994736842105263 0.005263157894736842 0.9 0.1 0.9 0.1 0.9 0.1 0.9 0.1 0.9 0.1 0.9 0.1 0.9 0.1 0.6333333333333333 0.3666666666666667 0.5571428571428571 0.4428571428571428 0.4916666666666667 0.5083333333333333 0.3869565217391304 0.6130434782608696 0.1392857142857143 0.8607142857142858 0.03103448275862069 0.9689655172413794 0.121875 0.878125 0.1880952380952381 0.8119047619047619 0.406578947368421 0.593421052631579 0.3265486725663717 0.6734513274336282 0.2643939393939394 0.7356060606060606 0.1790419161676647 0.8209580838323354 0.1078313253012048 0.8921686746987952 0.1170588235294118 0.8829411764705882 0.07256097560975611 0.927439024390244 0.06000000000000001 0.94 0.06346153846153846 0.9365384615384614 0.0261744966442953 0.9738255033557046</probabilities>
		</cpt>
		<cpt id="Carrier">
			<state id="Absent" />
			<state id="Present" />
			<parents>FleetBeacon TimePeriod</parents>
			<probabilities>0.9997946611909651 0.0002053388090349076 0.9997946611909651 0.0002053388090349076 0.9997946611909651 0.0002053388090349076 0.9997946611909651 0.0002053388090349076 0.9997946611909651 0.0002053388090349076 0.9997946611909651 0.0002053388090349076 0.9997946611909651 0.0002053388090349076 0.9997946611909651 0.0002053388090349076 0.9997946611909651 0.0002053388090349076 0.9997946611909651 0.0002053388090349076 0.9997920997920998 0.0002079002079002079 0.9997811816192559 0.0002188183807439825 0.9997811816192559 0.0002188183807439825 0.9997802197802197 0.0002197802197802198 0.9997668997668997 0.0002331002331002331 0.999753086419753 0.0002469135802469136 0.9997260273972602 0.0002739726027397261 0.9996884735202491 0.0003115264797507788 0.9996677740863786 0.0003322259136212625 0.9996226415094339 0.0003773584905660378 0.9995798319327731 0.0004201680672268908 0.9995192307692309 0.0004807692307692308 0.999462365591398 0.0005376344086021507 0.9993670886075949 0.0006329113924050633 0.9991596638655462 0.0008403361344537816 0.9 0.1 0.9 0.1 0.9 0.1 0.9 0.1 0.9 0.1 0.9 0.1 0.9 0.1 0.9 0.1 0.9 0.1 0.9 0.1 0.9 0.1 0.9 0.1 0.9 0.1 0.9 0.1 0.9 0.1 0.9 0.1 0.9 0.1 0.9666666666666666 0.03333333333333333 0.58 0.42 0.7000000000000001 0.3 0.79 0.21 0.74375 0.25625 0.8291666666666666 0.1708333333333333 0.6392857142857142 0.3607142857142857 0.793877551020408 0.2061224489795918</probabilities>
		</cpt>
		<cpt id="Scout">
			<state id="Absent" />
			<state id="Present" />
			<parents>Stargate TimePeriod</parents>
			<probabilities>0.9997946611909651 0.0002053388090349076 0.9997946611909651 0.0002053388090349076 0.9997946611909651 0.0002053388090349076 0.9997946611909651 0.0002053388090349076 0.9997946611909651 0.0002053388090349076 0.9997946611909651 0.0002053388090349076 0.9997946611909651 0.0002053388090349076 0.9997946611909651 0.0002053388090349076 0.9997946611909651 0.0002053388090349076 0.9997946611909651 0.0002053388090349076 0.9997920997920998 0.0002079002079002079 0.9997811816192559 0.0002188183807439825 0.9997811816192559 0.0002188183807439825 0.9997802197802197 0.0002197802197802198 0.9997668997668997 0.0002331002331002331 0.9997455470737914 0.0002544529262086515 0.9996794871794871 0.0003205128205128205 0.9995951417004049 0.0004048582995951417 0.9995327102803738 0.0004672897196261682 0.9994318181818183 0.0005681818181818183 0.9993103448275862 0.0006896551724137932 0.9991666666666667 0.0008333333333333334 0.9990825688073396 0.0009174311926605505 0.9987654320987655 0.001234567901234568 0.9983333333333333 0.001666666666666667 0.9 0.1 0.9 0.1 0.9 0.1 0.9 0.1 0.9 0.1 0.9 0.1 0.9 0.1 0.9 0.1 0.9 0.1 0.9 0.1 0.9 0.1 0.9 0.1 0.9 0.1 0.9 0.1 0.9 0.1 0.9923076923076923 0.007692307692307693 0.9981481481481481 0.001851851851851852 0.9987012987012989 0.001298701298701299 0.9771739130434783 0.02282608695652174 0.9364583333333334 0.06354166666666666 0.9310679611650485 0.06893203883495144 0.9317307692307694 0.06826923076923078 0.9 0.09999999999999999 0.922857142857143 0.07714285714285715 0.9064814814814814 0.09351851851851852</probabilities>
		</cpt>
		<cpt id="Corsair">
			<state id="Absent" />
			<state id="Present" />
			<parents>Stargate TimePeriod</parents>
			<probabilities>0.9997946611909651 0.0002053388090349076 0.9997946611909651 0.0002053388090349076 0.9997946611909651 0.0002053388090349076 0.9997946611909651 0.0002053388090349076 0.9997946611909651 0.0002053388090349076 0.9997946611909651 0.0002053388090349076 0.9997946611909651 0.0002053388090349076 0.9997946611909651 0.0002053388090349076 0.9997946611909651 0.0002053388090349076 0.9997946611909651 0.0002053388090349076 0.9997920997920998 0.0002079002079002079 0.9997811816192559 0.0002188183807439825 0.9997811816192559 0.0002188183807439825 0.9997802197802197 0.0002197802197802198 0.9997668997668997 0.0002331002331002331 0.9997455470737914 0.0002544529262086515 0.9996794871794871 0.0003205128205128205 0.9995951417004049 0.0004048582995951417 0.9995327102803738 0.0004672897196261682 0.9994318181818183 0.0005681818181818183 0.9993103448275862 0.0006896551724137932 0.9991666666666667 0.0008333333333333334 0.9990825688073396 0.0009174311926605505 0.9987654320987655 0.001234567901234568 0.9983333333333333 0.001666666666666667 0.9 0.1 0.9 0.1 0.9 0.1 0.9 0.1 0.9 0.1 0.9 0.1 0.9 0.1 0.9 0.1 0.9 0.1 0.9 0.1 0.9 0.1 0.9 0.1 0.9 0.1 0.9 0.1 0.9 0.1 0.9923076923076923 0.007692307692307693 0.9981481481481481 0.001851851851851852 0.9987012987012989 0.001298701298701299 0.9880434782608696 0.01195652173913044 0.9885416666666667 0.01145833333333333 0.9407766990291262 0.05922330097087378 0.9028846153846155 0.09711538461538462 0.7415841584158417 0.2584158415841584 0.7133333333333335 0.2866666666666667 0.6842592592592592 0.3157407407407407</probabilities>
		</cpt>
		<cpt id="Arbiter">
			<state id="Absent" />
			<state id="Present" />
			<parents>ArbiterTribunal TimePeriod</parents>
			<probabilities>0.9997946611909651 0.0002053388090349076 0.9997946611909651 0.0002053388090349076 0.9997946611909651 0.0002053388090349076 0.9997946611909651 0.0002053388090349076 0.9997946611909651 0.0002053388090349076 0.9997946611909651 0.0002053388090349076 0.9997946611909651 0.0002053388090349076 0.9997946611909651 0.0002053388090349076 0.9997946611909651 0.0002053388090349076 0.9997946611909651 0.0002053388090349076 0.9997920997920998 0.0002079002079002079 0.9997811816192559 0.0002188183807439825 0.9997811816192559 0.0002188183807439825 0.9997802197802197 0.0002197802197802198 0.9997668997668997 0.0002331002331002331 0.999753086419753 0.0002469135802469136 0.9997260273972602 0.0002739726027397261 0.9996904024767802 0.0003095975232198143 0.9996721311475409 0.0003278688524590164 0.999630996309963 0.0003690036900369004 0.9995951417004049 0.0004048582995951417 0.9995515695067265 0.0004484304932735426 0.9995215311004785 0.0004784688995215311 0.9994594594594596 0.0005405405405405406 0.9994011976047905 0.0005988023952095809 0.9 0.1 0.9 0.1 0.9 0.1 0.9 0.1 0.9 0.1 0.9 0.1 0.9 0.1 0.9 0.1 0.9 0.1 0.9 0.1 0.9 0.1 0.9 0.1 0.9 0.1 0.9 0.1 0.9 0.1 0.9 0.1 0.9 0.1 0.9 0.1 0.9 0.1 0.9 0.1 0.9 0.1 0.9 0.1 0.9 0.1 0.9 0.1 0.9 0.1</probabilities>
		</cpt>
		<cpt id="DarkArchon">
			<state id="Absent" />
			<state id="Present" />
			<parents>DarkTemplar TimePeriod</parents>
			<probabilities>0.9997946611909651 0.0002053388090349076 0.9997946611909651 0.0002053388090349076 0.9997946611909651 0.0002053388090349076 0.9997946611909651 0.0002053388090349076 0.9997946611909651 0.0002053388090349076 0.9997946611909651 0.0002053388090349076 0.9997872340425532 0.0002127659574468085 0.9997830802603037 0.0002169197396963124 0.9997826086956522 0.0002173913043478261 0.9997821350762528 0.0002178649237472767 0.9997792494481236 0.0002207505518763797 0.9997668997668997 0.0002331002331002331 0.9997668997668997 0.0002331002331002331 0.9997647058823528 0.0002352941176470588 0.9997448979591835 0.0002551020408163265 0.9997245179063361 0.0002754820936639119 0.9996855345911949 0.0003144654088050315 0.9996350364963502 0.0003649635036496351 0.9995815899581589 0.0004184100418410042 0.9994475138121547 0.0005524861878453039 0.9992805755395684 0.0007194244604316548 0.9990476190476192 0.0009523809523809525 0.9988235294117648 0.001176470588235294 0.9985507246376812 0.001449275362318841 0.9980769230769231 0.001923076923076923 0.9 0.1 0.9 0.1 0.9 0.1 0.9 0.1 0.9 0.1 0.9 0.1 0.9944444444444444 0.005555555555555556 0.9962962962962962 0.003703703703703704 0.9964285714285713 0.003571428571428571 0.9965517241379309 0.003448275862068966 0.9965517241379309 0.003448275862068966 0.9965517241379309 0.003448275862068966 0.9965517241379309 0.003448275862068966 0.996774193548387 0.003225806451612903 0.9973684210526315 0.002631578947368421 0.9976744186046511 0.002325581395348837 0.9979166666666666 0.002083333333333333 0.998 0.002 0.9985074626865672 0.001492537313432836 0.9879120879120881 0.01208791208791209 0.9440366972477066 0.05596330275229358 0.8983193277310925 0.1016806722689076 0.7912 0.2088 0.7341880341880344 0.2658119658119659 0.6629310344827587 0.3370689655172414</probabilities>
		</cpt>
		<cpt id="Archon">
			<state id="Absent" />
			<state id="Present" />
			<parents>HighTemplar TimePeriod</parents>
			<probabilities>0.9997946611909651 0.0002053388090349076 0.9997946611909651 0.0002053388090349076 0.9997946611909651 0.0002053388090349076 0.9997946611909651 0.0002053388090349076 0.9997946611909651 0.0002053388090349076 0.9997946611909651 0.0002053388090349076 0.9997946611909651 0.0002053388090349076 0.9997946611909651 0.0002053388090349076 0.9997942386831276 0.000205761316872428 0.9997942386831276 0.000205761316872428 0.9997890295358648 0.0002109704641350211 0.9997742663656883 0.0002257336343115124 0.9997663551401868 0.0002336448598130841 0.9997416020671834 0.0002583979328165375 0.9996621621621622 0.0003378378378378379 0.9995833333333334 0.0004166666666666667 0.9994818652849742 0.0005181347150259068 0.9993421052631579 0.0006578947368421053 0.999236641221374 0.0007633587786259542 0.9990099009900991 0.0009900990099009901 0.99873417721519 0.001265822784810127 0.9984375 0.0015625 0.9980392156862745 0.00196078431372549 0.9975000000000001 0.002500000000000001 0.9964285714285713 0.003571428571428571 0.9 0.1 0.9 0.1 0.9 0.1 0.9 0.1 0.9 0.1 0.9 0.1 0.9 0.1 0.9 0.1 0.95 0.05 0.95 0.05 0.9875 0.0125 0.9933333333333333 0.006666666666666667 0.9966666666666666 0.003333333333333334 0.8681159420289855 0.1318840579710145 0.7902985074626866 0.2097014925373134 0.7524096385542169 0.2475903614457831 0.7508670520231214 0.2491329479768786 0.7552325581395349 0.2447674418604651 0.7822857142857144 0.2177142857142857 0.8122807017543859 0.187719298245614 0.8337278106508876 0.1662721893491124 0.8618750000000001 0.138125 0.8861635220125788 0.1138364779874214 0.9102739726027397 0.08972602739726027 0.9207142857142857 0.07928571428571428</probabilities>
		</cpt>
		<cpt id="GroundWeapons1">
			<state id="Absent" />
			<state id="Present" />
			<parents>TimePeriod Forge</parents>
			<probabilities>0.3496130381047714 0.6503869618952286 0.9 0.1 0.5166687719257429 0.4833312280742571 0.9 0.1 0.7882779569235737 0.2117220430764263 0.9 0.1 0.1396241264344324 0.8603758735655677 0.8565614283789742 0.1434385716210259 0.2311063615645802 0.7688936384354199 0.3047499269742331 0.6952500730257669 0.4235081525818276 0.5764918474181725 0.6250168695781531 0.3749831304218471 0.9308215300555414 0.06917846994445862 0.8810695028819829 0.1189304971180169 0.7410712309110366 0.2589287690889635 0.3886026116292002 0.6113973883707997 0.1565733120653367 0.8434266879346632 0.8695475780470803 0.1304524219529197 0.5680484079900302 0.4319515920099697 0.05240205098973061 0.9475979490102693 0.1981574093443669 0.8018425906556331 0.3966547815784028 0.6033452184215973 0.2934196858297475 0.7065803141702525 0.2978551328378113 0.7021448671621886 0.5244729930641895 0.4755270069358106 0.721340540346507 0.278659459653493 0.5382122751745275 0.4617877248254727 0.3732013323448223 0.6267986676551777 0.2999503097563948 0.7000496902436052 0.4538452398256325 0.5461547601743674 0.3701601724513881 0.6298398275486119 0.4231165113835226 0.5768834886164774 0.1433841314825154 0.8566158685174846 0.3854900703679602 0.6145099296320398 0.5281038219031483 0.4718961780968518 0.7488695900335544 0.2511304099664455 0.7166026091833928 0.2833973908166072 0.137641698048984 0.862358301951016 0.5812907392334875 0.4187092607665126 0.1481633945668295 0.8518366054331704 0.4794019536937776 0.5205980463062223 0.7129783147679025 0.2870216852320973 0.6519664179958247 0.3480335820041753 0.4933400182900065 0.5066599817099936 0.4716747374279829 0.528325262572017 0.470490845867446 0.5295091541325541 0.4892773833619498 0.5107226166380503 0.7623069922948236 0.2376930077051764 0.771165863998588 0.228834136001412 0.2399126633347532 0.7600873366652469</probabilities>
		</cpt>
		<cpt id="GroundArmor1">
			<state id="Absent" />
			<state id="Present" />
			<parents>TimePeriod Forge</parents>
			<probabilities>0.5757330306069349 0.424266969393065 0.9 0.1 0.4014173766885737 0.5985826233114264 0.9 0.1 0.3648408452062772 0.6351591547937228 0.9 0.1 0.4798946137232855 0.5201053862767144 0.8762449360609068 0.1237550639390933 0.1723653971823248 0.8276346028176753 0.3549463405926451 0.6450536594073548 0.6938763992918254 0.3061236007081745 0.2744081192960608 0.7255918807039392 0.3062505122674004 0.6937494877325997 0.5323003592411184 0.4676996407588817 0.9249870092103897 0.07501299078961038 0.7379592993195839 0.262040700680416 0.3772086091203218 0.6227913908796783 0.09215021761162837 0.9078497823883716 0.9040884745128394 0.09591152548716063 0.6708617772071448 0.3291382227928552 0.7534830095901143 0.2465169904098856 0.8330568427387236 0.1669431572612764 0.1755616353677073 0.8244383646322928 0.3434464038230928 0.6565535961769072 0.3876958290815175 0.6123041709184826 0.3201672143660837 0.6798327856339164 0.07457633325364135 0.9254236667463586 0.4700349736493333 0.5299650263506667 0.7178232367092825 0.2821767632907175 0.4540306717509788 0.5459693282490211 0.2233575402457222 0.7766424597542776 0.1808760027979303 0.8191239972020697 0.6502388873607978 0.3497611126392022 0.272869380848687 0.7271306191513131 0.8195891195491497 0.1804108804508503 0.4932096243910575 0.5067903756089425 0.2987019021982431 0.7012980978017569 0.01454843335272309 0.985451566647277 0.8761575197596517 0.1238424802403483 0.6849085864983724 0.3150914135016277 0.5934913902210725 0.4065086097789276 0.59664368358211 0.4033563164178902 0.5487273720860624 0.4512726279139376 0.6138194345830902 0.3861805654169099 0.6741049997131312 0.3258950002868688 0.4605268513936965 0.5394731486063035 0.4902689236766036 0.5097310763233964 0.1975571050347671 0.8024428949652328 0.5216030719024971 0.478396928097503 0.4886889708614512 0.5113110291385487</probabilities>
		</cpt>
		<cpt id="PlasmaShields1">
			<state id="Absent" />
			<state id="Present" />
			<parents>TimePeriod Forge</parents>
			<probabilities>0.3481959755117695 0.6518040244882306 0.9 0.1 0.8587932804809931 0.1412067195190067 0.9 0.1 0.1543613447828186 0.8456386552171815 0.9 0.1 0.6035742378836102 0.3964257621163898 0.8564157460726685 0.1435842539273315 0.4579861820120035 0.5420138179879964 0.4456080591981581 0.554391940801842 0.5351219336422118 0.4648780663577881 0.5741841260809586 0.4258158739190415 0.06764785689150463 0.9323521431084954 0.4269668153592893 0.5730331846407107 0.3792469526967012 0.6207530473032988 0.4706720828917994 0.5293279171082006 0.1658574733352456 0.8341425266647544 0.4872006194361128 0.5127993805638872 0.6277205217740084 0.3722794782259916 0.4497033367615223 0.5502966632384778 0.5143049380930013 0.4856950619069987 0.8040949028591756 0.1959050971408243 0.2258460230667704 0.7741539769332296 0.6420809029869212 0.3579190970130788 0.2535106649389413 0.7464893350610588 0.6969700997196514 0.3030299002803487 0.536734020944889 0.4632659790551109 0.6696588908413999 0.3303411091586002 0.9190252885899979 0.08097471141000209 0.4985971166969494 0.5014028833030506 0.5541010962105499 0.4458989037894502 0.3788594357470601 0.62114056425294 0.376536474613369 0.623463525386631 0.4554054002489827 0.5445945997510172 0.2883978233164199 0.7116021766835802 0.3136564701923992 0.6863435298076008 0.806025140947033 0.1939748590529669 0.3092146761568994 0.6907853238431007 0.4194917885941716 0.5805082114058285 0.5857378008870645 0.4142621991129355 0.5917228675569886 0.4082771324430114 0.8886375949611209 0.1113624050388791 0.7403873239355102 0.2596126760644897 0.4375302657605945 0.5624697342394055 0.4540045598305201 0.5459954401694798 0.7105355165121594 0.2894644834878405 0.6943044812781399 0.3056955187218602 0.218250114521458 0.7817498854785421 0.7344071768767968 0.2655928231232033 0.5949847861060663 0.4050152138939337</probabilities>
		</cpt>
		<cpt id="AirWeapons1">
			<state id="Absent" />
			<state id="Present" />
			<parents>CyberCore TimePeriod</parents>
			<probabilities>0.62573228531623 0.3742677146837701 0.6126427251926633 0.3873572748073368 0.5324699604924961 0.467530039507504 0.4976808543306811 0.5023191456693188 0.485432193891171 0.5145678061088289 0.5883706415638518 0.4116293584361483 0.3417555479492326 0.6582444520507674 0.2009239601490767 0.7990760398509235 0.4976805246349639 0.5023194753650362 0.5809964366743474 0.4190035633256526 0.5736118237995715 0.4263881762004286 0.5398901832755434 0.4601098167244566 0.2718849088470737 0.7281150911529262 0.9016298899849549 0.09837011001504499 0.5969773232566351 0.403022676743365 0.7613627869918358 0.2386372130081643 0.8847537078762056 0.1152462921237945 0.9 0.1 0.9 0.1 0.9 0.1 0.9 0.1 0.9 0.1 0.9 0.1 0.9 0.1 0.9 0.1 0.9 0.1 0.9 0.1 0.9 0.1 0.6166891003589851 0.3833108996410151 0.7917561114477647 0.2082438885522353 0.6718722316956876 0.3281277683043124 0.1197370392122785 0.8802629607877216 0.339305763037443 0.6606942369625568 0.8165640697647029 0.1834359302352971 0.6297646316077266 0.3702353683922736 0.8726061726408848 0.1273938273591153 0.9156687963354034 0.08433120366459661 0.431375238213793 0.5686247617862069 0.4830889484383249 0.5169110515616752 0.3301317709158896 0.6698682290841105 0.4702084240728162 0.5297915759271837 0.5256169347029572 0.4743830652970428 0.2762151436117212 0.7237848563882788 0.5739419688061165 0.4260580311938834 0.4173431366466701 0.5826568633533298 0.3706079790337414 0.6293920209662587 0.7915516984513992 0.2084483015486009 0.1506913628453588 0.8493086371546412 0.4090508842601822 0.5909491157398179 0.106660684258912 0.8933393157410879</probabilities>
		</cpt>
		<cpt id="AirArmor1">
			<state id="Absent" />
			<state id="Present" />
			<parents>CyberCore TimePeriod</parents>
			<probabilities>0.1615183599881735 0.8384816400118266 0.9500067024778547 0.04999329752214517 0.5960961652802042 0.4039038347197957 0.8168561671481779 0.1831438328518222 0.8338365996468158 0.1661634003531842 0.2295438274212878 0.7704561725787121 0.3488170063303073 0.6511829936696927 0.5012200893413715 0.4987799106586284 0.5064269387279028 0.4935730612720973 0.6132039487159277 0.3867960512840724 0.7429520029886019 0.2570479970113982 0.2583450988722867 0.7416549011277133 0.435619841369523 0.564380158630477 0.2807755305043495 0.7192244694956506 0.3494716847590036 0.6505283152409965 0.5134347089473738 0.4865652910526263 0.8613916912078585 0.1386083087921414 0.9 0.1 0.9 0.1 0.9 0.1 0.9 0.1 0.9 0.1 0.9 0.1 0.9 0.1 0.9 0.1 0.9 0.1 0.9 0.1 0.9 0.1 0.9627049190826501 0.03729508091734987 0.3691729194725547 0.6308270805274453 0.5525469801468086 0.4474530198531913 0.3881987666244052 0.6118012333755947 0.1935326758778323 0.8064673241221678 0.00918629662933191 0.9908137033706681 0.3714915937331366 0.6285084062668634 0.3955420807793629 0.6044579192206372 0.3262610319744768 0.6737389680255232 0.5732877308884821 0.4267122691115179 0.592409904993044 0.407590095006956 0.08410852290799956 0.9158914770920005 0.4782525359087078 0.5217474640912924 0.9284459413097213 0.07155405869027884 0.2267197485016822 0.7732802514983179 0.8128198729869505 0.1871801270130495 0.6876835169617097 0.3123164830382903 0.6488176259150733 0.3511823740849266 0.02722872098428662 0.9727712790157134 0.8550516032399531 0.1449483967600468 0.5352921866514492 0.4647078133485508 0.4011568979648298 0.5988431020351701</probabilities>
		</cpt>
		<cpt id="LegEnhancements">
			<state id="Absent" />
			<state id="Present" />
			<parents>TimePeriod CitadelOfAdun</parents>
			<probabilities>0.2151357158675558 0.7848642841324441 0.9 0.1 0.7207360074312107 0.2792639925687894 0.9 0.1 0.5452705760555354 0.4547294239444645 0.9 0.1 0.9376985328273051 0.06230146717269491 0.9 0.1 0.7252264536054247 0.2747735463945754 0.8097089272061242 0.1902910727938756 0.6992225780858627 0.3007774219141371 0.5868050872309932 0.4131949127690068 0.4675151488935457 0.5324848511064544 0.238896376238437 0.761103623761563 0.4692088762830356 0.5307911237169645 0.3160821663230258 0.6839178336769742 0.7463903499433686 0.2536096500566315 0.2954017425451337 0.7045982574548664 0.1343530948022697 0.8656469051977302 0.331185045336089 0.6688149546639111 0.3284191377918134 0.6715808622081867 0.434329552302067 0.5656704476979332 0.2299081563006578 0.7700918436993423 0.7990539800961024 0.2009460199038976 0.2143424222380976 0.7856575777619025 0.4067106899403983 0.5932893100596018 0.6598488060754847 0.3401511939245153 0.2405960831248088 0.7594039168751912 0.3494381317463096 0.6505618682536902 0.4389871361134 0.5610128638865999 0.3704952066475516 0.6295047933524485 0.04256738182402424 0.9574326181759758 0.6377247406439427 0.3622752593560573 0.6038895752505128 0.3961104247494871 0.4528262613899752 0.5471737386100248 0.1246260076094956 0.8753739923905044 0.6009285142591185 0.3990714857408814 0.4926494989231922 0.5073505010768079 0.5705639635550719 0.429436036444928 0.5355562689452763 0.4644437310547236 0.7581876285128117 0.2418123714871884 0.0286426966178598 0.9713573033821401 0.3684011868011376 0.6315988131988625 0.302207917355185 0.697792082644815 0.5809893590537439 0.4190106409462561 0.8326945626663136 0.1673054373336864 0.6198307314125573 0.3801692685874429 0.6980550876148387 0.3019449123851613 0.4668431700335045 0.5331568299664955 0.2477965128062405 0.7522034871937594</probabilities>
		</cpt>
		<cpt id="SingularityCharge">
			<state id="Absent" />
			<state id="Present" />
			<parents>CyberCore TimePeriod</parents>
			<probabilities>0.6124938908832139 0.387506109116786 0.9540258743633407 0.04597412563665925 0.5064141776201676 0.4935858223798324 0.375514747705495 0.624485252294505 0.02530793993505789 0.974692060064942 0.31107464274132 0.6889253572586801 0.8018114582364888 0.1981885417635112 0.05773034803666173 0.9422696519633383 0.6459482049645814 0.3540517950354186 0.2260228358681764 0.7739771641318236 0.5664803366992534 0.4335196633007465 0.7440087921839145 0.2559912078160855 0.7030654030309647 0.2969345969690354 0.4079919453821368 0.5920080546178632 0.5708199360159812 0.4291800639840187 0.5545764966650703 0.4454235033349299 0.8223837700886723 0.1776162299113278 0.9 0.1 0.9 0.1 0.9 0.1 0.9 0.1 0.9 0.1 0.9 0.1 0.9 0.1 0.9 0.1 0.9 0.1 0.9 0.1 0.9 0.1 0.5230466117823517 0.4769533882176483 0.3953187036497566 0.6046812963502434 0.5986589135509169 0.401341086449083 0.5050875396249149 0.4949124603750851 0.6971994693437309 0.3028005306562691 0.3690519210153889 0.6309480789846111 0.5107722459012765 0.4892277540987236 0.2069650230156862 0.7930349769843138 0.4411805866293763 0.5588194133706238 0.9248966012720141 0.07510339872798573 0.8553558121922205 0.1446441878077796 0.554416869519901 0.445583130480099 0.5503231890070617 0.4496768109929383 0.4088840331069291 0.5911159668930709 0.5863205665282369 0.4136794334717631 0.01415081730078134 0.9858491826992187 0.607980478995932 0.392019521004068 0.7055809221312763 0.2944190778687236 0.3818894430117308 0.6181105569882692 0.595220958847702 0.404779041152298 0.8465479537794826 0.1534520462205176 0.4718681325279078 0.5281318674720922</probabilities>
		</cpt>
		<cpt id="PsionicStorm">
			<state id="Absent" />
			<state id="Present" />
			<parents>TemplarArchives TimePeriod</parents>
			<probabilities>0.695087545368986 0.304912454631014 0.4912248044104269 0.5087751955895732 0.5876384868028619 0.4123615131971382 0.4883661158712805 0.5116338841287194 0.4984562007498217 0.5015437992501783 0.9729290778948116 0.02707092210518848 0.5624936900691904 0.4375063099308097 0.5318831081019767 0.4681168918980233 0.3097013674091714 0.6902986325908286 0.5288950207357204 0.4711049792642797 0.6151184419535073 0.3848815580464927 0.1150609353915042 0.8849390646084958 0.8856528867503881 0.1143471132496119 0.4791691129904531 0.5208308870095469 0.2293075640879337 0.7706924359120664 0.952789566448032 0.04721043355196799 0.3560737661627976 0.6439262338372024 0.1096312770218037 0.8903687229781963 0.3880000019756693 0.6119999980243308 0.5753224679212681 0.4246775320787319 0.7630355746440251 0.236964425355975 0.1386812417227068 0.8613187582772932 0.5430049943053461 0.4569950056946539 0.7905928651847808 0.2094071348152193 0.6010938029217038 0.3989061970782963 0.9 0.1 0.9 0.1 0.9 0.1 0.9 0.1 0.9 0.1 0.8636344723333276 0.1363655276666723 0.638376390881636 0.3616236091183639 0.6384657120434981 0.361534287956502 0.1362717824436616 0.8637282175563383 0.4942408039284983 0.5057591960715016 0.5249845720244828 0.4750154279755172 0.9648067754615912 0.03519322453840885 0.2313761594051087 0.7686238405948912 0.1259212166162614 0.8740787833837387 0.3768378899540832 0.6231621100459167 0.423543862954933 0.576456137045067 0.5222995415744475 0.4777004584255525 0.5518827869249476 0.4481172130750523 0.4900650896286274 0.5099349103713727 0.1574654311113252 0.8425345688886748 0.4440012344852464 0.5559987655147536 0.3847505236007167 0.6152494763992833 0.4108373777021818 0.5891626222978184 0.2079317180393571 0.7920682819606428 0.5737481370289255 0.4262518629710744</probabilities>
		</cpt>
		<cpt id="Hallucination">
			<state id="Absent" />
			<state id="Present" />
			<parents>TemplarArchives TimePeriod</parents>
			<probabilities>0.09107763974850962 0.9089223602514903 0.214426167507336 0.7855738324926639 0.7023084661157939 0.2976915338842061 0.6732280230411566 0.3267719769588434 0.7662608050908194 0.2337391949091807 0.3135762807537965 0.6864237192462035 0.5338117387973179 0.466188261202682 0.4704092872698881 0.5295907127301121 0.4694422461249463 0.5305577538750537 0.5601429934585006 0.4398570065414995 0.4073522504572393 0.5926477495427607 0.6417323356649987 0.3582676643350013 0.4670853477411109 0.5329146522588891 0.5373883984280409 0.4626116015719591 0.2067753293631067 0.7932246706368933 0.9338960153446128 0.06610398465538715 0.6367728683002277 0.3632271316997723 0.3550774785591101 0.6449225214408898 0.5820113591999186 0.4179886408000813 0.2047965940727647 0.7952034059272354 0.3996112424799768 0.6003887575200233 0.4872313394022891 0.5127686605977109 0.4623659956182449 0.537634004381755 0.5276514944824839 0.4723485055175161 0.702532828622535 0.297467171377465 0.9 0.1 0.9 0.1 0.9 0.1 0.9 0.1 0.9 0.1 0.6212938231874657 0.3787061768125343 0.7075919227666586 0.2924080772333413 0.8700222976491041 0.1299777023508959 0.1450734044214765 0.8549265955785236 0.7197003395907365 0.2802996604092636 0.5258463426395764 0.4741536573604236 0.9226983121916976 0.07730168780830228 0.7367174763624967 0.2632825236375033 0.388903167635118 0.611096832364882 0.270018844857977 0.729981155142023 0.8124036137074948 0.1875963862925052 0.2611289064012717 0.7388710935987282 0.1474656280592813 0.8525343719407188 0.1627905965166067 0.8372094034833932 0.3891409467490702 0.6108590532509297 0.6743733969761329 0.3256266030238671 0.4486401235510353 0.5513598764489648 0.4099993582117252 0.5900006417882749 0.2648142876304381 0.735185712369562 0.6771863809032664 0.3228136190967336</probabilities>
		</cpt>
		<cpt id="PlasmaShields2">
			<state id="Absent" />
			<state id="Present" />
			<parents>TimePeriod PlasmaShields1</parents>
			<probabilities>0.4633640388127975 0.5366359611872026 0.1600459816890375 0.8399540183109626 0.6287876285813078 0.3712123714186923 0.4996995450701895 0.5003004549298106 0.9749654715300479 0.02503452846995204 0.3000936428143876 0.6999063571856123 0.407136827510995 0.592863172489005 0.7672532429339095 0.2327467570660905 0.6963951710437097 0.3036048289562902 0.5723375481957375 0.4276624518042625 0.5949777103618922 0.4050222896381078 0.1084186730895276 0.8915813269104724 0.5402490270228948 0.4597509729771053 0.0258138225428448 0.9741861774571552 0.3750376407591915 0.6249623592408086 0.5956067435214696 0.4043932564785304 0.6094467491449658 0.3905532508550343 0.5014536610593368 0.4985463389406631 0.2193470733358725 0.7806529266641274 0.8778516012600842 0.1221483987399157 0.9374147377680139 0.06258526223198602 0.8415414816149686 0.1584585183850313 0.4414495062971393 0.5585504937028606 0.02106288809936208 0.9789371119006379 0.4681106295653127 0.5318893704346874 0.8036121719646802 0.1963878280353199 0.2384071447314478 0.7615928552685521 0.4836559359984325 0.5163440640015674 0.015469317584032 0.9845306824159681 0.6953081519780909 0.304691848021909 0.3363331793706672 0.6636668206293329 0.1208585432775796 0.8791414567224204 0.4259500870618957 0.5740499129381043 0.5085137912871226 0.4914862087128775 0.3678587779897339 0.6321412220102662 0.7597018188280349 0.2402981811719651 0.9471504486161434 0.05284955138385673 0.8901154928880418 0.1098845071119581 0.1640232487321859 0.835976751267814 0.6007507314177901 0.3992492685822099 0.9866593618746763 0.01334063812532379 0.4485750394736601 0.5514249605263399 0.7619426096338313 0.2380573903661687 0.6369439301157721 0.3630560698842278 0.420325990418822 0.5796740095811779 0.2447497169786362 0.7552502830213639 0.1868800505286118 0.8131199494713882 0.951839996480653 0.04816000351934698 0.5452796258363047 0.4547203741636952 0.2227954445746556 0.7772045554253443</probabilities>
		</cpt>
		<cpt id="PlasmaShields3">
			<state id="Absent" />
			<state id="Present" />
			<parents>TimePeriod PlasmaShields2</parents>
			<probabilities>0.1903381333155734 0.8096618666844265 0.7602853603474294 0.2397146396525706 0.3640917502716657 0.6359082497283343 0.7191138022700648 0.2808861977299352 0.2273961862096773 0.7726038137903227 0.76675232845127 0.2332476715487301 0.3962542341589195 0.6037457658410805 0.7506713653552668 0.2493286346447332 0.01882519931434344 0.9811748006856564 0.3124648834812905 0.6875351165187097 0.1045378849758783 0.8954621150241218 0.4771470646568133 0.5228529353431866 0.3823245930259928 0.6176754069740071 0.7231914384522749 0.2768085615477252 0.4021852886475525 0.5978147113524475 0.5357903675498065 0.4642096324501935 0.3147766566729333 0.6852233433270668 0.3694173097195674 0.6305826902804326 0.4738447419066569 0.5261552580933431 0.3478111718041743 0.6521888281958257 0.1281108339904094 0.8718891660095905 0.514317153021111 0.4856828469788889 0.4378194092098705 0.5621805907901296 0.6530605926910786 0.3469394073089213 0.4354297036361779 0.5645702963638222 0.2522830224173474 0.7477169775826527 0.3786108651110753 0.6213891348889247 0.7760334615191703 0.2239665384808296 0.3156139126547674 0.6843860873452325 0.1221302458670286 0.8778697541329713 0.5063537639712499 0.4936462360287501 0.9643897822046448 0.03561021779535536 0.7863150579092375 0.2136849420907625 0.4989981339889214 0.5010018660110785 0.1566419138150773 0.8433580861849227 0.3981817946236008 0.6018182053763991 0.4903428211193954 0.5096571788806045 0.5623332291896968 0.4376667708103033 0.3050684202895921 0.694931579710408 0.10991489396591 0.8900851060340901 0.5210333540305228 0.4789666459694771 0.6568799870623054 0.3431200129376945 0.8888898475278335 0.1111101524721666 0.08238695928747693 0.917613040712523 0.5333515519508459 0.466648448049154 0.7343338849634882 0.2656661150365119 0.8919749885267221 0.1080250114732778 0.9125373445300873 0.08746265546991269 0.5360228503165893 0.4639771496834109 0.4629029911257642 0.5370970088742357</probabilities>
		</cpt>
		<cpt id="GroundArmor2">
			<state id="Absent" />
			<state id="Present" />
			<parents>TimePeriod GroundArmor1</parents>
			<probabilities>0.1846536717512721 0.8153463282487279 0.3418163620169435 0.6581836379830565 0.6264178861863189 0.3735821138136812 0.5028513502530864 0.4971486497469136 0.3516298365244928 0.6483701634755074 0.9247391373042005 0.0752608626957995 0.7394639271998067 0.2605360728001931 0.3413938191497889 0.6586061808502111 0.2666342101654912 0.7333657898345088 0.3379239888681886 0.6620760111318114 0.2456552743011159 0.7543447256988841 0.3941973584689797 0.6058026415310203 0.4134003106114604 0.5865996893885396 0.5810230442081243 0.4189769557918757 0.4474994494141796 0.5525005505858204 0.3399646060960326 0.6600353939039675 0.5753644838487384 0.4246355161512617 0.5261440648123329 0.4738559351876673 0.3580187149895635 0.6419812850104366 0.5616014588528513 0.4383985411471488 0.1733265155239891 0.826673484476011 0.5359961809094626 0.4640038190905375 0.8252840542231115 0.1747159457768886 0.8790259151407358 0.1209740848592641 0.8778497433619357 0.1221502566380644 0.4236101683745309 0.5763898316254692 0.4423546051024813 0.5576453948975187 0.5786631497604765 0.4213368502395233 0.6507624551739277 0.3492375448260724 0.4790615524831957 0.5209384475168043 0.4849613778217601 0.5150386221782399 0.6315344313876528 0.3684655686123473 0.265594385481472 0.734405614518528 0.9805362373631715 0.01946376263682859 0.5834427304412659 0.416557269558734 0.6143494214738293 0.3856505785261707 0.8143932047374234 0.1856067952625767 0.5273901125899503 0.4726098874100498 0.466821931522151 0.5331780684778491 0.2863584562680333 0.7136415437319668 0.8021700340038058 0.1978299659961941 0.1633175941565883 0.8366824058434117 0.5123380722752066 0.4876619277247936 0.891470795334486 0.1085292046655139 0.2512030156474259 0.748796984352574 0.8825104750673721 0.1174895249326278 0.9813134566040395 0.01868654339596046 0.4657139447623924 0.5342860552376075 0.2600079481896315 0.7399920518103683 0.4492185147827527 0.5507814852172472</probabilities>
		</cpt>
		<cpt id="GroundArmor3">
			<state id="Absent" />
			<state id="Present" />
			<parents>TimePeriod GroundArmor2</parents>
			<probabilities>0.1666036490625067 0.8333963509374933 0.4939436970020354 0.5060563029979646 0.119993930101963 0.880006069898037 0.6586497700932574 0.3413502299067425 0.9503086325231333 0.04969136747686676 0.4265392073314445 0.5734607926685555 0.2516734992304419 0.7483265007695582 0.2317017863471717 0.7682982136528282 0.05167331119424037 0.9483266888057597 0.4318504957018174 0.5681495042981826 0.5286837995537786 0.4713162004462214 0.6091281530881936 0.3908718469118065 0.5744369804021705 0.4255630195978296 0.1442535483044906 0.8557464516955095 0.6436544340925255 0.3563455659074745 0.611298283780354 0.3887017162196459 0.5022771782534231 0.4977228217465768 0.5335267110931214 0.4664732889068786 0.5370934432319839 0.4629065567680161 0.9797108822289639 0.0202891177710362 0.4831118119987544 0.5168881880012456 0.1678075610214157 0.8321924389785843 0.7937540115667749 0.2062459884332251 0.90116958126236 0.09883041873764001 0.520228018521358 0.4797719814786421 0.5059035589111216 0.4940964410888784 0.6953993821404845 0.3046006178595156 0.5177456002580371 0.4822543997419629 0.9156321646672636 0.08436783533273637 0.9178301535483214 0.08216984645167862 0.5335131712971829 0.4664868287028172 0.2822812131160606 0.7177187868839393 0.0728238167304151 0.927176183269585 0.4417149995927221 0.5582850004072778 0.1560104208502036 0.8439895791497966 0.7058784996063001 0.2941215003936999 0.8608381188214898 0.1391618811785103 0.07969701662819512 0.9203029833718049 0.3963273335114347 0.6036726664885653 0.02799653405302709 0.972003465946973 0.4071622643493624 0.5928377356506377 0.1829501640359204 0.8170498359640797 0.8834314826221672 0.1165685173778329 0.0941726888136712 0.9058273111863288 0.2187289172158142 0.7812710827841858 0.5563763544036166 0.4436236455963835 0.785714125965477 0.214285874034523 0.8242684417998571 0.1757315582001428 0.4490671020151221 0.550932897984878 0.3613456737027362 0.6386543262972637</probabilities>
		</cpt>
		<cpt id="GroundWeapons2">
			<state id="Absent" />
			<state id="Present" />
			<parents>TimePeriod Forge GroundWeapons1</parents>
			<probabilities>0.3465322165260821 0.6534677834739178 0.836919767174712 0.163080232825288 0.9 0.1 0.9 0.1 0.9663458161339208 0.03365418386607927 0.4829312110640282 0.5170687889359719 0.9 0.1 0.9 0.1 0.6006043806253015 0.3993956193746985 0.6597845627551109 0.3402154372448891 0.9 0.1 0.9 0.1 0.5955461240719659 0.404453875928034 0.2291393055959773 0.7708606944040227 0.8726801973954603 0.1273198026045397 0.8971997032899016 0.1028002967100984 0.982853090487036 0.01714690951296406 0.3109518673299573 0.6890481326700428 0.5818650875368872 0.4181349124631128 0.5444439052543963 0.4555560947456037 0.2428771746930794 0.7571228253069207 0.1583838181767966 0.8416161818232035 0.4825878669720432 0.5174121330279567 0.3978387380969672 0.6021612619030328 0.6915380938453776 0.3084619061546225 0.2530929490648647 0.7469070509351353 0.04366820183653442 0.9563317981634656 0.7231345271855204 0.2768654728144795 0.4258779985871837 0.5741220014128163 0.4895658232103177 0.5104341767896823 0.2159284502288312 0.7840715497711689 0.5908855110302977 0.4091144889697023 0.1685690028849912 0.8314309971150088 0.4719024798549362 0.5280975201450638 0.5258264346699049 0.474173565330095 0.6031641875838235 0.3968358124161766 0.4035398075800828 0.5964601924199173 0.3250510798060823 0.6749489201939176 0.8568405674848043 0.1431594325151958 0.2504055871090694 0.7495944128909307 0.5355310828693817 0.4644689171306184 0.6438532161571311 0.3561467838428689 0.5347229416064623 0.4652770583935376 0.5694766929206738 0.4305233070793261 0.1962839538882656 0.8037160461117343 0.5192580485790102 0.4807419514209897 0.4982142715834655 0.5017857284165346 0.2847062404406595 0.7152937595593405 0.5543243121607433 0.4456756878392568 0.4384694624973604 0.5615305375026396 0.1458841244642991 0.8541158755357009 0.5106763364948854 0.4893236635051146 0.1946191489172099 0.8053808510827902 0.2059866959797635 0.7940133040202365 0.728732596489172 0.2712674035108281 0.2640327757375151 0.735967224262485 0.5960208369870447 0.4039791630129553 0.6962228155904413 0.3037771844095588 0.1011724759371079 0.8988275240628922 0.6960009295023538 0.3039990704976463 0.4115153557298717 0.5884846442701283 0.1864393802802687 0.8135606197197313 0.3490747679216394 0.6509252320783606 0.6274491252148721 0.3725508747851279 0.9069202508204886 0.09307974917951141 0.9282911275163832 0.07170887248361682 0.05395382545596605 0.946046174544034 0.1569056921156252 0.8430943078843748 0.7789621253071617 0.2210378746928383 0.4502741241037108 0.5497258758962892 0.6667590488803681 0.333240951119632 0.7976139336370307 0.2023860663629692 0.9375659112667673 0.06243408873323266 0.802248481591795 0.197751518408205 0.4329991319782827 0.5670008680217173 0.2834155969652851 0.7165844030347151 0.8256217082439461 0.1743782917560541 0.5911966524576658 0.4088033475423341 0.3158467403722468 0.6841532596277533 0.2435984839636958 0.7564015160363043 0.719567964339018 0.2804320356609818 0.9387305692404989 0.06126943075950101 0.4228893721669533 0.5771106278330467 0.2309323256308102 0.76906767436919 0.503290168073226 0.4967098319267741 0.9262208989544951 0.07377910104550482 0.8817825430252387 0.1182174569747614 0.4124042604357504 0.5875957395642497 0.8725023488962193 0.1274976511037807 0.9128209515466244 0.08717904845337569 0.6416710478671717 0.3583289521328285 0.472325528350635 0.5276744716493649 0.8377369101270645 0.1622630898729355 0.7162533208733146 0.2837466791266854 0.7035496441600667 0.2964503558399332 0.3145756933558137 0.6854243066441864 0.6868861690845404 0.3131138309154596 0.8641438133054727 0.1358561866945273 0.5659458319989237 0.4340541680010764 0.05108179108695535 0.9489182089130447</probabilities>
		</cpt>
		<cpt id="GroundWeapons3">
			<state id="Absent" />
			<state id="Present" />
			<parents>TimePeriod Forge GroundWeapons2</parents>
			<probabilities>0.9165832693747246 0.08341673062527537 0.2570030534424353 0.7429969465575647 0.9 0.1 0.9 0.1 0.5337671763788796 0.4662328236211203 0.6166076729817509 0.3833923270182491 0.9 0.1 0.9 0.1 0.2319543919830856 0.7680456080169145 0.7094291457522717 0.2905708542477284 0.9 0.1 0.9 0.1 0.4916904587937725 0.5083095412062275 0.9216504607364321 0.07834953926356793 0.8976782303578503 0.1023217696421497 0.8996720417808577 0.1003279582191424 0.02424971473585182 0.9757502852641483 0.688005096397014 0.311994903602986 0.4272174410199821 0.5727825589800178 0.9318088153243619 0.06819118467563826 0.4272769206047407 0.5727230793952595 0.1691388210161699 0.8308611789838302 0.971452923032783 0.02854707696721707 0.9085333285832278 0.09146667141677227 0.5603630285881917 0.4396369714118084 0.1009063433866513 0.8990936566133486 0.5376505126908988 0.4623494873091013 0.2731805855444463 0.7268194144555537 0.6824826113212741 0.317517388678726 0.6045346979185742 0.3954653020814259 0.7412906367734 0.2587093632265999 0.3882177763755016 0.6117822236244984 0.6316426862939077 0.3683573137060923 0.9124866424365781 0.08751335756342181 0.5400622880594884 0.4599377119405117 0.1350800434366364 0.8649199565633635 0.7113693562499983 0.2886306437500017 0.198942006972385 0.8010579930276149 0.4351223155498479 0.5648776844501521 0.5830723320669683 0.4169276679330316 0.5462192026753662 0.4537807973246338 0.4687694341417185 0.5312305658582815 0.171335894062569 0.8286641059374309 0.4846145003502722 0.5153854996497278 0.5597153525003576 0.4402846474996423 0.2910989158343847 0.7089010841656153 0.2648732663962627 0.7351267336037373 0.5002792980517513 0.4997207019482486 0.1883301456737743 0.8116698543262257 0.7213259772163656 0.2786740227836344 0.5377081256626705 0.4622918743373294 0.9770839739504709 0.02291602604952911 0.7043707677058374 0.2956292322941624 0.6334313797009011 0.3665686202990988 0.1929842080449811 0.8070157919550191 0.4599803507889689 0.540019649211031 0.4692182868712871 0.530781713128713 0.3748346330633302 0.6251653669366697 0.7218745468577074 0.2781254531422925 0.295039330851424 0.704960669148576 0.5153884437840383 0.4846115562159618 0.550235011836158 0.449764988163842 0.9387384237787148 0.06126157622128516 0.4479461915456096 0.5520538084543903 0.5993614140739937 0.4006385859260063 0.6627074161037919 0.3372925838962081 0.6305138051029809 0.3694861948970192 0.07553889280676054 0.9244611071932395 0.4379428626839332 0.5620571373160668 0.425719386813875 0.5742806131861249 0.591549501781186 0.4084504982188141 0.3824378605922367 0.6175621394077633 0.4389109477237088 0.5610890522762911 0.8683938317370431 0.131606168262957 0.9204469784443061 0.07955302155569373 0.8710782173069745 0.1289217826930254 0.6064939324836463 0.3935060675163537 0.7301930269335523 0.2698069730664477 0.3389524583428781 0.661047541657122 0.7683002928446761 0.231699707155324 0.3498759200098336 0.6501240799901664 0.816808002164331 0.183191997835669 0.9645255726226218 0.03547442737737816 0.4627442198788513 0.5372557801211487 0.6070129813489451 0.392987018651055 0.6358033583353645 0.3641966416646355 0.9176350201035122 0.08236497989648779 0.2947012412983078 0.7052987587016921 0.5054218656596082 0.4945781343403919 0.8802799827618647 0.1197200172381353 0.4279701968506614 0.5720298031493386 0.5458898323854329 0.454110167614567 0.7895241111386847 0.2104758888613153 0.8984653177053447 0.1015346822946554 0.9632167364790319 0.03678326352096822 0.1326528212014518 0.8673471787985483 0.895818634574324 0.104181365425676 0.8471662675030083 0.1528337324969918 0.5195079078739591 0.4804920921260409 0.3465683750176117 0.6534316249823883</probabilities>
		</cpt>
		<cpt id="AirArmor2">
			<state id="Absent" />
			<state id="Present" />
			<parents>TimePeriod AirArmor1</parents>
			<probabilities>0.4191557285661706 0.5808442714338293 0.5616990764278419 0.438300923572158 0.5910568906839082 0.4089431093160919 0.4177120652415233 0.5822879347584767 0.8200617568392674 0.1799382431607325 0.3759502856522538 0.6240497143477464 0.6541759167009668 0.3458240832990331 0.2722457551996153 0.7277542448003849 0.4098076447319222 0.5901923552680779 0.6543496140809999 0.3456503859190002 0.6421024901315541 0.357897509868446 0.6365637799545068 0.3634362200454931 0.2910774742276281 0.7089225257723718 0.1690302982986757 0.8309697017013242 0.3909719204425786 0.6090280795574214 0.7612101740104869 0.238789825989513 0.5158088496799185 0.4841911503200816 0.3628626181635941 0.6371373818364059 0.8971667046150645 0.1028332953849356 0.6764736683912866 0.3235263316087134 0.6414695775828302 0.3585304224171698 0.4708090437964368 0.5291909562035632 0.3293625890430786 0.6706374109569212 0.505505384325885 0.4944946156741151 0.388752601802253 0.6112473981977471 0.4053833164311659 0.5946166835688341 0.02951993194904369 0.9704800680509563 0.6249294740102155 0.3750705259897844 0.6655746229673403 0.3344253770326597 0.8254955864217144 0.1745044135782855 0.7458163672741123 0.2541836327258878 0.4967753281202652 0.5032246718797347 0.6767630840904652 0.3232369159095348 0.6619520960924701 0.3380479039075299 0.5173881631975436 0.4826118368024565 0.8523189441560546 0.1476810558439453 0.5227363243432204 0.4772636756567795 0.4700398821678584 0.5299601178321416 0.5784285638081772 0.4215714361918228 0.5130541546474721 0.4869458453525281 0.4615865585326956 0.5384134414673044 0.2219069225190749 0.7780930774809253 0.8041481615228943 0.1958518384771058 0.4757072843685238 0.5242927156314762 0.5097925024059833 0.4902074975940167 0.6495048249121003 0.3504951750878997 0.4979587644000801 0.5020412355999199 0.7296955811247854 0.2703044188752146 0.9321503338975717 0.06784966610242815 0.2323330550527349 0.7676669449472651</probabilities>
		</cpt>
		<cpt id="AirArmor3">
			<state id="Absent" />
			<state id="Present" />
			<parents>TimePeriod AirArmor2</parents>
			<probabilities>0.3100943328153105 0.6899056671846894 0.4390817222572028 0.5609182777427972 0.4281248549022675 0.5718751450977325 0.7289850741610658 0.2710149258389342 0.8555728800617508 0.1444271199382492 0.5501838691947316 0.4498161308052683 0.2770661616979083 0.7229338383020916 0.368445731189268 0.6315542688107322 0.8434099491194607 0.1565900508805394 0.7338957269908171 0.2661042730091829 0.6005623401250845 0.3994376598749156 0.9355965534466713 0.06440344655332872 0.6592836682169622 0.3407163317830378 0.7060026893470022 0.2939973106529979 0.7196991862738409 0.2803008137261592 0.951571822377006 0.04842817762299411 0.7230445623093632 0.2769554376906369 0.3741357691544447 0.6258642308455553 0.2184391113398929 0.781560888660107 0.4640008125602063 0.5359991874397939 0.8697686922955864 0.1302313077044137 0.08735413479107321 0.9126458652089269 0.3369081939085926 0.6630918060914073 0.8561403576089135 0.1438596423910865 0.5498628134999781 0.4501371865000219 0.2930446234484971 0.706955376551503 0.3955554120594076 0.6044445879405924 0.536663150441123 0.4633368495588768 0.2788048244794043 0.7211951755205956 0.5332487798609967 0.4667512201390034 0.5038415698417441 0.4961584301582559 0.6703771373412297 0.3296228626587702 0.2260777530429318 0.7739222469570681 0.3969228634788155 0.6030771365211847 0.9347836763944947 0.06521632360550531 0.254548787401728 0.7454512125982721 0.3928180852788615 0.6071819147211385 0.7580093192785772 0.2419906807214229 0.7577212956877343 0.2422787043122656 0.7478728010257547 0.2521271989742453 0.9455499968116723 0.05445000318832778 0.3562582910932997 0.6437417089067002 0.8471427538632185 0.1528572461367816 0.5434482379859184 0.4565517620140816 0.7033494736429655 0.2966505263570344 0.09348635100741423 0.9065136489925858 0.9232205646911124 0.07677943530888765 0.1843369154969794 0.8156630845030205 0.5960183160142539 0.403981683985746 0.2915148133136051 0.7084851866863949</probabilities>
		</cpt>
		<cpt id="AirWeapons2">
			<state id="Absent" />
			<state id="Present" />
			<parents>TimePeriod AirWeapons1</parents>
			<probabilities>0.4122349160622615 0.5877650839377384 0.9218152018048095 0.07818479819519059 0.4581186933559901 0.54188130664401 0.444201033799681 0.555798966200319 0.413400143287032 0.5865998567129681 0.4893607300089249 0.5106392699910751 0.1972198741084648 0.8027801258915354 0.2865953226348887 0.7134046773651114 0.5018952229276872 0.4981047770723128 0.5691327106542024 0.4308672893457976 0.8863597586390409 0.113640241360959 0.545424863035617 0.4545751369643831 0.08355456508053726 0.9164454349194628 0.1185996186877388 0.8814003813122612 0.5654199424903145 0.4345800575096854 0.6930857408943246 0.3069142591056754 0.2189247132113504 0.7810752867886496 0.6863085288723866 0.3136914711276135 0.1687014030170507 0.8312985969829493 0.9856456105244054 0.01435438947559454 0.266194978587595 0.733805021412405 0.5700579783391014 0.4299420216608985 0.9036304073750962 0.09636959262490377 0.6751906175945915 0.3248093824054084 0.1359285591391331 0.864071440860867 0.6266193090386991 0.373380690961301 0.6044034917469749 0.395596508253025 0.5047474897067056 0.4952525102932944 0.6361537740375612 0.3638462259624388 0.1673972078625815 0.8326027921374184 0.4574276182837222 0.542572381716278 0.336412687887228 0.6635873121127721 0.2657815561766582 0.7342184438233418 0.3834075905440087 0.6165924094559915 0.3126842467653903 0.6873157532346098 0.4306539736786695 0.5693460263213306 0.6041027032516171 0.395897296748383 0.5326354953879064 0.4673645046120933 0.3553917228605359 0.6446082771394641 0.8319764281577283 0.1680235718422715 0.07062673787928288 0.929373262120717 0.2275471501749946 0.7724528498250054 0.2740410183758875 0.7259589816241127 0.2109443781926728 0.7890556218073273 0.6810520534207077 0.3189479465792922 0.8063459625055989 0.193654037494401 0.5436919238280049 0.4563080761719951 0.6840304139762985 0.3159695860237015 0.6805522532190667 0.3194477467809334 0.238949981049537 0.761050018950463</probabilities>
		</cpt>
		<cpt id="AirWeapons3">
			<state id="Absent" />
			<state id="Present" />
			<parents>TimePeriod AirWeapons2</parents>
			<probabilities>0.255037500165559 0.7449624998344411 0.8389382281821487 0.1610617718178513 0.469561517882189 0.5304384821178109 0.6096891551769138 0.3903108448230862 0.5006759498827014 0.4993240501172986 0.222187025183199 0.7778129748168011 0.04814636438054115 0.9518536356194589 0.5076832420158958 0.4923167579841044 0.2026438532325834 0.7973561467674166 0.8507236240580509 0.1492763759419492 0.9791017779060895 0.02089822209391042 0.400173061180189 0.5998269388198111 0.6675932471838091 0.3324067528161909 0.3038934816823065 0.6961065183176937 0.7886031390801982 0.2113968609198018 0.5018762925747087 0.4981237074252914 0.5793996090639573 0.4206003909360427 0.5271659829451205 0.4728340170548795 0.7209611375489201 0.2790388624510799 0.8646161031486006 0.1353838968513993 0.5593438094506593 0.4406561905493405 0.6762321903892131 0.3237678096107869 0.493825666276684 0.506174333723316 0.3221735587886153 0.6778264412113847 0.4580822184178198 0.5419177815821802 0.9263688204378258 0.07363117956217424 0.6082041522929433 0.3917958477070568 0.6389148193158823 0.3610851806841176 0.5711907802382288 0.4288092197617712 0.3009376206596311 0.6990623793403689 0.359172088538024 0.640827911461976 0.6709672681352555 0.3290327318647445 0.8723114820525609 0.1276885179474392 0.7646837286092202 0.2353162713907799 0.3723108970848633 0.6276891029151368 0.5843471496595638 0.4156528503404361 0.6208658958847845 0.3791341041152155 0.4026427028885477 0.5973572971114523 0.5761523460627926 0.4238476539372074 0.6336850780236946 0.3663149219763054 0.9483750676006868 0.05162493239931319 0.5504739246067675 0.4495260753932326 0.5356895294967491 0.4643104705032509 0.5199923125702369 0.4800076874297632 0.234575883631834 0.765424116368166 0.904713411524101 0.09528658847589897 0.4874246813194445 0.5125753186805555 0.6139156673094717 0.3860843326905282 0.9173213911018132 0.08267860889818685 0.3462362556678881 0.6537637443321119</probabilities>
		</cpt>
	</nodes>
	<extensions>
		<genie version="1.0" app="GeNIe 2.0.5079.0" name="Network1" faultnameformat="nodestate">
			<node id="Assimilator">
				<name>Assimilator</name>
				<interior color="e5f6f7" />
				<outline color="000080" />
				<font color="000000" name="Arial" size="8" />
				<position>510 340 576 381</position>
			</node>
			<node id="Pylon">
				<name>Pylon</name>
				<interior color="e5f6f7" />
				<outline color="000080" />
				<font color="000000" name="Arial" size="8" />
				<position>760 247 805 275</position>
			</node>
			<node id="Gateway">
				<name>Gateway</name>
				<interior color="e5f6f7" />
				<outline color="000080" />
				<font color="000000" name="Arial" size="8" />
				<position>736 329 793 364</position>
			</node>
			<node id="Zealot">
				<name>Zealot</name>
				<interior color="99cc00" />
				<outline color="000080" />
				<font color="000000" name="Arial" size="8" />
				<position>634 275 682 305</position>
			</node>
			<node id="CyberCore">
				<name>CyberCore</name>
				<interior color="e5f6f7" />
				<outline color="000080" />
				<font color="000000" name="Arial" size="8" />
				<position>617 390 683 431</position>
			</node>
			<node id="CitadelOfAdun">
				<name>CitadelOfAdun</name>
				<interior color="e5f6f7" />
				<outline color="000080" />
				<font color="000000" name="Arial" size="8" />
				<position>541 449 623 500</position>
			</node>
			<node id="Forge">
				<name>Forge</name>
				<interior color="e5f6f7" />
				<outline color="000080" />
				<font color="000000" name="Arial" size="8" />
				<position>877 299 923 327</position>
			</node>
			<node id="PhotonCannon">
				<name>PhotonCannon</name>
				<interior color="e5f6f7" />
				<outline color="000080" />
				<font color="000000" name="Arial" size="8" />
				<position>977 366 1059 417</position>
			</node>
			<node id="Stargate">
				<name>Stargate</name>
				<interior color="e5f6f7" />
				<outline color="000080" />
				<font color="000000" name="Arial" size="8" />
				<position>709 520 765 555</position>
			</node>
			<node id="RoboticsFacility">
				<name>RoboticsFacility</name>
				<interior color="e5f6f7" />
				<outline color="000080" />
				<font color="000000" name="Arial" size="8" />
				<position>834 477 920 530</position>
			</node>
			<node id="RoboticsSupportBay">
				<name>RoboticsSupportBay</name>
				<interior color="e5f6f7" />
				<outline color="000080" />
				<font color="000000" name="Arial" size="8" />
				<position>903 586 1022 653</position>
			</node>
			<node id="Observatory">
				<name>Observatory</name>
				<interior color="e5f6f7" />
				<outline color="000080" />
				<font color="000000" name="Arial" size="8" />
				<position>961 527 1034 572</position>
			</node>
			<node id="ArbiterTribunal">
				<name>ArbiterTribunal</name>
				<interior color="e5f6f7" />
				<outline color="000080" />
				<font color="000000" name="Arial" size="8" />
				<position>607 627 689 678</position>
			</node>
			<node id="TemplarArchives">
				<name>TemplarArchives</name>
				<interior color="e5f6f7" />
				<outline color="000080" />
				<font color="000000" name="Arial" size="8" />
				<position>569 531 662 589</position>
			</node>
			<node id="FleetBeacon">
				<name>FleetBeacon</name>
				<interior color="e5f6f7" />
				<outline color="000080" />
				<font color="000000" name="Arial" size="8" />
				<position>797 565 870 610</position>
			</node>
			<node id="ShieldBattery">
				<name>ShieldBattery</name>
				<interior color="e5f6f7" />
				<outline color="000080" />
				<font color="000000" name="Arial" size="8" />
				<position>838 393 914 440</position>
			</node>
			<node id="Dragoon">
				<name>Dragoon</name>
				<interior color="99cc00" />
				<outline color="000080" />
				<font color="000000" name="Arial" size="8" />
				<position>456 427 512 462</position>
			</node>
			<node id="DarkTemplar">
				<name>DarkTemplar</name>
				<interior color="99cc00" />
				<outline color="000080" />
				<font color="000000" name="Arial" size="8" />
				<position>436 491 509 536</position>
			</node>
			<node id="HighTemplar">
				<name>HighTemplar</name>
				<interior color="99cc00" />
				<outline color="000080" />
				<font color="000000" name="Arial" size="8" />
				<position>412 561 483 605</position>
			</node>
			<node id="Shuttle">
				<name>Shuttle</name>
				<interior color="99cc00" />
				<outline color="000080" />
				<font color="000000" name="Arial" size="8" />
				<position>982 461 1031 491</position>
			</node>
			<node id="Reaver">
				<name>Reaver</name>
				<interior color="99cc00" />
				<outline color="000080" />
				<font color="000000" name="Arial" size="8" />
				<position>1051 607 1102 638</position>
			</node>
			<node id="Observer">
				<name>Observer</name>
				<interior color="99cc00" />
				<outline color="000080" />
				<font color="000000" name="Arial" size="8" />
				<position>1075 543 1136 581</position>
			</node>
			<node id="Carrier">
				<name>Carrier</name>
				<interior color="99cc00" />
				<outline color="000080" />
				<font color="000000" name="Arial" size="8" />
				<position>784 656 833 686</position>
			</node>
			<node id="Scout">
				<name>Scout</name>
				<interior color="99cc00" />
				<outline color="000080" />
				<font color="000000" name="Arial" size="8" />
				<position>716 691 762 719</position>
			</node>
			<node id="Corsair">
				<name>Corsair</name>
				<interior color="99cc00" />
				<outline color="000080" />
				<font color="000000" name="Arial" size="8" />
				<position>757 690 808 721</position>
			</node>
			<node id="Arbiter">
				<name>Arbiter</name>
				<interior color="99cc00" />
				<outline color="000080" />
				<font color="000000" name="Arial" size="8" />
				<position>504 691 553 721</position>
			</node>
			<node id="DarkArchon">
				<name>DarkArchon</name>
				<interior color="99cc00" />
				<outline color="000080" />
				<font color="000000" name="Arial" size="8" />
				<position>339 483 410 527</position>
			</node>
			<node id="Archon">
				<name>Archon</name>
				<interior color="99cc00" />
				<outline color="000080" />
				<font color="000000" name="Arial" size="8" />
				<position>327 580 379 612</position>
			</node>
			<node id="TimePeriod">
				<name>TimePeriod</name>
				<interior color="ffcc00" />
				<outline color="000080" />
				<font color="000000" name="Arial" size="8" />
				<position>420 252 491 296</position>
			</node>
			<node id="GroundWeapons1">
				<name>GroundWeapons1</name>
