<?xml version="1.0" encoding="ISO-8859-1"?>
<smile version="1.0" id="Network1" numsamples="1000" discsamples="10000">
	<nodes>
		<cpt id="TimePeriod">
			<state id="Period1" />
			<state id="Period2" />
			<state id="Period3" />
			<state id="Period4" />
			<state id="Period5" />
			<state id="Period6" />
			<state id="Period7" />
			<state id="Period8" />
			<state id="Period9" />
			<state id="Period10" />
			<state id="Period11" />
			<state id="Period12" />
			<state id="Period13" />
			<state id="Period14" />
			<state id="Period15" />
			<state id="Period16" />
			<state id="Period17" />
			<state id="Period18" />
			<state id="Period19" />
			<state id="Period20" />
			<state id="Period21" />
			<state id="Period22" />
			<state id="Period23" />
			<state id="Period24" />
			<state id="Period25" />
			<probabilities>0.04000000000000002 0.04000000000000002 0.04000000000000002 0.04000000000000002 0.04000000000000002 0.04000000000000002 0.04000000000000002 0.04000000000000002 0.04000000000000002 0.04000000000000002 0.04000000000000002 0.04000000000000002 0.04000000000000002 0.04000000000000002 0.04000000000000002 0.04000000000000002 0.04000000000000002 0.04000000000000002 0.04000000000000002 0.04000000000000002 0.04000000000000002 0.04000000000000002 0.04000000000000002 0.04000000000000002 0.04000000000000002</probabilities>
		</cpt>
		<cpt id="Barracks">
			<state id="Absent" />
			<state id="Present" />
			<parents>TimePeriod</parents>
			<probabilities>1 0 0.3333333333333333 0.6666666666666666 0.3333333333333333 0.6666666666666666 0.3333333333333333 0.6666666666666666 0.3333333333333333 0.6666666666666666 0.3333333333333333 0.6666666666666666 0.3333333333333333 0.6666666666666666 0.3333333333333333 0.6666666666666666 0.3333333333333333 0.6666666666666666 0.3333333333333333 0.6666666666666666 0.3333333333333333 0.6666666666666666 1 0 0.3333333333333333 0.6666666666666666 0.3333333333333333 0.6666666666666666 0.3333333333333333 0.6666666666666666 0.3333333333333333 0.6666666666666666 0.3333333333333333 0.6666666666666666 0.3333333333333333 0.6666666666666666 0.6666666666666666 0.3333333333333333 0.3333333333333333 0.6666666666666666 0.3333333333333333 0.6666666666666666 0.3333333333333333 0.6666666666666666 0.3333333333333333 0.6666666666666666 0.3333333333333333 0.6666666666666666 0.3333333333333333 0.6666666666666666</probabilities>
		</cpt>
		<cpt id="Bunker">
			<state id="Absent" />
			<state id="Present" />
			<parents>Barracks TimePeriod</parents>
			<probabilities>1 0 1 0 1 0 1 0 1 0 1 0 1 0 1 0 1 0 1 0 1 0 1 0 1 0 1 0 1 0 1 0 1 0 1 0 1 0 1 0 1 0 1 0 1 0 1 0 1 0 1 0 1 0 1 0 1 0 1 0 1 0 1 0 1 0 1 0 1 0 1 0 1 0 1 0 1 0 1 0 1 0 1 0 1 0 1 0 1 0 1 0 1 0 1 0 1 0 1 0</probabilities>
		</cpt>
		<cpt id="SupplyDepot">
			<state id="Absent" />
			<state id="Present" />
			<parents>TimePeriod</parents>
			<probabilities>1 0 0.3333333333333333 0.6666666666666666 0.3333333333333333 0.6666666666666666 0.3333333333333333 0.6666666666666666 0.3333333333333333 0.6666666666666666 0.3333333333333333 0.6666666666666666 0.3333333333333333 0.6666666666666666 0.3333333333333333 0.6666666666666666 0.3333333333333333 0.6666666666666666 0.3333333333333333 0.6666666666666666 0.3333333333333333 0.6666666666666666 0.6666666666666666 0.3333333333333333 0.3333333333333333 0.6666666666666666 0.3333333333333333 0.6666666666666666 0.3333333333333333 0.6666666666666666 0.3333333333333333 0.6666666666666666 0.3333333333333333 0.6666666666666666 0.3333333333333333 0.6666666666666666 0.3333333333333333 0.6666666666666666 0.3333333333333333 0.6666666666666666 0.3333333333333333 0.6666666666666666 0.3333333333333333 0.6666666666666666 0.3333333333333333 0.6666666666666666 0.3333333333333333 0.6666666666666666 0.3333333333333333 0.6666666666666666</probabilities>
		</cpt>
		<cpt id="EngineeringBay">
			<state id="Absent" />
			<state id="Present" />
			<parents>TimePeriod</parents>
			<probabilities>1 0 0.6666666666666666 0.3333333333333333 0.6666666666666666 0.3333333333333333 0.6666666666666666 0.3333333333333333 0.6666666666666666 0.3333333333333333 0.6666666666666666 0.3333333333333333 0.6666666666666666 0.3333333333333333 0.3333333333333333 0.6666666666666666 0.3333333333333333 0.6666666666666666 0.3333333333333333 0.6666666666666666 0.3333333333333333 0.6666666666666666 1 0 0.3333333333333333 0.6666666666666666 0.3333333333333333 0.6666666666666666 0.3333333333333333 0.6666666666666666 0.3333333333333333 0.6666666666666666 0.3333333333333333 0.6666666666666666 0.3333333333333333 0.6666666666666666 1 0 1 0 1 0 1 0 1 0 0.6666666666666666 0.3333333333333333 0.6666666666666666 0.3333333333333333</probabilities>
		</cpt>
		<cpt id="MissileTurret">
			<state id="Absent" />
			<state id="Present" />
			<parents>EngineeringBay TimePeriod</parents>
			<probabilities>1 0 1 0 1 0 1 0 1 0 1 0 1 0 1 0 1 0 1 0 1 0 1 0 1 0 1 0 1 0 1 0 1 0 1 0 1 0 1 0 1 0 1 0 1 0 1 0 1 0 1 0 0.5 0.5 0.5 0.5 0.5 0.5 0.5 0.5 0.5 0.5 0.5 0.5 0.3333333333333333 0.6666666666666666 0.3333333333333333 0.6666666666666666 0.3333333333333333 0.6666666666666666 0.3333333333333333 0.6666666666666666 1 0 0.3333333333333333 0.6666666666666666 0.3333333333333333 0.6666666666666666 0.3333333333333333 0.6666666666666666 0.3333333333333333 0.6666666666666666 0.3333333333333333 0.6666666666666666 0.3333333333333333 0.6666666666666666 1 0 1 0 1 0 1 0 1 0 1 0 0.5 0.5</probabilities>
		</cpt>
		<cpt id="Refinery">
			<state id="Absent" />
			<state id="Present" />
			<parents>TimePeriod</parents>
			<probabilities>1 0 0.3333333333333333 0.6666666666666666 0.3333333333333333 0.6666666666666666 0.3333333333333333 0.6666666666666666 0.3333333333333333 0.6666666666666666 0.3333333333333333 0.6666666666666666 0.3333333333333333 0.6666666666666666 0.3333333333333333 0.6666666666666666 0.3333333333333333 0.6666666666666666 0.3333333333333333 0.6666666666666666 0.3333333333333333 0.6666666666666666 1 0 0.3333333333333333 0.6666666666666666 0.3333333333333333 0.6666666666666666 0.3333333333333333 0.6666666666666666 0.3333333333333333 0.6666666666666666 0.3333333333333333 0.6666666666666666 0.3333333333333333 0.6666666666666666 0.6666666666666666 0.3333333333333333 0.3333333333333333 0.6666666666666666 0.3333333333333333 0.6666666666666666 0.3333333333333333 0.6666666666666666 0.3333333333333333 0.6666666666666666 0.3333333333333333 0.6666666666666666 0.3333333333333333 0.6666666666666666</probabilities>
		</cpt>
		<cpt id="Academy">
			<state id="Absent" />
			<state id="Present" />
			<parents>Barracks TimePeriod</parents>
			<probabilities>1 0 1 0 1 0 1 0 1 0 1 0 1 0 1 0 1 0 1 0 1 0 1 0 1 0 1 0 1 0 1 0 1 0 1 0 1 0 1 0 1 0 1 0 1 0 1 0 1 0 1 0 1 0 1 0 1 0 0.6666666666666666 0.3333333333333333 0.6666666666666666 0.3333333333333333 0.6666666666666666 0.3333333333333333 0.6666666666666666 0.3333333333333333 0.3333333333333333 0.6666666666666666 0.3333333333333333 0.6666666666666666 0.3333333333333333 0.6666666666666666 1 0 0.3333333333333333 0.6666666666666666 0.3333333333333333 0.6666666666666666 0.3333333333333333 0.6666666666666666 0.3333333333333333 0.6666666666666666 0.3333333333333333 0.6666666666666666 0.3333333333333333 0.6666666666666666 1 0 1 0 1 0 1 0 1 0 1 0 1 0</probabilities>
		</cpt>
		<cpt id="Factory">
			<state id="Absent" />
			<state id="Present" />
			<parents>Barracks Refinery TimePeriod</parents>
			<probabilities>1 0 1 0 1 0 1 0 1 0 1 0 1 0 1 0 1 0 1 0 1 0 1 0 1 0 1 0 1 0 1 0 1 0 1 0 1 0 1 0 1 0 1 0 1 0 1 0 1 0 1 0 1 0 1 0 1 0 1 0 1 0 1 0 1 0 1 0 1 0 1 0 1 0 1 0 1 0 1 0 1 0 1 0 1 0 1 0 1 0 1 0 1 0 1 0 1 0 1 0 1 0 1 0 1 0 1 0 1 0 1 0 1 0 1 0 1 0 1 0 1 0 1 0 1 0 1 0 1 0 1 0 1 0 1 0 1 0 1 0 1 0 1 0 1 0 1 0 1 0 1 0 0.3333333333333333 0.6666666666666666 0.3333333333333333 0.6666666666666666 0.3333333333333333 0.6666666666666666 0.3333333333333333 0.6666666666666666 0.3333333333333333 0.6666666666666666 0.3333333333333333 0.6666666666666666 0.3333333333333333 0.6666666666666666 0.3333333333333333 0.6666666666666666 0.3333333333333333 0.6666666666666666 0.3333333333333333 0.6666666666666666 1 0 0.3333333333333333 0.6666666666666666 0.3333333333333333 0.6666666666666666 0.3333333333333333 0.6666666666666666 0.3333333333333333 0.6666666666666666 0.3333333333333333 0.6666666666666666 0.3333333333333333 0.6666666666666666 1 0 0.6666666666666666 0.3333333333333333 0.6666666666666666 0.3333333333333333 0.3333333333333333 0.6666666666666666 0.3333333333333333 0.6666666666666666 0.3333333333333333 0.6666666666666666 0.3333333333333333 0.6666666666666666</probabilities>
		</cpt>
		<cpt id="ComsatStation">
			<state id="Absent" />
			<state id="Present" />
			<parents>Academy Refinery TimePeriod</parents>
			<probabilities>1 0 1 0 1 0 1 0 1 0 1 0 1 0 1 0 1 0 1 0 1 0 1 0 1 0 1 0 1 0 1 0 1 0 1 0 1 0 1 0 1 0 1 0 1 0 1 0 1 0 1 0 1 0 1 0 1 0 1 0 1 0 1 0 1 0 1 0 1 0 1 0 1 0 1 0 1 0 1 0 1 0 1 0 1 0 1 0 1 0 1 0 1 0 1 0 1 0 1 0 1 0 1 0 1 0 1 0 1 0 1 0 1 0 1 0 1 0 1 0 1 0 1 0 1 0 1 0 1 0 1 0 1 0 1 0 1 0 1 0 1 0 1 0 1 0 1 0 1 0 1 0 1 0 1 0 1 0 1 0 0.5 0.5 0.5 0.5 0.5 0.5 0.6666666666666666 0.3333333333333333 0.3333333333333333 0.6666666666666666 0.3333333333333333 0.6666666666666666 1 0 0.3333333333333333 0.6666666666666666 0.3333333333333333 0.6666666666666666 0.3333333333333333 0.6666666666666666 0.3333333333333333 0.6666666666666666 0.3333333333333333 0.6666666666666666 0.3333333333333333 0.6666666666666666 1 0 1 0 1 0 1 0 1 0 1 0 1 0</probabilities>
		</cpt>
		<cpt id="MachineShop">
			<state id="Absent" />
			<state id="Present" />
			<parents>Factory TimePeriod</parents>
			<probabilities>1 0 1 0 1 0 1 0 1 0 1 0 1 0 1 0 1 0 1 0 1 0 1 0 1 0 1 0 1 0 1 0 1 0 1 0 1 0 1 0 1 0 1 0 1 0 1 0 1 0 1 0 0.3333333333333333 0.6666666666666666 0.3333333333333333 0.6666666666666666 0.3333333333333333 0.6666666666666666 0.3333333333333333 0.6666666666666666 0.3333333333333333 0.6666666666666666 0.3333333333333333 0.6666666666666666 0.3333333333333333 0.6666666666666666 0.3333333333333333 0.6666666666666666 0.3333333333333333 0.6666666666666666 0.3333333333333333 0.6666666666666666 1 0 0.3333333333333333 0.6666666666666666 0.3333333333333333 0.6666666666666666 0.3333333333333333 0.6666666666666666 0.3333333333333333 0.6666666666666666 0.3333333333333333 0.6666666666666666 0.3333333333333333 0.6666666666666666 1 0 1 0 1 0 0.6666666666666666 0.3333333333333333 0.3333333333333333 0.6666666666666666 0.3333333333333333 0.6666666666666666 0.3333333333333333 0.6666666666666666</probabilities>
		</cpt>
		<cpt id="Armory">
			<state id="Absent" />
			<state id="Present" />
			<parents>Factory TimePeriod</parents>
			<probabilities>1 0 1 0 1 0 1 0 1 0 1 0 1 0 1 0 1 0 1 0 1 0 1 0 1 0 1 0 1 0 1 0 1 0 1 0 1 0 1 0 1 0 1 0 1 0 1 0 1 0 1 0 0.6666666666666666 0.3333333333333333 0.6666666666666666 0.3333333333333333 0.6666666666666666 0.3333333333333333 0.6666666666666666 0.3333333333333333 0.6666666666666666 0.3333333333333333 0.6666666666666666 0.3333333333333333 0.6666666666666666 0.3333333333333333 0.6666666666666666 0.3333333333333333 0.6666666666666666 0.3333333333333333 0.6666666666666666 0.3333333333333333 1 0 0.6666666666666666 0.3333333333333333 0.6666666666666666 0.3333333333333333 0.6666666666666666 0.3333333333333333 0.6666666666666666 0.3333333333333333 0.6666666666666666 0.3333333333333333 0.3333333333333333 0.6666666666666666 1 0 1 0 1 0 1 0 1 0 0.6666666666666666 0.3333333333333333 0.6666666666666666 0.3333333333333333</probabilities>
		</cpt>
		<cpt id="Starport">
			<state id="Absent" />
			<state id="Present" />
			<parents>Factory TimePeriod</parents>
			<probabilities>1 0 1 0 1 0 1 0 1 0 1 0 1 0 1 0 1 0 1 0 1 0 1 0 1 0 1 0 1 0 1 0 1 0 1 0 1 0 1 0 1 0 1 0 1 0 1 0 1 0 1 0 0.6666666666666666 0.3333333333333333 0.6666666666666666 0.3333333333333333 0.3333333333333333 0.6666666666666666 0.3333333333333333 0.6666666666666666 0.3333333333333333 0.6666666666666666 0.3333333333333333 0.6666666666666666 0.3333333333333333 0.6666666666666666 0.3333333333333333 0.6666666666666666 0.3333333333333333 0.6666666666666666 0.3333333333333333 0.6666666666666666 1 0 0.3333333333333333 0.6666666666666666 0.3333333333333333 0.6666666666666666 0.3333333333333333 0.6666666666666666 0.3333333333333333 0.6666666666666666 0.3333333333333333 0.6666666666666666 0.3333333333333333 0.6666666666666666 1 0 1 0 1 0 1 0 1 0 0.6666666666666666 0.3333333333333333 0.6666666666666666 0.3333333333333333</probabilities>
		</cpt>
		<cpt id="ControlTower">
			<state id="Absent" />
			<state id="Present" />
			<parents>Starport TimePeriod</parents>
			<probabilities>1 0 1 0 1 0 1 0 1 0 1 0 1 0 1 0 1 0 1 0 1 0 1 0 1 0 1 0 1 0 1 0 1 0 1 0 1 0 1 0 1 0 1 0 1 0 1 0 1 0 1 0 0.5 0.5 0.5 0.5 0.6666666666666666 0.3333333333333333 0.6666666666666666 0.3333333333333333 0.3333333333333333 0.6666666666666666 0.3333333333333333 0.6666666666666666 0.3333333333333333 0.6666666666666666 0.3333333333333333 0.6666666666666666 0.3333333333333333 0.6666666666666666 0.3333333333333333 0.6666666666666666 1 0 0.3333333333333333 0.6666666666666666 0.3333333333333333 0.6666666666666666 0.3333333333333333 0.6666666666666666 0.3333333333333333 0.6666666666666666 0.3333333333333333 0.6666666666666666 0.3333333333333333 0.6666666666666666 1 0 1 0 1 0 1 0 1 0 1 0 0.5 0.5</probabilities>
		</cpt>
		<cpt id="ScienceFacility">
			<state id="Absent" />
			<state id="Present" />
			<parents>Starport TimePeriod</parents>
			<probabilities>1 0 1 0 1 0 1 0 1 0 1 0 1 0 1 0 1 0 1 0 1 0 1 0 1 0 1 0 1 0 1 0 1 0 1 0 1 0 1 0 1 0 1 0 1 0 1 0 1 0 1 0 1 0 1 0 1 0 1 0 1 0 0.6666666666666666 0.3333333333333333 0.6666666666666666 0.3333333333333333 0.6666666666666666 0.3333333333333333 0.6666666666666666 0.3333333333333333 0.6666666666666666 0.3333333333333333 1 0 0.6666666666666666 0.3333333333333333 0.6666666666666666 0.3333333333333333 0.6666666666666666 0.3333333333333333 0.6666666666666666 0.3333333333333333 0.6666666666666666 0.3333333333333333 0.3333333333333333 0.6666666666666666 1 0 1 0 1 0 1 0 1 0 1 0 1 0</probabilities>
		</cpt>
		<cpt id="PhysicsLab">
			<state id="Absent" />
			<state id="Present" />
			<parents>ScienceFacility TimePeriod</parents>
			<probabilities>1 0 1 0 1 0 1 0 1 0 1 0 1 0 1 0 1 0 1 0 1 0 1 0 1 0 1 0 1 0 1 0 1 0 1 0 1 0 1 0 1 0 1 0 1 0 1 0 1 0 1 0 1 0 1 0 1 0 1 0 1 0 1 0 1 0 1 0 1 0 1 0 1 0 1 0 1 0 1 0 1 0 1 0 1 0 1 0 1 0 1 0 1 0 1 0 1 0 1 0</probabilities>
		</cpt>
		<cpt id="CovertOps">
			<state id="Absent" />
			<state id="Present" />
			<parents>ScienceFacility TimePeriod</parents>
			<probabilities>1 0 1 0 1 0 1 0 1 0 1 0 1 0 1 0 1 0 1 0 1 0 1 0 1 0 1 0 1 0 1 0 1 0 1 0 1 0 1 0 1 0 1 0 1 0 1 0 1 0 1 0 1 0 1 0 1 0 1 0 1 0 1 0 1 0 1 0 1 0 1 0 1 0 1 0 1 0 1 0 1 0 1 0 0.6666666666666666 0.3333333333333333 1 0 1 0 1 0 1 0 1 0 1 0 1 0</probabilities>
		</cpt>
		<cpt id="NuclearSilo">
			<state id="Absent" />
			<state id="Present" />
			<parents>CovertOps TimePeriod</parents>
			<probabilities>1 0 1 0 1 0 1 0 1 0 1 0 1 0 1 0 1 0 1 0 1 0 1 0 1 0 1 0 1 0 1 0 1 0 1 0 1 0 1 0 1 0 1 0 1 0 1 0 1 0 1 0 1 0 1 0 1 0 1 0 1 0 1 0 1 0 1 0 1 0 1 0 1 0 1 0 1 0 1 0 1 0 1 0 0.5 0.5 1 0 1 0 1 0 1 0 1 0 1 0 1 0</probabilities>
		</cpt>
		<cpt id="Marine">
			<state id="Absent" />
			<state id="Present" />
			<parents>Barracks TimePeriod</parents>
			<probabilities>1 0 1 0 1 0 1 0 1 0 1 0 1 0 1 0 1 0 1 0 1 0 1 0 1 0 1 0 1 0 1 0 1 0 1 0 1 0 1 0 1 0 1 0 1 0 1 0 1 0 1 0 0.3333333333333333 0.6666666666666666 0.3333333333333333 0.6666666666666666 0.3333333333333333 0.6666666666666666 0.3333333333333333 0.6666666666666666 0.3333333333333333 0.6666666666666666 0.3333333333333333 0.6666666666666666 0.3333333333333333 0.6666666666666666 0.3333333333333333 0.6666666666666666 0.3333333333333333 0.6666666666666666 0.3333333333333333 0.6666666666666666 1 0 0.3333333333333333 0.6666666666666666 0.3333333333333333 0.6666666666666666 0.3333333333333333 0.6666666666666666 0.3333333333333333 0.6666666666666666 0.3333333333333333 0.6666666666666666 0.3333333333333333 0.6666666666666666 1 0 0.3333333333333333 0.6666666666666666 0.3333333333333333 0.6666666666666666 0.3333333333333333 0.6666666666666666 0.3333333333333333 0.6666666666666666 0.3333333333333333 0.6666666666666666 0.3333333333333333 0.6666666666666666</probabilities>
		</cpt>
		<cpt id="Firebat">
			<state id="Absent" />
			<state id="Present" />
			<parents>Academy TimePeriod</parents>
			<probabilities>1 0 1 0 1 0 1 0 1 0 1 0 1 0 1 0 1 0 1 0 1 0 1 0 1 0 1 0 1 0 1 0 1 0 1 0 1 0 1 0 1 0 1 0 1 0 1 0 1 0 1 0 1 0 1 0 1 0 1 0 1 0 1 0 1 0 1 0 1 0 1 0 1 0 1 0 1 0 1 0 1 0 1 0 1 0 1 0 1 0 1 0 1 0 1 0 1 0 1 0</probabilities>
		</cpt>
		<cpt id="Medic">
			<state id="Absent" />
			<state id="Present" />
			<parents>Academy TimePeriod</parents>
			<probabilities>1 0 1 0 1 0 1 0 1 0 1 0 1 0 1 0 1 0 1 0 1 0 1 0 1 0 1 0 1 0 1 0 1 0 1 0 1 0 1 0 1 0 1 0 1 0 1 0 1 0 1 0 1 0 1 0 1 0 1 0 1 0 1 0 1 0 1 0 1 0 1 0 1 0 1 0 1 0 1 0 1 0 1 0 1 0 1 0 1 0 1 0 1 0 1 0 1 0 1 0</probabilities>
		</cpt>
		<cpt id="Vulture">
			<state id="Absent" />
			<state id="Present" />
			<parents>Factory TimePeriod</parents>
			<probabilities>1 0 1 0 1 0 1 0 1 0 1 0 1 0 1 0 1 0 1 0 1 0 1 0 1 0 1 0 1 0 1 0 1 0 1 0 1 0 1 0 1 0 1 0 1 0 1 0 1 0 1 0 0.3333333333333333 0.6666666666666666 0.3333333333333333 0.6666666666666666 0.3333333333333333 0.6666666666666666 0.3333333333333333 0.6666666666666666 0.3333333333333333 0.6666666666666666 0.3333333333333333 0.6666666666666666 0.3333333333333333 0.6666666666666666 0.3333333333333333 0.6666666666666666 0.3333333333333333 0.6666666666666666 0.3333333333333333 0.6666666666666666 1 0 0.3333333333333333 0.6666666666666666 0.3333333333333333 0.6666666666666666 0.3333333333333333 0.6666666666666666 0.3333333333333333 0.6666666666666666 0.3333333333333333 0.6666666666666666 0.3333333333333333 0.6666666666666666 1 0 1 0 0.5 0.5 0.6666666666666666 0.3333333333333333 0.3333333333333333 0.6666666666666666 0.3333333333333333 0.6666666666666666 0.3333333333333333 0.6666666666666666</probabilities>
		</cpt>
		<cpt id="SpiderMine">
			<state id="Absent" />
			<state id="Present" />
			<parents>MachineShop Vulture TimePeriod</parents>
			<probabilities>1 0 1 0 1 0 1 0 1 0 1 0 1 0 1 0 1 0 1 0 1 0 1 0 1 0 1 0 1 0 1 0 1 0 1 0 1 0 1 0 1 0 1 0 1 0 1 0 1 0 1 0 1 0 1 0 1 0 1 0 1 0 1 0 1 0 1 0 1 0 1 0 1 0 1 0 1 0 1 0 1 0 1 0 1 0 1 0 1 0 1 0 1 0 1 0 1 0 1 0 1 0 1 0 1 0 1 0 1 0 1 0 1 0 1 0 1 0 1 0 1 0 1 0 1 0 1 0 1 0 1 0 1 0 1 0 1 0 1 0 1 0 1 0 1 0 1 0 1 0 1 0 1 0 1 0 1 0 1 0 1 0 1 0 1 0 1 0 1 0 1 0 1 0 1 0 1 0 1 0 1 0 1 0 1 0 1 0 1 0 1 0 1 0 1 0 1 0 1 0</probabilities>
		</cpt>
		<cpt id="SiegeTank">
			<state id="Absent" />
			<state id="Present" />
			<parents>MachineShop TimePeriod</parents>
			<probabilities>1 0 1 0 1 0 1 0 1 0 1 0 1 0 1 0 1 0 1 0 1 0 1 0 1 0 1 0 1 0 1 0 1 0 1 0 1 0 1 0 1 0 1 0 1 0 1 0 1 0 1 0 1 0 1 0 1 0 1 0 1 0 1 0 1 0 1 0 1 0 1 0 1 0 1 0 1 0 1 0 1 0 1 0 1 0 1 0 1 0 1 0 1 0 1 0 1 0 1 0</probabilities>
		</cpt>
		<cpt id="Goliath">
			<state id="Absent" />
			<state id="Present" />
			<parents>Armory TimePeriod</parents>
			<probabilities>1 0 1 0 1 0 1 0 1 0 1 0 1 0 1 0 1 0 1 0 1 0 1 0 1 0 1 0 1 0 1 0 1 0 1 0 1 0 1 0 1 0 1 0 1 0 1 0 1 0 1 0 1 0 1 0 0.5 0.5 0.5 0.5 0.5 0.5 0.5 0.5 0.5 0.5 0.5 0.5 0.5 0.5 0.5 0.5 1 0 0.5 0.5 0.5 0.5 0.5 0.5 0.5 0.5 0.5 0.5 0.3333333333333333 0.6666666666666666 1 0 1 0 1 0 1 0 1 0 1 0 1 0</probabilities>
		</cpt>
		<cpt id="Valkyrie">
			<state id="Absent" />
			<state id="Present" />
			<parents>Armory ControlTower TimePeriod</parents>
			<probabilities>1 0 1 0 1 0 1 0 1 0 1 0 1 0 1 0 1 0 1 0 1 0 1 0 1 0 1 0 1 0 1 0 1 0 1 0 1 0 1 0 1 0 1 0 1 0 1 0 1 0 1 0 1 0 1 0 1 0 1 0 1 0 1 0 1 0 1 0 1 0 1 0 1 0 1 0 1 0 1 0 1 0 1 0 1 0 1 0 1 0 1 0 1 0 1 0 1 0 1 0 1 0 1 0 1 0 1 0 1 0 1 0 1 0 1 0 1 0 1 0 1 0 1 0 1 0 1 0 1 0 1 0 1 0 1 0 1 0 1 0 1 0 1 0 1 0 1 0 1 0 1 0 1 0 1 0 1 0 1 0 1 0 1 0 1 0 1 0 1 0 1 0 1 0 1 0 1 0 1 0 1 0 1 0 1 0 1 0 1 0 1 0 1 0 1 0 1 0 1 0</probabilities>
		</cpt>
		<cpt id="Dropship">
			<state id="Absent" />
			<state id="Present" />
			<parents>ControlTower TimePeriod</parents>
			<probabilities>1 0 1 0 1 0 1 0 1 0 1 0 1 0 1 0 1 0 1 0 1 0 1 0 1 0 1 0 1 0 1 0 1 0 1 0 1 0 1 0 1 0 1 0 1 0 1 0 1 0 1 0 0.5 0.5 0.5 0.5 0.5 0.5 0.5 0.5 0.6666666666666666 0.3333333333333333 0.6666666666666666 0.3333333333333333 0.3333333333333333 0.6666666666666666 0.3333333333333333 0.6666666666666666 0.3333333333333333 0.6666666666666666 0.3333333333333333 0.6666666666666666 1 0 0.3333333333333333 0.6666666666666666 0.3333333333333333 0.6666666666666666 0.3333333333333333 0.6666666666666666 0.3333333333333333 0.6666666666666666 0.3333333333333333 0.6666666666666666 0.3333333333333333 0.6666666666666666 1 0 1 0 1 0 1 0 1 0 1 0 1 0</probabilities>
		</cpt>
		<cpt id="Wraith">
			<state id="Absent" />
			<state id="Present" />
			<parents>Starport TimePeriod</parents>
			<probabilities>1 0 1 0 1 0 1 0 1 0 1 0 1 0 1 0 1 0 1 0 1 0 1 0 1 0 1 0 1 0 1 0 1 0 1 0 1 0 1 0 1 0 1 0 1 0 1 0 1 0 1 0 1 0 0.5 0.5 0.6666666666666666 0.3333333333333333 0.6666666666666666 0.3333333333333333 0.6666666666666666 0.3333333333333333 0.6666666666666666 0.3333333333333333 0.6666666666666666 0.3333333333333333 0.6666666666666666 0.3333333333333333 0.6666666666666666 0.3333333333333333 0.3333333333333333 0.6666666666666666 1 0 0.3333333333333333 0.6666666666666666 0.3333333333333333 0.6666666666666666 0.3333333333333333 0.6666666666666666 0.3333333333333333 0.6666666666666666 0.3333333333333333 0.6666666666666666 0.3333333333333333 0.6666666666666666 1 0 1 0 1 0 1 0 1 0 1 0 1 0</probabilities>
		</cpt>
		<cpt id="ScienceVessel">
			<state id="Absent" />
			<state id="Present" />
			<parents>ControlTower ScienceFacility TimePeriod</parents>
			<probabilities>1 0 1 0 1 0 1 0 1 0 1 0 1 0 1 0 1 0 1 0 1 0 1 0 1 0 1 0 1 0 1 0 1 0 1 0 1 0 1 0 1 0 1 0 1 0 1 0 1 0 1 0 1 0 1 0 1 0 1 0 1 0 1 0 1 0 1 0 1 0 1 0 1 0 1 0 1 0 1 0 1 0 1 0 1 0 1 0 1 0 1 0 1 0 1 0 1 0 1 0 1 0 1 0 1 0 1 0 1 0 1 0 1 0 1 0 1 0 1 0 1 0 1 0 1 0 1 0 1 0 1 0 1 0 1 0 1 0 1 0 1 0 1 0 1 0 1 0 1 0 1 0 1 0 1 0 1 0 1 0 1 0 1 0 1 0 1 0 1 0 1 0 1 0 1 0 1 0 0.5 0.5 0.5 0.5 0.5 0.5 0.3333333333333333 0.6666666666666666 1 0 1 0 1 0 1 0 1 0 1 0 1 0</probabilities>
		</cpt>
		<cpt id="Battlecruiser">
			<state id="Absent" />
			<state id="Present" />
			<parents>PhysicsLab TimePeriod</parents>
			<probabilities>1 0 1 0 1 0 1 0 1 0 1 0 1 0 1 0 1 0 1 0 1 0 1 0 1 0 1 0 1 0 1 0 1 0 1 0 1 0 1 0 1 0 1 0 1 0 1 0 1 0 1 0 1 0 1 0 1 0 1 0 1 0 1 0 1 0 1 0 1 0 1 0 1 0 1 0 1 0 1 0 1 0 1 0 1 0 1 0 1 0 1 0 1 0 1 0 1 0 1 0</probabilities>
		</cpt>
		<cpt id="Ghost">
			<state id="Absent" />
			<state id="Present" />
			<parents>CovertOps TimePeriod</parents>
			<probabilities>1 0 1 0 1 0 1 0 1 0 1 0 1 0 1 0 1 0 1 0 1 0 1 0 1 0 1 0 1 0 1 0 1 0 1 0 1 0 1 0 1 0 1 0 1 0 1 0 1 0 1 0 1 0 1 0 1 0 1 0 1 0 1 0 1 0 1 0 1 0 1 0 1 0 1 0 1 0 1 0 1 0 1 0 1 0 1 0 1 0 1 0 1 0 1 0 1 0 1 0</probabilities>
		</cpt>
		<cpt id="NuclearMissile">
			<state id="Absent" />
			<state id="Present" />
			<parents>NuclearSilo Ghost TimePeriod</parents>
			<probabilities>0.7301094915464389 0.2698905084535611 0.8578233118209306 0.1421766881790694 0.8697793227502673 0.1302206772497327 0.8340968301892735 0.1659031698107264 0.773645334465092 0.2263546655349079 0.8259749102535636 0.1740250897464363 0.748113230910872 0.2518867690891279 0.7495902441236991 0.2504097558763008 0.8279964885800616 0.1720035114199384 0.788623568668827 0.211376431331173 0.8122278841580444 0.1877721158419556 0.8991419875034816 0.1008580124965183 0.823126230485887 0.176873769514113 0.8709052106549824 0.1290947893450176 0.8591393100267624 0.1408606899732377 0.8994332203203161 0.1005667796796839 0.8931931876281989 0.1068068123718012 0.9921706628725711 0.007829337127428959 0.8245370317871102 0.1754629682128897 0.8842136916445995 0.1157863083554004 0.8104595211728191 0.1895404788271809 0.8493897646486707 0.1506102353513292 0.9467463788520669 0.05325362114793306 0.8407351065267115 0.1592648934732885 0.8998722318093489 0.100127768190651 1 0 1 0 1 0 1 0 1 0 1 0 1 0 1 0 1 0 1 0 1 0 1 0 1 0 1 0 1 0 1 0 1 0 1 0 1 0 1 0 1 0 1 0 1 0 1 0 1 0 1 0 1 0 1 0 1 0 1 0 1 0 1 0 1 0 1 0 1 0 1 0 1 0 1 0 1 0 1 0 1 0 1 0 0.9448314553950787 0.05516854460492125 1 0 1 0 1 0 1 0 1 0 1 0 1 0 1 0 1 0 1 0 1 0 1 0 1 0 1 0 1 0 1 0 1 0 1 0 1 0 1 0 1 0 1 0 1 0 1 0 1 0 1 0 1 0 1 0 1 0 1 0 1 0 1 0</probabilities>
		</cpt>
		<cpt id="InfantryWeapons1">
			<state id="Absent" />
			<state id="Present" />
			<parents>EngineeringBay TimePeriod</parents>
			<probabilities>0.9385068367428955 0.06149316325710449 0.9502706674090931 0.04972933259090708 0.9758420874125392 0.02415791258746079 0.9451439090728316 0.05485609092716838 0.9419104877380925 0.05808951226190747 0.9332988409085852 0.0667011590914149 0.9874071705295103 0.01259282947048966 1 0 1 0 1 0 1 0 0.9278112387823377 0.07218876121766216 1 0 1 0 1 0 1 0 1 0 1 0 0.7858959870043246 0.2141040129956753 0.9056019584200048 0.09439804157999511 0.7868910024893965 0.2131089975106035 0.9143722396648144 0.08562776033518556 0.9381242857705934 0.06187571422940653 0.9076356690521876 0.09236433094781242 0.9223795936921149 0.07762040630788515 1 0 0.9480517825385577 0.05194821746144229 0.9277197810570828 0.07228021894291725 0.977693356021051 0.02230664397894907 0.8886414566926215 0.1113585433073785 0.9170894856953622 0.08291051430463782 0.9809536930607823 0.01904630693921787 0.7820537736034228 0.2179462263965772 0.8141732133870631 0.1858267866129369 0.7809658867514004 0.2190341132485995 0.8116569065931154 0.1883430934068846 1 0 0.8317730556180853 0.1682269443819147 0.7376815405336861 0.2623184594663139 0.9804180520107917 0.01958194798920828 0.7903221693308811 0.209677830669119 0.8743073923048035 0.1256926076951965 0.8771361581172326 0.1228638418827674 1 0 1 0 1 0 1 0 1 0 0.9966029788623608 0.003397021137639143 0.9843667931941218 0.01563320680587823</probabilities>
		</cpt>
		<cpt id="InfantryArmor1">
			<state id="Absent" />
			<state id="Present" />
			<parents>TimePeriod EngineeringBay</parents>
			<probabilities>0.7112559186271128 0.2887440813728872 1 0 0.9565454531493105 0.04345454685068952 0.967612185888632 0.03238781411136811 0.9118355272622386 0.08816447273776137 0.9243009444138772 0.07569905558612279 0.9644326043506261 0.0355673956493739 0.9324506111675019 0.067549388832498 0.9748743920567513 0.0251256079432487 0.9383547199837318 0.06164528001626825 0.9492833953384778 0.05071660466152224 0.9439809039240539 0.05601909607594614 0.9778970211600178 0.02210297883998222 0.8825766062778877 0.1174233937221123 1 0 0.9781820890165859 0.02181791098341396 1 0 0.8545757940173611 0.1454242059826389 1 0 0.8294024327717128 0.1705975672282871 1 0 0.8074611046516134 0.1925388953483866 0.8972294066731755 0.1027705933268244 1 0 1 0 0.8296348188240081 0.1703651811759918 1 0 0.8630492994767083 0.1369507005232916 1 0 0.831993664352607 0.1680063356473929 1 0 0.8037562197413817 0.1962437802586182 1 0 0.894969798973222 0.1050302010267779 1 0 0.7517891020503768 0.2482108979496231 0.8791653149863863 0.1208346850136137 1 0 0.8969983650801183 0.1030016349198816 1 0 0.9087133031177528 0.09128669688224718 1 0 0.9167745976430906 0.0832254023569093 1 0 0.7900718518866393 0.2099281481133606 1 0 0.9297088594167748 0.07029114058322519 0.9247477922625278 0.07525220773747228 0.9307866019126261 0.06921339808737395 0.9683431910101826 0.03165680898981738</probabilities>
		</cpt>
		<cpt id="CaduceusReactor">
			<state id="Absent" />
			<state id="Present" />
			<parents>Academy TimePeriod</parents>
			<probabilities>0.7583139374068727 0.2416860625931272 0.9477892755508931 0.05221072444910693 0.8851783461926561 0.1148216538073439 0.7816513763145876 0.2183486236854124 0.9388520468385182 0.0611479531614819 0.9623753598594605 0.03762464014053948 0.9511293937380286 0.04887060626197146 0.8906103679134556 0.1093896320865444 1 0 1 0 1 0 0.958462747211341 0.04153725278865891 1 0 1 0 1 0 1 0 1 0 1 0 0.8546139026654417 0.1453860973345582 0.9072417807073416 0.09275821929265823 0.8303289716274983 0.1696710283725016 0.8456982135919862 0.1543017864080138 0.7817207891434346 0.2182792108565654 0.8589034623601755 0.1410965376398244 0.9409213798742167 0.0590786201257833 1 0 1 0 1 0 1 0 0.9935089376943594 0.006491062305640585 0.9671950134329457 0.03280498656705438 0.9413784167029857 0.05862158329701435 0.9412211912154371 0.05877880878456287 0.8326344379295687 0.1673655620704313 0.9430619145506709 0.05693808544932903 0.9479316722580001 0.0520683277419999 1 0 0.8826357950470813 0.1173642049529185 0.7842171044009938 0.2157828955990061 0.803572017987997 0.1964279820120028 0.9116098384480177 0.08839016155198227 0.8266384171320009 0.173361582867999 0.7754134756389242 0.2245865243610758 1 0 1 0 1 0 1 0 1 0 1 0 1 0</probabilities>
		</cpt>
		<cpt id="OpticalFlare">
			<state id="Absent" />
			<state id="Present" />
			<parents>Academy TimePeriod</parents>
			<probabilities>0.7619065049131303 0.2380934950868698 0.8519947929983163 0.1480052070016838 0.7536590324917102 0.2463409675082898 0.8525669325900234 0.1474330674099766 0.9630385715311195 0.03696142846888048 0.923284430544188 0.07671556945581201 0.9554992171331709 0.04450078286682918 0.9728380022274923 0.02716199777250766 1 0 1 0 1 0 0.8504458780321766 0.1495541219678232 1 0 1 0 1 0 1 0 1 0 1 0 0.7273066036156596 0.2726933963843404 0.8708377594193104 0.1291622405806896 0.7486033289528271 0.2513966710471727 0.797560572239038 0.2024394277609619 0.8726601637249751 0.1273398362750248 0.7566957015435412 0.2433042984564589 0.859850596317945 0.140149403682055 1 0 1 0 1 0 1 0 0.9890260085268653 0.01097399147313472 0.9858120875634175 0.01418791243658243 0.9200857531384791 0.07991424686152093 0.9572801225553307 0.04271987744466946 0.8328517011564962 0.1671482988435038 0.8084917319832142 0.1915082680167857 0.9814179410354915 0.01858205896450848 1 0 0.7869788523984445 0.2130211476015555 0.8560321815740224 0.1439678184259776 0.8166666448812199 0.1833333551187801 0.7712763082913524 0.2287236917086475 0.8122678443848569 0.187732155615143 0.8050050011285699 0.1949949988714301 1 0 1 0 1 0 1 0 1 0 1 0 1 0</probabilities>
		</cpt>
		<cpt id="Restoration">
			<state id="Absent" />
			<state id="Present" />
			<parents>Academy TimePeriod</parents>
			<probabilities>0.8334155244326166 0.1665844755673834 0.9036007897116738 0.09639921028832615 0.7832316870624767 0.2167683129375233 0.8328887790880544 0.1671112209119456 0.970482717136588 0.02951728286341209 0.9364260564100952 0.06357394358990484 0.9048118237802135 0.09518817621978645 0.9146570855023102 0.08534291449768987 1 0 1 0 1 0 0.8855783487340548 0.1144216512659451 1 0 1 0 1 0 1 0 1 0 1 0 0.8367377450950162 0.1632622549049838 0.7187940512447996 0.2812059487552003 0.8190279196230169 0.180972080376983 0.8038569207213361 0.1961430792786639 0.7855115122804085 0.2144884877195914 0.8359622224678149 0.164037777532185 0.8415766923103274 0.1584233076896725 1 0 1 0 1 0 1 0 0.9299902576999084 0.07000974230009159 0.987838219183244 0.01216178081675602 0.9696783565945937 0.03032164340540628 0.9609684683700404 0.0390315316299596 0.8861433145771228 0.1138566854228772 0.7786914827280318 0.221308517271968 0.8479107230323466 0.1520892769676533 1 0 0.9953520030885119 0.004647996911488049 0.8073520336594255 0.1926479663405743 0.8151553714030188 0.1848446285969812 0.9488310212850323 0.05116897871496767 0.9236817716732126 0.07631822832678738 0.8028788688898098 0.1971211311101901 1 0 1 0 1 0 1 0 1 0 1 0 1 0</probabilities>
		</cpt>
		<cpt id="StimPacks">
			<state id="Absent" />
			<state id="Present" />
			<parents>Academy TimePeriod</parents>
			<probabilities>0.8902416082512483 0.1097583917487515 0.8234176754311685 0.1765823245688315 0.8502263633186719 0.149773636681328 0.7573134726394979 0.242686527360502 0.9370565185671581 0.06294348143284195 0.9403636525851433 0.05963634741485673 0.8883389739983709 0.111661026001629 0.9592420604129237 0.04075793958707628 1 0 1 0 1 0 0.8330782800971797 0.1669217199028203 1 0 1 0 1 0 1 0 1 0 1 0 0.8831368677898139 0.116863132210186 0.8686904905849917 0.1313095094150082 0.9416765900768687 0.05832340992313121 0.9193170753322706 0.08068292466772949 0.8079536510748007 0.1920463489251993 0.8559659869610299 0.1440340130389701 0.9499041465350779 0.05009585346492201 1 0 1 0 1 0 1 0 0.9475247949575858 0.05247520504241438 0.9328021326586957 0.06719786734130429 0.885631305894333 0.1143686941056669 0.9280356802380296 0.07196431976197042 0.7139196068454591 0.2860803931545409 0.9361120058178464 0.06388799418215352 0.8472675554058397 0.1527324445941604 1 0 0.7360036588946043 0.2639963411053957 0.7534725253968679 0.246527474603132 0.8175002959083948 0.1824997040916052 0.7111876546442689 0.288812345355731 0.7664119478332091 0.2335880521667908 0.9353656016408467 0.06463439835915324 1 0 1 0 1 0 1 0 1 0 1 0 1 0</probabilities>
		</cpt>
		<cpt id="U238Shells">
			<state id="Absent" />
			<state id="Present" />
			<parents>Academy TimePeriod</parents>
			<probabilities>0.8394587032255154 0.1605412967744845 0.9154777241654398 0.08452227583456008 0.8193377588390922 0.1806622411609076 0.7049906870111612 0.2950093129888388 0.9868598005414457 0.01314019945855429 0.9527147644924235 0.04728523550757648 0.9254239046662602 0.07457609533373971 0.9220345127581325 0.07796548724186748 1 0 1 0 1 0 0.8679031691121285 0.1320968308878715 1 0 1 0 1 0 1 0 1 0 1 0 0.7160917758080737 0.2839082241919262 0.8473101072285229 0.1526898927714771 0.840466947231009 0.159533052768991 0.9024834474031698 0.09751655259683024 0.8771176074171028 0.1228823925828971 0.9001696677061905 0.09983033229380946 0.7122006584206939 0.2877993415793061 1 0 1 0 1 0 1 0 0.9378108044364771 0.06218919556352289 0.9392435880475285 0.06075641195247145 0.9861048037901796 0.01389519620982054 0.9141353776100222 0.08586462238997791 0.9469963570537848 0.05300364294621521 0.9418940294658922 0.05810597053410777 0.9418692890187842 0.05813071098121571 1 0 0.8644370525382917 0.1355629474617082 0.9763073073580175 0.02369269264198255 0.7160309601670172 0.2839690398329828 0.9310790042117995 0.06892099578820046 0.776590586528668 0.223409413471332 0.7486425135730188 0.2513574864269812 1 0 1 0 1 0 1 0 1 0 1 0 1 0</probabilities>
		</cpt>
		<cpt id="IonThrusters">
			<state id="Absent" />
			<state id="Present" />
			<parents>MachineShop TimePeriod</parents>
			<probabilities>0.9374866608222245 0.06251333917777538 1 0 1 0 1 0 1 0 1 0 1 0 1 0 1 0 1 0 1 0 0.7301409762344708 0.2698590237655291 1 0 1 0 1 0 1 0 1 0 1 0 0.9846852822343132 0.01531471776568675 0.805028044630158 0.1949719553698419 0.8096745878997368 0.1903254121002631 0.9519351521406765 0.04806484785932354 1 0 1 0 1 0 1 0 0.7928712637615297 0.2071287362384702 0.8537728792460115 0.1462271207539884 0.7878741504550374 0.2121258495449626 0.9510569801724966 0.04894301982750331 0.9856874218418277 0.01431257815817231 0.8749904023396598 0.1250095976603402 0.9817210886027072 0.01827891139729274 0.9994320817592397 0.0005679182407601728 0.7272157784445881 0.2727842215554119 0.8450145335375252 0.1549854664624748 1 0 0.7244402215170485 0.2755597784829516 0.9809117530667344 0.01908824693326552 0.8252285621557434 0.1747714378442566 0.727452548862227 0.2725474511377728 0.8741995007061878 0.1258004992938121 0.8432097725199763 0.1567902274800236 1 0 1 0 1 0 0.8941918308534974 0.1058081691465026 0.736178862180256 0.2638211378197439 0.9145652838587641 0.08543471614123585 0.9207218890279704 0.07927811097202953</probabilities>
		</cpt>
		<cpt id="CharonBoosters">
			<state id="Absent" />
			<state id="Present" />
			<parents>MachineShop TimePeriod</parents>
			<probabilities>0.7522429951625606 0.2477570048374394 1 0 1 0 1 0 1 0 1 0 1 0 1 0 1 0 1 0 1 0 0.8567398956972447 0.1432601043027551 1 0 1 0 1 0 1 0 1 0 1 0 0.8638448270989074 0.1361551729010926 0.806922911456423 0.1930770885435769 0.8111341256770227 0.1888658743229772 0.9205123519323081 0.0794876480676919 1 0 1 0 1 0 1 0 0.8445751096573355 0.1554248903426644 0.8636127629895342 0.1363872370104657 0.8301589910238967 0.1698410089761032 0.8123087426078707 0.1876912573921293 0.9352040671918045 0.06479593280819536 0.8363411892670793 0.1636588107329207 0.7367710017105008 0.2632289982894991 0.9724929385142356 0.02750706148576442 0.8421003424666314 0.1578996575333686 0.9153361615300805 0.0846638384699195 1 0 0.9731263581837615 0.02687364181623845 0.8537151219138514 0.1462848780861485 0.828661322401522 0.171338677598478 0.8398672948711008 0.1601327051288993 0.904101195537058 0.09589880446294199 0.8902863269027719 0.109713673097228 1 0 1 0 1 0 0.9181157070282128 0.08188429297178725 0.7558714206758326 0.2441285793241673 0.8687665540798817 0.1312334459201182 0.8384996124026889 0.161500387597311</probabilities>
		</cpt>
		<cpt id="SiegeTankTankMode">
			<state id="Absent" />
			<state id="Present" />
			<parents>MachineShop TimePeriod</parents>
			<probabilities>0.8547839619337998 0.1452160380662001 1 0 1 0 1 0 1 0 1 0 1 0 1 0 1 0 1 0 1 0 0.9454005146850678 0.05459948531493209 1 0 1 0 1 0 1 0 1 0 1 0 0.8283561963798594 0.1716438036201406 0.8539145076858082 0.1460854923141917 0.7386542313183678 0.2613457686816321 0.9310452261450386 0.06895477385496149 1 0 1 0 1 0 1 0 0.8947810256737998 0.1052189743262001 0.7626346440952282 0.2373653559047718 0.8562620579090285 0.1437379420909714 0.8798179828410009 0.120182017158999 0.8532763697593185 0.1467236302406815 0.8710613281270203 0.1289386718729796 0.8253947989869486 0.1746052010130513 0.7975252875850771 0.2024747124149227 0.8330336431774255 0.1669663568225745 0.859862585627893 0.140137414372107 1 0 0.811921847304323 0.1880781526956769 0.89025369941823 0.10974630058177 0.9447322751529172 0.05526772484708271 0.8068640739094778 0.1931359260905222 0.8570849118638712 0.1429150881361289 0.8509914432135017 0.1490085567864982 1 0 1 0 1 0 0.9257834046826782 0.07421659531732183 0.8022699973097512 0.1977300026902487 0.779804033756622 0.220195966243378 0.9299137472019222 0.07008625279807779</probabilities>
		</cpt>
		<cpt id="VehicleWeapons1">
			<state id="Absent" />
			<state id="Present" />
			<parents>Armory TimePeriod</parents>
			<probabilities>0.9469395334265598 0.05306046657344023 0.9603220749704424 0.03967792502955763 0.8807480353333278 0.1192519646666722 0.9517187164067517 0.0482812835932484 0.9123231170638426 0.08767688293615741 0.8944647246499369 0.1055352753500632 0.9174031072935422 0.08259689270645784 0.978642832001543 0.02135716799845715 0.9666424524022887 0.03335754759771126 0.9400639197921844 0.05993608020781559 0.9551202625705464 0.04487973742945359 0.7499796355528293 0.2500203644471707 0.9552798460677771 0.04472015393222293 0.9195267087470046 0.08047329125299546 0.9467550699284817 0.05324493007151843 0.8925828827472382 0.1074171172527618 0.9085572804998177 0.0914427195001823 1 0 0.8500544887696707 0.1499455112303293 0.9844609144687844 0.01553908553121564 0.8495801984973925 0.1504198015026073 0.8583708386708662 0.1416291613291337 0.9183474173508743 0.08165258264912563 0.9102925657436508 0.08970743425634921 0.9217715646280967 0.07822843537190329 1 0 0.9284369797801954 0.07156302021980461 0.9390817617369254 0.06091823826307475 0.972687715724643 0.02731228427535706 0.9780836653802214 0.02191633461977864 0.9475732018321074 0.05242679816789267 0.9905588601447781 0.009441139855221981 0.9882782237316625 0.01172177626833756 0.8800524163444154 0.1199475836555846 0.955797754623867 0.04420224537613299 0.9548759073030357 0.04512409269696425 1 0 0.9537262326172971 0.04627376738270289 0.9721941280447652 0.02780587195523483 0.9357538626637927 0.06424613733620728 0.9275618250605395 0.07243817493946045 0.9861927525500791 0.01380724744992092 0.780893833872121 0.219106166127879 1 0 1 0 1 0 1 0 1 0 0.9212441940307604 0.0787558059692396 0.9271391876212428 0.0728608123787572</probabilities>
		</cpt>
		<cpt id="VehiclePlating1">
			<state id="Absent" />
			<state id="Present" />
			<parents>Armory TimePeriod</parents>
			<probabilities>0.8843574584490264 0.1156425415509736 0.925050420797182 0.07494957920281799 0.9150827478262888 0.08491725217371121 0.9093749598780889 0.09062504012191106 0.9445105960006752 0.05548940399932479 0.9845519065588447 0.0154480934411553 0.9952991547969904 0.004700845203009598 0.925265506340732 0.07473449365926788 0.9704738150291576 0.0295261849708425 0.9281107196631662 0.07188928033683395 0.876360017055269 0.123639982944731 0.8195793759237322 0.1804206240762678 0.9662775267524225 0.03372247324757747 0.9375340152790201 0.0624659847209799 0.9489313224157598 0.05106867758424014 0.9089583122432652 0.09104168775673482 0.9646216221611637 0.03537837783883645 1 0 0.9210691734507351 0.07893082654926471 0.8636927453135741 0.1363072546864259 0.9465083057316069 0.05349169426839304 0.864497691281894 0.135502308718106 0.7950012210894397 0.2049987789105603 0.9593140458756536 0.04068595412434638 0.8901804387662686 0.1098195612337313 1 0 0.9392258823737401 0.06077411762626008 0.9507987172051111 0.04920128279488892 0.9264434883247028 0.07355651167529717 0.9310583535376193 0.06894164646238064 0.8945063346687444 0.1054936653312556 0.9280194006854297 0.07198059931457042 0.942790187463596 0.05720981253640404 0.9095043500698985 0.09049564993010152 0.9201988030473713 0.07980119695262856 0.9593535284909582 0.04064647150904175 1 0 0.914862090253054 0.08513790974694613 0.9279564015351658 0.07204359846483421 0.9327465307208829 0.0672534692791171 0.9145306327485641 0.08546936725143592 0.9209944087425493 0.07900559125745064 0.7516244092536963 0.2483755907463037 1 0 1 0 1 0 1 0 1 0 0.9873949755869381 0.01260502441306186 0.9477120294581033 0.05228797054189688</probabilities>
		</cpt>
		<cpt id="ShipWeapons1">
			<state id="Absent" />
			<state id="Present" />
			<parents>Armory TimePeriod</parents>
			<probabilities>0.7229081311531462 0.2770918688468538 0.9655105447426262 0.0344894552573738 0.882246828339639 0.1177531716603612 0.9501054161816999 0.04989458381830023 0.8915109410309917 0.1084890589690083 0.9604874042542227 0.03951259574577731 0.9551507320247084 0.04484926797529172 0.9338181017936638 0.06618189820633627 0.8925236775531416 0.1074763224468585 0.8983089163543335 0.1016910836456665 0.9592089023660139 0.04079109763398618 0.736597790733218 0.263402209266782 0.8939174409174661 0.106082559082534 0.9093049416567379 0.09069505834326208 0.9055668033449693 0.09443319665503087 0.9277667837559096 0.07223321624409035 0.9635464368711098 0.0364535631288902 1 0 0.7952228253973545 0.2047771746026456 0.87516165543531 0.12483834456469 0.826806796972243 0.1731932030277569 0.762766117032508 0.2372338829674919 0.8214674287357444 0.1785325712642555 0.9599904257566228 0.0400095742433772 0.932611263827116 0.06738873617288403 1 0 0.929724095062526 0.07027590493747403 0.9198838677254504 0.08011613227454971 0.9221105979938669 0.07788940200613315 0.9685585732579598 0.03144142674204017 0.9722430988729437 0.02775690112705631 0.913758717597882 0.08624128240211805 0.9367520483353923 0.0632479516646078 0.9444689962634441 0.05553100373655604 0.9252144948855152 0.07478550511448477 0.9989936232589414 0.00100637674105867 1 0 0.9391885226938874 0.06081147730611267 0.9098407808823651 0.09015921911763493 0.9352193182702241 0.06478068172977593 0.9121398307209385 0.08786016927906147 0.9280071414696913 0.07199285853030871 0.9191768252046491 0.08082317479535087 1 0 1 0 1 0 1 0 1 0 0.9297352662009626 0.07026473379903747 0.9387540378158519 0.06124596218414818</probabilities>
		</cpt>
		<cpt id="ShipPlating1">
			<state id="Absent" />
			<state id="Present" />
			<parents>Armory TimePeriod</parents>
			<probabilities>0.8912833760846161 0.108716623915384 0.9495819421262294 0.05041805787377063 0.9443462090459608 0.05565379095403928 0.9146729075375495 0.0853270924624505 0.9112914963009848 0.08870850369901522 0.9344323471989099 0.06556765280109014 0.9111028114166351 0.08889718858336491 0.9246099135884232 0.07539008641157681 0.9385632895937222 0.06143671040627785 0.9385587088365384 0.06144129116346161 0.964242409061871 0.03575759093812905 0.8071480544765876 0.1928519455234125 0.8787619858493991 0.121238014150601 0.9403749734107314 0.05962502658926863 0.9471364487630807 0.05286355123691935 0.8899510231352151 0.1100489768647848 0.9339689962498683 0.06603100375013175 1 0 0.8152601294120703 0.1847398705879298 0.9563902872914062 0.04360971270859385 0.9558911026337627 0.04410889736623733 0.815056699001016 0.184943300998984 0.7620127215083725 0.2379872784916275 0.8787460977049741 0.1212539022950259 0.93497538423886 0.06502461576114003 1 0 0.9427854914447468 0.05721450855525322 0.9710498483282621 0.02895015167173792 0.9125360572565237 0.08746394274347637 0.9359510328766252 0.06404896712337484 0.9427481690724475 0.0572518309275525 0.9341505579403389 0.06584944205966116 0.9102531055171769 0.08974689448282308 0.9306832871365368 0.06931671286346318 0.9367499122327528 0.06325008776724721 0.9679388327804572 0.03206116721954277 1 0 0.9366265616091003 0.06337343839089975 0.9028862440570153 0.09711375594298471 0.9294114824193921 0.0705885175806079 0.9550608460039977 0.04493915399600251 0.9573139922313803 0.04268600776861992 0.9204110324538962 0.07958896754610374 1 0 1 0 1 0 1 0 1 0 0.9323144832906568 0.06768551670934324 0.9172689101010806 0.08273108989891939</probabilities>
		</cpt>
		<cpt id="ApolloReactor">
			<state id="Absent" />
			<state id="Present" />
			<parents>ControlTower TimePeriod</parents>
			<probabilities>0.7842491718206598 0.2157508281793402 0.8981601996125985 0.1018398003874015 0.9506575946834115 0.04934240531658853 0.9515454904296716 0.04845450957032837 0.8943352538025113 0.1056647461974886 1 0 1 0 1 0 1 0 1 0 1 0 0.8440426042229772 0.1559573957770228 1 0 1 0 1 0 1 0 1 0 1 0 0.8309058883120449 0.1690941116879551 0.8436914233967725 0.1563085766032275 0.828149284552963 0.1718507154470368 0.8785760364582131 0.1214239635417868 0.7201387623297425 0.2798612376702576 0.8967141154559546 0.1032858845440453 0.930286572338805 0.06971342766119504 1 0 0.9369619665799309 0.06303803342006903 0.9359199282843347 0.06408007171566536 0.9445001314862291 0.05549986851377085 0.9335302142835329 0.06646978571646708 0.9713487683918262 0.02865123160817382 0.8463395303381326 0.1536604696618673 0.8042045520970469 0.195795447902953 0.8484441610184694 0.1515558389815305 0.8450741089489015 0.1549258910510986 0.775334439638887 0.224665560361113 1 0 0.812616553190941 0.1873834468090589 0.8153641087523097 0.1846358912476903 0.9477537529465234 0.05224624705347652 0.8640550068354223 0.1359449931645777 0.8239289000353205 0.1760710999646795 0.7859014115778058 0.214098588422194 1 0 1 0 1 0 1 0 1 0 1 0 0.9477493862526703 0.05225061374732982</probabilities>
		</cpt>
		<cpt id="CloakingField">
			<state id="Absent" />
			<state id="Present" />
			<parents>ControlTower TimePeriod</parents>
			<probabilities>0.8516748610348423 0.1483251389651578 0.9723341441108477 0.02766585588915227 0.9925908825028471 0.007409117497152928 0.9213573494774328 0.07864265052256725 0.8872219370531571 0.1127780629468429 1 0 1 0 1 0 1 0 1 0 1 0 0.93820258989334 0.06179741010665994 1 0 1 0 1 0 1 0 1 0 1 0 0.8648141537177616 0.1351858462822383 0.795981808340928 0.2040181916590719 0.7598831911497418 0.2401168088502581 0.8626770437382697 0.1373229562617303 0.8309849714120841 0.1690150285879159 0.9298263160445505 0.07017368395544943 0.9211174221522043 0.0788825778477957 1 0 0.9848854321877378 0.0151145678122622 0.9304568618826837 0.06954313811731626 0.965849683122881 0.03415031687711904 0.8778926704541585 0.1221073295458414 0.8344706446550607 0.1655293553449392 0.8028806604127237 0.1971193395872763 0.7991899741509287 0.2008100258490712 0.8476464772090844 0.1523535227909156 0.8633015927336172 0.1366984072663829 0.7755390466621669 0.2244609533378331 1 0 0.9709589567625157 0.02904104323748423 0.9339660937603573 0.06603390623964257 0.8676458221622233 0.1323541778377766 0.8512254395076313 0.1487745604923687 0.9842469336834068 0.01575306631659328 0.8052788044605891 0.1947211955394109 1 0 1 0 1 0 1 0 1 0 1 0 0.981469835287865 0.01853016471213501</probabilities>
		</cpt>
		<cpt id="ColossusReactor">
			<state id="Absent" />
			<state id="Present" />
			<parents>PhysicsLab TimePeriod</parents>
			<probabilities>0.9070677731390926 0.09293222686090726 0.8767253294208165 0.1232746705791835 0.8992185062296866 0.1007814937703134 0.8085787131159509 0.1914212868840491 0.7087412054362234 0.2912587945637765 0.9329432889225473 0.06705671107745265 0.8435173260053674 0.1564826739946326 0.9653826281967591 0.03461737180324084 0.8227148190896403 0.1772851809103596 0.8685090204830483 0.1314909795169515 0.7335281648137932 0.2664718351862066 0.8962181559103211 0.1037818440896788 0.9154568232600827 0.0845431767399172 0.8674042716839968 0.1325957283160032 0.84030853380657 0.1596914661934299 0.8343376143751519 0.1656623856248482 0.9120562457474803 0.08794375425251967 0.9376155726703336 0.06238442732966641 0.9158606357031891 0.08413936429681082 0.8415267205601194 0.1584732794398806 0.9133488868342019 0.08665111316579807 0.8639278241942228 0.1360721758057771 0.9007415337983927 0.09925846620160723 0.8542748329449857 0.1457251670550142 0.8953848525263523 0.1046151474736477 1 0 1 0 1 0 1 0 1 0 1 0 1 0 1 0 1 0 1 0 1 0 1 0 1 0 1 0 1 0 1 0 1 0 1 0 1 0 1 0 1 0 1 0 1 0 1 0 1 0</probabilities>
		</cpt>
		<cpt id="YamatoGun">
			<state id="Absent" />
			<state id="Present" />
			<parents>PhysicsLab TimePeriod</parents>
			<probabilities>0.9491843535751059 0.05081564642489406 0.7916656761878479 0.2083343238121521 0.8839729638032403 0.1160270361967597 0.8681580911854216 0.1318419088145784 0.9897899498451591 0.0102100501548409 0.7981419939353388 0.2018580060646612 0.9278373315884984 0.07216266841150155 0.8888638408457745 0.1111361591542255 0.9378974798441795 0.06210252015582049 0.8061842874830036 0.1938157125169964 0.7777973440583842 0.2222026559416157 0.8700659165596121 0.129934083440388 0.8681254272881627 0.1318745727118374 0.718310804953729 0.2816891950462709 0.8370393153381361 0.1629606846618637 0.9561053155000483 0.04389468449995176 0.767083950434671 0.2329160495653289 0.9928403310611462 0.007159668938853848 0.8635729231863342 0.1364270768136659 0.867594238710969 0.132405761289031 0.9514123044650455 0.04858769553495446 0.7645460589294002 0.2354539410705998 0.897970240962875 0.102029759037125 0.8393981927426563 0.1606018072573436 0.8806651702198921 0.1193348297801078 1 0 1 0 1 0 1 0 1 0 1 0 1 0 1 0 1 0 1 0 1 0 1 0 1 0 1 0 1 0 1 0 1 0 1 0 1 0 1 0 1 0 1 0 1 0 1 0 1 0</probabilities>
		</cpt>
		<cpt id="EMPShockwave">
			<state id="Absent" />
			<state id="Present" />
			<parents>ScienceFacility TimePeriod</parents>
			<probabilities>0.744215771561236 0.2557842284387639 0.8367243183266325 0.1632756816733674 0.9063214287725497 0.09367857122745027 0.8454828981574383 0.1545171018425617 0.7842385779053701 0.2157614220946299 0.715448287292603 0.2845517127073969 0.9004110156044858 0.09958898439551422 0.978535530315911 0.02146446968408907 0.97864022342996 0.02135977657004 0.9424115842851721 0.05758841571482782 0.9465510903995994 0.05344890960040064 0.7209102873536022 0.2790897126463978 0.9494466289668462 0.05055337103315378 0.8924810429833502 0.1075189570166498 0.9490424527972259 0.05095754720277419 0.9522656752237304 0.04773432477626961 0.900976468289093 0.09902353171090707 1 0 0.913281056188801 0.08671894381119899 0.858237386383876 0.1417626136161239 0.756834760741256 0.2431652392587438 0.7518161188095398 0.2481838811904602 0.7385488027083117 0.2614511972916882 0.7525415481159629 0.2474584518840371 0.9617844535762445 0.03821554642375536 1 0 1 0 1 0 1 0 1 0 1 0 0.9137575253010658 0.08624247469893429 0.8942476266132818 0.1057523733867182 0.9363814961159716 0.06361850388402851 0.9737787349506111 0.02622126504938898 0.9127656679502544 0.08723433204974565 1 0 0.9619145751530978 0.03808542484690241 0.9109261957159149 0.08907380428408501 0.9412308565662481 0.05876914343375195 0.8808099589877502 0.1191900410122499 0.8904762860252796 0.1095237139747204 0.8934727230405846 0.1065272769594154 1 0 1 0 1 0 1 0 1 0 1 0 1 0</probabilities>
		</cpt>
		<cpt id="Irradiate">
			<state id="Absent" />
			<state id="Present" />
			<parents>ScienceFacility TimePeriod</parents>
			<probabilities>0.7532196828075215 0.2467803171924784 0.8500570497799489 0.149942950220051 0.7812074385109812 0.2187925614890189 0.8031447648465273 0.1968552351534727 0.8881475845156555 0.1118524154843445 0.8535869241972669 0.1464130758027331 0.9696600537748152 0.03033994622518487 0.9623260989682049 0.03767390103179515 0.941691986325251 0.05830801367474903 0.9259450345507757 0.0740549654492243 0.9148084477768101 0.08519155222319003 0.7756727947294857 0.2243272052705141 0.926436818582098 0.07356318141790205 0.9096355650580136 0.09036443494198641 0.9381016717256467 0.06189832827435323 0.9648344987566451 0.03516550124335492 0.9990453047080197 0.0009546952919803122 1 0 0.8892895466622093 0.1107104533377907 0.8907069997613433 0.1092930002386567 0.8285461173260345 0.1714538826739656 0.7212934922861314 0.2787065077138685 0.857383535747946 0.142616464252054 0.8205997898373424 0.1794002101626576 0.8851843560670976 0.1148156439329023 1 0 1 0 1 0 1 0 1 0 1 0 0.9312459154914718 0.06875408450852814 0.9908229811333094 0.009177018866690692 0.8985711810309932 0.1014288189690068 0.9970018968415311 0.00299810315846898 0.9132604256440062 0.08673957435599375 1 0 0.9862046017789241 0.0137953982210759 0.904869214072228 0.09513078592777201 0.938266716274098 0.06173328372590205 0.9146784280904639 0.08532157190953617 0.9863263044131809 0.01367369558681924 0.8468034253295977 0.1531965746704023 1 0 1 0 1 0 1 0 1 0 1 0 1 0</probabilities>
		</cpt>
		<cpt id="TitanReactor">
			<state id="Absent" />
			<state id="Present" />
			<parents>ScienceFacility TimePeriod</parents>
			<probabilities>0.8145556514935414 0.1854443485064586 0.8316958520765717 0.1683041479234282 0.8325732622246901 0.1674267377753098 0.7775504309396186 0.2224495690603813 0.8174782010700197 0.1825217989299803 0.8528554254795626 0.1471445745204373 0.901019531807134 0.09898046819286598 0.9717195955461937 0.0282804044538063 0.9678094642407218 0.03219053575927829 0.9810163555048493 0.01898364449515074 0.9903963459646622 0.009603654035337847 0.9086003939007543 0.09139960609924554 0.9963902311154874 0.003609768884512622 0.9594365490376178 0.04056345096238227 0.9546544599072686 0.04534554009273144 0.9190300902895008 0.08096990971049939 0.9529426427400534 0.04705735725994664 1 0 0.8827561605610829 0.117243839438917 0.8118090358089095 0.1881909641910905 0.7928226870194669 0.2071773129805331 0.7466692498603994 0.2533307501396006 0.873631943469529 0.1263680565304709 0.8843989424908532 0.1156010575091468 0.8085962850599007 0.1914037149400993 1 0 1 0 1 0 1 0 1 0 1 0 0.928108750719409 0.07189124928059106 0.9400967757485822 0.0599032242514179 0.9821832636491573 0.01781673635084271 0.899936490061934 0.100063509938066 0.9290341428822733 0.07096585711772668 1 0 0.9154887211328913 0.08451127886710877 0.9425219353773937 0.05747806462260629 0.9235084218082309 0.07649157819176915 0.8845185467909826 0.1154814532090174 0.8959925495993173 0.1040074504006828 0.7192057023838309 0.2807942976161692 1 0 1 0 1 0 1 0 1 0 1 0 1 0</probabilities>
		</cpt>
		<cpt id="OcularImplants">
			<state id="Absent" />
			<state id="Present" />
			<parents>CovertOps TimePeriod</parents>
			<probabilities>0.7791871599832536 0.2208128400167463 0.8035271607286416 0.1964728392713583 0.7870210550817577 0.2129789449182423 0.865844058484528 0.134155941515472 0.932643514376971 0.06735648562302897 0.778969385195985 0.2210306148040149 0.8552069021811894 0.1447930978188105 0.9333609641472016 0.06663903585279846 0.8492181884536161 0.1507818115463839 0.7292686107072585 0.2707313892927414 0.9642310460580899 0.03576895394191005 0.8272820443595227 0.1727179556404773 0.8801015430018262 0.1198984569981737 0.9720536476272288 0.02794635237277117 0.9887665170085837 0.01123348299141631 0.8450110682134429 0.1549889317865572 0.8935014903939664 0.1064985096060335 0.9559519332865201 0.0440480667134799 0.9355154811534505 0.06448451884654956 0.9236632403222873 0.07633675967771261 0.8072513391907317 0.1927486608092683 0.8358834558369059 0.164116544163094 0.7610914425312394 0.2389085574687606 0.8417286167136405 0.1582713832863595 0.8228535894008153 0.1771464105991846 1 0 1 0 1 0 1 0 1 0 1 0 1 0 1 0 1 0 1 0 1 0 1 0 1 0 1 0 1 0 1 0 1 0 0.9649265398205156 0.03507346017948444 1 0 1 0 1 0 1 0 1 0 1 0 1 0</probabilities>
		</cpt>
		<cpt id="MoebiusReactor">
			<state id="Absent" />
			<state id="Present" />
			<parents>CovertOps TimePeriod</parents>
			<probabilities>0.9859512961180939 0.01404870388190604 0.939782267555569 0.06021773244443094 0.8975101919978656 0.1024898080021344 0.8013109917478529 0.1986890082521469 0.8273142764947706 0.1726857235052293 0.7985971821252804 0.2014028178747194 0.8616994179487386 0.1383005820512614 0.7228911816148342 0.2771088183851658 0.8479270706894219 0.1520729293105781 0.9639006137139937 0.03609938628600626 0.8820979872748977 0.1179020127251022 0.7916839469424009 0.2083160530575991 0.9602252054277771 0.03977479457222276 0.9349912016154276 0.06500879838457235 0.8414185613506909 0.158581438649309 0.7485846404456722 0.2514153595543277 0.9573379203982992 0.04266207960170081 0.9348845438860809 0.06511545611391913 0.7322589306241583 0.2677410693758416 0.7987619888030425 0.2012380111969574 0.921808344290775 0.07819165570922505 0.9147443309333605 0.08525566906663955 0.8074188065901146 0.1925811934098855 0.8776289972316725 0.1223710027683274 0.9923239724295333 0.007676027570466721 1 0 1 0 1 0 1 0 1 0 1 0 1 0 1 0 1 0 1 0 1 0 1 0 1 0 1 0 1 0 1 0 1 0 0.926041393242819 0.07395860675718102 1 0 1 0 1 0 1 0 1 0 1 0 1 0</probabilities>
		</cpt>
		<cpt id="Lockdown">
			<state id="Absent" />
			<state id="Present" />
			<parents>CovertOps TimePeriod</parents>
			<probabilities>0.8658865958061435 0.1341134041938564 0.7842668678235603 0.2157331321764398 0.7612722165209123 0.2387277834790877 0.854131027310632 0.1458689726893679 0.8264736057174836 0.1735263942825163 0.8607307290407628 0.1392692709592371 0.8602382596260956 0.1397617403739044 0.7912724757800962 0.2087275242199037 0.8810650797714461 0.1189349202285537 0.7703024906156779 0.2296975093843221 0.8057055549482655 0.1942944450517344 0.8619775671272993 0.1380224328727007 0.8042426205526151 0.1957573794473849 0.9317324187551824 0.06826758124481747 0.7737463741276383 0.2262536258723618 0.8262007781080004 0.1737992218919995 0.8271812486215696 0.1728187513784304 0.8843670766692712 0.1156329233307288 0.7864759282959368 0.2135240717040631 0.7791326092309348 0.2208673907690653 0.873027898781781 0.126972101218219 0.8408924422998664 0.1591075577001335 0.9341287100436749 0.06587128995632496 0.8364427312806917 0.1635572687193083 0.7128391899429296 0.2871608100570704 1 0 1 0 1 0 1 0 1 0 1 0 1 0 1 0 1 0 1 0 1 0 1 0 1 0 1 0 1 0 1 0 1 0 0.9606346429795665 0.03936535702043351 1 0 1 0 1 0 1 0 1 0 1 0 1 0</probabilities>
		</cpt>
		<cpt id="PersonnelCloaking">
			<state id="Absent" />
			<state id="Present" />
			<parents>CovertOps TimePeriod</parents>
			<probabilities>0.9050593088780958 0.09494069112190404 0.8228326756103143 0.1771673243896857 0.8455975776832717 0.1544024223167282 0.9852670974489719 0.01473290255102815 0.9093219670799568 0.09067803292004313 0.785078991083369 0.214921008916631 0.7784107418003288 0.2215892581996712 0.8767606567430005 0.1232393432569994 0.8593866557916116 0.1406133442083883 0.8441354589659318 0.1558645410340681 0.8979080718913439 0.102091928108656 0.7273824662735838 0.2726175337264162 0.7598048422486536 0.2401951577513462 0.8132310144441657 0.1867689855558342 0.8517177673442953 0.1482822326557046 0.8955491496630474 0.1044508503369526 0.7835519580586819 0.2164480419413181 0.9190267326982101 0.08097326730178991 0.9389458443871839 0.06105415561281605 0.7380149135709301 0.2619850864290699 0.9291325027457513 0.07086749725424868 0.8354762617543191 0.1645237382456808 0.7659272803443612 0.2340727196556388 0.8598377526825322 0.1401622473174678 0.950484393441081 0.04951560655891897 1 0 1 0 1 0 1 0 1 0 1 0 1 0 1 0 1 0 1 0 1 0 1 0 1 0 1 0 1 0 1 0 1 0 0.996533128965621 0.003466871034379006 1 0 1 0 1 0 1 0 1 0 1 0 1 0</probabilities>
		</cpt>
		<cpt id="InfantryArmor2">
			<state id="Absent" />
			<state id="Present" />
			<parents>TimePeriod InfantryArmor1 ScienceFacility</parents>
			<probabilities>0.9930473050169176 0.006952694983082375 1 0 0.9876618585820119 0.01233814141798815 1 0 0.8882336350129767 0.1117663649870233 1 0 0.9925210452143253 0.00747895478567482 1 0 0.9250703762261546 0.07492962377384541 1 0 0.9982060358438226 0.001793964156177408 1 0 0.8796516189013582 0.1203483810986417 1 0 0.9824368627895888 0.01756313721041118 1 0 0.8057533100419063 0.1942466899580937 1 0 0.9938231551802469 0.006176844819753058 1 0 0.8946025024119335 0.1053974975880664 1 0 0.985706497592039 0.01429350240796104 1 0 0.9300689823712061 0.06993101762879408 0.9980740871631274 0.001925912836872583 0.9996958053519744 0.0003041946480256782 0.9818710214464054 0.01812897855359467 0.9655922082802455 0.03440779171975445 0.9384567971218725 0.06154320287812761 0.9999462682750058 5.37317249941868e-005 0.9999606626848305 3.933731516948832e-005 0.974526719382147 0.02547328061785317 0.9584423415719398 0.04155765842806027 0.9873303359335908 0.01266966406640912 0.9913817910690578 0.008618208930942346 0.9777900084720529 0.02220999152794717 0.9771724693013638 0.02282753069863627 0.9940147589776639 0.005985241022336101 0.9956172848949207 0.004382715105079213 0.9659331817220451 0.0340668182779548 0.9874033392252066 0.0125966607747934 0.9942401769515952 0.005759823048404902 0.9886678486320173 0.01133215136798284 0.9334349126987152 0.06656508730128483 1 0 0.9852094611099056 0.01479053889009444 1 0 0.9575104773091863 0.04248952269081371 0.9730243353918556 0.02697566460814451 0.9858203262244916 0.01417967377550847 0.9890724553256592 0.01092754467434068 0.9666992032797931 0.03330079672020683 0.9720156304278047 0.0279843695721953 0.9968897068523061 0.003110293147694076 0.9966751581678394 0.003324841832160772 0.9744193463440868 0.02558065365591321 0.9671474900826937 0.03285250991730637 0.9887515910671513 0.01124840893284875 0.9938866897078531 0.006113310292146922 0.9754381934417826 0.02456180655821737 0.979510307899963 0.02048969210003702 0.999577369754191 0.0004226302458091933 0.9928163893159047 0.00718361068409538 0.9826404601940645 0.01735953980593556 0.9883569862595966 0.01164301374040347 0.9955508249922019 0.004449175007798148 0.9954824261137834 0.004517573886216743 1 0 0.9494547890754831 0.05054521092451703 1 0 0.9747524156073395 0.02524758439266062 0.9497246554044785 0.05027534459552157 1 0 0.9822080623339433 0.01779193766605671 1 0 0.9305017018365159 0.06949829816348416 1 0 0.9760405400758713 0.02395945992412877 1 0 0.8986884988584025 0.1013115011415974 1 0 0.991231379500557 0.008768620499443108 1 0 0.8360842580564832 0.1639157419435167 1 0 0.9814800466618298 0.0185199533381703 1 0 0.9743031405024168 0.02569685949758313 1 0 0.9636612572662765 0.03633874273372347 1 0 0.954989487950119 0.04501051204988097 1 0 0.9704798146021427 0.0295201853978573 1 0 0.9860226778965452 0.01397732210345483 1 0 0.9807203909386806 0.01927960906131939 1 0</probabilities>
		</cpt>
		<cpt id="InfantryArmor3">
			<state id="Absent" />
			<state id="Present" />
			<parents>TimePeriod InfantryArmor2</parents>
			<probabilities>0.798721236142694 0.201278763857306 0.9996443080897952 0.0003556919102049666 0.8386505100631441 0.161349489936856 0.9878162391944524 0.01218376080554759 0.8749765605867663 0.1250234394132337 0.9959128987265786 0.004087101273421341 0.9155160228115985 0.08448397718840157 0.9946376398171528 0.005362360182847181 0.9505663893696106 0.04943361063038944 0.9570616903946549 0.0429383096053452 0.9356516359047556 0.06434836409524447 0.9731300146995949 0.02686998530040502 0.9181826703995804 0.08181732960041965 0.9878130883818224 0.01218691161817756 0.8172815602412525 0.1827184397587473 0.9946735361461857 0.005326463853814439 0.9508046734435298 0.04919532655647017 0.9836917901942024 0.01630820980579769 0.8793090957406482 0.1206909042593518 0.9965031172212837 0.003496882778716369 0.8823102495723545 0.1176897504276455 0.9969383795848142 0.003061620415185716 0.8929115833595064 0.1070884166404936 0.9852322578733931 0.01476774212660683 0.902679935034801 0.09732006496519902 0.9909535145092924 0.009046485490707665 0.9259622767584573 0.07403772324154261 0.9951637067669631 0.004836293233036864 0.9549213345742857 0.04507866542571416 0.99318546605863 0.006814533941369889 0.8462826354954468 0.1537173645045533 0.9957738949362934 0.004226105063706544 0.8114279551927183 0.1885720448072819 0.9988740044869036 0.001125995513096471 0.9338377198794121 0.066162280120588 0.9929888660289188 0.007011133971081265 0.8822747348582523 0.1177252651417478 0.9936691015602847 0.006330898439715475 0.8066960250462826 0.1933039749537174 0.980149004100889 0.0198509958991111 0.9463751928271267 0.05362480717287331 0.9700400741581403 0.02995992584185968 0.9511520879918327 0.04884791200816722 0.9641726275879563 0.03582737241204374 0.8985590561568377 0.1014409438431623 0.9967446051427255 0.003255394857274592 0.8309436404743058 0.1690563595256941 0.9880110464495022 0.01198895355049787 0.9806120305981035 0.01938796940189636 0.9966559770384322 0.00334402296156788</probabilities>
		</cpt>
		<cpt id="InfantryWeapons2">
			<state id="Absent" />
			<state id="Present" />
			<parents>TimePeriod InfantryWeapons1 ScienceFacility</parents>
			<probabilities>0.8837851927545353 0.1162148072454647 1 0 0.9975422726450417 0.002457727354958169 1 0 0.957328712308991 0.0426712876910091 1 0 0.9787048711465489 0.02129512885345113 1 0 0.8431422927903494 0.1568577072096506 1 0 0.9925682972782889 0.007431702721711151 1 0 0.7941191000907909 0.2058808999092092 1 0 0.9958635899747601 0.004136410025239957 1 0 0.9294663026337937 0.07053369736620636 1 0 0.9698845233034852 0.03011547669651482 1 0 0.9990913780869846 0.0009086219130154744 1 0 0.9699677051714604 0.03003229482853956 1 0 0.9068777528894843 0.09312224711051578 0.9653974413910941 0.03460255860890582 0.999934667333363 6.533266663695581e-005 0.9998555995992218 0.0001444004007781536 0.9920983750816447 0.00790162491835524 0.9963638282439843 0.003636171756015667 0.982381550547179 0.01761844945282104 0.9899140192833755 0.01008598071662455 0.9686468617727363 0.03135313822726371 0.9706504342424694 0.02934956575753048 0.9970314843711415 0.002968515628858498 0.9888791728094738 0.01112082719052619 0.9878730295751593 0.01212697042484069 0.9846229978722685 0.01537700212773138 0.9750801494098219 0.02491985059017796 0.9814924033292418 0.01850759667075804 0.9824668535893123 0.01753314641068765 0.9697217050835914 0.03027829491640859 0.9776737854291536 0.02232621457084644 0.9845157221620452 0.01548427783795481 0.9311726525973183 0.06882734740268169 1 0 0.9958972560089275 0.004102743991072457 1 0 0.9979133991193561 0.002086600880644022 0.9724065559441089 0.0275934440558911 0.9868017646841538 0.01319823531584626 0.9924897394483606 0.007510260551639517 0.9913612180537734 0.008638781946226609 0.9975802088726734 0.002419791127326638 0.9761026235029368 0.02389737649706332 0.9637871728194123 0.03621282718058774 0.9353163514188472 0.06468364858115282 0.945390156484856 0.0546098435151441 0.9999653973053028 3.460269469719057e-005 0.9999710847577876 2.891524221234619e-005 0.9813066461294783 0.01869335387052164 0.9920177326456959 0.00798226735430406 0.9841003169915209 0.01589968300847914 0.9754942606112792 0.02450573938872084 0.9359793636371623 0.0640206363628377 0.9942497237167265 0.0057502762832735 0.9995190019661508 0.000480998033849133 0.9958697063903323 0.004130293609667575 1 0 0.9289893442040355 0.07101065579596458 1 0 0.9724710899368154 0.02752891006318462 0.9561422829910355 0.04385771700896444 1 0 0.9037937083077582 0.09620629169224174 1 0 0.8762598577059707 0.1237401422940294 1 0 0.9823948019321754 0.01760519806782452 1 0 0.9530305232420451 0.04696947675795483 1 0 0.8980703570018171 0.1019296429981829 1 0 0.8886570409892027 0.1113429590107973 1 0 0.9916261282352004 0.008373871764799633 1 0 0.9816066368088492 0.01839336319115079 1 0 0.9972678031514214 0.002732196848578662 1 0 0.8035641663700687 0.1964358336299313 1 0 0.9847163960537297 0.01528360394627043 1 0 0.9995894817865106 0.0004105182134892865 1 0 0.9907824574635886 0.009217542536411501 1 0</probabilities>
		</cpt>
		<cpt id="InfantryWeapons3">
			<state id="Absent" />
			<state id="Present" />
			<parents>TimePeriod InfantryWeapons2</parents>
			<probabilities>0.9160643528036461 0.08393564719635403 0.9903233277198487 0.009676672280151439 0.9505790178311301 0.04942098216886989 0.9963003661130013 0.003699633886998634 0.9551793689465002 0.04482063105349984 0.9684847687085714 0.03151523129142853 0.9910835716691862 0.008916428330813906 0.9641414023324766 0.03585859766752343 0.9451126386433572 0.05488736135664288 0.9815206880596554 0.0184793119403446 0.9460257490478948 0.05397425095210519 0.9985206535110652 0.001479346488934736 0.9176185515381347 0.08238144846186526 0.9927697157486611 0.00723028425133893 0.7984541018516849 0.2015458981483151 0.9979056465395017 0.002094353460498411 0.9161030613395939 0.0838969386604061 0.9927365124564686 0.007263487543531544 0.8614575461392233 0.1385424538607766 0.9976246708066802 0.002375329193319856 0.9384583705810693 0.06154162941893079 0.9913279900260754 0.008672009973924652 0.9282617867524999 0.07173821324749991 0.9929065170407039 0.007093482959296113 0.7776273256953601 0.22237267430464 0.996609193944563 0.003390806055437011 0.9886268275777378 0.01137317242226227 0.9936556763485491 0.006344323651450888 0.8457214604004371 0.1542785395995628 0.9868916060701999 0.01310839392980018 0.9472920218703476 0.05270797812965238 0.9910259399273643 0.008974060072635745 0.8932229229627888 0.1067770770372112 0.9997082464012911 0.0002917535987090533 0.8507356129057825 0.1492643870942176 0.9861895377943285 0.01381046220567162 0.8887752133573404 0.1112247866426595 0.9855632416189785 0.01443675838102157 0.9046845695287823 0.09531543047121784 0.9691381015246615 0.03086189847533846 0.939200976280255 0.06079902371974495 0.9577310825098251 0.04226891749017499 0.9147109078450196 0.0852890921549803 0.9777447801453418 0.02225521985465823 0.8405096934315898 0.1594903065684101 0.9994537119883402 0.0005462880116598988 0.9520864889982234 0.04791351100177682 0.9449132405789794 0.05508675942102054 0.8707731294014195 0.1292268705985804 0.9999573682776882 4.263172231186712e-005</probabilities>
		</cpt>
		<cpt id="VehicleWeapons2">
			<state id="Absent" />
			<state id="Present" />
			<parents>TimePeriod VehicleWeapons1 ScienceFacility</parents>
			<probabilities>0.9068535134555265 0.09314648654447369 1 0 0.9968970297565987 0.003102970243401229 1 0 0.9200487804530053 0.07995121954699465 1 0 0.9904896528745516 0.009510347125448336 1 0 0.9384700861172558 0.06152991388274407 1 0 0.9696152361171172 0.03038476388288273 1 0 0.8781500616558515 0.1218499383441485 1 0 0.9899606986310825 0.01003930136891742 1 0 0.9125559701758745 0.08744402982412552 1 0 0.9764452119135005 0.02355478808649947 1 0 0.9311637245498298 0.06883627545017028 1 0 0.9943769285361801 0.005623071463819912 1 0 0.9715010317341866 0.02849896826581357 0.9452492633495451 0.05475073665045483 0.9901656425329366 0.009834357467063357 0.9999759228725558 2.407712744424362e-005 0.9689422581542601 0.03105774184574012 0.9426714577679192 0.05732854223208082 0.9996522618484186 0.0003477381515813221 0.9999745826703671 2.541732963276882e-005 0.9379465622466976 0.06205343775330249 0.9951221044743469 0.004877895525653072 0.9991918799227842 0.0008081200772159558 0.979773824370902 0.020226175629098 0.9646798502962733 0.03532014970372666 0.9741928938093462 0.02580710619065391 0.9964596651400933 0.003540334859906646 0.99783441981204 0.002165580187959954 0.9326464990086498 0.06735350099135024 0.9502459079479821 0.04975409205201802 0.998897934442906 0.001102065557094084 0.9997656643683045 0.0002343356316953265 0.9420804532605107 0.05791954673948935 1 0 0.9286043078685186 0.07139569213148156 1 0 0.9882141696417431 0.01178583035825682 0.9774924476998506 0.02250755230014942 0.9970883088088026 0.002911691191197406 0.9987384196034809 0.001261580396519222 0.9808521808554244 0.01914781914457569 0.9567499361927819 0.04325006380721801 0.9903198251521478 0.009680174847852358 0.9996949653499512 0.0003050346500487089 0.9830097200822623 0.01699027991773768 0.9677674629384491 0.03223253706155096 0.9974305662964592 0.002569433703540881 0.9957888999398192 0.004211100060180754 0.9901626203563934 0.009837379643606562 0.9686643630198273 0.0313356369801726 0.9922010909870278 0.007798909012972139 0.992343899396664 0.007656100603336082 0.9716893707445096 0.02831062925549043 0.95164777258692 0.04835222741307999 0.9925554718769185 0.007444528123081463 0.999934140754305 6.585924569491641e-005 1 0 0.9556319094995714 0.04436809050042858 1 0 0.933967799692954 0.06603220030704597 0.958172978104249 0.04182702189575104 1 0 0.9521375147205067 0.04786248527949316 1 0 0.8753399007559449 0.124660099244055 1 0 0.9998739730591743 0.0001260269408258277 1 0 0.91653330353898 0.08346669646102012 1 0 0.9877834114858015 0.01221658851419848 1 0 0.953407457499644 0.04659254250035603 1 0 0.9686527631373489 0.0313472368626509 1 0 0.8869505647061112 0.1130494352938888 1 0 0.9902626454620501 0.009737354537950032 1 0 0.912539222423551 0.08746077757644902 1 0 0.9820589834227514 0.01794101657724851 1 0 0.987528931410819 0.01247106858918108 1 0 0.9773817503410383 0.02261824965896188 1 0</probabilities>
		</cpt>
		<cpt id="VehicleWeapons3">
			<state id="Absent" />
			<state id="Present" />
			<parents>TimePeriod VehicleWeapons2</parents>
			<probabilities>0.8466029767379546 0.1533970232620455 0.9829449430551267 0.0170550569448733 0.9679814524916192 0.03201854750838072 0.9884606651271957 0.01153933487280434 0.9038020473402698 0.0961979526597302 0.987848884698598 0.01215111530140196 0.945123315536952 0.05487668446304806 0.9605201100461105 0.03947988995388958 0.8962646155691227 0.1037353844308773 0.9709600847519946 0.02903991524800535 0.8504757053245493 0.1495242946754507 0.9949747867022302 0.005025213297769778 0.9593253916569992 0.04067460834300097 0.9878810916817956 0.01211890831820442 0.9323556829231581 0.06764431707684186 0.9912599242205967 0.008740075779403405 0.9300976353734205 0.06990236462657952 0.9912333060371481 0.008766693962851929 0.899139079363722 0.1008609206362782 0.9966430991619306 0.003356900838069288 0.8421879634170351 0.1578120365829649 0.9976648286085834 0.0023351713914166 0.9657873429501906 0.0342126570498093 0.989110630470867 0.010889369529133 0.8506721494733519 0.149327850526648 0.9956939764813774 0.004306023518622762 0.9025322774132653 0.0974677225867347 0.9856707102304884 0.0143292897695116 0.8503782729884853 0.1496217270115147 0.9981001645251026 0.001899835474897382 0.9254483573671413 0.07455164263285873 0.9984165963942498 0.001583403605750177 0.9046907374100777 0.09530926258992233 0.9907589140619022 0.009241085938097809 0.9141656588083265 0.08583434119167356 0.9767481218653589 0.02325187813464105 0.8662033737261753 0.1337966262738247 0.9895093116481292 0.01049068835187092 0.9719515435922151 0.0280484564077848 0.9803937969376474 0.01960620306235264 0.8608033336325919 0.1391966663674081 0.9845248660570933 0.01547513394290672 0.8831968776868774 0.1168031223131225 0.9916613316445538 0.008338668355446147 0.937748146510788 0.06225185348921206 0.9694213831557759 0.03057861684422404 0.865414619428196 0.1345853805718041 0.9782053825343877 0.02179461746561223 0.8620600170877202 0.1379399829122799 0.9986192792352483 0.001380720764751833</probabilities>
		</cpt>
		<cpt id="VehiclePlating2">
			<state id="Absent" />
			<state id="Present" />
			<parents>TimePeriod VehiclePlating1 ScienceFacility</parents>
			<probabilities>0.8626641367612106 0.1373358632387894 1 0 0.9731827012227535 0.02681729877724643 1 0 0.9029027390843007 0.09709726091569917 1 0 0.9650657147031192 0.03493428529688079 1 0 0.8811755230689591 0.1188244769310409 1 0 0.9940643025569113 0.005935697443088895 1 0 0.8831508764548993 0.1168491235451008 1 0 0.9665784747316679 0.03342152526833206 1 0 0.8352199196924955 0.1647800803075045 1 0 0.9995838432941058 0.0004161567058942029 1 0 0.9690559786519245 0.03094402134807554 1 0 0.9966028683671969 0.003397131632803057 1 0 0.9448118363818999 0.05518816361810006 0.9625028121152192 0.03749718788478069 0.9999965467008464 3.453299153724258e-006 0.9938434875383067 0.006156512461693485 0.9828242988227486 0.01717570117725152 0.9366658205432246 0.06333417945677544 0.9950838898099719 0.004916110190028108 0.9982629622829543 0.001737037717045603 0.9457755463887371 0.05422445361126289 0.9806438141443801 0.01935618585561998 0.9998469470404792 0.0001530529595208414 0.9937964045585692 0.006203595441430812 0.9940628124139901 0.005937187586009784 0.9694823215215834 0.03051767847841649 0.9956195423059406 0.00438045769405937 0.9879179299141373 0.01208207008586275 0.9999484794029657 5.152059703428571e-005 0.9538658173192353 0.04613418268076472 0.9861976378181399 0.01380236218186022 0.997843822288815 0.002156177711185091 0.9893146040483934 0.01068539595160641 1 0 0.9443019085709861 0.05569809142901388 1 0 0.9704996601766096 0.0295003398233904 0.9893981676802498 0.01060183231975015 0.999068851506978 0.0009311484930219837 0.9869100195080813 0.01308998049191856 0.9811477404504915 0.01885225954950862 0.9730618993851905 0.02693810061480943 0.9954959727095921 0.004504027290407966 0.9975642772068458 0.002435722793154164 0.9522210830293745 0.0477789169706256 0.9656968124812859 0.03430318751871408 0.996066779477395 0.003933220522604959 0.9979565812455302 0.002043418754469625 0.9717004146680142 0.02829958533198577 0.968576648055292 0.03142335194470818 0.9874456909184842 0.01255430908151591 0.9932040961406393 0.006795903859360583 0.9456245572115974 0.05437544278840258 0.9977095245743282 0.002290475425671718 0.9996539529084105 0.0003460470915895418 0.9899586314715797 0.0100413685284204 1 0 0.9573222035813204 0.04267779641867966 1 0 0.916569252295658 0.08343074770434208 0.8968054231924383 0.1031945768075616 1 0 0.9968402207762622 0.00315977922373785 1 0 0.9274251595287918 0.07257484047120823 1 0 0.9942875671133229 0.005712432886677164 1 0 0.8097611832792132 0.1902388167207867 1 0 0.9953158844754297 0.004684115524570244 1 0 0.9621394526234982 0.03786054737650179 1 0 0.9516017372889379 0.04839826271106212 1 0 0.9214642945629961 0.07853570543700388 1 0 0.935636532959985 0.0643634670400151 1 0 0.9230615771033303 0.07693842289666965 1 0 0.998993021542597 0.001006978457403098 1 0 0.9450934890039811 0.05490651099601887 1 0 0.9700101333221933 0.02998986667780663 1 0</probabilities>
		</cpt>
		<cpt id="VehiclePlating3">
			<state id="Absent" />
			<state id="Present" />
			<parents>TimePeriod VehiclePlating2</parents>
			<probabilities>0.9295548397055118 0.07044516029448811 0.9765682946571576 0.02343170534284242 0.9066667950218534 0.09333320497814644 0.9641634351740919 0.03583656482590797 0.9267456273276793 0.07325437267232085 0.9719159688439134 0.02808403115608656 0.9363243263303623 0.06367567366963781 0.9872854181355849 0.01271458186441512 0.88289157411076 0.1171084258892399 0.9503686925213944 0.04963130747860554 0.8811266854244072 0.1188733145755927 0.9980802357402988 0.001919764259701143 0.8402114573810862 0.1597885426189139 0.9870067920274822 0.01299320797251786 0.9048249890151455 0.09517501098485455 0.990235843009364 0.009764156990636055 0.9569821859668632 0.04301781403313671 0.9950500418048681 0.004949958195131891 0.8421415422655442 0.1578584577344558 0.9963079363700743 0.003692063629925645 0.9125968211918463 0.08740317880815383 0.9929955306339249 0.007004469366075061 0.886054631082962 0.113945368917038 0.9994390156110935 0.0005609843889065841 0.899668016395004 0.100331983604996 0.9938747896801602 0.006125210319839844 0.9606394651024344 0.03936053489756558 0.9991604077242072 0.0008395922757928748 0.9743603706404682 0.02563962935953187 0.9893311533691285 0.0106688466308715 0.9130767574239285 0.08692324257607144 0.9952678887665942 0.004732111233405878 0.9034368232027933 0.09656317679720666 0.9934593362816816 0.006540663718318503 0.8623145910347563 0.1376854089652437 0.997989428053177 0.002010571946822991 0.8904900381106689 0.1095099618893312 0.9804843298371919 0.01951567016280809 0.8482669250748445 0.1517330749251556 0.9926505027048619 0.007349497295138054 0.9484583975512811 0.05154160244871885 0.9769749013979505 0.0230250986020495 0.958147940361245 0.04185205963875491 0.9891360900714473 0.0108639099285527 0.9955431348650196 0.004456865134980464 0.9645435887334106 0.03545641126658932 0.8885233829408188 0.1114766170591812 0.9916259978928549 0.008374002107145223 0.9975162741469092 0.00248372585309082 0.9840118462032594 0.0159881537967406</probabilities>
		</cpt>
		<cpt id="ShipWeapons2">
			<state id="Absent" />
			<state id="Present" />
			<parents>TimePeriod ShipWeapons1 ScienceFacility</parents>
			<probabilities>0.9959470629620587 0.00405293703794124 1 0 0.9694392427658043 0.03056075723419558 1 0 0.9026276390098269 0.09737236099017317 1 0 0.9991032642007962 0.0008967357992038498 1 0 0.9157795145685729 0.08422048543142721 1 0 0.9315767760116027 0.06842322398839737 1 0 0.8959271255770932 0.1040728744229068 1 0 0.9939552490393047 0.006044750960695196 1 0 0.9314664016320478 0.06853359836795214 1 0 0.9989984079102082 0.001001592089791718 1 0 0.9115123971836018 0.0884876028163983 1 0 0.9971991532575399 0.002800846742460156 1 0 0.9601990843041939 0.03980091569580611 0.9660547191053226 0.03394528089467738 0.9981721539953565 0.001827846004643477 0.9886912642785064 0.01130873572149354 0.9678683578293267 0.03213164217067317 0.9379712741788339 0.06202872582116609 0.9966961018729637 0.003303898127036375 0.9973622912768726 0.00263770872312749 0.9841921263160739 0.01580787368392611 0.9742413106257533 0.02575868937424667 0.9975917660625716 0.002408233937428467 0.9957347535997406 0.004265246400259367 0.9952997370980989 0.004700262901901084 0.9594769118909596 0.04052308810904046 0.999735537874874 0.000264462125125984 0.9948007175929805 0.005199282407019452 0.9145412233174534 0.08545877668254674 0.9718357745511603 0.02816422544883968 0.9980706009906271 0.001929399009372984 0.9999999562725148 4.372748531751284e-008 0.9915710859867943 0.008428914013205592 1 0 0.9239886934984973 0.07601130650150269 1 0 0.9888891109292182 0.01111088907078178 0.9371960134369616 0.0628039865630384 0.9869420226541091 0.01305797734589072 0.9951251908973885 0.004874809102611498 0.9881290137086889 0.01187098629131094 0.9783208048635744 0.02167919513642565 0.9900758167416764 0.009924183258323517 0.9975954880362841 0.002404511963715955 0.9681526705745486 0.03184732942545137 0.9769590405828491 0.02304095941715083 0.987209522842904 0.01279047715709611 0.9947457132261561 0.005254286773843863 0.9710530386419254 0.02894696135807457 0.9672587916673724 0.0327412083326276 0.9944919373956014 0.005508062604398571 0.9936338407487204 0.006366159251279662 0.9103979846941001 0.08960201530589997 0.9798413626658007 0.02015863733419919 0.9984420443788197 0.001557955621180248 0.990475480250643 0.009524519749357014 1 0 0.9534726312894504 0.04652736871054956 1 0 0.9955404926164247 0.004459507383575231 0.9937189214762631 0.006281078523736871 1 0 0.9122906841907155 0.08770931580928468 1 0 0.8871207063577988 0.1128792936422013 1 0 0.9831551162177066 0.01684488378229339 1 0 0.8818683837017878 0.1181316162982121 1 0 0.9633183230828524 0.03668167691714767 1 0 0.9272176371489328 0.07278236285106723 1 0 0.9584675844277429 0.04153241557225707 1 0 0.9979515825900855 0.002048417409914486 1 0 0.997677496569799 0.002322503430200898 1 0 0.9941396636737331 0.00586033632626692 1 0 0.9824053374538978 0.01759466254610229 1 0 0.8865768846533636 0.1134231153466364 1 0 0.9778114299025892 0.02218857009741065 1 0</probabilities>
		</cpt>
		<cpt id="ShipWeapons3">
			<state id="Absent" />
			<state id="Present" />
			<parents>TimePeriod ShipWeapons2</parents>
			<probabilities>0.9763263944047248 0.02367360559527522 0.9994280839943969 0.0005719160056032557 0.8578174780936907 0.1421825219063093 0.9860265522341991 0.01397344776580082 0.975509192539072 0.024490807460928 0.9498343744583567 0.05016562554164337 0.8726493248586104 0.1273506751413895 0.9744118143557898 0.02558818564421015 0.8979015532598186 0.1020984467401815 0.995466153589935 0.004533846410065016 0.9328107802136363 0.06718921978636372 0.9938658272646161 0.006134172735383918 0.9382368356796007 0.06176316432039929 0.9856211235922854 0.01437887640771468 0.9656609348522321 0.03433906514776793 0.9897734194317258 0.01022658056827423 0.8492617582361428 0.1507382417638573 0.9953471934322584 0.004652806567741596 0.9259517003287936 0.07404829967120645 0.9977604409974595 0.002239559002540438 0.9203399866010916 0.07966001339890834 0.980369124152695 0.01963087584730517 0.8741158232734942 0.1258841767265058 0.9930935315566009 0.0069064684433991 0.9757193820060442 0.02428061799395584 0.9793310947095685 0.02066890529043156 0.8120876825942459 0.1879123174057541 0.9998455779333377 0.0001544220666622328 0.9109643423443898 0.08903565765561017 0.9928070680298621 0.007192931970137958 0.8647177093669755 0.1352822906330246 0.9951071401692354 0.00489285983076466 0.9818495575274582 0.01815044247254176 0.9801932318637449 0.01980676813625515 0.9298929676918502 0.07010703230814973 0.9977029010170473 0.002297098982952719 0.8473938557006523 0.1526061442993477 0.9966946051346434 0.003305394865356656 0.8786772739160924 0.1213227260839075 0.9787675249927683 0.02123247500723166 0.9067622485881051 0.09323775141189505 0.9755258816102942 0.02447411838970585 0.9041903274008918 0.09580967259910815 0.9844181965583613 0.01558180344163867 0.8235580623871914 0.1764419376128086 0.9999965236536997 3.476346300238876e-006 0.9829062779403025 0.01709372205969762 0.998976259029281 0.001023740970718992 0.9984865541460627 0.001513445853937282 0.951294681092397 0.048705318907603</probabilities>
		</cpt>
		<cpt id="ShipPlating2">
			<state id="Absent" />
			<state id="Present" />
			<parents>TimePeriod ShipPlating1 ScienceFacility</parents>
			<probabilities>0.8868610948381727 0.1131389051618273 1 0 0.9804082446934975 0.01959175530650251 1 0 0.9486049587794885 0.05139504122051153 1 0 0.9959251307677338 0.004074869232266257 1 0 0.8055834673529562 0.1944165326470439 1 0 0.9910496555865701 0.008950344413429867 1 0 0.9119118733880613 0.08808812661193874 1 0 0.9651507890579973 0.03484921094200267 1 0 0.8936588409423564 0.1063411590576436 1 0 0.9776105519700816 0.02238944802991839 1 0 0.9072364926957868 0.09276350730421309 1 0 0.9834958949144566 0.01650410508554354 1 0 0.994195858186831 0.005804141813168955 0.9585822728757226 0.04141772712427746 0.9888893661299176 0.01111063387008233 0.9959601149574509 0.004039885042549277 0.9794502994617079 0.02054970053829204 0.9821736507075429 0.01782634929245705 0.9950840329300897 0.004915967069910333 0.9925101494269979 0.007489850573002136 0.9870854451397791 0.0129145548602209 0.9989621583987001 0.001037841601299895 0.9968301649492204 0.003169835050779726 0.9971006816806044 0.00289931831939558 0.9761493621966249 0.02385063780337518 0.9530814609119124 0.04691853908808755 0.9930335250039909 0.006966474996009069 0.9949074856846933 0.005092514315306752 0.9795670462552863 0.0204329537447137 0.9818010829327165 0.0181989170672834 0.999458857718751 0.0005411422812490354 0.9997635348147888 0.0002364651852112974 0.9209117395161073 0.07908826048389271 1 0 0.9084901065091384 0.09150989349086147 1 0 0.9976457933918218 0.002354206608178181 0.9706939382141763 0.02930606178582372 0.9810592132027169 0.01894078679728311 0.9978086574081074 0.002191342591892569 0.9679796266512608 0.03202037334873931 0.9770922363140276 0.02290776368597238 0.9951946321051266 0.004805367894873401 0.9905766079717884 0.009423392028211713 0.9566516415482154 0.04334835845178465 0.9922606819916235 0.007739318008376417 0.9977048026457696 0.00229519735423044 0.9951581376724691 0.004841862327530839 0.9910885065338595 0.008911493466140417 0.9567283206037356 0.04327167939626449 0.9847142429580131 0.01528575704198698 0.9978945943482843 0.002105405651715677 0.9496935344523186 0.05030646554768131 0.9928453868121433 0.007154613187856613 0.996304218687372 0.003695781312628214 0.9990095481064245 0.0009904518935754004 1 0 0.9265229702282871 0.07347702977171298 1 0 0.9900523043356053 0.009947695664394714 0.9257547432825677 0.07424525671743226 1 0 0.9805278961268797 0.01947210387312031 1 0 0.8036107291202831 0.196389270879717 1 0 0.9978802838998978 0.002119716100102177 1 0 0.9919439624813057 0.00805603751869431 1 0 0.9981521094877444 0.001847890512255633 1 0 0.9739139352023357 0.02608606479766425 1 0 0.9618822287134158 0.03811777128658416 1 0 0.9628427901201513 0.03715720987984877 1 0 0.8880894745692665 0.1119105254307335 1 0 0.9185512391131269 0.08144876088687329 1 0 0.9941125158499414 0.005887484150058763 1 0 0.8676838147408879 0.1323161852591122 1 0 0.9943622944812991 0.005637705518700783 1 0</probabilities>
		</cpt>
		<cpt id="ShipPlating3">
			<state id="Absent" />
			<state id="Present" />
			<parents>TimePeriod ShipPlating2</parents>
			<probabilities>0.9584343416996435 0.0415656583003565 0.9583447834929476 0.04165521650705235 0.9019110885302732 0.09808891146972673 0.9969812198557346 0.003018780144265319 0.9053795428164096 0.09462045718359036 0.8988610724830701 0.1011389275169299 0.8841630025149739 0.1158369974850261 0.9933544792583944 0.006645520741605725 0.9295592669460645 0.07044073305393551 0.9777054022910549 0.02229459770894519 0.9416705042180347 0.05832949578196525 0.9703380999117383 0.02966190008826171 0.9087428882723864 0.09125711172761361 0.9924162920083745 0.007583707991625653 0.8346487874201958 0.1653512125798042 0.9960269472187407 0.003973052781259197 0.8805303067581768 0.1194696932418232 0.9994393314466654 0.0005606685533345319 0.9392868228052284 0.06071317719477178 0.9906208898918151 0.009379110108184876 0.8205564128746543 0.1794435871253456 0.9985838708942355 0.001416129105764559 0.9299576127643799 0.07004238723562015 0.9714320174390322 0.02856798256096794 0.8683134158992724 0.1316865841007278 0.994159461969566 0.005840538030433945 0.9009551410714392 0.09904485892856083 0.9926002846702656 0.007399715329734434 0.8968644326511448 0.1031355673488551 0.9946445307174868 0.005355469282513174 0.9072690535965055 0.09273094640349454 0.9855292829211746 0.01447071707882527 0.8663886562790517 0.1336113437209482 0.9936237365252162 0.006376263474783795 0.9849018896272246 0.01509811037277548 0.9980305291660268 0.001969470833973308 0.8924077035468278 0.1075922964531723 0.9910785701797964 0.008921429820203627 0.9089472506842256 0.09105274931577446 0.9551060897985243 0.04489391020147572 0.8493148418538947 0.1506851581461053 0.9999133141084382 8.668589156164371e-005 0.8809067128458681 0.119093287154132 0.995335508836685 0.004664491163315108 0.9227854242193343 0.07721457578066553 0.969368474857885 0.03063152514211509 0.9273630650736062 0.07263693492639382 0.996747010506723 0.003252989493277002 0.8811387735364102 0.1188612264635898 0.9903455993656664 0.00965440063433359</probabilities>
		</cpt>
	</nodes>
	<extensions>
		<genie version="1.0" app="GeNIe 2.0.5079.0" name="Network1" faultnameformat="nodestate">
			<node id="SupplyDepot">
				<name>SupplyDepot</name>
				<interior color="e5f6f7" />
				<outline color="000080" />
				<font color="000000" name="Arial" size="8" />
				<position>468 263 541 308</position>
			</node>
			<node id="Barracks">
				<name>Barracks</name>
				<interior color="e5f6f7" />
				<outline color="000080" />
				<font color="000000" name="Arial" size="8" />
				<position>588 338 647 374</position>
			</node>
			<node id="EngineeringBay">
				<name>EngineeringBay</name>
				<interior color="e5f6f7" />
				<outline color="000080" />
				<font color="000000" name="Arial" size="8" />
				<position>752 251 838 304</position>
			</node>
			<node id="MissileTurret">
				<name>MissileTurret</name>
				<interior color="e5f6f7" />
				<outline color="000080" />
				<font color="000000" name="Arial" size="8" />
				<position>869 267 942 312</position>
			</node>
			<node id="Refinery">
				<name>Refinery</name>
				<interior color="e5f6f7" />
				<outline color="000080" />
				<font color="000000" name="Arial" size="8" />
				<position>681 409 737 444</position>
			</node>
			<node id="Academy">
				<name>Academy</name>
				<interior color="e5f6f7" />
				<outline color="000080" />
				<font color="000000" name="Arial" size="8" />
				<position>791 368 852 406</position>
			</node>
			<node id="Factory">
				<name>Factory</name>
				<interior color="e5f6f7" />
				<outline color="000080" />
				<font color="000000" name="Arial" size="8" />
				<position>582 418 634 450</position>
			</node>
			<node id="ComsatStation">
				<name>ComsatStation</name>
				<interior color="e5f6f7" />
				<outline color="000080" />
				<font color="000000" name="Arial" size="8" />
				<position>794 457 874 507</position>
			</node>
			<node id="MachineShop">
				<name>MachineShop</name>
				<interior color="e5f6f7" />
				<outline color="000080" />
				<font color="000000" name="Arial" size="8" />
				<position>470 486 546 533</position>
			</node>
			<node id="Armory">
				<name>Armory</name>
				<interior color="e5f6f7" />
				<outline color="000080" />
				<font color="000000" name="Arial" size="8" />
				<position>589 518 641 550</position>
			</node>
			<node id="Starport">
				<name>Starport</name>
				<interior color="e5f6f7" />
				<outline color="000080" />
				<font color="000000" name="Arial" size="8" />
				<position>682 520 736 553</position>
			</node>
			<node id="ControlTower">
				<name>ControlTower</name>
				<interior color="e5f6f7" />
				<outline color="000080" />
				<font color="000000" name="Arial" size="8" />
				<position>654 593 732 641</position>
			</node>
			<node id="ScienceFacility">
				<name>ScienceFacility</name>
				<interior color="e5f6f7" />
				<outline color="000080" />
				<font color="000000" name="Arial" size="8" />
				<position>795 660 879 712</position>
			</node>
			<node id="PhysicsLab">
				<name>PhysicsLab</name>
				<interior color="e5f6f7" />
				<outline color="000080" />
				<font color="000000" name="Arial" size="8" />
				<position>696 689 781 730</position>
			</node>
			<node id="CovertOps">
				<name>CovertOps</name>
				<interior color="e5f6f7" />
				<outline color="000080" />
				<font color="000000" name="Arial" size="8" />
				<position>908 649 974 690</position>
			</node>
			<node id="NuclearSilo">
				<name>NuclearSilo</name>
				<interior color="e5f6f7" />
				<outline color="000080" />
				<font color="000000" name="Arial" size="8" />
				<position>878 590 946 632</position>
			</node>
			<node id="Bunker">
				<name>Bunker</name>
				<interior color="e5f6f7" />
				<outline color="000080" />
				<font color="000000" name="Arial" size="8" />
				<position>421 322 472 353</position>
			</node>
			<node id="Marine">
				<name>Marine</name>
				<interior color="99cc00" />
				<outline color="000080" />
				<font color="000000" name="Arial" size="8" />
				<position>441 375 490 405</position>
			</node>
			<node id="Firebat">
				<name>Firebat</name>
				<interior color="99cc00" />
				<outline color="000080" />
				<font color="000000" name="Arial" size="8" />
				<position>889 448 938 478</position>
			</node>
			<node id="Medic">
				<name>Medic</name>
				<interior color="99cc00" />
				<outline color="000080" />
				<font color="000000" name="Arial" size="8" />
				<position>915 403 961 431</position>
			</node>
			<node id="Vulture">
				<name>Vulture</name>
				<interior color="99cc00" />
				<outline color="000080" />
				<font color="000000" name="Arial" size="8" />
				<position>461 429 512 460</position>
			</node>
			<node id="SpiderMine">
				<name>SpiderMine</name>
				<interior color="99cc00" />
				<outline color="000080" />
				<font color="000000" name="Arial" size="8" />
				<position>367 466 433 507</position>
			</node>
			<node id="SiegeTank">
				<name>SiegeTank</name>
				<interior color="99cc00" />
				<outline color="000080" />
				<font color="000000" name="Arial" size="8" />
				<position>395 569 459 609</position>
			</node>
			<node id="Goliath">
				<name>Goliath</name>
				<interior color="99cc00" />
				<outline color="000080" />
				<font color="000000" name="Arial" size="8" />
				<position>483 568 532 598</position>
			</node>
			<node id="Valkyrie">
				<name>Valkyrie</name>
				<interior color="99cc00" />
				<outline color="000080" />
				<font color="000000" name="Arial" size="8" />
				<position>516 643 570 676</position>
			</node>
			<node id="Dropship">
				<name>Dropship</name>
				<interior color="99cc00" />
				<outline color="000080" />
				<font color="000000" name="Arial" size="8" />
				<position>577 632 636 668</position>
			</node>
			<node id="Wraith">
				<name>Wraith</name>
				<interior color="99cc00" />
				<outline color="000080" />
				<font color="000000" name="Arial" size="8" />
				<position>854 539 902 569</position>
			</node>
			<node id="ScienceVessel">
				<name>ScienceVessel</name>
				<interior color="99cc00" />
				<outline color="000080" />
				<font color="000000" name="Arial" size="8" />
				<position>532 679 616 731</position>
			</node>
			<node id="Battlecruiser">
				<name>Battlecruiser</name>
				<interior color="99cc00" />
				<outline color="000080" />
				<font color="000000" name="Arial" size="8" />
				<position>664 736 737 781</position>
			</node>
			<node id="Ghost">
				<name>Ghost</name>
				<interior color="99cc00" />
				<outline color="000080" />
				<font color="000000" name="Arial" size="8" />
				<position>978 610 1024 638</position>
			</node>
			<node id="NuclearMissile">
				<name>NuclearMissile</name>
				<interior color="99cc00" />
				<outline color="000080" />
				<font color="000000" name="Arial" size="8" />
				<position>951 541 1031 591</position>
			</node>
			<node id="TimePeriod">
				<name>TimePeriod</name>
				<interior color="ffcc00" />
				<outline color="000080" />
				<font color="000000" name="Arial" size="8" />
				<position>631 226 702 270</position>
			</node>
			<node id="InfantryWeapons1">
				<name>InfantryWeapons1</name>
				<interior color="ff99cc" />
				<outline color="000080" />
				<font color="000000" name="Arial" size="8" />
				<position>682 153 798 208</position>
			</node>
			<node id="InfantryArmor1">
				<name>InfantryArmor1</name>
				<interior color="ff99cc" />
				<outline color="000080" />
				<font color="000000" name="Arial" size="8" />
				<position>852 165 943 213</position>
			</node>
			<node id="CaduceusReactor">
				<name>CaduceusReactor</name>
				<interior color="ff99cc" />
				<outline color="000080" />
				<font color="000000" name="Arial" size="8" />
				<position>1036 238 1140 296</position>
			</node>
			<node id="OpticalFlare">
				<name>OpticalFlare</name>
				<interior color="ff99cc" />
				<outline color="000080" />
				<font color="000000" name="Arial" size="8" />
				<position>1145 269 1238 312</position>
			</node>
			<node id="Restoration">
				<name>Restoration</name>
				<interior color="ff99cc" />
				<outline color="000080" />
				<font color="000000" name="Arial" size="8" />
				<position>1093 311 1161 353</position>
			</node>
			<node id="StimPacks">
				<name>StimPacks</name>
				<interior color="ff99cc" />
				<outline color="000080" />
				<font color="000000" name="Arial" size="8" />
				<position>1183 347 1282 382</position>
			</node>
			<node id="U238Shells">
				<name>U238Shells</name>
				<interior color="ff99cc" />
				<outline color="000080" />
				<font color="000000" name="Arial" size="8" />
				<position>1117 367 1192 413</position>
			</node>
			<node id="IonThrusters">
				<name>IonThrusters</name>
				<interior color="ff99cc" />
				<outline color="000080" />
				<font color="000000" name="Arial" size="8" />
				<position>198 505 276 553</position>
			</node>
			<node id="CharonBoosters">
