<?xml version="1.0" encoding="ISO-8859-1"?>
<smile version="1.0" id="Network1" numsamples="1000" discsamples="10000">
	<nodes>
		<cpt id="TimePeriod">
			<state id="Period1" />
			<state id="Period2" />
			<state id="Period3" />
			<state id="Period4" />
			<state id="Period5" />
			<state id="Period6" />
			<state id="Period7" />
			<state id="Period8" />
			<state id="Period9" />
			<state id="Period10" />
			<state id="Period11" />
			<state id="Period12" />
			<state id="Period13" />
			<state id="Period14" />
			<state id="Period15" />
			<state id="Period16" />
			<state id="Period17" />
			<state id="Period18" />
			<state id="Period19" />
			<state id="Period20" />
			<state id="Period21" />
			<state id="Period22" />
			<state id="Period23" />
			<state id="Period24" />
			<state id="Period25" />
			<probabilities>0.04137155297532656 0.04137155297532656 0.04137155297532656 0.04137155297532656 0.04137155297532656 0.04137155297532656 0.04119013062409289 0.04119013062409289 0.04119013062409289 0.04119013062409289 0.04100870827285921 0.04082728592162555 0.04082728592162555 0.04064586357039187 0.0404644412191582 0.04028301886792453 0.03973875181422351 0.03937590711175617 0.03919448476052249 0.03901306240928883 0.03828737300435414 0.03738026124818578 0.0371988388969521 0.03665457184325108 0.03611030478955007</probabilities>
		</cpt>
		<cpt id="Barracks">
			<state id="Absent" />
			<state id="Present" />
			<parents>TimePeriod</parents>
			<probabilities>0.9995633187772925 0.0004366812227074236 0.9558951965065502 0.04410480349344978 0.396943231441048 0.603056768558952 0.04759825327510917 0.9524017467248908 0.04323144104803493 0.956768558951965 0.0388646288209607 0.9611353711790392 0.03903508771929824 0.9609649122807017 0.03903508771929824 0.9609649122807017 0.03903508771929824 0.9609649122807017 0.03903508771929824 0.9609649122807017 0.03920704845814978 0.9607929515418503 0.03938053097345133 0.9606194690265486 0.03938053097345133 0.9606194690265486 0.03955555555555556 0.9604444444444444 0.03973214285714286 0.9602678571428571 0.03991031390134529 0.9600896860986546 0.04045454545454545 0.9595454545454545 0.0408256880733945 0.9591743119266055 0.04101382488479263 0.9589861751152073 0.0412037037037037 0.9587962962962963 0.0419811320754717 0.9580188679245283 0.04299516908212561 0.9570048309178744 0.04320388349514563 0.9567961165048543 0.04384236453201971 0.9561576354679803 0.04450000000000001 0.9555</probabilities>
		</cpt>
		<cpt id="Bunker">
			<state id="Absent" />
			<state id="Present" />
			<parents>Barracks TimePeriod</parents>
			<probabilities>0.9995633187772925 0.0004366812227074236 0.9995433789954338 0.00045662100456621 0.998901098901099 0.001098901098901099 0.990909090909091 0.009090909090909092 0.9900000000000001 0.01 0.9888888888888889 0.01111111111111111 0.9888888888888889 0.01111111111111111 0.9888888888888889 0.01111111111111111 0.9888888888888889 0.01111111111111111 0.9888888888888889 0.01111111111111111 0.9888888888888889 0.01111111111111111 0.9888888888888889 0.01111111111111111 0.9888888888888889 0.01111111111111111 0.9888888888888889 0.01111111111111111 0.9888888888888889 0.01111111111111111 0.9888888888888889 0.01111111111111111 0.9888888888888889 0.01111111111111111 0.9888888888888889 0.01111111111111111 0.9888888888888889 0.01111111111111111 0.9888888888888889 0.01111111111111111 0.9888888888888889 0.01111111111111111 0.9888888888888889 0.01111111111111111 0.9888888888888889 0.01111111111111111 0.9888888888888889 0.01111111111111111 0.9888888888888889 0.01111111111111111 0.9 0.1 0.990909090909091 0.009090909090909092 0.9992805755395684 0.0007194244604316548 0.9995433789954338 0.00045662100456621 0.9677272727272727 0.03227272727272727 0.9045248868778282 0.09547511312217197 0.8631818181818182 0.1368181818181818 0.8404545454545455 0.1595454545454546 0.8268181818181818 0.1731818181818182 0.8177272727272728 0.1822727272727273 0.784931506849315 0.2150684931506849 0.7793577981651377 0.2206422018348624 0.7610091743119267 0.2389908256880734 0.7599078341013825 0.2400921658986175 0.7587962962962963 0.2412037037037037 0.7576744186046512 0.2423255813953489 0.7495283018867924 0.2504716981132075 0.7376190476190477 0.2623809523809524 0.7363636363636363 0.2636363636363636 0.7254807692307693 0.2745192307692308 0.7200980392156863 0.2799019607843137 0.7180904522613065 0.2819095477386935 0.7217171717171718 0.2782828282828283 0.7225641025641026 0.2774358974358974 0.7234375 0.2765625</probabilities>
		</cpt>
		<cpt id="SupplyDepot">
			<state id="Absent" />
			<state id="Present" />
			<parents>TimePeriod</parents>
			<probabilities>0.9995633187772925 0.0004366812227074236 0.2004366812227074 0.7995633187772925 0.04323144104803493 0.956768558951965 0.04323144104803493 0.956768558951965 0.0388646288209607 0.9611353711790392 0.0388646288209607 0.9611353711790392 0.03903508771929824 0.9609649122807017 0.03903508771929824 0.9609649122807017 0.03903508771929824 0.9609649122807017 0.03903508771929824 0.9609649122807017 0.03920704845814978 0.9607929515418503 0.03938053097345133 0.9606194690265486 0.03938053097345133 0.9606194690265486 0.03955555555555556 0.9604444444444444 0.03973214285714286 0.9602678571428571 0.03991031390134529 0.9600896860986546 0.04045454545454545 0.9595454545454545 0.0408256880733945 0.9591743119266055 0.04101382488479263 0.9589861751152073 0.0412037037037037 0.9587962962962963 0.0419811320754717 0.9580188679245283 0.04299516908212561 0.9570048309178744 0.04320388349514563 0.9567961165048543 0.04384236453201971 0.9561576354679803 0.04450000000000001 0.9555</probabilities>
		</cpt>
		<cpt id="EngineeringBay">
			<state id="Absent" />
			<state id="Present" />
			<parents>TimePeriod</parents>
			<probabilities>0.9995633187772925 0.0004366812227074236 0.9995633187772925 0.0004366812227074236 0.9995633187772925 0.0004366812227074236 0.9995633187772925 0.0004366812227074236 0.9995633187772925 0.0004366812227074236 0.9864628820960698 0.01353711790393013 0.850438596491228 0.1495614035087719 0.644298245614035 0.3557017543859649 0.5346491228070175 0.4653508771929824 0.4425438596491228 0.5574561403508771 0.3740088105726873 0.6259911894273128 0.3092920353982301 0.6907079646017699 0.2429203539823009 0.7570796460176991 0.1951111111111111 0.8048888888888889 0.1602678571428571 0.8397321428571428 0.1340807174887892 0.8659192825112108 0.1040909090909091 0.8959090909090909 0.09128440366972478 0.9087155963302752 0.07788018433179723 0.9221198156682028 0.07824074074074074 0.9217592592592592 0.075 0.9249999999999999 0.07198067632850241 0.9280193236714975 0.0674757281553398 0.9325242718446601 0.05369458128078818 0.9463054187192118 0.0545 0.9455</probabilities>
		</cpt>
		<cpt id="MissileTurret">
			<state id="Absent" />
			<state id="Present" />
			<parents>EngineeringBay TimePeriod</parents>
			<probabilities>0.9995633187772925 0.0004366812227074236 0.9995633187772925 0.0004366812227074236 0.9995633187772925 0.0004366812227074236 0.9995633187772925 0.0004366812227074236 0.9995633187772925 0.0004366812227074236 0.9995575221238938 0.0004424778761061947 0.9994845360824742 0.0005154639175257732 0.9993197278911564 0.0006802721088435375 0.9991803278688526 0.0008196721311475411 0.9990099009900991 0.0009900990099009901 0.9988235294117648 0.001176470588235294 0.9985714285714287 0.001428571428571429 0.9981818181818181 0.001818181818181818 0.9977272727272727 0.002272727272727273 0.9972222222222221 0.002777777777777778 0.9966666666666666 0.003333333333333334 0.9956521739130434 0.004347826086956522 0.995 0.005000000000000001 0.9941176470588234 0.005882352941176471 0.9941176470588234 0.005882352941176471 0.99375 0.00625 0.9933333333333333 0.006666666666666667 0.9928571428571429 0.007142857142857143 0.990909090909091 0.009090909090909092 0.990909090909091 0.009090909090909092 0.9 0.1 0.9 0.1 0.9 0.1 0.9 0.1 0.9 0.1 0.975 0.025 0.9685714285714285 0.03142857142857143 0.5719512195121951 0.4280487804878049 0.3448598130841121 0.6551401869158877 0.24140625 0.75859375 0.1811188811188811 0.8188811188811188 0.1140127388535032 0.8859872611464968 0.1098837209302326 0.8901162790697674 0.08736263736263737 0.9126373626373627 0.06296296296296296 0.937037037037037 0.04587628865979382 0.9541237113402061 0.04494949494949495 0.9550505050505052 0.02462311557788945 0.9753768844221106 0.01940298507462687 0.9805970149253731 0.0095 0.9905000000000001 0.01472081218274112 0.9852791878172588 0.0150259067357513 0.9849740932642487 0.0150259067357513 0.9849740932642487 0.0150259067357513 0.9849740932642487 0.004736842105263158 0.9952631578947367</probabilities>
		</cpt>
		<cpt id="Refinery">
			<state id="Absent" />
			<state id="Present" />
			<parents>TimePeriod</parents>
			<probabilities>0.9995633187772925 0.0004366812227074236 0.9995633187772925 0.0004366812227074236 0.711353711790393 0.288646288209607 0.1611353711790393 0.8388646288209606 0.07379912663755457 0.9262008733624454 0.04759825327510917 0.9524017467248908 0.03903508771929824 0.9609649122807017 0.03903508771929824 0.9609649122807017 0.03903508771929824 0.9609649122807017 0.03903508771929824 0.9609649122807017 0.03920704845814978 0.9607929515418503 0.03938053097345133 0.9606194690265486 0.03938053097345133 0.9606194690265486 0.03955555555555556 0.9604444444444444 0.03973214285714286 0.9602678571428571 0.03991031390134529 0.9600896860986546 0.04045454545454545 0.9595454545454545 0.0408256880733945 0.9591743119266055 0.04101382488479263 0.9589861751152073 0.0412037037037037 0.9587962962962963 0.0419811320754717 0.9580188679245283 0.04299516908212561 0.9570048309178744 0.04320388349514563 0.9567961165048543 0.04384236453201971 0.9561576354679803 0.04450000000000001 0.9555</probabilities>
		</cpt>
		<cpt id="Academy">
			<state id="Absent" />
			<state id="Present" />
			<parents>Barracks TimePeriod</parents>
			<probabilities>0.9995633187772925 0.0004366812227074236 0.9995433789954338 0.00045662100456621 0.998901098901099 0.001098901098901099 0.990909090909091 0.009090909090909092 0.9900000000000001 0.01 0.9888888888888889 0.01111111111111111 0.9888888888888889 0.01111111111111111 0.9888888888888889 0.01111111111111111 0.9888888888888889 0.01111111111111111 0.9888888888888889 0.01111111111111111 0.9888888888888889 0.01111111111111111 0.9888888888888889 0.01111111111111111 0.9888888888888889 0.01111111111111111 0.9888888888888889 0.01111111111111111 0.9888888888888889 0.01111111111111111 0.9888888888888889 0.01111111111111111 0.9888888888888889 0.01111111111111111 0.9888888888888889 0.01111111111111111 0.9888888888888889 0.01111111111111111 0.9888888888888889 0.01111111111111111 0.9888888888888889 0.01111111111111111 0.9888888888888889 0.01111111111111111 0.9888888888888889 0.01111111111111111 0.9888888888888889 0.01111111111111111 0.9888888888888889 0.01111111111111111 0.9 0.1 0.990909090909091 0.009090909090909092 0.9992805755395684 0.0007194244604316548 0.9995433789954338 0.00045662100456621 0.9904545454545455 0.009545454545454546 0.981447963800905 0.01855203619909502 0.9404545454545454 0.05954545454545454 0.8904545454545454 0.1095454545454545 0.7813636363636364 0.2186363636363636 0.6404545454545455 0.3595454545454545 0.5337899543378996 0.4662100456621004 0.4444954128440368 0.5555045871559633 0.3435779816513762 0.6564220183486239 0.2391705069124424 0.7608294930875575 0.2125 0.7875 0.1669767441860465 0.8330232558139534 0.1316037735849057 0.8683962264150943 0.09952380952380953 0.9004761904761905 0.08564593301435405 0.9143540669856459 0.06201923076923077 0.9379807692307692 0.04852941176470588 0.9514705882352941 0.04472361809045226 0.9552763819095478 0.03989898989898991 0.9601010101010101 0.03025641025641026 0.9697435897435898 0.01510416666666667 0.9848958333333333</probabilities>
		</cpt>
		<cpt id="Factory">
			<state id="Absent" />
			<state id="Present" />
			<parents>Barracks Refinery TimePeriod</parents>
			<probabilities>0.9995633187772925 0.0004366812227074236 0.9995433789954338 0.00045662100456621 0.9985074626865672 0.001492537313432836 0.990909090909091 0.009090909090909092 0.9900000000000001 0.01 0.9888888888888889 0.01111111111111111 0.9888888888888889 0.01111111111111111 0.9888888888888889 0.01111111111111111 0.9888888888888889 0.01111111111111111 0.9888888888888889 0.01111111111111111 0.9888888888888889 0.01111111111111111 0.9888888888888889 0.01111111111111111 0.9888888888888889 0.01111111111111111 0.9888888888888889 0.01111111111111111 0.9888888888888889 0.01111111111111111 0.9888888888888889 0.01111111111111111 0.9888888888888889 0.01111111111111111 0.9888888888888889 0.01111111111111111 0.9888888888888889 0.01111111111111111 0.9888888888888889 0.01111111111111111 0.9888888888888889 0.01111111111111111 0.9888888888888889 0.01111111111111111 0.9888888888888889 0.01111111111111111 0.9888888888888889 0.01111111111111111 0.9888888888888889 0.01111111111111111 0.9 0.1 0.9 0.1 0.996 0.004 0.9 0.1 0.9 0.1 0.9 0.1 0.9 0.1 0.9 0.1 0.9 0.1 0.9 0.1 0.9 0.1 0.9 0.1 0.9 0.1 0.9 0.1 0.9 0.1 0.9 0.1 0.9 0.1 0.9 0.1 0.9 0.1 0.9 0.1 0.9 0.1 0.9 0.1 0.9 0.1 0.9 0.1 0.9 0.1 0.9 0.1 0.990909090909091 0.009090909090909092 0.9989690721649485 0.001030927835051546 0.9962962962962962 0.003703703703703704 0.9875 0.0125 0.9666666666666666 0.03333333333333333 0.9 0.1 0.9 0.1 0.9 0.1 0.9 0.1 0.9 0.1 0.9 0.1 0.9 0.1 0.9 0.1 0.9 0.1 0.9 0.1 0.9 0.1 0.9 0.1 0.9 0.1 0.9 0.1 0.9 0.1 0.9 0.1 0.9 0.1 0.9 0.1 0.9 0.1 0.9 0.1 0.9 0.1 0.9976744186046511 0.002325581395348837 0.3984455958549223 0.6015544041450777 0.2061032863849765 0.7938967136150235 0.054337899543379 0.9456621004566209 0.01772727272727273 0.9822727272727272 0.01772727272727273 0.9822727272727272 0.008636363636363635 0.9913636363636363 0.008636363636363635 0.9913636363636363 0.008675799086757989 0.9913242009132419 0.00871559633027523 0.9912844036697248 0.00871559633027523 0.9912844036697248 0.004147465437788019 0.9958525345622119 0.004166666666666667 0.9958333333333332 0.004186046511627907 0.9958139534883721 0.004245283018867925 0.9957547169811321 0.004285714285714286 0.9957142857142858 0.00430622009569378 0.9956937799043062 0.004326923076923077 0.9956730769230769 0.004411764705882353 0.9955882352941176 0.004522613065326633 0.9954773869346734 0.004545454545454546 0.9954545454545455 0.004615384615384616 0.9953846153846153 0.0046875 0.9953124999999999</probabilities>
		</cpt>
		<cpt id="ComsatStation">
			<state id="Absent" />
			<state id="Present" />
			<parents>Academy Refinery TimePeriod</parents>
			<probabilities>0.9995633187772925 0.0004366812227074236 0.9995633187772925 0.0004366812227074236 0.9993865030674847 0.0006134969325153375 0.9972972972972973 0.002702702702702703 0.99375 0.00625 0.990909090909091 0.009090909090909092 0.9888888888888889 0.01111111111111111 0.9888888888888889 0.01111111111111111 0.9888888888888889 0.01111111111111111 0.9888888888888889 0.01111111111111111 0.9888888888888889 0.01111111111111111 0.9888888888888889 0.01111111111111111 0.9888888888888889 0.01111111111111111 0.9888888888888889 0.01111111111111111 0.9888888888888889 0.01111111111111111 0.9888888888888889 0.01111111111111111 0.9888888888888889 0.01111111111111111 0.9888888888888889 0.01111111111111111 0.9888888888888889 0.01111111111111111 0.9888888888888889 0.01111111111111111 0.9888888888888889 0.01111111111111111 0.9888888888888889 0.01111111111111111 0.9888888888888889 0.01111111111111111 0.9888888888888889 0.01111111111111111 0.9888888888888889 0.01111111111111111 0.9 0.1 0.9 0.1 0.9985074626865672 0.001492537313432836 0.9994818652849742 0.0005181347150259068 0.9995283018867924 0.0004716981132075472 0.9995348837209303 0.0004651162790697675 0.9995169082125603 0.0004830917874396135 0.9994897959183673 0.000510204081632653 0.9994186046511628 0.0005813953488372093 0.999290780141844 0.0007092198581560284 0.9991452991452993 0.0008547008547008548 0.9989690721649485 0.001030927835051546 0.9986666666666668 0.001333333333333334 0.9980769230769231 0.001923076923076923 0.9978260869565216 0.002173913043478261 0.9972222222222221 0.002777777777777778 0.9964285714285713 0.003571428571428571 0.9952380952380951 0.004761904761904762 0.9944444444444444 0.005555555555555556 0.9923076923076923 0.007692307692307693 0.9900000000000001 0.01 0.9888888888888889 0.01111111111111111 0.9875 0.0125 0.9833333333333334 0.01666666666666667 0.9666666666666666 0.03333333333333333 0.9 0.1 0.9 0.1 0.9 0.1 0.9 0.1 0.95 0.05 0.9 0.1 0.9 0.1 0.9 0.1 0.9 0.1 0.9 0.1 0.9 0.1 0.9 0.1 0.9 0.1 0.9 0.1 0.9 0.1 0.9 0.1 0.9 0.1 0.9 0.1 0.9 0.1 0.9 0.1 0.9 0.1 0.9 0.1 0.9 0.1 0.9 0.1 0.9 0.1 0.9 0.1 0.9 0.1 0.9 0.1 0.9 0.1 0.95 0.05 0.9800000000000001 0.02 0.85 0.15 0.716 0.284 0.5489795918367346 0.4510204081632653 0.43625 0.5637500000000001 0.3388349514563107 0.6611650485436892 0.2532786885245902 0.7467213114754099 0.1659722222222222 0.8340277777777777 0.1620481927710843 0.8379518072289157 0.1163742690058479 0.883625730994152 0.08277777777777778 0.9172222222222223 0.08054054054054055 0.9194594594594595 0.03631578947368421 0.9636842105263157 0.0203125 0.9796874999999999 0.01989795918367347 0.9801020408163265 0.02512820512820513 0.9748717948717949 0.01518324607329843 0.9848167539267017 0.02041884816753927 0.9795811518324608 0.01526315789473684 0.9847368421052631 0.004736842105263158 0.9952631578947367</probabilities>
		</cpt>
		<cpt id="MachineShop">
			<state id="Absent" />
			<state id="Present" />
			<parents>Factory TimePeriod</parents>
			<probabilities>0.9995633187772925 0.0004366812227074236 0.9995633187772925 0.0004366812227074236 0.9995633187772925 0.0004366812227074236 0.9991150442477876 0.0008849557522123894 0.9983333333333333 0.001666666666666667 0.9954545454545454 0.004545454545454546 0.9916666666666667 0.008333333333333333 0.9916666666666667 0.008333333333333333 0.9900000000000001 0.01 0.9900000000000001 0.01 0.9900000000000001 0.01 0.9900000000000001 0.01 0.9900000000000001 0.01 0.9888888888888889 0.01111111111111111 0.9888888888888889 0.01111111111111111 0.9888888888888889 0.01111111111111111 0.9888888888888889 0.01111111111111111 0.9888888888888889 0.01111111111111111 0.9888888888888889 0.01111111111111111 0.9888888888888889 0.01111111111111111 0.9888888888888889 0.01111111111111111 0.9888888888888889 0.01111111111111111 0.9888888888888889 0.01111111111111111 0.9888888888888889 0.01111111111111111 0.9888888888888889 0.01111111111111111 0.9 0.1 0.9 0.1 0.9 0.1 0.9991452991452993 0.0008547008547008548 0.5935294117647059 0.4064705882352941 0.1293269230769231 0.8706730769230769 0.06405529953917051 0.9359447004608295 0.008755760368663594 0.9912442396313363 0.01780821917808219 0.9821917808219177 0.01324200913242009 0.9867579908675799 0.01330275229357798 0.9866972477064221 0.004147465437788019 0.9958525345622119 0.004147465437788019 0.9958525345622119 0.004147465437788019 0.9958525345622119 0.004166666666666667 0.9958333333333332 0.004186046511627907 0.9958139534883721 0.004245283018867925 0.9957547169811321 0.004285714285714286 0.9957142857142858 0.00430622009569378 0.9956937799043062 0.004326923076923077 0.9956730769230769 0.004411764705882353 0.9955882352941176 0.004522613065326633 0.9954773869346734 0.004545454545454546 0.9954545454545455 0.004615384615384616 0.9953846153846153 0.0046875 0.9953124999999999</probabilities>
		</cpt>
		<cpt id="Armory">
			<state id="Absent" />
			<state id="Present" />
			<parents>Factory TimePeriod</parents>
			<probabilities>0.9995633187772925 0.0004366812227074236 0.9995633187772925 0.0004366812227074236 0.9995633187772925 0.0004366812227074236 0.9991150442477876 0.0008849557522123894 0.9983333333333333 0.001666666666666667 0.9954545454545454 0.004545454545454546 0.9916666666666667 0.008333333333333333 0.9916666666666667 0.008333333333333333 0.9900000000000001 0.01 0.9900000000000001 0.01 0.9900000000000001 0.01 0.9900000000000001 0.01 0.9900000000000001 0.01 0.9888888888888889 0.01111111111111111 0.9888888888888889 0.01111111111111111 0.9888888888888889 0.01111111111111111 0.9888888888888889 0.01111111111111111 0.9888888888888889 0.01111111111111111 0.9888888888888889 0.01111111111111111 0.9888888888888889 0.01111111111111111 0.9888888888888889 0.01111111111111111 0.9888888888888889 0.01111111111111111 0.9888888888888889 0.01111111111111111 0.9888888888888889 0.01111111111111111 0.9888888888888889 0.01111111111111111 0.9 0.1 0.9 0.1 0.9 0.1 0.9991452991452993 0.0008547008547008548 0.9994117647058823 0.0005882352941176471 0.9995192307692309 0.0004807692307692308 0.9949308755760369 0.005069124423963134 0.9350230414746544 0.06497695852534562 0.826027397260274 0.173972602739726 0.7438356164383562 0.2561643835616438 0.6509174311926607 0.3490825688073395 0.5433179723502305 0.4566820276497696 0.4419354838709678 0.5580645161290322 0.395852534562212 0.604147465437788 0.3467592592592593 0.6532407407407407 0.2832558139534884 0.7167441860465116 0.2306603773584905 0.7693396226415094 0.170952380952381 0.8290476190476191 0.1430622009569378 0.8569377990430621 0.1293269230769231 0.8706730769230769 0.1220588235294118 0.8779411764705882 0.1050251256281407 0.8949748743718593 0.1005050505050505 0.8994949494949496 0.08666666666666666 0.9133333333333333 0.03072916666666667 0.9692708333333333</probabilities>
		</cpt>
		<cpt id="Starport">
			<state id="Absent" />
			<state id="Present" />
			<parents>Factory TimePeriod</parents>
			<probabilities>0.9995633187772925 0.0004366812227074236 0.9995633187772925 0.0004366812227074236 0.9995633187772925 0.0004366812227074236 0.9991150442477876 0.0008849557522123894 0.9983333333333333 0.001666666666666667 0.9954545454545454 0.004545454545454546 0.9916666666666667 0.008333333333333333 0.9916666666666667 0.008333333333333333 0.9900000000000001 0.01 0.9900000000000001 0.01 0.9900000000000001 0.01 0.9900000000000001 0.01 0.9900000000000001 0.01 0.9888888888888889 0.01111111111111111 0.9888888888888889 0.01111111111111111 0.9888888888888889 0.01111111111111111 0.9888888888888889 0.01111111111111111 0.9888888888888889 0.01111111111111111 0.9888888888888889 0.01111111111111111 0.9888888888888889 0.01111111111111111 0.9888888888888889 0.01111111111111111 0.9888888888888889 0.01111111111111111 0.9888888888888889 0.01111111111111111 0.9888888888888889 0.01111111111111111 0.9888888888888889 0.01111111111111111 0.9 0.1 0.9 0.1 0.9 0.1 0.9991452991452993 0.0008547008547008548 0.9641176470588235 0.03588235294117647 0.9177884615384616 0.08221153846153848 0.8705069124423963 0.1294930875576037 0.8520737327188941 0.147926267281106 0.8123287671232876 0.1876712328767123 0.784931506849315 0.2150684931506849 0.7380733944954129 0.2619266055045872 0.6631336405529954 0.3368663594470046 0.6032258064516129 0.3967741935483871 0.5294930875576037 0.4705069124423963 0.4578703703703704 0.5421296296296296 0.4041860465116279 0.5958139534883721 0.325 0.6749999999999999 0.2661904761904762 0.7338095238095238 0.2291866028708134 0.7708133971291865 0.1918269230769231 0.8081730769230769 0.1808823529411765 0.8191176470588235 0.1603015075376884 0.8396984924623115 0.1358585858585859 0.8641414141414142 0.1174358974358974 0.8825641025641026 0.04114583333333333 0.9588541666666666</probabilities>
		</cpt>
		<cpt id="ControlTower">
			<state id="Absent" />
			<state id="Present" />
			<parents>Starport TimePeriod</parents>
			<probabilities>0.9995633187772925 0.0004366812227074236 0.9995633187772925 0.0004366812227074236 0.9995633187772925 0.0004366812227074236 0.9995633187772925 0.0004366812227074236 0.9995515695067265 0.0004484304932735426 0.9995283018867924 0.0004716981132075472 0.9995000000000001 0.0005 0.9994897959183673 0.000510204081632653 0.9994652406417112 0.0005347593582887701 0.9994475138121547 0.0005524861878453039 0.9994117647058823 0.0005882352941176471 0.9993464052287583 0.0006535947712418301 0.9992857142857143 0.0007142857142857143 0.9991869918699189 0.0008130081300813009 0.9990654205607477 0.0009345794392523364 0.9989473684210527 0.001052631578947368 0.9987012987012989 0.001298701298701299 0.9984375 0.0015625 0.9982142857142856 0.001785714285714286 0.9979166666666666 0.002083333333333333 0.9977777777777778 0.002222222222222222 0.9975000000000001 0.002500000000000001 0.9971428571428571 0.002857142857142857 0.996774193548387 0.003225806451612903 0.99375 0.00625 0.9 0.1 0.9 0.1 0.9 0.1 0.9 0.1 0.9857142857142858 0.01428571428571429 0.8277777777777777 0.1722222222222222 0.4793103448275862 0.5206896551724137 0.3 0.7000000000000001 0.1880952380952381 0.8119047619047619 0.2270833333333333 0.7729166666666667 0.2396551724137931 0.7603448275862069 0.2959459459459459 0.7040540540540541 0.3091954022988506 0.6908045977011494 0.2320388349514563 0.7679611650485436 0.2533898305084746 0.7466101694915254 0.224031007751938 0.7759689922480619 0.2145833333333333 0.7854166666666665 0.1864516129032258 0.8135483870967741 0.1290123456790123 0.8709876543209876 0.1355029585798817 0.8644970414201183 0.1125 0.8875 0.08273809523809524 0.9172619047619047 0.08662790697674419 0.9133720930232557 0.09190751445086705 0.9080924855491329 0.05351351351351352 0.9464864864864865</probabilities>
		</cpt>
		<cpt id="ScienceFacility">
			<state id="Absent" />
			<state id="Present" />
			<parents>Starport TimePeriod</parents>
			<probabilities>0.9995633187772925 0.0004366812227074236 0.9995633187772925 0.0004366812227074236 0.9995633187772925 0.0004366812227074236 0.9995633187772925 0.0004366812227074236 0.9995515695067265 0.0004484304932735426 0.9995283018867924 0.0004716981132075472 0.9995000000000001 0.0005 0.9994897959183673 0.000510204081632653 0.9994652406417112 0.0005347593582887701 0.9994475138121547 0.0005524861878453039 0.9994117647058823 0.0005882352941176471 0.9993464052287583 0.0006535947712418301 0.9992857142857143 0.0007142857142857143 0.9991869918699189 0.0008130081300813009 0.9990654205607477 0.0009345794392523364 0.9989473684210527 0.001052631578947368 0.9987012987012989 0.001298701298701299 0.9984375 0.0015625 0.9982142857142856 0.001785714285714286 0.9979166666666666 0.002083333333333333 0.9977777777777778 0.002222222222222222 0.9975000000000001 0.002500000000000001 0.9971428571428571 0.002857142857142857 0.996774193548387 0.003225806451612903 0.99375 0.00625 0.9 0.1 0.9 0.1 0.9 0.1 0.9 0.1 0.9857142857142858 0.01428571428571429 0.9944444444444444 0.005555555555555556 0.9965517241379309 0.003448275862068966 0.996969696969697 0.003030303030303031 0.9976190476190475 0.002380952380952381 0.9770833333333333 0.02291666666666667 0.9637931034482759 0.03620689655172414 0.9310810810810812 0.06891891891891892 0.803448275862069 0.196551724137931 0.7271844660194174 0.2728155339805825 0.5669491525423729 0.4330508474576271 0.4875968992248062 0.5124031007751938 0.4368055555555555 0.5631944444444443 0.3606451612903226 0.6393548387096774 0.2833333333333333 0.7166666666666666 0.2301775147928994 0.7698224852071005 0.1779761904761905 0.8220238095238095 0.1601190476190476 0.8398809523809523 0.1505813953488372 0.8494186046511627 0.138150289017341 0.8618497109826588 0.04810810810810811 0.9518918918918919</probabilities>
		</cpt>
		<cpt id="PhysicsLab">
			<state id="Absent" />
			<state id="Present" />
			<parents>ScienceFacility TimePeriod</parents>
			<probabilities>0.9995633187772925 0.0004366812227074236 0.9995633187772925 0.0004366812227074236 0.9995633187772925 0.0004366812227074236 0.9995633187772925 0.0004366812227074236 0.9995633187772925 0.0004366812227074236 0.9995633187772925 0.0004366812227074236 0.9995614035087719 0.0004385964912280702 0.9995614035087719 0.0004385964912280702 0.9995614035087719 0.0004385964912280702 0.9995594713656388 0.0004405286343612336 0.9995555555555555 0.0004444444444444445 0.9995475113122173 0.0004524886877828055 0.9995215311004785 0.0004784688995215311 0.999492385786802 0.0005076142131979696 0.9994219653179191 0.0005780346820809249 0.9993630573248409 0.0006369426751592357 0.9992805755395684 0.0007194244604316548 0.9991596638655462 0.0008403361344537816 0.9990099009900991 0.0009900990099009901 0.9988372093023257 0.001162790697674419 0.9986486486486488 0.001351351351351351 0.9984848484848486 0.001515151515151515 0.9983333333333333 0.001666666666666667 0.9981481481481481 0.001851851851851852 0.9958333333333332 0.004166666666666667 0.9 0.1 0.9 0.1 0.9 0.1 0.9 0.1 0.9 0.1 0.9 0.1 0.9 0.1 0.9 0.1 0.9 0.1 0.95 0.05 0.9666666666666666 0.03333333333333333 0.9833333333333334 0.01666666666666667 0.9944444444444444 0.005555555555555556 0.9965517241379309 0.003448275862068966 0.9980769230769231 0.001923076923076923 0.9985074626865672 0.001492537313432836 0.9987804878048782 0.001219512195121951 0.9990000000000001 0.001 0.9991452991452993 0.0008547008547008548 0.999236641221374 0.0007633587786259542 0.9992805755395684 0.0007194244604316548 0.9992957746478874 0.0007042253521126761 0.9993197278911564 0.0006802721088435375 0.9993333333333334 0.0006666666666666668 0.9937853107344633 0.006214689265536724</probabilities>
		</cpt>
		<cpt id="CovertOps">
			<state id="Absent" />
			<state id="Present" />
			<parents>ScienceFacility TimePeriod</parents>
			<probabilities>0.9995633187772925 0.0004366812227074236 0.9995633187772925 0.0004366812227074236 0.9995633187772925 0.0004366812227074236 0.9995633187772925 0.0004366812227074236 0.9995633187772925 0.0004366812227074236 0.9995633187772925 0.0004366812227074236 0.9995614035087719 0.0004385964912280702 0.9995614035087719 0.0004385964912280702 0.9995614035087719 0.0004385964912280702 0.9995594713656388 0.0004405286343612336 0.9995555555555555 0.0004444444444444445 0.9995475113122173 0.0004524886877828055 0.9995215311004785 0.0004784688995215311 0.999492385786802 0.0005076142131979696 0.9994219653179191 0.0005780346820809249 0.9993630573248409 0.0006369426751592357 0.9992805755395684 0.0007194244604316548 0.9991596638655462 0.0008403361344537816 0.9990099009900991 0.0009900990099009901 0.9988372093023257 0.001162790697674419 0.9986486486486488 0.001351351351351351 0.9984848484848486 0.001515151515151515 0.9983333333333333 0.001666666666666667 0.9981481481481481 0.001851851851851852 0.9958333333333332 0.004166666666666667 0.9 0.1 0.9 0.1 0.9 0.1 0.9 0.1 0.9 0.1 0.9 0.1 0.9 0.1 0.9 0.1 0.9 0.1 0.95 0.05 0.9666666666666666 0.03333333333333333 0.9833333333333334 0.01666666666666667 0.9944444444444444 0.005555555555555556 0.9965517241379309 0.003448275862068966 0.9980769230769231 0.001923076923076923 0.9985074626865672 0.001492537313432836 0.9987804878048782 0.001219512195121951 0.9990000000000001 0.001 0.9991452991452993 0.0008547008547008548 0.983969465648855 0.01603053435114504 0.9848920863309354 0.01510791366906475 0.9852112676056338 0.0147887323943662 0.9857142857142858 0.01428571428571429 0.9793333333333334 0.02066666666666667 0.9485875706214689 0.05141242937853107</probabilities>
		</cpt>
		<cpt id="NuclearSilo">
			<state id="Absent" />
			<state id="Present" />
			<parents>CovertOps TimePeriod</parents>
			<probabilities>0.9995633187772925 0.0004366812227074236 0.9995633187772925 0.0004366812227074236 0.9995633187772925 0.0004366812227074236 0.9995633187772925 0.0004366812227074236 0.9995633187772925 0.0004366812227074236 0.9995633187772925 0.0004366812227074236 0.9995614035087719 0.0004385964912280702 0.9995614035087719 0.0004385964912280702 0.9995614035087719 0.0004385964912280702 0.9995614035087719 0.0004385964912280702 0.9995594713656388 0.0004405286343612336 0.9995575221238938 0.0004424778761061947 0.9995575221238938 0.0004424778761061947 0.9995555555555555 0.0004444444444444445 0.9995535714285714 0.0004464285714285714 0.9995515695067265 0.0004484304932735426 0.9995454545454545 0.0004545454545454546 0.9995412844036699 0.0004587155963302753 0.9995391705069124 0.0004608294930875576 0.9995327102803738 0.0004672897196261682 0.9995238095238096 0.0004761904761904762 0.9995121951219512 0.0004878048780487805 0.9995098039215686 0.0004901960784313725 0.9995000000000001 0.0005 0.999476439790576 0.0005235602094240838 0.9 0.1 0.9 0.1 0.9 0.1 0.9 0.1 0.9 0.1 0.9 0.1 0.9 0.1 0.9 0.1 0.9 0.1 0.9 0.1 0.9 0.1 0.9 0.1 0.9 0.1 0.9 0.1 0.9 0.1 0.9 0.1 0.9 0.1 0.9 0.1 0.9 0.1 0.9666666666666666 0.03333333333333333 0.6333333333333333 0.3666666666666667 0.6333333333333333 0.3666666666666667 0.6333333333333333 0.3666666666666667 0.725 0.275 0.4900000000000001 0.51</probabilities>
		</cpt>
		<cpt id="Marine">
			<state id="Absent" />
			<state id="Present" />
			<parents>Barracks TimePeriod</parents>
			<probabilities>0.9995633187772925 0.0004366812227074236 0.9995433789954338 0.00045662100456621 0.998901098901099 0.001098901098901099 0.990909090909091 0.009090909090909092 0.9900000000000001 0.01 0.9888888888888889 0.01111111111111111 0.9888888888888889 0.01111111111111111 0.9888888888888889 0.01111111111111111 0.9888888888888889 0.01111111111111111 0.9888888888888889 0.01111111111111111 0.9888888888888889 0.01111111111111111 0.9888888888888889 0.01111111111111111 0.9888888888888889 0.01111111111111111 0.9888888888888889 0.01111111111111111 0.9888888888888889 0.01111111111111111 0.9888888888888889 0.01111111111111111 0.9888888888888889 0.01111111111111111 0.9888888888888889 0.01111111111111111 0.9888888888888889 0.01111111111111111 0.9888888888888889 0.01111111111111111 0.9888888888888889 0.01111111111111111 0.9888888888888889 0.01111111111111111 0.9888888888888889 0.01111111111111111 0.9888888888888889 0.01111111111111111 0.9888888888888889 0.01111111111111111 0.9 0.1 0.990909090909091 0.009090909090909092 0.9992805755395684 0.0007194244604316548 0.2004566210045662 0.7995433789954337 0.02681818181818182 0.9731818181818182 0.008597285067873304 0.9914027149321267 0.004090909090909091 0.9959090909090909 0.004090909090909091 0.9959090909090909 0.004090909090909091 0.9959090909090909 0.004090909090909091 0.9959090909090909 0.00410958904109589 0.9958904109589041 0.004128440366972477 0.9958715596330275 0.004128440366972477 0.9958715596330275 0.004147465437788019 0.9958525345622119 0.004166666666666667 0.9958333333333332 0.004186046511627907 0.9958139534883721 0.004245283018867925 0.9957547169811321 0.004285714285714286 0.9957142857142858 0.00430622009569378 0.9956937799043062 0.004326923076923077 0.9956730769230769 0.004411764705882353 0.9955882352941176 0.004522613065326633 0.9954773869346734 0.004545454545454546 0.9954545454545455 0.004615384615384616 0.9953846153846153 0.0046875 0.9953124999999999</probabilities>
		</cpt>
		<cpt id="Firebat">
			<state id="Absent" />
			<state id="Present" />
			<parents>Academy TimePeriod</parents>
			<probabilities>0.9995633187772925 0.0004366812227074236 0.9995633187772925 0.0004366812227074236 0.9995633187772925 0.0004366812227074236 0.9995633187772925 0.0004366812227074236 0.9995594713656388 0.0004405286343612336 0.9995555555555555 0.0004444444444444445 0.9995348837209303 0.0004651162790697675 0.9995098039215686 0.0004901960784313725 0.9994444444444445 0.0005555555555555556 0.9993288590604027 0.0006711409395973155 0.9992000000000001 0.0008 0.9990476190476192 0.0009523809523809525 0.9987951807228916 0.001204819277108434 0.9983333333333333 0.001666666666666667 0.9981481481481481 0.001851851851851852 0.9977272727272727 0.002272727272727273 0.9972222222222221 0.002777777777777778 0.9965517241379309 0.003448275862068966 0.9961538461538462 0.003846153846153846 0.9952380952380951 0.004761904761904762 0.9944444444444444 0.005555555555555556 0.9941176470588234 0.005882352941176471 0.99375 0.00625 0.9928571428571429 0.007142857142857143 0.990909090909091 0.009090909090909092 0.9 0.1 0.9 0.1 0.9 0.1 0.9 0.1 0.9666666666666666 0.03333333333333333 0.9800000000000001 0.02 0.9214285714285714 0.07857142857142857 0.9159999999999999 0.08400000000000001 0.9571428571428571 0.04285714285714286 0.9737500000000001 0.02625 0.9699029126213592 0.03009708737864078 0.9663934426229509 0.03360655737704918 0.9645833333333334 0.03541666666666666 0.9692771084337351 0.03072289156626506 0.9760233918128655 0.0239766081871345 0.9772222222222223 0.02277777777777778 0.977837837837838 0.02216216216216216 0.9731578947368421 0.02684210526315789 0.9734375 0.0265625 0.9739795918367347 0.0260204081632653 0.9738461538461539 0.02615384615384615 0.9732984293193718 0.02670157068062827 0.9732984293193718 0.02670157068062827 0.9731578947368421 0.02684210526315789 0.9731578947368421 0.02684210526315789</probabilities>
		</cpt>
		<cpt id="Medic">
			<state id="Absent" />
			<state id="Present" />
			<parents>Academy TimePeriod</parents>
			<probabilities>0.9995633187772925 0.0004366812227074236 0.9995633187772925 0.0004366812227074236 0.9995633187772925 0.0004366812227074236 0.9995633187772925 0.0004366812227074236 0.9995594713656388 0.0004405286343612336 0.9995555555555555 0.0004444444444444445 0.9995348837209303 0.0004651162790697675 0.9995098039215686 0.0004901960784313725 0.9994444444444445 0.0005555555555555556 0.9993288590604027 0.0006711409395973155 0.9992000000000001 0.0008 0.9990476190476192 0.0009523809523809525 0.9987951807228916 0.001204819277108434 0.9983333333333333 0.001666666666666667 0.9981481481481481 0.001851851851851852 0.9977272727272727 0.002272727272727273 0.9972222222222221 0.002777777777777778 0.9965517241379309 0.003448275862068966 0.9961538461538462 0.003846153846153846 0.9952380952380951 0.004761904761904762 0.9944444444444444 0.005555555555555556 0.9941176470588234 0.005882352941176471 0.99375 0.00625 0.9928571428571429 0.007142857142857143 0.990909090909091 0.009090909090909092 0.9 0.1 0.9 0.1 0.9 0.1 0.9 0.1 0.9666666666666666 0.03333333333333333 0.9800000000000001 0.02 0.7785714285714286 0.2214285714285714 0.836 0.164 0.8959183673469386 0.1040816326530612 0.9362500000000001 0.06375 0.9310679611650485 0.06893203883495144 0.9418032786885247 0.05819672131147541 0.9506944444444444 0.04930555555555555 0.9572289156626507 0.0427710843373494 0.9584795321637427 0.04152046783625731 0.9605555555555556 0.03944444444444444 0.9670270270270271 0.03297297297297298 0.9678947368421053 0.03210526315789473 0.9682291666666667 0.03177083333333333 0.9688775510204081 0.03112244897959183 0.9687179487179487 0.03128205128205128 0.9680628272251309 0.03193717277486911 0.9680628272251309 0.03193717277486911 0.9678947368421053 0.03210526315789473 0.9678947368421053 0.03210526315789473</probabilities>
		</cpt>
		<cpt id="Vulture">
			<state id="Absent" />
			<state id="Present" />
			<parents>Factory TimePeriod</parents>
			<probabilities>0.9995633187772925 0.0004366812227074236 0.9995633187772925 0.0004366812227074236 0.9995633187772925 0.0004366812227074236 0.9991150442477876 0.0008849557522123894 0.9983333333333333 0.001666666666666667 0.9954545454545454 0.004545454545454546 0.9916666666666667 0.008333333333333333 0.9916666666666667 0.008333333333333333 0.9900000000000001 0.01 0.9900000000000001 0.01 0.9900000000000001 0.01 0.9900000000000001 0.01 0.9900000000000001 0.01 0.9888888888888889 0.01111111111111111 0.9888888888888889 0.01111111111111111 0.9888888888888889 0.01111111111111111 0.9888888888888889 0.01111111111111111 0.9888888888888889 0.01111111111111111 0.9888888888888889 0.01111111111111111 0.9888888888888889 0.01111111111111111 0.9888888888888889 0.01111111111111111 0.9888888888888889 0.01111111111111111 0.9888888888888889 0.01111111111111111 0.9888888888888889 0.01111111111111111 0.9888888888888889 0.01111111111111111 0.9 0.1 0.9 0.1 0.9 0.1 0.9991452991452993 0.0008547008547008548 0.9523529411764706 0.04764705882352941 0.8168269230769232 0.1831730769230769 0.5755760368663595 0.4244239631336405 0.4649769585253457 0.5350230414746544 0.328310502283105 0.6716894977168949 0.2643835616438356 0.7356164383561643 0.1463302752293578 0.8536697247706422 0.08709677419354837 0.9129032258064516 0.03640552995391706 0.9635944700460829 0.0271889400921659 0.9728110599078341 0.02268518518518519 0.9773148148148148 0.01813953488372093 0.981860465116279 0.01367924528301887 0.9863207547169811 0.01380952380952381 0.9861904761904763 0.0138755980861244 0.9861244019138755 0.01394230769230769 0.9860576923076924 0.0142156862745098 0.9857843137254901 0.01457286432160804 0.9854271356783919 0.01464646464646465 0.9853535353535354 0.01487179487179487 0.9851282051282051 0.01510416666666667 0.9848958333333333</probabilities>
		</cpt>
		<cpt id="SpiderMine">
			<state id="Absent" />
			<state id="Present" />
			<parents>MachineShop Vulture TimePeriod</parents>
			<probabilities>0.9995633187772925 0.0004366812227074236 0.9995633187772925 0.0004366812227074236 0.9995633187772925 0.0004366812227074236 0.9995633187772925 0.0004366812227074236 0.9993421052631579 0.0006578947368421053 0.9975000000000001 0.002500000000000001 0.9954545454545454 0.004545454545454546 0.9923076923076923 0.007692307692307693 0.9923076923076923 0.007692307692307693 0.9916666666666667 0.008333333333333333 0.9916666666666667 0.008333333333333333 0.9900000000000001 0.01 0.9900000000000001 0.01 0.9888888888888889 0.01111111111111111 0.9888888888888889 0.01111111111111111 0.9888888888888889 0.01111111111111111 0.9888888888888889 0.01111111111111111 0.9888888888888889 0.01111111111111111 0.9888888888888889 0.01111111111111111 0.9888888888888889 0.01111111111111111 0.9888888888888889 0.01111111111111111 0.9888888888888889 0.01111111111111111 0.9888888888888889 0.01111111111111111 0.9888888888888889 0.01111111111111111 0.9888888888888889 0.01111111111111111 0.9 0.1 0.9 0.1 0.9 0.1 0.9 0.1 0.9888888888888889 0.01111111111111111 0.9888888888888889 0.01111111111111111 0.975 0.025 0.9 0.1 0.9 0.1 0.9 0.1 0.9 0.1 0.9 0.1 0.9 0.1 0.9 0.1 0.9 0.1 0.9 0.1 0.9 0.1 0.9 0.1 0.9 0.1 0.9 0.1 0.9 0.1 0.9 0.1 0.9 0.1 0.9 0.1 0.9 0.1 0.9 0.1 0.9 0.1 0.9 0.1 0.9 0.1 0.9985714285714287 0.001428571428571429 0.9993421052631579 0.0006578947368421053 0.9991304347826088 0.0008695652173913044 0.9990000000000001 0.001 0.9985507246376812 0.001449275362318841 0.9982142857142856 0.001785714285714286 0.9966666666666666 0.003333333333333334 0.994736842105263 0.005263157894736842 0.9875 0.0125 0.9833333333333334 0.01666666666666667 0.9800000000000001 0.02 0.975 0.025 0.9666666666666666 0.03333333333333333 0.9666666666666666 0.03333333333333333 0.9666666666666666 0.03333333333333333 0.9666666666666666 0.03333333333333333 0.9666666666666666 0.03333333333333333 0.9666666666666666 0.03333333333333333 0.9666666666666666 0.03333333333333333 0.9666666666666666 0.03333333333333333 0.9666666666666666 0.03333333333333333 0.9 0.1 0.9 0.1 0.9 0.1 0.9 0.1 0.9 0.1 0.996774193548387 0.003225806451612903 0.9988888888888889 0.001111111111111111 0.9991452991452993 0.0008547008547008548 0.9993243243243244 0.0006756756756756757 0.9993827160493827 0.0006172839506172839 0.9994652406417112 0.0005347593582887701 0.999497487437186 0.0005025125628140704 0.9995238095238096 0.0004761904761904762 0.9995283018867924 0.0004716981132075472 0.9995283018867924 0.0004716981132075472 0.9995283018867924 0.0004716981132075472 0.9995238095238096 0.0004761904761904762 0.9995192307692309 0.0004807692307692308 0.9995169082125603 0.0004830917874396135 0.9995145631067961 0.0004854368932038835 0.9995049504950495 0.0004950495049504951 0.999492385786802 0.0005076142131979696 0.9994897959183673 0.000510204081632653 0.9994818652849742 0.0005181347150259068 0.9994736842105263 0.0005263157894736842</probabilities>
		</cpt>
		<cpt id="SiegeTank">
			<state id="Absent" />
			<state id="Present" />
			<parents>MachineShop TimePeriod</parents>
			<probabilities>0.9995633187772925 0.0004366812227074236 0.9995633187772925 0.0004366812227074236 0.9995633187772925 0.0004366812227074236 0.9995633187772925 0.0004366812227074236 0.9993750000000001 0.0006250000000000001 0.9979166666666666 0.002083333333333333 0.996 0.004 0.9923076923076923 0.007692307692307693 0.9923076923076923 0.007692307692307693 0.9916666666666667 0.008333333333333333 0.9916666666666667 0.008333333333333333 0.9900000000000001 0.01 0.9900000000000001 0.01 0.9888888888888889 0.01111111111111111 0.9888888888888889 0.01111111111111111 0.9888888888888889 0.01111111111111111 0.9888888888888889 0.01111111111111111 0.9888888888888889 0.01111111111111111 0.9888888888888889 0.01111111111111111 0.9888888888888889 0.01111111111111111 0.9888888888888889 0.01111111111111111 0.9888888888888889 0.01111111111111111 0.9888888888888889 0.01111111111111111 0.9888888888888889 0.01111111111111111 0.9888888888888889 0.01111111111111111 0.9 0.1 0.9 0.1 0.9 0.1 0.9 0.1 0.9985714285714287 0.001428571428571429 0.9994505494505496 0.0005494505494505496 0.9995098039215686 0.0004901960784313725 0.999537037037037 0.000462962962962963 0.999537037037037 0.000462962962962963 0.9995391705069124 0.0004608294930875576 0.999537037037037 0.000462962962962963 0.9995391705069124 0.0004608294930875576 0.9995391705069124 0.0004608294930875576 0.9995391705069124 0.0004608294930875576 0.999537037037037 0.000462962962962963 0.9995348837209303 0.0004651162790697675 0.9995283018867924 0.0004716981132075472 0.9995238095238096 0.0004761904761904762 0.9995215311004785 0.0004784688995215311 0.9995192307692309 0.0004807692307692308 0.9995098039215686 0.0004901960784313725 0.999497487437186 0.0005025125628140704 0.9994949494949497 0.0005050505050505052 0.9994871794871795 0.0005128205128205128 0.9994791666666667 0.0005208333333333333</probabilities>
		</cpt>
		<cpt id="Goliath">
			<state id="Absent" />
			<state id="Present" />
			<parents>Armory TimePeriod</parents>
			<probabilities>0.9995633187772925 0.0004366812227074236 0.9995633187772925 0.0004366812227074236 0.9995633187772925 0.0004366812227074236 0.9995633187772925 0.0004366812227074236 0.9995633187772925 0.0004366812227074236 0.9995633187772925 0.0004366812227074236 0.9995594713656388 0.0004405286343612336 0.9995327102803738 0.0004672897196261682 0.9994736842105263 0.0005263157894736842 0.9994186046511628 0.0005813953488372093 0.999337748344371 0.0006622516556291391 0.9992125984251968 0.0007874015748031496 0.9990476190476192 0.0009523809523809525 0.998936170212766 0.001063829787234043 0.9987951807228916 0.001204819277108434 0.9985507246376812 0.001449275362318841 0.9982456140350876 0.001754385964912281 0.9977272727272727 0.002272727272727273 0.9973684210526315 0.002631578947368421 0.9971428571428571 0.002857142857142857 0.996969696969697 0.003030303030303031 0.9965517241379309 0.003448275862068966 0.9964285714285713 0.003571428571428571 0.996 0.004 0.9928571428571429 0.007142857142857143 0.9 0.1 0.9 0.1 0.9 0.1 0.9 0.1 0.9 0.1 0.9 0.1 0.95 0.05 0.9933333333333333 0.006666666666666667 0.9974358974358973 0.002564102564102564 0.8403508771929824 0.1596491228070175 0.7909090909090909 0.2090909090909091 0.7590000000000001 0.241 0.7532786885245902 0.2467213114754099 0.7265151515151516 0.2734848484848485 0.6683098591549297 0.3316901408450704 0.6251612903225807 0.3748387096774194 0.5969512195121952 0.4030487804878049 0.5365714285714286 0.4634285714285714 0.4550000000000001 0.545 0.4060439560439561 0.593956043956044 0.3383333333333333 0.6616666666666666 0.2787709497206704 0.7212290502793296 0.2452513966480447 0.7547486033519553 0.2173184357541899 0.78268156424581 0.02085561497326203 0.9791443850267378</probabilities>
		</cpt>
		<cpt id="Valkyrie">
			<state id="Absent" />
			<state id="Present" />
			<parents>Armory ControlTower TimePeriod</parents>
			<probabilities>0.9995633187772925 0.0004366812227074236 0.9995633187772925 0.0004366812227074236 0.9995633187772925 0.0004366812227074236 0.9995633187772925 0.0004366812227074236 0.9995633187772925 0.0004366812227074236 0.9995575221238938 0.0004424778761061947 0.9995283018867924 0.0004716981132075472 0.9994791666666667 0.0005208333333333333 0.9993670886075949 0.0006329113924050633 0.9992753623188406 0.0007246376811594203 0.9991452991452993 0.0008547008547008548 0.9989247311827958 0.001075268817204301 0.9987012987012989 0.001298701298701299 0.9985074626865672 0.001492537313432836 0.9982456140350876 0.001754385964912281 0.9977777777777778 0.002222222222222222 0.9971428571428571 0.002857142857142857 0.9966666666666666 0.003333333333333334 0.9958333333333332 0.004166666666666667 0.9954545454545454 0.004545454545454546 0.9952380952380951 0.004761904761904762 0.9944444444444444 0.005555555555555556 0.9944444444444444 0.005555555555555556 0.99375 0.00625 0.9900000000000001 0.01 0.9 0.1 0.9 0.1 0.9 0.1 0.9 0.1 0.9 0.1 0.975 0.025 0.99375 0.00625 0.9956521739130434 0.004347826086956522 0.996969696969697 0.003030303030303031 0.9971428571428571 0.002857142857142857 0.9971428571428571 0.002857142857142857 0.9971428571428571 0.002857142857142857 0.9965517241379309 0.003448275862068966 0.9964285714285713 0.003571428571428571 0.9962962962962962 0.003703703703703704 0.996 0.004 0.9956521739130434 0.004347826086956522 0.9933333333333333 0.006666666666666667 0.9933333333333333 0.006666666666666667 0.9928571428571429 0.007142857142857143 0.9923076923076923 0.007692307692307693 0.9916666666666667 0.008333333333333333 0.990909090909091 0.009090909090909092 0.9900000000000001 0.01 0.9800000000000001 0.02 0.9 0.1 0.9 0.1 0.9 0.1 0.9 0.1 0.9 0.1 0.9 0.1 0.95 0.05 0.9928571428571429 0.007142857142857143 0.9972972972972973 0.002702702702702703 0.9981481481481481 0.001851851851851852 0.9985074626865672 0.001492537313432836 0.9987804878048782 0.001219512195121951 0.9988888888888889 0.001111111111111111 0.9987500000000001 0.00125 0.9987500000000001 0.00125 0.99873417721519 0.001265822784810127 0.9986301369863014 0.00136986301369863 0.9984126984126983 0.001587301587301587 0.9981132075471697 0.001886792452830189 0.9979591836734693 0.002040816326530612 0.9976744186046511 0.002325581395348837 0.9972222222222221 0.002777777777777778 0.996875 0.003125 0.996774193548387 0.003225806451612903 0.99375 0.00625 0.9 0.1 0.9 0.1 0.9 0.1 0.9 0.1 0.9 0.1 0.9 0.1 0.9 0.1 0.95 0.05 0.9666666666666666 0.03333333333333333 0.975 0.025 0.990909090909091 0.009090909090909092 0.994736842105263 0.005263157894736842 0.996969696969697 0.003030303030303031 0.9981132075471697 0.001886792452830189 0.9984126984126983 0.001587301587301587 0.9987012987012989 0.001298701298701299 0.9989130434782609 0.00108695652173913 0.9991150442477876 0.0008849557522123894 0.99921875 0.00078125 0.9992537313432837 0.0007462686567164179 0.9992753623188406 0.0007246376811594203 0.9993055555555556 0.0006944444444444445 0.9993243243243244 0.0006756756756756757 0.9993288590604027 0.0006711409395973155 0.9994186046511628 0.0005813953488372093</probabilities>
		</cpt>
		<cpt id="Dropship">
			<state id="Absent" />
			<state id="Present" />
			<parents>ControlTower TimePeriod</parents>
			<probabilities>0.9995633187772925 0.0004366812227074236 0.9995633187772925 0.0004366812227074236 0.9995633187772925 0.0004366812227074236 0.9995633187772925 0.0004366812227074236 0.9995633187772925 0.0004366812227074236 0.9995575221238938 0.0004424778761061947 0.9995305164319249 0.0004694835680751174 0.9995121951219512 0.0004878048780487805 0.9994845360824742 0.0005154639175257732 0.999476439790576 0.0005235602094240838 0.9994535519125684 0.000546448087431694 0.9994252873563219 0.0005747126436781609 0.9993975903614458 0.0006024096385542169 0.9993150684931507 0.0006849315068493151 0.9992647058823529 0.0007352941176470588 0.9991869918699189 0.0008130081300813009 0.9990654205607477 0.0009345794392523364 0.9989130434782609 0.00108695652173913 0.9986842105263158 0.001315789473684211 0.9985714285714287 0.001428571428571429 0.9984126984126983 0.001587301587301587 0.9981132075471697 0.001886792452830189 0.9979591836734693 0.002040816326530612 0.9978260869565216 0.002173913043478261 0.996 0.004 0.9 0.1 0.9 0.1 0.9 0.1 0.9 0.1 0.9 0.1 0.975 0.025 0.74375 0.25625 0.3291666666666667 0.6708333333333334 0.2257142857142857 0.7742857142857144 0.1026315789473684 0.8973684210526316 0.1977777777777778 0.8022222222222223 0.1867924528301887 0.8132075471698114 0.1950819672131148 0.8049180327868853 0.33625 0.6637500000000001 0.2685393258426966 0.7314606741573033 0.2465346534653465 0.7534653465346535 0.2973684210526316 0.7026315789473684 0.3377952755905512 0.6622047244094488 0.3795774647887324 0.6204225352112676 0.3598639455782313 0.6401360544217687 0.366 0.634 0.3864516129032258 0.6135483870967742 0.3854430379746835 0.6145569620253164 0.3537974683544304 0.6462025316455696 0.3176136363636364 0.6823863636363636</probabilities>
		</cpt>
		<cpt id="Wraith">
			<state id="Absent" />
			<state id="Present" />
			<parents>Starport TimePeriod</parents>
			<probabilities>0.9995633187772925 0.0004366812227074236 0.9995633187772925 0.0004366812227074236 0.9995633187772925 0.0004366812227074236 0.9995633187772925 0.0004366812227074236 0.9995515695067265 0.0004484304932735426 0.9995283018867924 0.0004716981132075472 0.9995000000000001 0.0005 0.9994897959183673 0.000510204081632653 0.9994652406417112 0.0005347593582887701 0.9994475138121547 0.0005524861878453039 0.9994117647058823 0.0005882352941176471 0.9993464052287583 0.0006535947712418301 0.9992857142857143 0.0007142857142857143 0.9991869918699189 0.0008130081300813009 0.9990654205607477 0.0009345794392523364 0.9989473684210527 0.001052631578947368 0.9987012987012989 0.001298701298701299 0.9984375 0.0015625 0.9982142857142856 0.001785714285714286 0.9979166666666666 0.002083333333333333 0.9977777777777778 0.002222222222222222 0.9975000000000001 0.002500000000000001 0.9971428571428571 0.002857142857142857 0.996774193548387 0.003225806451612903 0.99375 0.00625 0.9 0.1 0.9 0.1 0.9 0.1 0.9 0.1 0.9857142857142858 0.01428571428571429 0.9944444444444444 0.005555555555555556 0.9965517241379309 0.003448275862068966 0.9666666666666667 0.03333333333333334 0.9738095238095237 0.02619047619047619 0.8729166666666666 0.1270833333333333 0.7913793103448276 0.2086206896551724 0.768918918918919 0.2310810810810811 0.7459770114942529 0.2540229885057471 0.7660194174757281 0.2339805825242718 0.7703389830508475 0.2296610169491526 0.7666666666666667 0.2333333333333333 0.7770833333333334 0.2229166666666667 0.7929032258064517 0.2070967741935484 0.7833333333333333 0.2166666666666667 0.7804733727810651 0.2195266272189349 0.7791666666666667 0.2208333333333333 0.7791666666666667 0.2208333333333333 0.7784883720930232 0.2215116279069768 0.7739884393063584 0.2260115606936416 0.7616216216216217 0.2383783783783784</probabilities>
		</cpt>
		<cpt id="ScienceVessel">
			<state id="Absent" />
			<state id="Present" />
			<parents>ControlTower ScienceFacility TimePeriod</parents>
			<probabilities>0.9995633187772925 0.0004366812227074236 0.9995633187772925 0.0004366812227074236 0.9995633187772925 0.0004366812227074236 0.9995633187772925 0.0004366812227074236 0.9995633187772925 0.0004366812227074236 0.9995575221238938 0.0004424778761061947 0.9995305164319249 0.0004694835680751174 0.9995121951219512 0.0004878048780487805 0.9994845360824742 0.0005154639175257732 0.999476439790576 0.0005235602094240838 0.9994505494505496 0.0005494505494505496 0.9994219653179191 0.0005780346820809249 0.9993750000000001 0.0006250000000000001 0.9992805755395684 0.0007194244604316548 0.9992000000000001 0.0008 0.9991150442477876 0.0008849557522123894 0.9989583333333334 0.001041666666666667 0.9987804878048782 0.001219512195121951 0.9985074626865672 0.001492537313432836 0.9983333333333333 0.001666666666666667 0.9981132075471697 0.001886792452830189 0.9978723404255319 0.002127659574468085 0.9976744186046511 0.002325581395348837 0.9975000000000001 0.002500000000000001 0.995 0.005000000000000001 0.9 0.1 0.9 0.1 0.9 0.1 0.9 0.1 0.9 0.1 0.9 0.1 0.9 0.1 0.9 0.1 0.9 0.1 0.9 0.1 0.95 0.05 0.95 0.05 0.9857142857142858 0.01428571428571429 0.9875 0.0125 0.9916666666666667 0.008333333333333333 0.990909090909091 0.009090909090909092 0.9916666666666667 0.008333333333333333 0.990909090909091 0.009090909090909092 0.9900000000000001 0.01 0.990909090909091 0.009090909090909092 0.990909090909091 0.009090909090909092 0.9857142857142858 0.01428571428571429 0.9857142857142858 0.01428571428571429 0.9857142857142858 0.01428571428571429 0.9833333333333334 0.01666666666666667 0.9 0.1 0.9 0.1 0.9 0.1 0.9 0.1 0.9 0.1 0.975 0.025 0.99375 0.00625 0.9958333333333332 0.004166666666666667 0.9971428571428571 0.002857142857142857 0.9972972972972973 0.002702702702702703 0.9977272727272727 0.002272727272727273 0.9979591836734693 0.002040816326530612 0.998 0.002 0.9983050847457627 0.001694915254237288 0.9979591836734693 0.002040816326530612 0.9977777777777778 0.002222222222222222 0.9977272727272727 0.002272727272727273 0.9973684210526315 0.002631578947368421 0.9971428571428571 0.002857142857142857 0.9962962962962962 0.003703703703703704 0.9954545454545454 0.004545454545454546 0.995 0.005000000000000001 0.9944444444444444 0.005555555555555556 0.9933333333333333 0.006666666666666667 0.9800000000000001 0.02 0.9 0.1 0.9 0.1 0.9 0.1 0.9 0.1 0.9 0.1 0.9 0.1 0.9 0.1 0.9 0.1 0.9 0.1 0.45 0.55 0.45 0.55 0.78 0.22 0.9083333333333333 0.09166666666666667 0.8136363636363636 0.1863636363636363 0.802439024390244 0.1975609756097561 0.7350877192982456 0.2649122807017544 0.5901408450704225 0.4098591549295775 0.5655555555555556 0.4344444444444445 0.5453703703703703 0.4546296296296296 0.4206611570247934 0.5793388429752066 0.3325581395348837 0.6674418604651162 0.3154411764705882 0.6845588235294117 0.2546099290780142 0.7453900709219857 0.2006944444444444 0.7993055555555555 0.09244186046511628 0.9075581395348836</probabilities>
		</cpt>
		<cpt id="Battlecruiser">
			<state id="Absent" />
			<state id="Present" />
			<parents>PhysicsLab TimePeriod</parents>
			<probabilities>0.9995633187772925 0.0004366812227074236 0.9995633187772925 0.0004366812227074236 0.9995633187772925 0.0004366812227074236 0.9995633187772925 0.0004366812227074236 0.9995633187772925 0.0004366812227074236 0.9995633187772925 0.0004366812227074236 0.9995614035087719 0.0004385964912280702 0.9995614035087719 0.0004385964912280702 0.9995614035087719 0.0004385964912280702 0.9995614035087719 0.0004385964912280702 0.9995594713656388 0.0004405286343612336 0.9995575221238938 0.0004424778761061947 0.9995575221238938 0.0004424778761061947 0.9995555555555555 0.0004444444444444445 0.9995535714285714 0.0004464285714285714 0.9995515695067265 0.0004484304932735426 0.9995454545454545 0.0004545454545454546 0.9995412844036699 0.0004587155963302753 0.9995391705069124 0.0004608294930875576 0.999537037037037 0.000462962962962963 0.9995283018867924 0.0004716981132075472 0.9995169082125603 0.0004830917874396135 0.9995145631067961 0.0004854368932038835 0.9995073891625617 0.0004926108374384237 0.999497487437186 0.0005025125628140704 0.9 0.1 0.9 0.1 0.9 0.1 0.9 0.1 0.9 0.1 0.9 0.1 0.9 0.1 0.9 0.1 0.9 0.1 0.9 0.1 0.9 0.1 0.9 0.1 0.9 0.1 0.9 0.1 0.9 0.1 0.9 0.1 0.9 0.1 0.9 0.1 0.9 0.1 0.9 0.1 0.9 0.1 0.9 0.1 0.9 0.1 0.9 0.1 0.45 0.55</probabilities>
		</cpt>
		<cpt id="Ghost">
			<state id="Absent" />
			<state id="Present" />
			<parents>CovertOps TimePeriod</parents>
			<probabilities>0.9995633187772925 0.0004366812227074236 0.9995633187772925 0.0004366812227074236 0.9995633187772925 0.0004366812227074236 0.9995633187772925 0.0004366812227074236 0.9995633187772925 0.0004366812227074236 0.9995633187772925 0.0004366812227074236 0.9995614035087719 0.0004385964912280702 0.9995614035087719 0.0004385964912280702 0.9995614035087719 0.0004385964912280702 0.9995614035087719 0.0004385964912280702 0.9995594713656388 0.0004405286343612336 0.9995575221238938 0.0004424778761061947 0.9995575221238938 0.0004424778761061947 0.9995555555555555 0.0004444444444444445 0.9995535714285714 0.0004464285714285714 0.9995515695067265 0.0004484304932735426 0.9995454545454545 0.0004545454545454546 0.9995412844036699 0.0004587155963302753 0.9995391705069124 0.0004608294930875576 0.9995327102803738 0.0004672897196261682 0.9995238095238096 0.0004761904761904762 0.9995121951219512 0.0004878048780487805 0.9995098039215686 0.0004901960784313725 0.9995000000000001 0.0005 0.999476439790576 0.0005235602094240838 0.9 0.1 0.9 0.1 0.9 0.1 0.9 0.1 0.9 0.1 0.9 0.1 0.9 0.1 0.9 0.1 0.9 0.1 0.9 0.1 0.9 0.1 0.9 0.1 0.9 0.1 0.9 0.1 0.9 0.1 0.9 0.1 0.9 0.1 0.9 0.1 0.9 0.1 0.9666666666666666 0.03333333333333333 0.6333333333333333 0.3666666666666667 0.3 0.7 0.3 0.7 0.475 0.525 0.29 0.71</probabilities>
		</cpt>
		<cpt id="NuclearMissile">
			<state id="Absent" />
			<state id="Present" />
			<parents>NuclearSilo Ghost TimePeriod</parents>
			<probabilities>0.4995300689344002 0.5004699310655998 0.7019492432321931 0.2980507567678069 0.5036408285115664 0.4963591714884335 0.4273966353479474 0.5726033646520526 0.3570188479117141 0.6429811520882858 0.7982827919674687 0.2017172080325314 0.7026293421501125 0.2973706578498874 0.5447520659181122 0.4552479340818879 0.7027059674157077 0.2972940325842922 0.4276161325640536 0.5723838674359464 0.880644419005194 0.1193555809948062 0.3967819719984366 0.6032180280015634 0.6748988167651205 0.3251011832348795 0.3989605236429053 0.6010394763570948 0.7932334467930718 0.2067665532069283 0.5409650583078987 0.4590349416921014 0.7838354455011778 0.2161645544988223 0.1490815332851919 0.8509184667148081 0.5419448037450073 0.4580551962549928 0.4773093571569526 0.5226906428430473 0.5322318019361354 0.4677681980638646 0.4574587549095758 0.5425412450904242 0.4938956059488762 0.5061043940511238 0.6288981161576654 0.3711018838423346 0.3995616640445676 0.6004383359554324 0.9 0.1 0.9 0.1 0.9 0.1 0.9 0.1 0.9 0.1 0.9 0.1 0.9 0.1 0.9 0.1 0.9 0.1 0.9 0.1 0.9 0.1 0.9 0.1 0.9 0.1 0.9 0.1 0.9 0.1 0.9 0.1 0.9 0.1 0.9 0.1 0.9 0.1 0.9 0.1 0.8467913930651931 0.153208606934807 0.8422061937446732 0.1577938062553269 0.8565402122882684 0.1434597877117317 0.8471242006611049 0.1528757993388951 0.559455853361374 0.4405441466386259 0.9 0.1 0.9 0.1 0.9 0.1 0.9 0.1 0.9 0.1 0.9 0.1 0.9 0.1 0.9 0.1 0.9 0.1 0.9 0.1 0.9 0.1 0.9 0.1 0.9 0.1 0.9 0.1 0.9 0.1 0.9 0.1 0.9 0.1 0.9 0.1 0.9 0.1 0.9 0.1 0.8718037814573396 0.1281962185426605 0.9 0.1 0.9 0.1 0.9 0.1 0.7946424647522624 0.2053575352477375 0.9 0.1 0.9 0.1 0.9 0.1 0.9 0.1 0.9 0.1 0.9 0.1 0.9 0.1 0.9 0.1 0.9 0.1 0.9 0.1 0.9 0.1 0.9 0.1 0.9 0.1 0.9 0.1 0.9 0.1 0.9 0.1 0.9 0.1 0.9 0.1 0.9 0.1 0.9 0.1 0.9 0.1 0.8444798609515575 0.1555201390484426 0.8177812352695077 0.1822187647304923 0.8340202319574159 0.165979768042584 0.7846703070147573 0.2153296929852427</probabilities>
		</cpt>
		<cpt id="InfantryWeapons1">
			<state id="Absent" />
			<state id="Present" />
			<parents>EngineeringBay TimePeriod</parents>
			<probabilities>0.2717975605824548 0.7282024394175451 0.336170772143124 0.6638292278568758 0.2756909840397102 0.7243090159602897 0.5557372782892042 0.444262721710796 0.6702055564208411 0.3297944435791589 0.3982495957397913 0.6017504042602088 0.4523723176738472 0.5476276823261529 0.4197019508686911 0.580298049131309 0.8079184275409667 0.1920815724590334 0.117234677694197 0.882765322305803 0.4144425861145981 0.585557413885402 0.7239048748444518 0.2760951251555482 0.1380065424781144 0.8619934575218855 0.1156941303310248 0.8843058696689752 0.3960133541167955 0.6039866458832045 0.366616412019574 0.633383587980426 0.7777912477118628 0.2222087522881371 0.4941750127127881 0.5058249872872119 0.5120502532623747 0.4879497467376253 0.309943177497147 0.6900568225028531 0.5653939570460634 0.4346060429539366 0.9404072071168196 0.05959279288318045 0.5498635211178486 0.4501364788821514 0.4951746491385787 0.5048253508614214 0.5986914039212122 0.4013085960787877 0.9 0.1 0.9 0.1 0.9 0.1 0.9 0.1 0.9 0.1 0.8342814896884833 0.1657185103115168 0.4556861870505646 0.5443138129494354 0.8192932243149743 0.1807067756850257 0.4810623660285244 0.5189376339714756 0.6815331414552637 0.3184668585447364 0.6114642010006428 0.3885357989993573 0.4902913605876448 0.5097086394123552 0.1421902499097703 0.8578097500902298 0.7014949270562225 0.2985050729437774 0.8082965220931142 0.1917034779068858 0.5718233787611566 0.4281766212388434 0.4301082425266944 0.5698917574733056 0.2934278761755826 0.7065721238244174 0.8070447264028864 0.1929552735971135 0.08349289876924401 0.916507101230756 0.5482507926662726 0.4517492073337274 0.6396105312379368 0.3603894687620632 0.6854877082680272 0.3145122917319728 0.3145493677716557 0.6854506322283444 0.4960087193324293 0.5039912806675707</probabilities>
		</cpt>
		<cpt id="InfantryArmor1">
			<state id="Absent" />
			<state id="Present" />
			<parents>TimePeriod EngineeringBay</parents>
			<probabilities>0.9948262998252946 0.005173700174705401 0.9 0.1 0.1298773373485032 0.870122662651497 0.9 0.1 0.4038259890697465 0.5961740109302536 0.9 0.1 0.1936935368995251 0.8063064631004749 0.9 0.1 0.5321421794021448 0.4678578205978552 0.9 0.1 0.7261792440556464 0.2738207559443535 0.8371904098618079 0.1628095901381921 0.0700453067529984 0.9299546932470016 0.6816523159610286 0.3183476840389714 0.06898082268862404 0.9310191773113761 0.04504648125843944 0.9549535187415605 0.8037417451036771 0.1962582548963229 0.3568798310999714 0.6431201689000285 0.06203214961385511 0.9379678503861449 0.6462090304726287 0.3537909695273713 0.8409590897626708 0.1590409102373294 0.7382961324314167 0.2617038675685834 0.2825630317504119 0.7174369682495881 0.5072895551653825 0.4927104448346176 0.7009295727668373 0.2990704272331628 0.5479873423125667 0.4520126576874333 0.1086946856762687 0.8913053143237314 0.5050261876868838 0.4949738123131163 0.3316065543481119 0.668393445651888 0.5238407368739226 0.4761592631260773 0.538918969734245 0.4610810302657549 0.8552000882477854 0.1447999117522146 0.3877818303648768 0.6122181696351231 0.5463399493442138 0.4536600506557862 0.489714421098497 0.5102855789015031 0.7064835288728378 0.2935164711271621 0.602776827101978 0.3972231728980221 0.3410954346854824 0.6589045653145177 0.3804784051119942 0.6195215948880058 0.5988848314306818 0.4011151685693181 0.673820118578109 0.326179881421891 0.7165234382629985 0.2834765617370016 0.570624757128361 0.4293752428716389 0.2052297091891633 0.7947702908108367 0.5658746224893 0.4341253775107 0.07760835934890573 0.9223916406510943 0.7856727754559107 0.2143272245440892 0.3711823387613835 0.6288176612386165 0.4361346953754264 0.5638653046245735 0.5677220862970773 0.4322779137029227</probabilities>
		</cpt>
		<cpt id="StimPacks">
			<state id="Absent" />
			<state id="Present" />
			<parents>Academy TimePeriod</parents>
			<probabilities>0.7581539446139004 0.2418460553860997 0.1777320608277153 0.8222679391722847 0.643703653720124 0.3562963462798761 0.8358849496617672 0.1641150503382328 0.9019380556825136 0.09806194431748644 0.06010013273866769 0.9398998672613323 0.5007824542321241 0.4992175457678759 0.5555252362828126 0.4444747637171875 0.9671625408407719 0.03283745915922819 0.3102385268569791 0.6897614731430208 0.805219602653805 0.194780397346195 0.45750787312186 0.54249212687814 0.9396272015251419 0.06037279847485799 0.6549976038267457 0.3450023961732544 0.05778690866540109 0.9422130913345989 0.6128646826705645 0.3871353173294356 0.3281278279693738 0.6718721720306261 0.6716904514766966 0.3283095485233035 0.5186283677077102 0.48137163229229 0.8064363032081625 0.1935636967918375 0.1508833740644807 0.8491166259355192 0.5195742364496642 0.4804257635503358 0.1670270755874328 0.8329729244125672 0.6284595534967017 0.3715404465032982 0.5034874535857059 0.4965125464142942 0.9 0.1 0.9 0.1 0.9 0.1 0.9 0.1 0.7978731633865829 0.2021268366134171 0.6455613045237082 0.3544386954762919 0.1947090029287961 0.805290997071204 0.5935212426147556 0.4064787573852444 0.4729133068515126 0.5270866931484873 0.3550466668629503 0.6449533331370497 0.8701484140644888 0.1298515859355111 0.5857080992039172 0.4142919007960828 0.8548685853224877 0.1451314146775122 0.8595463341422839 0.1404536658577161 0.4937765656110356 0.5062234343889644 0.1309107227875987 0.8690892772124013 0.07104385176806469 0.9289561482319353 0.9331077320023854 0.06689226799761458 0.7286494741339241 0.2713505258660758 0.3487785263861045 0.6512214736138955 0.4809406474401829 0.5190593525598171 0.5824681942696115 0.4175318057303886 0.5583397757867185 0.4416602242132816 0.8448463558581238 0.1551536441418762 0.3497302144289803 0.6502697855710196</probabilities>
		</cpt>
		<cpt id="U238Shells">
			<state id="Absent" />
			<state id="Present" />
			<parents>Academy TimePeriod</parents>
			<probabilities>0.8589331195154601 0.1410668804845398 0.7517634284319954 0.2482365715680047 0.2278096452680146 0.7721903547319854 0.3002172138617458 0.6997827861382542 0.5862810921364607 0.4137189078635393 0.2334984510967572 0.7665015489032429 0.05602344038732398 0.9439765596126761 0.5698495719249461 0.4301504280750539 0.2827264714651749 0.7172735285348252 0.8275450044940074 0.1724549955059926 0.9418748709089495 0.05812512909105055 0.9176185898794882 0.08238141012051189 0.6438001009368282 0.3561998990631717 0.1037829110355082 0.8962170889644918 0.3754778328275535 0.6245221671724465 0.7162092760567822 0.2837907239432177 0.5444839645612577 0.4555160354387423 0.3057396181026195 0.6942603818973806 0.8912720335707143 0.1087279664292858 0.7624619254476235 0.2375380745523766 0.7995961401769766 0.2004038598230233 0.6598391824092991 0.340160817590701 0.6538417331249478 0.3461582668750523 0.5442566243159788 0.4557433756840212 0.7412076518974594 0.2587923481025406 0.9 0.1 0.9 0.1 0.9 0.1 0.9 0.1 0.8005603340880982 0.1994396659119017 0.6771823094837532 0.3228176905162467 0.5950810578787952 0.4049189421212047 0.8852626336314305 0.1147373663685694 0.3274995467001362 0.6725004532998639 0.3414979169257735 0.6585020830742266 0.8612102000158434 0.1387897999841567 0.5085544818082657 0.4914455181917344 0.484119570898168 0.5158804291018319 0.2323603523827488 0.7676396476172511 0.6474390879578925 0.3525609120421075 0.7742216650651358 0.2257783349348643 0.6699945681086015 0.3300054318913986 0.334946863459429 0.665053136540571 0.3402246218357704 0.6597753781642296 0.1377819129585454 0.8622180870414546 0.5263846679119253 0.4736153320880747 0.2544888063844312 0.745511193615569 0.695597820022351 0.3044021799776489 0.1975739314116871 0.8024260685883129 0.7015832158784173 0.2984167841215827</probabilities>
		</cpt>
		<cpt id="CharonBoosters">
			<state id="Absent" />
			<state id="Present" />
			<parents>MachineShop TimePeriod</parents>
			<probabilities>0.4581888350977855 0.5418111649022146 0.2434870789166095 0.7565129210833905 0.7836237073706585 0.2163762926293416 0.604955021172783 0.3950449788272172 0.5771431149067069 0.4228568850932932 0.6189653627576566 0.3810346372423435 0.7583899886019819 0.2416100113980181 0.395726263082589 0.604273736917411 0.7350176306203425 0.2649823693796574 0.6412952702093632 0.3587047297906367 0.6569536210032281 0.3430463789967718 0.6582957820042945 0.3417042179957054 0.7158290715939309 0.284170928406069 0.4499830454401397 0.5500169545598601 0.5049747269900505 0.4950252730099495 0.7165665002855198 0.2834334997144801 0.7692111399568247 0.2307888600431753 0.4697534170124769 0.5302465829875229 0.4992087805561629 0.500791219443837 0.4759758434022066 0.5240241565977933 0.7518904921209174 0.2481095078790825 0.3851585074123721 0.614841492587628 0.7248013404931728 0.2751986595068271 0.6365909222513601 0.3634090777486399 0.6300338418605674 0.3699661581394326 0.9 0.1 0.9 0.1 0.9 0.1 0.9 0.1 0.160506014424723 0.839493985575277 0.1961963061165229 0.8038036938834771 0.5280649442544668 0.4719350557455332 0.9694599073165957 0.03054009268340434 0.751430159702388 0.2485698402976121 0.1925371671459268 0.8074628328540733 0.5984493371447204 0.4015506628552795 0.3931450849721901 0.60685491502781 0.8187918518712509 0.1812081481287492 0.9466855344370981 0.05331446556290173 0.5327087546261838 0.4672912453738161 0.1580256641295013 0.8419743358704986 0.5244525493937253 0.4755474506062747 0.1743480561381077 0.8256519438618925 0.199307587933174 0.8006924120668258 0.6357682793979979 0.3642317206020023 0.2001714579954993 0.7998285420045006 0.5077921192190921 0.4922078807809079 0.6765047502995957 0.3234952497004044 0.4687018981051127 0.5312981018948874 0.5747587046675158 0.4252412953324842</probabilities>
		</cpt>
		<cpt id="Tank_Siege_Mode">
			<state id="Absent" />
			<state id="Present" />
			<parents>MachineShop TimePeriod</parents>
			<probabilities>0.1379996972814515 0.8620003027185486 0.2219180713260329 0.7780819286739672 0.6184813991810759 0.381518600818924 0.9682665729957839 0.03173342700421605 0.02775460576682319 0.9722453942331767 0.6172690071034621 0.3827309928965378 0.525282283910513 0.4747177160894869 0.6215849254782312 0.3784150745217689 0.4396425811625292 0.5603574188374708 0.5941684644490082 0.4058315355509917 0.7434098685053285 0.2565901314946713 0.7077478875060241 0.292252112493976 0.4091107076812919 0.5908892923187082 0.6168897590892775 0.3831102409107224 0.3087704170537727 0.6912295829462273 0.444744430969657 0.555255569030343 0.649197344142073 0.350802655857927 0.6747552804551239 0.3252447195448761 0.7015446036876809 0.298455396312319 0.7439652549184427 0.2560347450815573 0.6565781387875408 0.3434218612124592 0.6324770879777524 0.3675229120222476 0.5609382920139693 0.4390617079860307 0.3835396845080694 0.6164603154919306 0.5855033035015912 0.4144966964984089 0.9 0.1 0.9 0.1 0.9 0.1 0.9 0.1 0.5913265419362608 0.4086734580637392 0.655384118097138 0.344615881902862 0.6284512983120487 0.3715487016879513 0.03647311829882852 0.9635268817011716 0.5680016676413098 0.4319983323586901 0.8748688395319504 0.1251311604680495 0.522426295175779 0.477573704824221 0.9016346751340502 0.09836532486594982 0.5462742945439888 0.4537257054560112 0.2780984368203009 0.7219015631796991 0.6899740388008202 0.3100259611991799 0.3921867550011436 0.6078132449988565 0.2655908067105695 0.7344091932894307 0.6077635604657791 0.3922364395342209 0.2628653853719746 0.7371346146280253 0.2678931913877551 0.7321068086122449 0.5764712568337398 0.4235287431662602 0.7459769539250065 0.2540230460749937 0.7526309961152324 0.2473690038847677 0.9785824600289955 0.02141753997100458 0.5032684742302829 0.496731525769717</probabilities>
		</cpt>
		<cpt id="VehicleWeapons1">
			<state id="Absent" />
			<state id="Present" />
			<parents>Armory TimePeriod</parents>
			<probabilities>0.1066406813225492 0.8933593186774508 0.9881742930070838 0.01182570699291623 0.6577002590777967 0.3422997409222032 0.5418667244278298 0.4581332755721703 0.7107644788812836 0.2892355211187165 0.5082713452660661 0.4917286547339339 0.4856159014781759 0.5143840985218241 0.3563949803665823 0.6436050196334178 0.4479048964420729 0.5520951035579272 0.8967562118965858 0.1032437881034141 0.5196799925174223 0.4803200074825779 0.9211663954689217 0.07883360453107841 0.5621503898873116 0.4378496101126885 0.4114422426172749 0.5885577573827252 0.07312844433676161 0.9268715556632383 0.4312999851141988 0.5687000148858012 0.523159555179007 0.4768404448209928 0.4199598943961964 0.5800401056038037 0.7517102190733155 0.2482897809266844 0.8439631868170547 0.1560368131829452 0.9292265902427295 0.07077340975727053 0.5331627079510288 0.4668372920489712 0.7909116474766915 0.2090883525233084 0.775269631704806 0.224730368295194 0.479126310935323 0.5208736890646769 0.9 0.1 0.9 0.1 0.9 0.1 0.9 0.1 0.9 0.1 0.9 0.1 0.8537950117872661 0.1462049882127338 0.6617814369611318 0.3382185630388683 0.1240895318235088 0.8759104681764912 0.2226599445675444 0.7773400554324556 0.3766338349356442 0.6233661650643558 0.5511498863340683 0.4488501136659317 0.5663959997508833 0.4336040002491167 0.7798070635650769 0.2201929364349231 0.07864728306331702 0.921352716936683 0.317043231349433 0.682956768650567 0.5117350264043074 0.4882649735956927 0.3081347434028635 0.6918652565971365 0.50939333962858 0.49060666037142 0.3004052621344786 0.6995947378655214 0.3506157623410897 0.6493842376589104 0.5826694449390804 0.4173305550609198 0.5437617705712783 0.4562382294287218 0.1636512877067921 0.8363487122932077 0.4792170008124898 0.5207829991875103</probabilities>
		</cpt>
		<cpt id="VehiclePlating1">
			<state id="Absent" />
			<state id="Present" />
			<parents>Armory TimePeriod</parents>
			<probabilities>0.1808702984951752 0.8191297015048248 0.5060867931777254 0.4939132068222745 0.4332050112179353 0.5667949887820648 0.6491168321437999 0.3508831678562001 0.4110758537174266 0.5889241462825734 0.2423562125567588 0.7576437874432412 0.4964453370156531 0.503554662984347 0.1943729938805094 0.8056270061194905 0.9043241684914106 0.09567583150858945 0.4717261038806623 0.5282738961193376 0.194421036035061 0.805578963964939 0.594805161043492 0.405194838956508 0.5009728550690337 0.4990271449309665 0.2953663898270151 0.7046336101729848 0.7201997914254219 0.2798002085745782 0.7180659766386954 0.2819340233613047 0.1817124652604613 0.8182875347395386 0.6496248037526036 0.3503751962473965 0.7984320120054474 0.2015679879945525 0.6977221630593377 0.3022778369406625 0.08928240829943794 0.9107175917005622 0.5527467936850716 0.4472532063149284 0.8257897985926194 0.1742102014073806 0.3211452154799148 0.6788547845200853 0.7358206876458514 0.2641793123541485 0.9 0.1 0.9 0.1 0.9 0.1 0.9 0.1 0.9 0.1 0.9 0.1 0.868461906716663 0.1315380932833371 0.4868144246279353 0.5131855753720647 0.4184188005604166 0.5815811994395834 0.5006258439861375 0.4993741560138625 0.05652420325994962 0.9434757967400504 0.8356022373589158 0.1643977626410841 0.1762939215011563 0.8237060784988437 0.1058773572305355 0.8941226427694646 0.8277804260924394 0.1722195739075606 0.1027122134701226 0.8972877865298774 0.555957859784928 0.4440421402150719 0.6578706718893875 0.3421293281106125 0.137101691880794 0.8628983081192061 0.2964436484231635 0.7035563515768366 0.6157325648624732 0.3842674351375269 0.6093673563607321 0.3906326436392677 0.5932932961581727 0.4067067038418273 0.4483399836698708 0.5516600163301294 0.4123465359654412 0.5876534640345589</probabilities>
		</cpt>
		<cpt id="ShipWeapons1">
			<state id="Absent" />
			<state id="Present" />
			<parents>Armory TimePeriod</parents>
			<probabilities>0.9846760479198886 0.01532395208011147 0.3694556765946745 0.6305443234053255 0.3215717665731902 0.6784282334268098 0.8905564728275958 0.1094435271724043 0.1947147483917177 0.8052852516082824 0.9071083426897117 0.09289165731028824 0.9869380102118044 0.01306198978819558 0.09310704600342679 0.9068929539965731 0.596250246436238 0.4037497535637621 0.9497446253662459 0.05025537463375403 0.3664763344815215 0.6335236655184786 0.5016721107419118 0.4983278892580882 0.8009936608792861 0.1990063391207139 0.8302011621042166 0.1697988378957834 0.4945606460772022 0.5054393539227977 0.5035706210657525 0.4964293789342475 0.3588560845006911 0.6411439154993088 0.7154844407418666 0.2845155592581333 0.2930928180867515 0.7069071819132484 0.2479300891798669 0.7520699108201332 0.6485175460587119 0.351482453941288 0.7638182845885509 0.2361817154114491 0.3719348657901982 0.6280651342098019 0.7057634674562904 0.2942365325437097 0.7369067654057568 0.2630932345942431 0.9 0.1 0.9 0.1 0.9 0.1 0.9 0.1 0.9 0.1 0.9 0.1 0.8367565408267275 0.1632434591732727 0.4653284689737325 0.5346715310262674 0.7998165255359332 0.200183474464067 0.4852403159739123 0.5147596840260879 0.5827163944655898 0.4172836055344103 0.287326911955871 0.7126730880441291 0.5845986889010141 0.4154013110989859 0.835931839580018 0.1640681604199819 0.4135777083838546 0.5864222916161455 0.4075944225148714 0.5924055774851287 0.5093833335748377 0.4906166664251623 0.3336353533095642 0.6663646466904358 0.1744433883356152 0.8255566116643849 0.1593817142284654 0.8406182857715348 0.8461662108296248 0.1538337891703752 0.3253023558098467 0.6746976441901533 0.3206089751442766 0.6793910248557236 0.6896945578367569 0.3103054421632429 0.3582228805463624 0.6417771194536376</probabilities>
		</cpt>
		<cpt id="ShipPlating1">
			<state id="Absent" />
			<state id="Present" />
			<parents>Armory TimePeriod</parents>
			<probabilities>0.6344479523778919 0.3655520476221081 0.8742066974626487 0.1257933025373514 0.0794962869705307 0.9205037130294694 0.5904027137462958 0.4095972862537042 0.463133055154869 0.536866944845131 0.6394591276951301 0.3605408723048697 0.2730794784981163 0.7269205215018838 0.629358012970882 0.3706419870291179 0.485151919482164 0.514848080517836 0.5602538180944764 0.4397461819055235 0.7314496412821052 0.2685503587178947 0.4830281215476684 0.5169718784523315 0.5921782737598296 0.4078217262401704 0.9121628002303288 0.08783719976967115 0.2617202844751461 0.7382797155248541 0.4411044396972181 0.5588955603027818 0.7442473065077915 0.2557526934922084 0.8494553564471998 0.1505446435528003 0.682853380343147 0.3171466196568529 0.526830218625247 0.473169781374753 0.2624676613619463 0.7375323386380537 0.7954795959816671 0.204520404018333 0.8244483787640068 0.1755516212359934 0.7256053346587233 0.2743946653412766 0.2318323833704792 0.7681676166295208 0.9 0.1 0.9 0.1 0.9 0.1 0.9 0.1 0.9 0.1 0.9 0.1 0.8016139506954065 0.1983860493045935 0.5111774546669128 0.4888225453330872 0.2989686317322788 0.7010313682677213 0.4439806274327491 0.5560193725672511 0.4481982778795036 0.5518017221204965 0.4447990276680773 0.5552009723319228 0.7333109969977233 0.2666890030022766 0.3958460328786809 0.6041539671213192 0.9327686217464828 0.06723137825351712 0.1719694300300237 0.8280305699699764 0.3317676595163403 0.6682323404836597 0.5449836668800118 0.4550163331199884 0.4307880002055678 0.5692119997944323 0.7196297850368223 0.2803702149631778 0.44868172710614 0.5513182728938599 0.8351376540951276 0.1648623459048724 0.5847383544364033 0.4152616455635967 0.5176755070637381 0.4823244929362619 0.9621836144072085 0.0378163855927915</probabilities>
		</cpt>
		<cpt id="CloakingField">
			<state id="Absent" />
			<state id="Present" />
			<parents>ControlTower TimePeriod</parents>
			<probabilities>0.5297281535546644 0.4702718464453357 0.1088179378765294 0.8911820621234705 0.34258210147352 0.6574178985264801 0.4050088364651862 0.5949911635348137 0.5954747977584173 0.4045252022415827 0.1045523377096794 0.8954476622903207 0.7662261103902974 0.2337738896097026 0.2982288539236833 0.7017711460763167 0.2099000655585004 0.7900999344414996 0.9329075064247194 0.06709249357528063 0.2553817153838778 0.7446182846161222 0.2918893151787397 0.7081106848212604 0.6069250919234176 0.3930749080765824 0.5993642012084068 0.4006357987915932 0.04470924023973973 0.9552907597602602 0.08991722724508695 0.9100827727549131 0.6675589652069817 0.3324410347930184 0.3946220781672942 0.6053779218327058 0.4622799807237437 0.5377200192762563 0.6636461973930744 0.3363538026069255 0.461651186072886 0.5383488139271141 0.5147837918642128 0.4852162081357872 0.6575173150885639 0.3424826849114362 0.5650582028993413 0.4349417971006587 0.2849169966178042 0.7150830033821958 0.9 0.1 0.9 0.1 0.9 0.1 0.9 0.1 0.9 0.1 0.8283692970207949 0.1716307029792051 0.7823568566767671 0.217643143323233 0.2781525875107541 0.7218474124892461 0.8011592476262412 0.1988407523737588 0.7563699879830507 0.2436300120169493 0.0729687844879921 0.927031215512008 0.271066940329568 0.7289330596704321 0.3332916458358519 0.6667083541641482 0.7999346154354107 0.2000653845645893 0.1826148114734846 0.8173851885265154 0.6561525171507908 0.3438474828492091 0.2707230684594544 0.7292769315405457 0.7999334996363479 0.2000665003636523 0.7787707913550281 0.221229208644972 0.9222605355892065 0.07773946441079339 0.4698566650672792 0.5301433349327208 0.4737111454517621 0.5262888545482377 0.3008847530236647 0.6991152469763353 0.4035120482093682 0.5964879517906317 0.1260240303361776 0.8739759696638225</probabilities>
		</cpt>
		<cpt id="YamatoGun">
			<state id="Absent" />
			<state id="Present" />
			<parents>PhysicsLab TimePeriod</parents>
			<probabilities>0.5610583915946594 0.4389416084053406 0.7077464322535261 0.2922535677464739 0.7585216812156288 0.2414783187843712 0.8619599648193304 0.1380400351806697 0.3309725516156929 0.6690274483843071 0.6035389225729915 0.3964610774270086 0.7887149254548247 0.2112850745451753 0.7385853558542272 0.2614146441457728 0.633861911182622 0.3661380888173781 0.5549775361787371 0.4450224638212629 0.8228819686695226 0.1771180313304775 0.7279911708689649 0.272008829131035 0.2856898175366619 0.7143101824633381 0.2118259600051126 0.7881740399948874 0.05801843906933001 0.94198156093067 0.49046486254722 0.50953513745278 0.9221106022839863 0.07788939771601354 0.5231772997134697 0.4768227002865303 0.5252333172366023 0.4747666827633976 0.3433302818704741 0.656669718129526 0.539945231503246 0.4600547684967539 0.8539680002970035 0.1460319997029965 0.7088320394951547 0.2911679605048452 0.5080892360306241 0.4919107639693759 0.2595759934771801 0.74042400652282 0.9 0.1 0.9 0.1 0.9 0.1 0.9 0.1 0.9 0.1 0.9 0.1 0.9 0.1 0.9 0.1 0.9 0.1 0.9 0.1 0.9 0.1 0.9 0.1 0.9 0.1 0.9 0.1 0.9 0.1 0.9 0.1 0.9 0.1 0.9 0.1 0.9 0.1 0.9 0.1 0.9 0.1 0.9 0.1 0.9 0.1 0.9 0.1 0.8560809555478209 0.1439190444521791</probabilities>
		</cpt>
		<cpt id="EMPShockwave">
			<state id="Absent" />
			<state id="Present" />
			<parents>ScienceFacility TimePeriod</parents>
			<probabilities>0.3710783496856708 0.6289216503143292 0.1868569239553251 0.813143076044675 0.4014960918106765 0.5985039081893235 0.2188018731596865 0.7811981268403135 0.4865101472835214 0.5134898527164786 0.6063184618430094 0.3936815381569905 0.104782292241288 0.8952177077587121 0.1674768742145447 0.8325231257854553 0.3926822274196452 0.6073177725803549 0.6339499999386071 0.366050000061393 0.6324278834047664 0.3675721165952335 0.677621203893356 0.3223787961066439 0.2971054437367779 0.7028945562632222 0.1177629786443851 0.882237021355615 0.3489799881647668 0.6510200118352332 0.6901323954757122 0.3098676045242879 0.8349415241570308 0.1650584758429692 0.9740863525850642 0.02591364741493577 0.602291905812922 0.397708094187078 0.3889710563902569 0.6110289436097431 0.425682659078483 0.5743173409215171 0.2242403410576691 0.775759658942331 0.4273953179384256 0.5726046820615744 0.3498498490000225 0.6501501509999775 0.5876260467212973 0.4123739532787028 0.9 0.1 0.9 0.1 0.9 0.1 0.9 0.1 0.9 0.1 0.9 0.1 0.9 0.1 0.9 0.1 0.9 0.1 0.8505187110359 0.1494812889641 0.8093717283955241 0.190628271604476 0.5245344510058601 0.47546554899414 0.7969162794353923 0.2030837205646076 0.6342429742795689 0.3657570257204313 0.1465867486365755 0.8534132513634245 0.9542768557238696 0.0457231442761305 0.2501169729642698 0.7498830270357301 0.571239282649239 0.428760717350761 0.7402020852301583 0.2597979147698417 0.3179723418764538 0.6820276581235463 0.9843336813640585 0.01566631863594143 0.365670260836197 0.634329739163803 0.5303055526166931 0.4696944473833069 0.1508053318227356 0.8491946681772645 0.5385460937528797 0.4614539062471204</probabilities>
		</cpt>
		<cpt id="Irradiate">
			<state id="Absent" />
			<state id="Present" />
			<parents>ScienceFacility TimePeriod</parents>
			<probabilities>0.5831083133702799 0.41689168662972 0.4568816268557377 0.5431183731442624 0.7229564058126935 0.2770435941873065 0.7703237478181316 0.2296762521818684 0.55408089306939 0.44591910693061 0.7173720060788221 0.2826279939211778 0.4731850415318323 0.5268149584681678 0.1771892908848812 0.8228107091151188 0.2141796868451792 0.7858203131548208 0.4166027576278162 0.5833972423721838 0.5491554772343763 0.4508445227656237 0.2436846305115725 0.7563153694884275 0.8574746867749727 0.1425253132250272 0.3924221683421108 0.6075778316578891 0.5187578895935173 0.4812421104064828 0.3282107251742915 0.6717892748257086 0.9355233855748356 0.06447661442516441 0.6329866903600162 0.3670133096399839 0.4812290683493893 0.5187709316506106 0.6708400427870581 0.3291599572129419 0.2810435462622752 0.7189564537377249 0.6580467650394984 0.3419532349605014 0.1019834132252667 0.8980165867747333 0.4644876953959035 0.5355123046040966 0.6894385976433327 0.3105614023566674 0.9 0.1 0.9 0.1 0.9 0.1 0.9 0.1 0.9 0.1 0.9 0.1 0.9 0.1 0.9 0.1 0.9 0.1 0.8348676413578116 0.1651323586421885 0.8740431167465188 0.1259568832534811 0.4995582451721715 0.5004417548278285 0.6319404767947153 0.3680595232052848 0.3130720751921681 0.6869279248078318 0.6597370016509891 0.3402629983490108 0.9823036535805975 0.01769634641940242 0.5191905329441527 0.4808094670558473 0.5309099720880581 0.469090027911942 0.3059600348892295 0.6940399651107706 0.2639314789320044 0.7360685210679957 0.3799025211437169 0.6200974788562832 0.5792649475448219 0.4207350524551783 0.6184101957055332 0.3815898042944668 0.7979004184278906 0.2020995815721094 0.5158734950202785 0.4841265049797215</probabilities>
		</cpt>
		<cpt id="Lockdown">
			<state id="Absent" />
			<state id="Present" />
			<parents>CovertOps TimePeriod</parents>
			<probabilities>0.7380479577038978 0.2619520422961023 0.5152697278168595 0.4847302721831405 0.2006769228156524 0.7993230771843476 0.9230445347503845 0.07695546524961555 0.7879400566589715 0.2120599433410285 0.5915765670458256 0.4084234329541745 0.5813104176271388 0.4186895823728613 0.5896519270051941 0.4103480729948058 0.5698237404187273 0.4301762595812727 0.5847401208389046 0.4152598791610954 0.3642311134801572 0.6357688865198429 0.9317256589303877 0.06827434106961222 0.02461975173766829 0.9753802482623317 0.633470903186398 0.366529096813602 0.5769150675307052 0.4230849324692949 0.3109715086051096 0.6890284913948905 0.6325936351578998 0.3674063648421002 0.5344791395119897 0.4655208604880103 0.5219097528948068 0.478090247105193 0.8497751900720894 0.1502248099279108 0.04651446235670666 0.9534855376432934 0.05768252637384404 0.942317473626156 0.7436702666706231 0.2563297333293769 0.8531340760121884 0.1468659239878117 0.04561304659882495 0.9543869534011751 0.9 0.1 0.9 0.1 0.9 0.1 0.9 0.1 0.9 0.1 0.9 0.1 0.9 0.1 0.9 0.1 0.9 0.1 0.9 0.1 0.9 0.1 0.9 0.1 0.9 0.1 0.9 0.1 0.9 0.1 0.9 0.1 0.9 0.1 0.9 0.1 0.9 0.1 0.7597920133185223 0.2402079866814776 0.8221362582272472 0.1778637417727527 0.6790465486224805 0.3209534513775195 0.7407255280034228 0.2592744719965771 0.5668487560151577 0.4331512439848423 0.6584259752192944 0.3415740247807058</probabilities>
		</cpt>
		<cpt id="PersonnelCloaking">
			<state id="Absent" />
			<state id="Present" />
			<parents>CovertOps TimePeriod</parents>
			<probabilities>0.5652332938449249 0.4347667061550752 0.4500583656396337 0.5499416343603665 0.502881963405998 0.4971180365940019 0.8618504240935619 0.1381495759064381 0.9971148101442663 0.002885189855733758 0.2668040801325155 0.7331959198674846 0.8165231322376827 0.1834768677623173 0.5399218873477214 0.4600781126522787 0.7809628174870054 0.2190371825129947 0.1983644305372379 0.8016355694627622 0.09103936465570979 0.9089606353442902 0.7117070169419045 0.2882929830580953 0.7997677587797506 0.2002322412202495 0.626866605755694 0.373133394244306 0.2685272455013997 0.7314727544986004 0.80955657196911 0.19044342803089 0.3130804841370966 0.6869195158629035 0.5080866435132589 0.4919133564867411 0.06007639134258665 0.9399236086574133 0.4350651912905462 0.5649348087094537 0.5204154357976436 0.4795845642023563 0.3416631554177564 0.6583368445822435 0.3055240013973513 0.6944759986026486 0.5346182004118442 0.4653817995881558 0.5986765342495074 0.4013234657504926 0.9 0.1 0.9 0.1 0.9 0.1 0.9 0.1 0.9 0.1 0.9 0.1 0.9 0.1 0.9 0.1 0.9 0.1 0.9 0.1 0.9 0.1 0.9 0.1 0.9 0.1 0.9 0.1 0.9 0.1 0.9 0.1 0.9 0.1 0.9 0.1 0.9 0.1 0.6444338672449891 0.3555661327550108 0.7556408237184172 0.2443591762815827 0.6691922936609257 0.3308077063390742 0.9197104286266611 0.08028957137333895 0.7458229051142867 0.2541770948857133 0.6420889711692341 0.3579110288307659</probabilities>
		</cpt>
		<cpt id="InfantryArmor2">
			<state id="Absent" />
			<state id="Present" />
			<parents>TimePeriod InfantryArmor1 ScienceFacility</parents>
			<probabilities>0.5475442783690064 0.4524557216309936 0.9 0.1 0.88324113789016 0.1167588621098399 0.9 0.1 0.5055112696194108 0.4944887303805892 0.9 0.1 0.5416889203357062 0.4583110796642939 0.9 0.1 0.8766138652294545 0.1233861347705455 0.9 0.1 0.6039118021180472 0.3960881978819529 0.9 0.1 0.7766144921485956 0.2233855078514044 0.9 0.1 0.7974195104117109 0.2025804895882891 0.9 0.1 0.5142146751055412 0.4857853248944589 0.9 0.1 0.4176323168089082 0.5823676831910918 0.9 0.1 0.5816680341134273 0.4183319658865726 0.9 0.1 0.4089685677948202 0.5910314322051798 0.9 0.1 0.5314024251321505 0.4685975748678495 0.9 0.1 0.7101881933954839 0.289811806604516 0.9 0.1 0.4102439451449211 0.5897560548550789 0.9 0.1 0.8791113920722775 0.1208886079277224 0.9 0.1 0.5059237105404296 0.4940762894595702 0.9 0.1 0.2756486397887684 0.7243513602112317 0.9 0.1 0.1069970321331947 0.8930029678668053 0.879124656046278 0.120875343953722 0.4043154002114394 0.5956845997885606 0.9016063267114892 0.09839367328851083 0.5946184754595697 0.4053815245404301 0.781883822693055 0.2181161773069451 0.8483299759751781 0.1516700240248219 0.8828646178455171 0.117135382154483 0.6675624414834372 0.3324375585165628 0.8234365206974109 0.1765634793025892 0.346853023531179 0.653146976468821 0.799785838140307 0.200214161859693 0.6585177222055402 0.3414822777944599 0.4829322796969245 0.5170677203030756 0.9371147252150206 0.06288527478497924 0.3083913022597832 0.6916086977402167 0.5137985347031117 0.4862014652968883 0.1940720709399446 0.8059279290600554 0.4444254385994058 0.5555745614005943 0.444563741766715 0.5554362582332849 0.473964392353116 0.5260356076468838 0.9401471161173071 0.05985288388269287 0.8970822632740139 0.1029177367259861 0.2719801144218025 0.7280198855781975 0.301935902474788 0.6980640975252119 0.05884886592957234 0.9411511340704277 0.4974207985595829 0.502579201440417 0.8185402557572942 0.1814597442427058 0.4279742275814312 0.5720257724185689 0.08485936627049394 0.9151406337295061 0.1026814437727377 0.8973185562272623 0.4936044852001949 0.5063955147998053 0.4158128208514838 0.5841871791485163 0.6592439017920593 0.3407560982079408 0.1041360512599549 0.8958639487400451 0.6046316226890821 0.3953683773109179 0.5693573142880772 0.4306426857119229 0.3793500757915981 0.620649924208402 0.7746470638389889 0.2253529361610113 0.4867837393578666 0.5132162606421334 0.1631037319829383 0.8368962680170617 0.9704123068520876 0.0295876931479124 0.6110692787250008 0.3889307212749992 0.3478473217232374 0.6521526782767628 0.8254877203124511 0.1745122796875488 0.1332075894212538 0.8667924105787461 0.1471331575308377 0.8528668424691622 0.1729822975574856 0.8270177024425145 0.7270965509876596 0.2729034490123406 0.95962489026553 0.04037510973446994 0.5660672325352758 0.4339327674647243 0.7024958469467946 0.2975041530532054 0.5621330282864494 0.4378669717135507 0.6186060542883508 0.3813939457116491 0.4273077472617071 0.5726922527382928 0.8379568300884294 0.1620431699115707 0.7966471556686412 0.2033528443313587 0.3339652253798891 0.666034774620111 0.2640738111240342 0.7359261888759658 0.4009782607479633 0.5990217392520367 0.6235998840838711 0.3764001159161289 0.3532787569106552 0.6467212430893449 0.556604460019805 0.443395539980195 0.537781252647869 0.462218747352131</probabilities>
		</cpt>
		<cpt id="InfantryArmor3">
			<state id="Absent" />
			<state id="Present" />
			<parents>TimePeriod InfantryArmor2</parents>
			<probabilities>0.3233556410843397 0.6766443589156602 0.1593683427709957 0.8406316572290042 0.7341896723962328 0.2658103276037674 0.5752049868436148 0.4247950131563852 0.4770165423608748 0.522983457639125 0.5340766858424082 0.4659233141575917 0.9453848734818234 0.05461512651817652 0.6427380986505387 0.3572619013494615 0.1447874390651038 0.8552125609348962 0.3805152749582001 0.6194847250417999 0.6653285294065356 0.3346714705934643 0.339334338106096 0.660665661893904 0.4561658003053101 0.5438341996946899 0.6178297006342733 0.3821702993657266 0.3871330806218464 0.6128669193781535 0.5326014950262544 0.4673985049737455 0.5416273892807153 0.4583726107192848 0.8054540126305412 0.1945459873694588 0.6269616716957093 0.3730383283042908 0.0641141916264284 0.9358858083735717 0.5421261685321617 0.4578738314678384 0.6037960638837481 0.396203936116252 0.6371195594461441 0.3628804405538559 0.5290529326728095 0.4709470673271903 0.8437213601400802 0.1562786398599198 0.949769185252612 0.05023081474738794 0.6907007275136711 0.3092992724863289 0.9305541104725327 0.06944588952746739 0.4379119099314753 0.5620880900685247 0.6076061936517543 0.3923938063482457 0.6500449310657455 0.3499550689342545 0.6618734231620876 0.3381265768379123 0.4027024537831512 0.5972975462168488 0.1573659526820572 0.8426340473179428 0.7429870087135598 0.2570129912864403 0.3267672670157444 0.6732327329842556 0.341911440504831 0.6580885594951691 0.5472217811521356 0.4527782188478645 0.6896903903087758 0.3103096096912243 0.5453907226155517 0.4546092773844485 0.5121398951122875 0.4878601048877124 0.5407151518729981 0.4592848481270019 0.4189414769271481 0.581058523072852 0.1010988034645822 0.8989011965354178 0.1003495476837342 0.8996504523162658 0.6704213390764505 0.3295786609235494 0.5554510924464102 0.4445489075535898 0.8357345948889418 0.1642654051110583 0.2523818488817577 0.7476181511182423 0.2595076997496575 0.7404923002503424</probabilities>
		</cpt>
		<cpt id="InfantryWeapons2">
			<state id="Absent" />
			<state id="Present" />
			<parents>TimePeriod InfantryWeapons1 ScienceFacility</parents>
			<probabilities>0.6596258483209795 0.3403741516790207 0.9 0.1 0.4309674255239412 0.5690325744760587 0.9 0.1 0.5613585028255649 0.4386414971744351 0.9 0.1 0.486208632242602 0.513791367757398 0.9 0.1 0.7537350802301653 0.2462649197698346 0.9 0.1 0.5137189418650947 0.4862810581349052 0.9 0.1 0.7522867148151048 0.2477132851848953 0.9 0.1 0.4929536970819775 0.5070463029180226 0.9 0.1 0.6025303012725571 0.3974696987274429 0.9 0.1 0.1547177564325248 0.8452822435674752 0.9 0.1 0.3212671593386853 0.6787328406613147 0.9 0.1 0.7490253323771278 0.2509746676228722 0.9 0.1 0.3574007893514132 0.6425992106485867 0.9 0.1 0.1278140703781259 0.872185929621874 0.9 0.1 0.4490844586027518 0.5509155413972482 0.9 0.1 0.2458712465386291 0.7541287534613709 0.9 0.1 0.7044281781535392 0.2955718218464609 0.9 0.1 0.6804891006890754 0.3195108993109245 0.9 0.1 0.8534835973800609 0.1465164026199393 0.8762416074017978 0.1237583925982023 0.8253043372470039 0.1746956627529961 0.8901477392122446 0.1098522607877556 0.173531509527609 0.826468490472391 0.8952329406941205 0.1047670593058795 0.4594092562960807 0.5405907437039194 0.854583680070966 0.1454163199290341 0.6200748164840355 0.3799251835159645 0.8504097022681291 0.1495902977318707 0.6446788468300223 0.3553211531699777 0.7144252646319383 0.2855747353680618 0.93246174129254 0.06753825870746005 0.7529939159726606 0.2470060840273394 0.4457880815401659 0.5542119184598341 0.4831415105042547 0.5168584894957453 0.04714646226312219 0.9528535377368779 0.1414972552322616 0.8585027447677383 0.5772924078787477 0.4227075921212524 0.9214985581491159 0.07850144185088408 0.276435311626438 0.723564688373562 0.3755315536038447 0.6244684463961553 0.9438769753799198 0.05612302462008014 0.7238582363050976 0.2761417636949025 0.3509609777737275 0.6490390222262724 0.6265868695367828 0.3734131304632172 0.9115629151220044 0.08843708487799565 0.5721563083779639 0.427843691622036 0.589400000419262 0.4105999995807379 0.5388899456148699 0.4611100543851301 0.5182746458190574 0.4817253541809426 0.7323389149376806 0.2676610850623194 0.5916966503373484 0.4083033496626517 0.4329469096597731 0.567053090340227 0.3889398930543891 0.6110601069456108 0.9848060644690668 0.01519393553093308 0.8533381268970743 0.1466618731029256 0.9022815308847538 0.09771846911524615 0.31537093727964 0.6846290627203601 0.517255080044189 0.4827449199558109 0.7074328894063631 0.2925671105936369 0.7849290112548522 0.2150709887451479 0.7530054762504188 0.2469945237495812 0.6715528548504534 0.3284471451495467 0.7024309451931481 0.2975690548068519 0.6567346658083137 0.3432653341916861 0.9657314385786874 0.03426856142131269 0.1208896314602451 0.8791103685397549 0.7666113435248414 0.2333886564751587 0.2251092758668448 0.7748907241331553 0.1576499353028071 0.842350064697193 0.6156142236889491 0.3843857763110508 0.7702434752816354 0.2297565247183646 0.03131002683371315 0.9686899731662869 0.6092665092207937 0.3907334907792063 0.7697031653519996 0.2302968346480005 0.4102489706933942 0.5897510293066057 0.5841154665316627 0.4158845334683373 0.5356006753095787 0.4643993246904212 0.1861719546106234 0.8138280453893766 0.5426947861210637 0.4573052138789364 0.04259553701460387 0.9574044629853959 0.7578778902935025 0.2421221097064974 0.4340259604089397 0.5659740395910604</probabilities>
		</cpt>
		<cpt id="InfantryWeapons3">
			<state id="Absent" />
			<state id="Present" />
			<parents>TimePeriod InfantryWeapons2</parents>
