<?xml version="1.0" encoding="ISO-8859-1"?>
<smile version="1.0" id="Network1" numsamples="1000" discsamples="10000">
	<nodes>
		<cpt id="TimePeriod">
			<state id="Period1" />
			<state id="Period2" />
			<state id="Period3" />
			<state id="Period4" />
			<state id="Period5" />
			<state id="Period6" />
			<state id="Period7" />
			<state id="Period8" />
			<state id="Period9" />
			<state id="Period10" />
			<state id="Period11" />
			<state id="Period12" />
			<state id="Period13" />
			<state id="Period14" />
			<state id="Period15" />
			<state id="Period16" />
			<state id="Period17" />
			<state id="Period18" />
			<state id="Period19" />
			<state id="Period20" />
			<state id="Period21" />
			<state id="Period22" />
			<state id="Period23" />
			<state id="Period24" />
			<state id="Period25" />
			<probabilities>0.02697986577181208 0.1043300149483408 0.03436250614997233 0.0385401899604429 0.02735021483148121 0.0236241610738255 0.03033557046979865 0.09735719795781661 0.02026845637583893 0.04706441305661845 0.02026845637583893 0.02697986577181208 0.06731226244422164 0.0940981610660836 0.02026845637583893 0.02354419563021974 0.02306138529682182 0.03377760664743485 0.02045848666127752 0.02299992703843293 0.09139529887301946 0.02071960175936249 0.02697986577181208 0.03656881459419985 0.02135502509767652</probabilities>
		</cpt>
		<cpt id="Barracks">
			<state id="None" />
			<state id="Few" />
			<state id="Some" />
			<state id="Many" />
			<state id="Tons" />
			<parents>TimePeriod</parents>
			<probabilities>1 0 0 0 0 0.03120091272080859 0.9687990872791914 0 0 0 0.0892855003776509 0.9107144996223492 0 0 0 0.08035370667873626 0.9196462933212637 0 0 0 0.1097650980607024 0.8902349019392977 0 0 0 0.125 0.875 0 0 0 0.1 0.9 0 0 0 0.7664521529023857 0.2335478470976144 0 0 0 0.1428571428571429 0.8571428571428571 0 0 0 0.4661397498339601 0.53386025016604 0 0 0 0.1428571428571429 0.8571428571428571 0 0 0 1 0 0 0 0 0.7134389489154235 0.2865610510845766 0 0 0 0.03448126998377695 0.965518730016223 0 0 0 0.1428571428571429 0.8571428571428571 0 0 0 0.2507469030030952 0.7492530969969049 0 0 0 0.2553530679149271 0.7446469320850728 0 0 0 0.3630188648186098 0.6369811351813901 0 0 0 0.5707700845199316 0.4292299154800685 0 0 0 0.6102000588974127 0.3897999411025873 0 0 0 0.141909528537979 0.8580904714620211 0 0 0 0.716549434339855 0.2834505656601448 0 0 0 1 0 0 0 0 0.830543097410807 0.169456902589193 0 0 0 0.7218380359671156 0.2781619640328844 0 0 0</probabilities>
		</cpt>
		<cpt id="Bunker">
			<state id="None" />
			<state id="Few" />
			<state id="Some" />
			<state id="Many" />
			<state id="Tons" />
			<parents>Barracks TimePeriod</parents>
			<probabilities>1 0 0 0 0 1 0 0 0 0 1 0 0 0 0 1 0 0 0 0 1 0 0 0 0 1 0 0 0 0 1 0 0 0 0 1 0 0 0 0 1 0 0 0 0 1 0 0 0 0 1 0 0 0 0 1 0 0 0 0 1 0 0 0 0 1 0 0 0 0 1 0 0 0 0 1 0 0 0 0 1 0 0 0 0 1 0 0 0 0 1 0 0 0 0 0.9999999999999999 0 0 0 0 1 0 0 0 0 1 0 0 0 0 1 0 0 0 0 1 0 0 0 0 1 0 0 0 0 1 0 0 0 0 0.9211589431218543 0.07884105687814559 0 0 0 0.8829002718741879 0.1170997281258123 0 0 0 0.9088619632496713 0.09113803675032879 0 0 0 0.8872288598926448 0.1127711401073554 0 0 0 1 3.244497706507139e-247 0 0 0 1 1.145039118858712e-279 0 0 0 1 0 0 0 0 1 0 0 0 0 1 0 0 0 0 1 0 0 0 0 1 0 0 0 0 1 1.843735495927526e-086 0 0 0 0.9999999999999999 0 0 0 0 1 0 0 0 0 1 0 0 0 0 1 0 0 0 0 1 0 0 0 0 1 0 0 0 0 1 0 0 0 0 0.9999999999999883 1.164078249048812e-014 0 0 0 0.9999999999999999 0 0 0 0 1 0 0 0 0 1 0 0 0 0 0.9999999999999999 0 0 0 0 1 0 0 0 0 1 0 0 0 0 1 0 0 0 0 1 0 0 0 0 1 0 0 0 0 1 0 0 0 0 1 0 0 0 0 1 0 0 0 0 1 0 0 0 0 1 0 0 0 0 1 0 0 0 0 1 0 0 0 0 1 0 0 0 0 1 0 0 0 0 1 0 0 0 0 1 0 0 0 0 1 0 0 0 0 1 0 0 0 0 1 0 0 0 0 1 0 0 0 0 1 0 0 0 0 1 0 0 0 0 1 0 0 0 0 1 0 0 0 0 1 0 0 0 0 1 0 0 0 0 1 0 0 0 0 1 0 0 0 0 1 0 0 0 0 1 0 0 0 0 1 0 0 0 0 1 0 0 0 0 1 0 0 0 0 1 0 0 0 0 1 0 0 0 0 1 0 0 0 0 1 0 0 0 0 1 0 0 0 0 1 0 0 0 0 1 0 0 0 0 1 0 0 0 0 1 0 0 0 0 1 0 0 0 0 1 0 0 0 0 1 0 0 0 0 1 0 0 0 0 1 0 0 0 0 1 0 0 0 0 1 0 0 0 0 1 0 0 0 0 1 0 0 0 0 1 0 0 0 0 1 0 0 0 0 1 0 0 0 0 1 0 0 0 0 1 0 0 0 0 1 0 0 0 0 1 0 0 0 0 1 0 0 0 0 1 0 0 0 0 1 0 0 0 0 1 0 0 0 0 1 0 0 0 0 1 0 0 0 0 1 0 0 0 0 1 0 0 0 0 1 0 0 0 0 1 0 0 0 0 1 0 0 0 0 1 0 0 0 0 1 0 0 0 0 1 0 0 0 0 1 0 0 0 0 1 0 0 0 0 1 0 0 0 0</probabilities>
		</cpt>
		<cpt id="SupplyDepot">
			<state id="None" />
			<state id="Few" />
			<state id="Some" />
			<state id="Many" />
			<state id="Tons" />
			<parents>TimePeriod</parents>
			<probabilities>1 0 0 0 0 0.03120091272080859 5.915461873092204e-017 7.264827772550471e-011 0.9375981744857345 0.03120091272080859 0.08928550037765089 2.870528954103219e-029 1.886986632663229e-027 0.8214289992446983 0.08928550037765089 0.08035370667873626 1.426087263299106e-013 6.339572349232792e-013 0.6785851732842784 0.2410611200362088 0.1097650980607024 2.583069552017047e-018 2.313249856770132e-018 0.3414094116357859 0.5488254903035118 0.125 3.171402584606302e-028 7.010998085410099e-026 1.462432926524306e-030 0.875 0.1 7.775682485243101e-032 7.922691047989656e-031 2.47038031642454e-035 0.9 0.03336397815680205 2.282465697428943e-059 5.013719472723483e-057 3.245276141691546e-074 0.966636021843198 0.1428571428571429 2.184335665226365e-038 1.824389433658918e-036 9.151241848227417e-052 0.8571428571428571 0.066732531270755 2.521252544937712e-064 2.463048706209124e-058 3.146047775383946e-077 0.933267468729245 0.1428571428571429 0 0 0 0.8571428571428571 0.5555555555555556 0.4444444444444444 0 0 0 0.04757587996520828 0.04757629775976963 4.68927278068763e-076 0.09515186887605941 0.8096959533989628 0.03448126998377695 0 0 0 0.965518730016223 0.1428571428571429 0 0 0 0.8571428571428571 0.1253734515015476 0 1.174102218671781e-038 1.002039235554123e-051 0.8746265484984525 0.1276765339574635 0 4.079947127899119e-039 5.681395003725897e-052 0.8723234660425364 0.09069696899519444 1.651532642949694e-052 1.594355622038061e-049 1.350645624173224e-065 0.9093030310048056 0.1417107228463661 1.454139784998169e-039 6.932696296970909e-037 0 0.8582892771536338 0.127975784811814 1.050020933524647e-042 8.773100234951042e-042 0 0.872024215188186 0.03546627629614222 0.07093224113991915 0.6029266969515582 0.07782314635310982 0.2128516392592705 0.1401651446197175 0 0 0 0.8598348553802824 0.1111111111111111 0.8888888888888888 0 0 0 0.08433476119069468 0 0 0 0.9156652388093054 0.1365411868436658 0 0 0 0.8634588131563342</probabilities>
		</cpt>
		<cpt id="EngineeringBay">
			<state id="None" />
			<state id="Few" />
			<state id="Some" />
			<state id="Many" />
			<state id="Tons" />
			<parents>TimePeriod</parents>
			<probabilities>1 0 0 0 0 0.6071262775435828 0.3928737224564172 0 0 0 0.4368658880493362 0.563134111950664 0 0 0 0.5930970534235744 0.4069029465764255 0 0 0 0.4511745096964882 0.5488254903035118 0 0 0 0.375 0.625 0 0 0 0.3 0.7000000000000001 0 0 0 0.1000919344704062 0.8999080655295938 0 0 0 0.2857142857142857 0.7142857142857142 0 0 0 0.066732531270755 0.933267468729245 0 0 0 0.1428571428571429 0.8571428571428571 0 0 0 1 0 0 0 0 0.142728166635829 0.8572718333641711 0 0 0 0.03448126998377695 0.965518730016223 0 0 0 0.1428571428571429 0.8571428571428571 0 0 0 0.1253734515015476 0.8746265484984525 0 0 0 0.1276765339574635 0.8723234660425364 0 0 0 0.09069696899519444 0.9093030310048056 0 0 0 0.1417107228463661 0.8582892771536338 0 0 0 0.127975784811814 0.872024215188186 0 0 0 0.7858273465067884 0.2141726534932117 0 0 0 0.1401651446197175 0.8598348553802824 0 0 0 1 0 0 0 0 0.08433476119069468 0.9156652388093054 0 0 0 0.1365411868436658 0.8634588131563342 0 0 0</probabilities>
		</cpt>
		<cpt id="MissileTurret">
			<state id="None" />
			<state id="Few" />
			<state id="Some" />
			<state id="Many" />
			<state id="Tons" />
			<parents>EngineeringBay TimePeriod</parents>
			<probabilities>1 0 0 0 0 1 0 0 0 0 1 0 0 0 0 1 0 0 0 0 1 0 0 0 0 1 0 0 0 0 1 0 0 0 0 0.6666666666666666 0 0 0.3333333333333333 0 0.5 0 0 0.5 0 1 0 0 0 0 1 0 0 0 0 1 0 0 0 0 0.3333357936755658 0 0 0 0.6666642063244342 1 0 0 0 0 1 0 0 0 0 1 0 0 0 0 1 0 0 0 0 1 0 0 0 0 1 0 0 0 0 1 0 0 0 0 0.9097351944958412 0 0 0 0.0902648055041588 1 0 0 0 0 1 0 0 0 0 1 0 0 0 0 1 0 0 0 0 1 0 0 0 0 0.4297195135828382 0.2328054269072625 0.1275241552612599 0.2099509042486395 0 0.1518264291437077 0.3880832259905085 0.1725636334889082 0.2875267113768757 0 0.3361925525193815 5.895107263336176e-016 0.3307744462604616 0.1681225661508226 0.1649104350693338 0.3333333333333333 1.194953786872751e-020 0.1666666666666667 0.3333333333333333 0.1666666666666667 0.3333333333333333 0 0.1666666666666667 0.3333333333333333 0.1666666666666667 0.25 0 0.125 0.25 0.375 0.07149893406217413 0.03574946703108706 0 0.03574946703108706 0.8570021318756519 0.3333333333333333 0.1666666666666667 0.1666666666666667 0.1666666666666667 0.1666666666666667 0.13346506254151 0.066732531270755 0.066732531270755 0.4661397498339601 0.26693012508302 0.1428571428571429 0.1428571428571429 0.2857142857142857 0.2857142857142857 0.1428571428571429 1 0 0 0 0 0.05257888069380563 0.05257888069380563 0.05257888069380563 0.1051577613876113 0.7371055965309719 0.03448126998377695 0 0.03448126998377695 0.1034438099513309 0.8275936500811152 0.1428571428571429 0 0 0.4285714285714286 0.4285714285714286 0.1253734515015476 0 0 0.2507469030030952 0.6238796454953574 0.1276765339574636 0 0 0.2553530679149271 0.6169703981276093 0.09069696899519446 0 0 0.1813939379903889 0.7279090930144166 0.1417107228463662 0 0 0.2834214456927323 0.5748678314609016 0.127975784811814 0 0 0.2559515696236279 0.6160726455645581 0.1436777013450564 1.488402647881142e-029 0 0.287824882059151 0.5684974165957926 0.1401651446197175 0 0 0.1408023527813837 0.7190325025988987 1 0 0 0 0 0.08433476119069466 0 0 0.08461984529225179 0.8310453935170536 0.1365411868436658 0 0 0.1374803715013914 0.7259784416549429 1 0 0 0 0 1 0 0 0 0 1 0 0 0 0 1 0 0 0 0 1 0 0 0 0 1 0 0 0 0 1 0 0 0 0 1 0 0 0 0 1 0 0 0 0 1 0 0 0 0 1 0 0 0 0 1 0 0 0 0 1 0 0 0 0 1 0 0 0 0 1 0 0 0 0 1 0 0 0 0 1 0 0 0 0 1 0 0 0 0 1 0 0 0 0 1 0 0 0 0 1 0 0 0 0 1 0 0 0 0 1 0 0 0 0 1 0 0 0 0 1 0 0 0 0 1 0 0 0 0 1 0 0 0 0 1 0 0 0 0 1 0 0 0 0 1 0 0 0 0 1 0 0 0 0 1 0 0 0 0 1 0 0 0 0 1 0 0 0 0 1 0 0 0 0 1 0 0 0 0 1 0 0 0 0 1 0 0 0 0 1 0 0 0 0 1 0 0 0 0 1 0 0 0 0 1 0 0 0 0 1 0 0 0 0 1 0 0 0 0 1 0 0 0 0 1 0 0 0 0 1 0 0 0 0 1 0 0 0 0 1 0 0 0 0 1 0 0 0 0 1 0 0 0 0 1 0 0 0 0 1 0 0 0 0 1 0 0 0 0 1 0 0 0 0 1 0 0 0 0 1 0 0 0 0 1 0 0 0 0 1 0 0 0 0 1 0 0 0 0 1 0 0 0 0 1 0 0 0 0 1 0 0 0 0 1 0 0 0 0 1 0 0 0 0 1 0 0 0 0 1 0 0 0 0 1 0 0 0 0 1 0 0 0 0 1 0 0 0 0 1 0 0 0 0 1 0 0 0 0 1 0 0 0 0 1 0 0 0 0 1 0 0 0 0</probabilities>
		</cpt>
		<cpt id="Refinery">
			<state id="None" />
			<state id="Few" />
			<state id="Some" />
			<state id="Many" />
			<state id="Tons" />
			<parents>TimePeriod</parents>
			<probabilities>1 0 0 0 0 0.03120091272080859 0.9063972618375742 0.06240182544161719 0 0 0.08928550037765089 0.6428579984893965 0.2678565011329527 0 0 0.08035370667873625 0.4418496697109719 0.4777966236102919 0 0 0.1097650980607024 0.3355005153973519 0.5547343865419456 0 0 0.125 0.25 0.625 0 0 0.1 0.2 0.5 0.2 0 0.03336397815680206 0.06672795631360412 0.4330466731023884 0.4668613924272055 0 0.1428571428571429 0.2857142857142857 0.5714285714285714 0 0 0.066732531270755 0.066732531270755 0.5328722811047151 0.333662656353775 0 0.1428571428571429 0 0.4285714285714286 0.4285714285714286 0 1 0 0 0 0 0.04757587996520827 0.04757640670541247 0.7134389489154235 0.1914087644139558 0 0.03448126998377695 0 0.1034438099513309 0.8620749200648921 0 0.1428571428571429 0 0.4285714285714286 0.4285714285714286 0 0.1253734515015476 0.1253734515015476 0.2507469030030952 0.4985061939938097 0 0.1276765339574636 0.1276765339574636 0.2553530679149271 0.4892938641701458 0 0.09069696899519446 0.09069696899519446 0.3630188647543723 0.4555871972552387 0 0.1417107228463662 0.1417107228463662 0.1417107228463662 0.5748678314609016 0 0.127975784811814 0.127975784811814 0.2559515696236279 0.4880968607527442 0 0.03546627629614222 0.6807495318523027 0.1063988288884267 0.1773853629631283 0 0.1401651446197175 0 0.4230189508531529 0.4368159045271295 0 0.7777777777777777 0.2222222222222222 0 0 0 0.08433476119069466 0 0.2538918311677071 0.6617734076415981 0 0.1365411868436658 0 0.4107774120145419 0.4526814011417923 0</probabilities>
		</cpt>
		<cpt id="Academy">
			<state id="None" />
			<state id="Few" />
			<state id="Some" />
			<state id="Many" />
			<state id="Tons" />
			<parents>Barracks TimePeriod</parents>
			<probabilities>1 0 0 0 0 1 0 0 0 0 1 0 0 0 0 1 0 0 0 0 1 0 0 0 0 1 0 0 0 0 1 0 0 0 0 0.08710388501348609 0.9128961149865139 0 0 0 1 0 0 0 0 0.1431599242384398 0.8568400757615602 0 0 0 1 0 0 0 0 1 0 0 0 0 1 2.489415138068881e-073 0 0 0 1 0 0 0 0 1 0 0 0 0 0.5 0.5 0 0 0 0.5 0.5 0 0 0 0.7501590749546477 0.2498409250453523 0 0 0 0.2482798708092024 0.7517201291907976 0 0 0 0.2097275851514287 0.7902724148485713 0 0 0 0.2499217400095193 0.7500782599904806 0 0 0 0.1956112696521061 0.8043887303478939 0 0 0 1 0 0 0 0 0.101607912194946 0.8983920878050541 0 0 0 0.3783153007744417 0.6216846992255583 0 0 0 1 0 0 0 0 0.9375981745583828 0.06240182544161719 0 0 0 0.8214289992446983 0.1785710007553018 0 0 0 0.8392925866425275 0.1607074133574725 0 0 0 0.7804698038785952 0.2195301961214047 0 0 0 0.5 0.5 0 0 0 0.4 0.6000000000000001 0 0 0 0.375 0.625 0 0 0 0.2857142857142857 0.7142857142857142 0 0 0 0.2222222222222222 0.7777777777777777 0 0 0 0.2857142857142857 0.7142857142857142 0 0 0 1 0 0 0 0 0.2847703376327578 0.7152296623672422 0 0 0 0.0689625399675539 0.931037460032446 0 0 0 0.2857142857142857 0.7142857142857142 0 0 0 0.2866902490366594 0.7133097509633406 0 0 0 0.1463637502917269 0.853636249708273 0 0 0 0.1246388595103106 0.8753611404896895 0 0 0 0.2482057035942557 0.7517942964057445 0 0 0 0.2471645123683742 0.7528354876316258 0 0 0 0.8809159157665131 0.1190840842334871 0 0 0 0.3308780605117718 0.6691219394882282 0 0 0 1 0 0 0 0 0.3322991777375234 0.6677008222624766 0 0 0 0.3292504205841245 0.6707495794158754 0 0 0 1 0 0 0 0 1 0 0 0 0 1 0 0 0 0 1 0 0 0 0 1 0 0 0 0 1 0 0 0 0 1 0 0 0 0 1 0 0 0 0 1 0 0 0 0 1 0 0 0 0 1 0 0 0 0 1 0 0 0 0 1 0 0 0 0 1 0 0 0 0 1 0 0 0 0 1 0 0 0 0 1 0 0 0 0 1 0 0 0 0 1 0 0 0 0 1 0 0 0 0 1 0 0 0 0 1 0 0 0 0 1 0 0 0 0 1 0 0 0 0 1 0 0 0 0 1 0 0 0 0 1 0 0 0 0 1 0 0 0 0 1 0 0 0 0 1 0 0 0 0 1 0 0 0 0 1 0 0 0 0 1 0 0 0 0 1 0 0 0 0 1 0 0 0 0 1 0 0 0 0 1 0 0 0 0 1 0 0 0 0 1 0 0 0 0 1 0 0 0 0 1 0 0 0 0 1 0 0 0 0 1 0 0 0 0 1 0 0 0 0 1 0 0 0 0 1 0 0 0 0 1 0 0 0 0 1 0 0 0 0 1 0 0 0 0 1 0 0 0 0 1 0 0 0 0 1 0 0 0 0 1 0 0 0 0 1 0 0 0 0 1 0 0 0 0 1 0 0 0 0 1 0 0 0 0 1 0 0 0 0 1 0 0 0 0 1 0 0 0 0 1 0 0 0 0 1 0 0 0 0 1 0 0 0 0 1 0 0 0 0 1 0 0 0 0 1 0 0 0 0 1 0 0 0 0 1 0 0 0 0 1 0 0 0 0 1 0 0 0 0 1 0 0 0 0 1 0 0 0 0 1 0 0 0 0 1 0 0 0 0 1 0 0 0 0</probabilities>
		</cpt>
		<cpt id="Factory">
			<state id="None" />
			<state id="Few" />
			<state id="Some" />
			<state id="Many" />
			<state id="Tons" />
			<parents>Barracks Refinery TimePeriod</parents>
			<probabilities>1 0 0 0 0 1 0 0 0 0 1 0 0 0 0 1 0 0 0 0 1 0 0 0 0 1 0 0 0 0 1 0 0 0 0 1 0 0 0 0 1 0 0 0 0 1 0 0 0 0 1 0 0 0 0 1 0 0 0 0 1 0 0 0 0 1 0 0 0 0 1 0 0 0 0 1 0 0 0 0 1 0 0 0 0 1 0 0 0 0 1 0 0 0 0 1 0 0 0 0 1 0 0 0 0 1 0 0 0 0 1 0 0 0 0 1 0 0 0 0 1 0 0 0 0 1 0 0 0 0 1 0 0 0 0 1 0 0 0 0 1 0 0 0 0 1 0 0 0 0 1 0 0 0 0 1 0 0 0 0 1 0 0 0 0 1 0 0 0 0 1 0 0 0 0 1 0 0 0 0 1 0 0 0 0 1 0 0 0 0 1 0 0 0 0 1 0 0 0 0 0.5 0 0 0.5 0 0.5 0 0 0.5 0 0.5 0 0 0.5 0 0.5 0 0 0.5 0 0.5 0 0 0.5 0 1 0 0 0 0 1 0 0 0 0 1 0 0 0 0 1 0 0 0 0 1 0 0 0 0 1 0 0 0 0 1 0 0 0 0 1 0 0 0 0 1 0 0 0 0 1 0 0 0 0 1 0 0 0 0 1 0 0 0 7.417554367020752e-040 0.1113651772968016 0 0 9.956837602334441e-058 0.8886348227031983 1 0 0 0 0 0.1431599242384398 0 0 0.8568400757615602 1.486518450028925e-028 1 0 0 0 0 1 0 0 0 0 0.1538957326394222 0 0 0 0.8461042673605779 1 0 0 0 1.88571355207191e-074 1 0 0 0 0 1 0 0 1.821493072937381e-035 0 1 0 0 2.207957110565404e-032 0 0.3330505933830834 0 0 0 0.6669494066169166 1 0 0 0 0 1 0 0 0 0 0.5 0 0 0.5 0 0.331344835348463 0 0 0.3328511701364934 0.3358039945150437 1 0 0 0 0 0.3321680765492149 0 0 0.333290933083484 0.334540990367301 0.3323970180688322 0 0 0.3346833771291312 0.3329196048020366 1 0 0 0 0 1 0 0 0 0 1 0 0 0 0 1 0 0 0 0 1 0 0 0 0 1 0 0 0 0 1 0 0 0 0 0.06669789282748691 0 0 0 0.9333021071725132 1 0 0 0 0 1 0 0 0 6.920396913394178e-017 1 0 0 0 0 1 0 0 0 0 1 0 0 0 0 1 0 0 0 0 1 0 0 0 0 1 0 0 0 0 1 0 0 0 7.845226648685387e-018 0.9999999999999918 0 0 0 8.225269054508542e-015 0.3302823233913766 0 0 0.3302823233913766 0.3394353532172468 0.2653864429667786 0 0 0 0.7346135570332215 0.3331942189774851 0 0 0 0.6668057810225149 0.323187820065652 0 0 0 0.676812179934348 1 0 0 0 0 0.1275893251639435 0 0 0 0.8724106748360565 0.3050505684969694 0 0 0 0.6949494315030305 1 0 0 0 0 1 0 0 0 0 1 0 0 0 0 1 0 0 0 0 1 0 0 0 0 1 0 0 0 0 1 0 0 0 0 1 0 0 0 0 1 0 0 0 0 1 0 0 0 0 1 0 0 0 0 1 0 0 0 0 1 0 0 0 0 1 0 0 0 0 1 0 0 0 0 1 0 0 0 0 1 0 0 0 0 1 0 0 0 0 1 0 0 0 0 1 0 0 0 0 1 0 0 0 0 1 0 0 0 0 1 0 0 0 0 1 0 0 0 0 1 0 0 0 0 1 0 0 0 0 1 0 0 0 0 1 0 0 0 0 1 0 0 0 0 1 0 0 0 0 1 0 0 0 0 1 0 0 0 0 1 0 0 0 0 1 0 0 0 0 1 0 0 0 0 1 0 0 0 0 1 0 0 0 0 1 0 0 0 0 1 0 0 0 0 1 0 0 0 0 1 0 0 0 0 1 0 0 0 0 1 0 0 0 0 1 0 0 0 0 1 0 0 0 0 1 0 0 0 0 1 0 0 0 0 1 0 0 0 0 1 0 0 0 0 1 0 0 0 0 1 0 0 0 0 0.1701950735530114 0.6113240917436226 0.1852033459374516 0.03327748876591458 0 0.30748488637793 0.4018096072806391 0.1687546858864036 0.1219508204550275 0 0.3467657307662915 0.3391922718714384 0.1601676443577614 0.1538743530045086 0 0.5045314820820056 1.838696165392066e-016 0.2489525177080598 0.2465160002099346 0 0.3333333333333333 1.012262976823244e-212 0.3333333333333333 0.3333333333333333 0 0.3333333333333333 1.438400414292858e-255 0.3333333333333333 0.3333333333333333 0 0.3333333333333333 0 0 0.6666666666666666 0 0.3333333333333333 1.414680848840176e-305 0 0.6666666666666666 0 0.5 0 0 0.5 0 1 0 0 0 0 1 0 0 0 0 1 0 5.32870707691353e-059 0 0 1 0 0 0 0 1 0 0 0 0 1 0 0 0 0 1 0 0 0 0 1 0 0 0 0 1 1.814991121015023e-304 0 0 0 1 0 0 0 0 0.5973955799243301 0.4026044200756699 5.06945075085559e-019 0 0 1 0 0 0 0 1 0 0 0 0 1 0 0 0 0 1 0 0 0 0 1 0 0 0 0 0.3333333333333333 3.525338981189108e-201 0.6666666666666666 0 0 0.25 0.25 0.5 0 0 0.1439642732758512 0.4241429068965952 0.2879285465517024 0.1439642732758512 0 0.1651846248253131 0.1740768758734344 0.3303692496506263 0.3303692496506263 0 0.1666666666666667 0 0.1666666666666667 0.5 0.1666666666666667 0.1666666666666667 0 0.1666666666666667 0.3333333333333333 0.3333333333333333 0.1666666666666667 0 0.1666666666666667 0.3333333333333333 0.3333333333333333 0.2 0 0 0.4 0.4 0.3333333333333333 0 0 0.6666666666666666 0 0.25 0 0 0.75 0 1 0 0 0 0 0.25 0 0 0.75 0 0.25 0 0 0.75 2.551147194221288e-050 0.25 0 0 0.75 0 0.3333333333333333 0 0 0.6666666666666666 0 0.3333333333333333 0 0 0.3333333333333333 0.3333333333333333 0.3333333334120286 0 0 0 0.6666666665879714 0.5 0 0 0 0.5 0.3333333333333333 0 0 0 0.6666666666666666 0.3333333333333333 4.861413460847042e-292 0 0 0.6666666666666666 0.5 0 0 0 0.5 1 0 0 0 0 0.4999999998229356 0 0 0 0.5000000001770645 0.5 0 0 0 0.5 1 0 0 0 0 1 0 0 0 0 1 0 0 0 0 1 0 0 0 0 1 0 0 0 0 1 0 0 0 0 0.3333333333333333 0 0 0 0.6666666666666666 1 0 0 0 0 1 0 0 0 0 0.1666666666666667 0 0 0.1666666666666667 0.6666666666666666 0.25 0 0 0.25 0.5 1 0 0 0 0 0.248556434240999 0 0 0 0.7514435657590011 0.03845968648312512 0 0 0 0.9615403135168749 0.25 0 0 0 0.75 0.2009577526800088 0 0 0 0.7990422473199911 0.2069411017853339 0 0 0 0.7930588982146662 0.1660252568140815 0 0 0.1660252568140815 0.6679494863718368 0.3301510862491283 0 0 0 0.6698489137508717 0.4887852466511465 0 0 0 0.5112147533488536 0.2499831574419563 0 0.2499831574419563 0 0.5000336851160875 0.4944959072255812 0 0 0 0.5055040927744189 1 0 0 0 0 0.4976767539819275 0 0 0 0.5023232460180724 0.4908693656891344 0 0 0 0.5091306343108657 1 0 0 0 0 1 0 0 0 0 1 0 0 0 0 1 0 0 0 0 1 0 0 0 0 1 0 0 0 0 1 0 0 0 0 1 0 0 0 0 1 0 0 0 0 1 0 0 0 0 1 0 0 0 0 1 0 0 0 0 1 0 0 0 0 1 0 0 0 0 1 0 0 0 0 1 0 0 0 0 1 0 0 0 0 1 0 0 0 0 1 0 0 0 0 1 0 0 0 0 1 0 0 0 0 1 0 0 0 0 1 0 0 0 0 1 0 0 0 0 1 0 0 0 0 1 0 0 0 0 1 0 0 0 0 1 0 0 0 0 1 0 0 0 0 1 0 0 0 0 1 0 0 0 0 1 0 0 0 0 1 0 0 0 0 1 0 0 0 0 1 0 0 0 0 1 0 0 0 0 1 0 0 0 0 1 0 0 0 0 1 0 0 0 0 1 0 0 0 0 1 0 0 0 0 1 0 0 0 0 1 0 0 0 0 1 0 0 0 0 1 0 0 0 0 1 0 0 0 0 1 0 0 0 0 1 0 0 0 0 1 0 0 0 0 1 0 0 0 0 1 0 0 0 0 1 0 0 0 0 1 0 0 0 0 1 0 0 0 0 1 0 0 0 0 1 0 0 0 0 1 0 0 0 0 1 0 0 0 0 1 0 0 0 0 1 0 0 0 0 1 0 0 0 0 1 0 0 0 0 1 0 0 0 0 1 0 0 0 0 1 0 0 0 0 1 0 0 0 0 1 0 0 0 0 1 0 0 0 0 1 0 0 0 0 1 0 0 0 0 1 0 0 0 0 1 0 0 0 0 1 0 0 0 0 1 0 0 0 0 1 0 0 0 0 1 0 0 0 0 1 0 0 0 0 1 0 0 0 0 1 0 0 0 0 1 0 0 0 0 1 0 0 0 0 1 0 0 0 0 1 0 0 0 0 1 0 0 0 0 1 0 0 0 0 1 0 0 0 0 1 0 0 0 0 1 0 0 0 0 1 0 0 0 0 1 0 0 0 0 1 0 0 0 0 1 0 0 0 0 1 0 0 0 0 1 0 0 0 0 1 0 0 0 0 1 0 0 0 0 1 0 0 0 0 1 0 0 0 0 1 0 0 0 0 1 0 0 0 0 1 0 0 0 0 1 0 0 0 0 1 0 0 0 0 1 0 0 0 0 1 0 0 0 0 1 0 0 0 0 1 0 0 0 0 1 0 0 0 0 1 0 0 0 0 1 0 0 0 0 1 0 0 0 0 1 0 0 0 0 1 0 0 0 0 1 0 0 0 0 1 0 0 0 0 1 0 0 0 0 1 0 0 0 0 1 0 0 0 0 1 0 0 0 0 1 0 0 0 0 1 0 0 0 0 1 0 0 0 0 1 0 0 0 0 1 0 0 0 0 1 0 0 0 0 1 0 0 0 0 1 0 0 0 0 1 0 0 0 0 1 0 0 0 0 1 0 0 0 0 1 0 0 0 0 1 0 0 0 0 1 0 0 0 0 1 0 0 0 0 1 0 0 0 0 1 0 0 0 0 1 0 0 0 0 1 0 0 0 0 1 0 0 0 0 1 0 0 0 0 1 0 0 0 0 1 0 0 0 0 1 0 0 0 0 1 0 0 0 0 1 0 0 0 0 1 0 0 0 0 1 0 0 0 0 1 0 0 0 0 1 0 0 0 0 1 0 0 0 0 1 0 0 0 0 1 0 0 0 0 1 0 0 0 0 1 0 0 0 0 1 0 0 0 0 1 0 0 0 0 1 0 0 0 0 1 0 0 0 0 1 0 0 0 0 1 0 0 0 0 1 0 0 0 0 1 0 0 0 0 1 0 0 0 0 1 0 0 0 0 1 0 0 0 0 1 0 0 0 0 1 0 0 0 0 1 0 0 0 0 1 0 0 0 0 1 0 0 0 0 1 0 0 0 0 1 0 0 0 0 1 0 0 0 0 1 0 0 0 0 1 0 0 0 0 1 0 0 0 0 1 0 0 0 0 1 0 0 0 0 1 0 0 0 0 1 0 0 0 0 1 0 0 0 0 1 0 0 0 0 1 0 0 0 0 1 0 0 0 0 1 0 0 0 0 1 0 0 0 0 1 0 0 0 0 1 0 0 0 0 1 0 0 0 0 1 0 0 0 0 1 0 0 0 0 1 0 0 0 0 1 0 0 0 0 1 0 0 0 0 1 0 0 0 0 1 0 0 0 0 1 0 0 0 0 1 0 0 0 0 1 0 0 0 0 1 0 0 0 0 1 0 0 0 0 1 0 0 0 0 1 0 0 0 0 1 0 0 0 0 1 0 0 0 0 1 0 0 0 0 1 0 0 0 0 1 0 0 0 0 1 0 0 0 0 1 0 0 0 0 1 0 0 0 0 1 0 0 0 0 1 0 0 0 0 1 0 0 0 0 1 0 0 0 0 1 0 0 0 0 1 0 0 0 0 1 0 0 0 0 1 0 0 0 0 1 0 0 0 0 1 0 0 0 0 1 0 0 0 0 1 0 0 0 0 1 0 0 0 0 1 0 0 0 0 1 0 0 0 0 1 0 0 0 0 1 0 0 0 0 1 0 0 0 0 1 0 0 0 0 1 0 0 0 0 1 0 0 0 0 1 0 0 0 0 1 0 0 0 0 1 0 0 0 0 1 0 0 0 0 1 0 0 0 0 1 0 0 0 0 1 0 0 0 0 1 0 0 0 0 1 0 0 0 0 1 0 0 0 0 1 0 0 0 0 1 0 0 0 0 1 0 0 0 0 1 0 0 0 0 1 0 0 0 0 1 0 0 0 0 1 0 0 0 0 1 0 0 0 0 1 0 0 0 0 1 0 0 0 0 1 0 0 0 0 1 0 0 0 0 1 0 0 0 0 1 0 0 0 0 1 0 0 0 0 1 0 0 0 0 1 0 0 0 0 1 0 0 0 0 1 0 0 0 0 1 0 0 0 0 1 0 0 0 0 1 0 0 0 0 1 0 0 0 0 1 0 0 0 0 1 0 0 0 0 1 0 0 0 0 1 0 0 0 0 1 0 0 0 0 1 0 0 0 0 1 0 0 0 0 1 0 0 0 0 1 0 0 0 0 1 0 0 0 0 1 0 0 0 0 1 0 0 0 0 1 0 0 0 0 1 0 0 0 0 1 0 0 0 0 1 0 0 0 0 1 0 0 0 0 1 0 0 0 0 1 0 0 0 0 1 0 0 0 0 1 0 0 0 0 1 0 0 0 0 1 0 0 0 0 1 0 0 0 0 1 0 0 0 0 1 0 0 0 0 1 0 0 0 0 1 0 0 0 0 1 0 0 0 0 1 0 0 0 0 1 0 0 0 0 1 0 0 0 0 1 0 0 0 0 1 0 0 0 0 1 0 0 0 0 1 0 0 0 0 1 0 0 0 0 1 0 0 0 0 1 0 0 0 0 1 0 0 0 0 1 0 0 0 0 1 0 0 0 0 1 0 0 0 0 1 0 0 0 0 1 0 0 0 0 1 0 0 0 0 1 0 0 0 0 1 0 0 0 0 1 0 0 0 0 1 0 0 0 0 1 0 0 0 0 1 0 0 0 0 1 0 0 0 0 1 0 0 0 0 1 0 0 0 0 1 0 0 0 0 1 0 0 0 0 1 0 0 0 0 1 0 0 0 0 1 0 0 0 0 1 0 0 0 0 1 0 0 0 0 1 0 0 0 0 1 0 0 0 0 1 0 0 0 0 1 0 0 0 0 1 0 0 0 0 1 0 0 0 0 1 0 0 0 0 1 0 0 0 0 1 0 0 0 0 1 0 0 0 0 1 0 0 0 0 1 0 0 0 0 1 0 0 0 0 1 0 0 0 0 1 0 0 0 0 1 0 0 0 0 1 0 0 0 0 1 0 0 0 0 1 0 0 0 0 1 0 0 0 0 1 0 0 0 0 1 0 0 0 0 1 0 0 0 0 1 0 0 0 0 1 0 0 0 0 1 0 0 0 0 1 0 0 0 0 1 0 0 0 0 1 0 0 0 0 1 0 0 0 0 1 0 0 0 0 1 0 0 0 0 1 0 0 0 0 1 0 0 0 0 1 0 0 0 0 1 0 0 0 0 1 0 0 0 0 1 0 0 0 0 1 0 0 0 0 1 0 0 0 0 1 0 0 0 0 1 0 0 0 0 1 0 0 0 0 1 0 0 0 0 1 0 0 0 0 1 0 0 0 0 1 0 0 0 0 1 0 0 0 0 1 0 0 0 0 1 0 0 0 0 1 0 0 0 0 1 0 0 0 0 1 0 0 0 0 1 0 0 0 0 1 0 0 0 0 1 0 0 0 0 1 0 0 0 0 1 0 0 0 0 1 0 0 0 0 1 0 0 0 0 1 0 0 0 0 1 0 0 0 0 1 0 0 0 0 1 0 0 0 0 1 0 0 0 0 1 0 0 0 0 1 0 0 0 0 1 0 0 0 0 1 0 0 0 0 1 0 0 0 0 1 0 0 0 0 1 0 0 0 0 1 0 0 0 0</probabilities>
		</cpt>
		<cpt id="ComsatStation">
			<state id="None" />
			<state id="Few" />
			<state id="Some" />
			<state id="Many" />
			<state id="Tons" />
			<parents>Academy Refinery TimePeriod</parents>
			<probabilities>1 0 0 0 0 1 0 0 0 0 1 0 0 0 0 1 0 0 0 0 1 0 0 0 0 1 0 0 0 0 1 0 0 0 0 1 0 0 0 0 1 0 0 0 0 1 0 0 0 0 1 0 0 0 0 1 0 0 0 0 1 0 0 0 0 1 0 0 0 0 1 0 0 0 0 1 0 0 0 0 1 0 0 0 0 1 0 0 0 0 1 0 0 0 0 1 0 0 0 0 1 0 0 0 0 1 0 0 0 0 1 0 0 0 0 1 0 0 0 0 1 0 0 0 0 1 0 0 0 0 1 0 0 0 0 1 0 0 0 0 0.9999999999999999 0 0 0 0 1 0 0 0 0 1 0 0 0 0 1 0 0 0 0 1 0 0 0 0 1 0 0 0 0 1 0 0 0 0 1 0 0 0 0 1 0 0 0 0 1 0 0 0 0 1 0 0 0 0 1 0 0 0 0 1 0 0 0 0 1 0 0 0 0 1 0 0 0 0 1 0 0 0 0 1 0 0 0 0 1 0 0 0 0 1 0 0 0 0 1 0 0 0 0 1 0 0 0 0 1 0 0 0 0 1 0 0 0 0 1 0 0 0 0 1 0 0 0 0 0.9999999999999999 0 0 0 0 1 0 0 0 0 1 0 0 0 0 1 0 0 0 0 1 0 0 0 0 1 0 0 0 0 1 0 0 0 0 1 0 0 0 0 1 0 0 0 0 1 0 0 0 0 1 0 0 0 0 1 0 0 0 0 1 0 0 0 0 1 0 0 0 0 0.6669494066169167 0.3330505933830833 0 0 0 1 0 0 0 0 1 0 0 0 0 1 0 0 0 0 1 0 0 0 0 1 0 0 0 0 1 0 0 0 0 0.5 0.5 0 0 0 1 0 0 0 0 1 0 0 0 0 1 0 0 0 0 1 0 0 0 0 1 0 0 0 0 1 0 0 0 0 1 0 0 0 0 1 0 0 0 0 1 0 0 0 0 1 0 0 0 0 1 0 0 0 0 1 0 0 0 0 0.5 0.5 0 0 0 1 0 0 0 0 1 0 0 0 0 1 0 0 0 0 1 0 0 0 0 1 0 0 0 0 1 0 0 0 0 1 0 0 0 0 0.3333333333333333 0.6666666666666666 0 0 0 1 0 0 0 0 1 0 0 0 0 1 0 0 0 0 1 0 0 0 0 1 0 0 0 0 1 0 0 0 0 1 0 0 0 0 1 0 0 0 0 1 0 0 0 0 1 0 0 0 0 1 0 0 0 0 1 0 0 0 0 1 0 0 0 0 1 0 0 0 0 1 0 0 0 0 1 0 0 0 0 1 0 0 0 0 1 0 0 0 0 1 0 0 0 0 1 0 0 0 0 1 0 0 0 0 1 0 0 0 0 1 0 0 0 0 1 0 0 0 0 1 0 0 0 0 1 0 0 0 0 1 0 0 0 0 1 0 0 0 0 1 0 0 0 0 1 0 0 0 0 1 0 0 0 0 1 0 0 0 0 1 0 0 0 0 1 0 0 0 0 1 0 0 0 0 1 0 0 0 0 1 0 0 0 0 1 0 0 0 0 1 0 0 0 0 1 0 0 0 0 1 0 0 0 0 1 0 0 0 0 1 0 0 0 0 1 0 0 0 0 1 0 0 0 0 1 0 0 0 0 1 0 0 0 0 1 0 0 0 0 1 0 0 0 0 1 0 0 0 0 1 0 0 0 0 1 0 0 0 0 1 0 0 0 0 1 0 0 0 0 1 0 0 0 0 1 0 0 0 0 0.5 0.5 0 0 0 1 0 0 0 0 1 0 0 0 0 1 0 0 0 0 1 0 0 0 0 1 0 0 0 0 1 0 0 0 0 1 0 0 0 0 1 0 0 0 0 1 0 0 0 0 1 0 0 0 0 1 0 0 0 0 1 0 0 0 0 0.5 0.5 0 0 0 0.5 0.5 0 0 0 0.5 0.5 0 0 0 0.5 0.5 0 0 0 0.5 0.5 0 0 0 1 0 0 0 0 1 0 0 0 0 1 0 0 0 0 1 0 0 0 0 1 0 0 0 0 1 0 0 0 0 1 0 0 0 0 1 0 0 0 0 0.6666666666666666 0 0.3333333333333333 0 0 0.3333333333333333 0 0.3333333333333333 0.3333333333333333 0 0.6000000000000001 0 0.2 0.2 0 0.2 0 0.6000000000000001 0.2 0 0.3847130650300589 0.2300337602052081 0.3082025398117864 0.0770506349529466 0 0.2 0 0.4 0.4 0 0.1112941889281692 0.5548232442873233 0.3338825667845076 0 0 0.3333333333333333 0 0.6666666666666666 0 0 1 0 0 0 0 0.3333333333333333 0 0.6666666666666666 0 0 0.3333333333333333 0 0.3333333333333333 0.3333333333333333 0 0.3333333333333333 0 0.6666666666666666 0 0 0.5 1.358859168052861e-300 0.5 0 0 0.6666666666666666 0 0.3333333333333333 0 0 0.3333333334120286 0 0.3333333334120286 0.3333333331759427 0 0.5 0 0.5 0 0 0.3333333333333333 0.3333333333333333 0.3333333333333333 0 0 0.25 0.5 0 0.25 0 0.2498264727135902 0.5012937280406061 0 0.2488797992458037 0 1 0 0 0 0 0.4995685722256746 0.2510469129474644 0 0.2493845148268611 0 0.3323970180688322 0.3352059638623356 0 0.3323970180688322 0 1 0 0 0 0 1 0 0 0 0 1 0 0 0 0 1 0 0 0 0 1 0 0 0 0 1 0 0 0 0 0.3333333333333333 0.3333333333333333 0 0.3333333333333333 0 0.06669789282748691 0.666978928274869 0.2663231788976441 1.339219788906587e-023 0 1 0 0 0 0 0.1666666666666667 0.3333333333333333 0.1666666666666667 0.3333333333333333 0 0.25 0 0 0.75 0 1 0 0 0 0 0.248556434240999 1.250122744650226e-182 0 0.7514435657590011 0 0.03845968648312512 0 0 0.9615403135168749 0 0.25 0 0 0.75 0 0.2009577526800088 0 0 0.7990422473199911 0 0.2069411017853339 1.794513023469502e-123 7.151710028292728e-166 0.7930588982146662 0 0.1660252568140813 0 0.1660252568140813 0.6679494863718373 0 0.1977602064624457 0 0.3955204129248915 0.4067193806126628 0 0.2077283997807421 8.292912761599372e-251 0.2077283997807421 0.5845432004385158 0 0.2499049079942575 1.944526411673843e-040 0.2499049079942575 0.500190184011485 0 0.242928506624217 3.76243794017792e-035 1.346689904561845e-039 0.7570714933757832 0 1 0 0 0 0 0.1130328881436642 4.531590221282625e-028 0.1138266725482808 0.773140439308055 0 0.2317310802874985 2.167925569566173e-019 0.2317310802874985 0.5365378394250031 0 1 0 0 0 0 1 0 0 0 0 1 0 0 0 0 1 0 0 0 0 1 0 0 0 0 1 0 0 0 0 1 0 0 0 0 1 0 0 0 0 1 0 0 0 0 1 0 0 0 0 1 0 0 0 0 1 0 0 0 0 1 0 0 0 0 1 0 0 0 0 1 0 0 0 0 1 0 0 0 0 1 0 0 0 0 1 0 0 0 0 1 0 0 0 0 1 0 0 0 0 1 0 0 0 0 1 0 0 0 0 1 0 0 0 0 1 0 0 0 0 1 0 0 0 0 1 0 0 0 0 1 0 0 0 0 1 0 0 0 0 1 0 0 0 0 1 0 0 0 0 1 0 0 0 0 1 0 0 0 0 1 0 0 0 0 1 0 0 0 0 1 0 0 0 0 1 0 0 0 0 1 0 0 0 0 1 0 0 0 0 1 0 0 0 0 1 0 0 0 0 1 0 0 0 0 1 0 0 0 0 1 0 0 0 0 1 0 0 0 0 1 0 0 0 0 1 0 0 0 0 1 0 0 0 0 1 0 0 0 0 1 0 0 0 0 1 0 0 0 0 1 0 0 0 0 1 0 0 0 0 1 0 0 0 0 1 0 0 0 0 1 0 0 0 0 1 0 0 0 0 1 0 0 0 0 1 0 0 0 0 1 0 0 0 0 1 0 0 0 0 1 0 0 0 0 1 0 0 0 0 1 0 0 0 0 1 0 0 0 0 1 0 0 0 0 1 0 0 0 0 1 0 0 0 0 1 0 0 0 0 1 0 0 0 0 1 0 0 0 0 1 0 0 0 0 1 0 0 0 0 1 0 0 0 0 1 0 0 0 0 1 0 0 0 0 1 0 0 0 0 1 0 0 0 0 1 0 0 0 0 1 0 0 0 0 1 0 0 0 0 1 0 0 0 0 1 0 0 0 0 1 0 0 0 0 1 0 0 0 0 1 0 0 0 0 1 0 0 0 0 1 0 0 0 0 1 0 0 0 0 1 0 0 0 0 1 0 0 0 0 1 0 0 0 0 1 0 0 0 0 1 0 0 0 0 1 0 0 0 0 1 0 0 0 0 1 0 0 0 0 1 0 0 0 0 1 0 0 0 0 1 0 0 0 0 1 0 0 0 0 1 0 0 0 0 1 0 0 0 0 1 0 0 0 0 1 0 0 0 0 1 0 0 0 0 1 0 0 0 0 1 0 0 0 0 1 0 0 0 0 1 0 0 0 0 1 0 0 0 0 1 0 0 0 0 1 0 0 0 0 1 0 0 0 0 1 0 0 0 0 1 0 0 0 0 1 0 0 0 0 1 0 0 0 0 1 0 0 0 0 1 0 0 0 0 1 0 0 0 0 1 0 0 0 0 1 0 0 0 0 1 0 0 0 0 1 0 0 0 0 1 0 0 0 0 1 0 0 0 0 1 0 0 0 0 1 0 0 0 0 1 0 0 0 0 1 0 0 0 0 1 0 0 0 0 1 0 0 0 0 1 0 0 0 0 1 0 0 0 0 1 0 0 0 0 1 0 0 0 0 1 0 0 0 0 1 0 0 0 0 1 0 0 0 0 1 0 0 0 0 1 0 0 0 0 1 0 0 0 0 1 0 0 0 0 1 0 0 0 0 1 0 0 0 0 1 0 0 0 0 1 0 0 0 0 1 0 0 0 0 1 0 0 0 0 1 0 0 0 0 1 0 0 0 0 1 0 0 0 0 1 0 0 0 0 1 0 0 0 0 1 0 0 0 0 1 0 0 0 0 1 0 0 0 0 1 0 0 0 0 1 0 0 0 0 1 0 0 0 0 1 0 0 0 0 1 0 0 0 0 1 0 0 0 0 1 0 0 0 0 1 0 0 0 0 1 0 0 0 0 1 0 0 0 0 1 0 0 0 0 1 0 0 0 0 1 0 0 0 0 1 0 0 0 0 1 0 0 0 0 1 0 0 0 0 1 0 0 0 0 1 0 0 0 0 1 0 0 0 0 1 0 0 0 0 1 0 0 0 0 1 0 0 0 0 1 0 0 0 0 1 0 0 0 0 1 0 0 0 0 1 0 0 0 0 1 0 0 0 0 1 0 0 0 0 1 0 0 0 0 1 0 0 0 0 1 0 0 0 0 1 0 0 0 0 1 0 0 0 0 1 0 0 0 0 1 0 0 0 0 1 0 0 0 0 1 0 0 0 0 1 0 0 0 0 1 0 0 0 0 1 0 0 0 0 1 0 0 0 0 1 0 0 0 0 1 0 0 0 0 1 0 0 0 0 1 0 0 0 0 1 0 0 0 0 1 0 0 0 0 1 0 0 0 0 1 0 0 0 0 1 0 0 0 0 1 0 0 0 0 1 0 0 0 0 1 0 0 0 0 1 0 0 0 0 1 0 0 0 0 1 0 0 0 0 1 0 0 0 0 1 0 0 0 0 1 0 0 0 0 1 0 0 0 0 1 0 0 0 0 1 0 0 0 0 1 0 0 0 0 1 0 0 0 0 1 0 0 0 0 1 0 0 0 0 1 0 0 0 0 1 0 0 0 0 1 0 0 0 0 1 0 0 0 0 1 0 0 0 0 1 0 0 0 0 1 0 0 0 0 1 0 0 0 0 1 0 0 0 0 1 0 0 0 0 1 0 0 0 0 1 0 0 0 0 1 0 0 0 0 1 0 0 0 0 1 0 0 0 0 1 0 0 0 0 1 0 0 0 0 1 0 0 0 0 1 0 0 0 0 1 0 0 0 0 1 0 0 0 0 1 0 0 0 0 1 0 0 0 0 1 0 0 0 0 1 0 0 0 0 1 0 0 0 0 1 0 0 0 0 1 0 0 0 0 1 0 0 0 0 1 0 0 0 0 1 0 0 0 0 1 0 0 0 0 1 0 0 0 0 1 0 0 0 0 1 0 0 0 0 1 0 0 0 0 1 0 0 0 0 1 0 0 0 0 1 0 0 0 0 1 0 0 0 0 1 0 0 0 0 1 0 0 0 0 1 0 0 0 0 1 0 0 0 0 1 0 0 0 0 1 0 0 0 0 1 0 0 0 0 1 0 0 0 0 1 0 0 0 0 1 0 0 0 0 1 0 0 0 0 1 0 0 0 0 1 0 0 0 0 1 0 0 0 0 1 0 0 0 0 1 0 0 0 0 1 0 0 0 0 1 0 0 0 0 1 0 0 0 0 1 0 0 0 0 1 0 0 0 0 1 0 0 0 0 1 0 0 0 0 1 0 0 0 0 1 0 0 0 0 1 0 0 0 0 1 0 0 0 0 1 0 0 0 0 1 0 0 0 0 1 0 0 0 0 1 0 0 0 0 1 0 0 0 0 1 0 0 0 0 1 0 0 0 0 1 0 0 0 0 1 0 0 0 0 1 0 0 0 0 1 0 0 0 0 1 0 0 0 0 1 0 0 0 0 1 0 0 0 0 1 0 0 0 0 1 0 0 0 0 1 0 0 0 0 1 0 0 0 0 1 0 0 0 0 1 0 0 0 0 1 0 0 0 0 1 0 0 0 0 1 0 0 0 0 1 0 0 0 0 1 0 0 0 0 1 0 0 0 0 1 0 0 0 0 1 0 0 0 0 1 0 0 0 0 1 0 0 0 0 1 0 0 0 0 1 0 0 0 0 1 0 0 0 0 1 0 0 0 0 1 0 0 0 0 1 0 0 0 0 1 0 0 0 0 1 0 0 0 0 1 0 0 0 0 1 0 0 0 0 1 0 0 0 0 1 0 0 0 0 1 0 0 0 0 1 0 0 0 0 1 0 0 0 0 1 0 0 0 0 1 0 0 0 0 1 0 0 0 0 1 0 0 0 0 1 0 0 0 0 1 0 0 0 0 1 0 0 0 0 1 0 0 0 0 1 0 0 0 0 1 0 0 0 0 1 0 0 0 0 1 0 0 0 0 1 0 0 0 0 1 0 0 0 0 1 0 0 0 0 1 0 0 0 0 1 0 0 0 0 1 0 0 0 0 1 0 0 0 0 1 0 0 0 0 1 0 0 0 0 1 0 0 0 0 1 0 0 0 0 1 0 0 0 0 1 0 0 0 0 1 0 0 0 0 1 0 0 0 0 1 0 0 0 0 1 0 0 0 0 1 0 0 0 0 1 0 0 0 0 1 0 0 0 0 1 0 0 0 0 1 0 0 0 0 1 0 0 0 0 1 0 0 0 0 1 0 0 0 0 1 0 0 0 0 1 0 0 0 0 1 0 0 0 0 1 0 0 0 0 1 0 0 0 0 1 0 0 0 0 1 0 0 0 0 1 0 0 0 0 1 0 0 0 0 1 0 0 0 0 1 0 0 0 0 1 0 0 0 0 1 0 0 0 0 1 0 0 0 0 1 0 0 0 0 1 0 0 0 0 1 0 0 0 0 1 0 0 0 0 1 0 0 0 0 1 0 0 0 0 1 0 0 0 0 1 0 0 0 0 1 0 0 0 0 1 0 0 0 0 1 0 0 0 0 1 0 0 0 0 1 0 0 0 0 1 0 0 0 0</probabilities>
		</cpt>
		<cpt id="MachineShop">
			<state id="None" />
			<state id="Few" />
			<state id="Some" />
			<state id="Many" />
			<state id="Tons" />
			<parents>Factory TimePeriod</parents>
			<probabilities>1 0 0 0 0 1 0 0 0 0 1 0 0 0 0 1 0 0 0 0 1 0 0 0 0 1 0 0 0 0 1 0 0 0 0 1 0 0 0 0 1 0 0 0 0 1 0 0 0 0 1 0 0 0 0 1 0 0 0 0 1 0 0 0 0 1 0 0 0 0 1 0 0 0 0 1 0 0 0 0 1 0 0 0 0 1 0 0 0 0 1 0 0 0 0 1 0 0 0 0 1 0 0 0 0 1 0 0 0 0 1 0 0 0 0 1 0 0 0 0 1 0 0 0 0 1 0 0 0 0 0.05162489480024825 0.9483751051997517 0 0 0 0.1888627785201791 0.8111372214798209 0 0 0 0.1625880498621808 0.8374119501378191 0 0 0 0.4868946947563948 0.5131053052436052 0 0 0 1 0 0 0 0 1 0 0 0 0 1 0 0 0 0 1 0 0 0 0 1 0 0 0 0 1 0 0 0 0 1 0 0 0 0 1 0 0 0 0 1 0 0 0 0 1 0 0 0 0 1 0 0 0 0 1 0 0 0 0 1 0 0 0 0 1 0 0 0 0 1 0 0 0 0 0.6571521846723655 0.3428478153276346 0 0 0 1 0 0 0 0 1 0 0 0 0 1 0 0 0 0 1 0 0 0 0 1 0 0 0 0 0.2229991471785553 0.2046800692600057 0.5723207835614391 0 0 0.2394985620032459 0.2844177100678504 0.4760837279289036 0 0 0.2563812795032721 0.2474696906374086 0.4961490298593194 0 0 0.2503800076486677 0.4987675689324767 0.2508524234188558 0 0 0.3333333333333333 0 0.6666666666666666 0 0 0.3333333333333333 0 0.6666666666666666 0 0 0.5 0 0.5 0 0 1 0 0 0 0 1 0 0 0 0 1 0 0 0 0 1 0 0 0 0 1 0 0 0 0 1 0 0 0 0 1 0 0 0 0 1 0 0 0 0 1 0 0 0 0 1 0 0 0 0 1 0 0 0 0 1 0 0 0 0 0.5 0.5 0 0 0 1 0 0 0 0 1 0 0 0 0 1 0 0 0 0 1 0 0 0 0 1 0 0 0 0 0.5 0.5 0 0 0 0.5 0.5 0 0 0 0.3333333333333333 0.3333333333333333 0.3333333333333333 0 0 0.25 0.25 0.5 0 0 0.2 0.4 0.4 0 0 0.25 0.5 0.25 0 0 0.2 0.2 0.6000000000000001 0 0 0.2 0.2 0.6000000000000001 0 0 0.09103161042910465 0 0.9089683895708953 0 0 0.2 0 0.8 0 0 1 0 0 0 0 0.25 0 0.75 0 0 0.25 0 0.75 0 0 0.25 0 0.75 0 0 0.25 0 0.75 0 0 0.3333333333333333 0 0.6666666666666666 0 0 0.3333333333333333 0 0.6666666666666666 0 0 0.3333333333333333 0 0.6666666666666666 0 0 0.5 0 0.5 0 0 0.5 0 0.5 0 0 0.498866046486586 0 0.5011339535134141 0 0 1 0 0 0 0 0.499156329302019 0 0.500843670697981 0 0 0.4982862942182401 0 0.50171370578176 0 0 1 0 0 0 0 1 0 0 0 0 1 0 0 0 0 1 0 0 0 0 1 0 0 0 0 0.5 0 0.5 0 0 0.2 0 0.4 0.4 0 0.0400441366611561 0.0400441366611561 0.08012788526309075 0.8397838414145971 0 0.3333333333333333 0 0.3333333333333333 0.3333333333333333 0 0.2 0 0.2 0.6000000000000001 0 0.3333333333333333 0 0 0.6666666666666666 0 1 0 0 0 0 0.06658213781608811 0 0.8002535865517356 0.1331642756321762 0 0.03845968648312512 0 0.1538868973712474 0.8076534161456275 0 0.25 0 0 0.75 0 0.2009577526800088 0 0 0.7990422473199911 0 0.1714591552804209 0 0.1714591552804209 0.6570816894391582 0 0.1107944018549543 0.2215888037099085 0.3299527779091433 0.3376640165259938 0 0.1977602064624457 0 0.2032406846470929 0.5989991088904615 0 0.1467571457109093 0 0.4062369864320072 0.4470058678570836 0 0.1428260873437778 0 0.2858310717812698 0.5713428408749525 0 0.1631349260248307 0.1631349260248307 0.3416332486907003 0.3320968992596383 0 1 0 0 0 0 0.09213086033924349 0.09213086033924349 0.6293713092679854 0.1863669700535277 0 0.1583050197725281 0.1583050197725281 0.3606417914152727 0.3227481690396712 0</probabilities>
		</cpt>
		<cpt id="Armory">
			<state id="None" />
			<state id="Few" />
			<state id="Some" />
			<state id="Many" />
			<state id="Tons" />
			<parents>Factory TimePeriod</parents>
			<probabilities>1 0 0 0 0 1 0 0 0 0 1 0 0 0 0 1 0 0 0 0 1 0 0 0 0 1 0 0 0 0 1 0 0 0 0 1 0 0 0 0 1 0 0 0 0 1 0 0 0 0 1 0 0 0 0 1 0 0 0 0 0.5000013839437827 0.4999986160562174 0 0 0 1 0 0 0 0 1 0 0 0 0 1 0 0 0 0 1 0 0 0 0 1 0 0 0 0 1 0 0 0 0 1 0 0 0 0 1 0 0 0 0 1 0 0 0 0 1 0 0 0 0 1 0 0 0 0 1 0 0 0 0 1 0 0 0 0 0.8337794276292726 0.1662205723707273 0 0 0 0.4760111574799323 0.5239888425200677 0 0 0 0.8364718029484369 0.1635281970515631 0 0 0 0.5131053052436052 0.4868946947563948 0 0 0 1 0 0 0 0 1 0 0 0 0 1 0 0 0 0 1 0 0 0 0 1 0 0 0 0 1 0 0 0 0 1 0 0 0 0 1 0 0 0 0 1 0 0 0 0 1 0 0 0 0 1 0 0 0 0 1 0 0 0 0 1 0 0 0 0 1 0 0 0 0 1 0 0 0 0 1 1.17670310115998e-164 0 0 0 1 0 0 0 0 1 0 0 0 0 1 0 0 0 0 1 0 0 0 0 1 0 0 0 0 0.8832515517788484 0.1167484482211516 0 0 0 0.7718870368980304 0.2281129631019696 0 0 0 0.5050606187251846 0.4949393812748155 0 0 0 0.7506162155337617 0.2493837844662383 0 0 0 0.6666666666666666 0.3333333333333333 0 0 0 0.6666666666666666 0.3333333333333333 0 0 0 0.5 0.5 0 0 0 1 0 0 0 0 1 0 0 0 0 1 0 0 0 0 1 0 0 0 0 1 0 0 0 0 1 0 0 0 0 1 0 0 0 0 1 0 0 0 0 1 0 0 0 0 1 0 0 0 0 1 0 0 0 0 1 0 0 0 0 0.5 0.5 0 0 0 1 0 0 0 0 1 0 0 0 0 1 0 0 0 0 1 0 0 0 0 1 0 0 0 0 1 0 0 0 0 1 0 0 0 0 0.6666666666666666 0.3333333333333333 0 0 0 0.5 0.25 0.25 0 0 0.4 0.4 0.2 0 0 0.5 0.25 0.25 0 0 0.6000000000000001 0.2 0.2 0 0 0.4 0.2 0.4 0 0 0.1820632208582093 0.09103161042910465 0.7269051687126862 0 0 0.4 0.2 0.4 0 0 1 0 0 0 0 0.5 0 0.5 0 0 0.5 0 0.5 0 0 0.5 0 0.5 0 0 0.5 0 0.5 0 0 0.3333333333333333 0 0.6666666666666666 0 0 0.3333333333333333 0 0.6666666666666666 0 0 0.3333333333333333 0 0.6666666666666666 0 0 0.5 0 0.5 0 0 0.5 0 0.5 0 0 0.498866046486586 0 0.5011339535134141 0 0 1 0 0 0 0 0.499156329302019 0 0.500843670697981 0 0 0.4982862942182401 0 0.50171370578176 0 0 1 0 0 0 0 1 0 0 0 0 1 0 0 0 0 1 0 0 0 0 1 0 0 0 0 0.5 0 0.5 0 0 0.2 0.2 0.4 0.2 0 0.08012788526309078 0 0.9198721147369093 0 0 0.3333333333333333 0 0.6666666666666666 0 0 0.6000000000000001 0 0.4 0 0 0.3333333333333333 0 0.6666666666666666 0 0 1 0 0 0 0 0.7987068039129214 0 0.2012931960870787 0 0 0.03845968648312512 0 0.1538868973712474 0.8076534161456275 0 0.25 0 0.75 0 0 0.2009577526800088 0 0.7990422473199911 0 0 0.3429183105608418 0 0.6570816894391582 0 0 0.4434597807978937 0 0.5565402192021062 0 0 0.3955204129248915 0 0.6044795870751086 0 0 0.2935142914218187 0 0.7064857085781814 0 0 0.4284782620313334 0 0.5715217379686667 0 0 0.3262698520496613 0 0.6737301479503388 0 0 1 0 0 0 0 0.1843217929062475 0 0.8156782070937525 0 0 0.1583050197725281 0.1583050197725281 0.6833899604549438 0 0</probabilities>
		</cpt>
		<cpt id="Starport">
			<state id="None" />
			<state id="Few" />
			<state id="Some" />
			<state id="Many" />
			<state id="Tons" />
			<parents>Factory TimePeriod</parents>
			<probabilities>1 0 0 0 0 1 0 0 0 0 1 0 0 0 0 1 0 0 0 0 1 0 0 0 0 1 0 0 0 0 1 0 0 0 0 1 0 0 0 0 1 0 0 0 0 1 0 0 0 0 1 0 0 0 0 1 0 0 0 0 0.250002075915674 0.7499979240843262 0 0 0 1 0 0 0 0 1 0 0 0 0 1 0 0 0 0 1 0 0 0 0 1 0 0 0 0 1 0 0 0 0 1 0 0 0 0 1 0 0 0 0 1 0 0 0 0 1 0 0 0 0 1 0 0 0 0 1 0 0 0 0 1 0 0 0 0 1 1.295719337283903e-020 0 0 0 1 1.680966096989126e-272 0 0 0 0.3584002722680419 0.6415997277319581 0 0 0 0.4868946947563949 0.5131053052436051 0 0 0 1 0 0 0 0 1 0 0 0 0 1 0 0 0 0 1 0 0 0 0 1 0 0 0 0 1 0 0 0 0 1 0 0 0 0 1 0 0 0 0 1 0 0 0 0 1 0 0 0 0 1 0 0 0 0 1 0 0 0 0 1 0 0 0 0 1 0 0 0 0 1 0 0 0 0 1 4.464240402766729e-070 0 0 0 1 0 0 0 0 1 0 0 0 0 1 0 0 0 0 1 0 0 0 0 1 0 0 0 0 0.544427664659712 0.455572335340288 0 0 0 0.5239162720710964 0.4760837279289036 0 0 0 0.7513206607780892 0.2486793392219107 0 0 0 0.499763792114906 0.500236207885094 0 0 0 0.6666666666666666 0.3333333333333333 0 0 0 0.6666666666666666 0.3333333333333333 0 0 0 1 0 0 0 0 1 0 0 0 0 1 0 0 0 0 1 0 0 0 0 1 0 0 0 0 1 0 0 0 0 1 0 0 0 0 1 0 0 0 0 1 0 0 0 0 1 0 0 0 0 1 0 0 0 0 1 0 0 0 0 1 0 0 0 0 0.5 0.5 0 0 0 1 0 0 0 0 1 0 0 0 0 1 0 0 0 0 1 0 0 0 0 1 0 0 0 0 1 0 0 0 0 1 0 0 0 0 0.6666666666666666 0.3333333333333333 0 0 0 0.75 0.25 0 0 0 0.6000000000000001 0.4 0 0 0 0.5 0.5 0 0 0 0.4 0.6000000000000001 0 0 0 0.4 0.6000000000000001 0 0 0 0.1820632208582093 0.8179367791417908 0 0 0 0.4 0.6000000000000001 0 0 0 1 0 0 0 0 0.25 0.75 0 0 0 0.25 0.75 0 0 0 0.25 0.75 0 0 0 0.25 0.75 0 0 0 0.3333333333333333 0.6666666666666666 0 0 0 0.3333333333333333 0.6666666666666666 0 0 0 0.3333333333333333 0.6666666666666666 0 0 0 0.5 0.5 0 0 0 0.5 0.5 0 0 0 0.498866046486586 0.5011339535134141 0 0 0 1 0 0 0 0 0.499156329302019 0.500843670697981 0 0 0 0.4982862942182401 0.50171370578176 0 0 0 1 0 0 0 0 1 0 0 0 0 1 0 0 0 0 1 0 0 0 0 1 0 0 0 0 0.5 0.5 0 0 0 0.2 0.4 0.4 0 0 0.0400441366611561 0.9198721147369093 0.04008374860193468 0 0 0.3333333333333333 0.6666666666666666 0 0 0 0.2 0.8 0 0 0 0.3333333333333333 0.6666666666666666 0 0 0 1 0 0 0 0 0.06658213781608811 0.1997464134482643 0.7336714487356476 0 0 0.03845968648312512 0.1153790594493754 0.8461612540674995 0 0 0.25 0.75 0 0 0 0.2009577526800088 0.7990422473199911 0 0 0 0.1714591552804209 0.828540844719579 0 0 0 0.1107944018549543 0.4484584183809489 0.2191583760541882 0.2215888037099085 0 0.1977602064624457 0.8022397935375543 0 0 0 0.1467571457109093 0.8532428542890908 0 0 0 0.1428260873437778 0.8571739126562223 0 0 0 0.1631349260248306 0.8368650739751693 0 0 0 1 0 0 0 0 0.0921308603392435 0.8156782068239729 0.0921909328367837 0 0 0.1583050197725281 0.6833899604549438 0 0.1583050197725281 0</probabilities>
		</cpt>
		<cpt id="ControlTower">
			<state id="None" />
			<state id="Few" />
			<state id="Some" />
			<state id="Many" />
			<state id="Tons" />
			<parents>Starport TimePeriod</parents>
			<probabilities>1 0 0 0 0 0.9999999999999999 0 0 0 0 1 0 0 0 0 1 0 0 0 0 1 0 0 0 0 1 0 0 0 0 1 0 0 0 0 1 0 0 0 0 1 0 0 0 0 1 0 0 0 0 1 0 0 0 0 1 0 0 0 0 1 0 0 0 0 1 0 0 0 0 1 0 0 0 0 1 0 0 0 0 1 0 0 0 0 1 0 0 0 0 1 0 0 0 0 1 0 0 0 0 1 0 0 0 0 1 0 0 0 0 1 0 0 0 0 1 0 0 0 0 1 0 0 0 0 1 0 0 0 0 0.3942323716737486 0.6057676283262513 0 0 0 0.3438609094950496 0.6561390905049505 0 0 0 0.4315891075064861 0.5684108924935141 0 0 0 0.3964426033790768 0.6035573966209231 0 0 0 0.4 0.6000000000000001 0 0 0 0.3333333333333333 0.6666666666666666 0 0 0 0.0741524675562933 0.9258475324437067 0 0 0 0.3333333333333333 0.6666666666666666 0 0 0 0.07150418664182016 0.9284958133581798 0 0 0 0.1666666666666667 0.8333333333333333 0 0 0 1 0 0 0 0 0.2 0.8 0 0 0 0.2857142857142857 0.7142857142857142 0 0 0 0.2857142857142857 0.7142857142857142 0 0 0 0.2507469030030952 0.7492530969969049 0 0 0 0.1276765339574635 0.8723234660425364 0 0 0 0.1418910038313264 0.8581089961686736 0 0 0 0.1417107228463661 0.8582892771536338 0 0 0 0.127975784811814 0.872024215188186 0 0 0 0.1110923235349312 0.8889076764650689 0 0 0 0.1401651446197175 0.8598348553802824 0 0 0 1 0 0 0 0 0.09210770764537653 0.9078922923546234 0 0 0 0.1581328313096322 0.8418671686903678 0 0 0 1 0 0 0 0 1 0 0 0 0 1 0 0 0 0 1 0 0 0 0 1 0 0 0 0 1 0 0 0 0 0.3333333333333333 1.182887362225138e-306 0.6666666666666666 0 0 0.4998674535061243 0.5001325464938757 0 0 0 1 0 0 0 0 1 0 0 0 0 1 0 0 0 0 1 0 0 0 0 0.8317277553173976 0.1682722446826022 0 0 0 0.04347589427307273 5.44317193271508e-005 0.9564696740076001 0 0 1 0 0 0 0 1 0 0 0 0 1 0 0 0 0 0.3366438553325882 0.6633561446674118 0 0 0 1 0 0 0 0 1 0 0 0 0 1 0 0 0 0 1 0 0 0 0 1 0 0 0 0 0.9999999985363657 1.463634331435883e-009 0 0 0 1 0 0 0 0 1 0 0 0 0 1 0 0 0 0 1 0 0 0 0 1 0 0 0 0 1 0 0 0 0 1 0 0 0 0 1 0 0 0 0 1 0 0 0 0 1 0 0 0 0 1 0 0 0 0 1 0 0 0 0 1 0 0 0 0 1 0 0 0 0 1 0 0 0 0 1 0 0 0 0 1 0 0 0 0 1 0 0 0 0 0.3333333333333333 0 0.6666666666666666 0 0 1 0 0 0 0 1 0 0 0 0 1 0 0 0 0 1 0 0 0 0 1 0 0 0 0 1 0 0 0 0 0.5 0.5 0 0 0 1 0 0 0 0 1 0 0 0 0 1 0 0 0 0 1 0 0 0 0 1 0 0 0 0 1 0 0 0 0 1 0 0 0 0 1 0 0 0 0 1 0 0 0 0 1 0 0 0 0 1 0 0 0 0 1 0 0 0 0 1 0 0 0 0 1 0 0 0 0 1 0 0 0 0 1 0 0 0 0 1 0 0 0 0 1 0 0 0 0 1 0 0 0 0 1 0 0 0 0 1 0 0 0 0 1 0 0 0 0 1 0 0 0 0 1 0 0 0 0 1 0 0 0 0</probabilities>
		</cpt>
		<cpt id="ScienceFacility">
			<state id="None" />
			<state id="Few" />
			<state id="Some" />
			<state id="Many" />
			<state id="Tons" />
			<parents>Starport TimePeriod</parents>
			<probabilities>1 0 0 0 0 0.9999999999999999 0 0 0 0 1 0 0 0 0 1 0 0 0 0 1 0 0 0 0 1 0 0 0 0 1 0 0 0 0 1 0 0 0 0 1 0 0 0 0 1 0 0 0 0 1 0 0 0 0 1 0 0 0 0 1 0 0 0 0 1 0 0 0 0 1 0 0 0 0 1 0 0 0 0 1 0 0 0 0 1 0 0 0 0 1 0 0 0 0 1 0 0 0 0 1 0 0 0 0 1 0 0 0 0 1 0 0 0 0 1 0 0 0 0 1 0 0 0 0 1 0 0 0 0 1 0 0 0 0 0.9999999999999999 0 0 0 0 1 0 0 0 0 1 0 0 0 0 0.8 0.2 0 0 0 0.6666666666666666 0.3333333333333333 0 0 0 0.11122870133444 0.8887712986655602 0 0 0 0.3333333333333333 0.6666666666666666 0 0 0 0.2860167465672807 0.7139832534327193 0 0 0 0.3333333333333333 0.6666666666666666 0 0 0 1 0 0 0 0 0.6000000000000001 0.4 0 0 0 0.4285714285714286 0.5714285714285714 0 0 0 0.4285714285714286 0.5714285714285714 0 0 0 0.2507469030030952 0.7492530969969049 0 0 0 0.2553530679149271 0.7446469320850728 0 0 0 0.4256730114939791 0.5743269885060209 0 0 0 0.4251321685390984 0.5748678314609016 0 0 0 0.3839273544354419 0.6160726455645581 0 0 0 0.5554616176746559 0.444538382325344 0 0 0 0.280330289239435 0.719669710760565 0 0 0 1 0 0 0 0 0.1842154152907531 0.815784584709247 0 0 0 0.3162656626192643 0.6837343373807356 0 0 0 1 0 0 0 0 1 0 0 0 0 1 0 0 0 0 1 0 0 0 0 1 0 0 0 0 1 0 0 0 0 0.3333333333333333 0.6666666666666666 0 0 0 0.4998674535061243 0.5001325464938757 0 0 0 1 0 0 0 0 1 0 0 0 0 1 0 0 0 0 1 0 0 0 0 0.9168619197870224 0.08313808021297758 0 0 0 0.1739580088116181 0.826041991188382 0 0 0 1 0 0 0 0 1 0 0 0 0 1 0 0 0 0 1 1.00970433897939e-307 0 0 0 1 0 0 0 0 1 0 0 0 0 1 0 0 0 0 1 0 0 0 0 1 0 0 0 0 0.5001629554935017 0.4998370445064983 0 0 0 1 0 0 0 0 1 0 0 0 0 1 0 0 0 0 1 0 0 0 0 1 0 0 0 0 1 0 0 0 0 1 0 0 0 0 1 0 0 0 0 1 0 0 0 0 1 0 0 0 0 1 0 0 0 0 1 0 0 0 0 1 0 0 0 0 1 0 0 0 0 1 0 0 0 0 1 0 0 0 0 1 0 0 0 0 1 0 0 0 0 0.3333333333333333 0.6666666666666666 0 0 0 1 0 0 0 0 1 0 0 0 0 1 0 0 0 0 1 0 0 0 0 1 0 0 0 0 1 0 0 0 0 0.5 0.5 0 0 0 1 0 0 0 0 1 0 0 0 0 1 0 0 0 0 1 0 0 0 0 1 0 0 0 0 1 0 0 0 0 1 0 0 0 0 1 0 0 0 0 1 0 0 0 0 1 0 0 0 0 1 0 0 0 0 1 0 0 0 0 1 0 0 0 0 1 0 0 0 0 1 0 0 0 0 1 0 0 0 0 1 0 0 0 0 1 0 0 0 0 1 0 0 0 0 1 0 0 0 0 1 0 0 0 0 1 0 0 0 0 1 0 0 0 0 1 0 0 0 0 1 0 0 0 0</probabilities>
		</cpt>
		<cpt id="PhysicsLab">
			<state id="None" />
			<state id="Few" />
			<state id="Some" />
			<state id="Many" />
			<state id="Tons" />
			<parents>ScienceFacility TimePeriod</parents>
			<probabilities>1 0 0 0 0 1 0 0 0 0 1 0 0 0 0 1 0 0 0 0 1 0 0 0 0 1 0 0 0 0 1 0 0 0 0 1 0 0 0 0 1 0 0 0 0 1 0 0 0 0 1 0 0 0 0 1 0 0 0 0 1 0 0 0 0 1 0 0 0 0 1 0 0 0 0 1 0 0 0 0 1 0 0 0 0 1 0 0 0 0 1 0 0 0 0 1 0 0 0 0 1 0 0 0 0 1 0 0 0 0 1 0 0 0 0 1 0 0 0 0 1 0 0 0 0 1 0 0 0 0 1 0 0 0 0 1 0 0 0 0 1 0 0 0 0 1 0 0 0 0 1 0 0 0 0 1 0 0 0 0 0.9999999999999999 0 0 0 0 1 0 0 0 0 1 0 0 0 0 1 0 0 0 0 1 0 0 0 0 1 0 0 0 0 1 0 0 0 0 1 0 0 0 0 1 0 0 0 0 1 0 0 0 0 1 0 0 0 0 1 0 0 0 0 1 0 0 0 0 1 0 0 0 0 1 0 0 0 0 1 0 0 0 0 1 0 0 0 0 1 0 0 0 0 1 0 0 0 0 1 0 0 0 0 1 0 0 0 0 1 0 0 0 0 1 0 0 0 0 1 0 0 0 0 1 0 0 0 0 1 0 0 0 0 1 0 0 0 0 1 0 0 0 0 1 0 0 0 0 1 0 0 0 0 1 0 0 0 0 1 0 0 0 0 1 0 0 0 0 1 0 0 0 0 1 0 0 0 0 1 0 0 0 0 1 0 0 0 0 1 0 0 0 0 1 0 0 0 0 1 0 0 0 0 1 0 0 0 0 1 0 0 0 0 1 0 0 0 0 1 0 0 0 0 1 0 0 0 0 1 0 0 0 0 1 0 0 0 0 1 0 0 0 0 1 0 0 0 0 1 0 0 0 0 1 0 0 0 0 1 0 0 0 0 1 0 0 0 0 1 0 0 0 0 1 0 0 0 0 1 0 0 0 0 1 0 0 0 0 1 0 0 0 0 1 0 0 0 0 1 0 0 0 0 1 0 0 0 0 1 0 0 0 0 1 0 0 0 0 1 0 0 0 0 1 0 0 0 0 1 0 0 0 0 1 0 0 0 0 1 0 0 0 0 1 0 0 0 0 1 0 0 0 0 1 0 0 0 0 1 0 0 0 0 1 0 0 0 0 1 0 0 0 0 1 0 0 0 0 1 0 0 0 0 1 0 0 0 0 1 0 0 0 0 1 0 0 0 0 1 0 0 0 0 1 0 0 0 0 1 0 0 0 0 1 0 0 0 0 1 0 0 0 0 1 0 0 0 0 1 0 0 0 0 1 0 0 0 0 1 0 0 0 0 1 0 0 0 0 1 0 0 0 0 1 0 0 0 0 1 0 0 0 0 1 0 0 0 0</probabilities>
		</cpt>
		<cpt id="CovertOps">
			<state id="None" />
			<state id="Few" />
			<state id="Some" />
			<state id="Many" />
			<state id="Tons" />
			<parents>ScienceFacility TimePeriod</parents>
			<probabilities>1 0 0 0 0 1 0 0 0 0 1 0 0 0 0 1 0 0 0 0 1 0 0 0 0 1 0 0 0 0 1 0 0 0 0 1 0 0 0 0 1 0 0 0 0 1 0 0 0 0 1 0 0 0 0 1 0 0 0 0 1 0 0 0 0 1 0 0 0 0 1 0 0 0 0 1 0 0 0 0 1 0 0 0 0 1 0 0 0 0 1 0 0 0 0 1 0 0 0 0 1 0 0 0 0 1 0 0 0 0 1 0 0 0 0 1 0 0 0 0 1 0 0 0 0 1 0 0 0 0 1 0 0 0 0 1 0 0 0 0 1 0 0 0 0 1 0 0 0 0 1 0 0 0 0 0.6000000000000001 0.4 0 0 0 0.9999999999999999 0 0 0 0 1 0 0 0 0 1 0 0 0 0 1 0 0 0 0 1 0 0 0 0 1 0 0 0 0 0.2916666666666666 0.7083333333333333 0 0 0 1 0 0 0 0 1 0 0 0 0 1 0 0 0 0 1 0 0 0 0 1 0 0 0 0 1 0 0 0 0 1 0 0 0 0 1 0 0 0 0 1 0 0 0 0 1 0 0 0 0 1 0 0 0 0 1 0 0 0 0 1 0 0 0 0 1 0 0 0 0 1 0 0 0 0 1 0 0 0 0 1 0 0 0 0 1 0 0 0 0 1 0 0 0 0 1 0 0 0 0 1 0 0 0 0 1 0 0 0 0 1 0 0 0 0 1 0 0 0 0 1 0 0 0 0 1 0 0 0 0 1 0 0 0 0 1 0 0 0 0 1 0 0 0 0 1 0 0 0 0 1 0 0 0 0 1 0 0 0 0 1 0 0 0 0 1 0 0 0 0 1 0 0 0 0 1 0 0 0 0 1 0 0 0 0 1 0 0 0 0 1 0 0 0 0 1 0 0 0 0 1 0 0 0 0 1 0 0 0 0 1 0 0 0 0 1 0 0 0 0 1 0 0 0 0 1 0 0 0 0 1 0 0 0 0 1 0 0 0 0 1 0 0 0 0 1 0 0 0 0 1 0 0 0 0 1 0 0 0 0 1 0 0 0 0 1 0 0 0 0 1 0 0 0 0 1 0 0 0 0 1 0 0 0 0 1 0 0 0 0 1 0 0 0 0 1 0 0 0 0 1 0 0 0 0 1 0 0 0 0 1 0 0 0 0 1 0 0 0 0 1 0 0 0 0 1 0 0 0 0 1 0 0 0 0 1 0 0 0 0 1 0 0 0 0 1 0 0 0 0 1 0 0 0 0 1 0 0 0 0 1 0 0 0 0 1 0 0 0 0 1 0 0 0 0 1 0 0 0 0 1 0 0 0 0 1 0 0 0 0 1 0 0 0 0 1 0 0 0 0 1 0 0 0 0 1 0 0 0 0 1 0 0 0 0 1 0 0 0 0 1 0 0 0 0 1 0 0 0 0</probabilities>
		</cpt>
		<cpt id="NuclearSilo">
			<state id="None" />
			<state id="Few" />
			<state id="Some" />
			<state id="Many" />
			<state id="Tons" />
			<parents>CovertOps TimePeriod</parents>
			<probabilities>1 0 0 0 0 1 0 0 0 0 1 0 0 0 0 1 0 0 0 0 1 0 0 0 0 1 0 0 0 0 1 0 0 0 0 1 0 0 0 0 1 0 0 0 0 0.86653493745849 0 0.13346506254151 0 0 1 0 0 0 0 1 0 0 0 0 0.9048482400695835 0 0.09515175993041655 0 0 1 0 0 0 0 1 0 0 0 0 1 0 0 0 0 0.9999999999999999 0 0 0 0 1 0 0 0 0 1 0 0 0 0 0.9999999999999999 0 0 0 0 0.9290674474077156 0 0.07093255259228447 0 0 0.9999999999999999 0 0 0 0 1 0 0 0 0 1 0 0 0 0 1 0 0 0 0 1 0 0 0 0 1 0 0 0 0 1 0 0 0 0 1 0 0 0 0 1 0 0 0 0 1 0 0 0 0 0.3333333333333333 0.3333333333333333 0.3333333333333333 0 0 1 0 0 0 0 1 0 0 0 0 1 0 0 0 0 1 0 0 0 0 1 0 0 0 0 1 0 0 0 0 0.2222222222222222 0.5 0.2777777777777778 0 0 1 0 0 0 0 1 0 0 0 0 1 0 0 0 0 1 0 0 0 0 1 0 0 0 0 1 0 0 0 0 1 0 0 0 0 1 0 0 0 0 1 0 0 0 0 1 0 0 0 0 1 0 0 0 0 1 0 0 0 0 1 0 0 0 0 1 0 0 0 0 1 0 0 0 0 1 0 0 0 0 1 0 0 0 0 1 0 0 0 0 1 0 0 0 0 1 0 0 0 0 1 0 0 0 0 1 0 0 0 0 1 0 0 0 0 1 0 0 0 0 1 0 0 0 0 1 0 0 0 0 1 0 0 0 0 1 0 0 0 0 1 0 0 0 0 1 0 0 0 0 1 0 0 0 0 1 0 0 0 0 1 0 0 0 0 1 0 0 0 0 1 0 0 0 0 1 0 0 0 0 1 0 0 0 0 1 0 0 0 0 1 0 0 0 0 1 0 0 0 0 1 0 0 0 0 1 0 0 0 0 1 0 0 0 0 1 0 0 0 0 1 0 0 0 0 1 0 0 0 0 1 0 0 0 0 1 0 0 0 0 1 0 0 0 0 1 0 0 0 0 1 0 0 0 0 1 0 0 0 0 1 0 0 0 0 1 0 0 0 0 1 0 0 0 0 1 0 0 0 0 1 0 0 0 0 1 0 0 0 0 1 0 0 0 0 1 0 0 0 0 1 0 0 0 0 1 0 0 0 0 1 0 0 0 0 1 0 0 0 0 1 0 0 0 0 1 0 0 0 0 1 0 0 0 0 1 0 0 0 0 1 0 0 0 0 1 0 0 0 0 1 0 0 0 0 1 0 0 0 0 1 0 0 0 0 1 0 0 0 0 1 0 0 0 0 1 0 0 0 0 1 0 0 0 0 1 0 0 0 0 1 0 0 0 0 1 0 0 0 0 1 0 0 0 0 1 0 0 0 0 1 0 0 0 0 1 0 0 0 0 1 0 0 0 0 1 0 0 0 0</probabilities>
		</cpt>
		<cpt id="Marine">
			<state id="None" />
			<state id="Few" />
			<state id="Some" />
			<state id="Many" />
			<state id="Tons" />
			<parents>Barracks TimePeriod</parents>
			<probabilities>1 0 0 0 0 1 0 0 0 0 1 0 0 0 0 1 0 0 0 0 1 0 0 0 0 1 0 0 0 0 1 0 0 0 0 1 0 0 0 0 1 0 0 0 0 1 0 0 0 0 1 0 0 0 0 1 0 0 0 0 1 0 0 0 0 1 0 0 0 0 1 0 0 0 0 1 0 0 0 0 1 0 0 0 0 1 0 0 0 0 1 0 0 0 0 0.9999999999999999 0 0 0 0 1 0 0 0 0 1 0 0 0 0 1 0 0 0 0 1 0 0 0 0 1 0 0 0 0 1 0 0 0 0 0.2556384787934987 0.2010918315354784 0.5432696896710229 0 0 0.4175605507429587 0.2155894649937777 0.3668499842632637 0 0 0.3284746626728068 0.4829868836551611 0.1885384536720322 0 0 0.4390603922428095 0.4449692884812434 0.1159703192759472 0 0 0.625 0.25 0.125 0 0 0.6000000000000001 0.3 0.1 0 0 0.75 0.125 0.125 0 0 0.7142857142857142 0.1428571428571429 0.1428571428571429 0 0 0.7777777777777777 0.1111111111111111 0.1111111111111111 0 0 0.7142857142857142 0.1428571428571429 0.1428571428571429 0 0 1 0 0 0 0 0.7119219030314204 0.145693390311408 0.1423847066571714 0 0 0.2068876199026617 0.7586311101135612 0.03448126998377695 0 0 0.8571428571428571 0 0.1428571428571429 0 0 0.8566548754816703 0 0.1433451245183297 0 0 0.8536362497082731 0 0.146363750291727 0 0 0.629134979070341 0.2462261614193484 0.1246388595103106 0 0 0.7517942964057445 0.2482057035942557 0 0 0 0.7528354876316258 0.2471645123683742 0 0 0 0.3192127045452146 0.5586815498419715 0.1221057456128138 0 0 0.6691219394882282 0.3308780605117718 0 0 0 1 0 0 0 0 0.6677008212894305 0.3322991787105695 0 0 0 0.6707495794158754 0.3292504205841245 0 0 0 1 0 0 0 0 1 0 0 0 0 1 0 0 0 0 1 0 0 0 0 1 0 0 0 0 1 0 0 0 0 1 0 0 0 0 1 0 0 0 0 1 0 0 0 0 1 0 0 0 0 1 0 0 0 0 1 0 0 0 0 1 0 0 0 0 1 0 0 0 0 1 0 0 0 0 1 0 0 0 0 1 0 0 0 0 1 0 0 0 0 1 0 0 0 0 1 0 0 0 0 1 0 0 0 0 1 0 0 0 0 1 0 0 0 0 1 0 0 0 0 1 0 0 0 0 1 0 0 0 0 1 0 0 0 0 1 0 0 0 0 1 0 0 0 0 1 0 0 0 0 1 0 0 0 0 1 0 0 0 0 1 0 0 0 0 1 0 0 0 0 1 0 0 0 0 1 0 0 0 0 1 0 0 0 0 1 0 0 0 0 1 0 0 0 0 1 0 0 0 0 1 0 0 0 0 1 0 0 0 0 1 0 0 0 0 1 0 0 0 0 1 0 0 0 0 1 0 0 0 0 1 0 0 0 0 1 0 0 0 0 1 0 0 0 0 1 0 0 0 0 1 0 0 0 0 1 0 0 0 0 1 0 0 0 0 1 0 0 0 0 1 0 0 0 0 1 0 0 0 0 1 0 0 0 0 1 0 0 0 0 1 0 0 0 0 1 0 0 0 0 1 0 0 0 0 1 0 0 0 0 1 0 0 0 0 1 0 0 0 0 1 0 0 0 0 1 0 0 0 0 1 0 0 0 0 1 0 0 0 0 1 0 0 0 0 1 0 0 0 0 1 0 0 0 0 1 0 0 0 0 1 0 0 0 0 1 0 0 0 0 1 0 0 0 0</probabilities>
		</cpt>
		<cpt id="Firebat">
			<state id="None" />
			<state id="Few" />
			<state id="Some" />
			<state id="Many" />
			<state id="Tons" />
			<parents>Academy TimePeriod</parents>
			<probabilities>1 0 0 0 0 1 0 0 0 0 1 0 0 0 0 1 0 0 0 0 1 0 0 0 0 1 0 0 0 0 1 0 0 0 0 1 0 0 0 0 1 0 0 0 0 1 0 0 0 0 1 0 0 0 0 1 0 0 0 0 1 0 0 0 0 1 0 0 0 0 1 0 0 0 0 1 0 0 0 0 1 0 0 0 0 1 0 0 0 0 1 0 0 0 0 1 0 0 0 0 1 0 0 0 0 1 0 0 0 0 1 0 0 0 0 1 0 0 0 0 1 0 0 0 0 1 0 0 0 0 1 0 0 0 0 1 0 0 0 0 1 0 0 0 0 1 0 0 0 0 1 0 0 0 0 1 0 0 0 0 1 0 0 0 0 1 0 0 0 0 1 0 0 0 0 1 0 0 0 0 1 0 0 0 0 1 0 0 0 0 1 0 0 0 0 1 0 0 0 0 1 0 0 0 0 0.9999999999999999 0 0 0 0 0.9999999999999999 0 0 0 0 1 0 0 0 0 0.9999999999999999 0 0 0 0 1 0 0 0 0 0.9999999999999999 0 0 0 0 1 0 0 0 0 0.9999999999999999 0 0 0 0 1 0 0 0 0 1 0 0 0 0 1 0 0 0 0 1 0 0 0 0 1 0 0 0 0 1 0 0 0 0 1 0 0 0 0 1 0 0 0 0 1 0 0 0 0 1 0 0 0 0 1 0 0 0 0 1 0 0 0 0 1 0 0 0 0 1 0 0 0 0 1 0 0 0 0 1 0 0 0 0 1 0 0 0 0 1 0 0 0 0 1 0 0 0 0 1 0 0 0 0 1 0 0 0 0 1 0 0 0 0 1 0 0 0 0 1 0 0 0 0 1 0 0 0 0 1 0 0 0 0 1 0 0 0 0 1 0 0 0 0 1 0 0 0 0 1 0 0 0 0 1 0 0 0 0 1 0 0 0 0 1 0 0 0 0 1 0 0 0 0 1 0 0 0 0 1 0 0 0 0 1 0 0 0 0 1 0 0 0 0 1 0 0 0 0 1 0 0 0 0 1 0 0 0 0 1 0 0 0 0 1 0 0 0 0 1 0 0 0 0 1 0 0 0 0 1 0 0 0 0 1 0 0 0 0 1 0 0 0 0 1 0 0 0 0 1 0 0 0 0 1 0 0 0 0 1 0 0 0 0 1 0 0 0 0 1 0 0 0 0 1 0 0 0 0 1 0 0 0 0 1 0 0 0 0 1 0 0 0 0 1 0 0 0 0 1 0 0 0 0 1 0 0 0 0 1 0 0 0 0 1 0 0 0 0 1 0 0 0 0 1 0 0 0 0 1 0 0 0 0 1 0 0 0 0 1 0 0 0 0 1 0 0 0 0 1 0 0 0 0 1 0 0 0 0 1 0 0 0 0 1 0 0 0 0 1 0 0 0 0 1 0 0 0 0 1 0 0 0 0</probabilities>
		</cpt>
		<cpt id="Medic">
			<state id="None" />
			<state id="Few" />
			<state id="Some" />
			<state id="Many" />
			<state id="Tons" />
			<parents>Academy TimePeriod</parents>
			<probabilities>1 0 0 0 0 1 0 0 0 0 1 0 0 0 0 1 0 0 0 0 1 0 0 0 0 1 0 0 0 0 1 0 0 0 0 1 0 0 0 0 1 0 0 0 0 1 0 0 0 0 1 0 0 0 0 1 0 0 0 0 1 0 0 0 0 1 0 0 0 0 1 0 0 0 0 1 0 0 0 0 1 0 0 0 0 1 0 0 0 0 1 0 0 0 0 1 0 0 0 0 1 0 0 0 0 1 0 0 0 0 1 0 0 0 0 1 0 0 0 0 1 0 0 0 0 1 0 0 0 0 1 0 0 0 0 1 0 0 0 0 1 0 0 0 0 1 0 0 0 0 1 0 0 0 0 1 0 0 0 0 1 0 0 0 0 1 0 0 0 0 1 0 0 0 0 1 0 0 0 0 1 0 0 0 0 1 0 0 0 0 1 0 0 0 0 1 0 0 0 0 1 0 0 0 0 0.9999999999999999 0 0 0 0 0.9999999999999999 0 0 0 0 1 0 0 0 0 0.9999999999999999 0 0 0 0 1 0 0 0 0 0.9999999999999999 0 0 0 0 1 0 0 0 0 0.9999999999999999 0 0 0 0 1 0 0 0 0 1 0 0 0 0 1 0 0 0 0 1 0 0 0 0 1 0 0 0 0 1 0 0 0 0 1 0 0 0 0 1 0 0 0 0 1 0 0 0 0 1 0 0 0 0 1 0 0 0 0 1 0 0 0 0 1 0 0 0 0 1 0 0 0 0 1 0 0 0 0 1 0 0 0 0 1 0 0 0 0 1 0 0 0 0 1 0 0 0 0 1 0 0 0 0 1 0 0 0 0 1 0 0 0 0 1 0 0 0 0 1 0 0 0 0 1 0 0 0 0 1 0 0 0 0 1 0 0 0 0 1 0 0 0 0 1 0 0 0 0 1 0 0 0 0 1 0 0 0 0 1 0 0 0 0 1 0 0 0 0 1 0 0 0 0 1 0 0 0 0 1 0 0 0 0 1 0 0 0 0 1 0 0 0 0 1 0 0 0 0 1 0 0 0 0 1 0 0 0 0 1 0 0 0 0 1 0 0 0 0 1 0 0 0 0 1 0 0 0 0 1 0 0 0 0 1 0 0 0 0 1 0 0 0 0 1 0 0 0 0 1 0 0 0 0 1 0 0 0 0 1 0 0 0 0 1 0 0 0 0 1 0 0 0 0 1 0 0 0 0 1 0 0 0 0 1 0 0 0 0 1 0 0 0 0 1 0 0 0 0 1 0 0 0 0 1 0 0 0 0 1 0 0 0 0 1 0 0 0 0 1 0 0 0 0 1 0 0 0 0 1 0 0 0 0 1 0 0 0 0 1 0 0 0 0 1 0 0 0 0 1 0 0 0 0 1 0 0 0 0 1 0 0 0 0 1 0 0 0 0 1 0 0 0 0 1 0 0 0 0 1 0 0 0 0</probabilities>
		</cpt>
		<cpt id="Vulture">
			<state id="None" />
			<state id="Few" />
			<state id="Some" />
			<state id="Many" />
			<state id="Tons" />
			<parents>Factory TimePeriod</parents>
			<probabilities>1 0 0 0 0 1 0 0 0 0 1 0 0 0 0 1 0 0 0 0 1 0 0 0 0 1 0 0 0 0 1 0 0 0 0 1 0 0 0 0 1 0 0 0 0 1 0 0 0 0 1 0 0 0 0 1 0 0 0 0 1 0 0 0 0 1 0 0 0 0 1 0 0 0 0 1 0 0 0 0 1 0 0 0 0 1 0 0 0 0 1 0 0 0 0 1 0 0 0 0 1 0 0 0 0 1 0 0 0 0 1 0 0 0 0 1 0 0 0 0 1 0 0 0 0 1 0 0 0 0 0.8492027742152892 0.1507972257847109 0 0 0 1 3.626636752099503e-026 0 0 0 0.5081467263153026 0.3292652238244475 0.1625880498602498 0 0 0.4868946947563949 0.5131053052379561 5.649139792299912e-012 0 0 1 0 0 0 0 1 0 0 0 0 1 0 0 0 0 1 0 0 0 0 1 0 0 0 0 1 0 0 0 0 1 0 0 0 0 1 0 0 0 0 1 0 0 0 0 1 0 0 0 0 1 0 0 0 0 1 0 0 0 0 1 0 0 0 0 1 0 0 0 0 1 0 0 0 0 0.9999999999999679 3.203078043086251e-014 0 0 0 1 0 0 0 0 1 0 0 0 0 1 0 0 0 0 1 0 0 0 0 1 0 0 0 0 0.5444276646597124 0.1167484482211512 0.1088789316404529 0.2299449554786835 0 0.5239162720710964 2.156967806741768e-026 0.2421457146412805 0.2339380132876232 0 0.7513206607780884 8.894228747030355e-016 1.04653735214891e-019 0.2486793392219107 0 0.499763792114906 6.69790498393656e-028 0.500236207885094 1.672781104293129e-034 0 0.6666666666666666 0.3333333333333333 9.507853818893797e-246 2.460496406324821e-259 0 0.6666666666666666 0.3333333333333333 9.028730778173987e-274 1.958500410310166e-280 0 1 0 0 0 0 1 0 0 0 0 1 0 0 0 0 1 0 0 0 0 1 0 0 0 0 1 0 0 0 0 1 0 0 0 0 1 0 0 0 0 1 0 0 0 0 1 0 0 0 0 1 0 0 0 0 1 0 0 0 0 1 0 0 0 0 1 0 0 0 0 1 0 0 0 0 1 0 0 0 0 1 0 0 0 0 1 0 0 0 0 1 0 0 0 0 1 0 0 0 0 0.5 0 0.5 0 0 0.3333333333333333 0 0.3333333333333333 0.3333333333333333 0 0.25 0.25 0.25 0 0.25 0.2 0.2 0.4 0 0.2 0.25 0.25 0 0.5 0 0.2 0.2 0.2 0.4 0 0.2 0 0.2 0.6000000000000001 0 0.09103161042910465 0 0.09103161042910465 0.3627787269962675 0.4551580521455233 0.2 0 0 0.6000000000000001 0.2 1 0 0 0 0 0.25 0 0 0.75 0 0.25 0 0 0.75 0 0.25 0 0 0.5 0.25 0.25 0 0.25 0.25 0.25 0.3333333333333333 0 0 0 0.6666666666666666 0.3333333333333333 0.3333333333333333 0 0 0.3333333333333333 0.3333333333333333 0.3333333333333333 0 0.3333333333333333 0 0.5 0 0 0 0.5 0.5 0 0 0 0.5 0.498866046486586 0 0 0.5011339535134141 9.292293871692915e-038 1 0 0 0 0 0.499156329302019 0 0 0.500843670697981 2.395201399912941e-035 0.4982862942182401 0 0 0.50171370578176 3.599869612166605e-037 1 0 0 0 0 1 0 0 0 0 1 0 0 0 0 1 0 0 0 0 1 0 0 0 0 0.5 0 0 0.5 0 0.2 0.2 0 0.6000000000000001 1.999091597207471e-044 0.199708106032976 0.4398642373759765 0.2002206833057805 0.160206973285267 3.499320610292013e-051 0.3333333333333333 0 0 0.6666666666666666 0 0.4 0.2 4.835080317107948e-117 6.700469064930163e-112 0.4 0.3333333333333333 0 0 0 0.6666666666666666 1 0 0 0 0 0.1995509424305529 0.1997136255324667 0 0.2662779603177256 0.3344574717192549 0.03845968648312512 0.1538387459325005 0 0 0.8077015675843744 0.25 0 0 0 0.75 0.2009577526800088 0 0.1961689889276717 0 0.6028732583923194 0.1714591552804209 0 5.322693940240192e-006 0.1714591552804209 0.657076366745218 0.111076575233031 1.409108871676034e-019 0.1134311602031256 0.3323832055648637 0.4431090589989798 0.1977602064624457 0 1.335741111549779e-019 0.2025956457301912 0.5996441478073631 0.1467571457109093 4.327726052496034e-251 1.055598257942552e-024 0.400766211541107 0.4524766427479838 0.2856521746875556 0 6.556706643126079e-061 0.2858078634005116 0.4285399619119328 0.1644882788929393 0.1639770037871951 1.848433469032664e-029 1.190056516594904e-015 0.6715347173198645 1 0 0 0 0 0.09243684424450964 0.09313003086273261 4.540682237921885e-032 0.00282699881309419 0.8116061260796637 0.1585539031819324 6.327892402042853e-033 4.378559621463395e-046 0.1920179837443034 0.6494281130737644</probabilities>
		</cpt>
		<cpt id="SpiderMine">
			<state id="None" />
			<state id="Few" />
			<state id="Some" />
			<state id="Many" />
			<state id="Tons" />
			<parents>MachineShop Vulture TimePeriod</parents>
			<probabilities>1 0 0 0 0 1 0 0 0 0 1 0 0 0 0 1 0 0 0 0 1 0 0 0 0 1 0 0 0 0 1 0 0 0 0 1 0 0 0 0 1 0 0 0 0 1 0 0 0 0 1 0 0 0 0 1 0 0 0 0 1 0 0 0 0 1 0 0 0 0 1 0 0 0 0 1 0 0 0 0 1 0 0 0 0 1 0 0 0 0 1 0 0 0 0 1 0 0 0 0 1 0 0 0 0 1 0 0 0 0 1 0 0 0 0 1 0 0 0 0 1 0 0 0 0 1 0 0 0 0 1 0 0 0 0 1 0 0 0 0 1 0 0 0 0 1 0 0 0 0 1 0 0 0 0 1 0 0 0 0 1 0 0 0 0 1 0 0 0 0 1 0 0 0 0 1 0 0 0 0 1 0 0 0 0 1 0 0 0 0 1 0 0 0 0 1 0 0 0 0 1 0 0 0 0 1 0 0 0 0 1 0 0 0 0 1 0 0 0 0 1 0 0 0 0 1 0 0 0 0 1 0 0 0 0 1 0 0 0 0 1 0 0 0 0 1 0 0 0 0 1 0 0 0 0 1 0 0 0 0 1 0 0 0 0 1 0 0 0 0 1 0 0 0 0 1 0 0 0 0 1 0 0 0 0 1 0 0 0 0 1 0 0 0 0 1 0 0 0 0 1 0 0 0 0 1 0 0 0 0 1 0 0 0 0 1 0 0 0 0 1 0 0 0 0 1 0 0 0 0 1 0 0 0 0 1 0 0 0 0 1 0 0 0 0 1 0 0 0 0 1 0 0 0 0 1 0 0 0 0 1 0 0 0 0 1 0 0 0 0 1 0 0 0 0 1 0 0 0 0 1 0 0 0 0 1 0 0 0 0 1 0 0 0 0 1 0 0 0 0 1 0 0 0 0 1 0 0 0 0 1 0 0 0 0 1 0 0 0 0 1 0 0 0 0 1 0 0 0 0 1 0 0 0 0 1 0 0 0 0 1 0 0 0 0 1 0 0 0 0 1 0 0 0 0 1 0 0 0 0 1 0 0 0 0 1 0 0 0 0 1 0 0 0 0 1 0 0 0 0 1 0 0 0 0 1 0 0 0 0 1 0 0 0 0 1 0 0 0 0 1 0 0 0 0 1 0 0 0 0 1 0 0 0 0 1 0 0 0 0 1 0 0 0 0 1 0 0 0 0 1 0 0 0 0 1 0 0 0 0 1 0 0 0 0 1 0 0 0 0 1 0 0 0 0 1 0 0 0 0 1 0 0 0 0 1 0 0 0 0 1 0 0 0 0 1 0 0 0 0 1 0 0 0 0 1 0 0 0 0 1 0 0 0 0 1 0 0 0 0 1 0 0 0 0 1 0 0 0 0 1 0 0 0 0 1 0 0 0 0 1 0 0 0 0 1 0 0 0 0 1 0 0 0 0 1 0 0 0 0 1 0 0 0 0 1 0 0 0 0 1 0 0 0 0 1 0 0 0 0 1 0 0 0 0 1 0 0 0 0 1 0 0 0 0 1 0 0 0 0 1 0 0 0 0 1 0 0 0 0 1 0 0 0 0 1 0 0 0 0 1 0 0 0 0 1 0 0 0 0 1 0 0 0 0 1 0 0 0 0 1 0 0 0 0 1 0 0 0 0 1 0 0 0 0 1 0 0 0 0 1 0 0 0 0 1 0 0 0 0 1 0 0 0 0 1 0 0 0 0 1 0 0 0 0 1 0 0 0 0 1 0 0 0 0 1 0 0 0 0 1 0 0 0 0 1 0 0 0 0 1 0 0 0 0 1 0 0 0 0 1 0 0 0 0 1 0 0 0 0 1 0 0 0 0 1 0 0 0 0 1 0 0 0 0 1 0 0 0 0 1 0 0 0 0 1 0 0 0 0 1 0 0 0 0 1 0 0 0 0 1 0 0 0 0 1 0 0 0 0 1 0 0 0 0 1 0 0 0 0 1 0 0 0 0 1 0 0 0 0 1 0 0 0 0 1 0 0 0 0 1 0 0 0 0 1 0 0 0 0 1 0 0 0 0 1 0 0 0 0 1 0 0 0 0 1 0 0 0 0 1 0 0 0 0 1 0 0 0 0 1 0 0 0 0 1 0 0 0 0 1 0 0 0 0 1 0 0 0 0 1 0 0 0 0 1 0 0 0 0 1 0 0 0 0 1 0 0 0 0 1 0 0 0 0 1 0 0 0 0 1 0 0 0 0 1 0 0 0 0 1 0 0 0 0 1 0 0 0 0 1 0 0 0 0 1 0 0 0 0 1 0 0 0 0 1 0 0 0 0 1 0 0 0 0 1 0 0 0 0 1 0 0 0 0 1 0 0 0 0 1 0 0 0 0 1 0 0 0 0 1 0 0 0 0 1 0 0 0 0 1 0 0 0 0 1 0 0 0 0 1 0 0 0 0 1 0 0 0 0 1 0 0 0 0 1 0 0 0 0 1 0 0 0 0 1 0 0 0 0 1 0 0 0 0 1 0 0 0 0 1 0 0 0 0 1 0 0 0 0 1 0 0 0 0 1 0 0 0 0 1 0 0 0 0 1 0 0 0 0 1 0 0 0 0 1 0 0 0 0 1 0 0 0 0 1 0 0 0 0 1 0 0 0 0 1 0 0 0 0 1 0 0 0 0 1 0 0 0 0 1 0 0 0 0 1 0 0 0 0 1 0 0 0 0 1 0 0 0 0 1 0 0 0 0 1 0 0 0 0 1 0 0 0 0 1 0 0 0 0 1 0 0 0 0 1 0 0 0 0 1 0 0 0 0 1 0 0 0 0 1 0 0 0 0 1 0 0 0 0 1 0 0 0 0 1 0 0 0 0 1 0 0 0 0 1 0 0 0 0 1 0 0 0 0 1 0 0 0 0 1 0 0 0 0 1 0 0 0 0 1 0 0 0 0 1 0 0 0 0 1 0 0 0 0 1 0 0 0 0 1 0 0 0 0 1 0 0 0 0 1 0 0 0 0 1 0 0 0 0 1 0 0 0 0 1 0 0 0 0 1 0 0 0 0 1 0 0 0 0 1 0 0 0 0 1 0 0 0 0 1 0 0 0 0 1 0 0 0 0 1 0 0 0 0 1 0 0 0 0 1 0 0 0 0 1 0 0 0 0 1 0 0 0 0 1 0 0 0 0 1 0 0 0 0 1 0 0 0 0 1 0 0 0 0 1 0 0 0 0 1 0 0 0 0 1 0 0 0 0 1 0 0 0 0 0.9999999999999999 0 0 0 0 1 0 0 0 0 1 0 0 0 0 1 0 0 0 0 1 0 0 0 0 1 0 0 0 0 1 0 0 0 0 1 0 0 0 0 1 0 0 0 0 1 0 0 0 0 1 0 0 0 0 1 0 0 0 0 1 0 0 0 0 1 0 0 0 0 1 0 0 0 0 1 0 0 0 0 1 0 0 0 0 1 0 0 0 0 1 0 0 0 0 1 0 0 0 0 1 0 0 0 0 1 0 0 0 0 1 0 0 0 0 1 0 0 0 0 1 0 0 0 0 1 0 0 0 0 1 0 0 0 0 1 0 0 0 0 1 0 0 0 0 1 0 0 0 0 1 0 0 0 0 1 0 0 0 0 1 0 0 0 0 1 0 0 0 0 1 0 0 0 0 1 0 0 0 0 1 0 0 0 0 1 0 0 0 0 1 0 0 0 0 1 0 0 0 0 1 0 0 0 0 1 0 0 0 0 1 0 0 0 0 1 0 0 0 0 1 0 0 0 0 1 0 0 0 0 1 0 0 0 0 1 0 0 0 0 1 0 0 0 0 1 0 0 0 0 1 0 0 0 0 1 0 0 0 0 1 0 0 0 0 1 0 0 0 0 1 0 0 0 0 1 0 0 0 0 0.9999999999999999 0 0 0 0 0.9999999999999999 0 0 0 0 1 0 0 0 0 1 0 0 0 0 1 0 0 0 0 1 0 0 0 0 1 0 0 0 0 1 0 0 0 0 1 0 0 0 0 1 0 0 0 0 1 0 0 0 0 1 0 0 0 0 1 0 0 0 0 1 0 0 0 0 1 0 0 0 0 1 0 0 0 0 1 0 0 0 0 1 0 0 0 0 1 0 0 0 0 1 0 0 0 0 1 0 0 0 0 1 0 0 0 0 1 0 0 0 0 1 0 0 0 0 1 0 0 0 0 1 0 0 0 0 1 0 0 0 0 1 0 0 0 0 0.9999999999999999 0 0 0 0 1 0 0 0 0 0.9999999999999999 0 0 0 0 1 0 0 0 0 1 0 0 0 0 1 0 0 0 0 1 0 0 0 0 1 0 0 0 0 1 0 0 0 0 1 0 0 0 0 1 0 0 0 0 1 0 0 0 0 1 0 0 0 0 1 0 0 0 0 1 0 0 0 0 1 0 0 0 0 1 0 0 0 0 1 0 0 0 0 1 0 0 0 0 1 0 0 0 0 1 0 0 0 0 1 0 0 0 0 1 0 0 0 0 1 0 0 0 0 1 0 0 0 0 1 0 0 0 0 1 0 0 0 0 1 0 0 0 0 1 0 0 0 0 1 0 0 0 0 1 0 0 0 0 1 0 0 0 0 1 0 0 0 0 1 0 0 0 0 1 0 0 0 0 1 0 0 0 0 0.9999999999999999 0 0 0 0 1 0 0 0 0 1 0 0 0 0 1 0 0 0 0 1 0 0 0 0 1 0 0 0 0 1 0 0 0 0 1 0 0 0 0 1 0 0 0 0 1 0 0 0 0 1 0 0 0 0 1 0 0 0 0 1 0 0 0 0 1 0 0 0 0 1 0 0 0 0 1 0 0 0 0 1 0 0 0 0 1 0 0 0 0 1 0 0 0 0 1 0 0 0 0 1 0 0 0 0 1 0 0 0 0 1 0 0 0 0 1 0 0 0 0 1 0 0 0 0 1 0 0 0 0 1 0 0 0 0 1 0 0 0 0 1 0 0 0 0 1 0 0 0 0 1 0 0 0 0 1 0 0 0 0 1 0 0 0 0 1 0 0 0 0 1 0 0 0 0 1 0 0 0 0 1 0 0 0 0 1 0 0 0 0 1 0 0 0 0 1 0 0 0 0 1 0 0 0 0 1 0 0 0 0 1 0 0 0 0 1 0 0 0 0 1 0 0 0 0 1 0 0 0 0 1 0 0 0 0 1 0 0 0 0 1 0 0 0 0 1 0 0 0 0 1 0 0 0 0 1 0 0 0 0 1 0 0 0 0 1 0 0 0 0 1 0 0 0 0 1 0 0 0 0 1 0 0 0 0 1 0 0 0 0 1 0 0 0 0 1 0 0 0 0 1 0 0 0 0 1 0 0 0 0 1 0 0 0 0 1 0 0 0 0 1 0 0 0 0 1 0 0 0 0 1 0 0 0 0 1 0 0 0 0 1 0 0 0 0 1 0 0 0 0 1 0 0 0 0 1 0 0 0 0 1 0 0 0 0 1 0 0 0 0 1 0 0 0 0 1 0 0 0 0 1 0 0 0 0 1 0 0 0 0 1 0 0 0 0 1 0 0 0 0 1 0 0 0 0 1 0 0 0 0 1 0 0 0 0 1 0 0 0 0 1 0 0 0 0 1 0 0 0 0 1 0 0 0 0 1 0 0 0 0 1 0 0 0 0 1 0 0 0 0 1 0 0 0 0 1 0 0 0 0 0.9999999999999999 0 0 0 0 1 0 0 0 0 1 0 0 0 0 1 0 0 0 0 1 0 0 0 0 1 0 0 0 0 1 0 0 0 0 1 0 0 0 0 1 0 0 0 0 1 0 0 0 0 1 0 0 0 0 1 0 0 0 0 1 0 0 0 0 1 0 0 0 0 1 0 0 0 0 1 0 0 0 0 1 0 0 0 0 1 0 0 0 0 1 0 0 0 0 1 0 0 0 0 1 0 0 0 0 1 0 0 0 0 1 0 0 0 0 1 0 0 0 0 1 0 0 0 0 1 0 0 0 0 1 0 0 0 0 1 0 0 0 0 1 0 0 0 0 1 0 0 0 0 1 0 0 0 0 1 0 0 0 0 1 0 0 0 0 1 0 0 0 0 1 0 0 0 0 1 0 0 0 0 1 0 0 0 0 1 0 0 0 0 1 0 0 0 0 1 0 0 0 0 1 0 0 0 0 1 0 0 0 0 1 0 0 0 0 1 0 0 0 0 1 0 0 0 0 1 0 0 0 0 1 0 0 0 0 1 0 0 0 0 1 0 0 0 0 1 0 0 0 0 1 0 0 0 0 1 0 0 0 0 1 0 0 0 0 1 0 0 0 0 1 0 0 0 0 1 0 0 0 0 1 0 0 0 0 1 0 0 0 0 1 0 0 0 0 1 0 0 0 0 1 0 0 0 0 1 0 0 0 0 1 0 0 0 0 1 0 0 0 0 1 0 0 0 0 1 0 0 0 0 1 0 0 0 0 1 0 0 0 0 1 0 0 0 0 1 0 0 0 0 1 0 0 0 0 1 0 0 0 0 1 0 0 0 0 1 0 0 0 0 1 0 0 0 0 1 0 0 0 0 1 0 0 0 0 1 0 0 0 0 1 0 0 0 0 1 0 0 0 0 1 0 0 0 0 1 0 0 0 0 1 0 0 0 0 1 0 0 0 0 1 0 0 0 0 1 0 0 0 0 1 0 0 0 0 1 0 0 0 0 1 0 0 0 0 1 0 0 0 0 1 0 0 0 0 1 0 0 0 0 1 0 0 0 0 1 0 0 0 0 1 0 0 0 0 1 0 0 0 0 1 0 0 0 0 1 0 0 0 0 1 0 0 0 0 1 0 0 0 0 1 0 0 0 0 1 0 0 0 0 1 0 0 0 0 1 0 0 0 0 1 0 0 0 0 1 0 0 0 0 1 0 0 0 0 1 0 0 0 0 1 0 0 0 0 1 0 0 0 0 1 0 0 0 0 1 0 0 0 0 1 0 0 0 0 1 0 0 0 0 1 0 0 0 0 1 0 0 0 0 1 0 0 0 0 1 0 0 0 0 1 0 0 0 0 1 0 0 0 0 1 0 0 0 0 1 0 0 0 0 1 0 0 0 0 1 0 0 0 0 1 0 0 0 0 1 0 0 0 0</probabilities>
		</cpt>
		<cpt id="SiegeTank">
			<state id="None" />
			<state id="Few" />
			<state id="Some" />
			<state id="Many" />
			<state id="Tons" />
			<parents>MachineShop TimePeriod</parents>
			<probabilities>1 0 0 0 0 1 0 0 0 0 1 0 0 0 0 1 0 0 0 0 1 0 0 0 0 1 0 0 0 0 1 0 0 0 0 1 0 0 0 0 1 0 0 0 0 1 0 0 0 0 1 0 0 0 0 1 0 0 0 0 1 0 0 0 0 1 0 0 0 0 1 0 0 0 0 1 0 0 0 0 1 0 0 0 0 1 0 0 0 0 1 0 0 0 0 1 0 0 0 0 1 0 0 0 0 1 0 0 0 0 1 0 0 0 0 1 0 0 0 0 1 0 0 0 0 1 0 0 0 0 1 0 0 0 0 1 0 0 0 0 1 0 0 0 0 1 0 0 0 0 1 0 0 0 0 1 0 0 0 0 1 0 0 0 0 1 0 0 0 0 1 0 0 0 0 1 0 0 0 0 1 0 0 0 0 1 0 0 0 0 1 0 0 0 0 1 0 0 0 0 1 0 0 0 0 1 0 0 0 0 1 0 0 0 0 1 0 0 0 0 1 0 0 0 0 1 0 0 0 0 1 0 0 0 0 1 0 0 0 0 1 0 0 0 0 1 0 0 0 0 1 0 0 0 0 0.9999999999999999 0 0 0 0 0.9999999999999999 0 0 0 0 1 0 0 0 0 1 0 0 0 0 1 0 0 0 0 1 0 0 0 0 1 0 0 0 0 1 0 0 0 0 1 0 0 0 0 1 0 0 0 0 1 0 0 0 0 1 0 0 0 0 1 0 0 0 0 1 0 0 0 0 1 0 0 0 0 1 0 0 0 0 1 0 0 0 0 1 0 0 0 0 0.9999999999999999 0 0 0 0 1 0 0 0 0 1 0 0 0 0 1 0 0 0 0 1 0 0 0 0 1 0 0 0 0 1 0 0 0 0 1 0 0 0 0 1 0 0 0 0 1 0 0 0 0 1 0 0 0 0 1 0 0 0 0 1 0 0 0 0 1 0 0 0 0 1 0 0 0 0 1 0 0 0 0 1 0 0 0 0 1 0 0 0 0 1 0 0 0 0 1 0 0 0 0 1 0 0 0 0 1 0 0 0 0 1 0 0 0 0 1 0 0 0 0 1 0 0 0 0 1 0 0 0 0 1 0 0 0 0 0.9999999999999999 0 0 0 0 1 0 0 0 0 0.9999999999999999 0 0 0 0 0.9999999999999999 0 0 0 0 1 0 0 0 0 1 0 0 0 0 1 0 0 0 0 1 0 0 0 0 1 0 0 0 0 1 0 0 0 0 1 0 0 0 0 1 0 0 0 0 1 0 0 0 0 1 0 0 0 0 1 0 0 0 0 1 0 0 0 0 1 0 0 0 0 1 0 0 0 0 1 0 0 0 0 1 0 0 0 0 1 0 0 0 0 1 0 0 0 0 1 0 0 0 0 1 0 0 0 0 1 0 0 0 0 1 0 0 0 0 1 0 0 0 0 1 0 0 0 0 1 0 0 0 0</probabilities>
		</cpt>
		<cpt id="Goliath">
			<state id="None" />
			<state id="Few" />
			<state id="Some" />
			<state id="Many" />
			<state id="Tons" />
			<parents>Armory TimePeriod</parents>
			<probabilities>1 0 0 0 0 1 0 0 0 0 1 0 0 0 0 1 0 0 0 0 1 0 0 0 0 1 0 0 0 0 1 0 0 0 0 0.7498660008854865 0 0.2501339991145135 0 0 1 0 0 0 0 0.5 0 0 0 0.5 1 0 0 0 0 1 0 0 0 0 0.4999067534196738 0 0.5000932465803263 0 5.373165578454232e-023 1 0 0 0 0 1 0 0 0 0 1 0 0 0 0 1 0 0 0 0 0.5003181499092985 0 0.4996818500907017 0 0 1 0 0 0 0 1 0 0 0 0 0.9549433396993072 0 0 0 0.04505666030069279 1 0 0 0 0 1 0 0 0 0 1 0 6.862263680714927e-057 0 0 1 0 0 0 0 1 0 0 0 0 1 0 0 0 0 1 0 0 0 0 0.8002310283411346 0.1997689716588654 0 0 0 0.75 0.25 0 0 0 0.75 0.25 0 0 0 0.25 0.5 0 0 0.25 0.6666666666666666 0.3333333333333333 0 0 0 1 0 0 0 0 1 0 0 0 0 1 0 0 0 0 1 0 0 0 0 0.3333333333333333 0 0 0.6666666666666666 0 1 0 0 0 0 1 0 0 0 0 1 0 0 0 0 1 0 0 0 0 1 0 0 0 0 1 0 0 0 0 1 0 0 0 0 0.5 0 0 0.5 0 1 0 0 0 0 1 0 0 0 0 1 0 0 0 0 0.5 0 0.5 0 0 1 0 0 0 0 1 0 0 0 0 1 0 0 0 0 1 0 0 0 0 1 0 0 0 0 1 0 0 0 0 1 0 0 0 0 0.2800393480402853 0.4401960406061069 0.2397188884036458 0 0.04004572294996202 0.6000000000000001 0.2 0.2 0 0 0.2730948312873139 0.6358735582835815 0.09103161042910465 0 2.100573409373266e-033 0.4 0.2 0.4 0 6.394321721844539e-022 1 0 0 0 0 0.335904621558631 0.3320476892206845 0.3320476892206845 0 1.327784886314686e-053 0.4286736141881337 0.2856631929059332 0.2856631929059332 0 2.678773217680642e-031 0.5 0.1666666666666667 0.3333333333333333 0 3.846293195286938e-021 0.2866902490366594 0.1433451245183297 0.2866902490366594 0.2832743771570575 2.512940849463773e-010 0.2927275005834539 0.146363750291727 0.146363750291727 0.1463682939362204 0.2681767048968718 0.6201427399502806 8.60726462757762e-227 0.1246388595103105 0.1276050974051691 0.12761330313424 0.4999006431683099 0 1.16699402353353e-042 0.3302166917809458 0.1698826650507443 0.5529941321429166 1.494480281486496e-266 1.989470736939389e-029 0.1467571457109093 0.3002487221461743 0.5000819002957275 1.483875723770025e-057 0 0.1666243981938115 0.333293701510461 0.3373206496347346 0.1691433948604705 0.1638789709263061 0.1630140296623892 0.1666429549160995 1 0 0 0 0 0.3577156878427232 0.1800969715448655 0.3692196819800223 1.672253126024048e-243 0.09296765863238898 0.3569079397673097 0.3209435572646377 2.57945128506673e-045 0 0.3221485029680525 1 0 0 0 0 1 0 0 0 0 1 0 0 0 0 1 0 0 0 0 1 0 0 0 0 1 0 0 0 0 0.5 0 0 0.5 8.418377360809096e-056 1 0 0 0 0 1 0 0 0 0 1 0 0 0 0 1 0 0 0 0 1 0 0 0 0 1 0 0 0 0 0.3636363636363637 0 0.2272727272727273 0 0.4090909090909091 1 0 0 0 0 1 0 0 0 0 1 0 0 0 0 1 0 0 0 0 1 0 0 0 0 1 0 0 0 0 1 0 0 0 0 1 0 0 0 0 1 0 0 0 0 1 0 0 0 0 1 0 0 0 0 1 0 0 0 0 1 0 0 0 0 1 0 0 0 0 1 0 0 0 0 1 0 0 0 0 1 0 0 0 0 1 0 0 0 0 1 0 0 0 0 1 0 0 0 0 1 0 0 0 0 1 0 0 0 0 1 0 0 0 0 1 0 0 0 0 1 0 0 0 0 1 0 0 0 0 1 0 0 0 0 1 0 0 0 0 1 0 0 0 0 1 0 0 0 0 1 0 0 0 0 1 0 0 0 0 1 0 0 0 0 1 0 0 0 0 1 0 0 0 0 1 0 0 0 0</probabilities>
		</cpt>
		<cpt id="Valkyrie">
			<state id="None" />
			<state id="Few" />
			<state id="Some" />
			<state id="Many" />
			<state id="Tons" />
			<parents>Armory ControlTower TimePeriod</parents>
			<probabilities>1 0 0 0 0 0.9999999999999999 0 0 0 0 1 0 0 0 0 1 0 0 0 0 1 0 0 0 0 1 0 0 0 0 1 0 0 0 0 1 0 0 0 0 1 0 0 0 0 1 0 0 0 0 1 0 0 0 0 1 0 0 0 0 1 0 0 0 0 1 0 0 0 0 1 0 0 0 0 1 0 0 0 0 1 0 0 0 0 1 0 0 0 0 1 0 0 0 0 1 0 0 0 0 1 0 0 0 0 1 0 0 0 0 1 0 0 0 0 1 0 0 0 0 1 0 0 0 0 1 0 0 0 0 1 0 0 0 0 1 0 0 0 0 0.9999999999999999 0 0 0 0 1 0 0 0 0 1 0 0 0 0 1 0 0 0 0 1 0 0 0 0 1 0 0 0 0 1 0 0 0 0 1 0 0 0 0 1 0 0 0 0 1 0 0 0 0 1 0 0 0 0 1 0 0 0 0 1 0 0 0 0 1 0 0 0 0 1 0 0 0 0 1 0 0 0 0 1 0 0 0 0 1 0 0 0 0 1 0 0 0 0 1 0 0 0 0 1 0 0 0 0 1 0 0 0 0 1 0 0 0 0 1 0 0 0 0 1 0 0 0 0 1 0 0 0 0 1 0 0 0 0 1 0 0 0 0 1 0 0 0 0 1 0 0 0 0 1 0 0 0 0 1 0 0 0 0 1 0 0 0 0 1 0 0 0 0 1 0 0 0 0 1 0 0 0 0 1 0 0 0 0 1 0 0 0 0 1 0 0 0 0 1 0 0 0 0 1 0 0 0 0 1 0 0 0 0 1 0 0 0 0 1 0 0 0 0 1 0 0 0 0 1 0 0 0 0 1 0 0 0 0 1 0 0 0 0 1 0 0 0 0 1 0 0 0 0 1 0 0 0 0 1 0 0 0 0 1 0 0 0 0 1 0 0 0 0 1 0 0 0 0 1 0 0 0 0 1 0 0 0 0 1 0 0 0 0 1 0 0 0 0 1 0 0 0 0 1 0 0 0 0 1 0 0 0 0 1 0 0 0 0 1 0 0 0 0 1 0 0 0 0 1 0 0 0 0 1 0 0 0 0 1 0 0 0 0 1 0 0 0 0 1 0 0 0 0 1 0 0 0 0 1 0 0 0 0 1 0 0 0 0 1 0 0 0 0 1 0 0 0 0 1 0 0 0 0 1 0 0 0 0 1 0 0 0 0 1 0 0 0 0 1 0 0 0 0 1 0 0 0 0 1 0 0 0 0 1 0 0 0 0 1 0 0 0 0 1 0 0 0 0 1 0 0 0 0 1 0 0 0 0 1 0 0 0 0 1 0 0 0 0 1 0 0 0 0 1 0 0 0 0 1 0 0 0 0 1 0 0 0 0 1 0 0 0 0 1 0 0 0 0 1 0 0 0 0 1 0 0 0 0 1 0 0 0 0 1 0 0 0 0 1 0 0 0 0 1 0 0 0 0 1 0 0 0 0 1 0 0 0 0 1 0 0 0 0 1 0 0 0 0 1 0 0 0 0 1 0 0 0 0 1 0 0 0 0 1 0 0 0 0 1 0 0 0 0 1 0 0 0 0 1 0 0 0 0 1 0 0 0 0 1 0 0 0 0 1 0 0 0 0 1 0 0 0 0 1 0 0 0 0 1 0 0 0 0 1 0 0 0 0 1 0 0 0 0 1 0 0 0 0 1 0 0 0 0 1 0 0 0 0 1 0 0 0 0 1 0 0 0 0 1 0 0 0 0 1 0 0 0 0 1 0 0 0 0 1 0 0 0 0 1 0 0 0 0 1 0 0 0 0 1 0 0 0 0 1 0 0 0 0 1 0 0 0 0 1 0 0 0 0 1 0 0 0 0 1 0 0 0 0 1 0 0 0 0 1 0 0 0 0 1 0 0 0 0 1 0 0 0 0 1 0 0 0 0 1 0 0 0 0 1 0 0 0 0 1 0 0 0 0 1 0 0 0 0 1 0 0 0 0 1 0 0 0 0 1 0 0 0 0 1 0 0 0 0 1 0 0 0 0 1 0 0 0 0 1 0 0 0 0 1 0 0 0 0 1 0 0 0 0 1 0 0 0 0 1 0 0 0 0 1 0 0 0 0 1 0 0 0 0 1 0 0 0 0 1 0 0 0 0 1 0 0 0 0 1 0 0 0 0 1 0 0 0 0 1 0 0 0 0 1 0 0 0 0 1 0 0 0 0 1 0 0 0 0 1 0 0 0 0 1 0 0 0 0 1 0 0 0 0 1 0 0 0 0 1 0 0 0 0 1 0 0 0 0 1 0 0 0 0 1 0 0 0 0 1 0 0 0 0 1 0 0 0 0 1 0 0 0 0 1 0 0 0 0 1 0 0 0 0 1 0 0 0 0 1 0 0 0 0 1 0 0 0 0 1 0 0 0 0 1 0 0 0 0 1 0 0 0 0 1 0 0 0 0 1 0 0 0 0 1 0 0 0 0 1 0 0 0 0 1 0 0 0 0 1 0 0 0 0 1 0 0 0 0 1 0 0 0 0 1 0 0 0 0 1 0 0 0 0 1 0 0 0 0 1 0 0 0 0 1 0 0 0 0 1 0 0 0 0 1 0 0 0 0 1 0 0 0 0 1 0 0 0 0 1 0 0 0 0 1 0 0 0 0 1 0 0 0 0 1 0 0 0 0 1 0 0 0 0 1 0 0 0 0 1 0 0 0 0 1 0 0 0 0 1 0 0 0 0 1 0 0 0 0 1 0 0 0 0 1 0 0 0 0 1 0 0 0 0 1 0 0 0 0 1 0 0 0 0 1 0 0 0 0 1 0 0 0 0 1 0 0 0 0 1 0 0 0 0 1 0 0 0 0 1 0 0 0 0 1 0 0 0 0 1 0 0 0 0 1 0 0 0 0 1 0 0 0 0 1 0 0 0 0 1 0 0 0 0 1 0 0 0 0 1 0 0 0 0 1 0 0 0 0 1 0 0 0 0 1 0 0 0 0 1 0 0 0 0 1 0 0 0 0 1 0 0 0 0 1 0 0 0 0 1 0 0 0 0 1 0 0 0 0 1 0 0 0 0 1 0 0 0 0 1 0 0 0 0 1 0 0 0 0 1 0 0 0 0 1 0 0 0 0 1 0 0 0 0 1 0 0 0 0 1 0 0 0 0 1 0 0 0 0 1 0 0 0 0 1 0 0 0 0 1 0 0 0 0 1 0 0 0 0 1 0 0 0 0 1 0 0 0 0 1 0 0 0 0 1 0 0 0 0 1 0 0 0 0 1 0 0 0 0 1 0 0 0 0 1 0 0 0 0 1 0 0 0 0 0.9999999999999999 0 0 0 0 1 0 0 0 0 1 0 0 0 0 1 0 0 0 0 1 0 0 0 0 1 0 0 0 0 1 0 0 0 0 1 0 0 0 0 1 0 0 0 0 1 0 0 0 0 1 0 0 0 0 1 0 0 0 0 1 0 0 0 0 1 0 0 0 0 1 0 0 0 0 1 0 0 0 0 1 0 0 0 0 1 0 0 0 0 1 0 0 0 0 1 0 0 0 0 1 0 0 0 0 1 0 0 0 0 1 0 0 0 0 1 0 0 0 0 1 0 0 0 0 1 0 0 0 0 1 0 0 0 0 1 0 0 0 0 1 0 0 0 0 1 0 0 0 0 1 0 0 0 0 1 0 0 0 0 1 0 0 0 0 1 0 0 0 0 1 0 0 0 0 1 0 0 0 0 1 0 0 0 0 1 0 0 0 0 1 0 0 0 0 1 0 0 0 0 1 0 0 0 0 1 0 0 0 0 1 0 0 0 0 1 0 0 0 0 1 0 0 0 0 1 0 0 0 0 1 0 0 0 0 1 0 0 0 0 1 0 0 0 0 1 0 0 0 0 1 0 0 0 0 1 0 0 0 0 1 0 0 0 0 1 0 0 0 0 1 0 0 0 0 1 0 0 0 0 1 0 0 0 0 1 0 0 0 0 1 0 0 0 0 1 0 0 0 0 1 0 0 0 0 1 0 0 0 0 1 0 0 0 0 1 0 0 0 0 1 0 0 0 0 1 0 0 0 0 1 0 0 0 0 1 0 0 0 0 1 0 0 0 0 1 0 0 0 0 1 0 0 0 0 1 0 0 0 0 1 0 0 0 0 1 0 0 0 0 1 0 0 0 0 1 0 0 0 0 1 0 0 0 0 1 0 0 0 0 1 0 0 0 0 1 0 0 0 0 1 0 0 0 0 1 0 0 0 0 1 0 0 0 0 1 0 0 0 0 1 0 0 0 0 1 0 0 0 0 1 0 0 0 0 1 0 0 0 0 1 0 0 0 0 1 0 0 0 0 1 0 0 0 0 1 0 0 0 0 1 0 0 0 0 1 0 0 0 0 1 0 0 0 0 1 0 0 0 0 1 0 0 0 0 1 0 0 0 0 1 0 0 0 0 1 0 0 0 0 1 0 0 0 0 1 0 0 0 0 1 0 0 0 0 1 0 0 0 0 1 0 0 0 0 1 0 0 0 0 1 0 0 0 0 1 0 0 0 0 1 0 0 0 0 1 0 0 0 0 1 0 0 0 0 1 0 0 0 0 1 0 0 0 0 1 0 0 0 0 1 0 0 0 0 1 0 0 0 0 1 0 0 0 0 1 0 0 0 0 1 0 0 0 0 1 0 0 0 0 1 0 0 0 0 1 0 0 0 0 1 0 0 0 0 1 0 0 0 0 1 0 0 0 0 1 0 0 0 0 1 0 0 0 0 1 0 0 0 0 1 0 0 0 0 1 0 0 0 0 1 0 0 0 0 1 0 0 0 0 1 0 0 0 0 1 0 0 0 0 1 0 0 0 0 1 0 0 0 0 1 0 0 0 0 1 0 0 0 0 1 0 0 0 0 1 0 0 0 0 1 0 0 0 0 1 0 0 0 0 1 0 0 0 0 1 0 0 0 0 1 0 0 0 0 1 0 0 0 0 1 0 0 0 0 1 0 0 0 0 1 0 0 0 0 1 0 0 0 0 1 0 0 0 0 1 0 0 0 0 1 0 0 0 0 1 0 0 0 0 1 0 0 0 0 1 0 0 0 0 1 0 0 0 0 1 0 0 0 0 1 0 0 0 0 1 0 0 0 0 1 0 0 0 0 1 0 0 0 0 1 0 0 0 0 1 0 0 0 0 1 0 0 0 0 1 0 0 0 0 1 0 0 0 0 1 0 0 0 0 1 0 0 0 0 1 0 0 0 0 1 0 0 0 0 1 0 0 0 0 1 0 0 0 0 1 0 0 0 0 1 0 0 0 0 1 0 0 0 0 1 0 0 0 0 1 0 0 0 0 1 0 0 0 0 1 0 0 0 0 1 0 0 0 0 1 0 0 0 0 1 0 0 0 0 1 0 0 0 0 1 0 0 0 0 1 0 0 0 0 1 0 0 0 0 1 0 0 0 0 1 0 0 0 0 1 0 0 0 0 1 0 0 0 0 1 0 0 0 0 1 0 0 0 0 1 0 0 0 0 1 0 0 0 0 1 0 0 0 0 1 0 0 0 0 1 0 0 0 0 1 0 0 0 0 1 0 0 0 0 1 0 0 0 0 1 0 0 0 0 1 0 0 0 0 1 0 0 0 0 1 0 0 0 0 1 0 0 0 0 1 0 0 0 0 1 0 0 0 0 1 0 0 0 0 1 0 0 0 0 1 0 0 0 0 1 0 0 0 0 1 0 0 0 0 1 0 0 0 0 1 0 0 0 0 1 0 0 0 0 1 0 0 0 0 1 0 0 0 0 1 0 0 0 0 1 0 0 0 0 1 0 0 0 0 1 0 0 0 0 1 0 0 0 0 1 0 0 0 0 1 0 0 0 0 1 0 0 0 0 1 0 0 0 0 1 0 0 0 0 1 0 0 0 0 1 0 0 0 0 1 0 0 0 0 1 0 0 0 0 1 0 0 0 0 1 0 0 0 0 1 0 0 0 0 1 0 0 0 0 1 0 0 0 0 1 0 0 0 0 1 0 0 0 0 1 0 0 0 0 1 0 0 0 0 1 0 0 0 0 1 0 0 0 0 1 0 0 0 0 1 0 0 0 0 1 0 0 0 0 1 0 0 0 0 1 0 0 0 0 1 0 0 0 0 1 0 0 0 0 1 0 0 0 0 1 0 0 0 0 1 0 0 0 0 1 0 0 0 0 1 0 0 0 0 1 0 0 0 0 1 0 0 0 0 1 0 0 0 0 1 0 0 0 0 1 0 0 0 0 1 0 0 0 0 1 0 0 0 0 1 0 0 0 0 1 0 0 0 0 1 0 0 0 0 1 0 0 0 0 1 0 0 0 0 1 0 0 0 0 1 0 0 0 0 1 0 0 0 0 1 0 0 0 0 1 0 0 0 0 1 0 0 0 0 1 0 0 0 0 1 0 0 0 0 1 0 0 0 0 1 0 0 0 0 1 0 0 0 0 1 0 0 0 0 1 0 0 0 0 1 0 0 0 0 1 0 0 0 0 1 0 0 0 0 1 0 0 0 0 1 0 0 0 0 1 0 0 0 0 1 0 0 0 0 1 0 0 0 0 1 0 0 0 0 1 0 0 0 0 1 0 0 0 0 1 0 0 0 0 1 0 0 0 0 1 0 0 0 0 1 0 0 0 0 1 0 0 0 0 1 0 0 0 0 1 0 0 0 0 1 0 0 0 0 1 0 0 0 0 1 0 0 0 0 1 0 0 0 0 1 0 0 0 0 1 0 0 0 0 1 0 0 0 0 1 0 0 0 0 1 0 0 0 0 1 0 0 0 0 1 0 0 0 0 1 0 0 0 0 1 0 0 0 0 1 0 0 0 0 1 0 0 0 0 1 0 0 0 0 1 0 0 0 0 1 0 0 0 0 1 0 0 0 0 1 0 0 0 0 1 0 0 0 0 1 0 0 0 0 1 0 0 0 0 1 0 0 0 0 1 0 0 0 0 1 0 0 0 0 1 0 0 0 0 1 0 0 0 0 1 0 0 0 0 1 0 0 0 0 1 0 0 0 0 1 0 0 0 0 1 0 0 0 0 1 0 0 0 0</probabilities>
		</cpt>
		<cpt id="Dropship">
			<state id="None" />
			<state id="Few" />
			<state id="Some" />
			<state id="Many" />
			<state id="Tons" />
			<parents>ControlTower TimePeriod</parents>
			<probabilities>1 0 0 0 0 1 0 0 0 0 1 0 0 0 0 1 0 0 0 0 1 0 0 0 0 1 0 0 0 0 1 0 0 0 0 1 0 0 0 0 1 0 0 0 0 1 0 0 0 0 1 0 0 0 0 1 0 0 0 0 1 0 0 0 0 1 0 0 0 0 1 0 0 0 0 1 0 0 0 0 1 0 0 0 0 1 0 0 0 0 1 0 0 0 0 1 0 0 0 0 1 0 0 0 0 1 0 0 0 0 1 0 0 0 0 1 0 0 0 0 1 0 0 0 0 1 0 0 0 0 0.4961678677174961 0.503832132282504 0 0 0 0.338960064271053 0.6610399357289469 0 0 0 0.3940686436223736 0.6059313563776264 0 0 0 0.5066396674881259 0.4933603325118741 0 0 0 0.25 0.75 0 0 0 0.6000000000000001 0.4 0 0 0 0.8887744320617734 0.1112255679382265 0 0 0 0.4 0.6000000000000001 0 0 0 0.429025119850921 0.570974880149079 0 0 0 0.6666666666666666 0.3333333333333333 0 0 0 1 0 0 0 0 0.8164448672437427 0.1835551327562574 0 0 0 0.6665275848335878 0.3334724151664122 0 0 0 0.6666666666666666 0.3333333333333333 0 0 0 0.7133097509633406 0.2866902490366594 0 0 0 0.7446469320850729 0.2553530679149271 0 0 0 0.4485849971249413 0.5514150028750586 0 0 0 0.5709406383264346 0.4290593616735654 0 0 0 0.5177757259144012 0.4822242740855988 0 0 0 0.666583880489121 0.333416119510879 0 0 0 0.5656671637319142 0.4343328362680859 0 0 0 1 0 0 0 0 0.2784278431821389 0.7215721568178611 0 0 0 0.5514590045460349 0.4485409954539651 0 0 0 1 0 0 0 0 1 0 0 0 0 1 0 0 0 0 1 0 0 0 0 1 0 0 0 0 1 0 0 0 0 0.3333333333333333 0.6666666666666666 0 0 0 1 0 0 0 0 1 0 0 0 0 1 0 0 0 0 1 0 0 0 0 1 0 0 0 0 1 0 0 0 0 0.04347826086956522 0.9565217391304348 0 0 0 1 0 0 0 0 1 0 0 0 0 1 0 0 0 0 1 0 0 0 0 1 0 0 0 0 1 0 0 0 0 1 0 0 0 0 1 0 0 0 0 1 0 0 0 0 1 0 0 0 0 1 0 0 0 0 1 0 0 0 0 1 0 0 0 0 1 0 0 0 0 1 0 0 0 0 1 0 0 0 0 1 0 0 0 0 1 0 0 0 0 1 0 0 0 0 1 0 0 0 0 1 0 0 0 0 1 0 0 0 0 1 0 0 0 0 1 0 0 0 0 1 0 0 0 0 1 0 0 0 0 1 0 0 0 0 1 0 0 0 0 1 0 0 0 0 1 0 0 0 0 1 0 0 0 0 1 0 0 0 0 1 0 0 0 0 1 0 0 0 0 1 0 0 0 0 1 0 0 0 0 1 0 0 0 0 1 0 0 0 0 1 0 0 0 0 1 0 0 0 0 1 0 0 0 0 1 0 0 0 0 1 0 0 0 0 1 0 0 0 0 1 0 0 0 0 1 0 0 0 0 1 0 0 0 0 1 0 0 0 0 1 0 0 0 0 1 0 0 0 0 1 0 0 0 0 1 0 0 0 0 1 0 0 0 0 1 0 0 0 0 1 0 0 0 0 1 0 0 0 0 1 0 0 0 0 1 0 0 0 0 1 0 0 0 0 1 0 0 0 0 1 0 0 0 0</probabilities>
		</cpt>
		<cpt id="Wraith">
			<state id="None" />
			<state id="Few" />
			<state id="Some" />
			<state id="Many" />
			<state id="Tons" />
			<parents>Starport TimePeriod</parents>
			<probabilities>1 0 0 0 0 0.9999999999999999 0 0 0 0 1 0 0 0 0 1 0 0 0 0 1 0 0 0 0 1 0 0 0 0 1 0 0 0 0 1 0 0 0 0 1 0 0 0 0 1 0 0 0 0 1 0 0 0 0 1 0 0 0 0 1 0 0 0 0 1 0 0 0 0 1 0 0 0 0 1 0 0 0 0 1 0 0 0 0 1 0 0 0 0 1 0 0 0 0 1 0 0 0 0 1 0 0 0 0 1 0 0 0 0 1 0 0 0 0 1 0 0 0 0 1 0 0 0 0 1 0 0 0 0 1 0 0 0 0 0.6760664087074377 0.3239335912925622 0 0 0 0.7122739283290094 0.2877260716709907 0 0 0 0.6047213088700209 0.3952786911299792 0 0 0 0.6000000000000001 0.4 0 0 0 0.6666666666666666 0.3333333333333333 0 0 0 0.9258475324437068 0.0741524675562933 0 0 0 0.6666666666666666 0.3333333333333333 0 0 0 0.7854874400745395 0.2145125599254605 0 0 0 0.5 0.5 0 0 0 1 0 0 0 0 0.4 0.3 0.3 0 0 0.5714285714285714 0.4285714285714286 0 0 0 0.7142857142857142 0.2857142857142857 0 0 0 0.7492530969969049 0.2507469030030952 0 0 0 0.7446469320850728 0.2553530679149271 0 0 0 0.7162179923373473 0.2837820076626527 0 0 0 0.7165785543072677 0.2834214456927323 0 0 0 0.744048430376372 0.2559515696236279 0 0 0 0.5556307058602752 0.4443692941397247 0 0 0 0.719669710760565 0.280330289239435 0 0 0 1 0 0 0 0 0.9078922923546234 0.09210770764537653 0 0 0 0.8418671686903678 0.1581328313096322 0 0 0 1 0 0 0 0 1 0 0 0 0 1 0 0 0 0 1 0 0 0 0 1 0 0 0 0 1 0 0 0 0 0.6666666666666666 0.3333333333333333 0 0 0 0.4997528205028217 0.5002471794971783 0 0 0 1 0 0 0 0 1 0 0 0 0 1 0 0 0 0 1 0 0 0 0 0.08320129885701379 0.9167987011429861 0 0 0 0.04347589427307273 0.9565241057269273 0 0 0 1 0 0 0 0 1 0 0 0 0 1 0 0 0 0 0.3357886621141381 0.664211337885862 0 0 0 1 0 0 0 0 1 0 0 0 0 1 0 0 0 0 1 0 0 0 0 1 0 0 0 0 0.4998370445064984 0.5001629554935017 0 0 0 1 0 0 0 0 1 0 0 0 0 1 0 0 0 0 1 0 0 0 0 1 0 0 0 0 1 0 0 0 0 1 0 0 0 0 1 0 0 0 0 1 0 0 0 0 1 0 0 0 0 1 0 0 0 0 1 0 0 0 0 1 0 0 0 0 1 0 0 0 0 1 0 0 0 0 1 0 0 0 0 1 0 0 0 0 1 0 0 0 0 0.3333333333333333 0.6666666666666666 0 0 0 1 0 0 0 0 1 0 0 0 0 1 0 0 0 0 1 0 0 0 0 1 0 0 0 0 1 0 0 0 0 0.5 0.5 0 0 0 1 0 0 0 0 1 0 0 0 0 1 0 0 0 0 1 0 0 0 0 1 0 0 0 0 1 0 0 0 0 1 0 0 0 0 1 0 0 0 0 1 0 0 0 0 1 0 0 0 0 1 0 0 0 0 1 0 0 0 0 1 0 0 0 0 1 0 0 0 0 1 0 0 0 0 1 0 0 0 0 1 0 0 0 0 1 0 0 0 0 1 0 0 0 0 1 0 0 0 0 1 0 0 0 0 1 0 0 0 0 1 0 0 0 0 1 0 0 0 0 1 0 0 0 0</probabilities>
		</cpt>
		<cpt id="ScienceVessel">
			<state id="None" />
			<state id="Few" />
			<state id="Some" />
			<state id="Many" />
			<state id="Tons" />
			<parents>ControlTower ScienceFacility TimePeriod</parents>
			<probabilities>1 0 0 0 0 1 0 0 0 0 1 0 0 0 0 1 0 0 0 0 1 0 0 0 0 1 0 0 0 0 1 0 0 0 0 1 0 7.551585406911647e-076 0 0 1 0 0 0 0 1 0 0 0 0 1 0 0 0 0 1 0 0 0 0 0.6362506373202956 0 0.3637493626797043 0 0 1 0 0 0 0 1 0 0 0 0 1 0 0 0 0 1 0 0 0 0 1 0 4.990086184574166e-021 0 0 1 0 0 0 0 1 0 0 0 0 1 0 0 0 0 1 0 0 0 0 1 0 0 0 0 1 0 0 0 0 1 0 0 0 0 1 0 0 0 0 1 0 0 0 0 1 0 0 0 0 1 0 0 0 0 1 0 0 0 0 1 0 0 0 0 1 0 0 0 0 1 0 0 0 0 1 0 0 0 0 1 0 0 0 0 1 0 0 0 0 1 0 0 0 0 1 0 0 0 0 1 0 0 0 0 1 0 0 0 0 1 0 0 0 0 1 0 0 0 0 1 0 0 0 0 1 0 0 0 0 1 0 0 0 0 1 0 0 0 0 1 0 0 0 0 1 0 0 0 0 1 0 0 0 0 1 0 0 0 0 1 0 0 0 0 1 0 0 0 0 1 0 0 0 0 1 0 0 0 0 1 0 0 0 0 1 0 0 0 0 1 0 0 0 0 1 0 0 0 0 1 0 0 0 0 1 0 0 0 0 1 0 0 0 0 1 0 0 0 0 1 0 0 0 0 1 0 0 0 0 1 0 0 0 0 1 0 0 0 0 1 0 0 0 0 1 0 0 0 0 1 0 0 0 0 1 0 0 0 0 1 0 0 0 0 1 0 0 0 0 1 0 0 0 0 1 0 0 0 0 1 0 0 0 0 1 0 0 0 0 1 0 0 0 0 1 0 0 0 0 1 0 0 0 0 1 0 0 0 0 1 0 0 0 0 1 0 0 0 0 1 0 0 0 0 1 0 0 0 0 1 0 0 0 0 1 0 0 0 0 1 0 0 0 0 1 0 0 0 0 1 0 0 0 0 1 0 0 0 0 1 0 0 0 0 1 0 0 0 0 1 0 0 0 0 1 0 0 0 0 1 0 0 0 0 1 0 0 0 0 1 0 0 0 0 1 0 0 0 0 1 0 0 0 0 1 0 0 0 0 1 0 0 0 0 1 0 0 0 0 1 0 0 0 0 1 0 0 0 0 1 0 0 0 0 1 0 0 0 0 1 0 0 0 0 1 0 0 0 0 1 0 0 0 0 1 0 0 0 0 1 0 0 0 0 1 0 0 0 0 1 0 0 0 0 1 0 0 0 0 1 0 0 0 0 1 0 0 0 0 1 0 0 0 0 1 0 0 0 0 1 0 0 0 0 1 0 0 0 0 1 0 0 0 0 1 0 0 0 0 1 0 0 0 0 1 0 0 0 0 1 0 0 0 0 1 0 0 0 0 1 0 0 0 0 1 0 0 0 0 1 0 0 0 0 1 0 0 0 0 1 0 0 0 0 1 0 0 0 0 1 0 0 0 0 1 0 0 0 0 0.75 0.25 0 0 0 1 0 0 0 0 1 0 0 0 0 0.8339761553896578 0 0.1660238446103423 0 0 1 0 0 0 0 1 0 0 0 0 1 0 0 0 0 1 0 0 0 0 0.7990158531561565 0 1.5440814664869e-025 0.2009841468438435 0 0.6666666666666666 0 0 0.3333333333333333 0 0.6666666666666666 0 0 0.3333333333333333 0 1 0 0 0 0 1 0 0 0 0 1 0 0 0 0 1 0 0 0 0 1 0 0 0 0 1 0 0 0 0 1 0 0 0 0 1 0 0 0 0 1 0 0 0 0 1 0 0 0 0 1 0 0 0 0 1 0 0 0 0 0.3200748194444147 0.1601780179277942 0.5197471626277911 0 0 1 0 0 0 0 0.6358735582835815 0.09103161042910464 0.2730948312873139 1.53643203109379e-128 0 1 0 0 0 0 1 0 0 0 0 0.5000633269870756 0.3333755513247171 0.1665611216882073 0 0 0.6000000000000001 0.2 0.2 0 0 0.2 0.6000000000000001 0 0.2 0 0.4980062731643317 0.3346624845571122 0 0.1673312422785561 0 0.5609087491248193 0.2927275005834539 8.774296973916613e-135 0.146363750291727 0 0.6037770473532198 0.3962229526467802 1.531222368888646e-050 1.680708128364142e-136 0 0.4067193806126628 0.5932806193873372 2.277153262070829e-045 1.565944058972084e-032 0 0.4840021982961046 0.5159978017038955 3.921634773217864e-032 9.833117315648364e-020 0 0.4001648403657551 0 0.5998351596342449 1.622184295345635e-055 0 0.4993228292447388 2.914820485015201e-032 0.5006771707552613 1.156840670370624e-019 0 1 0 0 0 0 0.2984333667193851 0.2029044819986184 0.3972099102826873 0.1014522409993092 0 0.6782285099586405 1.613240417661689e-154 0.3217714900413596 7.351125045670289e-020 0 1 0 0 0 0 1 0 0 0 0 1 0 0 0 0 1 0 0 0 0 1 0 0 0 0 1 0 0 0 0 1 0 0 0 0 1 0 0 0 0 1 0 0 0 0 1 0 0 0 0 1 0 0 0 0 1 0 0 0 0 1 0 0 0 0 1 0 0 0 0 1 0 0 0 0 1 0 0 0 0 1 0 0 0 0 1 0 0 0 0 1 0 0 0 0 1 0 0 0 0 1 0 0 0 0 1 0 0 0 0 1 0 0 0 0 1 0 0 0 0 1 0 0 0 0 1 0 0 0 0 1 0 0 0 0 1 0 0 0 0 1 0 0 0 0 1 0 0 0 0 1 0 0 0 0 1 0 0 0 0 1 0 0 0 0 1 0 0 0 0 1 0 0 0 0 1 0 0 0 0 1 0 0 0 0 1 0 0 0 0 1 0 0 0 0 1 0 0 0 0 1 0 0 0 0 1 0 0 0 0 1 0 0 0 0 1 0 0 0 0 1 0 0 0 0 1 0 0 0 0 1 0 0 0 0 1 0 0 0 0 1 0 0 0 0 1 0 0 0 0 1 0 0 0 0 1 0 0 0 0 1 0 0 0 0 1 0 0 0 0 1 0 0 0 0 1 0 0 0 0 1 0 0 0 0 1 0 0 0 0 1 0 0 0 0 1 0 0 0 0 1 0 0 0 0 1 0 0 0 0 1 0 0 0 0 1 0 0 0 0 1 0 0 0 0 1 0 0 0 0 1 0 0 0 0 1 0 0 0 0 1 0 0 0 0 1 0 0 0 0 1 0 0 0 0 1 0 0 0 0 1 0 0 0 0 1 0 0 0 0 1 0 0 0 0 1 0 0 0 0 1 0 0 0 0 1 0 0 0 0 1 0 0 0 0 1 0 0 0 0 1 0 0 0 0 1 0 0 0 0 1 0 0 0 0 1 0 0 0 0 1 0 0 0 0 1 0 0 0 0 1 0 0 0 0 1 0 0 0 0 1 0 0 0 0 1 0 0 0 0 1 0 0 0 0 1 0 0 0 0 1 0 0 0 0 1 0 0 0 0 1 0 0 0 0 1 0 0 0 0 1 0 0 0 0 1 0 0 0 0 1 0 0 0 0 1 0 0 0 0 1 0 0 0 0 1 0 0 0 0 1 0 0 0 0 1 0 0 0 0 1 0 0 0 0 1 0 0 0 0 0.3333333333333333 0.6666666666666666 0 0 0 1 0 0 0 0 1 0 0 0 0 1 0 0 0 0 1 0 0 0 0 1 0 0 0 0 1 0 0 0 0 0.2 0.55 0.25 0 0 1 0 0 0 0 1 0 0 0 0 1 0 0 0 0 0.6666666666666666 0.3333333333333333 0 0 0 1 0 0 0 0 1 0 0 0 0 1 0 0 0 0 1 0 0 0 0 1 0 0 0 0 1 0 0 0 0 1 0 0 0 0 1 0 0 0 0 1 0 0 0 0 1 0 0 0 0 1 0 0 0 0 1 0 0 0 0 1 0 0 0 0 1 0 0 0 0 1 0 0 0 0 1 0 0 0 0 1 0 0 0 0 1 0 0 0 0 1 0 0 0 0 1 0 0 0 0 1 0 0 0 0 1 0 0 0 0 1 0 0 0 0 1 0 0 0 0 1 0 0 0 0 1 0 0 0 0 1 0 0 0 0 1 0 0 0 0 1 0 0 0 0 1 0 0 0 0 1 0 0 0 0 1 0 0 0 0 1 0 0 0 0 1 0 0 0 0 1 0 0 0 0 1 0 0 0 0 1 0 0 0 0 1 0 0 0 0 1 0 0 0 0 1 0 0 0 0 1 0 0 0 0 1 0 0 0 0 1 0 0 0 0 1 0 0 0 0 1 0 0 0 0 1 0 0 0 0 1 0 0 0 0 1 0 0 0 0 1 0 0 0 0 1 0 0 0 0 1 0 0 0 0 1 0 0 0 0 1 0 0 0 0 1 0 0 0 0 1 0 0 0 0 1 0 0 0 0 1 0 0 0 0 1 0 0 0 0 1 0 0 0 0 1 0 0 0 0 1 0 0 0 0 1 0 0 0 0 1 0 0 0 0 1 0 0 0 0 1 0 0 0 0 1 0 0 0 0 1 0 0 0 0 1 0 0 0 0 1 0 0 0 0 1 0 0 0 0 1 0 0 0 0 1 0 0 0 0 1 0 0 0 0 1 0 0 0 0 1 0 0 0 0 1 0 0 0 0 1 0 0 0 0 1 0 0 0 0 1 0 0 0 0 1 0 0 0 0 1 0 0 0 0 1 0 0 0 0 1 0 0 0 0 1 0 0 0 0 1 0 0 0 0 1 0 0 0 0 1 0 0 0 0 1 0 0 0 0 1 0 0 0 0 1 0 0 0 0 1 0 0 0 0 1 0 0 0 0 1 0 0 0 0 1 0 0 0 0 1 0 0 0 0 1 0 0 0 0 1 0 0 0 0 1 0 0 0 0 1 0 0 0 0 1 0 0 0 0 1 0 0 0 0 1 0 0 0 0 1 0 0 0 0 1 0 0 0 0 1 0 0 0 0 1 0 0 0 0 1 0 0 0 0 1 0 0 0 0 1 0 0 0 0 1 0 0 0 0 1 0 0 0 0 1 0 0 0 0 1 0 0 0 0 1 0 0 0 0 1 0 0 0 0 1 0 0 0 0 1 0 0 0 0 1 0 0 0 0 1 0 0 0 0 1 0 0 0 0 1 0 0 0 0 1 0 0 0 0 1 0 0 0 0 1 0 0 0 0 1 0 0 0 0 1 0 0 0 0 1 0 0 0 0 1 0 0 0 0 1 0 0 0 0 1 0 0 0 0 1 0 0 0 0 1 0 0 0 0 1 0 0 0 0 1 0 0 0 0 1 0 0 0 0 1 0 0 0 0 1 0 0 0 0 1 0 0 0 0 1 0 0 0 0 1 0 0 0 0 1 0 0 0 0 1 0 0 0 0 1 0 0 0 0 1 0 0 0 0 1 0 0 0 0 1 0 0 0 0 1 0 0 0 0 1 0 0 0 0 1 0 0 0 0 1 0 0 0 0 1 0 0 0 0 1 0 0 0 0 1 0 0 0 0 1 0 0 0 0 1 0 0 0 0 1 0 0 0 0 1 0 0 0 0 1 0 0 0 0 1 0 0 0 0 1 0 0 0 0 1 0 0 0 0 1 0 0 0 0 1 0 0 0 0 1 0 0 0 0 1 0 0 0 0 1 0 0 0 0 1 0 0 0 0 1 0 0 0 0 1 0 0 0 0 1 0 0 0 0 1 0 0 0 0 1 0 0 0 0 1 0 0 0 0 1 0 0 0 0 1 0 0 0 0 1 0 0 0 0 1 0 0 0 0 1 0 0 0 0 1 0 0 0 0 1 0 0 0 0 1 0 0 0 0 1 0 0 0 0 1 0 0 0 0 1 0 0 0 0 1 0 0 0 0 1 0 0 0 0 1 0 0 0 0 1 0 0 0 0 1 0 0 0 0 1 0 0 0 0 1 0 0 0 0 1 0 0 0 0 1 0 0 0 0 1 0 0 0 0 1 0 0 0 0 1 0 0 0 0 1 0 0 0 0 1 0 0 0 0 1 0 0 0 0 1 0 0 0 0 1 0 0 0 0 1 0 0 0 0 1 0 0 0 0 1 0 0 0 0 1 0 0 0 0 1 0 0 0 0 1 0 0 0 0 1 0 0 0 0 1 0 0 0 0 1 0 0 0 0 1 0 0 0 0 1 0 0 0 0 1 0 0 0 0 1 0 0 0 0 1 0 0 0 0 1 0 0 0 0 1 0 0 0 0 1 0 0 0 0 1 0 0 0 0 1 0 0 0 0 1 0 0 0 0 1 0 0 0 0 1 0 0 0 0 1 0 0 0 0 1 0 0 0 0 1 0 0 0 0 1 0 0 0 0 1 0 0 0 0 1 0 0 0 0 1 0 0 0 0 1 0 0 0 0 1 0 0 0 0 1 0 0 0 0 1 0 0 0 0 1 0 0 0 0 1 0 0 0 0 1 0 0 0 0 1 0 0 0 0 1 0 0 0 0 1 0 0 0 0 1 0 0 0 0 1 0 0 0 0 1 0 0 0 0 1 0 0 0 0 1 0 0 0 0 1 0 0 0 0 1 0 0 0 0 1 0 0 0 0 1 0 0 0 0 1 0 0 0 0 1 0 0 0 0 1 0 0 0 0 1 0 0 0 0 1 0 0 0 0 1 0 0 0 0 1 0 0 0 0 1 0 0 0 0 1 0 0 0 0 1 0 0 0 0 1 0 0 0 0 1 0 0 0 0 1 0 0 0 0 1 0 0 0 0 1 0 0 0 0 1 0 0 0 0 1 0 0 0 0 1 0 0 0 0 1 0 0 0 0 1 0 0 0 0 1 0 0 0 0 1 0 0 0 0 1 0 0 0 0 1 0 0 0 0 1 0 0 0 0 1 0 0 0 0 1 0 0 0 0 1 0 0 0 0 1 0 0 0 0 1 0 0 0 0 1 0 0 0 0 1 0 0 0 0 1 0 0 0 0 1 0 0 0 0 1 0 0 0 0 1 0 0 0 0 1 0 0 0 0 1 0 0 0 0 1 0 0 0 0 1 0 0 0 0 1 0 0 0 0 1 0 0 0 0 1 0 0 0 0 1 0 0 0 0 1 0 0 0 0 1 0 0 0 0 1 0 0 0 0 1 0 0 0 0 1 0 0 0 0 1 0 0 0 0 1 0 0 0 0 1 0 0 0 0 1 0 0 0 0 1 0 0 0 0 1 0 0 0 0 1 0 0 0 0 1 0 0 0 0 1 0 0 0 0 1 0 0 0 0 1 0 0 0 0 1 0 0 0 0 1 0 0 0 0 1 0 0 0 0 1 0 0 0 0 1 0 0 0 0 1 0 0 0 0 1 0 0 0 0 1 0 0 0 0 1 0 0 0 0 1 0 0 0 0 1 0 0 0 0 1 0 0 0 0 1 0 0 0 0 1 0 0 0 0 1 0 0 0 0 1 0 0 0 0 1 0 0 0 0 1 0 0 0 0 1 0 0 0 0 1 0 0 0 0 1 0 0 0 0 1 0 0 0 0 1 0 0 0 0</probabilities>
		</cpt>
		<cpt id="Battlecruiser">
			<state id="None" />
			<state id="Few" />
			<state id="Some" />
			<state id="Many" />
			<state id="Tons" />
			<parents>PhysicsLab TimePeriod</parents>
			<probabilities>1 0 0 0 0 1 0 0 0 0 1 0 0 0 0 1 0 0 0 0 1 0 0 0 0 1 0 0 0 0 1 0 0 0 0 1 0 0 0 0 1 0 0 0 0 1 0 0 0 0 1 0 0 0 0 1 0 0 0 0 1 0 0 0 0 0.9999999999999999 0 0 0 0 1 0 0 0 0 1 0 0 0 0 0.9999999999999999 0 0 0 0 1 0 0 0 0 1 0 0 0 0 0.9999999999999999 0 0 0 0 1 0 0 0 0 0.9999999999999999 0 0 0 0 1 0 0 0 0 1 0 0 0 0 1 0 0 0 0 1 0 0 0 0 1 0 0 0 0 1 0 0 0 0 1 0 0 0 0 1 0 0 0 0 1 0 0 0 0 1 0 0 0 0 1 0 0 0 0 1 0 0 0 0 1 0 0 0 0 1 0 0 0 0 1 0 0 0 0 1 0 0 0 0 1 0 0 0 0 1 0 0 0 0 1 0 0 0 0 1 0 0 0 0 1 0 0 0 0 1 0 0 0 0 1 0 0 0 0 1 0 0 0 0 1 0 0 0 0 1 0 0 0 0 1 0 0 0 0 1 0 0 0 0 1 0 0 0 0 1 0 0 0 0 1 0 0 0 0 1 0 0 0 0 1 0 0 0 0 1 0 0 0 0 1 0 0 0 0 1 0 0 0 0 1 0 0 0 0 1 0 0 0 0 1 0 0 0 0 1 0 0 0 0 1 0 0 0 0 1 0 0 0 0 1 0 0 0 0 1 0 0 0 0 1 0 0 0 0 1 0 0 0 0 1 0 0 0 0 1 0 0 0 0 1 0 0 0 0 1 0 0 0 0 1 0 0 0 0 1 0 0 0 0 1 0 0 0 0 1 0 0 0 0 1 0 0 0 0 1 0 0 0 0 1 0 0 0 0 1 0 0 0 0 1 0 0 0 0 1 0 0 0 0 1 0 0 0 0 1 0 0 0 0 1 0 0 0 0 1 0 0 0 0 1 0 0 0 0 1 0 0 0 0 1 0 0 0 0 1 0 0 0 0 1 0 0 0 0 1 0 0 0 0 1 0 0 0 0 1 0 0 0 0 1 0 0 0 0 1 0 0 0 0 1 0 0 0 0 1 0 0 0 0 1 0 0 0 0 1 0 0 0 0 1 0 0 0 0 1 0 0 0 0 1 0 0 0 0 1 0 0 0 0 1 0 0 0 0 1 0 0 0 0 1 0 0 0 0 1 0 0 0 0 1 0 0 0 0 1 0 0 0 0 1 0 0 0 0 1 0 0 0 0 1 0 0 0 0 1 0 0 0 0 1 0 0 0 0 1 0 0 0 0 1 0 0 0 0 1 0 0 0 0 1 0 0 0 0 1 0 0 0 0 1 0 0 0 0 1 0 0 0 0 1 0 0 0 0 1 0 0 0 0 1 0 0 0 0</probabilities>
		</cpt>
		<cpt id="Ghost">
			<state id="None" />
			<state id="Few" />
			<state id="Some" />
			<state id="Many" />
			<state id="Tons" />
			<parents>CovertOps TimePeriod</parents>
			<probabilities>1 0 0 0 0 1 0 0 0 0 1 0 0 0 0 1 0 0 0 0 1 0 0 0 0 1 0 0 0 0 1 0 0 0 0 1 0 0 0 0 1 0 0 0 0 1 0 0 0 0 1 0 0 0 0 1 0 0 0 0 1 0 0 0 0 1 0 0 0 0 1 0 0 0 0 1 0 0 0 0 0.9999999999999999 0 0 0 0 1 0 0 0 0 1 0 0 0 0 0.9999999999999999 0 0 0 0 1 0 0 0 0 0.9999999999999999 0 0 0 0 1 0 0 0 0 1 0 0 0 0 1 0 0 0 0 1 0 0 0 0 1 0 0 0 0 1 0 0 0 0 1 0 0 0 0 1 0 0 0 0 1 0 0 0 0 1 0 0 0 0 1 0 0 0 0 1 0 0 0 0 1 0 0 0 0 1 0 0 0 0 1 0 0 0 0 1 0 0 0 0 1 0 0 0 0 1 0 0 0 0 1 0 0 0 0 1 0 0 0 0 1 0 0 0 0 1 0 0 0 0 1 0 0 0 0 1 0 0 0 0 1 0 0 0 0 1 0 0 0 0 1 0 0 0 0 1 0 0 0 0 1 0 0 0 0 1 0 0 0 0 1 0 0 0 0 1 0 0 0 0 1 0 0 0 0 1 0 0 0 0 1 0 0 0 0 1 0 0 0 0 1 0 0 0 0 1 0 0 0 0 1 0 0 0 0 1 0 0 0 0 1 0 0 0 0 1 0 0 0 0 1 0 0 0 0 1 0 0 0 0 1 0 0 0 0 1 0 0 0 0 1 0 0 0 0 1 0 0 0 0 1 0 0 0 0 1 0 0 0 0 1 0 0 0 0 1 0 0 0 0 1 0 0 0 0 1 0 0 0 0 1 0 0 0 0 1 0 0 0 0 1 0 0 0 0 1 0 0 0 0 1 0 0 0 0 1 0 0 0 0 1 0 0 0 0 1 0 0 0 0 1 0 0 0 0 1 0 0 0 0 1 0 0 0 0 1 0 0 0 0 1 0 0 0 0 1 0 0 0 0 1 0 0 0 0 1 0 0 0 0 1 0 0 0 0 1 0 0 0 0 1 0 0 0 0 1 0 0 0 0 1 0 0 0 0 1 0 0 0 0 1 0 0 0 0 1 0 0 0 0 1 0 0 0 0 1 0 0 0 0 1 0 0 0 0 1 0 0 0 0 1 0 0 0 0 1 0 0 0 0 1 0 0 0 0 1 0 0 0 0 1 0 0 0 0 1 0 0 0 0 1 0 0 0 0 1 0 0 0 0 1 0 0 0 0 1 0 0 0 0 1 0 0 0 0 1 0 0 0 0 1 0 0 0 0 1 0 0 0 0 1 0 0 0 0 1 0 0 0 0 1 0 0 0 0 1 0 0 0 0 1 0 0 0 0 1 0 0 0 0 1 0 0 0 0</probabilities>
		</cpt>
		<cpt id="NuclearMissile">
			<state id="None" />
			<state id="Few" />
			<state id="Some" />
			<state id="Many" />
			<state id="Tons" />
			<parents>NuclearSilo Ghost TimePeriod</parents>
