<?xml version="1.0" encoding="ISO-8859-1"?>
<smile version="1.0" id="Network1" numsamples="1000" discsamples="10000">
	<nodes>
		<cpt id="TimePeriod">
			<state id="Period1" />
			<state id="Period2" />
			<state id="Period3" />
			<state id="Period4" />
			<state id="Period5" />
			<state id="Period6" />
			<state id="Period7" />
			<state id="Period8" />
			<state id="Period9" />
			<state id="Period10" />
			<state id="Period11" />
			<state id="Period12" />
			<state id="Period13" />
			<state id="Period14" />
			<state id="Period15" />
			<state id="Period16" />
			<state id="Period17" />
			<state id="Period18" />
			<state id="Period19" />
			<state id="Period20" />
			<state id="Period21" />
			<state id="Period22" />
			<state id="Period23" />
			<state id="Period24" />
			<state id="Period25" />
			<probabilities>0.04784964608249939 0.04784964608249939 0.04784964608249939 0.04784964608249939 0.04784964608249939 0.04784964608249939 0.04784964608249939 0.04784964608249939 0.04784964608249939 0.04784964608249939 0.04784964608249939 0.04589699780327068 0.04589699780327068 0.04589699780327068 0.04199170124481327 0.04003905296558457 0.03906272882597022 0.03564559433731999 0.03320478398828411 0.02832316329021235 0.02588235294117647 0.0253941908713693 0.02392970466194777 0.02246521845252624 0.02002440810349036</probabilities>
		</cpt>
		<cpt id="Assimilator">
			<state id="Absent" />
			<state id="Present" />
			<parents>TimePeriod</parents>
			<probabilities>0.999492385786802 0.0005076142131979696 0.999492385786802 0.0005076142131979696 0.9588832487309644 0.04111675126903553 0.9538071065989847 0.04619289340101522 0.4614213197969543 0.5385786802030457 0.4614213197969543 0.5385786802030457 0.1467005076142132 0.8532994923857867 0.07563451776649746 0.9243654822335025 0.06040609137055837 0.9395939086294415 0.04010152284263959 0.9598984771573603 0.0299492385786802 0.9700507614213197 0.01005291005291005 0.9899470899470899 0.004761904761904762 0.9952380952380951 0.004761904761904762 0.9952380952380951 0.005202312138728324 0.9947976878612715 0.005454545454545455 0.9945454545454545 0.005590062111801242 0.9944099378881987 0.006122448979591836 0.9938775510204081 0.006569343065693431 0.9934306569343065 0.007692307692307694 0.9923076923076923 0.008411214953271028 0.9915887850467289 0.008571428571428572 0.9914285714285714 0.009090909090909092 0.990909090909091 0.00967741935483871 0.9903225806451613 0.01084337349397591 0.9891566265060241</probabilities>
		</cpt>
		<cpt id="Pylon">
			<state id="Absent" />
			<state id="Present" />
			<parents>TimePeriod</parents>
			<probabilities>0.999492385786802 0.0005076142131979696 0.06548223350253807 0.9345177664974619 0.004568527918781725 0.9954314720812182 0.004568527918781725 0.9954314720812182 0.004568527918781725 0.9954314720812182 0.004568527918781725 0.9954314720812182 0.004568527918781725 0.9954314720812182 0.004568527918781725 0.9954314720812182 0.004568527918781725 0.9954314720812182 0.004568527918781725 0.9954314720812182 0.004568527918781725 0.9954314720812182 0.004761904761904762 0.9952380952380951 0.004761904761904762 0.9952380952380951 0.004761904761904762 0.9952380952380951 0.005202312138728324 0.9947976878612715 0.005454545454545455 0.9945454545454545 0.005590062111801242 0.9944099378881987 0.006122448979591836 0.9938775510204081 0.006569343065693431 0.9934306569343065 0.007692307692307694 0.9923076923076923 0.008411214953271028 0.9915887850467289 0.008571428571428572 0.9914285714285714 0.009090909090909092 0.990909090909091 0.00967741935483871 0.9903225806451613 0.01084337349397591 0.9891566265060241</probabilities>
		</cpt>
		<cpt id="Gateway">
			<state id="Absent" />
			<state id="Present" />
			<parents>Pylon TimePeriod</parents>
			<probabilities>0.999492385786802 0.0005076142131979696 0.9923076923076923 0.007692307692307693 0.9 0.1 0.9 0.1 0.9 0.1 0.9 0.1 0.9 0.1 0.9 0.1 0.9 0.1 0.9 0.1 0.9 0.1 0.9 0.1 0.9 0.1 0.9 0.1 0.9 0.1 0.9 0.1 0.9 0.1 0.9 0.1 0.9 0.1 0.9 0.1 0.9 0.1 0.9 0.1 0.9 0.1 0.9 0.1 0.9 0.1 0.9 0.1 0.7345945945945946 0.2654054054054054 0.4360406091370558 0.5639593908629441 0.1111675126903553 0.8888324873096446 0.06548223350253807 0.9345177664974619 0.06548223350253807 0.9345177664974619 0.06548223350253807 0.9345177664974619 0.06548223350253807 0.9345177664974619 0.04010152284263959 0.9598984771573603 0.0299492385786802 0.9700507614213197 0.02487309644670051 0.9751269035532993 0.004761904761904762 0.9952380952380951 0.004761904761904762 0.9952380952380951 0.004761904761904762 0.9952380952380951 0.005202312138728324 0.9947976878612715 0.005454545454545455 0.9945454545454545 0.005590062111801242 0.9944099378881987 0.006122448979591836 0.9938775510204081 0.006569343065693431 0.9934306569343065 0.007692307692307694 0.9923076923076923 0.008411214953271028 0.9915887850467289 0.008571428571428572 0.9914285714285714 0.009090909090909092 0.990909090909091 0.00967741935483871 0.9903225806451613 0.01084337349397591 0.9891566265060241</probabilities>
		</cpt>
		<cpt id="Zealot">
			<state id="Absent" />
			<state id="Present" />
			<parents>Gateway TimePeriod</parents>
			<probabilities>0.999492385786802 0.0005076142131979696 0.9993243243243244 0.0006756756756756757 0.9988372093023257 0.001162790697674419 0.9954545454545454 0.004545454545454546 0.9923076923076923 0.007692307692307693 0.9923076923076923 0.007692307692307693 0.9923076923076923 0.007692307692307693 0.9923076923076923 0.007692307692307693 0.9875 0.0125 0.9833333333333334 0.01666666666666667 0.9800000000000001 0.02 0.9 0.1 0.9 0.1 0.9 0.1 0.9 0.1 0.9 0.1 0.9 0.1 0.9 0.1 0.9 0.1 0.9 0.1 0.9 0.1 0.9 0.1 0.9 0.1 0.9 0.1 0.9 0.1 0.9 0.1 0.998 0.002 0.8116071428571429 0.1883928571428571 0.4142045454545455 0.5857954545454546 0.1021621621621622 0.8978378378378379 0.01567567567567568 0.9843243243243244 0.01567567567567568 0.9843243243243244 0.01027027027027027 0.9897297297297297 0.03631578947368421 0.9636842105263157 0.04635416666666667 0.9536458333333333 0.0461139896373057 0.9538860103626943 0.03650793650793651 0.9634920634920634 0.02592592592592593 0.974074074074074 0.02063492063492063 0.9793650793650793 0.01098265895953757 0.9890173410404624 0.01151515151515152 0.9884848484848484 0.01180124223602484 0.988198757763975 0.01292517006802721 0.9870748299319727 0.01386861313868613 0.9861313868613137 0.01623931623931624 0.9837606837606838 0.01775700934579439 0.9822429906542055 0.0180952380952381 0.981904761904762 0.01919191919191919 0.9808080808080808 0.02043010752688172 0.9795698924731183 0.02289156626506024 0.9771084337349397</probabilities>
		</cpt>
		<cpt id="CyberCore">
			<state id="Absent" />
			<state id="Present" />
			<parents>Gateway TimePeriod</parents>
			<probabilities>0.999492385786802 0.0005076142131979696 0.9993243243243244 0.0006756756756756757 0.9988372093023257 0.001162790697674419 0.9954545454545454 0.004545454545454546 0.9923076923076923 0.007692307692307693 0.9923076923076923 0.007692307692307693 0.9923076923076923 0.007692307692307693 0.9923076923076923 0.007692307692307693 0.9875 0.0125 0.9833333333333334 0.01666666666666667 0.9800000000000001 0.02 0.9 0.1 0.9 0.1 0.9 0.1 0.9 0.1 0.9 0.1 0.9 0.1 0.9 0.1 0.9 0.1 0.9 0.1 0.9 0.1 0.9 0.1 0.9 0.1 0.9 0.1 0.9 0.1 0.9 0.1 0.998 0.002 0.9991071428571429 0.0008928571428571428 0.959659090909091 0.04034090909090909 0.5345945945945947 0.4654054054054054 0.4264864864864865 0.5735135135135135 0.4264864864864865 0.5735135135135135 0.4264864864864865 0.5735135135135135 0.2731578947368421 0.7268421052631578 0.09843749999999998 0.9015624999999999 0.06683937823834198 0.933160621761658 0.05238095238095238 0.9476190476190476 0.05238095238095238 0.9476190476190476 0.05238095238095238 0.9476190476190476 0.03410404624277457 0.9658959537572254 0.02363636363636364 0.9763636363636363 0.005590062111801242 0.9944099378881987 0.006122448979591836 0.9938775510204081 0.006569343065693431 0.9934306569343065 0.007692307692307694 0.9923076923076923 0.008411214953271028 0.9915887850467289 0.008571428571428572 0.9914285714285714 0.009090909090909092 0.990909090909091 0.00967741935483871 0.9903225806451613 0.01084337349397591 0.9891566265060241</probabilities>
		</cpt>
		<cpt id="CitadelOfAdun">
			<state id="Absent" />
			<state id="Present" />
			<parents>CyberCore Assimilator TimePeriod</parents>
			<probabilities>0.999492385786802 0.0005076142131979696 0.999492385786802 0.0005076142131979696 0.9994708994708994 0.0005291005291005291 0.999468085106383 0.0005319148936170213 0.998901098901099 0.001098901098901099 0.998901098901099 0.001098901098901099 0.9965517241379309 0.003448275862068966 0.9933333333333333 0.006666666666666667 0.9916666666666667 0.008333333333333333 0.9875 0.0125 0.9833333333333334 0.01666666666666667 0.95 0.05 0.9 0.1 0.9 0.1 0.9 0.1 0.9 0.1 0.9 0.1 0.9 0.1 0.9 0.1 0.9 0.1 0.9 0.1 0.9 0.1 0.9 0.1 0.9 0.1 0.9 0.1 0.9 0.1 0.9 0.1 0.9888888888888889 0.01111111111111111 0.9666666666666666 0.03333333333333333 0.9952380952380951 0.004761904761904762 0.9 0.1 0.9984126984126983 0.001587301587301587 0.9987012987012989 0.001298701298701299 0.9979166666666666 0.002083333333333333 0.9941176470588234 0.005882352941176471 0.9916666666666667 0.008333333333333333 0.9888888888888889 0.01111111111111111 0.9900000000000001 0.01 0.9900000000000001 0.01 0.9833333333333334 0.01666666666666667 0.975 0.025 0.9 0.1 0.9 0.1 0.9 0.1 0.9 0.1 0.9 0.1 0.9 0.1 0.9 0.1 0.9 0.1 0.9 0.1 0.9 0.1 0.9 0.1 0.9 0.1 0.9 0.1 0.9 0.1 0.9 0.1 0.9 0.1 0.9 0.1 0.9 0.1 0.9 0.1 0.9 0.1 0.9 0.1 0.9 0.1 0.9 0.1 0.9 0.1 0.9 0.1 0.9 0.1 0.9 0.1 0.9 0.1 0.9 0.1 0.9 0.1 0.9 0.1 0.9 0.1 0.9 0.1 0.9 0.1 0.9 0.1 0.9 0.1 0.9 0.1 0.9875 0.0125 0.9413793103448277 0.05862068965517241 0.9242990654205607 0.07570093457943924 0.9149532710280374 0.08504672897196261 0.9149532710280374 0.08504672897196261 0.9345323741007195 0.06546762589928058 0.9304597701149425 0.06954022988505747 0.8060773480662984 0.1939226519337017 0.4661111111111111 0.5338888888888889 0.3994444444444445 0.6005555555555555 0.3605555555555556 0.6394444444444445 0.2970238095238095 0.7029761904761904 0.2709876543209877 0.7290123456790123 0.2602484472049689 0.739751552795031 0.2442176870748299 0.75578231292517 0.1817518248175182 0.8182481751824817 0.152991452991453 0.847008547008547 0.1299065420560748 0.8700934579439251 0.1323809523809524 0.8676190476190476 0.1 0.9 0.09569892473118281 0.9043010752688172 0.07108433734939759 0.9289156626506024</probabilities>
		</cpt>
		<cpt id="TemplarArchives">
			<state id="Absent" />
			<state id="Present" />
			<parents>CitadelOfAdun TimePeriod</parents>
			<probabilities>0.999492385786802 0.0005076142131979696 0.999492385786802 0.0005076142131979696 0.999492385786802 0.0005076142131979696 0.999492385786802 0.0005076142131979696 0.9994791666666667 0.0005208333333333333 0.9994708994708994 0.0005291005291005291 0.999468085106383 0.0005319148936170213 0.999468085106383 0.0005319148936170213 0.999468085106383 0.0005319148936170213 0.9994594594594596 0.0005405405405405406 0.9993827160493827 0.0006172839506172839 0.9989247311827958 0.001075268817204301 0.9987654320987655 0.001234567901234568 0.9986486486486488 0.001351351351351351 0.9981818181818181 0.001818181818181818 0.9978723404255319 0.002127659574468085 0.9976190476190475 0.002380952380952381 0.9972222222222221 0.002777777777777778 0.996 0.004 0.9944444444444444 0.005555555555555556 0.9928571428571429 0.007142857142857143 0.9928571428571429 0.007142857142857143 0.9900000000000001 0.01 0.9888888888888889 0.01111111111111111 0.9833333333333334 0.01666666666666667 0.9 0.1 0.9 0.1 0.9 0.1 0.9 0.1 0.9833333333333334 0.01666666666666667 0.5444444444444445 0.4555555555555555 0.19 0.8100000000000001 0.19 0.8100000000000001 0.09000000000000001 0.91 0.3 0.7000000000000001 0.7194444444444443 0.2805555555555555 0.7824742268041237 0.2175257731958763 0.1917431192660551 0.808256880733945 0.1370689655172414 0.8629310344827585 0.1588235294117647 0.8411764705882352 0.09159663865546218 0.9084033613445377 0.09083333333333334 0.9091666666666666 0.07053571428571429 0.9294642857142856 0.08761061946902655 0.9123893805309734 0.059 0.941 0.05212765957446809 0.9478723404255318 0.03152173913043478 0.9684782608695651 0.04333333333333334 0.9566666666666667 0.01058823529411765 0.9894117647058823 0.01153846153846154 0.9884615384615384</probabilities>
		</cpt>
		<cpt id="DarkTemplar">
			<state id="Absent" />
			<state id="Present" />
			<parents>TemplarArchives TimePeriod</parents>
			<probabilities>0.999492385786802 0.0005076142131979696 0.999492385786802 0.0005076142131979696 0.999492385786802 0.0005076142131979696 0.999492385786802 0.0005076142131979696 0.999492385786802 0.0005076142131979696 0.9994818652849742 0.0005181347150259068 0.9994708994708994 0.0005291005291005291 0.9994708994708994 0.0005291005291005291 0.999468085106383 0.0005319148936170213 0.999468085106383 0.0005319148936170213 0.9994652406417112 0.0005347593582887701 0.9994047619047619 0.0005952380952380953 0.9990099009900991 0.0009900990099009901 0.9988764044943821 0.001123595505617978 0.9986301369863014 0.00136986301369863 0.9982456140350876 0.001754385964912281 0.9980769230769231 0.001923076923076923 0.9976744186046511 0.002325581395348837 0.9970588235294117 0.002941176470588235 0.9956521739130434 0.004347826086956522 0.9944444444444444 0.005555555555555556 0.99375 0.00625 0.9923076923076923 0.007692307692307693 0.9888888888888889 0.01111111111111111 0.9833333333333334 0.01666666666666667 0.9 0.1 0.9 0.1 0.9 0.1 0.9 0.1 0.9 0.1 0.9800000000000001 0.02 0.4333333333333333 0.5666666666666665 0.09999999999999999 0.8999999999999999 0.19 0.8100000000000001 0.19 0.8100000000000001 0.2636363636363636 0.7363636363636363 0.6318181818181818 0.3681818181818182 0.9089887640449439 0.09101123595505617 0.9198019801980198 0.0801980198019802 0.9 0.09999999999999999 0.879816513761468 0.1201834862385321 0.8536363636363636 0.1463636363636364 0.8466666666666668 0.1533333333333334 0.7875000000000001 0.2125 0.6305263157894736 0.3694736842105263 0.4877777777777778 0.5122222222222223 0.3655555555555556 0.6344444444444445 0.3206896551724138 0.6793103448275862 0.328235294117647 0.6717647058823529 0.2679487179487179 0.732051282051282</probabilities>
		</cpt>
		<cpt id="RoboticsFacility">
			<state id="Absent" />
			<state id="Present" />
			<parents>CyberCore Assimilator TimePeriod</parents>
			<probabilities>0.999492385786802 0.0005076142131979696 0.999492385786802 0.0005076142131979696 0.9994708994708994 0.0005291005291005291 0.999468085106383 0.0005319148936170213 0.998901098901099 0.001098901098901099 0.998901098901099 0.001098901098901099 0.9965517241379309 0.003448275862068966 0.9933333333333333 0.006666666666666667 0.9916666666666667 0.008333333333333333 0.9875 0.0125 0.9833333333333334 0.01666666666666667 0.95 0.05 0.9 0.1 0.9 0.1 0.9 0.1 0.9 0.1 0.9 0.1 0.9 0.1 0.9 0.1 0.9 0.1 0.9 0.1 0.9 0.1 0.9 0.1 0.9 0.1 0.9 0.1 0.9 0.1 0.9 0.1 0.9888888888888889 0.01111111111111111 0.9666666666666666 0.03333333333333333 0.9952380952380951 0.004761904761904762 0.9 0.1 0.9984126984126983 0.001587301587301587 0.9987012987012989 0.001298701298701299 0.9979166666666666 0.002083333333333333 0.9941176470588234 0.005882352941176471 0.9916666666666667 0.008333333333333333 0.9888888888888889 0.01111111111111111 0.9900000000000001 0.01 0.9900000000000001 0.01 0.9833333333333334 0.01666666666666667 0.975 0.025 0.9 0.1 0.9 0.1 0.9 0.1 0.9 0.1 0.9 0.1 0.9 0.1 0.9 0.1 0.9 0.1 0.9 0.1 0.9 0.1 0.9 0.1 0.9 0.1 0.9 0.1 0.9 0.1 0.9 0.1 0.9 0.1 0.9 0.1 0.9 0.1 0.9 0.1 0.9 0.1 0.9 0.1 0.9 0.1 0.9 0.1 0.9 0.1 0.9 0.1 0.9 0.1 0.9 0.1 0.9 0.1 0.9 0.1 0.9 0.1 0.9 0.1 0.9 0.1 0.9 0.1 0.9 0.1 0.9 0.1 0.9 0.1 0.9 0.1 0.9875 0.0125 0.9988505747126437 0.001149425287356322 0.9990654205607477 0.0009345794392523364 0.9149532710280374 0.08504672897196261 0.4943925233644859 0.505607476635514 0.5172661870503598 0.4827338129496403 0.5683908045977012 0.4316091954022988 0.5740331491712707 0.4259668508287293 0.5716666666666668 0.4283333333333333 0.4605555555555556 0.5394444444444444 0.2327777777777778 0.7672222222222223 0.1660714285714286 0.8339285714285714 0.1290123456790123 0.8709876543209876 0.1111801242236025 0.8888198757763974 0.09455782312925171 0.9054421768707482 0.07956204379562044 0.9204379562043795 0.09316239316239318 0.9068376068376068 0.08317757009345794 0.916822429906542 0.0561904761904762 0.9438095238095239 0.0494949494949495 0.9505050505050505 0.05268817204301076 0.9473118279569893 0.02289156626506024 0.9771084337349397</probabilities>
		</cpt>
		<cpt id="RoboticsSupportBay">
			<state id="Absent" />
			<state id="Present" />
			<parents>RoboticsFacility TimePeriod</parents>
			<probabilities>0.999492385786802 0.0005076142131979696 0.999492385786802 0.0005076142131979696 0.999492385786802 0.0005076142131979696 0.999492385786802 0.0005076142131979696 0.999492385786802 0.0005076142131979696 0.999492385786802 0.0005076142131979696 0.999468085106383 0.0005319148936170213 0.9993006993006993 0.0006993006993006993 0.9992307692307694 0.0007692307692307693 0.9991803278688526 0.0008196721311475411 0.9991666666666667 0.0008333333333333334 0.9991071428571429 0.0008928571428571428 0.9989130434782609 0.00108695652173913 0.9980392156862745 0.00196078431372549 0.996969696969697 0.003030303030303031 0.9958333333333332 0.004166666666666667 0.9944444444444444 0.005555555555555556 0.9928571428571429 0.007142857142857143 0.990909090909091 0.009090909090909092 0.990909090909091 0.009090909090909092 0.9888888888888889 0.01111111111111111 0.9833333333333334 0.01666666666666667 0.9800000000000001 0.02 0.9800000000000001 0.02 0.95 0.05 0.9 0.1 0.9 0.1 0.9 0.1 0.9 0.1 0.9 0.1 0.9 0.1 0.9900000000000001 0.01 0.9799999999999999 0.02 0.5573529411764706 0.4426470588235295 0.1828947368421053 0.8171052631578947 0.08846153846153847 0.9115384615384614 0.1269230769230769 0.873076923076923 0.2540816326530612 0.7459183673469386 0.4597122302158274 0.5402877697841727 0.5028368794326241 0.4971631205673758 0.5204225352112677 0.4795774647887324 0.4090277777777778 0.5909722222222221 0.3126865671641791 0.6873134328358208 0.2354330708661417 0.7645669291338583 0.1953271028037383 0.8046728971962616 0.1606060606060606 0.8393939393939394 0.169 0.831 0.1357894736842105 0.8642105263157894 0.1224719101123596 0.8775280898876403 0.09634146341463415 0.9036585365853658</probabilities>
		</cpt>
		<cpt id="Forge">
			<state id="Absent" />
			<state id="Present" />
			<parents>Pylon TimePeriod</parents>
			<probabilities>0.999492385786802 0.0005076142131979696 0.9923076923076923 0.007692307692307693 0.9 0.1 0.9 0.1 0.9 0.1 0.9 0.1 0.9 0.1 0.9 0.1 0.9 0.1 0.9 0.1 0.9 0.1 0.9 0.1 0.9 0.1 0.9 0.1 0.9 0.1 0.9 0.1 0.9 0.1 0.9 0.1 0.9 0.1 0.9 0.1 0.9 0.1 0.9 0.1 0.9 0.1 0.9 0.1 0.9 0.1 0.9 0.1 0.9994594594594596 0.0005405405405405406 0.999492385786802 0.0005076142131979696 0.9944162436548223 0.005583756345177665 0.9588832487309644 0.04111675126903553 0.9131979695431471 0.08680203045685279 0.8370558375634517 0.1629441624365482 0.7862944162436548 0.2137055837563452 0.6847715736040609 0.3152284263959391 0.4512690355329949 0.548730964467005 0.334517766497462 0.665482233502538 0.2693121693121693 0.7306878306878306 0.2322751322751323 0.7677248677248677 0.2111111111111111 0.7888888888888889 0.184393063583815 0.8156069364161849 0.1327272727272727 0.8672727272727272 0.1049689440993789 0.895031055900621 0.09455782312925171 0.9054421768707482 0.09416058394160584 0.9058394160583941 0.06752136752136753 0.9324786324786325 0.04579439252336449 0.9542056074766354 0.04666666666666668 0.9533333333333334 0.0494949494949495 0.9505050505050505 0.04193548387096775 0.9580645161290323 0.04698795180722892 0.9530120481927711</probabilities>
		</cpt>
		<cpt id="PhotonCannon">
			<state id="Absent" />
			<state id="Present" />
			<parents>Forge TimePeriod</parents>
			<probabilities>0.999492385786802 0.0005076142131979696 0.999492385786802 0.0005076142131979696 0.999492385786802 0.0005076142131979696 0.9994897959183673 0.000510204081632653 0.9994708994708994 0.0005291005291005291 0.9994444444444445 0.0005555555555555556 0.9993939393939394 0.0006060606060606061 0.9993548387096775 0.0006451612903225806 0.9992592592592593 0.0007407407407407408 0.9988764044943821 0.001123595505617978 0.9984848484848486 0.001515151515151515 0.9980392156862745 0.00196078431372549 0.9977272727272727 0.002272727272727273 0.9975000000000001 0.002500000000000001 0.996875 0.003125 0.9954545454545454 0.004545454545454546 0.9941176470588234 0.005882352941176471 0.9928571428571429 0.007142857142857143 0.9923076923076923 0.007692307692307693 0.9875 0.0125 0.9800000000000001 0.02 0.9800000000000001 0.02 0.9800000000000001 0.02 0.975 0.025 0.975 0.025 0.9 0.1 0.9 0.1 0.9 0.1 0.95 0.05 0.7666666666666667 0.2333333333333333 0.4388888888888889 0.561111111111111 0.4212121212121213 0.5787878787878789 0.3465116279069768 0.6534883720930232 0.3634920634920634 0.6365079365079365 0.5036697247706422 0.4963302752293579 0.1962121212121212 0.8037878787878787 0.1215827338129496 0.8784172661870504 0.08835616438356164 0.9116438356164383 0.066 0.9340000000000001 0.05563380281690141 0.9443661971830986 0.07569444444444444 0.9243055555555555 0.06827586206896552 0.9317241379310345 0.03656716417910448 0.9634328358208955 0.0232 0.9768 0.02636363636363636 0.9736363636363635 0.01844660194174757 0.9815533980582523 0.008910891089108912 0.9910891089108911 0.009473684210526316 0.9905263157894736 0.01 0.99 0.01125 0.98875</probabilities>
		</cpt>
		<cpt id="Stargate">
			<state id="Absent" />
			<state id="Present" />
			<parents>CyberCore Assimilator TimePeriod</parents>
			<probabilities>0.999492385786802 0.0005076142131979696 0.999492385786802 0.0005076142131979696 0.9994708994708994 0.0005291005291005291 0.999468085106383 0.0005319148936170213 0.998901098901099 0.001098901098901099 0.998901098901099 0.001098901098901099 0.9965517241379309 0.003448275862068966 0.9933333333333333 0.006666666666666667 0.9916666666666667 0.008333333333333333 0.9875 0.0125 0.9833333333333334 0.01666666666666667 0.95 0.05 0.9 0.1 0.9 0.1 0.9 0.1 0.9 0.1 0.9 0.1 0.9 0.1 0.9 0.1 0.9 0.1 0.9 0.1 0.9 0.1 0.9 0.1 0.9 0.1 0.9 0.1 0.9 0.1 0.9 0.1 0.9888888888888889 0.01111111111111111 0.9666666666666666 0.03333333333333333 0.9952380952380951 0.004761904761904762 0.9 0.1 0.9984126984126983 0.001587301587301587 0.9987012987012989 0.001298701298701299 0.9979166666666666 0.002083333333333333 0.9941176470588234 0.005882352941176471 0.9916666666666667 0.008333333333333333 0.9888888888888889 0.01111111111111111 0.9900000000000001 0.01 0.9900000000000001 0.01 0.9833333333333334 0.01666666666666667 0.975 0.025 0.9 0.1 0.9 0.1 0.9 0.1 0.9 0.1 0.9 0.1 0.9 0.1 0.9 0.1 0.9 0.1 0.9 0.1 0.9 0.1 0.9 0.1 0.9 0.1 0.9 0.1 0.9 0.1 0.9 0.1 0.9 0.1 0.9 0.1 0.9 0.1 0.9 0.1 0.9 0.1 0.9 0.1 0.9 0.1 0.9 0.1 0.9 0.1 0.9 0.1 0.9 0.1 0.9 0.1 0.9 0.1 0.9 0.1 0.9 0.1 0.9 0.1 0.9 0.1 0.9 0.1 0.9 0.1 0.9 0.1 0.9 0.1 0.9 0.1 0.9875 0.0125 0.9988505747126437 0.001149425287356322 0.9990654205607477 0.0009345794392523364 0.9990654205607477 0.0009345794392523364 0.9990654205607477 0.0009345794392523364 0.9992805755395684 0.0007194244604316548 0.9994252873563219 0.0005747126436781609 0.9994475138121547 0.0005524861878453039 0.9994444444444445 0.0005555555555555556 0.9994444444444445 0.0005555555555555556 0.9994444444444445 0.0005555555555555556 0.9994047619047619 0.0005952380952380953 0.9746913580246913 0.02530864197530864 0.8316770186335404 0.1683229813664596 0.7340136054421769 0.2659863945578231 0.6781021897810219 0.3218978102189781 0.5974358974358975 0.4025641025641026 0.5037383177570093 0.4962616822429906 0.4657142857142858 0.5342857142857144 0.4535353535353536 0.5464646464646465 0.3967741935483871 0.6032258064516129 0.3 0.7000000000000001</probabilities>
		</cpt>
		<cpt id="Observatory">
			<state id="Absent" />
			<state id="Present" />
			<parents>RoboticsFacility TimePeriod</parents>
			<probabilities>0.999492385786802 0.0005076142131979696 0.999492385786802 0.0005076142131979696 0.999492385786802 0.0005076142131979696 0.999492385786802 0.0005076142131979696 0.999492385786802 0.0005076142131979696 0.999492385786802 0.0005076142131979696 0.999468085106383 0.0005319148936170213 0.9993006993006993 0.0006993006993006993 0.9992307692307694 0.0007692307692307693 0.9991803278688526 0.0008196721311475411 0.9991666666666667 0.0008333333333333334 0.9991071428571429 0.0008928571428571428 0.9989130434782609 0.00108695652173913 0.9980392156862745 0.00196078431372549 0.996969696969697 0.003030303030303031 0.9958333333333332 0.004166666666666667 0.9944444444444444 0.005555555555555556 0.9928571428571429 0.007142857142857143 0.990909090909091 0.009090909090909092 0.990909090909091 0.009090909090909092 0.9888888888888889 0.01111111111111111 0.9833333333333334 0.01666666666666667 0.9800000000000001 0.02 0.9800000000000001 0.02 0.95 0.05 0.9 0.1 0.9 0.1 0.9 0.1 0.9 0.1 0.9 0.1 0.9 0.1 0.9900000000000001 0.01 0.9799999999999999 0.02 0.9544117647058824 0.04558823529411765 0.9328947368421053 0.06710526315789472 0.908974358974359 0.09102564102564102 0.8961538461538462 0.1038461538461538 0.9173469387755102 0.08265306122448979 0.9201438848920864 0.07985611510791367 0.8929078014184397 0.1070921985815603 0.8091549295774648 0.1908450704225352 0.63125 0.36875 0.476865671641791 0.5231343283582089 0.3456692913385827 0.6543307086614173 0.2420560747663551 0.7579439252336447 0.201010101010101 0.798989898989899 0.209 0.7909999999999999 0.1568421052631579 0.843157894736842 0.1 0.8999999999999999 0.08414634146341464 0.9158536585365853</probabilities>
		</cpt>
		<cpt id="ArbiterTribunal">
			<state id="Absent" />
			<state id="Present" />
			<parents>TemplarArchives Stargate TimePeriod</parents>
			<probabilities>0.999492385786802 0.0005076142131979696 0.999492385786802 0.0005076142131979696 0.999492385786802 0.0005076142131979696 0.999492385786802 0.0005076142131979696 0.999492385786802 0.0005076142131979696 0.9994818652849742 0.0005181347150259068 0.9994708994708994 0.0005291005291005291 0.9994708994708994 0.0005291005291005291 0.999468085106383 0.0005319148936170213 0.999468085106383 0.0005319148936170213 0.9994652406417112 0.0005347593582887701 0.9994047619047619 0.0005952380952380953 0.9990099009900991 0.0009900990099009901 0.9988764044943821 0.001123595505617978 0.9986301369863014 0.00136986301369863 0.9982456140350876 0.001754385964912281 0.9980392156862745 0.00196078431372549 0.9976190476190475 0.002380952380952381 0.996969696969697 0.003030303030303031 0.9954545454545454 0.004545454545454546 0.9944444444444444 0.005555555555555556 0.9933333333333333 0.006666666666666667 0.9923076923076923 0.007692307692307693 0.9888888888888889 0.01111111111111111 0.9833333333333334 0.01666666666666667 0.9 0.1 0.9 0.1 0.9 0.1 0.9 0.1 0.9 0.1 0.9 0.1 0.9 0.1 0.9 0.1 0.9 0.1 0.9 0.1 0.9 0.1 0.9 0.1 0.9 0.1 0.9 0.1 0.9 0.1 0.9 0.1 0.95 0.05 0.95 0.05 0.95 0.05 0.95 0.05 0.9 0.1 0.95 0.05 0.9 0.1 0.9 0.1 0.9 0.1 0.9 0.1 0.9 0.1 0.9 0.1 0.9 0.1 0.9 0.1 0.9800000000000001 0.02 0.9888888888888889 0.01111111111111111 0.9888888888888889 0.01111111111111111 0.9900000000000001 0.01 0.9900000000000001 0.01 0.990909090909091 0.009090909090909092 0.9954545454545454 0.004545454545454546 0.9988764044943821 0.001123595505617978 0.9990099009900991 0.0009900990099009901 0.9990099009900991 0.0009900990099009901 0.9990476190476192 0.0009523809523809525 0.9988095238095238 0.001190476190476191 0.9985074626865672 0.001492537313432836 0.9983606557377049 0.001639344262295082 0.9979591836734693 0.002040816326530612 0.9972972972972973 0.002702702702702703 0.9971428571428571 0.002857142857142857 0.996969696969697 0.003030303030303031 0.9965517241379309 0.003448275862068966 0.995 0.005000000000000001 0.9 0.1 0.9 0.1 0.9 0.1 0.9 0.1 0.9 0.1 0.9 0.1 0.9 0.1 0.9 0.1 0.9 0.1 0.9 0.1 0.9 0.1 0.9 0.1 0.9 0.1 0.9 0.1 0.9 0.1 0.9800000000000001 0.02 0.9962962962962962 0.003703703703703704 0.9974358974358973 0.002564102564102564 0.9977272727272727 0.002272727272727273 0.9978723404255319 0.002127659574468085 0.9981481481481481 0.001851851851851852 0.9982142857142856 0.001785714285714286 0.9981818181818181 0.001818181818181818 0.9982456140350876 0.001754385964912281 0.9983050847457627 0.001694915254237288</probabilities>
		</cpt>
		<cpt id="FleetBeacon">
			<state id="Absent" />
			<state id="Present" />
			<parents>Stargate TimePeriod</parents>
			<probabilities>0.999492385786802 0.0005076142131979696 0.999492385786802 0.0005076142131979696 0.999492385786802 0.0005076142131979696 0.999492385786802 0.0005076142131979696 0.999492385786802 0.0005076142131979696 0.999492385786802 0.0005076142131979696 0.999492385786802 0.0005076142131979696 0.999492385786802 0.0005076142131979696 0.999492385786802 0.0005076142131979696 0.999492385786802 0.0005076142131979696 0.999492385786802 0.0005076142131979696 0.9994708994708994 0.0005291005291005291 0.9994708994708994 0.0005291005291005291 0.9994708994708994 0.0005291005291005291 0.9994219653179191 0.0005780346820809249 0.9993788819875776 0.0006211180124223603 0.9992537313432837 0.0007462686567164179 0.9990740740740741 0.000925925925925926 0.9989247311827958 0.001075268817204301 0.9985714285714287 0.001428571428571429 0.9981481481481481 0.001851851851851852 0.9979591836734693 0.002040816326530612 0.9977777777777778 0.002222222222222222 0.9972972972972973 0.002702702702702703 0.996 0.004 0.9 0.1 0.9 0.1 0.9 0.1 0.9 0.1 0.9 0.1 0.9 0.1 0.9 0.1 0.9 0.1 0.9 0.1 0.9 0.1 0.9 0.1 0.9 0.1 0.9 0.1 0.9 0.1 0.9 0.1 0.9800000000000001 0.02 0.9964285714285713 0.003571428571428571 0.9725 0.0275 0.9533333333333334 0.04666666666666667 0.9354166666666666 0.06458333333333333 0.9055555555555555 0.09444444444444443 0.7877192982456139 0.212280701754386 0.6527272727272727 0.3472727272727273 0.6298245614035087 0.3701754385964912 0.4898305084745763 0.5101694915254238</probabilities>
		</cpt>
		<cpt id="ShieldBattery">
			<state id="Absent" />
			<state id="Present" />
			<parents>Gateway TimePeriod</parents>
			<probabilities>0.999492385786802 0.0005076142131979696 0.9993243243243244 0.0006756756756756757 0.9988372093023257 0.001162790697674419 0.9954545454545454 0.004545454545454546 0.9923076923076923 0.007692307692307693 0.9923076923076923 0.007692307692307693 0.9923076923076923 0.007692307692307693 0.9923076923076923 0.007692307692307693 0.9875 0.0125 0.9833333333333334 0.01666666666666667 0.9800000000000001 0.02 0.9 0.1 0.9 0.1 0.9 0.1 0.9 0.1 0.9 0.1 0.9 0.1 0.9 0.1 0.9 0.1 0.9 0.1 0.9 0.1 0.9 0.1 0.9 0.1 0.9 0.1 0.9 0.1 0.9 0.1 0.998 0.002 0.9991071428571429 0.0008928571428571428 0.772159090909091 0.2278409090909091 0.5994594594594596 0.4005405405405406 0.5832432432432433 0.4167567567567568 0.5778378378378379 0.4221621621621622 0.5670270270270271 0.432972972972973 0.5521052631578948 0.4478947368421052 0.5515625 0.4484374999999999 0.5538860103626944 0.4461139896373057 0.5444444444444444 0.4555555555555555 0.5444444444444444 0.4555555555555555 0.5444444444444444 0.4555555555555555 0.5254335260115607 0.4745664739884393 0.5145454545454545 0.4854545454545454 0.508695652173913 0.4913043478260869 0.5095238095238095 0.4904761904761904 0.5102189781021899 0.4897810218978101 0.511965811965812 0.4880341880341881 0.5130841121495327 0.4869158878504672 0.5133333333333334 0.4866666666666668 0.5141414141414141 0.4858585858585859 0.5150537634408603 0.4849462365591398 0.516867469879518 0.483132530120482</probabilities>
		</cpt>
		<cpt id="Dragoon">
			<state id="Absent" />
			<state id="Present" />
			<parents>CyberCore Assimilator TimePeriod</parents>
			<probabilities>0.999492385786802 0.0005076142131979696 0.999492385786802 0.0005076142131979696 0.9994708994708994 0.0005291005291005291 0.999468085106383 0.0005319148936170213 0.998901098901099 0.001098901098901099 0.998901098901099 0.001098901098901099 0.9965517241379309 0.003448275862068966 0.9933333333333333 0.006666666666666667 0.9916666666666667 0.008333333333333333 0.9875 0.0125 0.9833333333333334 0.01666666666666667 0.95 0.05 0.9 0.1 0.9 0.1 0.9 0.1 0.9 0.1 0.9 0.1 0.9 0.1 0.9 0.1 0.9 0.1 0.9 0.1 0.9 0.1 0.9 0.1 0.9 0.1 0.9 0.1 0.9 0.1 0.9 0.1 0.9888888888888889 0.01111111111111111 0.9666666666666666 0.03333333333333333 0.9952380952380951 0.004761904761904762 0.9 0.1 0.9984126984126983 0.001587301587301587 0.9987012987012989 0.001298701298701299 0.9979166666666666 0.002083333333333333 0.9941176470588234 0.005882352941176471 0.9916666666666667 0.008333333333333333 0.9888888888888889 0.01111111111111111 0.9900000000000001 0.01 0.9900000000000001 0.01 0.9833333333333334 0.01666666666666667 0.975 0.025 0.9 0.1 0.9 0.1 0.9 0.1 0.9 0.1 0.9 0.1 0.9 0.1 0.9 0.1 0.9 0.1 0.9 0.1 0.9 0.1 0.9 0.1 0.9 0.1 0.9 0.1 0.9 0.1 0.9 0.1 0.9 0.1 0.9 0.1 0.9 0.1 0.9 0.1 0.9 0.1 0.9 0.1 0.9 0.1 0.9 0.1 0.9 0.1 0.9 0.1 0.9 0.1 0.9 0.1 0.9 0.1 0.9 0.1 0.9 0.1 0.9 0.1 0.9 0.1 0.9 0.1 0.9 0.1 0.9 0.1 0.9 0.1 0.9 0.1 0.9875 0.0125 0.9873563218390805 0.01264367816091954 0.3355140186915888 0.6644859813084111 0.2233644859813084 0.7766355140186915 0.1205607476635514 0.8794392523364485 0.3014388489208633 0.6985611510791366 0.3270114942528736 0.6729885057471264 0.08784530386740332 0.9121546961325966 0.05500000000000001 0.945 0.03277777777777778 0.9672222222222222 0.02166666666666667 0.9783333333333334 0.01130952380952381 0.9886904761904761 0.01172839506172839 0.9882716049382715 0.02422360248447205 0.9757763975155278 0.01972789115646258 0.9802721088435373 0.01386861313868613 0.9861313868613137 0.01623931623931624 0.9837606837606838 0.01775700934579439 0.9822429906542055 0.008571428571428572 0.9914285714285714 0.009090909090909092 0.990909090909091 0.00967741935483871 0.9903225806451613 0.01084337349397591 0.9891566265060241</probabilities>
		</cpt>
		<cpt id="HighTemplar">
			<state id="Absent" />
			<state id="Present" />
			<parents>TemplarArchives TimePeriod</parents>
			<probabilities>0.999492385786802 0.0005076142131979696 0.999492385786802 0.0005076142131979696 0.999492385786802 0.0005076142131979696 0.999492385786802 0.0005076142131979696 0.999492385786802 0.0005076142131979696 0.9994818652849742 0.0005181347150259068 0.9994708994708994 0.0005291005291005291 0.9994708994708994 0.0005291005291005291 0.999468085106383 0.0005319148936170213 0.999468085106383 0.0005319148936170213 0.9994652406417112 0.0005347593582887701 0.9994047619047619 0.0005952380952380953 0.9990099009900991 0.0009900990099009901 0.9988764044943821 0.001123595505617978 0.9986301369863014 0.00136986301369863 0.9982456140350876 0.001754385964912281 0.9980769230769231 0.001923076923076923 0.9976744186046511 0.002325581395348837 0.9970588235294117 0.002941176470588235 0.9956521739130434 0.004347826086956522 0.9944444444444444 0.005555555555555556 0.99375 0.00625 0.9923076923076923 0.007692307692307693 0.9888888888888889 0.01111111111111111 0.9833333333333334 0.01666666666666667 0.9 0.1 0.9 0.1 0.9 0.1 0.9 0.1 0.9 0.1 0.9800000000000001 0.02 0.9888888888888889 0.01111111111111111 0.9888888888888889 0.01111111111111111 0.8900000000000001 0.11 0.8900000000000001 0.11 0.7181818181818183 0.2818181818181819 0.8136363636363636 0.1863636363636363 0.9202247191011237 0.07977528089887639 0.7613861386138614 0.2386138613861386 0.4445544554455446 0.5554455445544555 0.3201834862385321 0.6798165137614679 0.2627272727272727 0.7372727272727272 0.2180952380952381 0.7819047619047619 0.2298076923076923 0.7701923076923077 0.2094736842105263 0.7905263157894736 0.1877777777777778 0.8122222222222222 0.1877777777777778 0.8122222222222222 0.1712643678160919 0.828735632183908 0.1635294117647059 0.8364705882352941 0.1012820512820513 0.8987179487179486</probabilities>
		</cpt>
		<cpt id="Shuttle">
			<state id="Absent" />
			<state id="Present" />
			<parents>RoboticsFacility TimePeriod</parents>
			<probabilities>0.999492385786802 0.0005076142131979696 0.999492385786802 0.0005076142131979696 0.999492385786802 0.0005076142131979696 0.999492385786802 0.0005076142131979696 0.999492385786802 0.0005076142131979696 0.999492385786802 0.0005076142131979696 0.999468085106383 0.0005319148936170213 0.9993006993006993 0.0006993006993006993 0.9992307692307694 0.0007692307692307693 0.9991803278688526 0.0008196721311475411 0.9991666666666667 0.0008333333333333334 0.9991071428571429 0.0008928571428571428 0.9989130434782609 0.00108695652173913 0.9980392156862745 0.00196078431372549 0.996969696969697 0.003030303030303031 0.9958333333333332 0.004166666666666667 0.9944444444444444 0.005555555555555556 0.9928571428571429 0.007142857142857143 0.990909090909091 0.009090909090909092 0.990909090909091 0.009090909090909092 0.9888888888888889 0.01111111111111111 0.9833333333333334 0.01666666666666667 0.9800000000000001 0.02 0.9800000000000001 0.02 0.95 0.05 0.9 0.1 0.9 0.1 0.9 0.1 0.9 0.1 0.9 0.1 0.9 0.1 0.9900000000000001 0.01 0.9981818181818181 0.001818181818181818 0.998529411764706 0.001470588235294118 0.9986842105263158 0.001315789473684211 0.9987179487179487 0.001282051282051282 0.9987179487179487 0.001282051282051282 0.9989795918367347 0.001020408163265306 0.9992805755395684 0.0007194244604316548 0.999290780141844 0.0007092198581560284 0.9147887323943663 0.0852112676056338 0.75625 0.24375 0.6932835820895523 0.3067164179104478 0.6448818897637796 0.3551181102362205 0.6065420560747664 0.3934579439252336 0.5848484848484848 0.4151515151515152 0.589 0.411 0.5673684210526315 0.4326315789473684 0.5719101123595506 0.4280898876404494 0.5353658536585366 0.4646341463414634</probabilities>
		</cpt>
		<cpt id="Reaver">
			<state id="Absent" />
			<state id="Present" />
			<parents>RoboticsSupportBay TimePeriod</parents>
			<probabilities>0.999492385786802 0.0005076142131979696 0.999492385786802 0.0005076142131979696 0.999492385786802 0.0005076142131979696 0.999492385786802 0.0005076142131979696 0.999492385786802 0.0005076142131979696 0.999492385786802 0.0005076142131979696 0.999492385786802 0.0005076142131979696 0.9994897959183673 0.000510204081632653 0.9994011976047905 0.0005988023952095809 0.9992592592592593 0.0007407407407407408 0.9992063492063492 0.0007936507936507937 0.9991735537190083 0.0008264462809917356 0.9991379310344828 0.0008620689655172414 0.9991228070175439 0.0008771929824561404 0.9990291262135922 0.000970873786407767 0.9989690721649485 0.001030927835051546 0.9986842105263158 0.001315789473684211 0.9981818181818181 0.001818181818181818 0.9975000000000001 0.002500000000000001 0.996774193548387 0.003225806451612903 0.9958333333333332 0.004166666666666667 0.9954545454545454 0.004545454545454546 0.9941176470588234 0.005882352941176471 0.9933333333333333 0.006666666666666667 0.9888888888888889 0.01111111111111111 0.9 0.1 0.9 0.1 0.9 0.1 0.9 0.1 0.9 0.1 0.9 0.1 0.9 0.1 0.95 0.05 0.8677419354838709 0.132258064516129 0.3476190476190476 0.6523809523809524 0.1930555555555556 0.8069444444444445 0.05652173913043478 0.9434782608695651 0.09324324324324325 0.9067567567567567 0.0513157894736842 0.9486842105263157 0.05492957746478874 0.9450704225352112 0.02753623188405797 0.9724637681159419 0.2430232558139535 0.7569767441860464 0.3752688172043011 0.624731182795699 0.386734693877551 0.6132653061224489 0.4126436781609195 0.5873563218390805 0.4392857142857142 0.5607142857142857 0.4511904761904761 0.5488095238095238 0.4566265060240964 0.5433734939759036 0.4291139240506329 0.5708860759493671 0.4653333333333333 0.5346666666666667</probabilities>
		</cpt>
		<cpt id="Observer">
			<state id="Absent" />
			<state id="Present" />
			<parents>Observatory TimePeriod</parents>
			<probabilities>0.999492385786802 0.0005076142131979696 0.999492385786802 0.0005076142131979696 0.999492385786802 0.0005076142131979696 0.999492385786802 0.0005076142131979696 0.999492385786802 0.0005076142131979696 0.999492385786802 0.0005076142131979696 0.999492385786802 0.0005076142131979696 0.9994897959183673 0.000510204081632653 0.9994845360824742 0.0005154639175257732 0.9994791666666667 0.0005208333333333333 0.9994736842105263 0.0005263157894736842 0.9994475138121547 0.0005524861878453039 0.9994475138121547 0.0005524861878453039 0.999438202247191 0.0005617977528089888 0.9993670886075949 0.0006329113924050633 0.9992753623188406 0.0007246376811594203 0.9990740740740741 0.000925925925925926 0.9987012987012989 0.001298701298701299 0.9981481481481481 0.001851851851851852 0.9972222222222221 0.002777777777777778 0.9964285714285713 0.003571428571428571 0.9961538461538462 0.003846153846153846 0.994736842105263 0.005263157894736842 0.9923076923076923 0.007692307692307693 0.9875 0.0125 0.9 0.1 0.9 0.1 0.9 0.1 0.9 0.1 0.9 0.1 0.9 0.1 0.9 0.1 0.45 0.55 0.475 0.525 0.4833333333333333 0.5166666666666666 0.2375 0.7625 0.2111111111111111 0.7888888888888888 0.09999999999999999 0.8999999999999999 0.325 0.6749999999999999 0.36875 0.63125 0.4964285714285714 0.5035714285714286 0.387037037037037 0.6129629629629629 0.3225352112676057 0.6774647887323944 0.1297619047619048 0.8702380952380951 0.1207317073170732 0.8792682926829268 0.08625000000000001 0.91375 0.04875 0.9512499999999999 0.06049382716049383 0.9395061728395061 0.08518518518518518 0.9148148148148148 0.0381578947368421 0.9618421052631577</probabilities>
		</cpt>
		<cpt id="Carrier">
			<state id="Absent" />
			<state id="Present" />
			<parents>FleetBeacon TimePeriod</parents>
			<probabilities>0.999492385786802 0.0005076142131979696 0.999492385786802 0.0005076142131979696 0.999492385786802 0.0005076142131979696 0.999492385786802 0.0005076142131979696 0.999492385786802 0.0005076142131979696 0.999492385786802 0.0005076142131979696 0.999492385786802 0.0005076142131979696 0.999492385786802 0.0005076142131979696 0.999492385786802 0.0005076142131979696 0.999492385786802 0.0005076142131979696 0.999492385786802 0.0005076142131979696 0.9994708994708994 0.0005291005291005291 0.9994708994708994 0.0005291005291005291 0.9994708994708994 0.0005291005291005291 0.9994219653179191 0.0005780346820809249 0.9993939393939394 0.0006060606060606061 0.9993788819875776 0.0006211180124223603 0.9993150684931507 0.0006849315068493151 0.9992592592592593 0.0007407407407407408 0.9991228070175439 0.0008771929824561404 0.9990196078431373 0.0009803921568627451 0.9989247311827958 0.001075268817204301 0.9987500000000001 0.00125 0.9986111111111111 0.001388888888888889 0.9981132075471697 0.001886792452830189 0.9 0.1 0.9 0.1 0.9 0.1 0.9 0.1 0.9 0.1 0.9 0.1 0.9 0.1 0.9 0.1 0.9 0.1 0.9 0.1 0.9 0.1 0.9 0.1 0.9 0.1 0.9 0.1 0.9 0.1 0.9 0.1 0.9 0.1 0.95 0.05 0.6333333333333333 0.3666666666666667 0.725 0.275 0.8166666666666667 0.1833333333333334 0.8384615384615385 0.1615384615384616 0.845 0.155 0.6772727272727274 0.3227272727272727 0.7709677419354838 0.2290322580645161</probabilities>
		</cpt>
		<cpt id="Scout">
			<state id="Absent" />
			<state id="Present" />
			<parents>Stargate TimePeriod</parents>
			<probabilities>0.999492385786802 0.0005076142131979696 0.999492385786802 0.0005076142131979696 0.999492385786802 0.0005076142131979696 0.999492385786802 0.0005076142131979696 0.999492385786802 0.0005076142131979696 0.999492385786802 0.0005076142131979696 0.999492385786802 0.0005076142131979696 0.999492385786802 0.0005076142131979696 0.999492385786802 0.0005076142131979696 0.999492385786802 0.0005076142131979696 0.999492385786802 0.0005076142131979696 0.9994708994708994 0.0005291005291005291 0.9994708994708994 0.0005291005291005291 0.9994708994708994 0.0005291005291005291 0.9994219653179191 0.0005780346820809249 0.9993788819875776 0.0006211180124223603 0.9992537313432837 0.0007462686567164179 0.9990740740740741 0.000925925925925926 0.9989247311827958 0.001075268817204301 0.9985714285714287 0.001428571428571429 0.9981481481481481 0.001851851851851852 0.9979591836734693 0.002040816326530612 0.9977777777777778 0.002222222222222222 0.9972972972972973 0.002702702702702703 0.996 0.004 0.9 0.1 0.9 0.1 0.9 0.1 0.9 0.1 0.9 0.1 0.9 0.1 0.9 0.1 0.9 0.1 0.9 0.1 0.9 0.1 0.9 0.1 0.9 0.1 0.9 0.1 0.9 0.1 0.9 0.1 0.9800000000000001 0.02 0.9964285714285713 0.003571428571428571 0.9975000000000001 0.002500000000000001 0.9977777777777778 0.002222222222222222 0.9770833333333333 0.02291666666666667 0.9796296296296295 0.02037037037037037 0.963157894736842 0.03684210526315789 0.9436363636363636 0.05636363636363637 0.9456140350877192 0.0543859649122807 0.9305084745762712 0.0694915254237288</probabilities>
		</cpt>
		<cpt id="Corsair">
			<state id="Absent" />
			<state id="Present" />
			<parents>Stargate TimePeriod</parents>
			<probabilities>0.999492385786802 0.0005076142131979696 0.999492385786802 0.0005076142131979696 0.999492385786802 0.0005076142131979696 0.999492385786802 0.0005076142131979696 0.999492385786802 0.0005076142131979696 0.999492385786802 0.0005076142131979696 0.999492385786802 0.0005076142131979696 0.999492385786802 0.0005076142131979696 0.999492385786802 0.0005076142131979696 0.999492385786802 0.0005076142131979696 0.999492385786802 0.0005076142131979696 0.9994708994708994 0.0005291005291005291 0.9994708994708994 0.0005291005291005291 0.9994708994708994 0.0005291005291005291 0.9994219653179191 0.0005780346820809249 0.9993788819875776 0.0006211180124223603 0.9992537313432837 0.0007462686567164179 0.9990740740740741 0.000925925925925926 0.9989247311827958 0.001075268817204301 0.9985714285714287 0.001428571428571429 0.9981481481481481 0.001851851851851852 0.9979591836734693 0.002040816326530612 0.9977777777777778 0.002222222222222222 0.9972972972972973 0.002702702702702703 0.996 0.004 0.9 0.1 0.9 0.1 0.9 0.1 0.9 0.1 0.9 0.1 0.9 0.1 0.9 0.1 0.9 0.1 0.9 0.1 0.9 0.1 0.9 0.1 0.9 0.1 0.9 0.1 0.9 0.1 0.9 0.1 0.9800000000000001 0.02 0.9964285714285713 0.003571428571428571 0.9975000000000001 0.002500000000000001 0.9977777777777778 0.002222222222222222 0.9770833333333333 0.02291666666666667 0.9240740740740741 0.07592592592592591 0.875438596491228 0.1245614035087719 0.7618181818181817 0.2381818181818182 0.7175438596491227 0.2824561403508772 0.6932203389830508 0.3067796610169492</probabilities>
		</cpt>
		<cpt id="Arbiter">
			<state id="Absent" />
			<state id="Present" />
			<parents>ArbiterTribunal TimePeriod</parents>
			<probabilities>0.999492385786802 0.0005076142131979696 0.999492385786802 0.0005076142131979696 0.999492385786802 0.0005076142131979696 0.999492385786802 0.0005076142131979696 0.999492385786802 0.0005076142131979696 0.999492385786802 0.0005076142131979696 0.999492385786802 0.0005076142131979696 0.999492385786802 0.0005076142131979696 0.999492385786802 0.0005076142131979696 0.999492385786802 0.0005076142131979696 0.999492385786802 0.0005076142131979696 0.9994708994708994 0.0005291005291005291 0.9994708994708994 0.0005291005291005291 0.9994708994708994 0.0005291005291005291 0.9994219653179191 0.0005780346820809249 0.9993939393939394 0.0006060606060606061 0.9993788819875776 0.0006211180124223603 0.9993197278911564 0.0006802721088435375 0.9992700729927008 0.0007299270072992701 0.9991452991452993 0.0008547008547008548 0.9990654205607477 0.0009345794392523364 0.9990476190476192 0.0009523809523809525 0.9989898989898991 0.00101010101010101 0.9989247311827958 0.001075268817204301 0.9987951807228916 0.001204819277108434 0.9 0.1 0.9 0.1 0.9 0.1 0.9 0.1 0.9 0.1 0.9 0.1 0.9 0.1 0.9 0.1 0.9 0.1 0.9 0.1 0.9 0.1 0.9 0.1 0.9 0.1 0.9 0.1 0.9 0.1 0.9 0.1 0.9 0.1 0.9 0.1 0.9 0.1 0.9 0.1 0.9 0.1 0.9 0.1 0.9 0.1 0.9 0.1 0.9 0.1</probabilities>
		</cpt>
		<cpt id="DarkArchon">
			<state id="Absent" />
			<state id="Present" />
			<parents>DarkTemplar TimePeriod</parents>
			<probabilities>0.999492385786802 0.0005076142131979696 0.999492385786802 0.0005076142131979696 0.999492385786802 0.0005076142131979696 0.999492385786802 0.0005076142131979696 0.999492385786802 0.0005076142131979696 0.999492385786802 0.0005076142131979696 0.9994791666666667 0.0005208333333333333 0.9994708994708994 0.0005291005291005291 0.9994708994708994 0.0005291005291005291 0.9994708994708994 0.0005291005291005291 0.9994708994708994 0.0005291005291005291 0.9994475138121547 0.0005524861878453039 0.9994475138121547 0.0005524861878453039 0.9994475138121547 0.0005524861878453039 0.9993865030674847 0.0006134969325153375 0.9993421052631579 0.0006578947368421053 0.9993103448275862 0.0006896551724137932 0.999236641221374 0.0007633587786259542 0.9991304347826088 0.0008695652173913044 0.9987804878048782 0.001219512195121951 0.9983606557377049 0.001639344262295082 0.9979166666666666 0.002083333333333333 0.9975000000000001 0.002500000000000001 0.9972222222222221 0.002777777777777778 0.9961538461538462 0.003846153846153846 0.9 0.1 0.9 0.1 0.9 0.1 0.9 0.1 0.9 0.1 0.9 0.1 0.9833333333333334 0.01666666666666667 0.9888888888888889 0.01111111111111111 0.9888888888888889 0.01111111111111111 0.9888888888888889 0.01111111111111111 0.9888888888888889 0.01111111111111111 0.9888888888888889 0.01111111111111111 0.9888888888888889 0.01111111111111111 0.9888888888888889 0.01111111111111111 0.990909090909091 0.009090909090909092 0.9928571428571429 0.007142857142857143 0.9941176470588234 0.005882352941176471 0.9941176470588234 0.005882352941176471 0.9956521739130434 0.004347826086956522 0.9694444444444443 0.03055555555555556 0.9127659574468084 0.08723404255319148 0.8775862068965517 0.1224137931034483 0.815 0.185 0.7741379310344827 0.2258620689655172 0.6879310344827586 0.3120689655172414</probabilities>
		</cpt>
		<cpt id="Archon">
			<state id="Absent" />
			<state id="Present" />
			<parents>HighTemplar TimePeriod</parents>
			<probabilities>0.999492385786802 0.0005076142131979696 0.999492385786802 0.0005076142131979696 0.999492385786802 0.0005076142131979696 0.999492385786802 0.0005076142131979696 0.999492385786802 0.0005076142131979696 0.999492385786802 0.0005076142131979696 0.999492385786802 0.0005076142131979696 0.999492385786802 0.0005076142131979696 0.9994897959183673 0.000510204081632653 0.9994897959183673 0.000510204081632653 0.9994845360824742 0.0005154639175257732 0.9994594594594596 0.0005405405405405406 0.9994505494505496 0.0005494505494505496 0.9993939393939394 0.0006060606060606061 0.9991452991452993 0.0008547008547008548 0.998901098901099 0.001098901098901099 0.9987500000000001 0.00125 0.9984615384615386 0.001538461538461539 0.9982456140350876 0.001754385964912281 0.9976190476190475 0.002380952380952381 0.9970588235294117 0.002941176470588235 0.996875 0.003125 0.9962962962962962 0.003703703703703704 0.9954545454545454 0.004545454545454546 0.9923076923076923 0.007692307692307693 0.9 0.1 0.9 0.1 0.9 0.1 0.9 0.1 0.9 0.1 0.9 0.1 0.9 0.1 0.9 0.1 0.95 0.05 0.95 0.05 0.975 0.025 0.9800000000000001 0.02 0.9875 0.0125 0.996 0.004 0.875438596491228 0.1245614035087719 0.8120000000000001 0.188 0.8158536585365854 0.1841463414634146 0.7939759036144579 0.2060240963855422 0.8012345679012346 0.1987654320987654 0.8671052631578947 0.1328947368421053 0.8770270270270272 0.122972972972973 0.8770270270270272 0.122972972972973 0.889041095890411 0.110958904109589 0.9013888888888889 0.09861111111111109 0.9140845070422536 0.08591549295774648</probabilities>
		</cpt>
		<cpt id="GroundWeapons1">
			<state id="Absent" />
			<state id="Present" />
			<parents>TimePeriod Forge</parents>
			<probabilities>0.1794030502123563 0.8205969497876439 0.9 0.1 0.2487286492371191 0.7512713507628809 0.9 0.1 0.4886483539889304 0.5113516460110695 0.9 0.1 0.5276763028477394 0.4723236971522608 0.8918143398960479 0.1081856601039522 0.1171444039439894 0.8828555960560107 0.7058278025391334 0.2941721974608665 0.05072508576243891 0.9492749142375612 0.1577079440700309 0.8422920559299689 0.7779804537791775 0.2220195462208225 0.6084685209219081 0.3915314790780921 0.2373013687427548 0.7626986312572452 0.2519989793747223 0.7480010206252776 0.1246140024363375 0.8753859975636626 0.8404658771328281 0.159534122867172 0.1816384567895374 0.8183615432104625 0.5373285156277554 0.4626714843722448 0.3345063306251255 0.6654936693748744 0.7658499456386905 0.2341500543613096 0.112284626997899 0.887715373002101 0.3129676785716664 0.6870323214283336 0.5030232191079841 0.496976780892016 0.7246928286905271 0.275307171309473 0.2201187329403695 0.7798812670596305 0.5483105619799749 0.4516894380200253 0.5149306895432014 0.4850693104567985 0.5055727295944671 0.4944272704055329 0.6490317871333247 0.3509682128666755 0.7757533036609872 0.2242466963390128 0.3847652155208765 0.6152347844791234 0.4827209059131126 0.5172790940868874 0.6200070297081766 0.3799929702918234 0.6082246777913211 0.3917753222086788 0.9239721789120264 0.07602782108797358 0.8182577034166361 0.1817422965833639 0.5643893912767486 0.4356106087232515 0.7095813417993913 0.2904186582006088 0.6477667374288494 0.3522332625711507 0.5009289229741146 0.4990710770258853 0.788185378362259 0.2118146216377411 0.8144604114243493 0.1855395885756506 0.647378719803681 0.3526212801963191 0.8068675664035404 0.1931324335964596 0.7204459977380228 0.2795540022619772 0.6084977413516073 0.3915022586483928 0.6958865798197276 0.3041134201802725 0.900462486672455 0.099537513327545</probabilities>
		</cpt>
		<cpt id="GroundArmor1">
			<state id="Absent" />
			<state id="Present" />
			<parents>TimePeriod Forge</parents>
			<probabilities>0.6728583277812926 0.3271416722187074 0.9 0.1 0.3646645931833202 0.6353354068166799 0.9 0.1 0.4332636707655438 0.5667363292344561 0.9 0.1 0.780743917371856 0.219256082628144 0.8929890572287482 0.1070109427712518 0.8610654163578472 0.1389345836421528 0.6737250383674889 0.3262749616325112 0.6128306301371852 0.3871693698628149 0.6156154130127107 0.3843845869872893 0.9535395126445871 0.046460487355413 0.2949768402702835 0.7050231597297164 0.7041086642957 0.2958913357043002 0.8637627661958278 0.1362372338041721 0.4862787978014197 0.5137212021985803 0.1046899395331133 0.8953100604668868 0.3551259432725314 0.6448740567274686 0.4894278727509243 0.5105721272490758 0.08677582893937974 0.9132241710606202 0.9106339295493259 0.08936607045067417 0.5083652806143042 0.4916347193856958 0.4807469300583201 0.51925306994168 0.4822287342073754 0.5177712657926247 0.984326298938499 0.01567370106150106 0.9914416202807228 0.008558379719277275 0.6220968184584003 0.3779031815415997 0.498024710481406 0.5019752895185939 0.3488170125519495 0.6511829874480506 0.5267810318050377 0.4732189681949625 0.03971305431419618 0.9602869456858038 0.449913499864708 0.550086500135292 0.5905946216816692 0.4094053783183307 0.5974312024333408 0.4025687975666591 0.733077621189404 0.2669223788105961 0.456442967369863 0.543557032630137 0.2278148263831153 0.7721851736168847 0.6147284754875626 0.3852715245124375 0.951053172146073 0.04894682785392695 0.7062462468033506 0.2937537531966495 0.526293881866193 0.4737061181338071 0.5777635723199567 0.4222364276800435 0.4847033957847192 0.5152966042152807 0.6765757857659565 0.3234242142340436 0.1946720690520005 0.8053279309479995 0.5312281172235723 0.4687718827764278 0.5937677896723074 0.4062322103276928 0.6655825867021531 0.3344174132978469 0.4041856632564939 0.5958143367435062</probabilities>
		</cpt>
		<cpt id="PlasmaShields1">
			<state id="Absent" />
			<state id="Present" />
			<parents>TimePeriod Forge</parents>
			<probabilities>0.4613613259005343 0.5386386740994656 0.9 0.1 0.5857518304035849 0.4142481695964151 0.9 0.1 0.5744896692930644 0.4255103307069356 0.9 0.1 0.865413068247423 0.1345869317525771 0.8559241771333412 0.1440758228666587 0.7422147269544597 0.2577852730455403 0.7251469329519289 0.2748530670480711 0.4005306447566124 0.5994693552433876 0.4470881055427043 0.5529118944572956 0.9538176240385671 0.04618237596143284 0.4888863147574539 0.5111136852425461 0.3790941624454004 0.6209058375545996 0.5600356463089318 0.4399643536910681 0.8467576923209016 0.1532423076790983 0.382768359484736 0.617231640515264 0.07697077028778439 0.9230292297122156 0.5047317808259494 0.4952682191740507 0.368288016806135 0.631711983193865 0.2393715771989178 0.7606284228010822 0.3005872702591799 0.6994127297408203 0.3302666034959696 0.6697333965040305 0.1251636784017472 0.8748363215982528 0.3356721357075785 0.6643278642924215 0.2123481659718418 0.7876518340281582 0.5966074702278413 0.4033925297721586 0.492616275593687 0.5073837244063131 0.9017914471681217 0.09820855283187843 0.5283957783606387 0.4716042216393614 0.04803212857212508 0.951967871427875 0.9523082776199209 0.04769172238007895 0.7070008931409458 0.2929991068590541 0.3687853777403469 0.6312146222596531 0.8418183303544133 0.1581816696455867 0.4516403152229451 0.5483596847770549 0.1918148661178848 0.8081851338821152 0.9422874353651602 0.05771256463483966 0.7114806683955761 0.288519331604424 0.6566723893301516 0.3433276106698485 0.5071412042306634 0.4928587957693364 0.5799889384495849 0.4200110615504151 0.6452209226900365 0.3547790773099635 0.7392714000535924 0.2607285999464078 0.6090822864164928 0.3909177135835074 0.5249693259669614 0.4750306740330386 0.8208781953140465 0.1791218046859536 0.6982338977966391 0.3017661022033609 0.4368412775717121 0.5631587224282879</probabilities>
		</cpt>
		<cpt id="AirWeapons1">
			<state id="Absent" />
			<state id="Present" />
			<parents>CyberCore TimePeriod</parents>
			<probabilities>0.6352619879905667 0.3647380120094333 0.4361816832597837 0.5638183167402163 0.5159136256428865 0.4840863743571135 0.4255054453797264 0.5744945546202736 0.5479681907447415 0.4520318092552585 0.9634226491614539 0.03657735083854615 0.3789969340553614 0.6210030659446385 0.5236546542041204 0.4763453457958797 0.5002479458933308 0.4997520541066692 0.4718309687198419 0.5281690312801579 0.9622929129751777 0.03770708702482228 0.2998133424901938 0.7001866575098062 0.5993905040993037 0.4006094959006963 0.9517482628796413 0.04825173712035863 0.7727182030674278 0.2272817969325721 0.6632042084457269 0.3367957915542731 0.9 0.1 0.9 0.1 0.9 0.1 0.9 0.1 0.9 0.1 0.9 0.1 0.9 0.1 0.9 0.1 0.9 0.1 0.9 0.1 0.9 0.1 0.9 0.1 0.7535167916193706 0.2464832083806293 0.2725160614892153 0.7274839385107846 0.5885315507128874 0.4114684492871126 0.6053221964329029 0.3946778035670972 0.547799649608359 0.4522003503916409 0.3401469880202953 0.6598530119797049 0.5633623896304338 0.4366376103695661 0.8644471447161609 0.1355528552838391 0.4728429653354905 0.5271570346645095 0.4406856522790589 0.559314347720941 0.3054674643622667 0.6945325356377333 0.1755044022784429 0.8244955977215571 0.8899848383593075 0.1100151616406924 0.730872695983113 0.2691273040168871 0.8442789440766856 0.1557210559233145 0.1597501875628508 0.8402498124371493 0.8546428664183671 0.1453571335816329 0.5317783368687491 0.4682216631312509 0.3484521118597752 0.6515478881402249 0.455599279245676 0.5444007207543242 0.6481476941351059 0.3518523058648942 0.8878377538702743 0.1121622461297258</probabilities>
		</cpt>
		<cpt id="AirArmor1">
			<state id="Absent" />
			<state id="Present" />
			<parents>CyberCore TimePeriod</parents>
			<probabilities>0.8642207318699319 0.1357792681300681 0.3382503648559558 0.6617496351440442 0.2760070764520748 0.7239929235479251 0.7382682109050246 0.2617317890949754 0.4671226614644247 0.5328773385355752 0.5644975258366918 0.4355024741633082 0.5373530748767802 0.4626469251232198 0.3501139786781297 0.6498860213218703 0.9091061247845412 0.09089387521545879 0.3263903384936921 0.6736096615063079 0.2430405695334623 0.7569594304665377 0.6490360410812502 0.3509639589187499 0.3689861923889602 0.6310138076110398 0.4231850942796695 0.5768149057203305 0.7115974584565469 0.2884025415434531 0.7696651630539666 0.2303348369460334 0.9 0.1 0.9 0.1 0.9 0.1 0.9 0.1 0.9 0.1 0.9 0.1 0.9 0.1 0.9 0.1 0.9 0.1 0.9 0.1 0.9 0.1 0.9 0.1 0.7358020458011193 0.2641979541988807 0.586817903826062 0.413182096173938 0.8160335804673905 0.1839664195326095 0.5061479853755131 0.4938520146244869 0.4140223504140714 0.5859776495859287 0.7223525677490266 0.2776474322509734 0.6642441730930169 0.3357558269069831 0.8372567032076973 0.1627432967923027 0.8428758798216458 0.1571241201783541 0.08143530346671359 0.9185646965332864 0.1709676294256064 0.8290323705743936 0.5804959874160488 0.4195040125839513 0.5617473463574307 0.4382526536425693 0.447728396524413 0.552271603475587 0.3151018241155042 0.6848981758844956 0.5003408821517645 0.4996591178482355 0.7111545784745827 0.2888454215254172 0.6992920717622378 0.3007079282377621 0.7795431810191241 0.2204568189808759 0.2481176719142153 0.7518823280857847 0.5164454551766886 0.4835545448233115 0.9726989840592906 0.02730101594070948</probabilities>
		</cpt>
		<cpt id="LegEnhancements">
			<state id="Absent" />
			<state id="Present" />
			<parents>TimePeriod CitadelOfAdun</parents>
			<probabilities>0.3871207710062149 0.612879228993785 0.9 0.1 0.2579838039552142 0.7420161960447859 0.9 0.1 0.8222937781449802 0.1777062218550199 0.9 0.1 0.4284771588345595 0.5715228411654405 0.9 0.1 0.5917378943942429 0.4082621056057572 0.4846791465074399 0.5153208534925601 0.5890668068859517 0.4109331931140485 0.637618905484965 0.362381094515035 0.6825314292975288 0.3174685707024712 0.248674757282623 0.751325242717377 0.2192758328380778 0.7807241671619222 0.8898938210509444 0.1101061789490556 0.7775684471808095 0.2224315528191905 0.7239805685163976 0.2760194314836023 0.603142874417155 0.3968571255828449 0.1937068150254995 0.8062931849745004 0.679658598907763 0.320341401092237 0.703064397354355 0.2969356026456451 0.867603657912593 0.132396342087407 0.4596862913497804 0.5403137086502194 0.570937309906049 0.429062690093951 0.05654119453532763 0.9434588054646723 0.7018176034813347 0.2981823965186654 0.09687352003214036 0.9031264799678596 0.5894084552987315 0.4105915447012685 0.5765258409234212 0.4234741590765787 0.06435773677328456 0.9356422632267154 0.7570417390685055 0.2429582609314944 0.5332602727735187 0.4667397272264813 0.9292858409187317 0.07071415908126828 0.9027161012448371 0.09728389875516272 0.3126090531815015 0.6873909468184986 0.5739611345259434 0.4260388654740566 0.7226624173303241 0.2773375826696758 0.6201202072062535 0.3798797927937464 0.5531098008961961 0.4468901991038038 0.5778557445778766 0.4221442554221234 0.7767094391415754 0.2232905608584248 0.2425872420382239 0.7574127579617761 0.9066256701774121 0.09337432982258777 0.4701692399844779 0.5298307600155221 0.6098529603544846 0.3901470396455155 0.495916759451164 0.5040832405488358 0.1207293566231959 0.8792706433768041 0.4965060819312411 0.5034939180687588 0.5367351671661182 0.4632648328338817</probabilities>
		</cpt>
		<cpt id="SingularityCharge">
			<state id="Absent" />
			<state id="Present" />
			<parents>CyberCore TimePeriod</parents>
			<probabilities>0.5472414413157388 0.4527585586842611 0.9633724423521507 0.03662755764784929 0.9527439176191328 0.04725608238086718 0.2747749341478011 0.7252250658521989 0.4076184534520237 0.5923815465479764 0.4465979072133983 0.5534020927866018 0.5700362863967048 0.4299637136032954 0.5843465408069698 0.4156534591930303 0.2949774070340804 0.7050225929659194 0.468483571699778 0.5315164283002221 0.2800924746500123 0.7199075253499877 0.4431719399422558 0.5568280600577441 0.3796930872302494 0.6203069127697507 0.6459832213384121 0.3540167786615879 0.8532306697176538 0.1467693302823462 0.9353828227289988 0.06461717727100119 0.9 0.1 0.9 0.1 0.9 0.1 0.9 0.1 0.9 0.1 0.9 0.1 0.9 0.1 0.9 0.1 0.9 0.1 0.9 0.1 0.9 0.1 0.9 0.1 0.4079167077982048 0.5920832922017952 0.5881650518784445 0.4118349481215556 0.3364069272779263 0.6635930727220737 0.6239351740575642 0.376064825942436 0.205880815388148 0.7941191846118521 0.6039932579720708 0.3960067420279292 0.6152820777462076 0.3847179222537925 0.3608974820533152 0.6391025179466847 0.352123936814931 0.6478760631850691 0.527268393396976 0.4727316066030241 0.921781617599611 0.07821838240038902 0.47332372402641 0.5266762759735899 0.3864811413403203 0.6135188586596796 0.1324485547836284 0.8675514452163716 0.6715043287989007 0.3284956712010992 0.6358250163162222 0.3641749836837777 0.4881023376285892 0.5118976623714109 0.6603016496580374 0.3396983503419625 0.5467016116176238 0.4532983883823764 0.4426353115746909 0.5573646884253091 0.6094927535151414 0.3905072464848586 0.4995556145610499 0.5004443854389501</probabilities>
		</cpt>
		<cpt id="PsionicStorm">
			<state id="Absent" />
			<state id="Present" />
			<parents>TemplarArchives TimePeriod</parents>
			<probabilities>0.560602305861474 0.4393976941385259 0.8342622740189121 0.1657377259810879 0.7806918287114889 0.2193081712885111 0.2027869212674821 0.797213078732518 0.3052668176423907 0.6947331823576093 0.2871518602513332 0.712848139748667 0.5414569609926768 0.4585430390073231 0.2552256394753452 0.7447743605246548 0.4915795778256891 0.5084204221743109 0.6369546518938327 0.3630453481061674 0.3672565138803233 0.6327434861196768 0.9792921858439886 0.02070781415601131 0.8596706499540642 0.1403293500459358 0.1102604055471801 0.8897395944528199 0.311219796820536 0.6887802031794641 0.5382941623493777 0.4617058376506223 0.6232998146012866 0.3767001853987133 0.8375499482236638 0.1624500517763361 0.3511251963786824 0.6488748036213177 0.4913561233569032 0.5086438766430969 0.5326601392995427 0.4673398607004572 0.6899541140033977 0.3100458859966023 0.7435366327658181 0.2564633672341821 0.3700519681894153 0.6299480318105846 0.3839254042583618 0.616074595741638 0.9 0.1 0.9 0.1 0.9 0.1 0.9 0.1 0.9 0.1 0.7445851876640997 0.2554148123359003 0.7242623246866355 0.2757376753133643 0.6230617776638384 0.3769382223361615 0.2831494974032289 0.7168505025967711 0.7266214223884184 0.2733785776115815 0.9289342783671402 0.07106572163285989 0.7596699335301009 0.2403300664698991 0.08108452235633588 0.9189154776436641 0.3679996796818077 0.6320003203181923 0.4570417249515446 0.5429582750484554 0.8056013925724113 0.1943986074275887 0.3269574908690296 0.6730425091309703 0.3105897340934469 0.6894102659065532 0.8706142908917012 0.1293857091082989 0.6714081754908247 0.3285918245091754 0.8292211068415847 0.1707788931584154 0.5019657932553792 0.4980342067446209 0.5068077910753802 0.4931922089246197 0.7101776581463046 0.2898223418536954 0.3200559392027438 0.6799440607972562</probabilities>
		</cpt>
		<cpt id="Hallucination">
			<state id="Absent" />
			<state id="Present" />
			<parents>TemplarArchives TimePeriod</parents>
			<probabilities>0.5221951665544706 0.4778048334455293 0.6433761799257164 0.3566238200742835 0.1402390216990737 0.8597609783009265 0.3172608595460991 0.6827391404539009 0.1544032593433388 0.8455967406566614 0.4401343324464568 0.5598656675535432 0.1340382761836091 0.8659617238163908 0.4338402307644827 0.5661597692355174 0.3942553690671474 0.6057446309328526 0.5819639401586576 0.4180360598413424 0.3080680874854068 0.6919319125145932 0.3186396454957845 0.6813603545042156 0.8423298651451158 0.1576701348548844 0.6753471269750142 0.3246528730249858 0.5085174773550937 0.4914825226449062 0.4915767869598117 0.5084232130401882 0.3054817674423936 0.6945182325576064 0.2633787119688035 0.7366212880311965 0.9910209242926432 0.008979075707356893 0.7227864533227832 0.2772135466772167 0.3144201585456325 0.6855798414543673 0.5782677634360836 0.4217322365639165 0.7881364383956692 0.2118635616043309 0.7141487017541732 0.2858512982458268 0.951848295358678 0.04815170464132208 0.9 0.1 0.9 0.1 0.9 0.1 0.9 0.1 0.9 0.1 0.476318847666269 0.5236811523337311 0.569496688673565 0.4305033113264351 0.5234283520868034 0.4765716479131966 0.503573856640302 0.4964261433596982 0.6880660373318239 0.311933962668176 0.6328884990638238 0.3671115009361762 0.4010619359737357 0.5989380640262643 0.4739353706306572 0.5260646293693428 0.6552527474137705 0.3447472525862295 0.3643891835140689 0.6356108164859312 0.2623854376988882 0.7376145623011116 0.3822911060210261 0.6177088939789739 0.884072337348235 0.1159276626517651 0.7348768630607312 0.2651231369392689 0.544024976805184 0.4559750231948159 0.5394054868542765 0.4605945131457237 0.3726962079129578 0.6273037920870423 0.655022551870724 0.3449774481292759 0.1481517568833455 0.8518482431166545 0.1622510654534939 0.8377489345465061</probabilities>
		</cpt>
		<cpt id="PlasmaShields2">
			<state id="Absent" />
			<state id="Present" />
			<parents>TimePeriod PlasmaShields1</parents>
			<probabilities>0.6956746288150252 0.3043253711849748 0.07927128254974883 0.9207287174502512 0.7659208874687055 0.2340791125312946 0.3775184701873957 0.6224815298126043 0.9500658748775215 0.0499341251224785 0.4041082764626642 0.5958917235373358 0.534191421689023 0.4658085783109769 0.7614349721879157 0.2385650278120842 0.908752458311342 0.09124754168865795 0.154058107065474 0.845941892934526 0.3104281628693065 0.6895718371306935 0.6730975204434273 0.3269024795565728 0.4362877549232291 0.563712245076771 0.8124697210173631 0.1875302789826368 0.4124318714664245 0.5875681285335755 0.8576554267321052 0.1423445732678949 0.650083412658215 0.349916587341785 0.5040633930591898 0.4959366069408102 0.6190877887751499 0.38091221122485 0.4000866892017798 0.5999133107982202 0.5478742002473473 0.4521257997526528 0.3733702265948113 0.6266297734051887 0.1113375775016657 0.8886624224983343 0.6744270967448547 0.3255729032551453 0.744609585030105 0.255390414969895 0.2455935752311907 0.7544064247688094 0.7567565286916603 0.2432434713083397 0.3482579747978958 0.6517420252021042 0.4427974529416462 0.5572025470583538 0.5442595472309405 0.4557404527690595 0.8978153750123458 0.1021846249876543 0.2227578896391534 0.7772421103608466 0.5357969117091742 0.4642030882908258 0.5764521902626059 0.4235478097373942 0.4135101353202308 0.5864898646797692 0.3358492533336226 0.6641507466663773 0.5112792361105154 0.4887207638894847 0.4469762937549717 0.5530237062450283 0.7149586904187111 0.285041309581289 0.5529271605164124 0.4470728394835876 0.6369441900241344 0.3630558099758656 0.831289521190781 0.168710478809219 0.8165994742871902 0.1834005257128099 0.7719413595988763 0.2280586404011237 0.2043800029850494 0.7956199970149506 0.9698510236901096 0.03014897630989047 0.5480518169098299 0.4519481830901702 0.6114884411217209 0.388511558878279 0.9807902231762247 0.01920977682377539 0.863779458787776 0.1362205412122241</probabilities>
		</cpt>
		<cpt id="PlasmaShields3">
			<state id="Absent" />
			<state id="Present" />
			<parents>TimePeriod PlasmaShields2</parents>
			<probabilities>0.6578296917048825 0.3421703082951176 0.1858048373005178 0.8141951626994822 0.6318840316003669 0.3681159683996331 0.7411930576711483 0.2588069423288515 0.5575964622093702 0.4424035377906298 0.408863200945314 0.591136799054686 0.9427792372263345 0.0572207627736656 0.5515454319758711 0.4484545680241288 0.5265982907802669 0.4734017092197331 0.9051733474651947 0.09482665253480525 0.4506862948758775 0.5493137051241224 0.2835788251021857 0.7164211748978144 0.7741990249095002 0.2258009750904998 0.3220487083500156 0.6779512916499845 0.6275714568473764 0.3724285431526236 0.7726990958152722 0.2273009041847278 0.6231550747605138 0.3768449252394863 0.2348686170850583 0.7651313829149417 0.4995565901890651 0.5004434098109348 0.273929487407876 0.7260705125921241 0.170132668691146 0.8298673313088539 0.35416110777021 0.6458388922297901 0.6129954975333138 0.3870045024666862 0.543992776092692 0.4560072239073081 0.135338111191143 0.8646618888088571 0.4832402380425723 0.5167597619574276 0.53171505872809 0.4682849412719098 0.648341981184677 0.3516580188153229 0.6893506511658635 0.3106493488341365 0.04925967924032416 0.9507403207596759 0.5475580329266259 0.4524419670733742 0.07777738813455082 0.9222226118654492 0.1709088409732177 0.8290911590267823 0.1403107474411906 0.8596892525588094 0.5915180067683231 0.4084819932316768 0.4076667917816038 0.5923332082183963 0.5269065375725724 0.4730934624274276 0.8199507633714637 0.1800492366285364 0.3377735268220377 0.6622264731779625 0.4910027638047788 0.5089972361952214 0.8927183101225279 0.107281689877472 0.4749145335645019 0.525085466435498 0.588396134543682 0.4116038654563179 0.7052610223351971 0.2947389776648028 0.9402615868614626 0.05973841313853744 0.791132913335921 0.2088670866640791 0.6846137447997976 0.3153862552002024 0.2270232370195764 0.7729767629804236 0.3763896041724836 0.6236103958275165 0.8927513769435882 0.1072486230564118</probabilities>
		</cpt>
		<cpt id="GroundArmor2">
			<state id="Absent" />
			<state id="Present" />
			<parents>TimePeriod GroundArmor1</parents>
			<probabilities>0.8801678958265005 0.1198321041734995 0.5082194118203299 0.49178058817967 0.326706408856755 0.6732935911432451 0.9209435696885098 0.07905643031149032 0.5162511190373369 0.4837488809626632 0.02643814777880855 0.9735618522211915 0.1227974331223554 0.8772025668776446 0.5302887468327349 0.4697112531672651 0.508181421594588 0.491818578405412 0.5784725014480704 0.4215274985519297 0.6704864270124081 0.3295135729875919 0.3839800146290057 0.6160199853709943 0.3762865598390757 0.6237134401609243 0.3825740201548842 0.6174259798451158 0.2579241245470517 0.7420758754529484 0.5883604098358282 0.4116395901641719 0.6920600395517994 0.3079399604482006 0.3924812218811287 0.6075187781188712 0.5772312009269263 0.4227687990730738 0.5388811881866973 0.4611188118133027 0.8944034304767988 0.1055965695232012 0.7194385840026089 0.2805614159973913 0.9247932486650325 0.07520675133496735 0.5179085992916815 0.4820914007083184 0.5608760294454541 0.4391239705545458 0.6545116719886086 0.3454883280113915 0.5062468363742037 0.4937531636257965 0.836626762586058 0.1633732374139421 0.5702894543157938 0.4297105456842063 0.2812191586118195 0.7187808413881807 0.6990290503142473 0.3009709496857528 0.5368259934199945 0.4631740065800055 0.1796454219115389 0.8203545780884612 0.3853095591609156 0.6146904408390844 0.7617318934741922 0.2382681065258077 0.8225481305130732 0.1774518694869269 0.5615689986324897 0.4384310013675103 0.1365123655886721 0.8634876344113279 0.1325599075175857 0.8674400924824143 0.8384186250794655 0.1615813749205345 0.3473317270138737 0.6526682729861264 0.7030593494914537 0.2969406505085463 0.4365952144712835 0.5634047855287167 0.1640899797660732 0.8359100202339269 0.6446441588713704 0.3553558411286297 0.6108122575208879 0.3891877424791122 0.696323983032363 0.303676016967637 0.5241712627527926 0.4758287372472073 0.290591019820645 0.7094089801793549 0.5166900755620211 0.483309924437979</probabilities>
		</cpt>
		<cpt id="GroundArmor3">
			<state id="Absent" />
			<state id="Present" />
			<parents>TimePeriod GroundArmor2</parents>
			<probabilities>0.556467300207989 0.443532699792011 0.4930910066483504 0.5069089933516495 0.5612380743681757 0.4387619256318242 0.3926588010872374 0.6073411989127627 0.3827589029492697 0.6172410970507304 0.6277679952455483 0.3722320047544518 0.09582961012631638 0.9041703898736836 0.3896249374523409 0.6103750625476591 0.6060577884006316 0.3939422115993684 0.1475790476406075 0.8524209523593925 0.2257514285474441 0.774248571452556 0.9067063503588586 0.09329364964114138 0.4586890101881322 0.541310989811868 0.4344414376855951 0.5655585623144049 0.4985070659876629 0.5014929340123371 0.3851801303857166 0.6148198696142834 0.6165752790080887 0.3834247209919113 0.6211255714119272 0.3788744285880729 0.4390872364127263 0.5609127635872738 0.4974971728232925 0.5025028271767076 0.3210568152637972 0.6789431847362029 0.6116230543081044 0.3883769456918957 0.6806873754602242 0.3193126245397759 0.5237612210987414 0.4762387789012588 0.4844987121341346 0.5155012878658654 0.5690934897996257 0.4309065102003742 0.7822461376444222 0.2177538623555777 0.4750507215291381 0.5249492784708618 0.5498135059897716 0.4501864940102284 0.4227323212651222 0.5772676787348778 0.5942264402429197 0.4057735597570803 0.6386814903924111 0.361318509607589 0.5765927995568732 0.4234072004431267 0.4064638663281644 0.5935361336718356 0.6218450126760421 0.378154987323958 0.6026582900056324 0.3973417099943675 0.5167021537204685 0.4832978462795315 0.7932381322373325 0.2067618677626676 0.7471132499894542 0.2528867500105457 0.6962044710028638 0.3037955289971362 0.8296475732630001 0.170352426737 0.975673721194679 0.0243262788053209 0.6234805376251048 0.3765194623748953 0.4107784120897154 0.5892215879102847 0.5747211538909521 0.4252788461090479 0.5885535087126064 0.4114464912873938 0.1044539733421479 0.895546026657852 0.8569703048070716 0.1430296951929283 0.4891563105882667 0.5108436894117333 0.3412071119684403 0.6587928880315596</probabilities>
		</cpt>
		<cpt id="GroundWeapons2">
			<state id="Absent" />
			<state id="Present" />
			<parents>TimePeriod Forge GroundWeapons1</parents>
			<probabilities>0.1626739327964234 0.8373260672035765 0.3035709709942064 0.6964290290057935 0.9 0.1 0.9 0.1 0.6191228651651777 0.3808771348348222 0.5141338428215531 0.485866157178447 0.9 0.1 0.9 0.1 0.4565654422083783 0.5434345577916216 0.5045428395220515 0.4954571604779486 0.9 0.1 0.9 0.1 0.7337375292224935 0.2662624707775066 0.06584890914441675 0.9341510908555832 0.8988062511113604 0.1011937488886396 0.8991714559677428 0.1008285440322573 0.4834595421941553 0.5165404578058446 0.2531134666421751 0.7468865333578248 0.5719979798070376 0.4280020201929626 0.7968381138758505 0.2031618861241495 0.4602064319657914 0.5397935680342086 0.922788132664795 0.0772118673352051 0.8658275428391428 0.1341724571608572 0.6964661936520104 0.3035338063479898 0.9205989265426325 0.07940107345736756 0.4697058357545786 0.5302941642454214 0.6954848783689377 0.3045151216310623 0.6996301285800687 0.3003698714199313 0.5093997693463416 0.4906002306536584 0.7124899595370768 0.2875100404629232 0.601965163830844 0.3980348361691561 0.5017067454688968 0.4982932545311031 0.5132864602685469 0.4867135397314533 0.9194589088553253 0.08054109114467474 0.4891472565417002 0.5108527434582998 0.8921448737439145 0.1078551262560856 0.7434728443412654 0.2565271556587346 0.5908703949203333 0.4091296050796667 0.4626221575705889 0.537377842429411 0.6315313782960363 0.3684686217039636 0.3124620376199501 0.6875379623800498 0.603063941332862 0.396936058667138 0.2668749055486166 0.7331250944513834 0.4091096433009918 0.5908903566990081 0.5245717108506809 0.4754282891493193 0.3243925011248196 0.6756074988751804 0.3459668265102614 0.6540331734897387 0.5290517632214964 0.4709482367785036 0.8892756610629995 0.1107243389370004 0.6536372004758978 0.3463627995241021 0.4784028343293513 0.5215971656706486 0.3721010787399351 0.6278989212600649 0.6735288386766467 0.3264711613233532 0.7564808004092382 0.2435191995907619 0.20462828845078 0.7953717115492199 0.310360662262246 0.689639337737754 0.5311706242580315 0.4688293757419685 0.6637687966870195 0.3362312033129806 0.4554913088666919 0.544508691133308 0.5846396152754875 0.4153603847245125 0.4706560339895944 0.5293439660104057 0.596038984261704 0.4039610157382961 0.0690156767000893 0.9309843232999108 0.4000249523171682 0.5999750476828318 0.6534420225667466 0.3465579774332536 0.7577435301260026 0.2422564698739975 0.2509472766852533 0.7490527233147467 0.53907452034667 0.4609254796533298 0.3635927303419232 0.6364072696580768 0.7434216862442816 0.2565783137557184 0.1917572051356333 0.8082427948643667 0.600499698079224 0.3995003019207759 0.4130008634984536 0.5869991365015465 0.8367435394465838 0.1632564605534163 0.3731882285891137 0.6268117714108863 0.8223502845582718 0.1776497154417282 0.8126097759131938 0.1873902240868061 0.7353578380946196 0.2646421619053804 0.9717347886895141 0.02826521131048582 0.6320888153767087 0.3679111846232911 0.7560082294974763 0.2439917705025237 0.8514295440593118 0.1485704559406882 0.4156555549668584 0.5843444450331417 0.4751982784743811 0.5248017215256189 0.5484956529819435 0.4515043470180565 0.8692826954317564 0.1307173045682436 0.8428858329702935 0.1571141670297064 0.3922716274115702 0.6077283725884299 0.6645954121189543 0.3354045878810458 0.7350651247752816 0.2649348752247183 0.1011391179042477 0.8988608820957522 0.6113068379905923 0.3886931620094077 0.7021656514586475 0.2978343485413524 0.8712338778541269 0.1287661221458731 0.4763476738073398 0.5236523261926603 0.469591878975178 0.530408121024822 0.8287564956573246 0.1712435043426754 0.7653857605580182 0.2346142394419817 0.4068052417168435 0.5931947582831566 0.7956919767055617 0.2043080232944382</probabilities>
		</cpt>
		<cpt id="GroundWeapons3">
			<state id="Absent" />
			<state id="Present" />
			<parents>TimePeriod Forge GroundWeapons2</parents>
			<probabilities>0.8807586772351339 0.1192413227648661 0.6896009465478529 0.3103990534521471 0.9 0.1 0.9 0.1 0.4503221622963881 0.5496778377036119 0.9911296885773139 0.008870311422686043 0.9 0.1 0.9 0.1 0.5034983120916455 0.4965016879083545 0.8215742758288435 0.1784257241711566 0.9 0.1 0.9 0.1 0.611782701975918 0.388217298024082 0.804139563794727 0.1958604362052731 0.8739823729691008 0.1260176270308992 0.8993258679881169 0.1006741320118832 0.3202157455059169 0.6797842544940831 0.7811352113559817 0.2188647886440183 0.4870366312819028 0.5129633687180971 0.5917838417680097 0.4082161582319904 0.1321777588442803 0.8678222411557197 0.1359063643927662 0.864093635607234 0.7152279676017683 0.2847720323982317 0.502554793263413 0.497445206736587 0.7045216124626346 0.2954783875373654 0.8505506068710492 0.1494493931289509 0.4408423088706956 0.5591576911293045 0.7865993211753325 0.2134006788246675 0.4376477443785081 0.5623522556214919 0.1565279859413654 0.8434720140586347 0.5934388362581482 0.4065611637418519 0.6007112592958781 0.3992887407041219 0.9102303606289334 0.08976963937106657 0.8706519275205992 0.1293480724794009 0.8464865677055475 0.1535134322944523 0.6108029524754222 0.389197047524578 0.3080970267281494 0.6919029732718507 0.9263059454238596 0.07369405457614059 0.7115741928440514 0.2884258071559486 0.446076872763613 0.553923127236387 0.6056300716882355 0.3943699283117644 0.8154698279111941 0.1845301720888061 0.502733957031582 0.4972660429684181 0.1694187812757113 0.8305812187242888 0.7587801310414648 0.2412198689585351 0.8336282943801384 0.1663717056198615 0.2544564681512136 0.7455435318487864 0.8764566902280755 0.1235433097719246 0.8664700718963707 0.1335299281036292 0.3533954717016108 0.6466045282983892 0.649084572644881 0.350915427355119 0.3528590275230857 0.6471409724769142 0.5978191952712444 0.4021808047287555 0.5018699130369192 0.4981300869630808 0.984036212161616 0.01596378783838409 0.836679926201108 0.1633200737988921 0.5264596856378719 0.4735403143621281 0.6005587025444678 0.3994412974555322 0.6183226653345412 0.3816773346654588 0.4564811050190042 0.5435188949809957 0.5875262456175873 0.4124737543824128 0.5717780390573655 0.4282219609426346 0.8028786102336688 0.1971213897663311 0.401028150071827 0.598971849928173 0.8748739694743812 0.1251260305256188 0.475685967660106 0.5243140323398942 0.5172721472834404 0.4827278527165596 0.660008400638423 0.3399915993615771 0.7923040979156542 0.2076959020843458 0.7275629297769536 0.2724370702230464 0.9051033182536088 0.09489668174639118 0.8064458960399479 0.1935541039600522 0.6853580929290541 0.3146419070709459 0.7470237853358217 0.2529762146641784 0.9834029846787532 0.01659701532124685 0.5615613440965486 0.4384386559034514 0.6480989768906069 0.3519010231093931 0.7077385237610422 0.2922614762389578 0.815910167816751 0.184089832183249 0.535544273527599 0.464455726472401 0.5711248543934242 0.4288751456065758 0.8014018906028431 0.1985981093971569 0.5256471357188957 0.4743528642811043 0.5372996588895146 0.4627003411104855 0.8705844218730278 0.1294155781269722 0.8375980336189166 0.1624019663810834 0.4774026021268545 0.5225973978731456 0.7548633045821607 0.2451366954178394 0.7833799574859982 0.2166200425140019 0.7214951793865534 0.2785048206134466 0.3906856970499304 0.6093143029500696 0.5810278351899073 0.4189721648100928 0.864611150946594 0.135388849053406 0.7942303561347948 0.2057696438652053 0.4907787673003932 0.509221232699607 0.2237916095543734 0.7762083904456266 0.7004500999467969 0.299549900053203 0.9131670933811882 0.08683290661881186 0.2086344276053493 0.7913655723946508 0.557439307558106 0.442560692441894</probabilities>
		</cpt>
		<cpt id="AirArmor2">
			<state id="Absent" />
			<state id="Present" />
			<parents>TimePeriod AirArmor1</parents>
			<probabilities>0.7099237121062759 0.2900762878937242 0.3300494992453656 0.6699505007546345 0.5412436538595689 0.4587563461404311 0.6848561520828772 0.3151438479171229 0.1054676487973277 0.8945323512026723 0.5544191063434792 0.4455808936565209 0.0722145412824977 0.9277854587175023 0.06030834857353587 0.9396916514264642 0.2340334272667977 0.7659665727332023 0.651001266928264 0.348998733071736 0.804106165335391 0.1958938346646088 0.2616653386815377 0.7383346613184623 0.8244519285573525 0.1755480714426475 0.8187031505762555 0.1812968494237445 0.2596642596777737 0.7403357403222263 0.4375732695372064 0.5624267304627936 0.236263338175666 0.763736661824334 0.8394880538072599 0.1605119461927402 0.8083947240312003 0.1916052759687997 0.5810046008769875 0.4189953991230125 0.7405145893355348 0.2594854106644652 0.7586060561083098 0.2413939438916903 0.7162717954141271 0.283728204585873 0.2671398481653477 0.7328601518346524 0.7523486055843836 0.2476513944156163 0.4409747418534574 0.5590252581465427 0.4857344380614612 0.5142655619385389 0.77017397146994 0.2298260285300599 0.2867457549623559 0.7132542450376441 0.4935675963359275 0.5064324036640726 0.8160119698045529 0.1839880301954472 0.7846094890578753 0.2153905109421246 0.04130664030238444 0.9586933596976157 0.5058109854910268 0.4941890145089733 0.572268198216667 0.4277318017833332 0.572757239425462 0.427242760574538 0.4904028278737264 0.5095971721262735 0.5841224139929693 0.4158775860070308 0.2528241372242812 0.7471758627757188 0.6488838105584627 0.3511161894415372 0.06439073788626548 0.9356092621137344 0.5022586779537356 0.4977413220462645 0.5082888139418023 0.4917111860581976 0.5726319039359759 0.4273680960640243 0.3473467480392816 0.6526532519607184 0.6645833320746523 0.3354166679253478 0.9527953259818339 0.04720467401816592 0.5716502154784056 0.4283497845215944 0.07740445780296577 0.9225955421970343 0.8244261293214332 0.1755738706785668</probabilities>
		</cpt>
		<cpt id="AirArmor3">
			<state id="Absent" />
			<state id="Present" />
			<parents>TimePeriod AirArmor2</parents>
			<probabilities>0.9065282290643598 0.09347177093564021 0.4989297857119965 0.5010702142880036 0.3373370178888802 0.6626629821111199 0.7165473058189333 0.2834526941810666 0.5147901430129984 0.4852098569870018 0.4229166813879219 0.5770833186120781 0.4171705229849491 0.582829477015051 0.5957898299384751 0.4042101700615249 0.5147525939269129 0.485247406073087 0.3721075281928936 0.6278924718071065 0.4465790299090976 0.5534209700909023 0.6704510621027935 0.3295489378972065 0.4689346015995946 0.5310653984004052 0.3530623348463324 0.6469376651536676 0.1973691065661393 0.8026308934338606 0.9639704511312359 0.03602954886876399 0.9852942052263579 0.01470579477364212 0.5683778636751745 0.4316221363248255 0.5858905795812226 0.4141094204187775 0.9050079859013978 0.09499201409860227 0.4337607665459021 0.566239233454098 0.4136592212373688 0.5863407787626312 0.484620631638476 0.515379368361524 0.4957543416492866 0.5042456583507133 0.3444174627942804 0.6555825372057196 0.730669690348472 0.269330309651528 0.3749873300491116 0.6250126699508884 0.3912887563315357 0.6087112436684643 0.3706213815318106 0.6293786184681894 0.2845950974948405 0.7154049025051595 0.3679391478791855 0.6320608521208144 0.8420802795380044 0.1579197204619956 0.6692267919175238 0.3307732080824763 0.2681683191382397 0.7318316808617603 0.08952812764905108 0.910471872350949 0.5470095187352468 0.4529904812647531 0.2092793308778431 0.790720669122157 0.1503765863196342 0.8496234136803658 0.5740101690867848 0.4259898309132152 0.4428011490488 0.5571988509512 0.6865242811482647 0.3134757188517354 0.8799882802535762 0.1200117197464239 0.4699916290832713 0.5300083709167287 0.7962440074904431 0.2037559925095567 0.4285434922473152 0.5714565077526848 0.3801313398063962 0.6198686601936039 0.4038032010065502 0.5961967989934499 0.6116563658592122 0.3883436341407877 0.6762790585511844 0.3237209414488156 0.8614790896667812 0.1385209103332187</probabilities>
		</cpt>
		<cpt id="AirWeapons2">
			<state id="Absent" />
			<state id="Present" />
			<parents>TimePeriod AirWeapons1</parents>
			<probabilities>0.3778386678106652 0.6221613321893347 0.5951582065750073 0.4048417934249927 0.51379838926374 0.48620161073626 0.5753888991830328 0.4246111008169672 0.05943613806875429 0.9405638619312458 0.533042212409125 0.4669577875908749 0.6632410288942986 0.3367589711057015 0.3845842358644889 0.6154157641355111 0.3855766506705375 0.6144233493294625 0.8938759222748475 0.1061240777251525 0.6051092906061322 0.3948907093938678 0.5309641621996494 0.4690358378003506 0.4592996604858654 0.5407003395141347 0.631126787170432 0.368873212829568 0.7014412314183034 0.2985587685816965 0.3922927618046199 0.6077072381953802 0.5492058503017988 0.4507941496982012 0.1853655787303241 0.8146344212696759 0.48231378339843 0.5176862166015701 0.4503251379857219 0.5496748620142781 0.7816878029275953 0.2183121970724048 0.5100733856860422 0.4899266143139578 0.6051737434285319 0.394826256571468 0.1712005766947521 0.8287994233052479 0.5698728255810623 0.4301271744189377 0.4809563343780334 0.5190436656219667 0.7788696975986583 0.2211303024013415 0.09400988626073197 0.905990113739268 0.5544766940848459 0.4455233059151541 0.332698455083011 0.667301544916989 0.606368449439896 0.3936315505601041 0.2202426780366956 0.7797573219633045 0.284113820508292 0.7158861794917081 0.3625527761274022 0.6374472238725979 0.0511824540007795 0.9488175459992206 0.7259759515972722 0.2740240484027278 0.8722124150705641 0.1277875849294359 0.6823760227785798 0.3176239772214201 0.365926220692269 0.6340737793077309 0.5363817298490676 0.4636182701509322 0.5694745544441763 0.4305254455558238 0.06691257460126371 0.9330874253987361 0.5615622638720412 0.4384377361279589 0.5511516455094224 0.4488483544905775 0.5620852702727268 0.4379147297272734 0.3001592011378481 0.6998407988621519 0.9937663713186874 0.006233628681312528 0.8502462283120289 0.149753771687971 0.5746319680102234 0.4253680319897765 0.6813581083460156 0.3186418916539843</probabilities>
		</cpt>
		<cpt id="AirWeapons3">
			<state id="Absent" />
			<state id="Present" />
			<parents>TimePeriod AirWeapons2</parents>
			<probabilities>0.480374210338584 0.519625789661416 0.1125344259833041 0.8874655740166958 0.06252214998563187 0.9374778500143682 0.5122799565577492 0.487720043442251 0.6419037915635951 0.3580962084364048 0.5869318569137435 0.4130681430862566 0.3835814208036993 0.6164185791963007 0.688663993550785 0.3113360064492149 0.5215268107320241 0.4784731892679759 0.888430883848341 0.111569116151659 0.8201753296324031 0.1798246703675968 0.6120851949388055 0.3879148050611946 0.6557432290039833 0.3442567709960167 0.9435892686332603 0.05641073136673967 0.3433335916267058 0.656666408373294 0.7978564128804182 0.2021435871195818 0.5992442404517437 0.4007557595482564 0.02544331968041596 0.974556680319584 0.2687424780243186 0.7312575219756814 0.0272245061930674 0.9727754938069327 0.7442101840239657 0.2557898159760344 0.07088020728235431 0.9291197927176458 0.4478243335686348 0.5521756664313652 0.9643094322836067 0.03569056771639329 0.9731275547493926 0.02687244525060743 0.8649701680707141 0.1350298319292859 0.4886639545521416 0.5113360454478585 0.6045405844884406 0.3954594155115595 0.6591592228051768 0.3408407771948232 0.6672546786247906 0.3327453213752094 0.5564573130934927 0.4435426869065075 0.439234789080688 0.560765210919312 0.5030378884038633 0.4969621115961368 0.4042464379456091 0.5957535620543909 0.6416024447190448 0.3583975552809551 0.02688277338934788 0.973117226610652 0.9028579277367497 0.09714207226325031 0.948397104354286 0.05160289564571394 0.5160063434241821 0.4839936565758179 0.6620285024094301 0.3379714975905698 0.5300946838283679 0.469905316171632 0.4299584896824448 0.5700415103175551 0.6834091969261351 0.3165908030738651 0.7196999450512318 0.2803000549487681 0.8894761610028983 0.1105238389971016 0.425438642470178 0.5745613575298221 0.9957879587881694 0.004212041211830622 0.6575924609114898 0.3424075390885102 0.5713583459177191 0.4286416540822811 0.6004186420947584 0.3995813579052416</probabilities>
		</cpt>
	</nodes>
	<extensions>
		<genie version="1.0" app="GeNIe 2.0.5079.0" name="Network1" faultnameformat="nodestate">
			<node id="Assimilator">
				<name>Assimilator</name>
				<interior color="e5f6f7" />
				<outline color="000080" />
				<font color="000000" name="Arial" size="8" />
				<position>510 340 576 381</position>
			</node>
			<node id="Pylon">
				<name>Pylon</name>
				<interior color="e5f6f7" />
				<outline color="000080" />
				<font color="000000" name="Arial" size="8" />
				<position>760 247 805 275</position>
			</node>
			<node id="Gateway">
				<name>Gateway</name>
				<interior color="e5f6f7" />
				<outline color="000080" />
				<font color="000000" name="Arial" size="8" />
				<position>736 329 793 364</position>
			</node>
			<node id="Zealot">
				<name>Zealot</name>
				<interior color="99cc00" />
				<outline color="000080" />
				<font color="000000" name="Arial" size="8" />
				<position>634 275 682 305</position>
			</node>
			<node id="CyberCore">
				<name>CyberCore</name>
				<interior color="e5f6f7" />
				<outline color="000080" />
				<font color="000000" name="Arial" size="8" />
				<position>617 390 683 431</position>
			</node>
			<node id="CitadelOfAdun">
				<name>CitadelOfAdun</name>
				<interior color="e5f6f7" />
				<outline color="000080" />
				<font color="000000" name="Arial" size="8" />
				<position>541 449 623 500</position>
			</node>
			<node id="Forge">
				<name>Forge</name>
				<interior color="e5f6f7" />
				<outline color="000080" />
				<font color="000000" name="Arial" size="8" />
				<position>877 299 923 327</position>
			</node>
			<node id="PhotonCannon">
				<name>PhotonCannon</name>
				<interior color="e5f6f7" />
				<outline color="000080" />
				<font color="000000" name="Arial" size="8" />
				<position>977 366 1059 417</position>
			</node>
			<node id="Stargate">
				<name>Stargate</name>
				<interior color="e5f6f7" />
				<outline color="000080" />
				<font color="000000" name="Arial" size="8" />
				<position>709 520 765 555</position>
			</node>
			<node id="RoboticsFacility">
				<name>RoboticsFacility</name>
				<interior color="e5f6f7" />
				<outline color="000080" />
				<font color="000000" name="Arial" size="8" />
				<position>834 477 920 530</position>
			</node>
			<node id="RoboticsSupportBay">
				<name>RoboticsSupportBay</name>
				<interior color="e5f6f7" />
				<outline color="000080" />
				<font color="000000" name="Arial" size="8" />
				<position>903 586 1022 653</position>
			</node>
			<node id="Observatory">
				<name>Observatory</name>
				<interior color="e5f6f7" />
				<outline color="000080" />
				<font color="000000" name="Arial" size="8" />
				<position>961 527 1034 572</position>
			</node>
			<node id="ArbiterTribunal">
				<name>ArbiterTribunal</name>
				<interior color="e5f6f7" />
				<outline color="000080" />
				<font color="000000" name="Arial" size="8" />
				<position>607 627 689 678</position>
			</node>
			<node id="TemplarArchives">
				<name>TemplarArchives</name>
				<interior color="e5f6f7" />
				<outline color="000080" />
				<font color="000000" name="Arial" size="8" />
				<position>569 531 662 589</position>
			</node>
			<node id="FleetBeacon">
				<name>FleetBeacon</name>
				<interior color="e5f6f7" />
				<outline color="000080" />
				<font color="000000" name="Arial" size="8" />
				<position>797 565 870 610</position>
			</node>
			<node id="ShieldBattery">
				<name>ShieldBattery</name>
				<interior color="e5f6f7" />
				<outline color="000080" />
				<font color="000000" name="Arial" size="8" />
				<position>838 393 914 440</position>
			</node>
			<node id="Dragoon">
				<name>Dragoon</name>
				<interior color="99cc00" />
				<outline color="000080" />
				<font color="000000" name="Arial" size="8" />
				<position>456 427 512 462</position>
			</node>
			<node id="DarkTemplar">
				<name>DarkTemplar</name>
				<interior color="99cc00" />
				<outline color="000080" />
				<font color="000000" name="Arial" size="8" />
				<position>436 491 509 536</position>
			</node>
			<node id="HighTemplar">
				<name>HighTemplar</name>
				<interior color="99cc00" />
				<outline color="000080" />
				<font color="000000" name="Arial" size="8" />
				<position>412 561 483 605</position>
			</node>
			<node id="Shuttle">
				<name>Shuttle</name>
				<interior color="99cc00" />
				<outline color="000080" />
				<font color="000000" name="Arial" size="8" />
				<position>982 461 1031 491</position>
			</node>
			<node id="Reaver">
				<name>Reaver</name>
				<interior color="99cc00" />
				<outline color="000080" />
				<font color="000000" name="Arial" size="8" />
				<position>1051 607 1102 638</position>
			</node>
			<node id="Observer">
				<name>Observer</name>
				<interior color="99cc00" />
				<outline color="000080" />
				<font color="000000" name="Arial" size="8" />
				<position>1075 543 1136 581</position>
			</node>
			<node id="Carrier">
				<name>Carrier</name>
				<interior color="99cc00" />
				<outline color="000080" />
				<font color="000000" name="Arial" size="8" />
				<position>784 656 833 686</position>
			</node>
			<node id="Scout">
				<name>Scout</name>
				<interior color="99cc00" />
				<outline color="000080" />
				<font color="000000" name="Arial" size="8" />
				<position>716 691 762 719</position>
			</node>
			<node id="Corsair">
				<name>Corsair</name>
				<interior color="99cc00" />
				<outline color="000080" />
				<font color="000000" name="Arial" size="8" />
				<position>757 690 808 721</position>
			</node>
			<node id="Arbiter">
				<name>Arbiter</name>
				<interior color="99cc00" />
				<outline color="000080" />
				<font color="000000" name="Arial" size="8" />
				<position>504 691 553 721</position>
			</node>
			<node id="DarkArchon">
				<name>DarkArchon</name>
				<interior color="99cc00" />
				<outline color="000080" />
				<font color="000000" name="Arial" size="8" />
				<position>339 483 410 527</position>
			</node>
			<node id="Archon">
				<name>Archon</name>
				<interior color="99cc00" />
				<outline color="000080" />
				<font color="000000" name="Arial" size="8" />
				<position>327 580 379 612</position>
			</node>
			<node id="TimePeriod">
				<name>TimePeriod</name>
				<interior color="ffcc00" />
				<outline color="000080" />
				<font color="000000" name="Arial" size="8" />
				<position>420 252 491 296</position>
			</node>
			<node id="GroundWeapons1">
				<name>GroundWeapons1</name>
				<interior color="ff99cc" />
				<outline color="000080" />
				<font color="000000" name="Arial" size="8" />
				<position>662 147 766 202</position>
			</node>
			<node id="GroundArmor1">
				<name>GroundArmor1</name>
				<interior color="ff99cc" />
				<outline color="000080" />
				<font color="000000" name="Arial" size="8" />
				<position>899 141 988 189</position>
			</node>
			<node id="PlasmaShields1">
				<name>PlasmaShields1</name>
				<interior color="ff99cc" />
				<outline color="000080" />
				<font color="000000" name="Arial" size="8" />
				<position>783 154 880 185</position>
			</node>
			<node id="AirWeapons1">
				<name>AirWeapons1</name>
				<interior color="ff99cc" />
				<outline color="000080" />
				<font color="000000" name="Arial" size="8" />
				<position>244 242 340 284</position>
			</node>
			<node id="AirArmor1">
				<name>AirArmor1</name>
				<interior color="ff99cc" />
				<outline color="000080" />
				<font color="000000" name="Arial" size="8" />
				<position>241 296 310 332</position>
			</node>
			<node id="LegEnhancements">
				<name>LegEnhancements</name>
				<interior color="ff99cc" />
				<outline color="000080" />
				<font color="000000" name="Arial" size="8" />
				<position>212 445 324 490</position>
			</node>
			<node id="SingularityCharge">
				<name>SingularityCharge</name>
				<interior color="ff99cc" />
				<outline color="000080" />
				<font color="000000" name="Arial" size="8" />
				<position>147 365 260 417</position>
			</node>
			<node id="PsionicStorm">
				<name>PsionicStorm</name>
				<interior color="ff99cc" />
				<outline color="000080" />
				<font color="000000" name="Arial" size="8" />
				<position>415 766 500 802</position>
			</node>
			<node id="Hallucination">
				<name>Hallucination</name>
				<interior color="ff99cc" />
				<outline color="000080" />
				<font color="000000" name="Arial" size="8" />
