<?xml version="1.0" encoding="ISO-8859-1"?>
<smile version="1.0" id="Network1" numsamples="1000" discsamples="10000">
	<nodes>
		<cpt id="TimePeriod">
			<state id="Period1" />
			<state id="Period2" />
			<state id="Period3" />
			<state id="Period4" />
			<state id="Period5" />
			<state id="Period6" />
			<state id="Period7" />
			<state id="Period8" />
			<state id="Period9" />
			<state id="Period10" />
			<state id="Period11" />
			<state id="Period12" />
			<state id="Period13" />
			<state id="Period14" />
			<state id="Period15" />
			<state id="Period16" />
			<state id="Period17" />
			<state id="Period18" />
			<state id="Period19" />
			<state id="Period20" />
			<state id="Period21" />
			<state id="Period22" />
			<state id="Period23" />
			<state id="Period24" />
			<state id="Period25" />
			<probabilities>0.06128878281622914 0.06128878281622914 0.06128878281622914 0.06128878281622914 0.06128878281622914 0.06128878281622914 0.06128878281622914 0.05969769291964999 0.05492442322991251 0.05333333333333336 0.05094669848846462 0.05015115354017503 0.04856006364359588 0.04537788385043756 0.03980906921241052 0.03742243436754178 0.03105807478122515 0.02469371519490852 0.02071599045346063 0.01673826571201273 0.01116945107398568 0.009578361177406526 0.00719172633253779 0.004805091487669055 0.004805091487669055</probabilities>
		</cpt>
		<cpt id="SpawningPool">
			<state id="Absent" />
			<state id="Present" />
			<parents>TimePeriod</parents>
			<probabilities>0.9987179487179487 0.001282051282051282 0.9987179487179487 0.001282051282051282 0.8961538461538462 0.1038461538461538 0.8833333333333334 0.1166666666666667 0.2551282051282051 0.7448717948717949 0.1397435897435898 0.8602564102564102 0.1012820512820513 0.8987179487179486 0.1039473684210526 0.8960526315789472 0.04142857142857143 0.9585714285714284 0.02794117647058823 0.9720588235294116 0.01384615384615385 0.9861538461538462 0.0140625 0.9859375 0.01451612903225807 0.9854838709677419 0.01551724137931035 0.9844827586206897 0.01764705882352941 0.9823529411764707 0.01875 0.98125 0.0225 0.9775 0.028125 0.971875 0.03333333333333333 0.9666666666666667 0.04090909090909091 0.9590909090909092 0.06 0.94 0.06923076923076924 0.9307692307692308 0.09000000000000001 0.91 0.1285714285714286 0.8714285714285713 0.1285714285714286 0.8714285714285713</probabilities>
		</cpt>
		<cpt id="Zergling">
			<state id="Absent" />
			<state id="Present" />
			<parents>SpawningPool TimePeriod</parents>
			<probabilities>0.9987179487179487 0.001282051282051282 0.9987179487179487 0.001282051282051282 0.9985714285714287 0.001428571428571429 0.9985507246376812 0.001449275362318841 0.995 0.005000000000000001 0.990909090909091 0.009090909090909092 0.9875 0.0125 0.9875 0.0125 0.9666666666666666 0.03333333333333333 0.95 0.05 0.9 0.1 0.9 0.1 0.9 0.1 0.9 0.1 0.9 0.1 0.9 0.1 0.9 0.1 0.9 0.1 0.9 0.1 0.9 0.1 0.9 0.1 0.9 0.1 0.9 0.1 0.9 0.1 0.9 0.1 0.9 0.1 0.9 0.1 0.09999999999999999 0.8999999999999999 0.19 0.8100000000000001 0.8627118644067796 0.1372881355932203 0.8808823529411765 0.1191176470588235 0.6746478873239437 0.3253521126760564 0.3318840579710145 0.6681159420289855 0.08676470588235295 0.913235294117647 0.07313432835820896 0.926865671641791 0.02923076923076923 0.9707692307692308 0.0140625 0.9859375 0.01451612903225807 0.9854838709677419 0.01551724137931035 0.9844827586206897 0.01764705882352941 0.9823529411764707 0.01875 0.98125 0.0225 0.9775 0.028125 0.971875 0.03333333333333333 0.9666666666666667 0.04090909090909091 0.9590909090909092 0.06 0.94 0.06923076923076924 0.9307692307692308 0.09000000000000001 0.91 0.1285714285714286 0.8714285714285713 0.1285714285714286 0.8714285714285713</probabilities>
		</cpt>
		<cpt id="EvolutionChamber">
			<state id="Absent" />
			<state id="Present" />
			<parents>TimePeriod</parents>
			<probabilities>0.9987179487179487 0.001282051282051282 0.9987179487179487 0.001282051282051282 0.9987179487179487 0.001282051282051282 0.9987179487179487 0.001282051282051282 0.9987179487179487 0.001282051282051282 0.9987179487179487 0.001282051282051282 0.9987179487179487 0.001282051282051282 0.9986842105263158 0.001315789473684211 0.9985714285714287 0.001428571428571429 0.998529411764706 0.001470588235294118 0.9984615384615386 0.001538461538461539 0.9984375 0.0015625 0.9983870967741935 0.001612903225806452 0.9982758620689655 0.001724137931034483 0.9980392156862745 0.00196078431372549 0.9979166666666666 0.002083333333333333 0.9975000000000001 0.002500000000000001 0.965625 0.034375 0.9592592592592591 0.04074074074074074 0.95 0.05 0.9266666666666666 0.07333333333333333 0.9153846153846155 0.08461538461538462 0.8900000000000001 0.11 0.8428571428571429 0.1571428571428571 0.8428571428571429 0.1571428571428571</probabilities>
		</cpt>
		<cpt id="CreepColony">
			<state id="Absent" />
			<state id="Present" />
			<parents>TimePeriod</parents>
			<probabilities>0.9987179487179487 0.001282051282051282 0.9987179487179487 0.001282051282051282 0.9987179487179487 0.001282051282051282 0.8448717948717949 0.1551282051282051 0.3705128205128205 0.6294871794871795 0.2551282051282051 0.7448717948717949 0.1525641025641026 0.8474358974358973 0.1171052631578947 0.8828947368421052 0.05571428571428571 0.9442857142857142 0.02794117647058823 0.9720588235294116 0.01384615384615385 0.9861538461538462 0.0140625 0.9859375 0.01451612903225807 0.9854838709677419 0.01551724137931035 0.9844827586206897 0.01764705882352941 0.9823529411764707 0.01875 0.98125 0.0225 0.9775 0.028125 0.971875 0.03333333333333333 0.9666666666666667 0.04090909090909091 0.9590909090909092 0.06 0.94 0.06923076923076924 0.9307692307692308 0.09000000000000001 0.91 0.1285714285714286 0.8714285714285713 0.1285714285714286 0.8714285714285713</probabilities>
		</cpt>
		<cpt id="SporeColony">
			<state id="Absent" />
			<state id="Present" />
			<parents>EvolutionChamber CreepColony TimePeriod</parents>
			<probabilities>0.9987179487179487 0.001282051282051282 0.9987179487179487 0.001282051282051282 0.9987179487179487 0.001282051282051282 0.9984848484848486 0.001515151515151515 0.9965517241379309 0.003448275862068966 0.995 0.005000000000000001 0.9916666666666667 0.008333333333333333 0.9888888888888889 0.01111111111111111 0.975 0.025 0.95 0.05 0.9 0.1 0.9 0.1 0.9 0.1 0.9 0.1 0.9 0.1 0.9 0.1 0.9 0.1 0.9 0.1 0.9 0.1 0.9 0.1 0.9 0.1 0.9 0.1 0.9 0.1 0.9 0.1 0.9 0.1 0.9 0.1 0.9 0.1 0.9 0.1 0.9923076923076923 0.007692307692307693 0.998 0.002 0.9983050847457627 0.001694915254237288 0.9985074626865672 0.001492537313432836 0.998529411764706 0.001470588235294118 0.9985074626865672 0.001492537313432836 0.9985074626865672 0.001492537313432836 0.9984615384615386 0.001538461538461539 0.9984375 0.0015625 0.9983870967741935 0.001612903225806452 0.9982758620689655 0.001724137931034483 0.9980392156862745 0.00196078431372549 0.9979166666666666 0.002083333333333333 0.9975000000000001 0.002500000000000001 0.996774193548387 0.003225806451612903 0.9961538461538462 0.003846153846153846 0.9952380952380951 0.004761904761904762 0.9928571428571429 0.007142857142857143 0.9916666666666667 0.008333333333333333 0.9888888888888889 0.01111111111111111 0.9833333333333334 0.01666666666666667 0.9833333333333334 0.01666666666666667 0.9 0.1 0.9 0.1 0.9 0.1 0.9 0.1 0.9 0.1 0.9 0.1 0.9 0.1 0.9 0.1 0.9 0.1 0.9 0.1 0.9 0.1 0.9 0.1 0.9 0.1 0.9 0.1 0.9 0.1 0.9 0.1 0.9 0.1 0.9 0.1 0.9 0.1 0.9 0.1 0.9 0.1 0.9 0.1 0.9 0.1 0.9 0.1 0.9 0.1 0.9 0.1 0.9 0.1 0.9 0.1 0.9 0.1 0.9 0.1 0.9 0.1 0.9 0.1 0.9 0.1 0.9 0.1 0.9 0.1 0.9 0.1 0.9 0.1 0.9 0.1 0.9 0.1 0.9 0.1 0.9 0.1 0.9 0.1 0.95 0.05 0.95 0.05 0.45 0.55 0.45 0.55 0.45 0.55 0.45 0.55 0.45 0.55 0.45 0.55</probabilities>
		</cpt>
		<cpt id="SunkenColony">
			<state id="Absent" />
			<state id="Present" />
			<parents>CreepColony SpawningPool TimePeriod</parents>
			<probabilities>0.9987179487179487 0.001282051282051282 0.9987179487179487 0.001282051282051282 0.9985714285714287 0.001428571428571429 0.9982758620689655 0.001724137931034483 0.9944444444444444 0.005555555555555556 0.9900000000000001 0.01 0.9875 0.0125 0.9875 0.0125 0.9666666666666666 0.03333333333333333 0.95 0.05 0.9 0.1 0.9 0.1 0.9 0.1 0.9 0.1 0.9 0.1 0.9 0.1 0.9 0.1 0.9 0.1 0.9 0.1 0.9 0.1 0.9 0.1 0.9 0.1 0.9 0.1 0.9 0.1 0.9 0.1 0.9 0.1 0.9 0.1 0.9888888888888889 0.01111111111111111 0.9888888888888889 0.01111111111111111 0.9916666666666667 0.008333333333333333 0.990909090909091 0.009090909090909092 0.9800000000000001 0.02 0.95 0.05 0.95 0.05 0.9 0.1 0.9 0.1 0.9 0.1 0.9 0.1 0.9 0.1 0.9 0.1 0.9 0.1 0.9 0.1 0.9 0.1 0.9 0.1 0.9 0.1 0.9 0.1 0.9 0.1 0.9 0.1 0.9 0.1 0.9 0.1 0.9 0.1 0.9 0.1 0.9 0.1 0.9916666666666667 0.008333333333333333 0.9666666666666666 0.03333333333333333 0.95 0.05 0.9 0.1 0.9 0.1 0.9 0.1 0.9 0.1 0.9 0.1 0.9 0.1 0.9 0.1 0.9 0.1 0.9 0.1 0.9 0.1 0.9 0.1 0.9 0.1 0.9 0.1 0.9 0.1 0.9 0.1 0.9 0.1 0.9 0.1 0.9 0.1 0.9 0.1 0.9 0.1 0.9 0.1 0.9 0.1 0.95 0.05 0.6437499999999999 0.35625 0.153448275862069 0.846551724137931 0.1925373134328358 0.8074626865671641 0.1161764705882353 0.8838235294117647 0.07313432835820896 0.926865671641791 0.04328358208955224 0.9567164179104477 0.02923076923076923 0.9707692307692308 0.0140625 0.9859375 0.01451612903225807 0.9854838709677419 0.01551724137931035 0.9844827586206897 0.01764705882352941 0.9823529411764707 0.01875 0.98125 0.0225 0.9775 0.028125 0.971875 0.03333333333333333 0.9666666666666667 0.04090909090909091 0.9590909090909092 0.06 0.94 0.06923076923076924 0.9307692307692308 0.09000000000000001 0.91 0.1285714285714286 0.8714285714285713 0.1285714285714286 0.8714285714285713</probabilities>
		</cpt>
		<cpt id="Extractor">
			<state id="Absent" />
			<state id="Present" />
			<parents>TimePeriod</parents>
			<probabilities>0.9987179487179487 0.001282051282051282 0.9987179487179487 0.001282051282051282 0.9987179487179487 0.001282051282051282 0.8320512820512821 0.1679487179487179 0.332051282051282 0.6679487179487179 0.2423076923076923 0.7576923076923077 0.1782051282051282 0.8217948717948717 0.1039473684210526 0.8960526315789472 0.04142857142857143 0.9585714285714284 0.02794117647058823 0.9720588235294116 0.01384615384615385 0.9861538461538462 0.0140625 0.9859375 0.01451612903225807 0.9854838709677419 0.01551724137931035 0.9844827586206897 0.01764705882352941 0.9823529411764707 0.01875 0.98125 0.0225 0.9775 0.028125 0.971875 0.03333333333333333 0.9666666666666667 0.04090909090909091 0.9590909090909092 0.06 0.94 0.06923076923076924 0.9307692307692308 0.09000000000000001 0.91 0.1285714285714286 0.8714285714285713 0.1285714285714286 0.8714285714285713</probabilities>
		</cpt>
		<cpt id="HydraliskDen">
			<state id="Absent" />
			<state id="Present" />
			<parents>Extractor SpawningPool TimePeriod</parents>
			<probabilities>0.9987179487179487 0.001282051282051282 0.9987179487179487 0.001282051282051282 0.9985714285714287 0.001428571428571429 0.9982142857142856 0.001785714285714286 0.99375 0.00625 0.9900000000000001 0.01 0.9875 0.0125 0.9875 0.0125 0.9666666666666666 0.03333333333333333 0.95 0.05 0.9 0.1 0.9 0.1 0.9 0.1 0.9 0.1 0.9 0.1 0.9 0.1 0.9 0.1 0.9 0.1 0.9 0.1 0.9 0.1 0.9 0.1 0.9 0.1 0.9 0.1 0.9 0.1 0.9 0.1 0.9 0.1 0.9 0.1 0.9888888888888889 0.01111111111111111 0.9900000000000001 0.01 0.990909090909091 0.009090909090909092 0.9900000000000001 0.01 0.9857142857142858 0.01428571428571429 0.9 0.1 0.9 0.1 0.9 0.1 0.9 0.1 0.9 0.1 0.9 0.1 0.9 0.1 0.9 0.1 0.9 0.1 0.9 0.1 0.9 0.1 0.9 0.1 0.9 0.1 0.9 0.1 0.9 0.1 0.9 0.1 0.9 0.1 0.9 0.1 0.9 0.1 0.9 0.1 0.9 0.1 0.9928571428571429 0.007142857142857143 0.9800000000000001 0.02 0.95 0.05 0.9 0.1 0.9 0.1 0.9 0.1 0.9 0.1 0.9 0.1 0.9 0.1 0.9 0.1 0.9 0.1 0.9 0.1 0.9 0.1 0.9 0.1 0.9 0.1 0.9 0.1 0.9 0.1 0.9 0.1 0.9 0.1 0.9 0.1 0.9 0.1 0.9 0.1 0.9 0.1 0.9 0.1 0.9 0.1 0.9 0.1 0.9979591836734693 0.002040816326530612 0.9983050847457627 0.001694915254237288 0.8138461538461539 0.1861538461538462 0.4043478260869565 0.5956521739130435 0.1897058823529412 0.8102941176470588 0.1029850746268657 0.8970149253731343 0.06000000000000001 0.9400000000000001 0.0140625 0.9859375 0.01451612903225807 0.9854838709677419 0.01551724137931035 0.9844827586206897 0.01764705882352941 0.9823529411764707 0.01875 0.98125 0.0225 0.9775 0.028125 0.971875 0.03333333333333333 0.9666666666666667 0.04090909090909091 0.9590909090909092 0.06 0.94 0.06923076923076924 0.9307692307692308 0.09000000000000001 0.91 0.1285714285714286 0.8714285714285713 0.1285714285714286 0.8714285714285713</probabilities>
		</cpt>
		<cpt id="Lair">
			<state id="Absent" />
			<state id="Present" />
			<parents>Extractor SpawningPool TimePeriod</parents>
			<probabilities>0.9987179487179487 0.001282051282051282 0.9987179487179487 0.001282051282051282 0.9985714285714287 0.001428571428571429 0.9982142857142856 0.001785714285714286 0.99375 0.00625 0.9900000000000001 0.01 0.9875 0.0125 0.9875 0.0125 0.9666666666666666 0.03333333333333333 0.95 0.05 0.9 0.1 0.9 0.1 0.9 0.1 0.9 0.1 0.9 0.1 0.9 0.1 0.9 0.1 0.9 0.1 0.9 0.1 0.9 0.1 0.9 0.1 0.9 0.1 0.9 0.1 0.9 0.1 0.9 0.1 0.9 0.1 0.9 0.1 0.9888888888888889 0.01111111111111111 0.9900000000000001 0.01 0.990909090909091 0.009090909090909092 0.9900000000000001 0.01 0.9857142857142858 0.01428571428571429 0.9 0.1 0.9 0.1 0.9 0.1 0.9 0.1 0.9 0.1 0.9 0.1 0.9 0.1 0.9 0.1 0.9 0.1 0.9 0.1 0.9 0.1 0.9 0.1 0.9 0.1 0.9 0.1 0.9 0.1 0.9 0.1 0.9 0.1 0.9 0.1 0.9 0.1 0.9 0.1 0.9 0.1 0.9928571428571429 0.007142857142857143 0.9800000000000001 0.02 0.95 0.05 0.9 0.1 0.9 0.1 0.9 0.1 0.9 0.1 0.9 0.1 0.9 0.1 0.9 0.1 0.9 0.1 0.9 0.1 0.9 0.1 0.9 0.1 0.9 0.1 0.9 0.1 0.9 0.1 0.9 0.1 0.9 0.1 0.9 0.1 0.9 0.1 0.9 0.1 0.9 0.1 0.9 0.1 0.9 0.1 0.9 0.1 0.9979591836734693 0.002040816326530612 0.9983050847457627 0.001694915254237288 0.9984615384615386 0.001538461538461539 0.5927536231884057 0.4072463768115942 0.3367647058823529 0.663235294117647 0.1328358208955224 0.8671641791044776 0.0753846153846154 0.9246153846153847 0.0140625 0.9859375 0.01451612903225807 0.9854838709677419 0.01551724137931035 0.9844827586206897 0.01764705882352941 0.9823529411764707 0.01875 0.98125 0.0225 0.9775 0.028125 0.971875 0.03333333333333333 0.9666666666666667 0.04090909090909091 0.9590909090909092 0.06 0.94 0.06923076923076924 0.9307692307692308 0.09000000000000001 0.91 0.1285714285714286 0.8714285714285713 0.1285714285714286 0.8714285714285713</probabilities>
		</cpt>
		<cpt id="QueensNest">
			<state id="Absent" />
			<state id="Present" />
			<parents>Lair TimePeriod</parents>
			<probabilities>0.9987179487179487 0.001282051282051282 0.9987179487179487 0.001282051282051282 0.9987179487179487 0.001282051282051282 0.9987179487179487 0.001282051282051282 0.9987179487179487 0.001282051282051282 0.9987179487179487 0.001282051282051282 0.9987179487179487 0.001282051282051282 0.9979166666666666 0.002083333333333333 0.996 0.004 0.9900000000000001 0.01 0.9800000000000001 0.02 0.9 0.1 0.9 0.1 0.9 0.1 0.9 0.1 0.9 0.1 0.9 0.1 0.9 0.1 0.9 0.1 0.9 0.1 0.9 0.1 0.9 0.1 0.9 0.1 0.9 0.1 0.9 0.1 0.9 0.1 0.9 0.1 0.9 0.1 0.9 0.1 0.9 0.1 0.9 0.1 0.9 0.1 0.9965517241379309 0.003448275862068966 0.9978260869565216 0.002173913043478261 0.9983050847457627 0.001694915254237288 0.9983606557377049 0.001639344262295082 0.9984375 0.0015625 0.9983870967741935 0.001612903225806452 0.9982758620689655 0.001724137931034483 0.9980392156862745 0.00196078431372549 0.9979166666666666 0.002083333333333333 0.9975000000000001 0.002500000000000001 0.965625 0.034375 0.9592592592592591 0.04074074074074074 0.95 0.05 0.9266666666666666 0.07333333333333333 0.9153846153846155 0.08461538461538462 0.8900000000000001 0.11 0.8428571428571429 0.1571428571428571 0.8428571428571429 0.1571428571428571</probabilities>
		</cpt>
		<cpt id="Hive">
			<state id="Absent" />
			<state id="Present" />
			<parents>QueensNest TimePeriod</parents>
			<probabilities>0.9987179487179487 0.001282051282051282 0.9987179487179487 0.001282051282051282 0.9987179487179487 0.001282051282051282 0.9987179487179487 0.001282051282051282 0.9987179487179487 0.001282051282051282 0.9987179487179487 0.001282051282051282 0.9987179487179487 0.001282051282051282 0.9986842105263158 0.001315789473684211 0.9985714285714287 0.001428571428571429 0.998529411764706 0.001470588235294118 0.9984615384615386 0.001538461538461539 0.9984375 0.0015625 0.9983870967741935 0.001612903225806452 0.9982758620689655 0.001724137931034483 0.9980392156862745 0.00196078431372549 0.9979166666666666 0.002083333333333333 0.9975000000000001 0.002500000000000001 0.996774193548387 0.003225806451612903 0.9961538461538462 0.003846153846153846 0.9952380952380951 0.004761904761904762 0.9928571428571429 0.007142857142857143 0.9916666666666667 0.008333333333333333 0.9888888888888889 0.01111111111111111 0.9833333333333334 0.01666666666666667 0.9833333333333334 0.01666666666666667 0.9 0.1 0.9 0.1 0.9 0.1 0.9 0.1 0.9 0.1 0.9 0.1 0.9 0.1 0.9 0.1 0.9 0.1 0.9 0.1 0.9 0.1 0.9 0.1 0.9 0.1 0.9 0.1 0.9 0.1 0.9 0.1 0.9 0.1 0.95 0.05 0.95 0.05 0.95 0.05 0.95 0.05 0.95 0.05 0.95 0.05 0.95 0.05 0.95 0.05</probabilities>
		</cpt>
		<cpt id="DefilerMound">
			<state id="Absent" />
			<state id="Present" />
			<parents>Hive TimePeriod</parents>
			<probabilities>0.9987179487179487 0.001282051282051282 0.9987179487179487 0.001282051282051282 0.9987179487179487 0.001282051282051282 0.9987179487179487 0.001282051282051282 0.9987179487179487 0.001282051282051282 0.9987179487179487 0.001282051282051282 0.9987179487179487 0.001282051282051282 0.9986842105263158 0.001315789473684211 0.9985714285714287 0.001428571428571429 0.998529411764706 0.001470588235294118 0.9984615384615386 0.001538461538461539 0.9984375 0.0015625 0.9983870967741935 0.001612903225806452 0.9982758620689655 0.001724137931034483 0.9980392156862745 0.00196078431372549 0.9979166666666666 0.002083333333333333 0.9975000000000001 0.002500000000000001 0.996875 0.003125 0.9962962962962962 0.003703703703703704 0.9954545454545454 0.004545454545454546 0.9933333333333333 0.006666666666666667 0.9923076923076923 0.007692307692307693 0.9900000000000001 0.01 0.9857142857142858 0.01428571428571429 0.9857142857142858 0.01428571428571429 0.9 0.1 0.9 0.1 0.9 0.1 0.9 0.1 0.9 0.1 0.9 0.1 0.9 0.1 0.9 0.1 0.9 0.1 0.9 0.1 0.9 0.1 0.9 0.1 0.9 0.1 0.9 0.1 0.9 0.1 0.9 0.1 0.9 0.1 0.9 0.1 0.9 0.1 0.9 0.1 0.9 0.1 0.9 0.1 0.9 0.1 0.9 0.1 0.9 0.1</probabilities>
		</cpt>
		<cpt id="NydusCanal">
			<state id="Absent" />
			<state id="Present" />
			<parents>Hive TimePeriod</parents>
			<probabilities>0.9987179487179487 0.001282051282051282 0.9987179487179487 0.001282051282051282 0.9987179487179487 0.001282051282051282 0.9987179487179487 0.001282051282051282 0.9987179487179487 0.001282051282051282 0.9987179487179487 0.001282051282051282 0.9987179487179487 0.001282051282051282 0.9986842105263158 0.001315789473684211 0.9985714285714287 0.001428571428571429 0.998529411764706 0.001470588235294118 0.9984615384615386 0.001538461538461539 0.9984375 0.0015625 0.9983870967741935 0.001612903225806452 0.9982758620689655 0.001724137931034483 0.9980392156862745 0.00196078431372549 0.9979166666666666 0.002083333333333333 0.9975000000000001 0.002500000000000001 0.996875 0.003125 0.9962962962962962 0.003703703703703704 0.9954545454545454 0.004545454545454546 0.9933333333333333 0.006666666666666667 0.9923076923076923 0.007692307692307693 0.9900000000000001 0.01 0.9857142857142858 0.01428571428571429 0.9857142857142858 0.01428571428571429 0.9 0.1 0.9 0.1 0.9 0.1 0.9 0.1 0.9 0.1 0.9 0.1 0.9 0.1 0.9 0.1 0.9 0.1 0.9 0.1 0.9 0.1 0.9 0.1 0.9 0.1 0.9 0.1 0.9 0.1 0.9 0.1 0.9 0.1 0.9 0.1 0.9 0.1 0.9 0.1 0.9 0.1 0.9 0.1 0.9 0.1 0.9 0.1 0.9 0.1</probabilities>
		</cpt>
		<cpt id="UltraliskCavern">
			<state id="Absent" />
			<state id="Present" />
			<parents>Hive TimePeriod</parents>
			<probabilities>0.9987179487179487 0.001282051282051282 0.9987179487179487 0.001282051282051282 0.9987179487179487 0.001282051282051282 0.9987179487179487 0.001282051282051282 0.9987179487179487 0.001282051282051282 0.9987179487179487 0.001282051282051282 0.9987179487179487 0.001282051282051282 0.9986842105263158 0.001315789473684211 0.9985714285714287 0.001428571428571429 0.998529411764706 0.001470588235294118 0.9984615384615386 0.001538461538461539 0.9984375 0.0015625 0.9983870967741935 0.001612903225806452 0.9982758620689655 0.001724137931034483 0.9980392156862745 0.00196078431372549 0.9979166666666666 0.002083333333333333 0.9975000000000001 0.002500000000000001 0.996875 0.003125 0.9962962962962962 0.003703703703703704 0.9954545454545454 0.004545454545454546 0.9933333333333333 0.006666666666666667 0.9923076923076923 0.007692307692307693 0.9900000000000001 0.01 0.9857142857142858 0.01428571428571429 0.9857142857142858 0.01428571428571429 0.9 0.1 0.9 0.1 0.9 0.1 0.9 0.1 0.9 0.1 0.9 0.1 0.9 0.1 0.9 0.1 0.9 0.1 0.9 0.1 0.9 0.1 0.9 0.1 0.9 0.1 0.9 0.1 0.9 0.1 0.9 0.1 0.9 0.1 0.9 0.1 0.9 0.1 0.9 0.1 0.9 0.1 0.9 0.1 0.9 0.1 0.9 0.1 0.9 0.1</probabilities>
		</cpt>
		<cpt id="Spire">
			<state id="Absent" />
			<state id="Present" />
			<parents>Lair TimePeriod</parents>
			<probabilities>0.9987179487179487 0.001282051282051282 0.9987179487179487 0.001282051282051282 0.9987179487179487 0.001282051282051282 0.9987179487179487 0.001282051282051282 0.9987179487179487 0.001282051282051282 0.9987179487179487 0.001282051282051282 0.9987179487179487 0.001282051282051282 0.9979166666666666 0.002083333333333333 0.996 0.004 0.9900000000000001 0.01 0.9800000000000001 0.02 0.9 0.1 0.9 0.1 0.9 0.1 0.9 0.1 0.9 0.1 0.9 0.1 0.9 0.1 0.9 0.1 0.9 0.1 0.9 0.1 0.9 0.1 0.9 0.1 0.9 0.1 0.9 0.1 0.9 0.1 0.9 0.1 0.9 0.1 0.9 0.1 0.9 0.1 0.9 0.1 0.9 0.1 0.9965517241379309 0.003448275862068966 0.9978260869565216 0.002173913043478261 0.9983050847457627 0.001694915254237288 0.9983606557377049 0.001639344262295082 0.9984375 0.0015625 0.9983870967741935 0.001612903225806452 0.9982758620689655 0.001724137931034483 0.9980392156862745 0.00196078431372549 0.9979166666666666 0.002083333333333333 0.9975000000000001 0.002500000000000001 0.996875 0.003125 0.9962962962962962 0.003703703703703704 0.9954545454545454 0.004545454545454546 0.9933333333333333 0.006666666666666667 0.9153846153846155 0.08461538461538462 0.8900000000000001 0.11 0.8428571428571429 0.1571428571428571 0.8428571428571429 0.1571428571428571</probabilities>
		</cpt>
		<cpt id="GreaterSpire">
			<state id="Absent" />
			<state id="Present" />
			<parents>Spire Hive TimePeriod</parents>
			<probabilities>0.9987179487179487 0.001282051282051282 0.9987179487179487 0.001282051282051282 0.9987179487179487 0.001282051282051282 0.9987179487179487 0.001282051282051282 0.9987179487179487 0.001282051282051282 0.9987179487179487 0.001282051282051282 0.9987179487179487 0.001282051282051282 0.9986842105263158 0.001315789473684211 0.9985714285714287 0.001428571428571429 0.998529411764706 0.001470588235294118 0.9984615384615386 0.001538461538461539 0.9984375 0.0015625 0.9983870967741935 0.001612903225806452 0.9982758620689655 0.001724137931034483 0.9980392156862745 0.00196078431372549 0.9979166666666666 0.002083333333333333 0.9975000000000001 0.002500000000000001 0.996875 0.003125 0.9962962962962962 0.003703703703703704 0.9954545454545454 0.004545454545454546 0.9933333333333333 0.006666666666666667 0.9916666666666667 0.008333333333333333 0.9888888888888889 0.01111111111111111 0.9833333333333334 0.01666666666666667 0.9833333333333334 0.01666666666666667 0.9 0.1 0.9 0.1 0.9 0.1 0.9 0.1 0.9 0.1 0.9 0.1 0.9 0.1 0.9 0.1 0.9 0.1 0.9 0.1 0.9 0.1 0.9 0.1 0.9 0.1 0.9 0.1 0.9 0.1 0.9 0.1 0.9 0.1 0.9 0.1 0.9 0.1 0.9 0.1 0.9 0.1 0.9 0.1 0.9 0.1 0.9 0.1 0.9 0.1 0.9 0.1 0.9 0.1 0.9 0.1 0.9 0.1 0.9 0.1 0.9 0.1 0.9 0.1 0.9 0.1 0.9 0.1 0.9 0.1 0.9 0.1 0.9 0.1 0.9 0.1 0.9 0.1 0.9 0.1 0.9 0.1 0.9 0.1 0.9 0.1 0.9 0.1 0.9 0.1 0.9 0.1 0.95 0.05 0.95 0.05 0.95 0.05 0.95 0.05 0.9 0.1 0.9 0.1 0.9 0.1 0.9 0.1 0.9 0.1 0.9 0.1 0.9 0.1 0.9 0.1 0.9 0.1 0.9 0.1 0.9 0.1 0.9 0.1 0.9 0.1 0.9 0.1 0.9 0.1 0.9 0.1 0.9 0.1 0.9 0.1 0.9 0.1 0.9 0.1 0.9 0.1 0.9 0.1 0.9 0.1 0.9 0.1 0.9 0.1</probabilities>
		</cpt>
		<cpt id="Hydralisk">
			<state id="Absent" />
			<state id="Present" />
			<parents>HydraliskDen TimePeriod</parents>
			<probabilities>0.9987179487179487 0.001282051282051282 0.9987179487179487 0.001282051282051282 0.9987179487179487 0.001282051282051282 0.9987179487179487 0.001282051282051282 0.9987179487179487 0.001282051282051282 0.9987179487179487 0.001282051282051282 0.9984848484848486 0.001515151515151515 0.9971428571428571 0.002857142857142857 0.9933333333333333 0.006666666666666667 0.9875 0.0125 0.975 0.025 0.9 0.1 0.9 0.1 0.9 0.1 0.9 0.1 0.9 0.1 0.9 0.1 0.9 0.1 0.9 0.1 0.9 0.1 0.9 0.1 0.9 0.1 0.9 0.1 0.9 0.1 0.9 0.1 0.9 0.1 0.9 0.1 0.9 0.1 0.9 0.1 0.9 0.1 0.9 0.1 0.9923076923076923 0.007692307692307693 0.4261904761904761 0.5738095238095238 0.2839285714285714 0.7160714285714286 0.1622950819672131 0.8377049180327869 0.09516129032258065 0.9048387096774193 0.07656250000000001 0.9234375 0.04677419354838709 0.9532258064516129 0.03275862068965517 0.9672413793103448 0.03725490196078431 0.9627450980392157 0.03958333333333333 0.9604166666666667 0.0475 0.9525000000000001 0.059375 0.940625 0.07037037037037036 0.9296296296296296 0.08636363636363637 0.9136363636363637 0.06 0.94 0.06923076923076924 0.9307692307692308 0.09000000000000001 0.91 0.1285714285714286 0.8714285714285713 0.1285714285714286 0.8714285714285713</probabilities>
		</cpt>
		<cpt id="Lurker">
			<state id="Absent" />
			<state id="Present" />
			<parents>Lair Hydralisk TimePeriod</parents>
			<probabilities>0.9987179487179487 0.001282051282051282 0.9987179487179487 0.001282051282051282 0.9987179487179487 0.001282051282051282 0.9987179487179487 0.001282051282051282 0.9987179487179487 0.001282051282051282 0.9987179487179487 0.001282051282051282 0.9987179487179487 0.001282051282051282 0.9979166666666666 0.002083333333333333 0.996 0.004 0.9900000000000001 0.01 0.975 0.025 0.9 0.1 0.9 0.1 0.9 0.1 0.9 0.1 0.9 0.1 0.9 0.1 0.9 0.1 0.9 0.1 0.9 0.1 0.9 0.1 0.9 0.1 0.9 0.1 0.9 0.1 0.9 0.1 0.9 0.1 0.9 0.1 0.9 0.1 0.9 0.1 0.9 0.1 0.9 0.1 0.9 0.1 0.9 0.1 0.9 0.1 0.9 0.1 0.95 0.05 0.9 0.1 0.9 0.1 0.9 0.1 0.9 0.1 0.9 0.1 0.9 0.1 0.9 0.1 0.9 0.1 0.9 0.1 0.9 0.1 0.9 0.1 0.9 0.1 0.9 0.1 0.9 0.1 0.9 0.1 0.9 0.1 0.9 0.1 0.9 0.1 0.9 0.1 0.9 0.1 0.9 0.1 0.9800000000000001 0.02 0.9833333333333334 0.01666666666666667 0.9875 0.0125 0.9833333333333334 0.01666666666666667 0.9800000000000001 0.02 0.9666666666666666 0.03333333333333333 0.95 0.05 0.95 0.05 0.95 0.05 0.95 0.05 0.95 0.05 0.95 0.05 0.95 0.05 0.9 0.1 0.9 0.1 0.9 0.1 0.9 0.1 0.9 0.1 0.9 0.1 0.9 0.1 0.9 0.1 0.9 0.1 0.9 0.1 0.9 0.1 0.9 0.1 0.996 0.004 0.9975609756097561 0.002439024390243903 0.9980769230769231 0.001923076923076923 0.9803571428571428 0.01964285714285714 0.815 0.185 0.7816666666666666 0.2183333333333333 0.7 0.3 0.638 0.362 0.5723404255319149 0.4276595744680851 0.4846153846153846 0.5153846153846154 0.3838709677419355 0.6161290322580646 0.3038461538461539 0.6961538461538462 0.2333333333333333 0.7666666666666667 0.26 0.74 0.3 0.7000000000000001 0.19 0.8100000000000001 0.1285714285714286 0.8714285714285713 0.1285714285714286 0.8714285714285713</probabilities>
		</cpt>
		<cpt id="Queen">
			<state id="Absent" />
			<state id="Present" />
			<parents>QueensNest TimePeriod</parents>
			<probabilities>0.9987179487179487 0.001282051282051282 0.9987179487179487 0.001282051282051282 0.9987179487179487 0.001282051282051282 0.9987179487179487 0.001282051282051282 0.9987179487179487 0.001282051282051282 0.9987179487179487 0.001282051282051282 0.9987179487179487 0.001282051282051282 0.9986842105263158 0.001315789473684211 0.9985714285714287 0.001428571428571429 0.998529411764706 0.001470588235294118 0.9984615384615386 0.001538461538461539 0.9984375 0.0015625 0.9983870967741935 0.001612903225806452 0.9982758620689655 0.001724137931034483 0.9980392156862745 0.00196078431372549 0.9979166666666666 0.002083333333333333 0.9975000000000001 0.002500000000000001 0.996774193548387 0.003225806451612903 0.9961538461538462 0.003846153846153846 0.9952380952380951 0.004761904761904762 0.9928571428571429 0.007142857142857143 0.9916666666666667 0.008333333333333333 0.9888888888888889 0.01111111111111111 0.9833333333333334 0.01666666666666667 0.9833333333333334 0.01666666666666667 0.9 0.1 0.9 0.1 0.9 0.1 0.9 0.1 0.9 0.1 0.9 0.1 0.9 0.1 0.9 0.1 0.9 0.1 0.9 0.1 0.9 0.1 0.9 0.1 0.9 0.1 0.9 0.1 0.9 0.1 0.9 0.1 0.9 0.1 0.95 0.05 0.95 0.05 0.95 0.05 0.95 0.05 0.45 0.55 0.45 0.55 0.45 0.55 0.45 0.55</probabilities>
		</cpt>
		<cpt id="Defiler">
			<state id="Absent" />
			<state id="Present" />
			<parents>DefilerMound TimePeriod</parents>
			<probabilities>0.9987179487179487 0.001282051282051282 0.9987179487179487 0.001282051282051282 0.9987179487179487 0.001282051282051282 0.9987179487179487 0.001282051282051282 0.9987179487179487 0.001282051282051282 0.9987179487179487 0.001282051282051282 0.9987179487179487 0.001282051282051282 0.9986842105263158 0.001315789473684211 0.9985714285714287 0.001428571428571429 0.998529411764706 0.001470588235294118 0.9984615384615386 0.001538461538461539 0.9984375 0.0015625 0.9983870967741935 0.001612903225806452 0.9982758620689655 0.001724137931034483 0.9980392156862745 0.00196078431372549 0.9979166666666666 0.002083333333333333 0.9975000000000001 0.002500000000000001 0.996875 0.003125 0.9962962962962962 0.003703703703703704 0.9954545454545454 0.004545454545454546 0.9933333333333333 0.006666666666666667 0.9923076923076923 0.007692307692307693 0.9900000000000001 0.01 0.9857142857142858 0.01428571428571429 0.9857142857142858 0.01428571428571429 0.9 0.1 0.9 0.1 0.9 0.1 0.9 0.1 0.9 0.1 0.9 0.1 0.9 0.1 0.9 0.1 0.9 0.1 0.9 0.1 0.9 0.1 0.9 0.1 0.9 0.1 0.9 0.1 0.9 0.1 0.9 0.1 0.9 0.1 0.9 0.1 0.9 0.1 0.9 0.1 0.9 0.1 0.9 0.1 0.9 0.1 0.9 0.1 0.9 0.1</probabilities>
		</cpt>
		<cpt id="Mutalisk">
			<state id="Absent" />
			<state id="Present" />
			<parents>Spire TimePeriod</parents>
			<probabilities>0.9987179487179487 0.001282051282051282 0.9987179487179487 0.001282051282051282 0.9987179487179487 0.001282051282051282 0.9987179487179487 0.001282051282051282 0.9987179487179487 0.001282051282051282 0.9987179487179487 0.001282051282051282 0.9987179487179487 0.001282051282051282 0.9986842105263158 0.001315789473684211 0.9985714285714287 0.001428571428571429 0.998529411764706 0.001470588235294118 0.9984615384615386 0.001538461538461539 0.9984375 0.0015625 0.9983870967741935 0.001612903225806452 0.9982758620689655 0.001724137931034483 0.9980392156862745 0.00196078431372549 0.9979166666666666 0.002083333333333333 0.9975000000000001 0.002500000000000001 0.996875 0.003125 0.9962962962962962 0.003703703703703704 0.9954545454545454 0.004545454545454546 0.9933333333333333 0.006666666666666667 0.9916666666666667 0.008333333333333333 0.9888888888888889 0.01111111111111111 0.9833333333333334 0.01666666666666667 0.9833333333333334 0.01666666666666667 0.9 0.1 0.9 0.1 0.9 0.1 0.9 0.1 0.9 0.1 0.9 0.1 0.9 0.1 0.9 0.1 0.9 0.1 0.9 0.1 0.9 0.1 0.9 0.1 0.9 0.1 0.9 0.1 0.9 0.1 0.9 0.1 0.9 0.1 0.9 0.1 0.9 0.1 0.9 0.1 0.9 0.1 0.95 0.05 0.95 0.05 0.95 0.05 0.45 0.55</probabilities>
		</cpt>
		<cpt id="Scourge">
			<state id="Absent" />
			<state id="Present" />
			<parents>Spire TimePeriod</parents>
			<probabilities>0.9987179487179487 0.001282051282051282 0.9987179487179487 0.001282051282051282 0.9987179487179487 0.001282051282051282 0.9987179487179487 0.001282051282051282 0.9987179487179487 0.001282051282051282 0.9987179487179487 0.001282051282051282 0.9987179487179487 0.001282051282051282 0.9986842105263158 0.001315789473684211 0.9985714285714287 0.001428571428571429 0.998529411764706 0.001470588235294118 0.9984615384615386 0.001538461538461539 0.9984375 0.0015625 0.9983870967741935 0.001612903225806452 0.9982758620689655 0.001724137931034483 0.9980392156862745 0.00196078431372549 0.9979166666666666 0.002083333333333333 0.9975000000000001 0.002500000000000001 0.996875 0.003125 0.9962962962962962 0.003703703703703704 0.9954545454545454 0.004545454545454546 0.9933333333333333 0.006666666666666667 0.9916666666666667 0.008333333333333333 0.9888888888888889 0.01111111111111111 0.9833333333333334 0.01666666666666667 0.9833333333333334 0.01666666666666667 0.9 0.1 0.9 0.1 0.9 0.1 0.9 0.1 0.9 0.1 0.9 0.1 0.9 0.1 0.9 0.1 0.9 0.1 0.9 0.1 0.9 0.1 0.9 0.1 0.9 0.1 0.9 0.1 0.9 0.1 0.9 0.1 0.9 0.1 0.9 0.1 0.9 0.1 0.9 0.1 0.9 0.1 0.95 0.05 0.95 0.05 0.95 0.05 0.95 0.05</probabilities>
		</cpt>
		<cpt id="Guardian">
			<state id="Absent" />
			<state id="Present" />
			<parents>Mutalisk GreaterSpire TimePeriod</parents>
			<probabilities>0.9987179487179487 0.001282051282051282 0.9987179487179487 0.001282051282051282 0.9987179487179487 0.001282051282051282 0.9987179487179487 0.001282051282051282 0.9987179487179487 0.001282051282051282 0.9987179487179487 0.001282051282051282 0.9987179487179487 0.001282051282051282 0.9986842105263158 0.001315789473684211 0.9985714285714287 0.001428571428571429 0.998529411764706 0.001470588235294118 0.9984615384615386 0.001538461538461539 0.9984375 0.0015625 0.9983870967741935 0.001612903225806452 0.9982758620689655 0.001724137931034483 0.9980392156862745 0.00196078431372549 0.9979166666666666 0.002083333333333333 0.9975000000000001 0.002500000000000001 0.996875 0.003125 0.9962962962962962 0.003703703703703704 0.9954545454545454 0.004545454545454546 0.9933333333333333 0.006666666666666667 0.9923076923076923 0.007692307692307693 0.9900000000000001 0.01 0.9857142857142858 0.01428571428571429 0.9833333333333334 0.01666666666666667 0.9 0.1 0.9 0.1 0.9 0.1 0.9 0.1 0.9 0.1 0.9 0.1 0.9 0.1 0.9 0.1 0.9 0.1 0.9 0.1 0.9 0.1 0.9 0.1 0.9 0.1 0.9 0.1 0.9 0.1 0.9 0.1 0.9 0.1 0.9 0.1 0.9 0.1 0.9 0.1 0.9 0.1 0.9 0.1 0.9 0.1 0.9 0.1 0.9 0.1 0.9 0.1 0.9 0.1 0.9 0.1 0.9 0.1 0.9 0.1 0.9 0.1 0.9 0.1 0.9 0.1 0.9 0.1 0.9 0.1 0.9 0.1 0.9 0.1 0.9 0.1 0.9 0.1 0.9 0.1 0.9 0.1 0.9 0.1 0.9 0.1 0.9 0.1 0.9 0.1 0.9 0.1 0.9 0.1 0.9 0.1 0.9 0.1 0.95 0.05 0.9 0.1 0.9 0.1 0.9 0.1 0.9 0.1 0.9 0.1 0.9 0.1 0.9 0.1 0.9 0.1 0.9 0.1 0.9 0.1 0.9 0.1 0.9 0.1 0.9 0.1 0.9 0.1 0.9 0.1 0.9 0.1 0.9 0.1 0.9 0.1 0.9 0.1 0.9 0.1 0.9 0.1 0.9 0.1 0.9 0.1 0.9 0.1 0.9 0.1</probabilities>
		</cpt>
		<cpt id="Devourer">
			<state id="Absent" />
			<state id="Present" />
			<parents>Mutalisk GreaterSpire TimePeriod</parents>
			<probabilities>0.9987179487179487 0.001282051282051282 0.9987179487179487 0.001282051282051282 0.9987179487179487 0.001282051282051282 0.9987179487179487 0.001282051282051282 0.9987179487179487 0.001282051282051282 0.9987179487179487 0.001282051282051282 0.9987179487179487 0.001282051282051282 0.9986842105263158 0.001315789473684211 0.9985714285714287 0.001428571428571429 0.998529411764706 0.001470588235294118 0.9984615384615386 0.001538461538461539 0.9984375 0.0015625 0.9983870967741935 0.001612903225806452 0.9982758620689655 0.001724137931034483 0.9980392156862745 0.00196078431372549 0.9979166666666666 0.002083333333333333 0.9975000000000001 0.002500000000000001 0.996875 0.003125 0.9962962962962962 0.003703703703703704 0.9954545454545454 0.004545454545454546 0.9933333333333333 0.006666666666666667 0.9923076923076923 0.007692307692307693 0.9900000000000001 0.01 0.9857142857142858 0.01428571428571429 0.9833333333333334 0.01666666666666667 0.9 0.1 0.9 0.1 0.9 0.1 0.9 0.1 0.9 0.1 0.9 0.1 0.9 0.1 0.9 0.1 0.9 0.1 0.9 0.1 0.9 0.1 0.9 0.1 0.9 0.1 0.9 0.1 0.9 0.1 0.9 0.1 0.9 0.1 0.9 0.1 0.9 0.1 0.9 0.1 0.9 0.1 0.9 0.1 0.9 0.1 0.9 0.1 0.9 0.1 0.9 0.1 0.9 0.1 0.9 0.1 0.9 0.1 0.9 0.1 0.9 0.1 0.9 0.1 0.9 0.1 0.9 0.1 0.9 0.1 0.9 0.1 0.9 0.1 0.9 0.1 0.9 0.1 0.9 0.1 0.9 0.1 0.9 0.1 0.9 0.1 0.9 0.1 0.9 0.1 0.9 0.1 0.9 0.1 0.9 0.1 0.9 0.1 0.95 0.05 0.9 0.1 0.9 0.1 0.9 0.1 0.9 0.1 0.9 0.1 0.9 0.1 0.9 0.1 0.9 0.1 0.9 0.1 0.9 0.1 0.9 0.1 0.9 0.1 0.9 0.1 0.9 0.1 0.9 0.1 0.9 0.1 0.9 0.1 0.9 0.1 0.9 0.1 0.9 0.1 0.9 0.1 0.9 0.1 0.9 0.1 0.9 0.1 0.9 0.1</probabilities>
		</cpt>
		<cpt id="Ultralisk">
			<state id="Absent" />
			<state id="Present" />
			<parents>UltraliskCavern TimePeriod</parents>
			<probabilities>0.9987179487179487 0.001282051282051282 0.9987179487179487 0.001282051282051282 0.9987179487179487 0.001282051282051282 0.9987179487179487 0.001282051282051282 0.9987179487179487 0.001282051282051282 0.9987179487179487 0.001282051282051282 0.9987179487179487 0.001282051282051282 0.9986842105263158 0.001315789473684211 0.9985714285714287 0.001428571428571429 0.998529411764706 0.001470588235294118 0.9984615384615386 0.001538461538461539 0.9984375 0.0015625 0.9983870967741935 0.001612903225806452 0.9982758620689655 0.001724137931034483 0.9980392156862745 0.00196078431372549 0.9979166666666666 0.002083333333333333 0.9975000000000001 0.002500000000000001 0.996875 0.003125 0.9962962962962962 0.003703703703703704 0.9954545454545454 0.004545454545454546 0.9933333333333333 0.006666666666666667 0.9923076923076923 0.007692307692307693 0.9900000000000001 0.01 0.9857142857142858 0.01428571428571429 0.9857142857142858 0.01428571428571429 0.9 0.1 0.9 0.1 0.9 0.1 0.9 0.1 0.9 0.1 0.9 0.1 0.9 0.1 0.9 0.1 0.9 0.1 0.9 0.1 0.9 0.1 0.9 0.1 0.9 0.1 0.9 0.1 0.9 0.1 0.9 0.1 0.9 0.1 0.9 0.1 0.9 0.1 0.9 0.1 0.9 0.1 0.9 0.1 0.9 0.1 0.9 0.1 0.9 0.1</probabilities>
		</cpt>
		<cpt id="MeleeAttacks1">
			<state id="Absent" />
			<state id="Present" />
			<parents>EvolutionChamber TimePeriod</parents>
			<probabilities>0.4519611074443418 0.5480388925556583 0.6222982936625474 0.3777017063374527 0.6627308435070265 0.3372691564929736 0.4971102048564456 0.5028897951435543 0.5499192626978391 0.4500807373021609 0.5631261503457149 0.4368738496542851 0.6264926623083936 0.3735073376916063 0.8019840593918668 0.1980159406081331 0.7300138754982586 0.2699861245017413 0.3238272897039917 0.6761727102960083 0.8175854162468225 0.1824145837531775 0.4022123296513108 0.5977876703486892 0.5384803208949324 0.4615196791050676 0.5818400735862903 0.4181599264137096 0.742132416553951 0.257867583446049 0.6584982137051961 0.3415017862948038 0.5987311365845963 0.4012688634154037 0.1756689746628846 0.8243310253371153 0.9179089736462304 0.08209102635376964 0.1258252327166896 0.8741747672833103 0.479550257601135 0.520449742398865 0.9029357458536979 0.09706425414630206 0.7119398117721971 0.2880601882278029 0.6404785534573805 0.3595214465426196 0.7768772345881337 0.2231227654118663 0.9 0.1 0.9 0.1 0.9 0.1 0.9 0.1 0.9 0.1 0.9 0.1 0.9 0.1 0.9 0.1 0.9 0.1 0.9 0.1 0.9 0.1 0.9 0.1 0.9 0.1 0.9 0.1 0.9 0.1 0.9 0.1 0.9 0.1 0.8265137949311132 0.1734862050688869 0.8228848175972057 0.1771151824027943 0.8395835830298738 0.1604164169701262 0.847534071105146 0.1524659288948541 0.8353102244058825 0.1646897755941176 0.7922880200353941 0.2077119799646058 0.8969665539269607 0.1030334460730393 0.8866191209155697 0.1133808790844303</probabilities>
		</cpt>
		<cpt id="MissileAttacks1">
			<state id="Absent" />
			<state id="Present" />
			<parents>EvolutionChamber TimePeriod</parents>
			<probabilities>0.5249315234289862 0.4750684765710138 0.6622743466788368 0.3377256533211631 0.4816348280908866 0.5183651719091134 0.3591269669635203 0.6408730330364798 0.777982191932923 0.222017808067077 0.6976115126943957 0.3023884873056043 0.8496308008500461 0.1503691991499539 0.4047305727215436 0.5952694272784564 0.54515193438303 0.4548480656169701 0.1447614443238317 0.8552385556761681 0.6363568542870278 0.3636431457129724 0.3992940453746738 0.6007059546253264 0.8034871501982969 0.1965128498017032 0.5187520652280299 0.4812479347719701 0.4549422663439033 0.5450577336560968 0.7470416168648907 0.2529583831351093 0.8165513497680906 0.1834486502319094 0.6925951438997913 0.3074048561002087 0.9807753465078848 0.01922465349211523 0.5296280373620863 0.4703719626379136 0.6676575525931133 0.3323424474068867 0.3766723110537362 0.6233276889462637 0.4043543859775025 0.5956456140224976 0.8933470374086778 0.1066529625913222 0.6470928004039265 0.3529071995960736 0.9 0.1 0.9 0.1 0.9 0.1 0.9 0.1 0.9 0.1 0.9 0.1 0.9 0.1 0.9 0.1 0.9 0.1 0.9 0.1 0.9 0.1 0.9 0.1 0.9 0.1 0.9 0.1 0.9 0.1 0.9 0.1 0.9 0.1 0.8145571716651385 0.1854428283348615 0.8440273902784234 0.1559726097215767 0.8512630786069424 0.1487369213930576 0.8614626664265132 0.1385373335734869 0.8492294597398381 0.1507705402601619 0.8372411797829145 0.1627588202170857 0.8413453910036256 0.1586546089963744 0.8244131563395944 0.1755868436604056</probabilities>
		</cpt>
		<cpt id="Carapace1">
			<state id="Absent" />
			<state id="Present" />
			<parents>EvolutionChamber TimePeriod</parents>
			<probabilities>0.3734835184038755 0.6265164815961245 0.5218151231221195 0.4781848768778804 0.5386986240409883 0.4613013759590118 0.04788058665972098 0.9521194133402789 0.195711396361925 0.804288603638075 0.5546496203386536 0.4453503796613464 0.5074436300499561 0.4925563699500439 0.6426247627484228 0.3573752372515772 0.8678698270667216 0.1321301729332784 0.3578786195147281 0.6421213804852719 0.6363731205003705 0.3636268794996295 0.4078693448820634 0.5921306551179366 0.4419424411973966 0.5580575588026033 0.4855617941349594 0.5144382058650405 0.2221596328789084 0.7778403671210917 0.304449537960838 0.6955504620391619 0.6015570313369587 0.3984429686630414 0.8287775029833573 0.1712224970166427 0.4980580677333607 0.5019419322666394 0.7993572503137865 0.2006427496862135 0.2227378453227608 0.7772621546772394 0.6407502986962551 0.3592497013037448 0.8915322726002322 0.1084677273997678 0.6891927891825994 0.3108072108174005 0.65113288954085 0.3488671104591499 0.9 0.1 0.9 0.1 0.9 0.1 0.9 0.1 0.9 0.1 0.9 0.1 0.9 0.1 0.9 0.1 0.9 0.1 0.9 0.1 0.9 0.1 0.9 0.1 0.9 0.1 0.9 0.1 0.9 0.1 0.9 0.1 0.9 0.1 0.791932603525182 0.208067396474818 0.8218049830337322 0.1781950169662679 0.8861545012564156 0.1138454987435846 0.8963011637571658 0.1036988362428341 0.8813209540187881 0.118679045981212 0.8002801945410282 0.1997198054589718 0.9110104517754225 0.08898954822457761 0.8359783637799119 0.1640216362200883</probabilities>
		</cpt>
		<cpt id="SpawnBroodlings">
			<state id="Absent" />
			<state id="Present" />
			<parents>QueensNest TimePeriod</parents>
			<probabilities>0.4020676777760351 0.5979323222239649 0.6618919672916948 0.3381080327083052 0.4562475493533684 0.5437524506466317 0.2499351138282116 0.7500648861717886 0.1146203623079748 0.8853796376920251 0.8741168299955755 0.1258831700044245 0.7244512875124906 0.2755487124875094 0.5308098576096109 0.4691901423903891 0.2711589595329281 0.728841040467072 0.4793095328116307 0.5206904671883694 0.6817883724242244 0.3182116275757756 0.5480909937717294 0.4519090062282706 0.5803083229409687 0.4196916770590314 0.4580691596429734 0.5419308403570265 0.627438213082802 0.372561786917198 0.7585872580255719 0.2414127419744281 0.2833458815450448 0.7166541184549552 0.6481783887800017 0.3518216112199984 0.4007237020815093 0.5992762979184906 0.5190597383660599 0.48094026163394 0.3678668785655204 0.6321331214344798 0.9152529910641827 0.08474700893581745 0.719622590243689 0.2803774097563108 0.6633704730408505 0.3366295269591494 0.6370752808207332 0.3629247191792667 0.9 0.1 0.9 0.1 0.9 0.1 0.9 0.1 0.9 0.1 0.9 0.1 0.9 0.1 0.9 0.1 0.9 0.1 0.9 0.1 0.9 0.1 0.9 0.1 0.9 0.1 0.9 0.1 0.9 0.1 0.9 0.1 0.9 0.1 0.8545263948072686 0.1454736051927315 0.8204341350224318 0.1795658649775682 0.8793435062323196 0.1206564937676804 0.8697512878173122 0.1302487121826878 0.8490854746636061 0.1509145253363939 0.8954328045898179 0.1045671954101821 0.8990921092145585 0.1009078907854416 0.8525154013377072 0.1474845986622929</probabilities>
		</cpt>
		<cpt id="Ensnare">
			<state id="Absent" />
			<state id="Present" />
			<parents>QueensNest TimePeriod</parents>
			<probabilities>0.0972825878671582 0.9027174121328419 0.5140440768485959 0.4859559231514042 0.223110932708522 0.7768890672914782 0.5644385074675298 0.4355614925324702 0.4408693565328478 0.5591306434671521 0.158668408238399 0.841331591761601 0.5017024103781318 0.4982975896218682 0.8536114600126008 0.1463885399873991 0.4551914303706497 0.5448085696293503 0.3542924453745388 0.6457075546254613 0.4353814807157257 0.5646185192842743 0.4530291028761532 0.5469708971238468 0.5929928775972735 0.4070071224027265 0.4871173473043947 0.5128826526956053 0.4022321427082915 0.5977678572917086 0.6890716058099869 0.3109283941900131 0.6351621608495305 0.3648378391504696 0.8581092721842988 0.1418907278157012 0.5610112863219762 0.4389887136780239 0.3515938345735694 0.6484061654264307 0.4896097087517052 0.5103902912482948 0.434154683028542 0.5658453169714579 0.4622171735802909 0.537782826419709 0.8527811995431844 0.1472188004568155 0.6036318066335895 0.3963681933664104 0.9 0.1 0.9 0.1 0.9 0.1 0.9 0.1 0.9 0.1 0.9 0.1 0.9 0.1 0.9 0.1 0.9 0.1 0.9 0.1 0.9 0.1 0.9 0.1 0.9 0.1 0.9 0.1 0.9 0.1 0.9 0.1 0.9 0.1 0.9089527844812769 0.09104721551872311 0.8900457638781789 0.1099542361218212 0.8875458843853423 0.1124541156146578 0.8818352028859723 0.1181647971140277 0.8847951740854918 0.1152048259145083 0.8371668432701485 0.1628331567298515 0.9106896149527219 0.08931038504727801 0.7902288443580243 0.2097711556419756</probabilities>
		</cpt>
		<cpt id="Plague">
			<state id="Absent" />
			<state id="Present" />
			<parents>DefilerMound TimePeriod</parents>
			<probabilities>0.2947343698446418 0.7052656301553582 0.08393335679325556 0.9160666432067444 0.5890147884805134 0.4109852115194867 0.3201346240929591 0.6798653759070408 0.9115126888399404 0.08848731116005958 0.5399836994538099 0.4600163005461901 0.6639102514750838 0.3360897485249162 0.545840470260339 0.454159529739661 0.5328767063437377 0.4671232936562623 0.4810883163323256 0.5189116836676745 0.7812001980789396 0.2187998019210604 0.2556999294537198 0.7443000705462802 0.5793697657976928 0.4206302342023072 0.3552918004645502 0.6447081995354499 0.6484937581168599 0.3515062418831401 0.6696745825281782 0.3303254174718217 0.2149771730282181 0.7850228269717819 0.4440687621019652 0.5559312378980348 0.4936665089201699 0.5063334910798301 0.1469684129801783 0.8530315870198217 0.8293335207990749 0.1706664792009252 0.5567424092976712 0.443257590702329 0.813967108339882 0.186032891660118 0.961671563733859 0.03832843626614105 0.6148411100116791 0.3851588899883209 0.9 0.1 0.9 0.1 0.9 0.1 0.9 0.1 0.9 0.1 0.9 0.1 0.9 0.1 0.9 0.1 0.9 0.1 0.9 0.1 0.9 0.1 0.9 0.1 0.9 0.1 0.9 0.1 0.9 0.1 0.9 0.1 0.9 0.1 0.9 0.1 0.9 0.1 0.9 0.1 0.9 0.1 0.9 0.1 0.9 0.1 0.9 0.1 0.9 0.1</probabilities>
		</cpt>
		<cpt id="Burrowing">
			<state id="Absent" />
			<state id="Present" />
			<parents>TimePeriod</parents>
			<probabilities>0.5508019603816764 0.4491980396183234 0.4162387489677463 0.5837612510322537 0.8622729421455257 0.1377270578544742 0.6396078805224096 0.3603921194775904 0.3730376300647032 0.6269623699352968 0.9410314552652983 0.05896854473470176 0.1496749722350025 0.8503250277649975 0.5239406188806282 0.4760593811193719 0.5262698295523368 0.4737301704476631 0.1034254322029128 0.8965745677970873 0.3604126716075926 0.6395873283924075 0.5983815312318624 0.4016184687681376 0.6432218412501647 0.3567781587498353 0.1379672521236205 0.8620327478763795 0.1078101537220798 0.8921898462779202 0.1806509857217273 0.8193490142782728 0.3861804605101628 0.6138195394898371 0.7681018956887417 0.2318981043112583 0.4979293619228107 0.5020706380771891 0.4201735601903947 0.5798264398096052 0.2017584906405663 0.7982415093594337 0.4869548227705043 0.5130451772294956 0.7348707803549703 0.2651292196450298 0.8496933973568959 0.1503066026431041 0.5200947084529576 0.4799052915470423</probabilities>
		</cpt>
		<cpt id="VentralSacs">
			<state id="Absent" />
			<state id="Present" />
			<parents>Lair TimePeriod</parents>
			<probabilities>0.5800877918444735 0.4199122081555265 0.7388859899092378 0.2611140100907623 0.5346796665129474 0.4653203334870527 0.312530306460888 0.687469693539112 0.2326089268772245 0.7673910731227754 0.5168363155458865 0.4831636844541136 0.4310987332772687 0.5689012667227315 0.4208266577370622 0.5791733422629377 0.5693656822296497 0.4306343177703504 0.5134159910868901 0.4865840089131099 0.7497671274041892 0.250232872595811 0.9 0.1 0.9 0.1 0.9 0.1 0.9 0.1 0.9 0.1 0.9 0.1 0.9 0.1 0.9 0.1 0.9 0.1 0.9 0.1 0.9 0.1 0.9 0.1 0.9 0.1 0.9 0.1 0.9 0.1 0.9 0.1 0.9 0.1 0.9 0.1 0.9 0.1 0.9 0.1 0.9 0.1 0.8622758760711727 0.1377241239288273 0.5450204524458602 0.4549795475541398 0.4087659681737803 0.5912340318262198 0.4509440011159677 0.5490559988840325 0.9142879320939106 0.08571206790608937 0.8992044904367714 0.1007955095632286 0.8283650138433135 0.1716349861566864 0.5089888711344306 0.4910111288655694 0.424588293461117 0.5754117065388831 0.7584513800602999 0.2415486199397002 0.3218481955717948 0.6781518044282051 0.7452811437085808 0.2547188562914192 0.5810629902914182 0.4189370097085819 0.2136166969885477 0.7863833030114524 0.8314455503658906 0.1685544496341094 0.764415822314978 0.2355841776850222 0.4048640452550997 0.5951359547449002 0.8149727767446522 0.1850272232553479</probabilities>
		</cpt>
		<cpt id="FlyerAttacks1">
			<state id="Absent" />
			<state id="Present" />
			<parents>Spire TimePeriod</parents>
			<probabilities>0.7428119504827883 0.2571880495172119 0.9058971345615142 0.09410286543848578 0.9383634779037731 0.06163652209622696 0.3635436340943399 0.6364563659056601 0.8322137949077438 0.167786205092256 0.3119675776617499 0.68803242233825 0.6021627847437097 0.3978372152562904 0.5856860885624475 0.4143139114375526 0.05004893531183036 0.9499510646881696 0.9523216020755971 0.04767839792440286 0.3422840829835475 0.6577159170164525 0.2518958154918236 0.7481041845081765 0.9297020583089549 0.07029794169104515 0.294990023064877 0.7050099769351229 0.7726858625871961 0.227314137412804 0.8430557724164809 0.156944227583519 0.5907061309490905 0.4092938690509096 0.783765511142171 0.2162344888578291 0.8093732569336117 0.1906267430663882 0.3016263815858097 0.6983736184141903 0.6065756739135455 0.3934243260864544 0.5641204556885501 0.4358795443114499 0.4705945289279744 0.5294054710720255 0.464951214814932 0.535048785185068 0.9136123899889268 0.08638761001107324 0.9 0.1 0.9 0.1 0.9 0.1 0.9 0.1 0.9 0.1 0.9 0.1 0.9 0.1 0.9 0.1 0.9 0.1 0.9 0.1 0.9 0.1 0.9 0.1 0.9 0.1 0.9 0.1 0.9 0.1 0.9 0.1 0.9 0.1 0.9 0.1 0.9 0.1 0.9 0.1 0.9 0.1 0.8367917387416778 0.1632082612583222 0.8770227609679158 0.1229772390320843 0.8100962850441846 0.1899037149558155 0.8797925729626477 0.1202074270373523</probabilities>
		</cpt>
		<cpt id="FlyerCarapace1">
			<state id="Absent" />
			<state id="Present" />
			<parents>Spire TimePeriod</parents>
			<probabilities>0.7024522835060741 0.2975477164939258 0.922134571449249 0.07786542855075083 0.5115256752649096 0.4884743247350905 0.3456828650357223 0.6543171349642778 0.7026665517029005 0.2973334482970995 0.4602692933481609 0.539730706651839 0.07283162501135664 0.9271683749886432 0.5841693204011844 0.4158306795988155 0.6071943827687875 0.3928056172312127 0.5786484714318649 0.421351528568135 0.4427272684344218 0.5572727315655782 0.7693342680355872 0.2306657319644129 0.3545829140889854 0.6454170859110145 0.8013077063059848 0.1986922936940151 0.4494283077531212 0.5505716922468787 0.5137044295484861 0.486295570451514 0.9721044225511677 0.02789557744883242 0.5332264660341319 0.466773533965868 0.1116665193517616 0.8883334806482385 0.584844672725348 0.4151553272746522 0.4218590031309318 0.5781409968690682 0.912307619413495 0.08769238058650501 0.5439663184282748 0.4560336815717251 0.4778647694558309 0.5221352305441691 0.9523984073159624 0.04760159268403763 0.9 0.1 0.9 0.1 0.9 0.1 0.9 0.1 0.9 0.1 0.9 0.1 0.9 0.1 0.9 0.1 0.9 0.1 0.9 0.1 0.9 0.1 0.9 0.1 0.9 0.1 0.9 0.1 0.9 0.1 0.9 0.1 0.9 0.1 0.9 0.1 0.9 0.1 0.9 0.1 0.9 0.1 0.8725152374735719 0.1274847625264282 0.8232545196579695 0.1767454803420306 0.8290468506338716 0.1709531493661283 0.8519951477905893 0.1480048522094108</probabilities>
		</cpt>
		<cpt id="MetabolicBoost">
			<state id="Absent" />
			<state id="Present" />
			<parents>SpawningPool TimePeriod</parents>
			<probabilities>0.7617134679965508 0.2382865320034492 0.6530783894156566 0.3469216105843434 0.2592063640333029 0.7407936359666971 0.9347329841825283 0.06526701581747178 0.4981000482114205 0.5018999517885796 0.6499979774325291 0.3500020225674709 0.4147616108852865 0.5852383891147136 0.6130815273792157 0.3869184726207844 0.6607285429916444 0.3392714570083555 0.8383006789163783 0.1616993210836217 0.9 0.1 0.9 0.1 0.9 0.1 0.9 0.1 0.9 0.1 0.9 0.1 0.9 0.1 0.9 0.1 0.9 0.1 0.9 0.1 0.9 0.1 0.9 0.1 0.9 0.1 0.9 0.1 0.9 0.1 0.9 0.1 0.9 0.1 0.6155777179576196 0.3844222820423804 0.6433540817405524 0.3566459182594476 0.381779265043087 0.618220734956913 0.1786378983593428 0.8213621016406573 0.1762996994457618 0.8237003005542383 0.5516775071316005 0.4483224928683995 0.6940967083239155 0.3059032916760847 0.929910247110402 0.07008975288959791 0.497642098755819 0.502357901244181 0.2988614510660257 0.7011385489339744 0.5865684312848853 0.4134315687151147 0.9204891023765847 0.07951089762341529 0.5632829665219508 0.4367170334780492 0.6394150226893213 0.3605849773106787 0.256625736689568 0.7433742633104321 0.8689719604045803 0.1310280395954198 0.5327344772348784 0.4672655227651214 0.3755453112114718 0.6244546887885282 0.676811249619783 0.3231887503802171 0.3134220854414903 0.6865779145585096 0.6287921751831719 0.3712078248168282 0.3917695608533319 0.6082304391466681 0.7196322377388671 0.2803677622611329</probabilities>
		</cpt>
		<cpt id="AdrenalGlands">
			<state id="Absent" />
			<state id="Present" />
			<parents>SpawningPool TimePeriod</parents>
			<probabilities>0.1827140896508506 0.8172859103491493 0.1418608803542744 0.8581391196457257 0.4445709000376171 0.5554290999623829 0.07226428983338014 0.9277357101666199 0.5744803404877884 0.4255196595122116 0.9697798617423453 0.03022013825765472 0.7126389828334007 0.2873610171665993 0.8200305040724264 0.1799694959275736 0.7890543574904736 0.2109456425095263 0.8382389048011629 0.1617610951988371 0.9 0.1 0.9 0.1 0.9 0.1 0.9 0.1 0.9 0.1 0.9 0.1 0.9 0.1 0.9 0.1 0.9 0.1 0.9 0.1 0.9 0.1 0.9 0.1 0.9 0.1 0.9 0.1 0.9 0.1 0.9 0.1 0.9 0.1 0.8828940313674809 0.1171059686325191 0.719643153822455 0.2803568461775449 0.5698103046975399 0.4301896953024601 0.7810992852676031 0.2189007147323971 0.3260184597215137 0.6739815402784865 0.5721759182834032 0.4278240817165969 0.2144608834745898 0.7855391165254102 0.2233531003089608 0.7766468996910393 0.1081736518479875 0.8918263481520126 0.4936183649535322 0.5063816350464678 0.3035666652602436 0.6964333347397563 0.6275490260838401 0.3724509739161598 0.9118501879539837 0.08814981204601652 0.8883967028081681 0.1116032971918319 0.6432191932885696 0.3567808067114305 0.2965547149298335 0.7034452850701664 0.5066021016790171 0.4933978983209828 0.3750860260698484 0.6249139739301517 0.4034466155566016 0.5965533844433985 0.7776443829358772 0.2223556170641227 0.806633840301953 0.193366159698047 0.8761486047367764 0.1238513952632237 0.402873333066514 0.597126666933486</probabilities>
		</cpt>
		<cpt id="LurkerAspect">
			<state id="Absent" />
			<state id="Present" />
			<parents>HydraliskDen TimePeriod</parents>
			<probabilities>0.2368986248992381 0.7631013751007619 0.2740265206957835 0.7259734793042164 0.7471462127587135 0.2528537872412865 0.4278905345566462 0.572109465443354 0.316457213267047 0.6835427867329531 0.9370067511066563 0.06299324889334357 0.5282484723082848 0.4717515276917153 0.5232558601697136 0.4767441398302864 0.6657898152667042 0.3342101847332957 0.6502761424449156 0.3497238575550845 0.7237356446458092 0.2762643553541909 0.9 0.1 0.9 0.1 0.9 0.1 0.9 0.1 0.9 0.1 0.9 0.1 0.9 0.1 0.9 0.1 0.9 0.1 0.9 0.1 0.9 0.1 0.9 0.1 0.9 0.1 0.9 0.1 0.9 0.1 0.9 0.1 0.9 0.1 0.9 0.1 0.9 0.1 0.9 0.1 0.198114819805077 0.8018851801949231 0.5670432862712425 0.4329567137287575 0.4719318751808422 0.5280681248191577 0.8838723738475128 0.1161276261524871 0.3410115405309331 0.6589884594690669 0.7760940343536975 0.2239059656463026 0.6868012852466767 0.3131987147533234 0.1782900894658733 0.8217099105341269 0.434445956213459 0.5655540437865411 0.5868249299480952 0.4131750700519047 0.2217941041875221 0.7782058958124781 0.5202355427431118 0.4797644572568882 0.6068558365635547 0.3931441634364454 0.6355248799236517 0.3644751200763483 0.5071537286587439 0.4928462713412561 0.8520310340754743 0.1479689659245257 0.5938703953639449 0.4061296046360552 0.5256124446318442 0.4743875553681557 0.4228639825922393 0.5771360174077608</probabilities>
		</cpt>
		<cpt id="GroovedSpines">
			<state id="Absent" />
			<state id="Present" />
			<parents>HydraliskDen TimePeriod</parents>
			<probabilities>0.477899042763131 0.522100957236869 0.4599901414046007 0.5400098585953994 0.5185293794994069 0.481470620500593 0.2961297087485469 0.7038702912514533 0.5282761494736383 0.4717238505263616 0.5919998069420683 0.4080001930579316 0.1596697905015332 0.8403302094984666 0.4045174682093342 0.5954825317906658 0.737386580139534 0.2626134198604659 0.6034919644602922 0.3965080355397078 0.6189127980134491 0.381087201986551 0.9 0.1 0.9 0.1 0.9 0.1 0.9 0.1 0.9 0.1 0.9 0.1 0.9 0.1 0.9 0.1 0.9 0.1 0.9 0.1 0.9 0.1 0.9 0.1 0.9 0.1 0.9 0.1 0.9 0.1 0.9 0.1 0.9 0.1 0.9 0.1 0.9 0.1 0.9 0.1 0.4717549385047777 0.5282450614952222 0.08396032457327241 0.9160396754267277 0.4442431927606776 0.5557568072393224 0.6644680873798141 0.335531912620186 0.1771161779963719 0.8228838220036282 0.5574861438612763 0.4425138561387236 0.3912242345419459 0.608775765458054 0.4773875840793312 0.5226124159206689 0.9079579771972498 0.09204202280275019 0.8535310373877245 0.1464689626122755 0.5863293766071956 0.4136706233928043 0.2663819827724231 0.7336180172275768 0.5081049307445836 0.4918950692554163 0.5738111477298317 0.4261888522701685 0.5827595025995391 0.4172404974004608 0.5927606776160408 0.4072393223839592 0.6896842291045111 0.3103157708954888 0.7559604844062549 0.2440395155937452 0.6520906676565227 0.3479093323434773</probabilities>
		</cpt>
		<cpt id="Carapace2">
			<state id="Absent" />
			<state id="Present" />
			<parents>TimePeriod Carapace1 Lair</parents>
			<probabilities>0.5264472838392239 0.4735527161607762 0.9 0.1 0.8379889298817944 0.1620110701182055 0.9 0.1 0.4368573913634966 0.5631426086365035 0.9 0.1 0.09226775140265181 0.9077322485973481 0.9 0.1 0.5083195890952118 0.4916804109047882 0.9 0.1 0.1717505167476471 0.8282494832523528 0.9 0.1 0.6867620848652282 0.3132379151347718 0.9 0.1 0.6274536586416053 0.3725463413583948 0.9 0.1 0.7870212319377876 0.2129787680622123 0.9 0.1 0.350082648761116 0.6499173512388839 0.9 0.1 0.7280545428962975 0.2719454571037024 0.9 0.1 0.9565706945743737 0.04342930542562629 0.9 0.1 0.6521066615043542 0.3478933384956457 0.9 0.1 0.2472099780582254 0.7527900219417747 0.9 0.1 0.749525910943216 0.250474089056784 0.3442602597533809 0.6557397402466191 0.5104486526148979 0.4895513473851022 0.6296477509753672 0.370352249024633 0.5210512003466906 0.4789487996533096 0.3440956117837554 0.6559043882162445 0.7116143503985843 0.2883856496014156 0.6688083781435537 0.3311916218564464 0.5448800733274489 0.455119926672551 0.5611115555364344 0.4388884444635655 0.887752173628431 0.112247826371569 0.6315992884702316 0.3684007115297684 0.7303725161672847 0.2696274838327153 0.8411873673401034 0.1588126326598966 0.8067980162138547 0.1932019837861453 0.4221327229287704 0.5778672770712297 0.9 0.1 0.3207884675629755 0.6792115324370246 0.9 0.1 0.8407722283785125 0.1592277716214876 0.9 0.1 0.2157868623250546 0.7842131376749455 0.9 0.1 0.4804290704535733 0.5195709295464267 0.9 0.1 0.547319700401558 0.452680299598442 0.9 0.1 0.2779924104754528 0.7220075895245474 0.9 0.1 0.4711537083985315 0.5288462916014683 0.9 0.1 0.7311575536910253 0.2688424463089746 0.9 0.1 0.9312086637093713 0.06879133629062878 0.9 0.1 0.1273617519362627 0.8726382480637372 0.9 0.1 0.668595607065089 0.331404392934911 0.9 0.1 0.5629003236036042 0.4370996763963959 0.9 0.1 0.8664941926404614 0.1335058073595386 0.9 0.1 0.9407145131869578 0.05928548681304226 0.9 0.1 0.8741943586081934 0.1258056413918067 0.9 0.1 0.51940411637705 0.4805958836229501 0.9 0.1 0.1452156420710496 0.8547843579289504 0.9 0.1 0.6478607735477298 0.3521392264522703 0.9 0.1 0.7297958717260048 0.2702041282739951 0.9 0.1 0.6633425705551939 0.3366574294448063 0.9 0.1 0.4089038337764354 0.5910961662235648 0.9 0.1 0.9379782095941592 0.06202179040584083 0.9 0.1 0.6207143153763903 0.3792856846236097 0.9 0.1 0.8085775096865649 0.1914224903134351 0.9 0.1 0.4681263804603251 0.5318736195396749 0.9 0.1 0.7906137233858872 0.2093862766141129 0.9 0.1 0.8667319417350043 0.1332680582649956 0.9 0.1 0.8649799894433784 0.1350200105566216</probabilities>
		</cpt>
		<cpt id="Carapace3">
			<state id="Absent" />
			<state id="Present" />
			<parents>TimePeriod Carapace2 Hive</parents>
			<probabilities>0.4229935549987975 0.5770064450012026 0.9 0.1 0.4027654233676659 0.597234576632334 0.9 0.1 0.6177902845627243 0.3822097154372757 0.9 0.1 0.5591705936989269 0.4408294063010731 0.9 0.1 0.3367458800688926 0.6632541199311073 0.9 0.1 0.8491545765289504 0.1508454234710495 0.9 0.1 0.5070103117245519 0.4929896882754481 0.9 0.1 0.5348063683694569 0.4651936316305432 0.9 0.1 0.5170056425696818 0.482994357430318 0.9 0.1 0.4653651108823995 0.5346348891176004 0.9 0.1 0.5248756824771843 0.4751243175228158 0.9 0.1 0.5581229835144298 0.4418770164855703 0.9 0.1 0.9290728190567051 0.07092718094329499 0.9 0.1 0.8554118707070008 0.1445881292929993 0.9 0.1 0.1809512082500786 0.8190487917499214 0.9 0.1 0.3891478392421761 0.610852160757824 0.9 0.1 0.4901701804018761 0.509829819598124 0.9 0.1 0.4354479749604823 0.5645520250395175 0.9 0.1 0.07916338306290732 0.9208366169370926 0.9 0.1 0.4973771885696673 0.5026228114303327 0.9 0.1 0.8897172230399334 0.1102827769600667 0.9 0.1 0.6816825459167401 0.3183174540832599 0.9 0.1 0.4730510252026665 0.5269489747973335 0.9 0.1 0.6533397901596161 0.346660209840384 0.9 0.1 0.9107293410257796 0.08927065897422035 0.9 0.1 0.5592806806382773 0.4407193193617227 0.9 0.1 0.4990610407691835 0.5009389592308166 0.9 0.1 0.7420731778907354 0.2579268221092648 0.9 0.1 0.7725517930022929 0.2274482069977071 0.9 0.1 0.3652339359773715 0.6347660640226287 0.9 0.1 0.7059272719909044 0.2940727280090957 0.9 0.1 0.7346991372710737 0.2653008627289263 0.9 0.1 0.4290021608165874 0.5709978391834127 0.9 0.1 0.3871823443656022 0.6128176556343978 0.9 0.1 0.6481053886364303 0.3518946113635697 0.9 0.1 0.4965642139789226 0.5034357860210775 0.9 0.1 0.5819294358844978 0.4180705641155023 0.9 0.1 0.325248536672381 0.674751463327619 0.9 0.1 0.7067081711233751 0.2932918288766248 0.9 0.1 0.4239213800346066 0.5760786199653936 0.9 0.1 0.6562181426428235 0.3437818573571767 0.9 0.1 0.7429928596663974 0.2570071403336026 0.9 0.1 0.860803295279202 0.1391967047207981 0.9 0.1 0.713259642322632 0.2867403576773681 0.9 0.1 0.7121279182179532 0.2878720817820468 0.9 0.1 0.6163975841313599 0.3836024158686401 0.9 0.1 0.8321685730919701 0.1678314269080299 0.9 0.1 0.7452990168096364 0.2547009831903637 0.9 0.1 0.7023385869049903 0.2976614130950098 0.9 0.1 0.8730025483235817 0.1269974516764183 0.9 0.1</probabilities>
		</cpt>
		<cpt id="MissileAttacks2">
			<state id="Absent" />
			<state id="Present" />
			<parents>TimePeriod MissileAttacks1 Lair</parents>
			<probabilities>0.0657463367202256 0.9342536632797744 0.9 0.1 0.5703821161261874 0.4296178838738126 0.9 0.1 0.7728267378271653 0.2271732621728346 0.9 0.1 0.6539997781577843 0.3460002218422158 0.9 0.1 0.4105693315730727 0.5894306684269273 0.9 0.1 0.6862412148305462 0.3137587851694537 0.9 0.1 0.5713407362601687 0.4286592637398312 0.9 0.1 0.6181487593507078 0.3818512406492923 0.9 0.1 0.6676718752503592 0.3323281247496406 0.9 0.1 0.516934654856917 0.4830653451430831 0.9 0.1 0.5277902640579071 0.472209735942093 0.9 0.1 0.5799440474754894 0.4200559525245104 0.9 0.1 0.5104103833852227 0.4895896166147773 0.9 0.1 0.9145276091140556 0.08547239088594441 0.9 0.1 0.6394538611110751 0.3605461388889251 0.5888925580474149 0.411107441952585 0.6620929649762921 0.3379070350237077 0.7138285480030157 0.2861714519969842 0.515807866420034 0.4841921335799659 0.5390257842782023 0.4609742157217978 0.5880830427427668 0.4119169572572333 0.7766433481188945 0.2233566518811054 0.8013731749263254 0.1986268250736746 0.6855276290653839 0.3144723709346161 0.6954065367164976 0.3045934632835025 0.579206582053345 0.4207934179466551 0.8495104224562389 0.1504895775437611 0.5700475358177826 0.4299524641822175 0.8129097092290823 0.1870902907709177 0.1612716558149168 0.8387283441850832 0.9 0.1 0.6091933808348455 0.3908066191651545 0.9 0.1 0.9038958013279397 0.09610419867206024 0.9 0.1 0.9385117601593525 0.06148823984064751 0.9 0.1 0.2095787465202226 0.7904212534797773 0.9 0.1 0.2441630497806142 0.7558369502193859 0.9 0.1 0.4037524053202478 0.5962475946797522 0.9 0.1 0.7633797747048901 0.23662022529511 0.9 0.1 0.5686902155842725 0.4313097844157275 0.9 0.1 0.1708363905769687 0.8291636094230314 0.9 0.1 0.6185079909580677 0.3814920090419324 0.9 0.1 0.5515769463910077 0.4484230536089922 0.9 0.1 0.3069827114898536 0.6930172885101466 0.9 0.1 0.8459194584146511 0.1540805415853488 0.9 0.1 0.9432668046046162 0.05673319539538383 0.9 0.1 0.648097796183836 0.351902203816164 0.9 0.1 0.8774436077841887 0.1225563922158114 0.9 0.1 0.5431685464585158 0.4568314535414843 0.9 0.1 0.7263312304235154 0.2736687695764846 0.9 0.1 0.7950357859440934 0.2049642140559066 0.9 0.1 0.3776475940901026 0.6223524059098974 0.9 0.1 0.7335917075485605 0.2664082924514394 0.9 0.1 0.5912959741607725 0.4087040258392276 0.9 0.1 0.7890466467404365 0.2109533532595636 0.9 0.1 0.7533940724364932 0.2466059275635067 0.9 0.1 0.8064090664017924 0.1935909335982075 0.9 0.1 0.8443474323004403 0.1556525676995598 0.9 0.1 0.6941504492316435 0.3058495507683566 0.9 0.1 0.793698848516608 0.2063011514833918</probabilities>
		</cpt>
		<cpt id="MissileAttacks3">
			<state id="Absent" />
			<state id="Present" />
			<parents>TimePeriod MissileAttacks2 Hive</parents>
			<probabilities>0.8803563463227447 0.1196436536772552 0.9 0.1 0.6285138816323425 0.3714861183676574 0.9 0.1 0.3385547279332525 0.6614452720667475 0.9 0.1 0.5847726738505178 0.4152273261494823 0.9 0.1 0.6744120776484657 0.3255879223515343 0.9 0.1 0.5893352199934049 0.4106647800065951 0.9 0.1 0.5066517438067594 0.4933482561932406 0.9 0.1 0.3659206038651595 0.6340793961348404 0.9 0.1 0.905413770840357 0.09458622915964308 0.9 0.1 0.4313199844725402 0.5686800155274597 0.9 0.1 0.6207660899241935 0.3792339100758066 0.9 0.1 0.5780242309370766 0.4219757690629236 0.9 0.1 0.4578107778137041 0.542189222186296 0.9 0.1 0.8994352121789951 0.1005647878210048 0.9 0.1 0.258448405611973 0.741551594388027 0.9 0.1 0.3566443695318184 0.6433556304681815 0.9 0.1 0.5852377537702936 0.4147622462297064 0.9 0.1 0.273321550129814 0.7266784498701859 0.9 0.1 0.9250262505598779 0.07497374944012218 0.9 0.1 0.275637292975529 0.724362707024471 0.9 0.1 0.7851091395382058 0.2148908604617942 0.9 0.1 0.6134130841236374 0.3865869158763627 0.9 0.1 0.8311968993053208 0.1688031006946792 0.9 0.1 0.6720380086215372 0.3279619913784627 0.9 0.1 0.9517225155077902 0.04827748449220983 0.9 0.1 0.2372660446537138 0.7627339553462863 0.9 0.1 0.8223002465054912 0.1776997534945087 0.9 0.1 0.1286229397316664 0.8713770602683335 0.9 0.1 0.4588730699334473 0.5411269300665527 0.9 0.1 0.4966374421826648 0.5033625578173353 0.9 0.1 0.288398398784439 0.711601601215561 0.9 0.1 0.6196846648941834 0.3803153351058164 0.9 0.1 0.5695908912226617 0.4304091087773384 0.9 0.1 0.4707046555026916 0.5292953444973084 0.9 0.1 0.2910016118536349 0.7089983881463652 0.9 0.1 0.8101009708522213 0.1898990291477787 0.9 0.1 0.4754830340144732 0.5245169659855268 0.9 0.1 0.5524955599770397 0.4475044400229603 0.9 0.1 0.4377200217406204 0.5622799782593797 0.9 0.1 0.4905441343656012 0.5094558656343988 0.9 0.1 0.6651957531046863 0.3348042468953139 0.9 0.1 0.7109900587107564 0.2890099412892436 0.9 0.1 0.3354091809924649 0.6645908190075353 0.9 0.1 0.4696765577580787 0.5303234422419214 0.9 0.1 0.5595552860382194 0.4404447139617806 0.9 0.1 0.5779340297540585 0.4220659702459416 0.9 0.1 0.6502553719922557 0.3497446280077443 0.9 0.1 0.8090507691038084 0.1909492308961916 0.9 0.1 0.8262636772584284 0.1737363227415717 0.9 0.1 0.7197845545832422 0.2802154454167578 0.9 0.1</probabilities>
		</cpt>
		<cpt id="MeleeAttacks2">
			<state id="Absent" />
			<state id="Present" />
			<parents>TimePeriod MeleeAttacks1 Lair</parents>
			<probabilities>0.4028266209548602 0.5971733790451398 0.9 0.1 0.562941256160403 0.4370587438395971 0.9 0.1 0.4366838170642917 0.5633161829357083 0.9 0.1 0.5271291813097712 0.4728708186902288 0.9 0.1 0.9060044946641266 0.09399550533587338 0.9 0.1 0.8170323113911845 0.1829676886088155 0.9 0.1 0.09154734425104312 0.9084526557489568 0.9 0.1 0.404537230843333 0.5954627691566669 0.9 0.1 0.2762239148814075 0.7237760851185925 0.9 0.1 0.5057906052855253 0.4942093947144748 0.9 0.1 0.3798873101054334 0.6201126898945666 0.9 0.1 0.6598002864123315 0.3401997135876684 0.9 0.1 0.5031093047692636 0.4968906952307364 0.9 0.1 0.6039375656282962 0.3960624343717037 0.9 0.1 0.6492657241797606 0.3507342758202393 0.6540208175660252 0.345979182433975 0.6746286673254071 0.325371332674593 0.7342133090864517 0.2657866909135485 0.5629964907968992 0.4370035092031008 0.9630608343601458 0.03693916563985434 0.7687365254005745 0.2312634745994257 0.381157515769062 0.6188424842309379 0.7103615224717463 0.2896384775282536 0.653333450302538 0.346666549697462 0.8159115087638019 0.1840884912361981 0.631411567221266 0.368588432778734 0.7185876023217217 0.2814123976782783 0.1950857702878838 0.8049142297121162 0.8663516533799449 0.1336483466200551 0.7241527929934076 0.2758472070065923 0.9 0.1 0.4363061850065843 0.5636938149934158 0.9 0.1 0.6820324971056424 0.3179675028943577 0.9 0.1 0.5154500550127067 0.4845499449872935 0.9 0.1 0.6225076909386061 0.377492309061394 0.9 0.1 0.3685275593965364 0.6314724406034638 0.9 0.1 0.1398418176445895 0.8601581823554104 0.9 0.1 0.5913634536185372 0.408636546381463 0.9 0.1 0.4589755372162826 0.5410244627837173 0.9 0.1 0.3632410425375484 0.6367589574624516 0.9 0.1 0.6819990828973686 0.3180009171026313 0.9 0.1 0.5574844041568361 0.4425155958431639 0.9 0.1 0.5682654395417244 0.4317345604582757 0.9 0.1 0.4311753294970788 0.5688246705029213 0.9 0.1 0.8979447951488565 0.1020552048511435 0.9 0.1 0.1470260790658858 0.8529739209341143 0.9 0.1 0.7306325523010319 0.2693674476989681 0.9 0.1 0.8199023863049426 0.1800976136950574 0.9 0.1 0.4410135959941999 0.5589864040058001 0.9 0.1 0.6480202887377501 0.3519797112622499 0.9 0.1 0.5797157051140773 0.4202842948859228 0.9 0.1 0.4934736017478 0.5065263982521999 0.9 0.1 0.714014936005644 0.2859850639943561 0.9 0.1 0.7511219669408163 0.2488780330591836 0.9 0.1 0.83160552113526 0.1683944788647402 0.9 0.1 0.5866047130535509 0.413395286946449 0.9 0.1 0.8234752394178651 0.176524760582135 0.9 0.1 0.7793062238537007 0.2206937761462993 0.9 0.1 0.8496088043751957 0.1503911956248043</probabilities>
		</cpt>
		<cpt id="MeleeAttacks3">
			<state id="Absent" />
			<state id="Present" />
			<parents>TimePeriod MeleeAttacks2 Hive</parents>
			<probabilities>0.4900054803141433 0.5099945196858567 0.9 0.1 0.7766762179798964 0.2233237820201035 0.9 0.1 0.7247708118192652 0.2752291881807348 0.9 0.1 0.3184110463564839 0.681588953643516 0.9 0.1 0.6583282330633227 0.3416717669366773 0.9 0.1 0.2812426400879511 0.7187573599120488 0.9 0.1 0.5607088988122324 0.4392911011877677 0.9 0.1 0.4978360911571964 0.5021639088428037 0.9 0.1 0.3454084785372351 0.654591521462765 0.9 0.1 0.7910925167591806 0.2089074832408195 0.9 0.1 0.4385965943347172 0.5614034056652828 0.9 0.1 0.4011248503400116 0.5988751496599885 0.9 0.1 0.5377058644069459 0.4622941355930542 0.9 0.1 0.6721686384324894 0.3278313615675106 0.9 0.1 0.6889614565304706 0.3110385434695295 0.9 0.1 0.7788298852957585 0.2211701147042416 0.9 0.1 0.5608323017799445 0.4391676982200556 0.9 0.1 0.8659515911924122 0.134048408807588 0.9 0.1 0.2429329385429527 0.7570670614570474 0.9 0.1 0.1802413762189844 0.8197586237810156 0.9 0.1 0.891007381102806 0.108992618897194 0.9 0.1 0.9242463400847627 0.07575365991523739 0.9 0.1 0.8069334629851973 0.1930665370148027 0.9 0.1 0.221265156846889 0.778734843153111 0.9 0.1 0.5160579127424193 0.4839420872575806 0.9 0.1 0.5179661468954792 0.4820338531045209 0.9 0.1 0.3043567969677936 0.6956432030322064 0.9 0.1 0.4007073422361264 0.5992926577638736 0.9 0.1 0.2020532927711509 0.7979467072288493 0.9 0.1 0.4942274188246247 0.5057725811753754 0.9 0.1 0.8669945670643895 0.1330054329356104 0.9 0.1 0.4606221112840478 0.5393778887159521 0.9 0.1 0.5412572331362811 0.4587427668637191 0.9 0.1 0.4646978454979967 0.5353021545020031 0.9 0.1 0.5243230599022111 0.4756769400977891 0.9 0.1 0.804956795233211 0.195043204766789 0.9 0.1 0.6666760745610894 0.3333239254389106 0.9 0.1 0.5145624822173917 0.4854375177826085 0.9 0.1 0.4883457188276422 0.5116542811723579 0.9 0.1 0.7573039851290974 0.2426960148709026 0.9 0.1 0.3321395807061288 0.6678604192938712 0.9 0.1 0.3922302156658455 0.6077697843341545 0.9 0.1 0.4058230029233654 0.5941769970766347 0.9 0.1 0.644802700405938 0.3551972995940619 0.9 0.1 0.5319901774872076 0.4680098225127923 0.9 0.1 0.5894806090812836 0.4105193909187164 0.9 0.1 0.5815096463408122 0.4184903536591877 0.9 0.1 0.8557585702655723 0.1442414297344276 0.9 0.1 0.5994529962310486 0.4005470037689514 0.9 0.1 0.7832670396368092 0.2167329603631908 0.9 0.1</probabilities>
		</cpt>
		<cpt id="FlyerAttacks2">
			<state id="Absent" />
			<state id="Present" />
			<parents>TimePeriod FlyerAttacks1 Lair</parents>
			<probabilities>0.4941940726164636 0.5058059273835363 0.9 0.1 0.8125752044593911 0.1874247955406088 0.9 0.1 0.6115549238253704 0.3884450761746298 0.9 0.1 0.8792964673821634 0.1207035326178365 0.9 0.1 0.5566268773587074 0.4433731226412926 0.9 0.1 0.4673110504566711 0.532688949543329 0.9 0.1 0.8226365303321462 0.1773634696678537 0.9 0.1 0.8793815989475783 0.1206184010524216 0.9 0.1 0.5393911889387462 0.4606088110612539 0.9 0.1 0.3774922127598133 0.6225077872401865 0.9 0.1 0.9441320897576205 0.05586791024237942 0.9 0.1 0.3927463683179223 0.6072536316820778 0.9 0.1 0.835996004640708 0.164003995359292 0.9 0.1 0.4000685382238164 0.5999314617761836 0.9 0.1 0.5211089273936368 0.478891072606363 0.5072758118482615 0.4927241881517384 0.8075952489550976 0.1924047510449023 0.2249011141781521 0.7750988858218478 0.902433222598472 0.09756677740152797 0.8665650411332442 0.1334349588667558 0.5963237015911059 0.4036762984088942 0.5898627142349311 0.410137285765069 0.4133830771717653 0.5866169228282346 0.8105144789756924 0.1894855210243076 0.8829314273432146 0.1170685726567853 0.6152007340806297 0.3847992659193704 0.7583964517974244 0.2416035482025755 0.7824526284510802 0.2175473715489199 0.7131966807211422 0.2868033192788578 0.6774670234651684 0.3225329765348317 0.9 0.1 0.3512435837792394 0.6487564162207606 0.9 0.1 0.7816558662248083 0.2183441337751916 0.9 0.1 0.05435012258894152 0.9456498774110586 0.9 0.1 0.8151746331833856 0.1848253668166144 0.9 0.1 0.5369580405417673 0.4630419594582327 0.9 0.1 0.4850915804313593 0.5149084195686408 0.9 0.1 0.5465607678408122 0.4534392321591878 0.9 0.1 0.4290706088452995 0.5709293911547005 0.9 0.1 0.768187343328455 0.2318126566715451 0.9 0.1 0.5059284922946893 0.4940715077053107 0.9 0.1 0.8253114105053681 0.1746885894946319 0.9 0.1 0.2389669746831339 0.7610330253168662 0.9 0.1 0.5287833244134645 0.4712166755865356 0.9 0.1 0.6220265672849815 0.3779734327150185 0.9 0.1 0.4367748734585645 0.5632251265414354 0.9 0.1 0.825383860386708 0.1746161396132919 0.9 0.1 0.5790911030303984 0.4209088969696016 0.9 0.1 0.7709969684218787 0.2290030315781213 0.9 0.1 0.5239681887796174 0.4760318112203828 0.9 0.1 0.6312996163891144 0.3687003836108856 0.9 0.1 0.6106290259355827 0.3893709740644173 0.9 0.1 0.6106564108211445 0.3893435891788554 0.9 0.1 0.7708104233884896 0.2291895766115104 0.9 0.1 0.4540177785440512 0.5459822214559488 0.9 0.1 0.7795999593830852 0.2204000406169148 0.9 0.1 0.6283107677858607 0.3716892322141394 0.9 0.1 0.6023183713518803 0.3976816286481197 0.9 0.1 0.8545719486283345 0.1454280513716655</probabilities>
		</cpt>
		<cpt id="FlyerAttacks3">
			<state id="Absent" />
			<state id="Present" />
			<parents>TimePeriod FlyerAttacks2 Hive</parents>
			<probabilities>0.4419334806393321 0.5580665193606679 0.9 0.1 0.4033311523109641 0.5966688476890359 0.9 0.1 0.05867559844536919 0.9413244015546308 0.9 0.1 0.2961241939292532 0.7038758060707469 0.9 0.1 0.6289735241685316 0.3710264758314684 0.9 0.1 0.3571191874858223 0.6428808125141777 0.9 0.1 0.2021553599032474 0.7978446400967526 0.9 0.1 0.2595202158191973 0.7404797841808026 0.9 0.1 0.427684947522561 0.572315052477439 0.9 0.1 0.3456214222038668 0.6543785777961333 0.9 0.1 0.5918062603829033 0.4081937396170966 0.9 0.1 0.7302246924864747 0.2697753075135254 0.9 0.1 0.1763494156111019 0.8236505843888982 0.9 0.1 0.9253699644691288 0.07463003553087128 0.9 0.1 0.5794053750128712 0.4205946249871289 0.9 0.1 0.797517686205698 0.2024823137943021 0.9 0.1 0.9229325897035099 0.07706741029649018 0.9 0.1 0.4477141772161436 0.5522858227838564 0.9 0.1 0.1760536350568986 0.8239463649431015 0.9 0.1 0.6031856119739975 0.3968143880260026 0.9 0.1 0.8416398757298227 0.1583601242701773 0.9 0.1 0.645757621443661 0.3542423785563389 0.9 0.1 0.306693210954847 0.693306789045153 0.9 0.1 0.3454953972246139 0.6545046027753861 0.9 0.1 0.6211991241903692 0.3788008758096308 0.9 0.1 0.8359355468581416 0.1640644531418584 0.9 0.1 0.6288243636880705 0.3711756363119296 0.9 0.1 0.6272068889688852 0.3727931110311148 0.9 0.1 0.9079981874513958 0.09200181254860422 0.9 0.1 0.2847195161241669 0.7152804838758331 0.9 0.1 0.9178322844506128 0.08216771554938716 0.9 0.1 0.3269445306925075 0.6730554693074924 0.9 0.1 0.7234560569088258 0.2765439430911743 0.9 0.1 0.5100578792983183 0.4899421207016819 0.9 0.1 0.6853278399258844 0.3146721600741156 0.9 0.1 0.4311289858263818 0.5688710141736182 0.9 0.1 0.8698170109735236 0.1301829890264764 0.9 0.1 0.1734184566541277 0.8265815433458724 0.9 0.1 0.8467528265352031 0.1532471734647969 0.9 0.1 0.3919890173983405 0.6080109826016594 0.9 0.1 0.6404925492453546 0.3595074507546454 0.9 0.1 0.8238539000289711 0.176146099971029 0.9 0.1 0.554219845362329 0.445780154637671 0.9 0.1 0.8085226677690691 0.1914773322309309 0.9 0.1 0.5729634199079849 0.4270365800920151 0.9 0.1 0.5946272204307065 0.4053727795692936 0.9 0.1 0.7747609980379242 0.2252390019620758 0.9 0.1 0.7430903583895728 0.2569096416104272 0.9 0.1 0.5985872323160514 0.4014127676839487 0.9 0.1 0.8865980212912722 0.1134019787087279 0.9 0.1</probabilities>
		</cpt>
		<cpt id="FlyerCarapace2">
			<state id="Absent" />
			<state id="Present" />
			<parents>TimePeriod FlyerCarapace1 Lair</parents>
			<probabilities>0.8918101125435306 0.1081898874564694 0.9 0.1 0.8002991315723724 0.1997008684276276 0.9 0.1 0.3954456901020318 0.6045543098979682 0.9 0.1 0.6482276945216491 0.351772305478351 0.9 0.1 0.09965210018367532 0.9003478998163247 0.9 0.1 0.6590994159226814 0.3409005840773186 0.9 0.1 0.3170619787527778 0.6829380212472223 0.9 0.1 0.6752286109957384 0.3247713890042616 0.9 0.1 0.4339355450690128 0.5660644549309873 0.9 0.1 0.9416874512304494 0.05831254876955062 0.9 0.1 0.1965158333803039 0.8034841666196961 0.9 0.1 0.8025637175925655 0.1974362824074345 0.9 0.1 0.6818267713028123 0.3181732286971876 0.9 0.1 0.1815698647427599 0.81843013525724 0.9 0.1 0.1572790307655599 0.8427209692344401 0.3953462139574485 0.6046537860425516 0.217892062865878 0.782107937134122 0.6248803068730511 0.375119693126949 0.5514017289255504 0.4485982710744497 0.7944851929288248 0.2055148070711752 0.3010751555031932 0.6989248444968067 0.585214832977808 0.4147851670221922 0.4324295814553072 0.5675704185446928 0.6377343103454217 0.3622656896545783 0.8144206908194009 0.1855793091805991 0.6169330134600904 0.3830669865399096 0.8544888748552679 0.1455111251447321 0.2191223273899745 0.7808776726100256 0.6712912268520455 0.3287087731479546 0.5253526549374783 0.4746473450625218 0.9 0.1 0.2374830515736834 0.7625169484263166 0.9 0.1 0.9577770375305179 0.0422229624694822 0.9 0.1 0.3235054839409835 0.6764945160590166 0.9 0.1 0.204501349870744 0.795498650129256 0.9 0.1 0.8421958574281532 0.1578041425718469 0.9 0.1 0.5405908878494563 0.4594091121505438 0.9 0.1 0.7058157229390093 0.2941842770609907 0.9 0.1 0.6867695271149699 0.3132304728850301 0.9 0.1 0.5415608363895307 0.4584391636104693 0.9 0.1 0.5683252434223158 0.4316747565776842 0.9 0.1 0.4506044481527342 0.5493955518472659 0.9 0.1 0.8474066376347116 0.1525933623652885 0.9 0.1 0.8702688983688174 0.1297311016311827 0.9 0.1 0.9094824565715357 0.09051754342846419 0.9 0.1 0.8467528104713652 0.1532471895286348 0.9 0.1 0.4968371474798581 0.5031628525201419 0.9 0.1 0.70842856161264 0.2915714383873599 0.9 0.1 0.478726313278332 0.5212736867216681 0.9 0.1 0.4629908040433056 0.5370091959566945 0.9 0.1 0.8624171986581942 0.1375828013418059 0.9 0.1 0.9098383978301918 0.09016160216980826 0.9 0.1 0.8532742712236213 0.1467257287763786 0.9 0.1 0.648040873219026 0.3519591267809739 0.9 0.1 0.756867457727097 0.243132542272903 0.9 0.1 0.8070148458223597 0.1929851541776403 0.9 0.1 0.5172636675713347 0.4827363324286652 0.9 0.1 0.7613848246926795 0.2386151753073205 0.9 0.1 0.8902949994879403 0.1097050005120596</probabilities>
		</cpt>
		<cpt id="FlyerCarapace3">
			<state id="Absent" />
			<state id="Present" />
			<parents>TimePeriod FlyerCarapace2 Hive</parents>
			<probabilities>0.443991917129843 0.5560080828701569 0.9 0.1 0.4856890982029753 0.5143109017970247 0.9 0.1 0.5622078877389063 0.4377921122610938 0.9 0.1 0.8606322125973978 0.1393677874026023 0.9 0.1 0.5570496370185356 0.4429503629814644 0.9 0.1 0.5357870823002551 0.4642129176997449 0.9 0.1 0.5579613888479218 0.4420386111520783 0.9 0.1 0.3838647200030011 0.6161352799969988 0.9 0.1 0.9073839883902842 0.09261601160971576 0.9 0.1 0.2781064102740032 0.7218935897259968 0.9 0.1 0.157611689507564 0.8423883104924361 0.9 0.1 0.4913847588341757 0.5086152411658244 0.9 0.1 0.5580019911308863 0.4419980088691136 0.9 0.1 0.5320448951987746 0.4679551048012254 0.9 0.1 0.6978619849466484 0.3021380150533515 0.9 0.1 0.3730485633288687 0.6269514366711313 0.9 0.1 0.7469026803132184 0.2530973196867815 0.9 0.1 0.6244544366033631 0.375545563396637 0.9 0.1 0.5231681691104496 0.4768318308895503 0.9 0.1 0.6267651869936505 0.3732348130063495 0.9 0.1 0.8671258726797519 0.132874127320248 0.9 0.1 0.6399110791158008 0.3600889208841992 0.9 0.1 0.8441800142525211 0.155819985747479 0.9 0.1 0.7101883314681584 0.2898116685318416 0.9 0.1 0.5968895966387723 0.4031104033612277 0.9 0.1 0.7358389125335714 0.2641610874664286 0.9 0.1 0.4376846327287127 0.5623153672712872 0.9 0.1 0.8316626833333948 0.1683373166666053 0.9 0.1 0.3030622501018712 0.6969377498981288 0.9 0.1 0.7931118386430885 0.2068881613569115 0.9 0.1 0.9662303409494174 0.03376965905058269 0.9 0.1 0.4050337896036168 0.5949662103963833 0.9 0.1 0.6039431176919575 0.3960568823080425 0.9 0.1 0.7267540320072817 0.2732459679927182 0.9 0.1 0.8159833058082106 0.1840166941917895 0.9 0.1 0.5310986016938701 0.46890139830613 0.9 0.1 0.6360446062981103 0.3639553937018896 0.9 0.1 0.5183490272281881 0.4816509727718119 0.9 0.1 0.6093638791111016 0.3906361208888985 0.9 0.1 0.5534508847793326 0.4465491152206675 0.9 0.1 0.7440067381896555 0.2559932618103446 0.9 0.1 0.505896187044137 0.4941038129558629 0.9 0.1 0.7044844653296764 0.2955155346703236 0.9 0.1 0.9167814181034176 0.08321858189658229 0.9 0.1 0.8321814427321468 0.1678185572678533 0.9 0.1 0.7485961276980203 0.2514038723019798 0.9 0.1 0.8814560995765279 0.118543900423472 0.9 0.1 0.8164313809105652 0.1835686190894348 0.9 0.1 0.7023765672069727 0.2976234327930272 0.9 0.1 0.726442107871455 0.2735578921285451 0.9 0.1</probabilities>
		</cpt>
	</nodes>
	<extensions>
		<genie version="1.0" app="GeNIe 2.0.5079.0" name="Network1" faultnameformat="nodestate">
			<node id="EvolutionChamber">
				<name>EvolutionChamber</name>
				<interior color="e5f6f7" />
				<outline color="000080" />
				<font color="000000" name="Arial" size="8" />
				<position>529 287 626 347</position>
			</node>
			<node id="SporeColony">
				<name>SporeColony</name>
				<interior color="e5f6f7" />
				<outline color="000080" />
				<font color="000000" name="Arial" size="8" />
				<position>501 381 576 427</position>
			</node>
			<node id="CreepColony">
				<name>CreepColony</name>
				<interior color="e5f6f7" />
				<outline color="000080" />
				<font color="000000" name="Arial" size="8" />
				<position>617 353 692 399</position>
			</node>
			<node id="SunkenColony">
				<name>SunkenColony</name>
				<interior color="e5f6f7" />
				<outline color="000080" />
				<font color="000000" name="Arial" size="8" />
				<position>582 440 662 490</position>
			</node>
			<node id="SpawningPool">
				<name>SpawningPool</name>
				<interior color="e5f6f7" />
				<outline color="000080" />
				<font color="000000" name="Arial" size="8" />
				<position>822 355 902 405</position>
			</node>
			<node id="Extractor">
				<name>Extractor</name>
				<interior color="e5f6f7" />
				<outline color="000080" />
				<font color="000000" name="Arial" size="8" />
				<position>872 309 931 345</position>
			</node>
			<node id="HydraliskDen">
				<name>HydraliskDen</name>
				<interior color="e5f6f7" />
				<outline color="000080" />
				<font color="000000" name="Arial" size="8" />
				<position>879 424 954 470</position>
			</node>
			<node id="Lair">
				<name>Lair</name>
				<interior color="e5f6f7" />
				<outline color="000080" />
				<font color="000000" name="Arial" size="8" />
				<position>734 317 774 342</position>
			</node>
			<node id="Hive">
				<name>Hive</name>
				<interior color="e5f6f7" />
				<outline color="000080" />
				<font color="000000" name="Arial" size="8" />
				<position>699 652 740 677</position>
			</node>
			<node id="QueensNest">
				<name>QueensNest</name>
				<interior color="e5f6f7" />
				<outline color="000080" />
				<font color="000000" name="Arial" size="8" />
				<position>590 550 663 595</position>
			</node>
			<node id="DefilerMound">
				<name>DefilerMound</name>
				<interior color="e5f6f7" />
				<outline color="000080" />
				<font color="000000" name="Arial" size="8" />
				<position>580 716 655 762</position>
			</node>
			<node id="NydusCanal">
				<name>NydusCanal</name>
				<interior color="e5f6f7" />
				<outline color="000080" />
				<font color="000000" name="Arial" size="8" />
				<position>560 645 631 689</position>
			</node>
			<node id="UltraliskCavern">
				<name>UltraliskCavern</name>
				<interior color="e5f6f7" />
				<outline color="000080" />
				<font color="000000" name="Arial" size="8" />
				<position>763 706 854 762</position>
			</node>
			<node id="Spire">
				<name>Spire</name>
				<interior color="e5f6f7" />
				<outline color="000080" />
				<font color="000000" name="Arial" size="8" />
				<position>812 555 855 581</position>
			</node>
			<node id="GreaterSpire">
				<name>GreaterSpire</name>
				<interior color="e5f6f7" />
				<outline color="000080" />
				<font color="000000" name="Arial" size="8" />
				<position>868 695 943 741</position>
			</node>
			<node id="Zergling">
				<name>Zergling</name>
				<interior color="99cc00" />
				<outline color="000080" />
				<font color="000000" name="Arial" size="8" />
				<position>914 261 968 294</position>
			</node>
			<node id="Hydralisk">
				<name>Hydralisk</name>
				<interior color="99cc00" />
				<outline color="000080" />
				<font color="000000" name="Arial" size="8" />
				<position>939 480 998 516</position>
			</node>
			<node id="Lurker">
				<name>Lurker</name>
				<interior color="99cc00" />
				<outline color="000080" />
				<font color="000000" name="Arial" size="8" />
				<position>885 501 933 531</position>
			</node>
			<node id="Queen">
				<name>Queen</name>
				<interior color="99cc00" />
				<outline color="000080" />
				<font color="000000" name="Arial" size="8" />
				<position>516 514 565 544</position>
			</node>
			<node id="Defiler">
				<name>Defiler</name>
				<interior color="99cc00" />
				<outline color="000080" />
				<font color="000000" name="Arial" size="8" />
				<position>468 706 516 736</position>
			</node>
			<node id="Mutalisk">
				<name>Mutalisk</name>
				<interior color="99cc00" />
				<outline color="000080" />
				<font color="000000" name="Arial" size="8" />
				<position>920 571 974 604</position>
			</node>
			<node id="Scourge">
				<name>Scourge</name>
				<interior color="99cc00" />
				<outline color="000080" />
				<font color="000000" name="Arial" size="8" />
				<position>960 523 1016 558</position>
			</node>
			<node id="Guardian">
				<name>Guardian</name>
				<interior color="99cc00" />
				<outline color="000080" />
				<font color="000000" name="Arial" size="8" />
				<position>996 613 1055 649</position>
			</node>
			<node id="Devourer">
				<name>Devourer</name>
				<interior color="99cc00" />
				<outline color="000080" />
				<font color="000000" name="Arial" size="8" />
				<position>965 701 1024 737</position>
			</node>
			<node id="Ultralisk">
				<name>Ultralisk</name>
				<interior color="99cc00" />
				<outline color="000080" />
				<font color="000000" name="Arial" size="8" />
				<position>784 804 836 836</position>
			</node>
			<node id="TimePeriod">
				<name>TimePeriod</name>
				<interior color="ffcc00" />
				<outline color="000080" />
				<font color="000000" name="Arial" size="8" />
				<position>714 217 785 261</position>
			</node>
			<node id="MeleeAttacks1">
				<name>MeleeAttacks1</name>
				<interior color="ff99cc" />
				<outline color="000080" />
				<font color="000000" name="Arial" size="8" />
				<position>397 184 493 231</position>
			</node>
			<node id="MissileAttacks1">
				<name>MissileAttacks1</name>
				<interior color="ff99cc" />
				<outline color="000080" />
				<font color="000000" name="Arial" size="8" />
				<position>320 218 420 268</position>
			</node>
			<node id="Carapace1">
				<name>Carapace1</name>
				<interior color="ff99cc" />
				<outline color="000080" />
				<font color="000000" name="Arial" size="8" />
				<position>308 285 389 323</position>
			</node>
			<node id="SpawnBroodlings">
				<name>SpawnBroodlings</name>
				<interior color="ff99cc" />
				<outline color="000080" />
				<font color="000000" name="Arial" size="8" />
				<position>249 493 348 549</position>
			</node>
			<node id="Ensnare">
				<name>Ensnare</name>
				<interior color="ff99cc" />
				<outline color="000080" />
				<font color="000000" name="Arial" size="8" />
				<position>244 559 300 594</position>
			</node>
			<node id="Plague">
				<name>Plague</name>
				<interior color="ff99cc" />
				<outline color="000080" />
				<font color="000000" name="Arial" size="8" />
				<position>499 812 548 842</position>
			</node>
			<node id="Burrowing">
				<name>Burrowing</name>
				<interior color="ff99cc" />
				<outline color="000080" />
				<font color="000000" name="Arial" size="8" />
				<position>711 122 789 154</position>
			</node>
			<node id="VentralSacs">
				<name>VentralSacs</name>
				<interior color="ff99cc" />
				<outline color="000080" />
				<font color="000000" name="Arial" size="8" />
				<position>962 77 1035 122</position>
			</node>
			<node id="FlyerAttacks1">
				<name>FlyerAttacks1</name>
				<interior color="ff99cc" />
				<outline color="000080" />
				<font color="000000" name="Arial" size="8" />
				<position>1139 703 1229 748</position>
			</node>
			<node id="FlyerCarapace1">
				<name>FlyerCarapace1</name>
				<interior color="ff99cc" />
				<outline color="000080" />
				<font color="000000" name="Arial" size="8" />
				<position>1126 781 1225 832</position>
			</node>
			<node id="MetabolicBoost">
				<name>MetabolicBoost</name>
				<interior color="ff99cc" />
				<outline color="000080" />
				<font color="000000" name="Arial" size="8" />
				<position>1142 321 1226 373</position>
			</node>
			<node id="AdrenalGlands">
				<name>AdrenalGlands</name>
				<interior color="ff99cc" />
				<outline color="000080" />
				<font color="000000" name="Arial" size="8" />
				<position>1185 375 1269 427</position>
			</node>
			<node id="LurkerAspect">
				<name>LurkerAspect</name>
				<interior color="ff99cc" />
				<outline color="000080" />
				<font color="000000" name="Arial" size="8" />
				<position>1191 543 1267 590</position>
			</node>
			<node id="GroovedSpines">
				<name>GroovedSpines</name>
				<interior color="ff99cc" />
				<outline color="000080" />
				<font color="000000" name="Arial" size="8" />
				<position>1213 471 1299 524</position>
			</node>
			<node id="Carapace2">
				<name>Carapace2</name>
				<interior color="ff99cc" />
				<outline color="000080" />
				<font color="000000" name="Arial" size="8" />
				<position>208 275 289 313</position>
			</node>
			<node id="Carapace3">
				<name>Carapace3</name>
				<interior color="ff99cc" />
				<outline color="000080" />
				<font color="000000" name="Arial" size="8" />
				<position>115 265 196 303</position>
			</node>
			<node id="MissileAttacks2">
				<name>MissileAttacks2</name>
				<interior color="ff99cc" />
				<outline color="000080" />
				<font color="000000" name="Arial" size="8" />
				<position>221 198 321 248</position>
			</node>
			<node id="MissileAttacks3">
				<name>MissileAttacks3</name>
				<interior color="ff99cc" />
				<outline color="000080" />
				<font color="000000" name="Arial" size="8" />
				<position>104 187 204 237</position>
			</node>
			<node id="MeleeAttacks2">
				<name>MeleeAttacks2</name>
				<interior color="ff99cc" />
				<outline color="000080" />
				<font color="000000" name="Arial" size="8" />
				<position>289 141 385 188</position>
			</node>
			<node id="MeleeAttacks3">
				<name>MeleeAttacks3</name>
				<interior color="ff99cc" />
				<outline color="000080" />
				<font color="000000" name="Arial" size="8" />
				<position>176 104 272 151</position>
			</node>
			<node id="FlyerAttacks2">
				<name>FlyerAttacks2</name>
				<interior color="ff99cc" />
				<outline color="000080" />
				<font color="000000" name="Arial" size="8" />
				<position>1244 709 1334 754</position>
			</node>
			<node id="FlyerAttacks3">
				<name>FlyerAttacks3</name>
				<interior color="ff99cc" />
				<outline color="000080" />
				<font color="000000" name="Arial" size="8" />
				<position>1354 710 1444 755</position>
			</node>
			<node id="FlyerCarapace2">
				<name>FlyerCarapace2</name>
				<interior color="ff99cc" />
				<outline color="000080" />
				<font color="000000" name="Arial" size="8" />
				<position>1234 783 1333 834</position>
			</node>
			<node id="FlyerCarapace3">
				<name>FlyerCarapace3</name>
				<interior color="ff99cc" />
				<outline color="000080" />
				<font color="000000" name="Arial" size="8" />
				<position>1350 790 1449 841</position>
			</node>
		</genie>
	</extensions>
</smile>
