<?xml version="1.0" encoding="ISO-8859-1"?>
<smile version="1.0" id="Network1" numsamples="1000" discsamples="10000">
	<nodes>
		<cpt id="TimePeriod">
			<state id="Period1" />
			<state id="Period2" />
			<state id="Period3" />
			<state id="Period4" />
			<state id="Period5" />
			<state id="Period6" />
			<state id="Period7" />
			<state id="Period8" />
			<state id="Period9" />
			<state id="Period10" />
			<state id="Period11" />
			<state id="Period12" />
			<state id="Period13" />
			<state id="Period14" />
			<state id="Period15" />
			<state id="Period16" />
			<state id="Period17" />
			<state id="Period18" />
			<state id="Period19" />
			<state id="Period20" />
			<state id="Period21" />
			<state id="Period22" />
			<state id="Period23" />
			<state id="Period24" />
			<state id="Period25" />
			<probabilities>0.04050600885515499 0.04050600885515499 0.04050600885515499 0.04050600885515499 0.04050600885515499 0.04050600885515499 0.04050600885515499 0.04050600885515499 0.04050600885515499 0.04050600885515499 0.04050600885515499 0.04050600885515499 0.04050600885515499 0.04050600885515499 0.04050600885515499 0.04050600885515499 0.04050600885515499 0.04050600885515499 0.04050600885515499 0.03924098671726756 0.03924098671726756 0.03924098671726756 0.03924098671726756 0.03671094244149274 0.03671094244149274</probabilities>
		</cpt>
		<cpt id="Assimilator">
			<state id="Absent" />
			<state id="Present" />
			<parents>TimePeriod</parents>
			<probabilities>0.9984615384615386 0.001538461538461539 0.9984615384615386 0.001538461538461539 0.7676923076923077 0.2323076923076923 0.3061538461538462 0.6938461538461539 0.2446153846153846 0.7553846153846154 0.1830769230769231 0.816923076923077 0.1523076923076923 0.8476923076923077 0.1523076923076923 0.8476923076923077 0.09076923076923078 0.9092307692307693 0.0753846153846154 0.9246153846153847 0.0753846153846154 0.9246153846153847 0.0753846153846154 0.9246153846153847 0.0753846153846154 0.9246153846153847 0.0753846153846154 0.9246153846153847 0.0753846153846154 0.9246153846153847 0.0753846153846154 0.9246153846153847 0.0753846153846154 0.9246153846153847 0.0753846153846154 0.9246153846153847 0.0753846153846154 0.9246153846153847 0.07777777777777778 0.9222222222222222 0.07777777777777778 0.9222222222222222 0.07777777777777778 0.9222222222222222 0.07777777777777778 0.9222222222222222 0.08305084745762713 0.9169491525423729 0.04915254237288135 0.9508474576271186</probabilities>
		</cpt>
		<cpt id="Pylon">
			<state id="Absent" />
			<state id="Present" />
			<parents>TimePeriod</parents>
			<probabilities>0.9984615384615386 0.001538461538461539 0.0753846153846154 0.9246153846153847 0.06000000000000001 0.9400000000000001 0.06000000000000001 0.9400000000000001 0.06000000000000001 0.9400000000000001 0.06000000000000001 0.9400000000000001 0.06000000000000001 0.9400000000000001 0.06000000000000001 0.9400000000000001 0.06000000000000001 0.9400000000000001 0.06000000000000001 0.9400000000000001 0.06000000000000001 0.9400000000000001 0.06000000000000001 0.9400000000000001 0.06000000000000001 0.9400000000000001 0.06000000000000001 0.9400000000000001 0.04461538461538462 0.9553846153846155 0.04461538461538462 0.9553846153846155 0.04461538461538462 0.9553846153846155 0.04461538461538462 0.9553846153846155 0.04461538461538462 0.9553846153846155 0.04603174603174603 0.9539682539682539 0.04603174603174603 0.9539682539682539 0.04603174603174603 0.9539682539682539 0.04603174603174603 0.9539682539682539 0.04915254237288135 0.9508474576271186 0.01525423728813559 0.9847457627118644</probabilities>
		</cpt>
		<cpt id="Gateway">
			<state id="Absent" />
			<state id="Present" />
			<parents>Pylon TimePeriod</parents>
			<probabilities>0.9984615384615386 0.001538461538461539 0.9800000000000001 0.02 0.975 0.025 0.975 0.025 0.975 0.025 0.975 0.025 0.975 0.025 0.975 0.025 0.975 0.025 0.975 0.025 0.975 0.025 0.975 0.025 0.975 0.025 0.975 0.025 0.9666666666666666 0.03333333333333333 0.9666666666666666 0.03333333333333333 0.9666666666666666 0.03333333333333333 0.9666666666666666 0.03333333333333333 0.9666666666666666 0.03333333333333333 0.9666666666666666 0.03333333333333333 0.9666666666666666 0.03333333333333333 0.9666666666666666 0.03333333333333333 0.9666666666666666 0.03333333333333333 0.9666666666666666 0.03333333333333333 0.9 0.1 0.9 0.1 0.3262295081967213 0.6737704918032788 0.07903225806451614 0.9209677419354839 0.04677419354838709 0.9532258064516129 0.03064516129032258 0.9693548387096774 0.03064516129032258 0.9693548387096774 0.03064516129032258 0.9693548387096774 0.03064516129032258 0.9693548387096774 0.03064516129032258 0.9693548387096774 0.03064516129032258 0.9693548387096774 0.03064516129032258 0.9693548387096774 0.03064516129032258 0.9693548387096774 0.03064516129032258 0.9693548387096774 0.03064516129032258 0.9693548387096774 0.04603174603174603 0.9539682539682539 0.04603174603174603 0.9539682539682539 0.03015873015873016 0.9698412698412698 0.03015873015873016 0.9698412698412698 0.03015873015873016 0.9698412698412698 0.03114754098360656 0.9688524590163935 0.03114754098360656 0.9688524590163935 0.03114754098360656 0.9688524590163935 0.03114754098360656 0.9688524590163935 0.03333333333333333 0.9666666666666667 0.03220338983050847 0.9677966101694916</probabilities>
		</cpt>
		<cpt id="Zealot">
			<state id="Absent" />
			<state id="Present" />
			<parents>Gateway TimePeriod</parents>
			<probabilities>0.9984615384615386 0.001538461538461539 0.9958333333333332 0.004166666666666667 0.9875 0.0125 0.9833333333333334 0.01666666666666667 0.9800000000000001 0.02 0.9800000000000001 0.02 0.9800000000000001 0.02 0.9800000000000001 0.02 0.9800000000000001 0.02 0.9800000000000001 0.02 0.9800000000000001 0.02 0.9800000000000001 0.02 0.9800000000000001 0.02 0.9800000000000001 0.02 0.9800000000000001 0.02 0.9800000000000001 0.02 0.975 0.025 0.975 0.025 0.975 0.025 0.975 0.025 0.975 0.025 0.975 0.025 0.975 0.025 0.975 0.025 0.95 0.05 0.9 0.1 0.9976190476190475 0.002380952380952381 0.4810344827586207 0.5189655172413793 0.09833333333333334 0.9016666666666667 0.08032786885245903 0.9196721311475411 0.04754098360655738 0.9524590163934427 0.04754098360655738 0.9524590163934427 0.04754098360655738 0.9524590163934427 0.04754098360655738 0.9524590163934427 0.04754098360655738 0.9524590163934427 0.03114754098360656 0.9688524590163935 0.03114754098360656 0.9688524590163935 0.03114754098360656 0.9688524590163935 0.03114754098360656 0.9688524590163935 0.03114754098360656 0.9688524590163935 0.03114754098360656 0.9688524590163935 0.04677419354838709 0.9532258064516129 0.03064516129032258 0.9693548387096774 0.03064516129032258 0.9693548387096774 0.03166666666666666 0.9683333333333334 0.03166666666666666 0.9683333333333334 0.03166666666666666 0.9683333333333334 0.03166666666666666 0.9683333333333334 0.03392857142857143 0.9660714285714286 0.03275862068965517 0.9672413793103448</probabilities>
		</cpt>
		<cpt id="CyberCore">
			<state id="Absent" />
			<state id="Present" />
			<parents>Gateway TimePeriod</parents>
			<probabilities>0.9984615384615386 0.001538461538461539 0.9958333333333332 0.004166666666666667 0.9875 0.0125 0.9833333333333334 0.01666666666666667 0.9800000000000001 0.02 0.9800000000000001 0.02 0.9800000000000001 0.02 0.9800000000000001 0.02 0.9800000000000001 0.02 0.9800000000000001 0.02 0.9800000000000001 0.02 0.9800000000000001 0.02 0.9800000000000001 0.02 0.9800000000000001 0.02 0.9800000000000001 0.02 0.9800000000000001 0.02 0.975 0.025 0.975 0.025 0.975 0.025 0.975 0.025 0.975 0.025 0.975 0.025 0.975 0.025 0.975 0.025 0.95 0.05 0.9 0.1 0.9976190476190475 0.002380952380952381 0.946551724137931 0.05344827586206897 0.4983333333333333 0.5016666666666667 0.2606557377049181 0.739344262295082 0.1295081967213115 0.8704918032786886 0.09672131147540984 0.9032786885245903 0.09672131147540984 0.9032786885245903 0.04754098360655738 0.9524590163934427 0.04754098360655738 0.9524590163934427 0.01475409836065574 0.9852459016393443 0.01475409836065574 0.9852459016393443 0.01475409836065574 0.9852459016393443 0.01475409836065574 0.9852459016393443 0.01475409836065574 0.9852459016393443 0.01475409836065574 0.9852459016393443 0.03064516129032258 0.9693548387096774 0.03064516129032258 0.9693548387096774 0.03064516129032258 0.9693548387096774 0.03166666666666666 0.9683333333333334 0.03166666666666666 0.9683333333333334 0.03166666666666666 0.9683333333333334 0.03166666666666666 0.9683333333333334 0.03392857142857143 0.9660714285714286 0.03275862068965517 0.9672413793103448</probabilities>
		</cpt>
		<cpt id="CitadelOfAdun">
			<state id="Absent" />
			<state id="Present" />
			<parents>CyberCore Assimilator TimePeriod</parents>
			<probabilities>0.9984615384615386 0.001538461538461539 0.9984615384615386 0.001538461538461539 0.9979591836734693 0.002040816326530612 0.994736842105263 0.005263157894736842 0.9933333333333333 0.006666666666666667 0.990909090909091 0.009090909090909092 0.9900000000000001 0.01 0.9900000000000001 0.01 0.9833333333333334 0.01666666666666667 0.9800000000000001 0.02 0.9800000000000001 0.02 0.9800000000000001 0.02 0.9800000000000001 0.02 0.9800000000000001 0.02 0.9800000000000001 0.02 0.9800000000000001 0.02 0.9800000000000001 0.02 0.9800000000000001 0.02 0.9800000000000001 0.02 0.9800000000000001 0.02 0.9800000000000001 0.02 0.9800000000000001 0.02 0.9800000000000001 0.02 0.9800000000000001 0.02 0.9666666666666666 0.03333333333333333 0.9 0.1 0.9 0.1 0.9928571428571429 0.007142857142857143 0.9941176470588234 0.005882352941176471 0.9833333333333334 0.01666666666666667 0.95 0.05 0.9 0.1 0.9 0.1 0.95 0.05 0.9666666666666666 0.03333333333333333 0.9 0.1 0.9 0.1 0.9 0.1 0.9 0.1 0.9 0.1 0.9 0.1 0.9 0.1 0.9 0.1 0.9 0.1 0.9 0.1 0.9 0.1 0.9 0.1 0.9 0.1 0.9 0.1 0.9 0.1 0.9 0.1 0.9 0.1 0.95 0.05 0.95 0.05 0.95 0.05 0.95 0.05 0.9 0.1 0.9 0.1 0.9 0.1 0.9 0.1 0.9 0.1 0.9 0.1 0.9 0.1 0.9 0.1 0.9 0.1 0.9 0.1 0.9 0.1 0.9 0.1 0.9 0.1 0.9 0.1 0.9 0.1 0.9 0.1 0.9 0.1 0.9 0.1 0.9 0.1 0.9 0.1 0.9 0.1 0.9666666666666666 0.03333333333333333 0.9966666666666666 0.003333333333333334 0.9755555555555555 0.02444444444444445 0.9226415094339622 0.07735849056603773 0.8553571428571428 0.1446428571428571 0.8196428571428571 0.1803571428571428 0.8288135593220338 0.1711864406779661 0.7610169491525424 0.2389830508474576 0.719672131147541 0.280327868852459 0.637704918032787 0.3622950819672132 0.5557377049180328 0.4442622950819672 0.5065573770491804 0.4934426229508197 0.4245901639344262 0.5754098360655738 0.3590163934426229 0.6409836065573771 0.3098360655737705 0.6901639344262296 0.2606557377049181 0.739344262295082 0.2442622950819672 0.7557377049180328 0.2186440677966102 0.7813559322033898 0.2186440677966102 0.7813559322033898 0.1508474576271187 0.8491525423728814 0.1338983050847458 0.8661016949152542 0.0890909090909091 0.9109090909090909 0.05087719298245614 0.9491228070175438</probabilities>
		</cpt>
		<cpt id="TemplarArchives">
			<state id="Absent" />
			<state id="Present" />
			<parents>CitadelOfAdun TimePeriod</parents>
			<probabilities>0.9984615384615386 0.001538461538461539 0.9984615384615386 0.001538461538461539 0.9984615384615386 0.001538461538461539 0.9984615384615386 0.001538461538461539 0.9984375 0.0015625 0.9983606557377049 0.001639344262295082 0.9982456140350876 0.001754385964912281 0.9981818181818181 0.001818181818181818 0.9981818181818181 0.001818181818181818 0.9980392156862745 0.00196078431372549 0.9979166666666666 0.002083333333333333 0.9976744186046511 0.002325581395348837 0.9973684210526315 0.002631578947368421 0.9971428571428571 0.002857142857142857 0.9966666666666666 0.003333333333333334 0.9961538461538462 0.003846153846153846 0.9956521739130434 0.004347826086956522 0.995 0.005000000000000001 0.994736842105263 0.005263157894736842 0.9941176470588234 0.005882352941176471 0.9941176470588234 0.005882352941176471 0.9923076923076923 0.007692307692307693 0.9916666666666667 0.008333333333333333 0.9888888888888889 0.01111111111111111 0.9800000000000001 0.02 0.9 0.1 0.9 0.1 0.9 0.1 0.9 0.1 0.95 0.05 0.58 0.42 0.4333333333333333 0.5666666666666665 0.4454545454545455 0.5545454545454546 0.1727272727272727 0.8272727272727273 0.3266666666666667 0.6733333333333333 0.2166666666666667 0.7833333333333332 0.3869565217391304 0.6130434782608696 0.425 0.5750000000000001 0.3838709677419355 0.6161290322580646 0.3305555555555556 0.6694444444444444 0.3475 0.6525000000000001 0.3697674418604651 0.6302325581395349 0.2804347826086956 0.7195652173913044 0.1893617021276596 0.8106382978723404 0.1893617021276596 0.8106382978723404 0.125531914893617 0.874468085106383 0.1156862745098039 0.8843137254901961 0.09423076923076924 0.9057692307692309 0.1156862745098039 0.8843137254901961 0.05272727272727272 0.9472727272727273</probabilities>
		</cpt>
		<cpt id="DarkTemplar">
			<state id="Absent" />
			<state id="Present" />
			<parents>TemplarArchives TimePeriod</parents>
			<probabilities>0.9984615384615386 0.001538461538461539 0.9984615384615386 0.001538461538461539 0.9984615384615386 0.001538461538461539 0.9984615384615386 0.001538461538461539 0.9984615384615386 0.001538461538461539 0.9984126984126983 0.001587301587301587 0.9983333333333333 0.001666666666666667 0.9983050847457627 0.001694915254237288 0.9982142857142856 0.001785714285714286 0.9981818181818181 0.001818181818181818 0.9980392156862745 0.00196078431372549 0.9980392156862745 0.00196078431372549 0.9979591836734693 0.002040816326530612 0.9978260869565216 0.002173913043478261 0.9975609756097561 0.002439024390243903 0.9974358974358973 0.002564102564102564 0.9973684210526315 0.002631578947368421 0.996875 0.003125 0.9962962962962962 0.003703703703703704 0.996 0.004 0.9954545454545454 0.004545454545454546 0.9944444444444444 0.005555555555555556 0.99375 0.00625 0.9928571428571429 0.007142857142857143 0.9857142857142858 0.01428571428571429 0.9 0.1 0.9 0.1 0.9 0.1 0.9 0.1 0.9 0.1 0.9666666666666666 0.03333333333333333 0.6499999999999999 0.35 0.4142857142857143 0.5857142857142856 0.19 0.8100000000000001 0.08181818181818182 0.9181818181818182 0.26 0.74 0.1266666666666667 0.8733333333333333 0.2294117647058823 0.7705882352941176 0.345 0.655 0.436 0.564 0.4037037037037037 0.5962962962962963 0.3178571428571428 0.6821428571428572 0.4382352941176471 0.5617647058823529 0.4333333333333333 0.5666666666666667 0.382051282051282 0.617948717948718 0.3309523809523809 0.669047619047619 0.3239130434782609 0.6760869565217391 0.3520833333333333 0.6479166666666667 0.367391304347826 0.6326086956521739 0.2622641509433962 0.7377358490566037</probabilities>
		</cpt>
		<cpt id="RoboticsFacility">
			<state id="Absent" />
			<state id="Present" />
			<parents>CyberCore Assimilator TimePeriod</parents>
			<probabilities>0.9984615384615386 0.001538461538461539 0.9984615384615386 0.001538461538461539 0.9979591836734693 0.002040816326530612 0.994736842105263 0.005263157894736842 0.9933333333333333 0.006666666666666667 0.990909090909091 0.009090909090909092 0.9900000000000001 0.01 0.9900000000000001 0.01 0.9833333333333334 0.01666666666666667 0.9800000000000001 0.02 0.9800000000000001 0.02 0.9800000000000001 0.02 0.9800000000000001 0.02 0.9800000000000001 0.02 0.9800000000000001 0.02 0.9800000000000001 0.02 0.9800000000000001 0.02 0.9800000000000001 0.02 0.9800000000000001 0.02 0.9800000000000001 0.02 0.9800000000000001 0.02 0.9800000000000001 0.02 0.9800000000000001 0.02 0.9800000000000001 0.02 0.9666666666666666 0.03333333333333333 0.9 0.1 0.9 0.1 0.9928571428571429 0.007142857142857143 0.9941176470588234 0.005882352941176471 0.9833333333333334 0.01666666666666667 0.95 0.05 0.9 0.1 0.9 0.1 0.95 0.05 0.9666666666666666 0.03333333333333333 0.9 0.1 0.9 0.1 0.9 0.1 0.9 0.1 0.9 0.1 0.9 0.1 0.9 0.1 0.9 0.1 0.9 0.1 0.9 0.1 0.9 0.1 0.9 0.1 0.9 0.1 0.9 0.1 0.9 0.1 0.9 0.1 0.9 0.1 0.95 0.05 0.95 0.05 0.95 0.05 0.95 0.05 0.9 0.1 0.9 0.1 0.9 0.1 0.9 0.1 0.9 0.1 0.9 0.1 0.9 0.1 0.9 0.1 0.9 0.1 0.9 0.1 0.9 0.1 0.9 0.1 0.9 0.1 0.9 0.1 0.9 0.1 0.9 0.1 0.9 0.1 0.9 0.1 0.9 0.1 0.9 0.1 0.9 0.1 0.9666666666666666 0.03333333333333333 0.9966666666666666 0.003333333333333334 0.9977777777777778 0.002222222222222222 0.8094339622641509 0.190566037735849 0.7303571428571428 0.2696428571428571 0.4982142857142857 0.5017857142857143 0.4559322033898305 0.5440677966101695 0.4220338983050847 0.5779661016949153 0.3590163934426229 0.6409836065573771 0.2934426229508197 0.7065573770491804 0.2442622950819672 0.7557377049180328 0.1459016393442623 0.8540983606557377 0.1131147540983607 0.8868852459016394 0.09672131147540984 0.9032786885245903 0.09672131147540984 0.9032786885245903 0.08032786885245903 0.9196721311475411 0.08032786885245903 0.9196721311475411 0.06610169491525424 0.9338983050847458 0.06610169491525424 0.9338983050847458 0.06610169491525424 0.9338983050847458 0.04915254237288135 0.9508474576271186 0.05272727272727272 0.9472727272727273 0.01578947368421053 0.9842105263157894</probabilities>
		</cpt>
		<cpt id="RoboticsSupportBay">
			<state id="Absent" />
			<state id="Present" />
			<parents>RoboticsFacility TimePeriod</parents>
			<probabilities>0.9984615384615386 0.001538461538461539 0.9984615384615386 0.001538461538461539 0.9984615384615386 0.001538461538461539 0.9984615384615386 0.001538461538461539 0.9984615384615386 0.001538461538461539 0.9981818181818181 0.001818181818181818 0.998 0.002 0.9972972972972973 0.002702702702702703 0.996969696969697 0.003030303030303031 0.996774193548387 0.003225806451612903 0.9961538461538462 0.003846153846153846 0.9954545454545454 0.004545454545454546 0.994736842105263 0.005263157894736842 0.9923076923076923 0.007692307692307693 0.990909090909091 0.009090909090909092 0.9900000000000001 0.01 0.9900000000000001 0.01 0.9888888888888889 0.01111111111111111 0.9888888888888889 0.01111111111111111 0.9875 0.0125 0.9875 0.0125 0.9875 0.0125 0.9857142857142858 0.01428571428571429 0.9857142857142858 0.01428571428571429 0.9666666666666666 0.03333333333333333 0.9 0.1 0.9 0.1 0.9 0.1 0.9 0.1 0.9 0.1 0.990909090909091 0.009090909090909092 0.99375 0.00625 0.8586206896551724 0.1413793103448276 0.5727272727272728 0.4272727272727273 0.34 0.66 0.3725000000000001 0.6275000000000001 0.4295454545454545 0.5704545454545456 0.4659574468085106 0.5340425531914894 0.5075471698113208 0.4924528301886793 0.5072727272727272 0.4927272727272727 0.5160714285714285 0.4839285714285714 0.4982142857142857 0.5017857142857143 0.507017543859649 0.4929824561403509 0.507017543859649 0.4929824561403509 0.5339285714285714 0.4660714285714286 0.5339285714285714 0.4660714285714286 0.5339285714285714 0.4660714285714286 0.5421052631578947 0.4578947368421052 0.5641509433962264 0.4358490566037736 0.4543859649122807 0.5456140350877193</probabilities>
		</cpt>
		<cpt id="Forge">
			<state id="Absent" />
			<state id="Present" />
			<parents>Pylon TimePeriod</parents>
			<probabilities>0.9984615384615386 0.001538461538461539 0.9800000000000001 0.02 0.975 0.025 0.975 0.025 0.975 0.025 0.975 0.025 0.975 0.025 0.975 0.025 0.975 0.025 0.975 0.025 0.975 0.025 0.975 0.025 0.975 0.025 0.975 0.025 0.9666666666666666 0.03333333333333333 0.9666666666666666 0.03333333333333333 0.9666666666666666 0.03333333333333333 0.9666666666666666 0.03333333333333333 0.9666666666666666 0.03333333333333333 0.9666666666666666 0.03333333333333333 0.9666666666666666 0.03333333333333333 0.9666666666666666 0.03333333333333333 0.9666666666666666 0.03333333333333333 0.9666666666666666 0.03333333333333333 0.9 0.1 0.9 0.1 0.9983606557377049 0.001639344262295082 0.9983870967741935 0.001612903225806452 0.9983870967741935 0.001612903225806452 0.9983870967741935 0.001612903225806452 0.982258064516129 0.01774193548387097 0.9338709677419355 0.06612903225806451 0.8693548387096773 0.1306451612903226 0.8209677419354838 0.1790322580645161 0.7887096774193548 0.2112903225806452 0.7403225806451612 0.2596774193548387 0.6758064516129032 0.3241935483870968 0.6435483870967742 0.3564516129032258 0.5790322580645161 0.4209677419354839 0.5222222222222221 0.4777777777777778 0.5063492063492063 0.4936507936507937 0.4904761904761904 0.5095238095238095 0.4428571428571428 0.5571428571428572 0.3793650793650793 0.6206349206349207 0.3590163934426229 0.6409836065573771 0.3098360655737705 0.6901639344262296 0.2934426229508197 0.7065573770491804 0.2770491803278689 0.7229508196721313 0.2263157894736842 0.7736842105263158 0.1508474576271187 0.8491525423728814</probabilities>
		</cpt>
		<cpt id="PhotonCannon">
			<state id="Absent" />
			<state id="Present" />
			<parents>Forge TimePeriod</parents>
			<probabilities>0.9984615384615386 0.001538461538461539 0.9984615384615386 0.001538461538461539 0.9984615384615386 0.001538461538461539 0.9984615384615386 0.001538461538461539 0.9984615384615386 0.001538461538461539 0.9984375 0.0015625 0.9983606557377049 0.001639344262295082 0.9982456140350876 0.001754385964912281 0.9981481481481481 0.001851851851851852 0.9980769230769231 0.001923076923076923 0.9979591836734693 0.002040816326530612 0.9977777777777778 0.002222222222222222 0.9976744186046511 0.002325581395348837 0.9974358974358973 0.002564102564102564 0.9971428571428571 0.002857142857142857 0.9970588235294117 0.002941176470588235 0.996969696969697 0.003030303030303031 0.9966666666666666 0.003333333333333334 0.9961538461538462 0.003846153846153846 0.9958333333333332 0.004166666666666667 0.9952380952380951 0.004761904761904762 0.995 0.005000000000000001 0.994736842105263 0.005263157894736842 0.9933333333333333 0.006666666666666667 0.9888888888888889 0.01111111111111111 0.9 0.1 0.9 0.1 0.9 0.1 0.9 0.1 0.9 0.1 0.95 0.05 0.78 0.22 0.5444444444444445 0.4555555555555555 0.1583333333333333 0.8416666666666666 0.1357142857142857 0.8642857142857142 0.2882352941176471 0.7117647058823529 0.3285714285714286 0.6714285714285714 0.2130434782608696 0.7869565217391304 0.2185185185185185 0.7814814814814814 0.2225806451612903 0.7774193548387097 0.153125 0.846875 0.1484848484848485 0.8515151515151516 0.1361111111111111 0.8638888888888889 0.1225 0.8775000000000001 0.0725 0.9275000000000001 0.1372093023255814 0.8627906976744186 0.1113636363636364 0.8886363636363637 0.1088888888888889 0.8911111111111112 0.1088888888888889 0.8911111111111112 0.05686274509803922 0.9431372549019608</probabilities>
		</cpt>
		<cpt id="Stargate">
			<state id="Absent" />
			<state id="Present" />
			<parents>CyberCore Assimilator TimePeriod</parents>
			<probabilities>0.9984615384615386 0.001538461538461539 0.9984615384615386 0.001538461538461539 0.9979591836734693 0.002040816326530612 0.994736842105263 0.005263157894736842 0.9933333333333333 0.006666666666666667 0.990909090909091 0.009090909090909092 0.9900000000000001 0.01 0.9900000000000001 0.01 0.9833333333333334 0.01666666666666667 0.9800000000000001 0.02 0.9800000000000001 0.02 0.9800000000000001 0.02 0.9800000000000001 0.02 0.9800000000000001 0.02 0.9800000000000001 0.02 0.9800000000000001 0.02 0.9800000000000001 0.02 0.9800000000000001 0.02 0.9800000000000001 0.02 0.9800000000000001 0.02 0.9800000000000001 0.02 0.9800000000000001 0.02 0.9800000000000001 0.02 0.9800000000000001 0.02 0.9666666666666666 0.03333333333333333 0.9 0.1 0.9 0.1 0.9928571428571429 0.007142857142857143 0.9941176470588234 0.005882352941176471 0.9833333333333334 0.01666666666666667 0.95 0.05 0.9 0.1 0.9 0.1 0.95 0.05 0.9666666666666666 0.03333333333333333 0.9 0.1 0.9 0.1 0.9 0.1 0.9 0.1 0.9 0.1 0.9 0.1 0.9 0.1 0.9 0.1 0.9 0.1 0.9 0.1 0.9 0.1 0.9 0.1 0.9 0.1 0.9 0.1 0.9 0.1 0.9 0.1 0.9 0.1 0.95 0.05 0.95 0.05 0.95 0.05 0.95 0.05 0.9 0.1 0.9 0.1 0.9 0.1 0.9 0.1 0.9 0.1 0.9 0.1 0.9 0.1 0.9 0.1 0.9 0.1 0.9 0.1 0.9 0.1 0.9 0.1 0.9 0.1 0.9 0.1 0.9 0.1 0.9 0.1 0.9 0.1 0.9 0.1 0.9 0.1 0.9 0.1 0.9 0.1 0.9666666666666666 0.03333333333333333 0.9966666666666666 0.003333333333333334 0.9977777777777778 0.002222222222222222 0.9981132075471697 0.001886792452830189 0.9803571428571428 0.01964285714285714 0.9803571428571428 0.01964285714285714 0.9813559322033898 0.01864406779661017 0.9813559322033898 0.01864406779661017 0.9819672131147541 0.0180327868852459 0.9819672131147541 0.0180327868852459 0.9819672131147541 0.0180327868852459 0.9819672131147541 0.0180327868852459 0.9819672131147541 0.0180327868852459 0.9819672131147541 0.0180327868852459 0.9819672131147541 0.0180327868852459 0.9819672131147541 0.0180327868852459 0.9491803278688525 0.05081967213114755 0.947457627118644 0.05254237288135594 0.947457627118644 0.05254237288135594 0.9305084745762712 0.0694915254237288 0.9305084745762712 0.0694915254237288 0.9072727272727272 0.09272727272727271 0.7877192982456139 0.212280701754386</probabilities>
		</cpt>
		<cpt id="Observatory">
			<state id="Absent" />
			<state id="Present" />
			<parents>RoboticsFacility TimePeriod</parents>
			<probabilities>0.9984615384615386 0.001538461538461539 0.9984615384615386 0.001538461538461539 0.9984615384615386 0.001538461538461539 0.9984615384615386 0.001538461538461539 0.9984615384615386 0.001538461538461539 0.9981818181818181 0.001818181818181818 0.998 0.002 0.9972972972972973 0.002702702702702703 0.996969696969697 0.003030303030303031 0.996774193548387 0.003225806451612903 0.9961538461538462 0.003846153846153846 0.9954545454545454 0.004545454545454546 0.994736842105263 0.005263157894736842 0.9923076923076923 0.007692307692307693 0.990909090909091 0.009090909090909092 0.9900000000000001 0.01 0.9900000000000001 0.01 0.9888888888888889 0.01111111111111111 0.9888888888888889 0.01111111111111111 0.9875 0.0125 0.9875 0.0125 0.9875 0.0125 0.9857142857142858 0.01428571428571429 0.9857142857142858 0.01428571428571429 0.9666666666666666 0.03333333333333333 0.9 0.1 0.9 0.1 0.9 0.1 0.9 0.1 0.9 0.1 0.990909090909091 0.009090909090909092 0.74375 0.25625 0.5137931034482759 0.4862068965517241 0.3909090909090909 0.6090909090909091 0.1114285714285714 0.8885714285714286 0.1975 0.8025000000000001 0.1340909090909091 0.865909090909091 0.1042553191489362 0.8957446808510639 0.1113207547169811 0.8886792452830189 0.07090909090909091 0.9290909090909091 0.03392857142857143 0.9660714285714286 0.01607142857142857 0.9839285714285714 0.03333333333333333 0.9666666666666667 0.01578947368421053 0.9842105263157894 0.03392857142857143 0.9660714285714286 0.03392857142857143 0.9660714285714286 0.01607142857142857 0.9839285714285714 0.01578947368421053 0.9842105263157894 0.0169811320754717 0.9830188679245283 0.01578947368421053 0.9842105263157894</probabilities>
		</cpt>
		<cpt id="ArbiterTribunal">
			<state id="Absent" />
			<state id="Present" />
			<parents>TemplarArchives Stargate TimePeriod</parents>
			<probabilities>0.9984615384615386 0.001538461538461539 0.9984615384615386 0.001538461538461539 0.9984615384615386 0.001538461538461539 0.9984615384615386 0.001538461538461539 0.9984615384615386 0.001538461538461539 0.9984126984126983 0.001587301587301587 0.9983050847457627 0.001694915254237288 0.9982758620689655 0.001724137931034483 0.9981818181818181 0.001818181818181818 0.9981481481481481 0.001851851851851852 0.998 0.002 0.998 0.002 0.9979166666666666 0.002083333333333333 0.9977777777777778 0.002222222222222222 0.9975000000000001 0.002500000000000001 0.9973684210526315 0.002631578947368421 0.9972972972972973 0.002702702702702703 0.996774193548387 0.003225806451612903 0.9961538461538462 0.003846153846153846 0.9958333333333332 0.004166666666666667 0.9952380952380951 0.004761904761904762 0.9941176470588234 0.005882352941176471 0.9933333333333333 0.006666666666666667 0.9928571428571429 0.007142857142857143 0.9857142857142858 0.01428571428571429 0.9 0.1 0.9 0.1 0.9 0.1 0.9 0.1 0.9 0.1 0.9 0.1 0.95 0.05 0.95 0.05 0.95 0.05 0.95 0.05 0.95 0.05 0.95 0.05 0.95 0.05 0.95 0.05 0.95 0.05 0.95 0.05 0.95 0.05 0.95 0.05 0.95 0.05 0.95 0.05 0.95 0.05 0.95 0.05 0.95 0.05 0.9 0.1 0.9 0.1 0.9 0.1 0.9 0.1 0.9 0.1 0.9 0.1 0.9 0.1 0.9666666666666666 0.03333333333333333 0.9833333333333334 0.01666666666666667 0.9857142857142858 0.01428571428571429 0.9900000000000001 0.01 0.990909090909091 0.009090909090909092 0.9933333333333333 0.006666666666666667 0.9933333333333333 0.006666666666666667 0.9941176470588234 0.005882352941176471 0.995 0.005000000000000001 0.996 0.004 0.9962962962962962 0.003703703703703704 0.9964285714285713 0.003571428571428571 0.9970588235294117 0.002941176470588235 0.9972972972972973 0.002702702702702703 0.9972972972972973 0.002702702702702703 0.9975000000000001 0.002500000000000001 0.9976744186046511 0.002325581395348837 0.9977777777777778 0.002222222222222222 0.9975609756097561 0.002439024390243903 0.9975609756097561 0.002439024390243903 0.9 0.1 0.9 0.1 0.9 0.1 0.9 0.1 0.9 0.1 0.9 0.1 0.9 0.1 0.9 0.1 0.9 0.1 0.9 0.1 0.9 0.1 0.9 0.1 0.9 0.1 0.9 0.1 0.9 0.1 0.9 0.1 0.9 0.1 0.9 0.1 0.9666666666666666 0.03333333333333333 0.6333333333333333 0.3666666666666667 0.3 0.7 0.475 0.525 0.475 0.525 0.6499999999999999 0.35 0.1461538461538462 0.8538461538461539</probabilities>
		</cpt>
		<cpt id="FleetBeacon">
			<state id="Absent" />
			<state id="Present" />
			<parents>Stargate TimePeriod</parents>
			<probabilities>0.9984615384615386 0.001538461538461539 0.9984615384615386 0.001538461538461539 0.9984615384615386 0.001538461538461539 0.9984615384615386 0.001538461538461539 0.9984615384615386 0.001538461538461539 0.9984615384615386 0.001538461538461539 0.9984375 0.0015625 0.9984375 0.0015625 0.9984375 0.0015625 0.9984375 0.0015625 0.9984375 0.0015625 0.9984375 0.0015625 0.9984375 0.0015625 0.9984375 0.0015625 0.9984375 0.0015625 0.9984375 0.0015625 0.9984375 0.0015625 0.9984375 0.0015625 0.9983870967741935 0.001612903225806452 0.9983333333333333 0.001666666666666667 0.9983333333333333 0.001666666666666667 0.9983050847457627 0.001694915254237288 0.9983050847457627 0.001694915254237288 0.9981481481481481 0.001851851851851852 0.9978723404255319 0.002127659574468085 0.9 0.1 0.9 0.1 0.9 0.1 0.9 0.1 0.9 0.1 0.9 0.1 0.95 0.05 0.95 0.05 0.95 0.05 0.95 0.05 0.45 0.55 0.45 0.55 0.45 0.55 0.45 0.55 0.45 0.55 0.45 0.55 0.45 0.55 0.45 0.55 0.725 0.275 0.725 0.275 0.725 0.275 0.78 0.22 0.78 0.22 0.8166666666666667 0.1833333333333334 0.8384615384615385 0.1615384615384616</probabilities>
		</cpt>
		<cpt id="ShieldBattery">
			<state id="Absent" />
			<state id="Present" />
			<parents>Gateway TimePeriod</parents>
			<probabilities>0.9984615384615386 0.001538461538461539 0.9958333333333332 0.004166666666666667 0.9875 0.0125 0.9833333333333334 0.01666666666666667 0.9800000000000001 0.02 0.9800000000000001 0.02 0.9800000000000001 0.02 0.9800000000000001 0.02 0.9800000000000001 0.02 0.9800000000000001 0.02 0.9800000000000001 0.02 0.9800000000000001 0.02 0.9800000000000001 0.02 0.9800000000000001 0.02 0.9800000000000001 0.02 0.9800000000000001 0.02 0.975 0.025 0.975 0.025 0.975 0.025 0.975 0.025 0.975 0.025 0.975 0.025 0.975 0.025 0.975 0.025 0.95 0.05 0.9 0.1 0.9976190476190475 0.002380952380952381 0.9982758620689655 0.001724137931034483 0.9983333333333333 0.001666666666666667 0.9491803278688525 0.05081967213114755 0.9491803278688525 0.05081967213114755 0.9491803278688525 0.05081967213114755 0.9491803278688525 0.05081967213114755 0.9491803278688525 0.05081967213114755 0.9491803278688525 0.05081967213114755 0.9163934426229509 0.08360655737704918 0.9 0.1 0.9 0.1 0.8836065573770492 0.1163934426229508 0.8836065573770492 0.1163934426229508 0.8508196721311475 0.1491803278688525 0.8532258064516128 0.1467741935483871 0.8532258064516128 0.1467741935483871 0.8532258064516128 0.1467741935483871 0.8483333333333333 0.1516666666666667 0.8483333333333333 0.1516666666666667 0.8483333333333333 0.1516666666666667 0.8483333333333333 0.1516666666666667 0.8374999999999999 0.1625 0.8086206896551724 0.1913793103448276</probabilities>
		</cpt>
		<cpt id="Dragoon">
			<state id="Absent" />
			<state id="Present" />
			<parents>CyberCore Assimilator TimePeriod</parents>
			<probabilities>0.9984615384615386 0.001538461538461539 0.9984615384615386 0.001538461538461539 0.9979591836734693 0.002040816326530612 0.994736842105263 0.005263157894736842 0.9933333333333333 0.006666666666666667 0.990909090909091 0.009090909090909092 0.9900000000000001 0.01 0.9900000000000001 0.01 0.9833333333333334 0.01666666666666667 0.9800000000000001 0.02 0.9800000000000001 0.02 0.9800000000000001 0.02 0.9800000000000001 0.02 0.9800000000000001 0.02 0.9800000000000001 0.02 0.9800000000000001 0.02 0.9800000000000001 0.02 0.9800000000000001 0.02 0.9800000000000001 0.02 0.9800000000000001 0.02 0.9800000000000001 0.02 0.9800000000000001 0.02 0.9800000000000001 0.02 0.9800000000000001 0.02 0.9666666666666666 0.03333333333333333 0.9 0.1 0.9 0.1 0.9928571428571429 0.007142857142857143 0.9941176470588234 0.005882352941176471 0.9833333333333334 0.01666666666666667 0.95 0.05 0.9 0.1 0.9 0.1 0.95 0.05 0.9666666666666666 0.03333333333333333 0.9 0.1 0.9 0.1 0.9 0.1 0.9 0.1 0.9 0.1 0.9 0.1 0.9 0.1 0.9 0.1 0.9 0.1 0.9 0.1 0.9 0.1 0.9 0.1 0.9 0.1 0.9 0.1 0.9 0.1 0.9 0.1 0.9 0.1 0.95 0.05 0.95 0.05 0.95 0.05 0.95 0.05 0.9 0.1 0.9 0.1 0.9 0.1 0.9 0.1 0.9 0.1 0.9 0.1 0.9 0.1 0.9 0.1 0.9 0.1 0.9 0.1 0.9 0.1 0.9 0.1 0.9 0.1 0.9 0.1 0.9 0.1 0.9 0.1 0.9 0.1 0.9 0.1 0.9 0.1 0.9 0.1 0.9 0.1 0.9666666666666666 0.03333333333333333 0.9299999999999999 0.07000000000000001 0.3977777777777778 0.6022222222222223 0.130188679245283 0.869811320754717 0.06964285714285713 0.9303571428571429 0.01607142857142857 0.9839285714285714 0.06610169491525424 0.9338983050847458 0.06610169491525424 0.9338983050847458 0.01475409836065574 0.9852459016393443 0.01475409836065574 0.9852459016393443 0.01475409836065574 0.9852459016393443 0.01475409836065574 0.9852459016393443 0.01475409836065574 0.9852459016393443 0.01475409836065574 0.9852459016393443 0.01475409836065574 0.9852459016393443 0.01475409836065574 0.9852459016393443 0.01475409836065574 0.9852459016393443 0.01525423728813559 0.9847457627118644 0.01525423728813559 0.9847457627118644 0.01525423728813559 0.9847457627118644 0.01525423728813559 0.9847457627118644 0.01636363636363637 0.9836363636363636 0.01578947368421053 0.9842105263157894</probabilities>
		</cpt>
		<cpt id="HighTemplar">
			<state id="Absent" />
			<state id="Present" />
			<parents>TemplarArchives TimePeriod</parents>
			<probabilities>0.9984615384615386 0.001538461538461539 0.9984615384615386 0.001538461538461539 0.9984615384615386 0.001538461538461539 0.9984615384615386 0.001538461538461539 0.9984615384615386 0.001538461538461539 0.9984126984126983 0.001587301587301587 0.9983333333333333 0.001666666666666667 0.9983050847457627 0.001694915254237288 0.9982142857142856 0.001785714285714286 0.9981818181818181 0.001818181818181818 0.9980392156862745 0.00196078431372549 0.9980392156862745 0.00196078431372549 0.9979591836734693 0.002040816326530612 0.9978260869565216 0.002173913043478261 0.9975609756097561 0.002439024390243903 0.9974358974358973 0.002564102564102564 0.9973684210526315 0.002631578947368421 0.996875 0.003125 0.9962962962962962 0.003703703703703704 0.996 0.004 0.9954545454545454 0.004545454545454546 0.9944444444444444 0.005555555555555556 0.99375 0.00625 0.9928571428571429 0.007142857142857143 0.9857142857142858 0.01428571428571429 0.9 0.1 0.9 0.1 0.9 0.1 0.9 0.1 0.9 0.1 0.9666666666666666 0.03333333333333333 0.9833333333333334 0.01666666666666667 0.8428571428571429 0.1571428571428571 0.6900000000000001 0.3100000000000001 0.2636363636363636 0.7363636363636363 0.46 0.5399999999999999 0.46 0.5399999999999999 0.4058823529411765 0.5941176470588235 0.345 0.655 0.316 0.6840000000000001 0.2925925925925926 0.7074074074074074 0.2107142857142857 0.7892857142857143 0.2323529411764706 0.7676470588235295 0.2538461538461538 0.7461538461538462 0.1769230769230769 0.823076923076923 0.2119047619047619 0.7880952380952381 0.2152173913043478 0.7847826086956522 0.20625 0.79375 0.1934782608695652 0.8065217391304348 0.1113207547169811 0.8886792452830189</probabilities>
		</cpt>
		<cpt id="Shuttle">
			<state id="Absent" />
			<state id="Present" />
			<parents>RoboticsFacility TimePeriod</parents>
			<probabilities>0.9984615384615386 0.001538461538461539 0.9984615384615386 0.001538461538461539 0.9984615384615386 0.001538461538461539 0.9984615384615386 0.001538461538461539 0.9984615384615386 0.001538461538461539 0.9981818181818181 0.001818181818181818 0.998 0.002 0.9972972972972973 0.002702702702702703 0.996969696969697 0.003030303030303031 0.996774193548387 0.003225806451612903 0.9961538461538462 0.003846153846153846 0.9954545454545454 0.004545454545454546 0.994736842105263 0.005263157894736842 0.9923076923076923 0.007692307692307693 0.990909090909091 0.009090909090909092 0.9900000000000001 0.01 0.9900000000000001 0.01 0.9888888888888889 0.01111111111111111 0.9888888888888889 0.01111111111111111 0.9875 0.0125 0.9875 0.0125 0.9875 0.0125 0.9857142857142858 0.01428571428571429 0.9857142857142858 0.01428571428571429 0.9666666666666666 0.03333333333333333 0.9 0.1 0.9 0.1 0.9 0.1 0.9 0.1 0.9 0.1 0.990909090909091 0.009090909090909092 0.86875 0.13125 0.8241379310344827 0.1758620689655172 0.6636363636363636 0.3363636363636364 0.5685714285714285 0.4314285714285714 0.5475 0.4525000000000001 0.5204545454545454 0.4795454545454546 0.4021276595744681 0.597872340425532 0.4320754716981132 0.5679245283018868 0.4163636363636363 0.5836363636363636 0.3732142857142857 0.6267857142857143 0.3732142857142857 0.6267857142857143 0.3666666666666666 0.6333333333333333 0.3666666666666666 0.6333333333333333 0.3375 0.6625 0.3375 0.6625 0.3196428571428571 0.6803571428571429 0.2964912280701754 0.7035087719298245 0.3188679245283019 0.6811320754716981 0.2964912280701754 0.7035087719298245</probabilities>
		</cpt>
		<cpt id="Reaver">
			<state id="Absent" />
			<state id="Present" />
			<parents>RoboticsSupportBay TimePeriod</parents>
			<probabilities>0.9984615384615386 0.001538461538461539 0.9984615384615386 0.001538461538461539 0.9984615384615386 0.001538461538461539 0.9984615384615386 0.001538461538461539 0.9984615384615386 0.001538461538461539 0.9984615384615386 0.001538461538461539 0.9984615384615386 0.001538461538461539 0.9983606557377049 0.001639344262295082 0.9980392156862745 0.00196078431372549 0.9976190476190475 0.002380952380952381 0.9975000000000001 0.002500000000000001 0.9975000000000001 0.002500000000000001 0.9975000000000001 0.002500000000000001 0.9974358974358973 0.002564102564102564 0.9973684210526315 0.002631578947368421 0.9973684210526315 0.002631578947368421 0.9972972972972973 0.002702702702702703 0.9972972972972973 0.002702702702702703 0.9972972972972973 0.002702702702702703 0.9972972972972973 0.002702702702702703 0.9972972972972973 0.002702702702702703 0.9972972972972973 0.002702702702702703 0.9972972972972973 0.002702702702702703 0.9972222222222221 0.002777777777777778 0.9607142857142856 0.03928571428571429 0.9 0.1 0.9 0.1 0.9 0.1 0.9 0.1 0.9 0.1 0.9 0.1 0.9 0.1 0.9800000000000001 0.02 0.66 0.34 0.2875 0.7125 0.15 0.8500000000000001 0.07307692307692308 0.9269230769230771 0.07307692307692308 0.9269230769230771 0.07037037037037036 0.9296296296296296 0.06785714285714285 0.9321428571428572 0.03214285714285714 0.9678571428571429 0.06551724137931034 0.9344827586206898 0.06551724137931034 0.9344827586206898 0.03103448275862069 0.9689655172413794 0.03333333333333333 0.9666666666666667 0.03333333333333333 0.9666666666666667 0.03333333333333333 0.9666666666666667 0.03333333333333333 0.9666666666666667 0.0375 0.9625 0.184375 0.815625</probabilities>
		</cpt>
		<cpt id="Observer">
			<state id="Absent" />
			<state id="Present" />
			<parents>Observatory TimePeriod</parents>
			<probabilities>0.9984615384615386 0.001538461538461539 0.9984615384615386 0.001538461538461539 0.9984615384615386 0.001538461538461539 0.9984615384615386 0.001538461538461539 0.9984615384615386 0.001538461538461539 0.9984615384615386 0.001538461538461539 0.9983606557377049 0.001639344262295082 0.9980392156862745 0.00196078431372549 0.9977777777777778 0.002222222222222222 0.9970588235294117 0.002941176470588235 0.996969696969697 0.003030303030303031 0.9962962962962962 0.003703703703703704 0.9956521739130434 0.004347826086956522 0.9944444444444444 0.005555555555555556 0.9928571428571429 0.007142857142857143 0.990909090909091 0.009090909090909092 0.9900000000000001 0.01 0.9900000000000001 0.01 0.9888888888888889 0.01111111111111111 0.9888888888888889 0.01111111111111111 0.9888888888888889 0.01111111111111111 0.9875 0.0125 0.9857142857142858 0.01428571428571429 0.9857142857142858 0.01428571428571429 0.9666666666666666 0.03333333333333333 0.9 0.1 0.9 0.1 0.9 0.1 0.9 0.1 0.9 0.1 0.9 0.1 0.9800000000000001 0.02 0.5266666666666667 0.4733333333333333 0.280952380952381 0.7190476190476189 0.278125 0.721875 0.1787878787878788 0.8212121212121213 0.2025641025641026 0.7974358974358975 0.09069767441860464 0.9093023255813953 0.08124999999999999 0.91875 0.09423076923076924 0.9057692307692309 0.1254545454545455 0.8745454545454545 0.05178571428571428 0.9482142857142857 0.03392857142857143 0.9660714285714286 0.03333333333333333 0.9666666666666667 0.03454545454545454 0.9654545454545455 0.03454545454545454 0.9654545454545455 0.03392857142857143 0.9660714285714286 0.03333333333333333 0.9666666666666667 0.03584905660377358 0.9641509433962264 0.01578947368421053 0.9842105263157894</probabilities>
		</cpt>
		<cpt id="Carrier">
			<state id="Absent" />
			<state id="Present" />
			<parents>FleetBeacon TimePeriod</parents>
			<probabilities>0.9984615384615386 0.001538461538461539 0.9984615384615386 0.001538461538461539 0.9984615384615386 0.001538461538461539 0.9984615384615386 0.001538461538461539 0.9984615384615386 0.001538461538461539 0.9984615384615386 0.001538461538461539 0.9984615384615386 0.001538461538461539 0.9984615384615386 0.001538461538461539 0.9984615384615386 0.001538461538461539 0.9984615384615386 0.001538461538461539 0.9984375 0.0015625 0.9984375 0.0015625 0.9984375 0.0015625 0.9984375 0.0015625 0.9984375 0.0015625 0.9984375 0.0015625 0.9984375 0.0015625 0.9984375 0.0015625 0.9984375 0.0015625 0.9983870967741935 0.001612903225806452 0.9983870967741935 0.001612903225806452 0.9983870967741935 0.001612903225806452 0.9983870967741935 0.001612903225806452 0.9982758620689655 0.001724137931034483 0.9982456140350876 0.001754385964912281 0.9 0.1 0.9 0.1 0.9 0.1 0.9 0.1 0.9 0.1 0.9 0.1 0.9 0.1 0.9 0.1 0.9 0.1 0.9 0.1 0.95 0.05 0.95 0.05 0.95 0.05 0.95 0.05 0.95 0.05 0.95 0.05 0.95 0.05 0.95 0.05 0.95 0.05 0.95 0.05 0.95 0.05 0.95 0.05 0.95 0.05 0.95 0.05 0.9666666666666666 0.03333333333333333</probabilities>
		</cpt>
		<cpt id="Scout">
			<state id="Absent" />
			<state id="Present" />
			<parents>Stargate TimePeriod</parents>
			<probabilities>0.9984615384615386 0.001538461538461539 0.9984615384615386 0.001538461538461539 0.9984615384615386 0.001538461538461539 0.9984615384615386 0.001538461538461539 0.9984615384615386 0.001538461538461539 0.9984615384615386 0.001538461538461539 0.9984375 0.0015625 0.9984375 0.0015625 0.9984375 0.0015625 0.9984375 0.0015625 0.9984375 0.0015625 0.9984375 0.0015625 0.9984375 0.0015625 0.9984375 0.0015625 0.9984375 0.0015625 0.9984375 0.0015625 0.9984375 0.0015625 0.9984375 0.0015625 0.9983870967741935 0.001612903225806452 0.9983333333333333 0.001666666666666667 0.9983333333333333 0.001666666666666667 0.9983050847457627 0.001694915254237288 0.9983050847457627 0.001694915254237288 0.9981481481481481 0.001851851851851852 0.9978723404255319 0.002127659574468085 0.9 0.1 0.9 0.1 0.9 0.1 0.9 0.1 0.9 0.1 0.9 0.1 0.95 0.05 0.95 0.05 0.95 0.05 0.95 0.05 0.95 0.05 0.95 0.05 0.95 0.05 0.95 0.05 0.95 0.05 0.95 0.05 0.95 0.05 0.95 0.05 0.975 0.025 0.975 0.025 0.975 0.025 0.9800000000000001 0.02 0.9800000000000001 0.02 0.9833333333333334 0.01666666666666667 0.9153846153846155 0.08461538461538462</probabilities>
		</cpt>
		<cpt id="Corsair">
			<state id="Absent" />
			<state id="Present" />
			<parents>Stargate TimePeriod</parents>
			<probabilities>0.9984615384615386 0.001538461538461539 0.9984615384615386 0.001538461538461539 0.9984615384615386 0.001538461538461539 0.9984615384615386 0.001538461538461539 0.9984615384615386 0.001538461538461539 0.9984615384615386 0.001538461538461539 0.9984375 0.0015625 0.9984375 0.0015625 0.9984375 0.0015625 0.9984375 0.0015625 0.9984375 0.0015625 0.9984375 0.0015625 0.9984375 0.0015625 0.9984375 0.0015625 0.9984375 0.0015625 0.9984375 0.0015625 0.9984375 0.0015625 0.9984375 0.0015625 0.9983870967741935 0.001612903225806452 0.9983333333333333 0.001666666666666667 0.9983333333333333 0.001666666666666667 0.9983050847457627 0.001694915254237288 0.9983050847457627 0.001694915254237288 0.9981481481481481 0.001851851851851852 0.9978723404255319 0.002127659574468085 0.9 0.1 0.9 0.1 0.9 0.1 0.9 0.1 0.9 0.1 0.9 0.1 0.95 0.05 0.45 0.55 0.45 0.55 0.45 0.55 0.45 0.55 0.45 0.55 0.45 0.55 0.45 0.55 0.45 0.55 0.45 0.55 0.45 0.55 0.45 0.55 0.725 0.275 0.725 0.275 0.725 0.275 0.78 0.22 0.78 0.22 0.8166666666666667 0.1833333333333334 0.9153846153846155 0.08461538461538462</probabilities>
		</cpt>
		<cpt id="Arbiter">
			<state id="Absent" />
			<state id="Present" />
			<parents>ArbiterTribunal TimePeriod</parents>
			<probabilities>0.9984615384615386 0.001538461538461539 0.9984615384615386 0.001538461538461539 0.9984615384615386 0.001538461538461539 0.9984615384615386 0.001538461538461539 0.9984615384615386 0.001538461538461539 0.9984615384615386 0.001538461538461539 0.9984615384615386 0.001538461538461539 0.9984615384615386 0.001538461538461539 0.9984615384615386 0.001538461538461539 0.9984615384615386 0.001538461538461539 0.9984615384615386 0.001538461538461539 0.9984615384615386 0.001538461538461539 0.9984615384615386 0.001538461538461539 0.9984615384615386 0.001538461538461539 0.9984615384615386 0.001538461538461539 0.9984615384615386 0.001538461538461539 0.9984615384615386 0.001538461538461539 0.9984615384615386 0.001538461538461539 0.9984615384615386 0.001538461538461539 0.9983870967741935 0.001612903225806452 0.9983606557377049 0.001639344262295082 0.9983606557377049 0.001639344262295082 0.9983606557377049 0.001639344262295082 0.9982456140350876 0.001754385964912281 0.9770833333333333 0.02291666666666667 0.9 0.1 0.9 0.1 0.9 0.1 0.9 0.1 0.9 0.1 0.9 0.1 0.9 0.1 0.9 0.1 0.9 0.1 0.9 0.1 0.9 0.1 0.9 0.1 0.9 0.1 0.9 0.1 0.9 0.1 0.9 0.1 0.9 0.1 0.9 0.1 0.9 0.1 0.95 0.05 0.9666666666666666 0.03333333333333333 0.6333333333333333 0.3666666666666667 0.6333333333333333 0.3666666666666667 0.6333333333333333 0.3666666666666667 0.2416666666666666 0.7583333333333333</probabilities>
		</cpt>
		<cpt id="DarkArchon">
			<state id="Absent" />
			<state id="Present" />
			<parents>DarkTemplar TimePeriod</parents>
			<probabilities>0.9984615384615386 0.001538461538461539 0.9984615384615386 0.001538461538461539 0.9984615384615386 0.001538461538461539 0.9984615384615386 0.001538461538461539 0.9984615384615386 0.001538461538461539 0.9984615384615386 0.001538461538461539 0.9984126984126983 0.001587301587301587 0.9983606557377049 0.001639344262295082 0.9982456140350876 0.001754385964912281 0.9981818181818181 0.001818181818181818 0.9981481481481481 0.001851851851851852 0.9980769230769231 0.001923076923076923 0.9980769230769231 0.001923076923076923 0.9980769230769231 0.001923076923076923 0.9980392156862745 0.00196078431372549 0.9979591836734693 0.002040816326530612 0.9978260869565216 0.002173913043478261 0.9978260869565216 0.002173913043478261 0.9976744186046511 0.002325581395348837 0.9974358974358973 0.002564102564102564 0.9971428571428571 0.002857142857142857 0.996875 0.003125 0.996875 0.003125 0.9966666666666666 0.003333333333333334 0.995 0.005000000000000001 0.9 0.1 0.9 0.1 0.9 0.1 0.9 0.1 0.9 0.1 0.9 0.1 0.9666666666666666 0.03333333333333333 0.9800000000000001 0.02 0.9888888888888889 0.01111111111111111 0.990909090909091 0.009090909090909092 0.9916666666666667 0.008333333333333333 0.9928571428571429 0.007142857142857143 0.9928571428571429 0.007142857142857143 0.9214285714285714 0.07857142857142857 0.9266666666666666 0.07333333333333333 0.8764705882352941 0.1235294117647059 0.895 0.105 0.895 0.105 0.9086956521739129 0.09130434782608696 0.9159999999999999 0.08400000000000001 0.9275862068965517 0.07241379310344828 0.934375 0.065625 0.934375 0.065625 0.9299999999999999 0.07000000000000001 0.8725000000000001 0.1275</probabilities>
		</cpt>
		<cpt id="Archon">
			<state id="Absent" />
			<state id="Present" />
			<parents>HighTemplar TimePeriod</parents>
			<probabilities>0.9984615384615386 0.001538461538461539 0.9984615384615386 0.001538461538461539 0.9984615384615386 0.001538461538461539 0.9984615384615386 0.001538461538461539 0.9984615384615386 0.001538461538461539 0.9984615384615386 0.001538461538461539 0.9984615384615386 0.001538461538461539 0.9984375 0.0015625 0.9983870967741935 0.001612903225806452 0.9982456140350876 0.001754385964912281 0.9982456140350876 0.001754385964912281 0.9982456140350876 0.001754385964912281 0.9981818181818181 0.001818181818181818 0.9980769230769231 0.001923076923076923 0.9979166666666666 0.002083333333333333 0.9978260869565216 0.002173913043478261 0.9976744186046511 0.002325581395348837 0.9974358974358973 0.002564102564102564 0.9972222222222221 0.002777777777777778 0.996774193548387 0.003225806451612903 0.9966666666666666 0.003333333333333334 0.9962962962962962 0.003703703703703704 0.996 0.004 0.9954545454545454 0.004545454545454546 0.9916666666666667 0.008333333333333333 0.9 0.1 0.9 0.1 0.9 0.1 0.9 0.1 0.9 0.1 0.9 0.1 0.9 0.1 0.95 0.05 0.975 0.025 0.8777777777777778 0.1222222222222222 0.7666666666666667 0.2333333333333333 0.7666666666666667 0.2333333333333333 0.7181818181818183 0.2818181818181819 0.6357142857142857 0.3642857142857142 0.6055555555555555 0.3944444444444444 0.545 0.455 0.4304347826086957 0.5695652173913043 0.4037037037037037 0.5962962962962963 0.3633333333333333 0.6366666666666667 0.3606060606060607 0.6393939393939394 0.3205882352941177 0.6794117647058824 0.2405405405405406 0.7594594594594596 0.2282051282051282 0.7717948717948718 0.2078947368421053 0.7921052631578948 0.1020833333333333 0.8979166666666667</probabilities>
		</cpt>
		<cpt id="GroundWeapons1">
			<state id="Absent" />
			<state id="Present" />
			<parents>TimePeriod Forge</parents>
			<probabilities>0.8438797279706605 0.1561202720293395 0.9 0.1 0.5753223950762081 0.4246776049237921 0.9 0.1 0.5588301592556124 0.4411698407443876 0.9 0.1 0.3316136286411364 0.6683863713588637 0.9 0.1 0.7195375327918122 0.2804624672081878 0.9 0.1 0.6697781900287917 0.3302218099712085 0.8674261078185559 0.1325738921814441 0.4373219039309329 0.5626780960690672 0.6085249944013724 0.3914750055986276 0.6089164917520796 0.3910835082479204 0.9063054873021809 0.09369451269781903 0.3992118037297909 0.6007881962702091 0.7709243503917131 0.2290756496082868 0.5473130561752192 0.4526869438247809 0.2438551427728365 0.7561448572271635 0.6878630197438822 0.3121369802561179 0.662510018762428 0.3374899812375721 0.2930828099241352 0.7069171900758648 0.2563849977131249 0.7436150022868751 0.7681276601442006 0.2318723398557994 0.8925773840258843 0.1074226159741158 0.8079499550029544 0.1920500449970455 0.4659803162328642 0.5340196837671356 0.5061465557123183 0.4938534442876818 0.4455006222211531 0.5544993777788468 0.9910327202494763 0.008967279750523674 0.4202323969082198 0.5797676030917803 0.4671900187226747 0.5328099812773253 0.5786300477476322 0.421369952252368 0.5049223820283771 0.4950776179716228 0.6377892143216462 0.3622107856783539 0.7504121609170711 0.2495878390829288 0.4955358556686578 0.5044641443313422 0.7880640063122693 0.2119359936877307 0.6416080257528765 0.3583919742471236 0.5548721768476641 0.4451278231523359 0.386781179739287 0.613218820260713 0.6949925752754629 0.3050074247245371 0.1174176384895012 0.8825823615104987 0.4988809880664542 0.5011190119335458 0.9906471437724135 0.009352856227586645 0.3798234043478858 0.6201765956521141 0.8193153993740151 0.180684600625985 0.5072029616218614 0.4927970383781385 0.819952549261317 0.180047450738683</probabilities>
		</cpt>
		<cpt id="GroundArmor1">
			<state id="Absent" />
			<state id="Present" />
			<parents>TimePeriod Forge</parents>
			<probabilities>0.8985897048262207 0.1014102951737794 0.9 0.1 0.3055910421319 0.6944089578681 0.9 0.1 0.7662591758938597 0.2337408241061404 0.9 0.1 0.7420107097574183 0.2579892902425818 0.9 0.1 0.5399487903406878 0.4600512096593123 0.9 0.1 0.4017662809987601 0.5982337190012399 0.8762544508234118 0.1237455491765882 0.5608214071430213 0.4391785928569786 0.6136793470528231 0.386320652947177 0.08504479135232422 0.9149552086476758 0.4811799875350299 0.51882001246497 0.6503943014087462 0.3496056985912537 0.7491473975976377 0.2508526024023623 0.6814307729176482 0.3185692270823518 0.6311127257905871 0.3688872742094128 0.4060870457683977 0.5939129542316023 0.7020537752115494 0.2979462247884506 0.3662866288207533 0.6337133711792469 0.4979576320209936 0.5020423679790064 0.3906370276313579 0.6093629723686421 0.3739904755005151 0.6260095244994849 0.7122506268015808 0.2877493731984191 0.831655932536471 0.168344067463529 0.9204061369155001 0.07959386308449988 0.4117053651519482 0.5882946348480518 0.3396952690453344 0.6603047309546656 0.3022252137184765 0.6977747862815235 0.1311734489506751 0.8688265510493249 0.2992305961440532 0.7007694038559469 0.4285212222530033 0.5714787777469969 0.7033979464399689 0.296602053560031 0.3454441164254972 0.6545558835745029 0.3485602729144977 0.6514397270855022 0.563916264242061 0.436083735757939 0.6259707726050153 0.3740292273949846 0.634819619185397 0.3651803808146029 0.5847998059403851 0.415200194059615 0.9438496514378679 0.05615034856213214 0.1148351476686584 0.8851648523313417 0.3327366487939569 0.6672633512060432 0.3089130275565575 0.6910869724434426 0.5993528420752519 0.400647157924748 0.4141412931852563 0.5858587068147438 0.5500623282833177 0.4499376717166824 0.2157516591692568 0.7842483408307431</probabilities>
		</cpt>
		<cpt id="PlasmaShields1">
			<state id="Absent" />
			<state id="Present" />
			<parents>TimePeriod Forge</parents>
			<probabilities>0.2490128671407319 0.7509871328592681 0.9 0.1 0.4674270418066056 0.5325729581933946 0.9 0.1 0.5271085636524299 0.4728914363475703 0.9 0.1 0.596230046047009 0.4037699539529912 0.9 0.1 0.4507188841619423 0.5492811158380578 0.9 0.1 0.9305540209940322 0.06944597900596776 0.8578104726155783 0.1421895273844217 0.3195820399559918 0.6804179600440081 0.7098754208388702 0.2901245791611298 0.5343225206544913 0.4656774793455087 0.9087058818019244 0.09129411819807572 0.7687250954862142 0.2312749045137858 0.8920247728054239 0.1079752271945761 0.4554222853552468 0.5445777146447532 0.5244920255486002 0.4755079744513996 0.5741693217949866 0.4258306782050134 0.5935507316062725 0.4064492683937275 0.496241609741877 0.5037583902581231 0.6665501466417622 0.3334498533582377 0.7234519130534644 0.2765480869465356 0.9858878443007619 0.014112155699238 0.2499618225728795 0.7500381774271204 0.7134388932479769 0.286561106752023 0.3232907004670707 0.6767092995329294 0.3272938919753236 0.6727061080246765 0.3556865979049235 0.6443134020950766 0.6947808885973517 0.3052191114026484 0.1474673761727108 0.8525326238272891 0.5118881332492482 0.4881118667507519 0.659679135802704 0.340320864197296 0.3841302044120576 0.6158697955879423 0.4377195437957952 0.5622804562042048 0.5210245792812065 0.4789754207187936 0.7797226519307072 0.2202773480692928 0.5773808483428894 0.4226191516571107 0.3827298815599055 0.6172701184400946 0.5491009893891857 0.4508990106108143 0.6131425529011777 0.3868574470988223 0.6664379195581985 0.3335620804418015 0.7934924932210513 0.2065075067789486 0.3930021257944705 0.6069978742055296 0.2959211974154909 0.7040788025845091 0.4535718744323352 0.546428125567665 0.6447592394697891 0.355240760530211 0.6333195190601721 0.3666804809398278</probabilities>
		</cpt>
		<cpt id="AirWeapons1">
			<state id="Absent" />
			<state id="Present" />
			<parents>CyberCore TimePeriod</parents>
			<probabilities>0.7972349600894197 0.2027650399105802 0.4918617848543246 0.5081382151456755 0.8049225209869354 0.1950774790130645 0.9916000274108995 0.008399972589100392 0.6839922142431955 0.3160077857568046 0.5380831174470224 0.4619168825529775 0.4038782726005034 0.5961217273994967 0.6481809910517319 0.3518190089482681 0.6057465753478778 0.3942534246521223 0.87419411637977 0.1258058836202302 0.6810400864031849 0.3189599135968151 0.6911766628336111 0.3088233371663889 0.5808522143255331 0.419147785674467 0.7940455718348619 0.205954428165138 0.7754376980021833 0.2245623019978167 0.5294436735765803 0.4705563264234198 0.6797210024269966 0.3202789975730036 0.7005269596229412 0.2994730403770589 0.7027674455394833 0.2972325544605167 0.5861352792376103 0.4138647207623896 0.5682007419752098 0.4317992580247904 0.9176232118100727 0.08237678818992747 0.666299682748858 0.3337003172511421 0.7759945711502614 0.2240054288497387 0.6705996021813867 0.3294003978186133 0.9 0.1 0.9 0.1 0.7493814402169057 0.2506185597830943 0.2544941737394102 0.7455058262605899 0.9820830344710549 0.01791696552894502 0.7517859404231687 0.2482140595768313 0.5276045414884698 0.47239545851153 0.5784793560634576 0.4215206439365424 0.361383534598216 0.6386164654017841 0.4464045614238027 0.5535954385761972 0.6366108870108684 0.3633891129891317 0.7689557218267726 0.2310442781732275 0.1645349339760565 0.8354650660239434 0.7988744710820563 0.2011255289179436 0.6515921543733708 0.3484078456266294 0.7776512346026098 0.2223487653973903 0.9657633844223317 0.03423661557766827 0.4726651474062421 0.5273348525937579 0.09217019811904813 0.907829801880952 0.9078151772757429 0.09218482272425711 0.2122676450625694 0.7877323549374307 0.7393693444658381 0.2606306555341618 0.5966840101494073 0.4033159898505928 0.5134553218532454 0.4865446781467546 0.1798692895525939 0.820130710447406</probabilities>
		</cpt>
		<cpt id="AirArmor1">
			<state id="Absent" />
			<state id="Present" />
			<parents>CyberCore TimePeriod</parents>
			<probabilities>0.4904033567411456 0.5095966432588545 0.7105446822767249 0.2894553177232753 0.4393783751569134 0.5606216248430868 0.1453505463744086 0.8546494536255913 0.4068711334013819 0.5931288665986182 0.70022924202708 0.2997707579729199 0.7256180636504428 0.2743819363495573 0.4949484083045572 0.5050515916954428 0.846132817421933 0.1538671825780669 0.6941290851368008 0.3058709148631992 0.7383070211367052 0.2616929788632949 0.6834070353219681 0.316592964678032 0.6651489802957311 0.334851019704269 0.4855097636935772 0.5144902363064229 0.673432883864295 0.3265671161357051 0.6338830478385109 0.3661169521614892 0.69683697502767 0.3031630249723301 0.5023215565662439 0.4976784434337562 0.6698653493629121 0.330134650637088 0.8412484841510199 0.1587515158489802 0.7816099433212628 0.2183900566787373 0.8085708217624155 0.1914291782375847 0.7719875046325941 0.2280124953674059 0.7761474512599873 0.2238525487400127 0.9198266518334666 0.08017334816653335 0.9 0.1 0.9 0.1 0.7278995936140786 0.2721004063859214 0.5263386114266879 0.473661388573312 0.08282000595612205 0.917179994043878 0.4108938837603948 0.5891061162396052 0.8029658056669151 0.197034194333085 0.4880130861906455 0.5119869138093546 0.7696161299922563 0.2303838700077437 0.5725736072741972 0.4274263927258027 0.7690876830991851 0.2309123169008149 0.2685009878492408 0.7314990121507592 0.6470939543806148 0.3529060456193851 0.7157734628920957 0.2842265371079044 0.5645549065602056 0.4354450934397945 0.5256888890968714 0.4743111109031286 0.3347340778118778 0.6652659221881224 0.1074150707679407 0.8925849292320592 0.8533446154383346 0.1466553845616654 0.6862858256529266 0.3137141743470732 0.597080038659394 0.402919961340606 0.3542945034675728 0.6457054965324273 0.3639313482117342 0.6360686517882657 0.07230892903888807 0.927691070961112 0.2545440729847899 0.7454559270152102</probabilities>
		</cpt>
		<cpt id="LegEnhancements">
			<state id="Absent" />
			<state id="Present" />
			<parents>TimePeriod CitadelOfAdun</parents>
			<probabilities>0.1435067509781089 0.8564932490218912 0.9 0.1 0.5652593118765006 0.4347406881234996 0.9 0.1 0.5119984444630462 0.4880015555369539 0.9 0.1 0.8564773222707465 0.1435226777292536 0.9 0.1 0.6309001522619049 0.3690998477380952 0.7977532492541748 0.2022467507458253 0.528556555060506 0.471443444939494 0.6377223425777049 0.3622776574222953 0.4098404423445379 0.5901595576554619 0.6235675113036937 0.3764324886963063 0.1441852050700297 0.8558147949299704 0.8683058317459125 0.1316941682540876 0.4461753241482971 0.553824675851703 0.6503369444560859 0.349663055543914 0.08776555630712409 0.912234443692876 0.5926944475652539 0.4073055524347461 0.4432617137877133 0.5567382862122867 0.7526910049855908 0.2473089950144092 0.5388572536933829 0.4611427463066171 0.4593375392017484 0.5406624607982515 0.9785888325486889 0.02141116745131107 0.5955426802747758 0.4044573197252241 0.7896114764778218 0.210388523522178 0.249320595867585 0.7506794041324151 0.8388976591427132 0.1611023408572866 0.8799885176922441 0.1200114823077559 0.2587973190927198 0.7412026809072803 0.5380248348668847 0.4619751651331153 0.3926368161849257 0.6073631838150743 0.1387880427334063 0.8612119572665936 0.4663459576300078 0.5336540423699921 0.6178510812360434 0.3821489187639566 0.2198171025349247 0.7801828974650753 0.434287529999938 0.565712470000062 0.9617036416449631 0.03829635835503688 0.2515092920202351 0.7484907079797648 0.8310613390965811 0.1689386609034189 0.2307982013899801 0.7692017986100198 0.8519559446437007 0.1480440553562994 0.625297684213998 0.3747023157860021 0.3181440964455103 0.6818559035544897 0.470770119662426 0.5292298803375741 0.3068421557058541 0.693157844294146 0.6946549432195036 0.3053450567804965 0.8168689978345802 0.1831310021654199 0.757671099549289 0.2423289004507111</probabilities>
		</cpt>
		<cpt id="SingularityCharge">
			<state id="Absent" />
			<state id="Present" />
			<parents>CyberCore TimePeriod</parents>
			<probabilities>0.4362741025909934 0.5637258974090067 0.6583380726231262 0.3416619273768738 0.610960439546349 0.389039560453651 0.617769122830888 0.382230877169112 0.5628517771600626 0.4371482228399375 0.5956353125905709 0.4043646874094291 0.5176069826308866 0.4823930173691134 0.6746384985552595 0.3253615014447405 0.6802254654096842 0.3197745345903159 0.5686534791548169 0.4313465208451831 0.7760430447036194 0.2239569552963808 0.9139508023636952 0.08604919763630486 0.5944737316919194 0.4055262683080806 0.7081722516845324 0.2918277483154678 0.8222409797218385 0.1777590202781615 0.9196614141426315 0.08033858585736851 0.744808650291062 0.2551913497089381 0.6582676562296205 0.3417323437703796 0.8646761249515427 0.1353238750484573 0.7395728618038039 0.2604271381961962 0.7629511506569175 0.2370488493430823 0.5780754072324917 0.4219245927675084 0.6419242681687635 0.3580757318312367 0.5235926560910634 0.4764073439089367 0.8923485701933971 0.1076514298066029 0.9 0.1 0.9 0.1 0.8910729139929713 0.1089270860070289 0.8231537189442978 0.1768462810557022 0.4883750725102329 0.5116249274897671 0.1423270103447855 0.8576729896552144 0.3552423365921451 0.644757663407855 0.6328854555005931 0.367114544499407 0.4844191737853855 0.5155808262146144 0.733388387810662 0.266611612189338 0.5011254113809529 0.4988745886190472 0.5824807500793067 0.4175192499206934 0.2507555545939253 0.7492444454060747 0.7198693336600014 0.2801306663399985 0.3960574876333948 0.6039425123666052 0.274668453596607 0.725331546403393 0.5468968147524488 0.4531031852475512 0.5963349891916832 0.4036650108083169 0.565531250234401 0.4344687497655991 0.609863851919223 0.390136148080777 0.1104166138178379 0.889583386182162 0.627147394213055 0.372852605786945 0.5285581061292545 0.4714418938707455 0.2734524034633971 0.7265475965366031 0.5045837241530475 0.4954162758469525</probabilities>
		</cpt>
		<cpt id="PsionicStorm">
			<state id="Absent" />
			<state id="Present" />
			<parents>TemplarArchives TimePeriod</parents>
			<probabilities>0.773858860392215 0.2261411396077849 0.6790502941532809 0.3209497058467192 0.5540673147405962 0.4459326852594039 0.9308717961874519 0.06912820381254817 0.5349435072443075 0.4650564927556926 0.4919647072209497 0.5080352927790502 0.6161286738440005 0.3838713261559995 0.5790218280195073 0.4209781719804928 0.209323637229019 0.790676362770981 0.511973628107762 0.4880263718922379 0.5974026082638039 0.4025973917361961 0.3329831512950041 0.6670168487049958 0.7020000773169786 0.2979999226830215 0.9671637017843643 0.03283629821563573 0.5210192947105047 0.4789807052894954 0.6513408996092026 0.3486591003907974 0.5827144991840793 0.4172855008159208 0.523486104549065 0.4765138954509351 0.1966283545128358 0.8033716454871642 0.334236236422634 0.6657637635773661 0.5373163489065826 0.4626836510934174 0.6696110502007974 0.3303889497992026 0.547053510443766 0.452946489556234 0.7355339980016443 0.2644660019983557 0.7519273532435906 0.2480726467564093 0.9 0.1 0.9 0.1 0.9 0.1 0.9 0.1 0.9 0.1 0.7805540809505571 0.2194459190494428 0.3957566397270141 0.6042433602729858 0.9580289667091364 0.04197103329086362 0.6053659155918588 0.3946340844081412 0.6173037516186389 0.3826962483813611 0.6808693095253049 0.3191306904746951 0.3803414435031213 0.6196585564968786 0.56069249168536 0.4393075083146401 0.7958025573237714 0.2041974426762288 0.7758387117391241 0.2241612882608759 0.6723533744092568 0.3276466255907432 0.5953156818608988 0.4046843181391014 0.6750271500391488 0.3249728499608511 0.5526016533143651 0.4473983466856349 0.5307826411362223 0.4692173588637776 0.4256741620341626 0.5743258379658374 0.3246169298512186 0.6753830701487814 0.4330773394727515 0.5669226605272485 0.1996505382635619 0.800349461736438 0.5488075305616634 0.4511924694383365</probabilities>
		</cpt>
		<cpt id="Hallucination">
			<state id="Absent" />
			<state id="Present" />
			<parents>TemplarArchives TimePeriod</parents>
			<probabilities>0.1969071231110194 0.8030928768889807 0.7846918677900598 0.2153081322099402 0.3866420597236995 0.6133579402763005 0.8640843444857904 0.1359156555142096 0.5588516639782296 0.4411483360217706 0.8449531382595336 0.1550468617404664 0.8186093763200432 0.1813906236799567 0.4264975578904629 0.5735024421095371 0.6052176158084247 0.3947823841915752 0.5060481064113267 0.4939518935886733 0.2940518479062895 0.7059481520937105 0.1542714013424209 0.8457285986575791 0.3981887489907172 0.6018112510092827 0.7084361293821834 0.2915638706178166 0.6822191522812477 0.3177808477187523 0.4831997746768412 0.5168002253231588 0.8462989887126385 0.1537010112873615 0.2474831205879264 0.7525168794120737 0.7720070713264267 0.2279929286735732 0.1850958110423837 0.8149041889576164 0.7929649932264201 0.20703500677358 0.5273297278254561 0.4726702721745439 0.5039325215562323 0.4960674784437678 0.5490035116862297 0.4509964883137703 0.8464136259544017 0.1535863740455983 0.9 0.1 0.9 0.1 0.9 0.1 0.9 0.1 0.9 0.1 0.7778857274184416 0.2221142725815583 0.611786650347606 0.3882133496523939 0.8884929525932922 0.1115070474067078 0.6346695994713182 0.3653304005286819 0.6194884031361655 0.3805115968638345 0.3151555108480573 0.6848444891519427 0.9317940179817608 0.06820598201823937 0.6270981403625308 0.3729018596374693 0.5483278037468571 0.4516721962531429 0.7468702321577594 0.2531297678422406 0.6447476611712129 0.3552523388287871 0.1942811168622496 0.8057188831377504 0.4173293810788032 0.5826706189211968 0.7541705767762211 0.2458294232237788 0.2938273475168191 0.7061726524831808 0.548344611954569 0.4516553880454312 0.5367914439150554 0.4632085560849445 0.4504831418400853 0.5495168581599146 0.5201018214046468 0.4798981785953532 0.5702674405837473 0.4297325594162528</probabilities>
		</cpt>
		<cpt id="PlasmaShields2">
			<state id="Absent" />
			<state id="Present" />
			<parents>TimePeriod PlasmaShields1</parents>
			<probabilities>0.6374473150122711 0.3625526849877288 0.1530152323765248 0.8469847676234752 0.5210116057687438 0.4789883942312562 0.9732059250029101 0.0267940749970898 0.1453529340577047 0.8546470659422953 0.5794184437511306 0.4205815562488694 0.4695226037481488 0.5304773962518513 0.6094030797314087 0.3905969202685913 0.6466165344914066 0.3533834655085935 0.9764194691085327 0.02358053089146723 0.1806099411167962 0.8193900588832038 0.937614614820578 0.06238538517942205 0.5833469927131942 0.4166530072868058 0.760966338248563 0.2390336617514371 0.4042279920111767 0.5957720079888235 0.4538651482888199 0.5461348517111802 0.5352213226253884 0.4647786773746117 0.7879014183466937 0.2120985816533063 0.2935163454456102 0.7064836545543899 0.8556142996575809 0.1443857003424193 0.4744109604792109 0.5255890395207892 0.6945604938318661 0.3054395061681339 0.7242488589373521 0.2757511410626478 0.3114905276406984 0.6885094723593015 0.5328910296569605 0.4671089703430394 0.4023168081620143 0.5976831918379856 0.5506450691723298 0.4493549308276702 0.420474243342815 0.579525756657185 0.7717998027507875 0.2282001972492125 0.5706501857461834 0.4293498142538165 0.2980103628204431 0.7019896371795569 0.9411089168253964 0.05889108317460352 0.7616792484221379 0.2383207515778621 0.605359323118767 0.394640676881233 0.3667516355218428 0.6332483644781571 0.5584329904106657 0.4415670095893342 0.9192005565504199 0.08079944344958005 0.7321422735437877 0.2678577264562123 0.4793815798784843 0.5206184201215157 0.4997806802175697 0.5002193197824303 0.5483641649248766 0.4516358350751234 0.3728022939248642 0.6271977060751358 0.7885805341152925 0.2114194658847075 0.7207843331593753 0.2792156668406247 0.7576826257314595 0.2423173742685405 0.7293817519642141 0.2706182480357858 0.6468435751404525 0.3531564248595475 0.8168513007152112 0.1831486992847889 0.9037013759593356 0.09629862404066428 0.4513597498453432 0.5486402501546569</probabilities>
		</cpt>
		<cpt id="PlasmaShields3">
			<state id="Absent" />
			<state id="Present" />
			<parents>TimePeriod PlasmaShields2</parents>
			<probabilities>0.5780060423553576 0.4219939576446424 0.4951044316325224 0.5048955683674775 0.4301954696832174 0.5698045303167826 0.6839556676059552 0.316044332394045 0.6956305433062854 0.3043694566937146 0.1494939706419116 0.8505060293580885 0.4872689266287164 0.5127310733712837 0.6712626058055855 0.3287373941944144 0.2445517269293983 0.7554482730706017 0.574849025536988 0.4251509744630119 0.6285904547101466 0.3714095452898534 0.2918153229239642 0.7081846770760357 0.5175401294328877 0.4824598705671124 0.2218604609546865 0.7781395390453133 0.4284574216631639 0.571542578336836 0.6605809589397101 0.3394190410602897 0.5311603399064384 0.4688396600935618 0.5019262829591819 0.4980737170408182 0.6666995614540073 0.3333004385459926 0.8254158688951422 0.1745841311048579 0.2423217825874095 0.7576782174125905 0.4039148633436982 0.5960851366563018 0.4191494673881418 0.5808505326118582 0.6018476719704554 0.3981523280295445 0.5617397880868632 0.4382602119131368 0.586595175480771 0.4134048245192291 0.8045979706531904 0.1954020293468096 0.9373172063055644 0.06268279369443562 0.7489949491310701 0.2510050508689299 0.2583647787855554 0.7416352212144447 0.3150679698532208 0.6849320301467793 0.735497495402567 0.2645025045974329 0.9499994859611218 0.05000051403887826 0.5978969433668159 0.4021030566331841 0.4091463341123801 0.59085366588762 0.6566998437943745 0.3433001562056256 0.5010037037105231 0.4989962962894771 0.5019280143401537 0.4980719856598465 0.7741547339962022 0.225845266003798 0.2101147191129467 0.7898852808870532 0.4388476739201569 0.561152326079843 0.6777313277831455 0.3222686722168546 0.4815642292002614 0.5184357707997387 0.3196790816580022 0.6803209183419979 0.4128762843004916 0.5871237156995084 0.9499951313802616 0.05000486861973844 0.4382848260155582 0.5617151739844418 0.2296398035709415 0.7703601964290584 0.5366640776043449 0.4633359223956551 0.5001801927274809 0.4998198072725192</probabilities>
		</cpt>
		<cpt id="GroundArmor2">
			<state id="Absent" />
			<state id="Present" />
			<parents>TimePeriod GroundArmor1</parents>
			<probabilities>0.6521074193971741 0.3478925806028259 0.9500326194364942 0.04996738056350584 0.8423661051184718 0.1576338948815282 0.6356353790694028 0.3643646209305973 0.5881474269060951 0.411852573093905 0.4720916483666671 0.5279083516333331 0.5004977619380867 0.4995022380619134 0.5635190204301415 0.4364809795698585 0.2477405493992895 0.7522594506007106 0.5994544454018789 0.4005455545981212 0.1892657928205299 0.8107342071794702 0.5679013454157472 0.4320986545842527 0.1918370197706687 0.8081629802293312 0.5496836230810734 0.4503163769189265 0.6689680899159555 0.3310319100840445 0.7522553717402647 0.2477446282597353 0.2055318694081177 0.7944681305918823 0.8990468185774506 0.1009531814225494 0.8813288336880291 0.118671166311971 0.3383909273983808 0.6616090726016191 0.6115040810482177 0.3884959189517823 0.7315454128513753 0.2684545871486246 0.2871187319029426 0.7128812680970573 0.4588290020471434 0.5411709979528565 0.1445311046178363 0.8554688953821638 0.2011208676109194 0.7988791323890807 0.4963195034182962 0.5036804965817037 0.4794758570773887 0.5205241429226114 0.9348184578359517 0.06518154216404816 0.549235952847255 0.4507640471527449 0.3130209926922114 0.6869790073077886 0.548558031198145 0.451441968801855 0.5372761603815693 0.4627238396184307 0.4685768781108666 0.5314231218891333 0.6053648062886776 0.3946351937113224 0.4524009072824853 0.5475990927175147 0.8275646418012663 0.1724353581987337 0.5408957186026375 0.4591042813973624 0.6804054927219509 0.3195945072780492 0.3107978514067921 0.6892021485932079 0.1401864067780216 0.8598135932219784 0.3439206807741724 0.6560793192258275 0.6893263250468026 0.3106736749531974 0.6635619788627737 0.3364380211372263 0.4507178270997135 0.5492821729002864 0.9603145467926101 0.03968545320738993 0.689143905857339 0.3108560941426611 0.3573465491038342 0.6426534508961658 0.5921445529464448 0.4078554470535553 0.1267538873178977 0.8732461126821023</probabilities>
		</cpt>
		<cpt id="GroundArmor3">
			<state id="Absent" />
			<state id="Present" />
			<parents>TimePeriod GroundArmor2</parents>
			<probabilities>0.8220223056861684 0.1779776943138317 0.2290938354306897 0.7709061645693103 0.801380700538596 0.198619299461404 0.2624606043159651 0.7375393956840349 0.453225266573083 0.546774733426917 0.2393021972756416 0.7606978027243585 0.2442209291839839 0.7557790708160161 0.609750441212831 0.390249558787169 0.5114570395992945 0.4885429604007055 0.6631312561495582 0.3368687438504419 0.3534747116396791 0.6465252883603208 0.6534363508320409 0.3465636491679592 0.4235913705375367 0.5764086294624633 0.4509560032031884 0.5490439967968117 0.5775365786698469 0.4224634213301531 0.2909118669946244 0.7090881330053755 0.5146876442350339 0.4853123557649662 0.8683993649594416 0.1316006350405584 0.3768569555594191 0.6231430444405808 0.5731611791292867 0.4268388208707132 0.398055218420215 0.601944781579785 0.4058785591190426 0.5941214408809573 0.2625899483669769 0.7374100516330232 0.4780661681691004 0.5219338318308996 0.5515351520275027 0.4484648479724973 0.289903802813603 0.7100961971863971 0.2544019772812017 0.7455980227187982 0.3359940839166584 0.6640059160833417 0.6543165872118211 0.3456834127881788 0.8469997027948314 0.1530002972051686 0.59157530065242 0.4084246993475801 0.5905459629239187 0.4094540370760814 0.5559255858502274 0.4440744141497726 0.2096089828955322 0.7903910171044679 0.4123425150169712 0.5876574849830288 0.533056315170261 0.4669436848297391 0.6568528720808663 0.3431471279191335 0.6115598584219704 0.3884401415780297 0.3841450017781875 0.6158549982218126 0.5762843423950675 0.4237156576049326 0.6066518169345638 0.3933481830654362 0.5762750118255793 0.4237249881744208 0.6602833660585527 0.3397166339414474 0.8831302025617729 0.1168697974382271 0.5001772666157484 0.4998227333842517 0.9174074479713409 0.08259255202865921 0.3140494410995833 0.6859505589004168 0.2422402381206941 0.7577597618793059 0.555536642733254 0.444463357266746 0.3549767494878044 0.6450232505121956</probabilities>
		</cpt>
		<cpt id="GroundWeapons2">
			<state id="Absent" />
			<state id="Present" />
			<parents>TimePeriod Forge GroundWeapons1</parents>
			<probabilities>0.204679831230794 0.7953201687692061 0.60486022396606 0.39513977603394 0.9 0.1 0.9 0.1 0.4413496898650732 0.5586503101349268 0.4171022983059645 0.5828977016940355 0.9 0.1 0.9 0.1 0.6776145498192273 0.3223854501807725 0.9019555926979092 0.09804440730209098 0.9 0.1 0.9 0.1 0.5558367189991318 0.4441632810008682 0.7530104764543105 0.2469895235456895 0.9 0.1 0.9 0.1 0.1914967404381446 0.8085032595618554 0.9571378892366984 0.04286211076330163 0.9 0.1 0.9 0.1 0.8179464303845078 0.1820535696154923 0.6400216093942744 0.3599783906057257 0.8626307199189297 0.1373692800810703 0.897412842010935 0.102587157989065 0.5542177972593004 0.4457822027406995 0.3374857688468332 0.6625142311531667 0.907493548764808 0.09250645123519202 0.7385772098607831 0.2614227901392169 0.5740341852564569 0.4259658147435431 0.1653174094052732 0.8346825905947267 0.8423470353015592 0.1576529646984408 0.8647974995240985 0.1352025004759017 0.7541569952708219 0.2458430047291781 0.7096075061900232 0.2903924938099768 0.8325204540524984 0.1674795459475015 0.6315577620046514 0.3684422379953486 0.3046357368753318 0.6953642631246683 0.4262138249579012 0.5737861750420988 0.9019920525165026 0.09800794748349739 0.3727580036082904 0.6272419963917095 0.5531395839669148 0.4468604160330853 0.1889446781836028 0.8110553218163972 0.5317667342270291 0.4682332657729708 0.6584871534371962 0.3415128465628038 0.6294777507850293 0.3705222492149707 0.353271564205738 0.6467284357942619 0.8524743783088455 0.1475256216911545 0.3121868378333468 0.6878131621666533 0.4027530331242162 0.5972469668757837 0.8315039683653995 0.1684960316346006 0.2633602162339474 0.7366397837660527 0.8850242895726844 0.1149757104273155 0.4356498547209707 0.5643501452790293 0.956727578302365 0.04327242169763507 0.7948646077858138 0.2051353922141863 0.7720074094544152 0.2279925905455849 0.1580498030686268 0.8419501969313733 0.6320305098603694 0.3679694901396306 0.8252644750479961 0.174735524952004 0.492391997119056 0.5076080028809441 0.7660120720650141 0.2339879279349859 0.8998500420151568 0.1001499579848433 0.7933986939771068 0.2066013060228933 0.699308475391786 0.300691524608214 0.6843753529235046 0.3156246470764955 0.4919178274399836 0.5080821725600164 0.9300186253203447 0.06998137467965523 0.6250993266498532 0.3749006733501466 0.6990301297538024 0.3009698702461977 0.7050921262285499 0.2949078737714501 0.6459061464195877 0.3540938535804123 0.619518879439097 0.3804811205609029 0.2884318282124897 0.7115681717875103 0.3555038670135344 0.6444961329864657 0.8006045763400735 0.1993954236599264 0.4996788734857562 0.5003211265142437 0.8070822045737958 0.1929177954262041 0.8005870467593598 0.1994129532406402 0.5547068487294139 0.4452931512705862 0.4671854709243747 0.5328145290756252 0.4810952189579343 0.5189047810420656 0.3269274851601314 0.6730725148398686 0.3165564665670598 0.6834435334329404 0.3765509912286214 0.6234490087713785 0.658788919689122 0.3412110803108781 0.6510394953874988 0.3489605046125011 0.8165567608810241 0.1834432391189759 0.5126332088414162 0.4873667911585838 0.3087959210085475 0.6912040789914525 0.2797842299963674 0.7202157700036326 0.5172132690930651 0.482786730906935 0.897639254197669 0.1023607458023311 0.7002208555062419 0.2997791444937582 0.5474401153452935 0.4525598846547065 0.9362035698660531 0.06379643013394691 0.5806427102963809 0.4193572897036191 0.6387494511971459 0.3612505488028541 0.6662105470037801 0.3337894529962199 0.9323832748079877 0.06761672519201249 0.5059003361368756 0.4940996638631244</probabilities>
		</cpt>
		<cpt id="GroundWeapons3">
			<state id="Absent" />
			<state id="Present" />
			<parents>TimePeriod Forge GroundWeapons2</parents>
			<probabilities>0.4415226977353096 0.5584773022646904 0.561062285553353 0.4389377144466471 0.9 0.1 0.9 0.1 0.5572913692119238 0.4427086307880762 0.4422645293555492 0.5577354706444507 0.9 0.1 0.9 0.1 0.381834530820808 0.6181654691791921 0.6443537721934649 0.3556462278065351 0.9 0.1 0.9 0.1 0.5009818243332701 0.49901817566673 0.9105297000538154 0.08947029994618454 0.9 0.1 0.9 0.1 0.3341623447274867 0.6658376552725134 0.6213416788555455 0.3786583211444546 0.9 0.1 0.9 0.1 0.7264032085435143 0.2735967914564859 0.9051214843978681 0.09487851560213192 0.8704442502530372 0.1295557497469629 0.8995301574004924 0.1004698425995077 0.3860170172247927 0.6139829827752072 0.6066507075607098 0.3933492924392901 0.649555407702836 0.350444592297164 0.913607904427109 0.08639209557289092 0.2710651806723058 0.7289348193276942 0.7236023062087035 0.2763976937912965 0.5561803057184791 0.443819694281521 0.770214078291049 0.229785921708951 0.9279689762809517 0.07203102371904842 0.1743396404148412 0.8256603595851589 0.6124157412260604 0.3875842587739397 0.75032063000107 0.24967936999893 0.9296969288777159 0.07030307112228407 0.9885154328588062 0.01148456714119382 0.4993095598020174 0.5006904401979828 0.5899264577012718 0.410073542298728 0.6102195965178201 0.3897804034821801 0.4520417975181076 0.5479582024818923 0.6496020588996878 0.3503979411003123 0.6415926529922242 0.3584073470077757 0.953336868695563 0.04666313130443703 0.4071508857815421 0.5928491142184579 0.8999001922362673 0.1000998077637327 0.4653783828302505 0.5346216171697495 0.2655815007133154 0.7344184992866846 0.6402425569675903 0.3597574430324098 0.608376684573081 0.3916233154269189 0.5202690778989602 0.4797309221010399 0.6719152659333239 0.3280847340666762 0.4283667833232303 0.5716332166767699 0.5952158465225943 0.4047841534774057 0.7509034930529204 0.2490965069470796 0.9361484526588232 0.06385154734117675 0.4693149819533991 0.5306850180466008 0.4651133684824758 0.534886631517524 0.7593288121872185 0.2406711878127816 0.6507054286239614 0.3492945713760385 0.4767497613744279 0.5232502386255721 0.2920801979345576 0.7079198020654424 0.4781537284944379 0.5218462715055622 0.8661548175034042 0.1338451824965958 0.3921344183948226 0.6078655816051773 0.6043069511410948 0.3956930488589051 0.3928869172376596 0.6071130827623404 0.977032088781732 0.022967911218268 0.5232391384765827 0.4767608615234174 0.6619861391434959 0.3380138608565043 0.8819324603648633 0.1180675396351367 0.790992171312926 0.209007828687074 0.8203816657059527 0.1796183342940473 0.547499596094801 0.4525004039051989 0.528055931115953 0.4719440688840472 0.5233501076710768 0.4766498923289232 0.66917021171754 0.33082978828246 0.4634899388621024 0.5365100611378976 0.8637655327486434 0.1362344672513565 0.6679143151974304 0.3320856848025696 0.8064019109415501 0.1935980890584499 0.537565479278848 0.4624345207211519 0.944162477372999 0.05583752262700101 0.2677435188264529 0.7322564811735471 0.3949850101945375 0.6050149898054624 0.3566927073248292 0.6433072926751708 0.3306857413061121 0.6693142586938881 0.823056083362906 0.1769439166370941 0.4353549065963265 0.5646450934036736 0.441888705457668 0.558111294542332 0.7218289956932481 0.2781710043067519 0.7227648067752743 0.2772351932247258 0.6461801792310199 0.3538198207689802 0.6918151578153977 0.3081848421846024 0.4360480603330484 0.5639519396669516 0.4853357581803039 0.5146642418196961 0.700060144321691 0.2999398556783092 0.8671029812498143 0.1328970187501857 0.7085918731390021 0.291408126860998</probabilities>
		</cpt>
		<cpt id="AirArmor2">
			<state id="Absent" />
			<state id="Present" />
			<parents>TimePeriod AirArmor1</parents>
			<probabilities>0.8350197550226831 0.1649802449773168 0.4259768790203953 0.5740231209796047 0.7785736661786719 0.2214263338213281 0.281655161735239 0.718344838264761 0.3208760887093125 0.6791239112906876 0.5588124675702161 0.4411875324297839 0.1910603212905258 0.8089396787094744 0.4514230422105481 0.5485769577894519 0.5937726006286487 0.4062273993713514 0.305120962337341 0.694879037662659 0.4435976408112037 0.5564023591887964 0.5857973129371755 0.4142026870628244 0.6422359360943846 0.3577640639056154 0.3154265459631593 0.6845734540368407 0.5026046422107193 0.4973953577892807 0.5535228275683832 0.4464771724316168 0.4106018805511121 0.5893981194488879 0.4874123898087537 0.5125876101912464 0.4070900147927378 0.5929099852072622 0.09124554491229545 0.9087544550877045 0.7640365650358775 0.2359634349641225 0.7361479097285723 0.2638520902714278 0.9611858979844091 0.03881410201559095 0.8459379950421081 0.1540620049578919 0.5488915445283981 0.4511084554716018 0.2689777973959159 0.7310222026040841 0.6382256198432535 0.3617743801567465 0.229939478482328 0.770060521517672 0.900954192500146 0.09904580749985396 0.484353558942981 0.515646441057019 0.6535819809480155 0.3464180190519844 0.4241025041677079 0.575897495832292 0.1282394059577715 0.8717605940422285 0.6689897844380438 0.3310102155619561 0.4779079753037336 0.5220920246962664 0.8211467688553024 0.1788532311446978 0.147421966346679 0.852578033653321 0.5995994961979713 0.4004005038020288 0.3753482418154185 0.6246517581845815 0.5380408537244211 0.4619591462755788 0.486752333767111 0.5132476662328889 0.9207877919700694 0.07921220802993052 0.6340183999718366 0.3659816000281633 0.7535841515825725 0.2464158484174274 0.1413357687761967 0.8586642312238033 0.3893285934036502 0.6106714065963498 0.7490098501016744 0.2509901498983255 0.6129816765662993 0.3870183234337009 0.7734041098828102 0.2265958901171899 0.6167914914105263 0.3832085085894738</probabilities>
		</cpt>
		<cpt id="AirArmor3">
			<state id="Absent" />
			<state id="Present" />
			<parents>TimePeriod AirArmor2</parents>
			<probabilities>0.9235162404740919 0.07648375952590812 0.6197199226200101 0.3802800773799899 0.5046998259298113 0.4953001740701887 0.3955066861400028 0.6044933138599972 0.1455792374536765 0.8544207625463235 0.7940333900653438 0.2059666099346562 0.3628010056996256 0.6371989943003745 0.2713442061853397 0.7286557938146603 0.2821223523156667 0.7178776476843334 0.2003169718094241 0.7996830281905759 0.6570535542964943 0.3429464457035056 0.8379539049349628 0.1620460950650372 0.5956795812211807 0.4043204187788193 0.2729379096105191 0.727062090389481 0.9047443519016227 0.09525564809837718 0.439594610452568 0.560405389547432 0.2360655683276837 0.7639344316723163 0.4006838888966713 0.5993161111033287 0.9339699091870402 0.06603009081295982 0.4787018995737838 0.5212981004262161 0.4703003702327555 0.5296996297672444 0.7494253042244976 0.2505746957755025 0.3841720048194354 0.6158279951805646 0.9228115492004362 0.07718845079956385 0.4092447330742715 0.5907552669257287 0.5097269520125937 0.4902730479874064 0.4004542769797296 0.5995457230202704 0.1319654084032025 0.8680345915967976 0.4845240670787097 0.5154759329212901 0.6162751480688926 0.3837248519311075 0.8739615768752181 0.126038423124782 0.5417988275383497 0.4582011724616502 0.4710861623444556 0.5289138376555443 0.7863146890447051 0.2136853109552948 0.6647615727024374 0.3352384272975626 0.4342242079373889 0.5657757920626111 0.6982357011305488 0.3017642988694513 0.2635284458589829 0.736471554141017 0.2757050905793219 0.7242949094206782 0.2230779959682528 0.7769220040317471 0.7002548394463112 0.2997451605536887 0.5813860346256514 0.4186139653743486 0.6294624170991309 0.3705375829008691 0.9820601935016002 0.01793980649839983 0.611111985051205 0.388888014948795 0.3316001195690776 0.6683998804309224 0.5424968324040517 0.4575031675959482 0.5480534419126142 0.4519465580873857 0.2247268325471737 0.7752731674528263 0.3818300396741756 0.6181699603258244</probabilities>
		</cpt>
		<cpt id="AirWeapons2">
			<state id="Absent" />
			<state id="Present" />
			<parents>TimePeriod AirWeapons1</parents>
			<probabilities>0.2861265807358636 0.7138734192641364 0.8255940637389361 0.1744059362610639 0.09926246931616822 0.9007375306838318 0.2344311996750614 0.7655688003249388 0.3734606160409908 0.6265393839590091 0.6203819228603212 0.3796180771396787 0.6554866703647625 0.3445133296352375 0.1547515400312928 0.8452484599687071 0.5343320752687329 0.4656679247312671 0.7367646756394575 0.2632353243605424 0.3740576171131451 0.6259423828868549 0.8706469788063945 0.1293530211936055 0.1595631550354686 0.8404368449645313 0.5455092866632365 0.4544907133367634 0.3014654464638465 0.6985345535361534 0.5486232128459823 0.4513767871540177 0.5326359575600737 0.4673640424399264 0.4986776364808098 0.5013223635191901 0.9382542449579981 0.06174575504200195 0.7528054344539308 0.2471945655460693 0.719425216716577 0.280574783283423 0.210312081864779 0.789687918135221 0.7967844225007651 0.2032155774992349 0.4216351167727612 0.5783648832272389 0.6607531737459421 0.3392468262540579 0.3661236283837251 0.6338763716162749 0.7254529771913818 0.2745470228086182 0.9514326589464737 0.04856734105352634 0.5570247430670695 0.4429752569329304 0.5586274517718406 0.4413725482281595 0.7027485093906283 0.2972514906093717 0.4413130407574156 0.5586869592425846 0.3085735406811517 0.6914264593188483 0.6370872815364784 0.3629127184635216 0.1077791368747064 0.8922208631252935 0.6458825557873632 0.3541174442126367 0.7535695289720577 0.2464304710279422 0.5186572589417696 0.4813427410582304 0.2790726712896846 0.7209273287103154 0.6363185308971878 0.3636814691028122 0.410204190787382 0.5897958092126179 0.5958655531764181 0.404134446823582 0.3926042397626872 0.6073957602373128 0.6479044293153935 0.3520955706846064 0.8034628341259392 0.1965371658740607 0.4969577539049986 0.5030422460950014 0.6993494802388569 0.3006505197611431 0.6109735801510434 0.3890264198489567 0.568473182953125 0.431526817046875 0.6259895417033249 0.3740104582966751</probabilities>
		</cpt>
		<cpt id="AirWeapons3">
			<state id="Absent" />
			<state id="Present" />
			<parents>TimePeriod AirWeapons2</parents>
			<probabilities>0.8553992877962542 0.1446007122037457 0.5173348860547121 0.4826651139452879 0.441864477710965 0.558135522289035 0.2256409501668261 0.7743590498331738 0.703211188716386 0.296788811283614 0.6818846453612744 0.3181153546387255 0.4963349218613493 0.5036650781386508 0.3187253239142433 0.6812746760857567 0.6211543417068449 0.3788456582931551 0.5509316731760168 0.4490683268239832 0.08423952896947765 0.9157604710305224 0.5817757251621561 0.4182242748378438 0.5723496730474368 0.4276503269525632 0.7078596620046771 0.2921403379953229 0.4021967422155921 0.5978032577844079 0.8471217426655612 0.1528782573344389 0.5723563862766518 0.4276436137233482 0.9872575565143412 0.01274244348565873 0.09999698054272421 0.9000030194572758 0.7985599976707789 0.201440002329221 0.363032460365782 0.6369675396342179 0.8513752895814781 0.1486247104185219 0.1023739587715439 0.897626041228456 0.5872429484028592 0.4127570515971409 0.6493954495049924 0.3506045504950075 0.415300937512111 0.5846990624878892 0.232980626298026 0.7670193737019739 0.2864702922453444 0.7135297077546555 0.8504577777226331 0.149542222277367 0.6271951972530204 0.3728048027469796 0.7516895218888936 0.2483104781111063 0.6817972930074947 0.3182027069925053 0.1722486433623904 0.8277513566376096 0.4511633005998165 0.5488366994001835 0.8576652396783607 0.1423347603216393 0.3866917762402906 0.6133082237597094 0.1513656361689951 0.848634363831005 0.6873632676498077 0.3126367323501924 0.6102116673133464 0.3897883326866536 0.4790503037405635 0.5209496962594366 0.6504195303000582 0.3495804696999418 0.4475788659515565 0.5524211340484436 0.905992366825994 0.09400763317400589 0.4111936247319125 0.5888063752680874 0.6837379884200573 0.3162620115799427 0.6030470778797709 0.3969529221202292 0.3296188069530789 0.6703811930469211 0.1295222241110419 0.870477775888958 0.417771576625653 0.5822284233743469 0.4381754522509275 0.5618245477490725</probabilities>
		</cpt>
	</nodes>
	<extensions>
		<genie version="1.0" app="GeNIe 2.0.5079.0" name="Network1" faultnameformat="nodestate">
			<node id="Assimilator">
				<name>Assimilator</name>
				<interior color="e5f6f7" />
				<outline color="000080" />
				<font color="000000" name="Arial" size="8" />
				<position>510 340 576 381</position>
			</node>
			<node id="Pylon">
				<name>Pylon</name>
				<interior color="e5f6f7" />
				<outline color="000080" />
				<font color="000000" name="Arial" size="8" />
				<position>760 247 805 275</position>
			</node>
			<node id="Gateway">
				<name>Gateway</name>
				<interior color="e5f6f7" />
				<outline color="000080" />
				<font color="000000" name="Arial" size="8" />
				<position>736 329 793 364</position>
			</node>
			<node id="Zealot">
				<name>Zealot</name>
				<interior color="99cc00" />
				<outline color="000080" />
				<font color="000000" name="Arial" size="8" />
				<position>634 275 682 305</position>
			</node>
			<node id="CyberCore">
				<name>CyberCore</name>
				<interior color="e5f6f7" />
				<outline color="000080" />
				<font color="000000" name="Arial" size="8" />
				<position>617 390 683 431</position>
			</node>
			<node id="CitadelOfAdun">
				<name>CitadelOfAdun</name>
				<interior color="e5f6f7" />
				<outline color="000080" />
				<font color="000000" name="Arial" size="8" />
				<position>541 449 623 500</position>
			</node>
			<node id="Forge">
				<name>Forge</name>
				<interior color="e5f6f7" />
				<outline color="000080" />
				<font color="000000" name="Arial" size="8" />
				<position>877 299 923 327</position>
			</node>
			<node id="PhotonCannon">
				<name>PhotonCannon</name>
				<interior color="e5f6f7" />
				<outline color="000080" />
				<font color="000000" name="Arial" size="8" />
				<position>977 366 1059 417</position>
			</node>
			<node id="Stargate">
				<name>Stargate</name>
				<interior color="e5f6f7" />
				<outline color="000080" />
				<font color="000000" name="Arial" size="8" />
				<position>709 520 765 555</position>
			</node>
			<node id="RoboticsFacility">
				<name>RoboticsFacility</name>
				<interior color="e5f6f7" />
				<outline color="000080" />
				<font color="000000" name="Arial" size="8" />
				<position>834 477 920 530</position>
			</node>
			<node id="RoboticsSupportBay">
				<name>RoboticsSupportBay</name>
				<interior color="e5f6f7" />
				<outline color="000080" />
				<font color="000000" name="Arial" size="8" />
				<position>903 586 1022 653</position>
			</node>
			<node id="Observatory">
				<name>Observatory</name>
				<interior color="e5f6f7" />
				<outline color="000080" />
				<font color="000000" name="Arial" size="8" />
				<position>961 527 1034 572</position>
			</node>
			<node id="ArbiterTribunal">
				<name>ArbiterTribunal</name>
				<interior color="e5f6f7" />
				<outline color="000080" />
				<font color="000000" name="Arial" size="8" />
				<position>607 627 689 678</position>
			</node>
			<node id="TemplarArchives">
				<name>TemplarArchives</name>
				<interior color="e5f6f7" />
				<outline color="000080" />
				<font color="000000" name="Arial" size="8" />
				<position>569 531 662 589</position>
			</node>
			<node id="FleetBeacon">
				<name>FleetBeacon</name>
				<interior color="e5f6f7" />
				<outline color="000080" />
				<font color="000000" name="Arial" size="8" />
				<position>797 565 870 610</position>
			</node>
			<node id="ShieldBattery">
				<name>ShieldBattery</name>
				<interior color="e5f6f7" />
				<outline color="000080" />
				<font color="000000" name="Arial" size="8" />
				<position>838 393 914 440</position>
			</node>
			<node id="Dragoon">
				<name>Dragoon</name>
				<interior color="99cc00" />
				<outline color="000080" />
				<font color="000000" name="Arial" size="8" />
				<position>456 427 512 462</position>
			</node>
			<node id="DarkTemplar">
				<name>DarkTemplar</name>
				<interior color="99cc00" />
				<outline color="000080" />
				<font color="000000" name="Arial" size="8" />
				<position>436 491 509 536</position>
			</node>
			<node id="HighTemplar">
				<name>HighTemplar</name>
				<interior color="99cc00" />
				<outline color="000080" />
				<font color="000000" name="Arial" size="8" />
				<position>412 561 483 605</position>
			</node>
			<node id="Shuttle">
				<name>Shuttle</name>
				<interior color="99cc00" />
				<outline color="000080" />
				<font color="000000" name="Arial" size="8" />
				<position>982 461 1031 491</position>
			</node>
			<node id="Reaver">
				<name>Reaver</name>
				<interior color="99cc00" />
				<outline color="000080" />
				<font color="000000" name="Arial" size="8" />
				<position>1051 607 1102 638</position>
			</node>
			<node id="Observer">
				<name>Observer</name>
				<interior color="99cc00" />
				<outline color="000080" />
				<font color="000000" name="Arial" size="8" />
				<position>1075 543 1136 581</position>
			</node>
			<node id="Carrier">
				<name>Carrier</name>
				<interior color="99cc00" />
				<outline color="000080" />
				<font color="000000" name="Arial" size="8" />
				<position>784 656 833 686</position>
			</node>
			<node id="Scout">
				<name>Scout</name>
				<interior color="99cc00" />
				<outline color="000080" />
				<font color="000000" name="Arial" size="8" />
				<position>716 691 762 719</position>
			</node>
			<node id="Corsair">
				<name>Corsair</name>
				<interior color="99cc00" />
				<outline color="000080" />
				<font color="000000" name="Arial" size="8" />
				<position>757 690 808 721</position>
			</node>
			<node id="Arbiter">
				<name>Arbiter</name>
				<interior color="99cc00" />
				<outline color="000080" />
				<font color="000000" name="Arial" size="8" />
				<position>504 691 553 721</position>
			</node>
			<node id="DarkArchon">
				<name>DarkArchon</name>
				<interior color="99cc00" />
				<outline color="000080" />
				<font color="000000" name="Arial" size="8" />
				<position>339 483 410 527</position>
			</node>
			<node id="Archon">
				<name>Archon</name>
				<interior color="99cc00" />
				<outline color="000080" />
				<font color="000000" name="Arial" size="8" />
				<position>327 580 379 612</position>
			</node>
			<node id="TimePeriod">
				<name>TimePeriod</name>
				<interior color="ffcc00" />
				<outline color="000080" />
				<font color="000000" name="Arial" size="8" />
				<position>420 252 491 296</position>
			</node>
			<node id="GroundWeapons1">
				<name>GroundWeapons1</name>
				<interior color="ff99cc" />
				<outline color="000080" />
				<font color="000000" name="Arial" size="8" />
				<position>662 147 766 202</position>
			</node>
			<node id="GroundArmor1">
				<name>GroundArmor1</name>
				<interior color="ff99cc" />
				<outline color="000080" />
				<font color="000000" name="Arial" size="8" />
				<position>899 141 988 189</position>
			</node>
			<node id="PlasmaShields1">
				<name>PlasmaShields1</name>
				<interior color="ff99cc" />
				<outline color="000080" />
				<font color="000000" name="Arial" size="8" />
				<position>783 154 880 185</position>
			</node>
			<node id="AirWeapons1">
				<name>AirWeapons1</name>
				<interior color="ff99cc" />
				<outline color="000080" />
				<font color="000000" name="Arial" size="8" />
				<position>244 242 340 284</position>
			</node>
			<node id="AirArmor1">
				<name>AirArmor1</name>
				<interior color="ff99cc" />
				<outline color="000080" />
				<font color="000000" name="Arial" size="8" />
				<position>241 296 310 332</position>
			</node>
			<node id="LegEnhancements">
				<name>LegEnhancements</name>
				<interior color="ff99cc" />
				<outline color="000080" />
				<font color="000000" name="Arial" size="8" />
				<position>212 445 324 490</position>
			</node>
			<node id="SingularityCharge">
				<name>SingularityCharge</name>
				<interior color="ff99cc" />
				<outline color="000080" />
				<font color="000000" name="Arial" size="8" />
				<position>147 365 260 417</position>
			</node>
			<node id="PsionicStorm">
				<name>PsionicStorm</name>
				<interior color="ff99cc" />
				<outline color="000080" />
				<font color="000000" name="Arial" size="8" />
				<position>415 766 500 802</position>
			</node>
			<node id="Hallucination">
				<name>Hallucination</name>
				<interior color="ff99cc" />
				<outline color="000080" />
				<font color="000000" name="Arial" size="8" />
				<position>338 790 411 835</position>
			</node>
			<node id="PlasmaShields2">
				<name>PlasmaShields2</name>
				<interior color="ff99cc" />
				<outline color="000080" />
				<font color="000000" name="Arial" size="8" />
				<position>782 86 879 117</position>
			</node>
			<node id="PlasmaShields3">
				<name>PlasmaShields3</name>
				<interior color="ff99cc" />
				<outline color="000080" />
				<font color="000000" name="Arial" size="8" />
				<position>794 33 891 64</position>
			</node>
			<node id="GroundArmor2">
