<?xml version="1.0" encoding="ISO-8859-1"?>
<smile version="1.0" id="Network1" numsamples="1000" discsamples="10000">
	<nodes>
		<cpt id="TimePeriod">
			<state id="Period1" />
			<state id="Period2" />
			<state id="Period3" />
			<state id="Period4" />
			<state id="Period5" />
			<state id="Period6" />
			<state id="Period7" />
			<state id="Period8" />
			<state id="Period9" />
			<state id="Period10" />
			<state id="Period11" />
			<state id="Period12" />
			<state id="Period13" />
			<state id="Period14" />
			<state id="Period15" />
			<state id="Period16" />
			<state id="Period17" />
			<state id="Period18" />
			<state id="Period19" />
			<state id="Period20" />
			<state id="Period21" />
			<state id="Period22" />
			<state id="Period23" />
			<state id="Period24" />
			<state id="Period25" />
			<probabilities>0.04137155297532656 0.04137155297532656 0.04137155297532656 0.04137155297532656 0.04137155297532656 0.04137155297532656 0.04119013062409289 0.04119013062409289 0.04119013062409289 0.04119013062409289 0.04100870827285921 0.04082728592162555 0.04082728592162555 0.04064586357039187 0.0404644412191582 0.04028301886792453 0.03973875181422351 0.03937590711175617 0.03919448476052249 0.03901306240928883 0.03828737300435414 0.03738026124818578 0.0371988388969521 0.03665457184325108 0.03611030478955007</probabilities>
		</cpt>
		<cpt id="Barracks">
			<state id="Absent" />
			<state id="Present" />
			<parents>TimePeriod</parents>
			<probabilities>0.9995633187772925 0.0004366812227074236 0.951528384279476 0.04847161572052401 0.3751091703056769 0.6248908296943231 0.04759825327510917 0.9524017467248908 0.04323144104803493 0.956768558951965 0.0388646288209607 0.9611353711790392 0.03903508771929824 0.9609649122807017 0.03903508771929824 0.9609649122807017 0.03903508771929824 0.9609649122807017 0.03903508771929824 0.9609649122807017 0.03920704845814978 0.9607929515418503 0.03938053097345133 0.9606194690265486 0.03938053097345133 0.9606194690265486 0.03955555555555556 0.9604444444444444 0.03973214285714286 0.9602678571428571 0.03991031390134529 0.9600896860986546 0.04045454545454545 0.9595454545454545 0.0408256880733945 0.9591743119266055 0.04101382488479263 0.9589861751152073 0.0412037037037037 0.9587962962962963 0.0419811320754717 0.9580188679245283 0.04299516908212561 0.9570048309178744 0.04320388349514563 0.9567961165048543 0.04384236453201971 0.9561576354679803 0.04450000000000001 0.9555</probabilities>
		</cpt>
		<cpt id="Bunker">
			<state id="Absent" />
			<state id="Present" />
			<parents>Barracks TimePeriod</parents>
			<probabilities>0.9995633187772925 0.0004366812227074236 0.9995412844036699 0.0004587155963302753 0.9988372093023257 0.001162790697674419 0.990909090909091 0.009090909090909092 0.9900000000000001 0.01 0.9888888888888889 0.01111111111111111 0.9888888888888889 0.01111111111111111 0.9888888888888889 0.01111111111111111 0.9888888888888889 0.01111111111111111 0.9888888888888889 0.01111111111111111 0.9888888888888889 0.01111111111111111 0.9888888888888889 0.01111111111111111 0.9888888888888889 0.01111111111111111 0.9888888888888889 0.01111111111111111 0.9888888888888889 0.01111111111111111 0.9888888888888889 0.01111111111111111 0.9888888888888889 0.01111111111111111 0.9888888888888889 0.01111111111111111 0.9888888888888889 0.01111111111111111 0.9888888888888889 0.01111111111111111 0.9888888888888889 0.01111111111111111 0.9888888888888889 0.01111111111111111 0.9888888888888889 0.01111111111111111 0.9888888888888889 0.01111111111111111 0.9888888888888889 0.01111111111111111 0.9 0.1 0.9916666666666667 0.008333333333333333 0.9993055555555556 0.0006944444444444445 0.9995433789954338 0.00045662100456621 0.9677272727272727 0.03227272727272727 0.9000000000000001 0.1 0.8631818181818182 0.1368181818181818 0.8404545454545455 0.1595454545454546 0.8268181818181818 0.1731818181818182 0.8177272727272728 0.1822727272727273 0.7894977168949772 0.2105022831050228 0.7747706422018349 0.2252293577981652 0.7655963302752294 0.2344036697247707 0.7645161290322581 0.235483870967742 0.763425925925926 0.2365740740740741 0.7623255813953489 0.2376744186046512 0.754245283018868 0.2457547169811321 0.7423809523809525 0.2576190476190476 0.7411483253588517 0.2588516746411483 0.7302884615384616 0.2697115384615385 0.725 0.275 0.7231155778894473 0.2768844221105528 0.7267676767676768 0.2732323232323233 0.7276923076923078 0.2723076923076923 0.7286458333333333 0.2713541666666667</probabilities>
		</cpt>
		<cpt id="SupplyDepot">
			<state id="Absent" />
			<state id="Present" />
			<parents>TimePeriod</parents>
			<probabilities>0.9995633187772925 0.0004366812227074236 0.1960698689956332 0.8039301310043667 0.04323144104803493 0.956768558951965 0.04323144104803493 0.956768558951965 0.0388646288209607 0.9611353711790392 0.0388646288209607 0.9611353711790392 0.03903508771929824 0.9609649122807017 0.03903508771929824 0.9609649122807017 0.03903508771929824 0.9609649122807017 0.03903508771929824 0.9609649122807017 0.03920704845814978 0.9607929515418503 0.03938053097345133 0.9606194690265486 0.03938053097345133 0.9606194690265486 0.03955555555555556 0.9604444444444444 0.03973214285714286 0.9602678571428571 0.03991031390134529 0.9600896860986546 0.04045454545454545 0.9595454545454545 0.0408256880733945 0.9591743119266055 0.04101382488479263 0.9589861751152073 0.0412037037037037 0.9587962962962963 0.0419811320754717 0.9580188679245283 0.04299516908212561 0.9570048309178744 0.04320388349514563 0.9567961165048543 0.04384236453201971 0.9561576354679803 0.04450000000000001 0.9555</probabilities>
		</cpt>
		<cpt id="EngineeringBay">
			<state id="Absent" />
			<state id="Present" />
			<parents>TimePeriod</parents>
			<probabilities>0.9995633187772925 0.0004366812227074236 0.9995633187772925 0.0004366812227074236 0.9995633187772925 0.0004366812227074236 0.9995633187772925 0.0004366812227074236 0.9995633187772925 0.0004366812227074236 0.9908296943231441 0.009170305676855894 0.850438596491228 0.1495614035087719 0.6486842105263158 0.3513157894736842 0.5171052631578947 0.4828947368421052 0.4425438596491228 0.5574561403508771 0.3696035242290749 0.6303964757709252 0.313716814159292 0.6862831858407079 0.229646017699115 0.7703539823008849 0.1951111111111111 0.8048888888888889 0.1602678571428571 0.8397321428571428 0.1295964125560538 0.8704035874439462 0.09954545454545453 0.9004545454545454 0.09128440366972478 0.9087155963302752 0.07788018433179723 0.9221198156682028 0.07824074074074074 0.9217592592592592 0.075 0.9249999999999999 0.07198067632850241 0.9280193236714975 0.0674757281553398 0.9325242718446601 0.05369458128078818 0.9463054187192118 0.0545 0.9455</probabilities>
		</cpt>
		<cpt id="MissileTurret">
			<state id="Absent" />
			<state id="Present" />
			<parents>EngineeringBay TimePeriod</parents>
			<probabilities>0.9995633187772925 0.0004366812227074236 0.9995633187772925 0.0004366812227074236 0.9995633187772925 0.0004366812227074236 0.9995633187772925 0.0004366812227074236 0.9995633187772925 0.0004366812227074236 0.9995594713656388 0.0004405286343612336 0.9994845360824742 0.0005154639175257732 0.9993243243243244 0.0006756756756756757 0.9991525423728814 0.0008474576271186442 0.9990099009900991 0.0009900990099009901 0.9988095238095238 0.001190476190476191 0.9985915492957748 0.001408450704225352 0.9980769230769231 0.001923076923076923 0.9977272727272727 0.002272727272727273 0.9972222222222221 0.002777777777777778 0.9965517241379309 0.003448275862068966 0.9954545454545454 0.004545454545454546 0.995 0.005000000000000001 0.9941176470588234 0.005882352941176471 0.9941176470588234 0.005882352941176471 0.99375 0.00625 0.9933333333333333 0.006666666666666667 0.9928571428571429 0.007142857142857143 0.990909090909091 0.009090909090909092 0.990909090909091 0.009090909090909092 0.9 0.1 0.9 0.1 0.9 0.1 0.9 0.1 0.9 0.1 0.9666666666666666 0.03333333333333333 0.94 0.06 0.591358024691358 0.408641975308642 0.3774774774774775 0.6225225225225225 0.22578125 0.77421875 0.1868055555555555 0.8131944444444443 0.1019230769230769 0.898076923076923 0.1251428571428571 0.8748571428571428 0.09835164835164835 0.9016483516483517 0.06296296296296296 0.937037037037037 0.05076923076923077 0.9492307692307692 0.04472361809045226 0.9552763819095478 0.02462311557788945 0.9753768844221106 0.01940298507462687 0.9805970149253731 0.0095 0.9905000000000001 0.01472081218274112 0.9852791878172588 0.0150259067357513 0.9849740932642487 0.0150259067357513 0.9849740932642487 0.0150259067357513 0.9849740932642487 0.004736842105263158 0.9952631578947367</probabilities>
		</cpt>
		<cpt id="Refinery">
			<state id="Absent" />
			<state id="Present" />
			<parents>TimePeriod</parents>
			<probabilities>0.9995633187772925 0.0004366812227074236 0.9995633187772925 0.0004366812227074236 0.711353711790393 0.288646288209607 0.1611353711790393 0.8388646288209606 0.07379912663755457 0.9262008733624454 0.04759825327510917 0.9524017467248908 0.03903508771929824 0.9609649122807017 0.03903508771929824 0.9609649122807017 0.03903508771929824 0.9609649122807017 0.03903508771929824 0.9609649122807017 0.03920704845814978 0.9607929515418503 0.03938053097345133 0.9606194690265486 0.03938053097345133 0.9606194690265486 0.03955555555555556 0.9604444444444444 0.03973214285714286 0.9602678571428571 0.03991031390134529 0.9600896860986546 0.04045454545454545 0.9595454545454545 0.0408256880733945 0.9591743119266055 0.04101382488479263 0.9589861751152073 0.0412037037037037 0.9587962962962963 0.0419811320754717 0.9580188679245283 0.04299516908212561 0.9570048309178744 0.04320388349514563 0.9567961165048543 0.04384236453201971 0.9561576354679803 0.04450000000000001 0.9555</probabilities>
		</cpt>
		<cpt id="Academy">
			<state id="Absent" />
			<state id="Present" />
			<parents>Barracks TimePeriod</parents>
			<probabilities>0.9995633187772925 0.0004366812227074236 0.9995412844036699 0.0004587155963302753 0.9988372093023257 0.001162790697674419 0.990909090909091 0.009090909090909092 0.9900000000000001 0.01 0.9888888888888889 0.01111111111111111 0.9888888888888889 0.01111111111111111 0.9888888888888889 0.01111111111111111 0.9888888888888889 0.01111111111111111 0.9888888888888889 0.01111111111111111 0.9888888888888889 0.01111111111111111 0.9888888888888889 0.01111111111111111 0.9888888888888889 0.01111111111111111 0.9888888888888889 0.01111111111111111 0.9888888888888889 0.01111111111111111 0.9888888888888889 0.01111111111111111 0.9888888888888889 0.01111111111111111 0.9888888888888889 0.01111111111111111 0.9888888888888889 0.01111111111111111 0.9888888888888889 0.01111111111111111 0.9888888888888889 0.01111111111111111 0.9888888888888889 0.01111111111111111 0.9888888888888889 0.01111111111111111 0.9888888888888889 0.01111111111111111 0.9888888888888889 0.01111111111111111 0.9 0.1 0.9916666666666667 0.008333333333333333 0.9993055555555556 0.0006944444444444445 0.9995433789954338 0.00045662100456621 0.9904545454545455 0.009545454545454546 0.976923076923077 0.02307692307692308 0.9359090909090909 0.06409090909090909 0.8813636363636364 0.1186363636363636 0.7813636363636364 0.2186363636363636 0.645 0.355 0.5337899543378996 0.4662100456621004 0.4444954128440368 0.5555045871559633 0.3389908256880734 0.6610091743119266 0.243778801843318 0.756221198156682 0.1986111111111111 0.8013888888888888 0.1623255813953488 0.8376744186046511 0.1316037735849057 0.8683962264150943 0.09952380952380953 0.9004761904761905 0.08564593301435405 0.9143540669856459 0.05721153846153847 0.9427884615384615 0.04852941176470588 0.9514705882352941 0.04472361809045226 0.9552763819095478 0.03989898989898991 0.9601010101010101 0.03025641025641026 0.9697435897435898 0.01510416666666667 0.9848958333333333</probabilities>
		</cpt>
		<cpt id="Factory">
			<state id="Absent" />
			<state id="Present" />
			<parents>Barracks Refinery TimePeriod</parents>
			<probabilities>0.9995633187772925 0.0004366812227074236 0.9995412844036699 0.0004587155963302753 0.9983606557377049 0.001639344262295082 0.990909090909091 0.009090909090909092 0.9900000000000001 0.01 0.9888888888888889 0.01111111111111111 0.9888888888888889 0.01111111111111111 0.9888888888888889 0.01111111111111111 0.9888888888888889 0.01111111111111111 0.9888888888888889 0.01111111111111111 0.9888888888888889 0.01111111111111111 0.9888888888888889 0.01111111111111111 0.9888888888888889 0.01111111111111111 0.9888888888888889 0.01111111111111111 0.9888888888888889 0.01111111111111111 0.9888888888888889 0.01111111111111111 0.9888888888888889 0.01111111111111111 0.9888888888888889 0.01111111111111111 0.9888888888888889 0.01111111111111111 0.9888888888888889 0.01111111111111111 0.9888888888888889 0.01111111111111111 0.9888888888888889 0.01111111111111111 0.9888888888888889 0.01111111111111111 0.9888888888888889 0.01111111111111111 0.9888888888888889 0.01111111111111111 0.9 0.1 0.9 0.1 0.9961538461538462 0.003846153846153846 0.9 0.1 0.9 0.1 0.9 0.1 0.9 0.1 0.9 0.1 0.9 0.1 0.9 0.1 0.9 0.1 0.9 0.1 0.9 0.1 0.9 0.1 0.9 0.1 0.9 0.1 0.9 0.1 0.9 0.1 0.9 0.1 0.9 0.1 0.9 0.1 0.9 0.1 0.9 0.1 0.9 0.1 0.9 0.1 0.9 0.1 0.9916666666666667 0.008333333333333333 0.9990291262135922 0.000970873786407767 0.9962962962962962 0.003703703703703704 0.9875 0.0125 0.9666666666666666 0.03333333333333333 0.9 0.1 0.9 0.1 0.9 0.1 0.9 0.1 0.9 0.1 0.9 0.1 0.9 0.1 0.9 0.1 0.9 0.1 0.9 0.1 0.9 0.1 0.9 0.1 0.9 0.1 0.9 0.1 0.9 0.1 0.9 0.1 0.9 0.1 0.9 0.1 0.9 0.1 0.9 0.1 0.9 0.1 0.9976190476190475 0.002380952380952381 0.372538860103627 0.6274611398963731 0.2061032863849765 0.7938967136150235 0.0452054794520548 0.9547945205479451 0.01772727272727273 0.9822727272727272 0.01772727272727273 0.9822727272727272 0.008636363636363635 0.9913636363636363 0.008636363636363635 0.9913636363636363 0.008675799086757989 0.9913242009132419 0.00871559633027523 0.9912844036697248 0.00871559633027523 0.9912844036697248 0.004147465437788019 0.9958525345622119 0.004166666666666667 0.9958333333333332 0.004186046511627907 0.9958139534883721 0.004245283018867925 0.9957547169811321 0.004285714285714286 0.9957142857142858 0.00430622009569378 0.9956937799043062 0.004326923076923077 0.9956730769230769 0.004411764705882353 0.9955882352941176 0.004522613065326633 0.9954773869346734 0.004545454545454546 0.9954545454545455 0.004615384615384616 0.9953846153846153 0.0046875 0.9953124999999999</probabilities>
		</cpt>
		<cpt id="ComsatStation">
			<state id="Absent" />
			<state id="Present" />
			<parents>Academy Refinery TimePeriod</parents>
			<probabilities>0.9995633187772925 0.0004366812227074236 0.9995633187772925 0.0004366812227074236 0.9993865030674847 0.0006134969325153375 0.9972972972972973 0.002702702702702703 0.99375 0.00625 0.990909090909091 0.009090909090909092 0.9888888888888889 0.01111111111111111 0.9888888888888889 0.01111111111111111 0.9888888888888889 0.01111111111111111 0.9888888888888889 0.01111111111111111 0.9888888888888889 0.01111111111111111 0.9888888888888889 0.01111111111111111 0.9888888888888889 0.01111111111111111 0.9888888888888889 0.01111111111111111 0.9888888888888889 0.01111111111111111 0.9888888888888889 0.01111111111111111 0.9888888888888889 0.01111111111111111 0.9888888888888889 0.01111111111111111 0.9888888888888889 0.01111111111111111 0.9888888888888889 0.01111111111111111 0.9888888888888889 0.01111111111111111 0.9888888888888889 0.01111111111111111 0.9888888888888889 0.01111111111111111 0.9888888888888889 0.01111111111111111 0.9888888888888889 0.01111111111111111 0.9 0.1 0.9 0.1 0.9985074626865672 0.001492537313432836 0.9994818652849742 0.0005181347150259068 0.9995283018867924 0.0004716981132075472 0.9995327102803738 0.0004672897196261682 0.9995145631067961 0.0004854368932038835 0.9994845360824742 0.0005154639175257732 0.9994186046511628 0.0005813953488372093 0.9992957746478874 0.0007042253521126761 0.9991452991452993 0.0008547008547008548 0.9989690721649485 0.001030927835051546 0.9986486486486488 0.001351351351351351 0.9981132075471697 0.001886792452830189 0.9976744186046511 0.002325581395348837 0.9971428571428571 0.002857142857142857 0.9964285714285713 0.003571428571428571 0.9952380952380951 0.004761904761904762 0.9944444444444444 0.005555555555555556 0.9916666666666667 0.008333333333333333 0.9900000000000001 0.01 0.9888888888888889 0.01111111111111111 0.9875 0.0125 0.9833333333333334 0.01666666666666667 0.9666666666666666 0.03333333333333333 0.9 0.1 0.9 0.1 0.9 0.1 0.9 0.1 0.95 0.05 0.9 0.1 0.9 0.1 0.9 0.1 0.9 0.1 0.9 0.1 0.9 0.1 0.9 0.1 0.9 0.1 0.9 0.1 0.9 0.1 0.9 0.1 0.9 0.1 0.9 0.1 0.9 0.1 0.9 0.1 0.9 0.1 0.9 0.1 0.9 0.1 0.9 0.1 0.9 0.1 0.9 0.1 0.9 0.1 0.9 0.1 0.9 0.1 0.95 0.05 0.9833333333333334 0.01666666666666667 0.86 0.14 0.7370370370370369 0.262962962962963 0.5285714285714285 0.4714285714285714 0.4164556962025316 0.5835443037974684 0.3388349514563107 0.6611650485436892 0.2532786885245902 0.7467213114754099 0.1855172413793103 0.8144827586206896 0.156969696969697 0.843030303030303 0.1258620689655172 0.8741379310344827 0.09337016574585634 0.9066298342541436 0.07513513513513515 0.9248648648648649 0.03631578947368421 0.9636842105263157 0.0203125 0.9796874999999999 0.02487309644670051 0.9751269035532993 0.02512820512820513 0.9748717948717949 0.01518324607329843 0.9848167539267017 0.02041884816753927 0.9795811518324608 0.01526315789473684 0.9847368421052631 0.004736842105263158 0.9952631578947367</probabilities>
		</cpt>
		<cpt id="MachineShop">
			<state id="Absent" />
			<state id="Present" />
			<parents>Factory TimePeriod</parents>
			<probabilities>0.9995633187772925 0.0004366812227074236 0.9995633187772925 0.0004366812227074236 0.9995633187772925 0.0004366812227074236 0.9990740740740741 0.000925925925925926 0.9983333333333333 0.001666666666666667 0.995 0.005000000000000001 0.9916666666666667 0.008333333333333333 0.9916666666666667 0.008333333333333333 0.9900000000000001 0.01 0.9900000000000001 0.01 0.9900000000000001 0.01 0.9900000000000001 0.01 0.9900000000000001 0.01 0.9888888888888889 0.01111111111111111 0.9888888888888889 0.01111111111111111 0.9888888888888889 0.01111111111111111 0.9888888888888889 0.01111111111111111 0.9888888888888889 0.01111111111111111 0.9888888888888889 0.01111111111111111 0.9888888888888889 0.01111111111111111 0.9888888888888889 0.01111111111111111 0.9888888888888889 0.01111111111111111 0.9888888888888889 0.01111111111111111 0.9888888888888889 0.01111111111111111 0.9888888888888889 0.01111111111111111 0.9 0.1 0.9 0.1 0.9 0.1 0.9991803278688526 0.0008196721311475411 0.5641176470588235 0.4358823529411764 0.1471428571428572 0.8528571428571429 0.06866359447004608 0.9313364055299539 0.008755760368663594 0.9912442396313363 0.01780821917808219 0.9821917808219177 0.01324200913242009 0.9867579908675799 0.01330275229357798 0.9866972477064221 0.004147465437788019 0.9958525345622119 0.004147465437788019 0.9958525345622119 0.004147465437788019 0.9958525345622119 0.004166666666666667 0.9958333333333332 0.004186046511627907 0.9958139534883721 0.004245283018867925 0.9957547169811321 0.004285714285714286 0.9957142857142858 0.00430622009569378 0.9956937799043062 0.004326923076923077 0.9956730769230769 0.004411764705882353 0.9955882352941176 0.004522613065326633 0.9954773869346734 0.004545454545454546 0.9954545454545455 0.004615384615384616 0.9953846153846153 0.0046875 0.9953124999999999</probabilities>
		</cpt>
		<cpt id="Armory">
			<state id="Absent" />
			<state id="Present" />
			<parents>Factory TimePeriod</parents>
			<probabilities>0.9995633187772925 0.0004366812227074236 0.9995633187772925 0.0004366812227074236 0.9995633187772925 0.0004366812227074236 0.9990740740740741 0.000925925925925926 0.9983333333333333 0.001666666666666667 0.995 0.005000000000000001 0.9916666666666667 0.008333333333333333 0.9916666666666667 0.008333333333333333 0.9900000000000001 0.01 0.9900000000000001 0.01 0.9900000000000001 0.01 0.9900000000000001 0.01 0.9900000000000001 0.01 0.9888888888888889 0.01111111111111111 0.9888888888888889 0.01111111111111111 0.9888888888888889 0.01111111111111111 0.9888888888888889 0.01111111111111111 0.9888888888888889 0.01111111111111111 0.9888888888888889 0.01111111111111111 0.9888888888888889 0.01111111111111111 0.9888888888888889 0.01111111111111111 0.9888888888888889 0.01111111111111111 0.9888888888888889 0.01111111111111111 0.9888888888888889 0.01111111111111111 0.9888888888888889 0.01111111111111111 0.9 0.1 0.9 0.1 0.9 0.1 0.9991803278688526 0.0008196721311475411 0.9994117647058823 0.0005882352941176471 0.9995238095238096 0.0004761904761904762 0.9949308755760369 0.005069124423963134 0.93963133640553 0.06036866359447005 0.8397260273972602 0.1602739726027397 0.739269406392694 0.2607305936073059 0.6417431192660551 0.358256880733945 0.5387096774193548 0.4612903225806451 0.4511520737327189 0.5488479262672811 0.4050691244239631 0.5949308755760369 0.3513888888888889 0.648611111111111 0.2832558139534884 0.7167441860465116 0.2259433962264151 0.7740566037735849 0.1661904761904762 0.8338095238095239 0.1430622009569378 0.8569377990430621 0.1293269230769231 0.8706730769230769 0.117156862745098 0.8828431372549019 0.1050251256281407 0.8949748743718593 0.09545454545454546 0.9045454545454545 0.08666666666666666 0.9133333333333333 0.03072916666666667 0.9692708333333333</probabilities>
		</cpt>
		<cpt id="Starport">
			<state id="Absent" />
			<state id="Present" />
			<parents>Factory TimePeriod</parents>
			<probabilities>0.9995633187772925 0.0004366812227074236 0.9995633187772925 0.0004366812227074236 0.9995633187772925 0.0004366812227074236 0.9990740740740741 0.000925925925925926 0.9983333333333333 0.001666666666666667 0.995 0.005000000000000001 0.9916666666666667 0.008333333333333333 0.9916666666666667 0.008333333333333333 0.9900000000000001 0.01 0.9900000000000001 0.01 0.9900000000000001 0.01 0.9900000000000001 0.01 0.9900000000000001 0.01 0.9888888888888889 0.01111111111111111 0.9888888888888889 0.01111111111111111 0.9888888888888889 0.01111111111111111 0.9888888888888889 0.01111111111111111 0.9888888888888889 0.01111111111111111 0.9888888888888889 0.01111111111111111 0.9888888888888889 0.01111111111111111 0.9888888888888889 0.01111111111111111 0.9888888888888889 0.01111111111111111 0.9888888888888889 0.01111111111111111 0.9888888888888889 0.01111111111111111 0.9888888888888889 0.01111111111111111 0.9 0.1 0.9 0.1 0.9 0.1 0.9991803278688526 0.0008196721311475411 0.9758823529411765 0.02411764705882353 0.9185714285714287 0.08142857142857145 0.8751152073732719 0.1248847926267281 0.8474654377880184 0.1525345622119816 0.8123287671232876 0.1876712328767123 0.784931506849315 0.2150684931506849 0.7426605504587157 0.2573394495412844 0.6539170506912443 0.3460829493087557 0.6078341013824885 0.3921658986175115 0.5156682027649769 0.484331797235023 0.4625 0.5375 0.3948837209302326 0.6051162790697674 0.325 0.6749999999999999 0.2661904761904762 0.7338095238095238 0.2339712918660287 0.7660287081339713 0.1918269230769231 0.8081730769230769 0.1808823529411765 0.8191176470588235 0.1653266331658291 0.8346733668341708 0.1358585858585859 0.8641414141414142 0.1174358974358974 0.8825641025641026 0.04114583333333333 0.9588541666666666</probabilities>
		</cpt>
		<cpt id="ControlTower">
			<state id="Absent" />
			<state id="Present" />
			<parents>Starport TimePeriod</parents>
			<probabilities>0.9995633187772925 0.0004366812227074236 0.9995633187772925 0.0004366812227074236 0.9995633187772925 0.0004366812227074236 0.9995633187772925 0.0004366812227074236 0.9995555555555555 0.0004444444444444445 0.9995283018867924 0.0004716981132075472 0.9995024875621891 0.0004975124378109452 0.9994871794871795 0.0005128205128205128 0.9994652406417112 0.0005347593582887701 0.9994475138121547 0.0005524861878453039 0.9994152046783625 0.0005847953216374269 0.999337748344371 0.0006622516556291391 0.999290780141844 0.0007092198581560284 0.9991666666666667 0.0008333333333333334 0.9990740740740741 0.000925925925925926 0.9989247311827958 0.001075268817204301 0.9987012987012989 0.001298701298701299 0.9984375 0.0015625 0.9982456140350876 0.001754385964912281 0.9979166666666666 0.002083333333333333 0.9977777777777778 0.002222222222222222 0.9975609756097561 0.002439024390243903 0.9971428571428571 0.002857142857142857 0.996774193548387 0.003225806451612903 0.99375 0.00625 0.9 0.1 0.9 0.1 0.9 0.1 0.9 0.1 0.9800000000000001 0.02 0.8833333333333333 0.1166666666666667 0.4607142857142857 0.5392857142857143 0.2911764705882353 0.7088235294117647 0.2119047619047619 0.7880952380952381 0.2270833333333333 0.7729166666666667 0.2263157894736842 0.7736842105263158 0.3144736842105263 0.6855263157894737 0.2895348837209302 0.7104651162790697 0.2726415094339623 0.7273584905660376 0.247008547008547 0.752991452991453 0.2435114503816794 0.7564885496183206 0.2006944444444444 0.7993055555555555 0.18 0.82 0.1298136645962733 0.8701863354037266 0.1355029585798817 0.8644970414201183 0.1125 0.8875 0.07724550898203593 0.9227544910179641 0.08662790697674419 0.9133720930232557 0.09190751445086705 0.9080924855491329 0.05351351351351352 0.9464864864864865</probabilities>
		</cpt>
		<cpt id="ScienceFacility">
			<state id="Absent" />
			<state id="Present" />
			<parents>Starport TimePeriod</parents>
			<probabilities>0.9995633187772925 0.0004366812227074236 0.9995633187772925 0.0004366812227074236 0.9995633187772925 0.0004366812227074236 0.9995633187772925 0.0004366812227074236 0.9995555555555555 0.0004444444444444445 0.9995283018867924 0.0004716981132075472 0.9995024875621891 0.0004975124378109452 0.9994871794871795 0.0005128205128205128 0.9994652406417112 0.0005347593582887701 0.9994475138121547 0.0005524861878453039 0.9994152046783625 0.0005847953216374269 0.999337748344371 0.0006622516556291391 0.999290780141844 0.0007092198581560284 0.9991666666666667 0.0008333333333333334 0.9990740740740741 0.000925925925925926 0.9989247311827958 0.001075268817204301 0.9987012987012989 0.001298701298701299 0.9984375 0.0015625 0.9982456140350876 0.001754385964912281 0.9979166666666666 0.002083333333333333 0.9977777777777778 0.002222222222222222 0.9975609756097561 0.002439024390243903 0.9971428571428571 0.002857142857142857 0.996774193548387 0.003225806451612903 0.99375 0.00625 0.9 0.1 0.9 0.1 0.9 0.1 0.9 0.1 0.9800000000000001 0.02 0.9944444444444444 0.005555555555555556 0.9964285714285713 0.003571428571428571 0.9970588235294117 0.002941176470588235 0.9976190476190475 0.002380952380952381 0.9770833333333333 0.02291666666666667 0.963157894736842 0.03684210526315789 0.9328947368421053 0.06710526315789472 0.8127906976744187 0.1872093023255814 0.7066037735849057 0.2933962264150943 0.5547008547008548 0.4452991452991454 0.4877862595419847 0.5122137404580152 0.4229166666666666 0.5770833333333333 0.3606451612903226 0.6393548387096774 0.2788819875776397 0.7211180124223602 0.2301775147928994 0.7698224852071005 0.1779761904761905 0.8220238095238095 0.1491017964071856 0.8508982035928144 0.1447674418604651 0.8552325581395348 0.1323699421965318 0.8676300578034681 0.04810810810810811 0.9518918918918919</probabilities>
		</cpt>
		<cpt id="PhysicsLab">
			<state id="Absent" />
			<state id="Present" />
			<parents>ScienceFacility TimePeriod</parents>
			<probabilities>0.9995633187772925 0.0004366812227074236 0.9995633187772925 0.0004366812227074236 0.9995633187772925 0.0004366812227074236 0.9995633187772925 0.0004366812227074236 0.9995633187772925 0.0004366812227074236 0.9995633187772925 0.0004366812227074236 0.9995614035087719 0.0004385964912280702 0.9995614035087719 0.0004385964912280702 0.9995614035087719 0.0004385964912280702 0.9995594713656388 0.0004405286343612336 0.9995555555555555 0.0004444444444444445 0.9995475113122173 0.0004524886877828055 0.9995238095238096 0.0004761904761904762 0.9994845360824742 0.0005154639175257732 0.9994186046511628 0.0005813953488372093 0.9993589743589744 0.000641025641025641 0.9992700729927008 0.0007299270072992701 0.9991596638655462 0.0008403361344537816 0.9990099009900991 0.0009900990099009901 0.9988372093023257 0.001162790697674419 0.9986486486486488 0.001351351351351351 0.9984615384615386 0.001538461538461539 0.9983050847457627 0.001694915254237288 0.9981132075471697 0.001886792452830189 0.9958333333333332 0.004166666666666667 0.9 0.1 0.9 0.1 0.9 0.1 0.9 0.1 0.9 0.1 0.9 0.1 0.9 0.1 0.9 0.1 0.9 0.1 0.95 0.05 0.9666666666666666 0.03333333333333333 0.9833333333333334 0.01666666666666667 0.9941176470588234 0.005882352941176471 0.996875 0.003125 0.9981132075471697 0.001886792452830189 0.998529411764706 0.001470588235294118 0.9988095238095238 0.001190476190476191 0.9990000000000001 0.001 0.9991452991452993 0.0008547008547008548 0.999236641221374 0.0007633587786259542 0.9992805755395684 0.0007194244604316548 0.9993006993006993 0.0006993006993006993 0.9993243243243244 0.0006756756756756757 0.999337748344371 0.0006622516556291391 0.9937853107344633 0.006214689265536724</probabilities>
		</cpt>
		<cpt id="CovertOps">
			<state id="Absent" />
			<state id="Present" />
			<parents>ScienceFacility TimePeriod</parents>
			<probabilities>0.9995633187772925 0.0004366812227074236 0.9995633187772925 0.0004366812227074236 0.9995633187772925 0.0004366812227074236 0.9995633187772925 0.0004366812227074236 0.9995633187772925 0.0004366812227074236 0.9995633187772925 0.0004366812227074236 0.9995614035087719 0.0004385964912280702 0.9995614035087719 0.0004385964912280702 0.9995614035087719 0.0004385964912280702 0.9995594713656388 0.0004405286343612336 0.9995555555555555 0.0004444444444444445 0.9995475113122173 0.0004524886877828055 0.9995238095238096 0.0004761904761904762 0.9994845360824742 0.0005154639175257732 0.9994186046511628 0.0005813953488372093 0.9993589743589744 0.000641025641025641 0.9992700729927008 0.0007299270072992701 0.9991596638655462 0.0008403361344537816 0.9990099009900991 0.0009900990099009901 0.9988372093023257 0.001162790697674419 0.9986486486486488 0.001351351351351351 0.9984615384615386 0.001538461538461539 0.9983050847457627 0.001694915254237288 0.9981132075471697 0.001886792452830189 0.9958333333333332 0.004166666666666667 0.9 0.1 0.9 0.1 0.9 0.1 0.9 0.1 0.9 0.1 0.9 0.1 0.9 0.1 0.9 0.1 0.9 0.1 0.95 0.05 0.9666666666666666 0.03333333333333333 0.9833333333333334 0.01666666666666667 0.9941176470588234 0.005882352941176471 0.996875 0.003125 0.9981132075471697 0.001886792452830189 0.998529411764706 0.001470588235294118 0.9988095238095238 0.001190476190476191 0.9990000000000001 0.001 0.9991452991452993 0.0008547008547008548 0.983969465648855 0.01603053435114504 0.9848920863309354 0.01510791366906475 0.9853146853146854 0.01468531468531469 0.9858108108108109 0.01418918918918919 0.9794701986754967 0.02052980132450331 0.9485875706214689 0.05141242937853107</probabilities>
		</cpt>
		<cpt id="NuclearSilo">
			<state id="Absent" />
			<state id="Present" />
			<parents>CovertOps TimePeriod</parents>
			<probabilities>0.9995633187772925 0.0004366812227074236 0.9995633187772925 0.0004366812227074236 0.9995633187772925 0.0004366812227074236 0.9995633187772925 0.0004366812227074236 0.9995633187772925 0.0004366812227074236 0.9995633187772925 0.0004366812227074236 0.9995614035087719 0.0004385964912280702 0.9995614035087719 0.0004385964912280702 0.9995614035087719 0.0004385964912280702 0.9995614035087719 0.0004385964912280702 0.9995594713656388 0.0004405286343612336 0.9995575221238938 0.0004424778761061947 0.9995575221238938 0.0004424778761061947 0.9995555555555555 0.0004444444444444445 0.9995535714285714 0.0004464285714285714 0.9995515695067265 0.0004484304932735426 0.9995454545454545 0.0004545454545454546 0.9995412844036699 0.0004587155963302753 0.9995391705069124 0.0004608294930875576 0.9995327102803738 0.0004672897196261682 0.9995238095238096 0.0004761904761904762 0.9995121951219512 0.0004878048780487805 0.9995098039215686 0.0004901960784313725 0.9995000000000001 0.0005 0.999476439790576 0.0005235602094240838 0.9 0.1 0.9 0.1 0.9 0.1 0.9 0.1 0.9 0.1 0.9 0.1 0.9 0.1 0.9 0.1 0.9 0.1 0.9 0.1 0.9 0.1 0.9 0.1 0.9 0.1 0.9 0.1 0.9 0.1 0.9 0.1 0.9 0.1 0.9 0.1 0.9 0.1 0.9666666666666666 0.03333333333333333 0.6333333333333333 0.3666666666666667 0.6333333333333333 0.3666666666666667 0.6333333333333333 0.3666666666666667 0.725 0.275 0.4900000000000001 0.51</probabilities>
		</cpt>
		<cpt id="Marine">
			<state id="Absent" />
			<state id="Present" />
			<parents>Barracks TimePeriod</parents>
			<probabilities>0.9995633187772925 0.0004366812227074236 0.9995412844036699 0.0004587155963302753 0.9988372093023257 0.001162790697674419 0.990909090909091 0.009090909090909092 0.9900000000000001 0.01 0.9888888888888889 0.01111111111111111 0.9888888888888889 0.01111111111111111 0.9888888888888889 0.01111111111111111 0.9888888888888889 0.01111111111111111 0.9888888888888889 0.01111111111111111 0.9888888888888889 0.01111111111111111 0.9888888888888889 0.01111111111111111 0.9888888888888889 0.01111111111111111 0.9888888888888889 0.01111111111111111 0.9888888888888889 0.01111111111111111 0.9888888888888889 0.01111111111111111 0.9888888888888889 0.01111111111111111 0.9888888888888889 0.01111111111111111 0.9888888888888889 0.01111111111111111 0.9888888888888889 0.01111111111111111 0.9888888888888889 0.01111111111111111 0.9888888888888889 0.01111111111111111 0.9888888888888889 0.01111111111111111 0.9888888888888889 0.01111111111111111 0.9888888888888889 0.01111111111111111 0.9 0.1 0.9916666666666667 0.008333333333333333 0.9993055555555556 0.0006944444444444445 0.1730593607305936 0.8269406392694063 0.02681818181818182 0.9731818181818182 0.008597285067873304 0.9914027149321267 0.004090909090909091 0.9959090909090909 0.004090909090909091 0.9959090909090909 0.004090909090909091 0.9959090909090909 0.004090909090909091 0.9959090909090909 0.00410958904109589 0.9958904109589041 0.004128440366972477 0.9958715596330275 0.004128440366972477 0.9958715596330275 0.004147465437788019 0.9958525345622119 0.004166666666666667 0.9958333333333332 0.004186046511627907 0.9958139534883721 0.004245283018867925 0.9957547169811321 0.004285714285714286 0.9957142857142858 0.00430622009569378 0.9956937799043062 0.004326923076923077 0.9956730769230769 0.004411764705882353 0.9955882352941176 0.004522613065326633 0.9954773869346734 0.004545454545454546 0.9954545454545455 0.004615384615384616 0.9953846153846153 0.0046875 0.9953124999999999</probabilities>
		</cpt>
		<cpt id="Firebat">
			<state id="Absent" />
			<state id="Present" />
			<parents>Academy TimePeriod</parents>
			<probabilities>0.9995633187772925 0.0004366812227074236 0.9995633187772925 0.0004366812227074236 0.9995633187772925 0.0004366812227074236 0.9995633187772925 0.0004366812227074236 0.9995594713656388 0.0004405286343612336 0.9995535714285714 0.0004464285714285714 0.9995327102803738 0.0004672897196261682 0.9995049504950495 0.0004950495049504951 0.9994444444444445 0.0005555555555555556 0.9993333333333334 0.0006666666666666668 0.9992000000000001 0.0008 0.9990476190476192 0.0009523809523809525 0.9987804878048782 0.001219512195121951 0.9983606557377049 0.001639344262295082 0.9980392156862745 0.00196078431372549 0.9976744186046511 0.002325581395348837 0.9972222222222221 0.002777777777777778 0.9965517241379309 0.003448275862068966 0.9961538461538462 0.003846153846153846 0.995 0.005000000000000001 0.9944444444444444 0.005555555555555556 0.9941176470588234 0.005882352941176471 0.99375 0.00625 0.9928571428571429 0.007142857142857143 0.990909090909091 0.009090909090909092 0.9 0.1 0.9 0.1 0.9 0.1 0.9 0.1 0.9666666666666666 0.03333333333333333 0.9833333333333334 0.01666666666666667 0.9266666666666666 0.07333333333333333 0.9222222222222222 0.07777777777777778 0.9571428571428571 0.04285714285714286 0.9734177215189874 0.02658227848101266 0.9601941747572815 0.03980582524271844 0.9663934426229509 0.03360655737704918 0.9648275862068966 0.03517241379310344 0.9690909090909091 0.03090909090909091 0.9764367816091955 0.02356321839080459 0.9773480662983425 0.02265193370165746 0.977837837837838 0.02216216216216216 0.9731578947368421 0.02684210526315789 0.9734375 0.0265625 0.9741116751269036 0.02588832487309644 0.9738461538461539 0.02615384615384615 0.9732984293193718 0.02670157068062827 0.9732984293193718 0.02670157068062827 0.9731578947368421 0.02684210526315789 0.9731578947368421 0.02684210526315789</probabilities>
		</cpt>
		<cpt id="Medic">
			<state id="Absent" />
			<state id="Present" />
			<parents>Academy TimePeriod</parents>
			<probabilities>0.9995633187772925 0.0004366812227074236 0.9995633187772925 0.0004366812227074236 0.9995633187772925 0.0004366812227074236 0.9995633187772925 0.0004366812227074236 0.9995594713656388 0.0004405286343612336 0.9995535714285714 0.0004464285714285714 0.9995327102803738 0.0004672897196261682 0.9995049504950495 0.0004950495049504951 0.9994444444444445 0.0005555555555555556 0.9993333333333334 0.0006666666666666668 0.9992000000000001 0.0008 0.9990476190476192 0.0009523809523809525 0.9987804878048782 0.001219512195121951 0.9983606557377049 0.001639344262295082 0.9980392156862745 0.00196078431372549 0.9976744186046511 0.002325581395348837 0.9972222222222221 0.002777777777777778 0.9965517241379309 0.003448275862068966 0.9961538461538462 0.003846153846153846 0.995 0.005000000000000001 0.9944444444444444 0.005555555555555556 0.9941176470588234 0.005882352941176471 0.99375 0.00625 0.9928571428571429 0.007142857142857143 0.990909090909091 0.009090909090909092 0.9 0.1 0.9 0.1 0.9 0.1 0.9 0.1 0.9666666666666666 0.03333333333333333 0.9833333333333334 0.01666666666666667 0.7266666666666667 0.2733333333333333 0.8481481481481481 0.1518518518518518 0.8959183673469386 0.1040816326530612 0.9354430379746836 0.06455696202531645 0.9310679611650485 0.06893203883495144 0.9418032786885247 0.05819672131147541 0.9510344827586207 0.04896551724137931 0.956969696969697 0.04303030303030303 0.9591954022988506 0.04080459770114942 0.9607734806629834 0.03922651933701657 0.9670270270270271 0.03297297297297298 0.9678947368421053 0.03210526315789473 0.9682291666666667 0.03177083333333333 0.9690355329949238 0.03096446700507614 0.9687179487179487 0.03128205128205128 0.9680628272251309 0.03193717277486911 0.9680628272251309 0.03193717277486911 0.9678947368421053 0.03210526315789473 0.9678947368421053 0.03210526315789473</probabilities>
		</cpt>
		<cpt id="Vulture">
			<state id="Absent" />
			<state id="Present" />
			<parents>Factory TimePeriod</parents>
			<probabilities>0.9995633187772925 0.0004366812227074236 0.9995633187772925 0.0004366812227074236 0.9995633187772925 0.0004366812227074236 0.9990740740740741 0.000925925925925926 0.9983333333333333 0.001666666666666667 0.995 0.005000000000000001 0.9916666666666667 0.008333333333333333 0.9916666666666667 0.008333333333333333 0.9900000000000001 0.01 0.9900000000000001 0.01 0.9900000000000001 0.01 0.9900000000000001 0.01 0.9900000000000001 0.01 0.9888888888888889 0.01111111111111111 0.9888888888888889 0.01111111111111111 0.9888888888888889 0.01111111111111111 0.9888888888888889 0.01111111111111111 0.9888888888888889 0.01111111111111111 0.9888888888888889 0.01111111111111111 0.9888888888888889 0.01111111111111111 0.9888888888888889 0.01111111111111111 0.9888888888888889 0.01111111111111111 0.9888888888888889 0.01111111111111111 0.9888888888888889 0.01111111111111111 0.9888888888888889 0.01111111111111111 0.9 0.1 0.9 0.1 0.9 0.1 0.9991803278688526 0.0008196721311475411 0.9464705882352942 0.05352941176470588 0.832857142857143 0.1671428571428572 0.5755760368663595 0.4244239631336405 0.4603686635944701 0.53963133640553 0.3328767123287671 0.6671232876712329 0.2643835616438356 0.7356164383561643 0.1509174311926605 0.8490825688073395 0.0824884792626728 0.9175115207373271 0.04101382488479263 0.9589861751152073 0.0271889400921659 0.9728110599078341 0.02268518518518519 0.9773148148148148 0.01813953488372093 0.981860465116279 0.01367924528301887 0.9863207547169811 0.01380952380952381 0.9861904761904763 0.0138755980861244 0.9861244019138755 0.01394230769230769 0.9860576923076924 0.0142156862745098 0.9857843137254901 0.01457286432160804 0.9854271356783919 0.01464646464646465 0.9853535353535354 0.01487179487179487 0.9851282051282051 0.01510416666666667 0.9848958333333333</probabilities>
		</cpt>
		<cpt id="SpiderMine">
			<state id="Absent" />
			<state id="Present" />
			<parents>MachineShop Vulture TimePeriod</parents>
			<probabilities>0.9995633187772925 0.0004366812227074236 0.9995633187772925 0.0004366812227074236 0.9995633187772925 0.0004366812227074236 0.9995633187772925 0.0004366812227074236 0.9993150684931507 0.0006849315068493151 0.9976744186046511 0.002325581395348837 0.9956521739130434 0.004347826086956522 0.9923076923076923 0.007692307692307693 0.9923076923076923 0.007692307692307693 0.9916666666666667 0.008333333333333333 0.9916666666666667 0.008333333333333333 0.9900000000000001 0.01 0.9900000000000001 0.01 0.9888888888888889 0.01111111111111111 0.9888888888888889 0.01111111111111111 0.9888888888888889 0.01111111111111111 0.9888888888888889 0.01111111111111111 0.9888888888888889 0.01111111111111111 0.9888888888888889 0.01111111111111111 0.9888888888888889 0.01111111111111111 0.9888888888888889 0.01111111111111111 0.9888888888888889 0.01111111111111111 0.9888888888888889 0.01111111111111111 0.9888888888888889 0.01111111111111111 0.9888888888888889 0.01111111111111111 0.9 0.1 0.9 0.1 0.9 0.1 0.9 0.1 0.9900000000000001 0.01 0.9875 0.0125 0.975 0.025 0.9 0.1 0.9 0.1 0.9 0.1 0.9 0.1 0.9 0.1 0.9 0.1 0.9 0.1 0.9 0.1 0.9 0.1 0.9 0.1 0.9 0.1 0.9 0.1 0.9 0.1 0.9 0.1 0.9 0.1 0.9 0.1 0.9 0.1 0.9 0.1 0.9 0.1 0.9 0.1 0.9 0.1 0.9 0.1 0.9986666666666668 0.001333333333333334 0.9993421052631579 0.0006578947368421053 0.9991228070175439 0.0008771929824561404 0.9989898989898991 0.00101010101010101 0.9985714285714287 0.001428571428571429 0.9982142857142856 0.001785714285714286 0.996774193548387 0.003225806451612903 0.9944444444444444 0.005555555555555556 0.9888888888888889 0.01111111111111111 0.9833333333333334 0.01666666666666667 0.9800000000000001 0.02 0.975 0.025 0.9666666666666666 0.03333333333333333 0.9666666666666666 0.03333333333333333 0.9666666666666666 0.03333333333333333 0.9666666666666666 0.03333333333333333 0.9666666666666666 0.03333333333333333 0.9666666666666666 0.03333333333333333 0.9666666666666666 0.03333333333333333 0.9666666666666666 0.03333333333333333 0.9666666666666666 0.03333333333333333 0.9 0.1 0.9 0.1 0.9 0.1 0.9 0.1 0.9 0.1 0.9965517241379309 0.003448275862068966 0.7433333333333334 0.2566666666666667 0.4228813559322034 0.5771186440677966 0.373469387755102 0.6265306122448979 0.2895061728395061 0.7104938271604938 0.2790322580645162 0.7209677419354839 0.2395 0.7605 0.1861244019138756 0.8138755980861243 0.1410377358490566 0.8589622641509433 0.07028301886792453 0.9297169811320755 0.03726415094339623 0.9627358490566037 0.01857142857142857 0.9814285714285715 0.01394230769230769 0.9860576923076924 0.009178743961352657 0.9908212560386472 0.009223300970873784 0.9907766990291261 0.009405940594059406 0.9905940594059406 0.004568527918781725 0.9954314720812182 0.004591836734693877 0.995408163265306 0.004663212435233161 0.9953367875647669 0.004736842105263158 0.9952631578947367</probabilities>
		</cpt>
		<cpt id="SiegeTank">
			<state id="Absent" />
			<state id="Present" />
			<parents>MachineShop TimePeriod</parents>
			<probabilities>0.9995633187772925 0.0004366812227074236 0.9995633187772925 0.0004366812227074236 0.9995633187772925 0.0004366812227074236 0.9995633187772925 0.0004366812227074236 0.9993548387096775 0.0006451612903225806 0.998 0.002 0.9961538461538462 0.003846153846153846 0.9923076923076923 0.007692307692307693 0.9923076923076923 0.007692307692307693 0.9916666666666667 0.008333333333333333 0.9916666666666667 0.008333333333333333 0.9900000000000001 0.01 0.9900000000000001 0.01 0.9888888888888889 0.01111111111111111 0.9888888888888889 0.01111111111111111 0.9888888888888889 0.01111111111111111 0.9888888888888889 0.01111111111111111 0.9888888888888889 0.01111111111111111 0.9888888888888889 0.01111111111111111 0.9888888888888889 0.01111111111111111 0.9888888888888889 0.01111111111111111 0.9888888888888889 0.01111111111111111 0.9888888888888889 0.01111111111111111 0.9888888888888889 0.01111111111111111 0.9888888888888889 0.01111111111111111 0.9 0.1 0.9 0.1 0.9 0.1 0.9 0.1 0.9986666666666668 0.001333333333333334 0.5494444444444445 0.4505555555555555 0.2605911330049261 0.7394088669950739 0.2125 0.7875 0.1708333333333333 0.8291666666666666 0.1470046082949309 0.8529953917050691 0.1199074074074074 0.8800925925925925 0.1193548387096774 0.8806451612903226 0.1055299539170507 0.8944700460829493 0.1055299539170507 0.8944700460829493 0.1060185185185185 0.8939814814814814 0.1065116279069767 0.8934883720930232 0.1080188679245283 0.8919811320754716 0.1090476190476191 0.8909523809523811 0.1095693779904306 0.8904306220095694 0.1100961538461538 0.8899038461538462 0.1122549019607843 0.8877450980392156 0.1150753768844221 0.8849246231155779 0.1156565656565657 0.8843434343434344 0.1123076923076923 0.8876923076923077 0.0046875 0.9953124999999999</probabilities>
		</cpt>
		<cpt id="Goliath">
			<state id="Absent" />
			<state id="Present" />
			<parents>Armory TimePeriod</parents>
			<probabilities>0.9995633187772925 0.0004366812227074236 0.9995633187772925 0.0004366812227074236 0.9995633187772925 0.0004366812227074236 0.9995633187772925 0.0004366812227074236 0.9995633187772925 0.0004366812227074236 0.9995633187772925 0.0004366812227074236 0.9995594713656388 0.0004405286343612336 0.9995348837209303 0.0004651162790697675 0.9994818652849742 0.0005181347150259068 0.9994152046783625 0.0005847953216374269 0.9993288590604027 0.0006711409395973155 0.9992063492063492 0.0007936507936507937 0.9990654205607477 0.0009345794392523364 0.9989583333333334 0.001041666666666667 0.9988095238095238 0.001190476190476191 0.9985507246376812 0.001449275362318841 0.9982142857142856 0.001785714285714286 0.9976744186046511 0.002325581395348837 0.9973684210526315 0.002631578947368421 0.9971428571428571 0.002857142857142857 0.996875 0.003125 0.9965517241379309 0.003448275862068966 0.9962962962962962 0.003703703703703704 0.996 0.004 0.9928571428571429 0.007142857142857143 0.9 0.1 0.9 0.1 0.9 0.1 0.9 0.1 0.9 0.1 0.9 0.1 0.95 0.05 0.9928571428571429 0.007142857142857143 0.9694444444444443 0.03055555555555556 0.8258620689655172 0.1741379310344828 0.7835443037974683 0.2164556962025317 0.7613861386138614 0.2386138613861386 0.7491666666666668 0.2508333333333334 0.7223076923076924 0.2776923076923077 0.6659574468085107 0.3340425531914893 0.6316129032258064 0.3683870967741936 0.5933333333333334 0.4066666666666666 0.5505681818181819 0.4494318181818182 0.4550000000000001 0.545 0.3950549450549451 0.604945054945055 0.3419889502762431 0.6580110497237569 0.2787709497206704 0.7212290502793296 0.2494444444444444 0.7505555555555555 0.2173184357541899 0.78268156424581 0.02085561497326203 0.9791443850267378</probabilities>
		</cpt>
		<cpt id="Valkyrie">
			<state id="Absent" />
			<state id="Present" />
			<parents>Armory ControlTower TimePeriod</parents>
			<probabilities>0.9995633187772925 0.0004366812227074236 0.9995633187772925 0.0004366812227074236 0.9995633187772925 0.0004366812227074236 0.9995633187772925 0.0004366812227074236 0.9995633187772925 0.0004366812227074236 0.9995594713656388 0.0004405286343612336 0.9995283018867924 0.0004716981132075472 0.9994791666666667 0.0005208333333333333 0.9993827160493827 0.0006172839506172839 0.9992753623188406 0.0007246376811594203 0.9991228070175439 0.0008771929824561404 0.9989130434782609 0.00108695652173913 0.99873417721519 0.001265822784810127 0.998529411764706 0.001470588235294118 0.9982456140350876 0.001754385964912281 0.9978260869565216 0.002173913043478261 0.996969696969697 0.003030303030303031 0.9965517241379309 0.003448275862068966 0.9958333333333332 0.004166666666666667 0.9954545454545454 0.004545454545454546 0.9952380952380951 0.004761904761904762 0.9944444444444444 0.005555555555555556 0.9941176470588234 0.005882352941176471 0.99375 0.00625 0.9900000000000001 0.01 0.9 0.1 0.9 0.1 0.9 0.1 0.9 0.1 0.9 0.1 0.9666666666666666 0.03333333333333333 0.99375 0.00625 0.9958333333333332 0.004166666666666667 0.996875 0.003125 0.9970588235294117 0.002941176470588235 0.9972222222222221 0.002777777777777778 0.9971428571428571 0.002857142857142857 0.9965517241379309 0.003448275862068966 0.9965517241379309 0.003448275862068966 0.9964285714285713 0.003571428571428571 0.9958333333333332 0.004166666666666667 0.9958333333333332 0.004166666666666667 0.9933333333333333 0.006666666666666667 0.9933333333333333 0.006666666666666667 0.9928571428571429 0.007142857142857143 0.9916666666666667 0.008333333333333333 0.9916666666666667 0.008333333333333333 0.990909090909091 0.009090909090909092 0.9900000000000001 0.01 0.9800000000000001 0.02 0.9 0.1 0.9 0.1 0.9 0.1 0.9 0.1 0.9 0.1 0.9 0.1 0.95 0.05 0.9923076923076923 0.007692307692307693 0.9970588235294117 0.002941176470588235 0.9981481481481481 0.001851851851851852 0.9985714285714287 0.001428571428571429 0.9987951807228916 0.001204819277108434 0.9988505747126437 0.001149425287356322 0.9987654320987655 0.001234567901234568 0.9987500000000001 0.00125 0.99873417721519 0.001265822784810127 0.9986301369863014 0.00136986301369863 0.9984126984126983 0.001587301587301587 0.9981481481481481 0.001851851851851852 0.9979591836734693 0.002040816326530612 0.9976744186046511 0.002325581395348837 0.9972222222222221 0.002777777777777778 0.996969696969697 0.003030303030303031 0.996774193548387 0.003225806451612903 0.99375 0.00625 0.9 0.1 0.9 0.1 0.9 0.1 0.9 0.1 0.9 0.1 0.9 0.1 0.9 0.1 0.95 0.05 0.9666666666666666 0.03333333333333333 0.9800000000000001 0.02 0.9900000000000001 0.01 0.994736842105263 0.005263157894736842 0.9970588235294117 0.002941176470588235 0.998 0.002 0.9983870967741935 0.001612903225806452 0.9987012987012989 0.001298701298701299 0.9989247311827958 0.001075268817204301 0.9991228070175439 0.0008771929824561404 0.9992125984251968 0.0007874015748031496 0.9992537313432837 0.0007462686567164179 0.9992805755395684 0.0007194244604316548 0.9993055555555556 0.0006944444444444445 0.9993243243243244 0.0006756756756756757 0.9993288590604027 0.0006711409395973155 0.9994186046511628 0.0005813953488372093</probabilities>
		</cpt>
		<cpt id="Dropship">
			<state id="Absent" />
			<state id="Present" />
			<parents>ControlTower TimePeriod</parents>
			<probabilities>0.9995633187772925 0.0004366812227074236 0.9995633187772925 0.0004366812227074236 0.9995633187772925 0.0004366812227074236 0.9995633187772925 0.0004366812227074236 0.9995633187772925 0.0004366812227074236 0.9995594713656388 0.0004405286343612336 0.9995305164319249 0.0004694835680751174 0.9995098039215686 0.0004901960784313725 0.9994871794871795 0.0005128205128205128 0.999476439790576 0.0005235602094240838 0.9994535519125684 0.000546448087431694 0.9994252873563219 0.0005747126436781609 0.9993939393939394 0.0006060606060606061 0.9993243243243244 0.0006756756756756757 0.9992647058823529 0.0007352941176470588 0.9991935483870968 0.0008064516129032258 0.9990476190476192 0.0009523809523809525 0.998901098901099 0.001098901098901099 0.9987012987012989 0.001298701298701299 0.9985714285714287 0.001428571428571429 0.9984126984126983 0.001587301587301587 0.9981132075471697 0.001886792452830189 0.9979591836734693 0.002040816326530612 0.9978260869565216 0.002173913043478261 0.996 0.004 0.9 0.1 0.9 0.1 0.9 0.1 0.9 0.1 0.9 0.1 0.9666666666666666 0.03333333333333333 0.80625 0.19375 0.396 0.604 0.2029411764705882 0.7970588235294118 0.1289473684210526 0.8710526315789474 0.1977777777777778 0.8022222222222223 0.1867924528301887 0.8132075471698114 0.2080645161290323 0.7919354838709678 0.3192307692307692 0.6807692307692308 0.2460674157303371 0.7539325842696628 0.249 0.751 0.3267241379310344 0.6732758620689655 0.34296875 0.65703125 0.375177304964539 0.624822695035461 0.3530612244897959 0.6469387755102041 0.366 0.634 0.3864516129032258 0.6135483870967742 0.3917721518987342 0.6082278481012657 0.3537974683544304 0.6462025316455696 0.3176136363636364 0.6823863636363636</probabilities>
		</cpt>
		<cpt id="Wraith">
			<state id="Absent" />
			<state id="Present" />
			<parents>Starport TimePeriod</parents>
			<probabilities>0.9995633187772925 0.0004366812227074236 0.9995633187772925 0.0004366812227074236 0.9995633187772925 0.0004366812227074236 0.9995633187772925 0.0004366812227074236 0.9995555555555555 0.0004444444444444445 0.9995283018867924 0.0004716981132075472 0.9995024875621891 0.0004975124378109452 0.9994871794871795 0.0005128205128205128 0.9994652406417112 0.0005347593582887701 0.9994475138121547 0.0005524861878453039 0.9994152046783625 0.0005847953216374269 0.999337748344371 0.0006622516556291391 0.999290780141844 0.0007092198581560284 0.9991666666666667 0.0008333333333333334 0.9990740740740741 0.000925925925925926 0.9989247311827958 0.001075268817204301 0.9987012987012989 0.001298701298701299 0.9984375 0.0015625 0.9982456140350876 0.001754385964912281 0.9979166666666666 0.002083333333333333 0.9977777777777778 0.002222222222222222 0.9975609756097561 0.002439024390243903 0.9971428571428571 0.002857142857142857 0.996774193548387 0.003225806451612903 0.99375 0.00625 0.9 0.1 0.9 0.1 0.9 0.1 0.9 0.1 0.9800000000000001 0.02 0.9944444444444444 0.005555555555555556 0.9964285714285713 0.003571428571428571 0.9970588235294117 0.002941176470588235 0.95 0.05 0.8729166666666666 0.1270833333333333 0.7877192982456139 0.212280701754386 0.7618421052631579 0.2381578947368421 0.7546511627906978 0.2453488372093023 0.7726415094339623 0.2273584905660377 0.7683760683760685 0.2316239316239317 0.7702290076335878 0.2297709923664122 0.7770833333333334 0.2229166666666667 0.7929032258064517 0.2070967741935484 0.7819875776397516 0.2180124223602485 0.7804733727810651 0.2195266272189349 0.7791666666666667 0.2208333333333333 0.7778443113772456 0.2221556886227545 0.7784883720930232 0.2215116279069768 0.7739884393063584 0.2260115606936416 0.7616216216216217 0.2383783783783784</probabilities>
		</cpt>
		<cpt id="ScienceVessel">
			<state id="Absent" />
			<state id="Present" />
			<parents>ControlTower ScienceFacility TimePeriod</parents>
			<probabilities>0.9995633187772925 0.0004366812227074236 0.9995633187772925 0.0004366812227074236 0.9995633187772925 0.0004366812227074236 0.9995633187772925 0.0004366812227074236 0.9995633187772925 0.0004366812227074236 0.9995594713656388 0.0004405286343612336 0.9995305164319249 0.0004694835680751174 0.9995098039215686 0.0004901960784313725 0.9994871794871795 0.0005128205128205128 0.999476439790576 0.0005235602094240838 0.9994535519125684 0.000546448087431694 0.9994219653179191 0.0005780346820809249 0.9993710691823901 0.000628930817610063 0.999290780141844 0.0007092198581560284 0.9991935483870968 0.0008064516129032258 0.9991228070175439 0.0008771929824561404 0.998936170212766 0.001063829787234043 0.9987654320987655 0.001234567901234568 0.998529411764706 0.001470588235294118 0.9983333333333333 0.001666666666666667 0.9981132075471697 0.001886792452830189 0.9978723404255319 0.002127659574468085 0.9976190476190475 0.002380952380952381 0.9974358974358973 0.002564102564102564 0.995 0.005000000000000001 0.9 0.1 0.9 0.1 0.9 0.1 0.9 0.1 0.9 0.1 0.9 0.1 0.9 0.1 0.9 0.1 0.9 0.1 0.9 0.1 0.9 0.1 0.95 0.05 0.9857142857142858 0.01428571428571429 0.9875 0.0125 0.9923076923076923 0.007692307692307693 0.990909090909091 0.009090909090909092 0.9916666666666667 0.008333333333333333 0.990909090909091 0.009090909090909092 0.9900000000000001 0.01 0.990909090909091 0.009090909090909092 0.990909090909091 0.009090909090909092 0.9857142857142858 0.01428571428571429 0.9875 0.0125 0.9875 0.0125 0.9833333333333334 0.01666666666666667 0.9 0.1 0.9 0.1 0.9 0.1 0.9 0.1 0.9 0.1 0.9666666666666666 0.03333333333333333 0.99375 0.00625 0.996 0.004 0.9970588235294117 0.002941176470588235 0.9972972972972973 0.002702702702702703 0.9976744186046511 0.002325581395348837 0.9979591836734693 0.002040816326530612 0.9980769230769231 0.001923076923076923 0.9981481481481481 0.001851851851851852 0.9979591836734693 0.002040816326530612 0.9976744186046511 0.002325581395348837 0.9977272727272727 0.002272727272727273 0.9974358974358973 0.002564102564102564 0.9970588235294117 0.002941176470588235 0.9962962962962962 0.003703703703703704 0.9954545454545454 0.004545454545454546 0.994736842105263 0.005263157894736842 0.9944444444444444 0.005555555555555556 0.9933333333333333 0.006666666666666667 0.9800000000000001 0.02 0.9 0.1 0.9 0.1 0.9 0.1 0.9 0.1 0.9 0.1 0.9 0.1 0.9 0.1 0.9 0.1 0.9 0.1 0.45 0.55 0.6333333333333333 0.3666666666666667 0.58 0.42 0.8090909090909092 0.1909090909090909 0.7959999999999999 0.204 0.802439024390244 0.1975609756097561 0.7224137931034482 0.2775862068965517 0.5876712328767123 0.4123287671232876 0.5766666666666667 0.4233333333333333 0.5361111111111111 0.4638888888888889 0.4041322314049587 0.5958677685950413 0.3403100775193798 0.6596899224806201 0.3131386861313869 0.686861313868613 0.2546099290780142 0.7453900709219857 0.2006944444444444 0.7993055555555555 0.09244186046511628 0.9075581395348836</probabilities>
		</cpt>
		<cpt id="Battlecruiser">
			<state id="Absent" />
			<state id="Present" />
			<parents>PhysicsLab TimePeriod</parents>
			<probabilities>0.9995633187772925 0.0004366812227074236 0.9995633187772925 0.0004366812227074236 0.9995633187772925 0.0004366812227074236 0.9995633187772925 0.0004366812227074236 0.9995633187772925 0.0004366812227074236 0.9995633187772925 0.0004366812227074236 0.9995614035087719 0.0004385964912280702 0.9995614035087719 0.0004385964912280702 0.9995614035087719 0.0004385964912280702 0.9995614035087719 0.0004385964912280702 0.9995594713656388 0.0004405286343612336 0.9995575221238938 0.0004424778761061947 0.9995575221238938 0.0004424778761061947 0.9995555555555555 0.0004444444444444445 0.9995535714285714 0.0004464285714285714 0.9995515695067265 0.0004484304932735426 0.9995454545454545 0.0004545454545454546 0.9995412844036699 0.0004587155963302753 0.9995391705069124 0.0004608294930875576 0.999537037037037 0.000462962962962963 0.9995283018867924 0.0004716981132075472 0.9995169082125603 0.0004830917874396135 0.9995145631067961 0.0004854368932038835 0.9995073891625617 0.0004926108374384237 0.999497487437186 0.0005025125628140704 0.9 0.1 0.9 0.1 0.9 0.1 0.9 0.1 0.9 0.1 0.9 0.1 0.9 0.1 0.9 0.1 0.9 0.1 0.9 0.1 0.9 0.1 0.9 0.1 0.9 0.1 0.9 0.1 0.9 0.1 0.9 0.1 0.9 0.1 0.9 0.1 0.9 0.1 0.9 0.1 0.9 0.1 0.9 0.1 0.9 0.1 0.9 0.1 0.45 0.55</probabilities>
		</cpt>
		<cpt id="Ghost">
			<state id="Absent" />
			<state id="Present" />
			<parents>CovertOps TimePeriod</parents>
			<probabilities>0.9995633187772925 0.0004366812227074236 0.9995633187772925 0.0004366812227074236 0.9995633187772925 0.0004366812227074236 0.9995633187772925 0.0004366812227074236 0.9995633187772925 0.0004366812227074236 0.9995633187772925 0.0004366812227074236 0.9995614035087719 0.0004385964912280702 0.9995614035087719 0.0004385964912280702 0.9995614035087719 0.0004385964912280702 0.9995614035087719 0.0004385964912280702 0.9995594713656388 0.0004405286343612336 0.9995575221238938 0.0004424778761061947 0.9995575221238938 0.0004424778761061947 0.9995555555555555 0.0004444444444444445 0.9995535714285714 0.0004464285714285714 0.9995515695067265 0.0004484304932735426 0.9995454545454545 0.0004545454545454546 0.9995412844036699 0.0004587155963302753 0.9995391705069124 0.0004608294930875576 0.9995327102803738 0.0004672897196261682 0.9995238095238096 0.0004761904761904762 0.9995121951219512 0.0004878048780487805 0.9995098039215686 0.0004901960784313725 0.9995000000000001 0.0005 0.999476439790576 0.0005235602094240838 0.9 0.1 0.9 0.1 0.9 0.1 0.9 0.1 0.9 0.1 0.9 0.1 0.9 0.1 0.9 0.1 0.9 0.1 0.9 0.1 0.9 0.1 0.9 0.1 0.9 0.1 0.9 0.1 0.9 0.1 0.9 0.1 0.9 0.1 0.9 0.1 0.9 0.1 0.9666666666666666 0.03333333333333333 0.6333333333333333 0.3666666666666667 0.3 0.7 0.3 0.7 0.475 0.525 0.29 0.71</probabilities>
		</cpt>
		<cpt id="NuclearMissile">
			<state id="Absent" />
			<state id="Present" />
			<parents>NuclearSilo Ghost TimePeriod</parents>
			<probabilities>0.3307438819606164 0.6692561180393836 0.5629329046614432 0.437067095338557 0.8054490387192667 0.1945509612807332 0.7981754690283966 0.2018245309716034 0.6042705206230992 0.3957294793769008 0.1389971518604153 0.8610028481395846 0.8655107583965385 0.1344892416034615 0.5730275444141771 0.4269724555858228 0.5678646093144728 0.4321353906855272 0.6139754137259558 0.3860245862740444 0.5321340702814719 0.4678659297185281 0.4845554351392843 0.5154445648607157 0.9434291054090315 0.05657089459096867 0.2725029074552722 0.7274970925447277 0.5695188147001002 0.4304811852998998 0.5017835780589791 0.4982164219410208 0.03755860857866072 0.9624413914213392 0.2009677636794488 0.7990322363205511 0.5217311144417072 0.4782688855582929 0.237642834250188 0.7623571657498122 0.6937338396489187 0.3062661603510813 0.590984245199591 0.409015754800409 0.3158009536904093 0.6841990463095906 0.6005685921673587 0.3994314078326413 0.7760906095848366 0.2239093904151636 0.9 0.1 0.9 0.1 0.9 0.1 0.9 0.1 0.9 0.1 0.9 0.1 0.9 0.1 0.9 0.1 0.9 0.1 0.9 0.1 0.9 0.1 0.9 0.1 0.9 0.1 0.9 0.1 0.9 0.1 0.9 0.1 0.9 0.1 0.9 0.1 0.9 0.1 0.9 0.1 0.856820511250707 0.143179488749293 0.8012681779262203 0.1987318220737798 0.866927908638476 0.1330720913615241 0.8459536044326714 0.1540463955673286 0.5725979759385366 0.4274020240614634 0.9 0.1 0.9 0.1 0.9 0.1 0.9 0.1 0.9 0.1 0.9 0.1 0.9 0.1 0.9 0.1 0.9 0.1 0.9 0.1 0.9 0.1 0.9 0.1 0.9 0.1 0.9 0.1 0.9 0.1 0.9 0.1 0.9 0.1 0.9 0.1 0.9 0.1 0.9 0.1 0.8785227766545334 0.1214772233454668 0.9 0.1 0.9 0.1 0.9 0.1 0.6737347724749255 0.3262652275250744 0.9 0.1 0.9 0.1 0.9 0.1 0.9 0.1 0.9 0.1 0.9 0.1 0.9 0.1 0.9 0.1 0.9 0.1 0.9 0.1 0.9 0.1 0.9 0.1 0.9 0.1 0.9 0.1 0.9 0.1 0.9 0.1 0.9 0.1 0.9 0.1 0.9 0.1 0.9 0.1 0.9 0.1 0.8857089914669742 0.1142910085330257 0.8111909383831328 0.1888090616168673 0.8420613927573248 0.1579386072426751 0.9215914914400947 0.07840850855990549</probabilities>
		</cpt>
		<cpt id="InfantryWeapons1">
			<state id="Absent" />
			<state id="Present" />
			<parents>EngineeringBay TimePeriod</parents>
			<probabilities>0.349792732229987 0.6502072677700129 0.7485577837555305 0.2514422162444694 0.9478861834991941 0.05211381650080599 0.3766771432642666 0.6233228567357334 0.5629328021892648 0.4370671978107353 0.589878252222218 0.410121747777782 0.1008317806456771 0.8991682193543229 0.5809150238415981 0.419084976158402 0.6592473805782217 0.3407526194217783 0.7059778033773017 0.2940221966226985 0.6789184358106817 0.3210815641893183 0.3376740834969252 0.6623259165030749 0.6337268857013731 0.3662731142986269 0.8682837898652912 0.1317162101347088 0.2167817232222597 0.7832182767777403 0.965777590186494 0.03422240981350598 0.3948196494155027 0.6051803505844974 0.6089947212129242 0.3910052787870759 0.8350077498036049 0.1649922501963951 0.9672493345161776 0.03275066548382246 0.5943871166482219 0.4056128833517781 0.4607332690948849 0.539266730905115 0.5750914442218745 0.4249085557781253 0.645422661315627 0.3545773386843731 0.7824323084889245 0.2175676915110755 0.9 0.1 0.9 0.1 0.9 0.1 0.9 0.1 0.9 0.1 0.8207735018084301 0.1792264981915698 0.5628914630204743 0.4371085369795256 0.6429214926266039 0.3570785073733961 0.5520759192160507 0.4479240807839494 0.7554669266080495 0.2445330733919506 0.8812315388070063 0.1187684611929938 0.2818108376955737 0.7181891623044263 0.2143869721048372 0.7856130278951629 0.4543464816974602 0.5456535183025398 0.4951680100057687 0.5048319899942312 0.765541467492997 0.234458532507003 0.4372658013619171 0.5627341986380829 0.6182360267952143 0.3817639732047857 0.5168206233624312 0.4831793766375689 0.8925493484039673 0.1074506515960327 0.7227402186324504 0.2772597813675496 0.5942979511648107 0.4057020488351894 0.1272539339343037 0.8727460660656963 0.1472649108802895 0.8527350891197105 0.280352637594153 0.719647362405847</probabilities>
		</cpt>
		<cpt id="InfantryArmor1">
			<state id="Absent" />
			<state id="Present" />
			<parents>TimePeriod EngineeringBay</parents>
			<probabilities>0.3637061261882328 0.6362938738117672 0.9 0.1 0.5034142401054464 0.4965857598945536 0.9 0.1 0.8895003441810349 0.1104996558189652 0.9 0.1 0.4783845814017126 0.5216154185982875 0.9 0.1 0.2133051657967812 0.7866948342032188 0.9 0.1 0.2072469509953502 0.7927530490046499 0.6760772964525216 0.3239227035474784 0.8793013206279584 0.1206986793720415 0.6063226812988989 0.3936773187011011 0.7469737989114087 0.2530262010885915 0.4780293883357064 0.5219706116642938 0.5865331749587257 0.4134668250412742 0.890614909320779 0.1093850906792209 0.6585367219857109 0.3414632780142892 0.2566496629468392 0.7433503370531609 0.7198626152676014 0.2801373847323987 0.970401307680807 0.02959869231919297 0.4868142113462869 0.5131857886537132 0.8222224094507974 0.1777775905492027 0.8045767901338672 0.1954232098661328 0.03421452854313524 0.9657854714568648 0.5046041753114422 0.4953958246885578 0.6007215981478454 0.3992784018521545 0.7103427030683197 0.2896572969316803 0.6582271204504296 0.3417728795495703 0.6978384347418801 0.3021615652581199 0.5176791340382763 0.4823208659617236 0.9638863871198623 0.03611361288013779 0.9035872990771404 0.09641270092285961 0.5702407368106494 0.4297592631893505 0.4245696737765877 0.5754303262234123 0.8812455354209703 0.1187544645790297 0.8805105794689528 0.1194894205310471 0.6615718470864588 0.3384281529135412 0.2834499035258475 0.7165500964741525 0.5811243947110473 0.4188756052889529 0.3319682711693503 0.6680317288306497 0.7551570476692014 0.2448429523307985 0.6445918655001427 0.3554081344998573 0.9640930289920817 0.03590697100791835 0.5010131007752824 0.4989868992247176 0.7735605342843397 0.2264394657156603 0.9737809196888175 0.02621908031118245 0.5984112031118188 0.4015887968881812 0.1449490946864895 0.8550509053135107</probabilities>
		</cpt>
		<cpt id="StimPacks">
			<state id="Absent" />
			<state id="Present" />
			<parents>Academy TimePeriod</parents>
			<probabilities>0.1320428617384768 0.8679571382615232 0.3385725683139187 0.6614274316860813 0.2536186741259398 0.7463813258740604 0.3375308096022999 0.6624691903977 0.6501968829990861 0.3498031170009139 0.8382322676007409 0.1617677323992593 0.2510893176078148 0.7489106823921851 0.5930183203965334 0.4069816796034667 0.1404244914177026 0.8595755085822974 0.664764005793536 0.335235994206464 0.7144158552313559 0.2855841447686441 0.7117393186007136 0.2882606813992865 0.9245386864613153 0.07546131353868461 0.6385247160532415 0.3614752839467585 0.3758616560958524 0.6241383439041476 0.806714483472792 0.193285516527208 0.5449747728912373 0.4550252271087628 0.4700196693253011 0.5299803306746989 0.2013932538220108 0.7986067461779892 0.4155654644650782 0.584434535534922 0.5973962323113403 0.4026037676886599 0.8940252118586655 0.1059747881413346 0.2661761869168576 0.7338238130831424 0.7044034025761938 0.2955965974238063 0.4995835770841147 0.5004164229158853 0.9 0.1 0.9 0.1 0.9 0.1 0.9 0.1 0.8310714966028518 0.1689285033971482 0.5775506830490618 0.4224493169509381 0.8056313052094547 0.1943686947905453 0.6607832276592378 0.3392167723407622 0.2504916636626439 0.7495083363373563 0.7755319362870666 0.2244680637129334 0.5864158044598062 0.4135841955401937 0.1103191192356236 0.8896808807643765 0.4713167178712251 0.5286832821287748 0.5180812495876803 0.4819187504123197 0.4541211592733946 0.5458788407266054 0.5954450134006849 0.404554986599315 0.2612942334309763 0.7387057665690237 0.2865637508670483 0.7134362491329517 0.9962559053562383 0.003744094643761607 0.2972096020121788 0.7027903979878212 0.5520332255988968 0.4479667744011033 0.8454508356316099 0.15454916436839 0.4294385038058868 0.5705614961941131 0.6424374759680178 0.3575625240319823 0.4259975353544804 0.5740024646455196</probabilities>
		</cpt>
		<cpt id="U238Shells">
			<state id="Absent" />
			<state id="Present" />
			<parents>Academy TimePeriod</parents>
			<probabilities>0.786947117560678 0.2130528824393219 0.7044029489200239 0.295597051079976 0.8603993345200172 0.1396006654799828 0.2470377838304405 0.7529622161695596 0.3228991189106001 0.6771008810893999 0.4289267760574245 0.5710732239425754 0.5544111419474292 0.4455888580525708 0.1179183725898209 0.8820816274101792 0.3190284220960902 0.6809715779039099 0.9367969300360626 0.06320306996393747 0.4754434226032869 0.524556577396713 0.4914355919498311 0.5085644080501689 0.8262747567340374 0.1737252432659627 0.5036286632596977 0.4963713367403024 0.5782751272887219 0.4217248727112782 0.1950265645071058 0.8049734354928944 0.8155019419387323 0.1844980580612677 0.3479950600438779 0.6520049399561221 0.344623391789758 0.6553766082102421 0.6406545229824053 0.3593454770175947 0.8039687064221153 0.1960312935778847 0.3756524840653913 0.6243475159346087 0.9072322965413383 0.0927677034586617 0.7368265980754435 0.2631734019245564 0.5932487253354902 0.4067512746645098 0.9 0.1 0.9 0.1 0.9 0.1 0.9 0.1 0.733728048958109 0.2662719510418911 0.4256634782453105 0.5743365217546894 0.617627183067495 0.382372816932505 0.6037490306774385 0.3962509693225616 0.1104367315025802 0.8895632684974199 0.9005211159364931 0.09947888406350684 0.5749401310670635 0.4250598689329364 0.5446492440332907 0.4553507559667093 0.6023552579639926 0.3976447420360074 0.8417470904766545 0.1582529095233454 0.5015046825263615 0.4984953174736385 0.5759493630692304 0.4240506369307697 0.2101329908465302 0.78986700915347 0.680885927138941 0.319114072861059 0.4137884220892916 0.5862115779107083 0.2023186810271222 0.7976813189728778 0.2673615698782611 0.7326384301217389 0.4139859162296288 0.5860140837703712 0.03056107239708899 0.969438927602911 0.3113011035275766 0.6886988964724233 0.0149926937132155 0.9850073062867844</probabilities>
		</cpt>
		<cpt id="CharonBoosters">
			<state id="Absent" />
			<state id="Present" />
			<parents>MachineShop TimePeriod</parents>
			<probabilities>0.7116237602188079 0.2883762397811921 0.4660380039787537 0.5339619960212463 0.4609572148245316 0.5390427851754684 0.6420966250487905 0.3579033749512096 0.7418791877492824 0.2581208122507177 0.5348182878661507 0.4651817121338494 0.4775787879555952 0.5224212120444048 0.8375052683315728 0.1624947316684272 0.3218731544301995 0.6781268455698004 0.8526691689842485 0.1473308310157515 0.6108171310852244 0.3891828689147757 0.4279310280643784 0.5720689719356217 0.7560258972671634 0.2439741027328367 0.7610515003781347 0.2389484996218653 0.7983088771717206 0.2016911228282794 0.8064621412627128 0.1935378587372871 0.9269829339632454 0.07301706603675473 0.5239534057212993 0.4760465942787006 0.6469749201120859 0.353025079887914 0.9081690781467297 0.09183092185327037 0.436259164385818 0.563740835614182 0.8744040881395365 0.1255959118604635 0.3873760049253965 0.6126239950746034 0.8331372164689888 0.1668627835310113 0.8582732185633099 0.1417267814366901 0.9 0.1 0.9 0.1 0.9 0.1 0.9 0.1 0.1159528551059748 0.8840471448940253 0.5707894105952699 0.4292105894047302 0.6126605116362036 0.3873394883637964 0.4287800549424918 0.5712199450575082 0.1080336656139252 0.8919663343860749 0.9056018862036939 0.09439811379630606 0.3530342284746222 0.6469657715253778 0.3062941579203174 0.6937058420796826 0.2986998754597902 0.7013001245402097 0.8787713465682364 0.1212286534317634 0.384997621737697 0.615002378262303 0.9044112120537666 0.09558878794623331 0.4428725949005723 0.5571274050994278 0.4819067193621361 0.518093280637864 0.5084169284205233 0.4915830715794766 0.08285074094473224 0.9171492590552678 0.7082006339719598 0.2917993660280401 0.4418021405650548 0.5581978594349454 0.5801060863225561 0.4198939136774439 0.5068259532474673 0.4931740467525327 0.750660880663749 0.2493391193362509</probabilities>
		</cpt>
		<cpt id="Tank_Siege_Mode">
			<state id="Absent" />
			<state id="Present" />
			<parents>MachineShop TimePeriod</parents>
			<probabilities>0.3070609398994563 0.6929390601005437 0.6378245195678152 0.3621754804321848 0.6049996491017713 0.3950003508982288 0.4671426454925513 0.5328573545074488 0.5819054419787584 0.4180945580212417 0.5201222017253521 0.479877798274648 0.7321941570326871 0.2678058429673128 0.7647860089796644 0.2352139910203356 0.7246503161300434 0.2753496838699567 0.3635221621821128 0.6364778378178873 0.4069740689266247 0.5930259310733752 0.7762656369012585 0.2237343630987415 0.6920263310369686 0.3079736689630314 0.4318030183427198 0.5681969816572803 0.5502533306224093 0.4497466693775905 0.6796153847526701 0.3203846152473298 0.6518250393318745 0.3481749606681254 0.6090445726665998 0.3909554273334002 0.5126629070264489 0.487337092973551 0.6279558102755416 0.3720441897244585 0.8028135587320313 0.1971864412679686 0.5655707550986825 0.4344292449013175 0.2923183212021452 0.7076816787978547 0.2773308682726057 0.7226691317273942 0.5332077609403838 0.4667922390596161 0.9 0.1 0.9 0.1 0.9 0.1 0.9 0.1 0.6204746825015632 0.3795253174984368 0.7696907642246519 0.2303092357753482 0.6857434632092549 0.3142565367907451 0.6680958151402345 0.3319041848597654 0.5889933117396425 0.4110066882603575 0.4285989708754835 0.5714010291245163 0.3698504046806266 0.6301495953193734 0.7724274952066251 0.2275725047933748 0.2533773383418745 0.7466226616581255 0.516638803361411 0.483361196638589 0.6476335863892042 0.3523664136107958 0.739764911557234 0.260235088442766 0.7736944814309054 0.2263055185690946 0.07604645048111995 0.9239535495188801 0.7288877782670568 0.2711122217329434 0.3147034854475561 0.685296514552444 0.7143812116518846 0.2856187883481153 0.7286838020886619 0.2713161979113381 0.7231386086353058 0.2768613913646942 0.1257884494129857 0.8742115505870142 0.5390302404757428 0.4609697595242572</probabilities>
		</cpt>
		<cpt id="VehicleWeapons1">
			<state id="Absent" />
			<state id="Present" />
			<parents>Armory TimePeriod</parents>
			<probabilities>0.5239488210161623 0.4760511789838379 0.5512762572450386 0.4487237427549613 0.2805092480989651 0.7194907519010348 0.6390628607209525 0.3609371392790474 0.6410578587355176 0.3589421412644823 0.4407919651430724 0.5592080348569275 0.4450005670473723 0.5549994329526278 0.6296194145545776 0.3703805854454223 0.4982149309825112 0.5017850690174889 0.3975350744512819 0.602464925548718 0.2486374560978418 0.7513625439021583 0.02230843151963586 0.977691568480364 0.2766244840326269 0.723375515967373 0.5639752100590803 0.4360247899409198 0.9680825474286512 0.03191745257134884 0.4862466829536387 0.5137533170463613 0.3638880115844775 0.6361119884155225 0.8234171345695492 0.1765828654304508 0.7169336775380752 0.2830663224619247 0.3133312432416034 0.6866687567583966 0.7983033431671549 0.201696656832845 0.539525106709717 0.460474893290283 0.154081499510989 0.8459185004890111 0.4320223696701295 0.5679776303298705 0.5047209524107867 0.4952790475892132 0.9 0.1 0.9 0.1 0.9 0.1 0.9 0.1 0.9 0.1 0.9 0.1 0.8766484511355792 0.1233515488644209 0.7190106598315373 0.2809893401684626 0.4502005338909038 0.5497994661090963 0.5392400420440785 0.4607599579559216 0.6596339096989673 0.3403660903010326 0.3283580696054227 0.6716419303945773 0.4653898962220979 0.5346101037779022 0.3918239356811132 0.6081760643188868 0.2378751123273003 0.7621248876726998 0.9848839887723674 0.01511601122763265 0.4027810828752452 0.5972189171247547 0.6366179622959478 0.3633820377040521 0.06822569953468195 0.9317743004653181 0.6976462891187647 0.3023537108812354 0.4114208787248085 0.5885791212751915 0.2576916852906264 0.7423083147093736 0.4926687297257911 0.507331270274209 0.02992337534861709 0.9700766246513828 0.723744332730021 0.276255667269979</probabilities>
		</cpt>
		<cpt id="VehiclePlating1">
			<state id="Absent" />
			<state id="Present" />
			<parents>Armory TimePeriod</parents>
			<probabilities>0.5434355609037235 0.4565644390962765 0.7411104747363038 0.2588895252636962 0.3436491421215876 0.6563508578784124 0.1182271270549954 0.8817728729450047 0.4862654598008409 0.5137345401991591 0.4470151258472889 0.552984874152711 0.5274802271660473 0.4725197728339527 0.4768510119448117 0.5231489880551881 0.05009023657375972 0.9499097634262403 0.6653665990693056 0.3346334009306944 0.572968929124309 0.4270310708756911 0.48245845017006 0.5175415498299401 0.5424077930709929 0.457592206929007 0.6546469292273107 0.3453530707726893 0.416175710047928 0.5838242899520719 0.5923083642765817 0.4076916357234182 0.8881015628892778 0.1118984371107223 0.4768480601196962 0.5231519398803038 0.1603126987753483 0.8396873012246517 0.7810631487500095 0.2189368512499906 0.5115648620443859 0.4884351379556141 0.2731018033153209 0.7268981966846791 0.4222398313142764 0.5777601686857236 0.663344295381274 0.336655704618726 0.5731443448889744 0.4268556551110256 0.9 0.1 0.9 0.1 0.9 0.1 0.9 0.1 0.9 0.1 0.9 0.1 0.8456328539157783 0.1543671460842219 0.8581418503516335 0.1418581496483665 0.7547673254399209 0.245232674560079 0.7064114596707182 0.2935885403292817 0.5710631423280168 0.4289368576719832 0.4913796258820105 0.5086203741179896 0.4576334999305067 0.5423665000694933 0.4574985827534478 0.5425014172465522 0.6710879765493112 0.3289120234506888 0.2726036241091167 0.7273963758908835 0.4933884839260868 0.5066115160739133 0.4409781859955743 0.5590218140044256 0.4233779658026017 0.5766220341973984 0.7189655976042948 0.2810344023957054 0.605864005542318 0.394135994457682 0.7159593076353434 0.2840406923646565 0.3303514985885022 0.6696485014114979 0.4169977657385352 0.5830022342614647 0.1524404731606229 0.8475595268393771</probabilities>
		</cpt>
		<cpt id="ShipWeapons1">
			<state id="Absent" />
			<state id="Present" />
			<parents>Armory TimePeriod</parents>
			<probabilities>0.5384810301411757 0.4615189698588245 0.7678111588994517 0.2321888411005484 0.2313812306646733 0.7686187693353268 0.427114547710144 0.5728854522898562 0.6220785507055086 0.3779214492944916 0.5782508631684097 0.4217491368315903 0.472897770147573 0.5271022298524271 0.3074469421060622 0.6925530578939377 0.7681606291426958 0.2318393708573042 0.5694280202840227 0.4305719797159772 0.494917919341444 0.505082080658556 0.1694435857515873 0.8305564142484126 0.04323111971754126 0.9567688802824588 0.3118394175783976 0.6881605824216024 0.4768139795506183 0.5231860204493817 0.5740083313804091 0.4259916686195909 0.7999703484659485 0.2000296515340516 0.8135140099430778 0.1864859900569222 0.6047391902381564 0.3952608097618436 0.1261094378377608 0.8738905621622393 0.7347993220097147 0.2652006779902854 0.6563888836083326 0.3436111163916674 0.7260252143136705 0.2739747856863294 0.6465353560799751 0.3534646439200249 0.5799663040008348 0.4200336959991651 0.9 0.1 0.9 0.1 0.9 0.1 0.9 0.1 0.9 0.1 0.9 0.1 0.8487426461970062 0.1512573538029938 0.2465100111353694 0.7534899888646308 0.3073152128888261 0.6926847871111739 0.2740090508697033 0.7259909491302967 0.3304746165008956 0.6695253834991043 0.2690178803084772 0.7309821196915227 0.6291444785637694 0.3708555214362307 0.7617173925308581 0.238282607469142 0.2677680203973252 0.7322319796026748 0.601621442257858 0.398378557742142 0.571584458553822 0.4284155414461781 0.477041819372325 0.522958180627675 0.2329182000223222 0.7670817999776778 0.9030320654892466 0.09696793451075331 0.5147560998611963 0.4852439001388038 0.8835700134156308 0.1164299865843691 0.7814450008826018 0.2185549991173982 0.3762681158536718 0.6237318841463283 0.7041796017985402 0.2958203982014598</probabilities>
		</cpt>
		<cpt id="ShipPlating1">
			<state id="Absent" />
			<state id="Present" />
			<parents>Armory TimePeriod</parents>
			<probabilities>0.878817029357748 0.1211829706422521 0.3129905753144081 0.687009424685592 0.9904596900721933 0.009540309927806823 0.6757255655224261 0.3242744344775739 0.6999668212862725 0.3000331787137275 0.5344648380210817 0.4655351619789183 0.5005147347970796 0.4994852652029204 0.5736569173933341 0.4263430826066658 0.627503221077649 0.3724967789223511 0.4835965735410552 0.5164034264589448 0.3103294351102931 0.6896705648897068 0.6023043661781543 0.3976956338218456 0.3184956601552559 0.6815043398447441 0.2927475703314774 0.7072524296685225 0.6771568923435314 0.3228431076564687 0.1706078711563726 0.8293921288436273 0.5648108677183119 0.4351891322816882 0.6594978262270682 0.3405021737729319 0.5740829616198185 0.4259170383801814 0.2573831822893494 0.7426168177106507 0.1289504100931883 0.8710495899068118 0.2304938057286959 0.7695061942713041 0.6639153274812055 0.3360846725187944 0.5217649264816262 0.4782350735183739 0.7783092856739899 0.2216907143260099 0.9 0.1 0.9 0.1 0.9 0.1 0.9 0.1 0.9 0.1 0.9 0.1 0.8736191756137074 0.1263808243862927 0.4802892571648315 0.5197107428351686 0.127745808211165 0.872254191788835 0.3680844529592375 0.6319155470407625 0.08604348733477776 0.9139565126652223 0.7548452960913765 0.2451547039086235 0.5180598946446743 0.4819401053553258 0.9888206213469905 0.0111793786530095 0.4593275389691033 0.5406724610308968 0.448042867659847 0.5519571323401531 0.419216137693545 0.580783862306455 0.06199447027592311 0.9380055297240769 0.6891639187123873 0.3108360812876128 0.4251300162004031 0.574869983799597 0.3773550871154833 0.6226449128845166 0.2880494428562925 0.7119505571437076 0.9403281174345536 0.05967188256544644 0.7183123045025598 0.2816876954974402 0.3404027291429982 0.6595972708570018</probabilities>
		</cpt>
		<cpt id="CloakingField">
			<state id="Absent" />
			<state id="Present" />
			<parents>ControlTower TimePeriod</parents>
			<probabilities>0.08069263437206406 0.9193073656279359 0.1871187976665514 0.8128812023334486 0.1899303404597549 0.8100696595402451 0.9224964788936603 0.07750352110633975 0.2339944502833768 0.7660055497166232 0.6149149838184491 0.3850850161815508 0.7338535989209651 0.266146401079035 0.4519990537347633 0.5480009462652367 0.4733987817211699 0.5266012182788301 0.7862454614732836 0.2137545385267164 0.8187184848470873 0.1812815151529126 0.6087865880370587 0.3912134119629413 0.3776656729668274 0.6223343270331726 0.5151546881591714 0.4848453118408287 0.6056057274185663 0.3943942725814337 0.5142767432490296 0.4857232567509704 0.6924087812202976 0.3075912187797024 0.7477523900344426 0.2522476099655575 0.2532195227369736 0.7467804772630264 0.5883131615751146 0.4116868384248855 0.8811513403048048 0.1188486596951953 0.5259168094327936 0.4740831905672063 0.4895157516180761 0.5104842483819237 0.3096562071820256 0.6903437928179744 0.9128085369894948 0.08719146301050515 0.9 0.1 0.9 0.1 0.9 0.1 0.9 0.1 0.9 0.1 0.7563354943803318 0.2436645056196682 0.5589505213113232 0.4410494786886768 0.2550659767763171 0.744934023223683 0.732967561403671 0.2670324385963291 0.7062565744880871 0.2937434255119129 0.5256466168824224 0.4743533831175775 0.7625365332895354 0.2374634667104646 0.1330778262994344 0.8669221737005657 0.2769148324085042 0.7230851675914959 0.6470112580472095 0.3529887419527906 0.8579412068548377 0.1420587931451625 0.22909996342397 0.77090003657603 0.6369934217237481 0.3630065782762518 0.5443612581617429 0.4556387418382571 0.5840029736001312 0.4159970263998688 0.4006780801691088 0.5993219198308911 0.5534516642172597 0.4465483357827403 0.5060843860107299 0.49391561398927 0.08762108521723551 0.9123789147827646 0.6723689422007505 0.3276310577992496</probabilities>
		</cpt>
		<cpt id="YamatoGun">
			<state id="Absent" />
			<state id="Present" />
			<parents>PhysicsLab TimePeriod</parents>
			<probabilities>0.7363173496044303 0.2636826503955695 0.5192227107192745 0.4807772892807256 0.3273642676091286 0.6726357323908714 0.7022183096373253 0.2977816903626745 0.9873121800994908 0.01268781990050909 0.9204181836384946 0.07958181636150538 0.5046127022829853 0.4953872977170147 0.2855260106549591 0.7144739893450408 0.5877663448858154 0.4122336551141846 0.6755739279140762 0.3244260720859236 0.4431118657704378 0.5568881342295623 0.8402325719947962 0.1597674280052037 0.3626207627590173 0.6373792372409827 0.8284428811558094 0.1715571188441907 0.3540654908388107 0.6459345091611892 0.7531528564448604 0.2468471435551397 0.0238364753392012 0.9761635246607989 0.4280814379236652 0.571918562076335 0.7208325460184745 0.2791674539815255 0.5316906912933482 0.4683093087066517 0.9745267938572392 0.02547320614276091 0.5807647297773477 0.4192352702226522 0.579292221633288 0.420707778366712 0.6119010394826444 0.3880989605173556 0.4206486937496463 0.5793513062503538 0.9 0.1 0.9 0.1 0.9 0.1 0.9 0.1 0.9 0.1 0.9 0.1 0.9 0.1 0.9 0.1 0.9 0.1 0.9 0.1 0.9 0.1 0.9 0.1 0.9 0.1 0.9 0.1 0.9 0.1 0.9 0.1 0.9 0.1 0.9 0.1 0.9 0.1 0.9 0.1 0.9 0.1 0.9 0.1 0.9 0.1 0.9 0.1 0.8584003482889508 0.1415996517110491</probabilities>
		</cpt>
		<cpt id="EMPShockwave">
			<state id="Absent" />
			<state id="Present" />
			<parents>ScienceFacility TimePeriod</parents>
			<probabilities>0.3145550947197735 0.6854449052802265 0.4541419871458213 0.5458580128541787 0.1241130136327173 0.8758869863672828 0.3754066945839788 0.6245933054160212 0.7171556002915464 0.2828443997084537 0.8137753879511341 0.186224612048866 0.3742360579144078 0.6257639420855922 0.5416828473811857 0.4583171526188143 0.1199562104354741 0.8800437895645259 0.5605397573331361 0.4394602426668639 0.1899374960632469 0.8100625039367532 0.5686315638146012 0.4313684361853987 0.669673377446298 0.3303266225537019 0.4280918649732058 0.5719081350267942 0.4548889285912481 0.5451110714087517 0.1494193411437434 0.8505806588562566 0.9277046622783207 0.07229533772167932 0.4065873852556173 0.5934126147443828 0.320787708824805 0.679212291175195 0.6111014188937216 0.3888985811062783 0.6246578064382869 0.375342193561713 0.521073073608933 0.4789269263910671 0.9877144074475942 0.01228559255240585 0.6382658009213399 0.3617341990786601 0.1859584107067427 0.8140415892932571 0.9 0.1 0.9 0.1 0.9 0.1 0.9 0.1 0.9 0.1 0.9 0.1 0.9 0.1 0.9 0.1 0.9 0.1 0.8328663597461636 0.1671336402538363 0.6926567493209749 0.3073432506790251 0.621512484707524 0.3784875152924759 0.2755358741859843 0.7244641258140158 0.4375599450725992 0.5624400549274009 0.6236984281979546 0.3763015718020453 0.5264323184448603 0.4735676815551398 0.6767326274489643 0.3232673725510356 0.6333106277308447 0.3666893722691553 0.4626513267088003 0.5373486732911997 0.7374766400398494 0.2625233599601508 0.5445281345672913 0.4554718654327088 0.6746455234942909 0.3253544765057092 0.3297008990501382 0.6702991009498618 0.632529973986351 0.367470026013649 0.0485797029286433 0.9514202970713567</probabilities>
		</cpt>
		<cpt id="Irradiate">
			<state id="Absent" />
			<state id="Present" />
			<parents>ScienceFacility TimePeriod</parents>
			<probabilities>0.3983231312647489 0.6016768687352512 0.3148575438729501 0.6851424561270501 0.5015691175653607 0.4984308824346392 0.5063093699664948 0.4936906300335052 0.4229310313243994 0.5770689686756007 0.7190822403004633 0.2809177596995366 0.5603902650917557 0.4396097349082444 0.5085454901869059 0.4914545098130941 0.1831344997541373 0.8168655002458627 0.7392689796623766 0.2607310203376234 0.1189725616569623 0.8810274383430377 0.5461192273744528 0.4538807726255471 0.9026526578984212 0.09734734210157872 0.4416648254807394 0.5583351745192607 0.2466239059431013 0.7533760940568987 0.4126975083881237 0.5873024916118762 0.5386706816415154 0.4613293183584846 0.4067006726485075 0.5932993273514926 0.5196508396192113 0.4803491603807886 0.7948524030730466 0.2051475969269534 0.8027124017067822 0.1972875982932179 0.475592783491641 0.5244072165083591 0.3523589114428801 0.6476410885571199 0.6780236733001058 0.3219763266998943 0.7311053419429255 0.2688946580570744 0.9 0.1 0.9 0.1 0.9 0.1 0.9 0.1 0.9 0.1 0.9 0.1 0.9 0.1 0.9 0.1 0.9 0.1 0.7985179148746577 0.2014820851253423 0.6496601930835163 0.3503398069164836 0.8358960325156155 0.1641039674843844 0.3139549235928117 0.6860450764071883 0.724413776786878 0.2755862232131221 0.7739496341382588 0.2260503658617412 0.4782296584736479 0.5217703415263522 0.3064835855091215 0.6935164144908784 0.7989809699054619 0.2010190300945383 0.8413341720787302 0.1586658279212698 0.1973101808773859 0.8026898191226141 0.5246645449183074 0.4753354550816928 0.2212771455155544 0.7787228544844456 0.1968717423817878 0.8031282576182122 0.6097610375877103 0.3902389624122897 0.1245155051758719 0.8754844948241281</probabilities>
		</cpt>
		<cpt id="Lockdown">
			<state id="Absent" />
			<state id="Present" />
			<parents>CovertOps TimePeriod</parents>
			<probabilities>0.5015862089372366 0.4984137910627634 0.3016676710320609 0.6983323289679391 0.3614375046192127 0.6385624953807874 0.4640480235728544 0.5359519764271457 0.190850638435793 0.8091493615642069 0.6514479026730138 0.3485520973269863 0.1284602828996693 0.8715397171003307 0.01372328066238317 0.9862767193376169 0.4375380536831156 0.5624619463168844 0.563872235475001 0.4361277645249989 0.1471002054638878 0.8528997945361123 0.6345862238923768 0.3654137761076231 0.4395410188259047 0.5604589811740953 0.2658928678261833 0.7341071321738166 0.9534567349590247 0.04654326504097531 0.6379702584283373 0.3620297415716627 0.1576136564556116 0.8423863435443885 0.0941153747441212 0.9058846252558788 0.4447140871199201 0.5552859128800798 0.2944653363104528 0.7055346636895473 0.9885527045944514 0.01144729540554862 0.6726016063144354 0.3273983936855645 0.5428762506354308 0.4571237493645692 0.06998761561933742 0.9300123843806626 0.3912258369545748 0.6087741630454252 0.9 0.1 0.9 0.1 0.9 0.1 0.9 0.1 0.9 0.1 0.9 0.1 0.9 0.1 0.9 0.1 0.9 0.1 0.9 0.1 0.9 0.1 0.9 0.1 0.9 0.1 0.9 0.1 0.9 0.1 0.9 0.1 0.9 0.1 0.9 0.1 0.9 0.1 0.8848062712746707 0.1151937287253292 0.7624892684203403 0.2375107315796597 0.8268075009026485 0.1731924990973514 0.7899640186343906 0.2100359813656093 0.916377212307351 0.08362278769264904 0.6164157985491272 0.3835842014508727</probabilities>
		</cpt>
		<cpt id="PersonnelCloaking">
			<state id="Absent" />
			<state id="Present" />
			<parents>CovertOps TimePeriod</parents>
			<probabilities>0.5298446084591058 0.4701553915408944 0.2394425515748319 0.7605574484251683 0.7556901831504694 0.2443098168495306 0.8136884023604228 0.1863115976395771 0.06273519539130976 0.9372648046086903 0.2894777471696003 0.7105222528303997 0.3242541330758087 0.6757458669241913 0.4969244502948704 0.5030755497051296 0.5467393548682381 0.4532606451317618 0.7197138363256499 0.2802861636743501 0.3045403481569583 0.6954596518430418 0.5169140332557892 0.4830859667442107 0.1734633376957654 0.8265366623042345 0.435334059496964 0.5646659405030361 0.5226497873161993 0.4773502126838008 0.2286533656973929 0.7713466343026071 0.7025238349510442 0.2974761650489559 0.4547041801889877 0.5452958198110123 0.5321534059237651 0.4678465940762348 0.398607958691067 0.601392041308933 0.2334876299578078 0.7665123700421922 0.5720485018310264 0.4279514981689735 0.1217339644650951 0.8782660355349048 0.1265004455257726 0.8734995544742273 0.07671269300672338 0.9232873069932767 0.9 0.1 0.9 0.1 0.9 0.1 0.9 0.1 0.9 0.1 0.9 0.1 0.9 0.1 0.9 0.1 0.9 0.1 0.9 0.1 0.9 0.1 0.9 0.1 0.9 0.1 0.9 0.1 0.9 0.1 0.9 0.1 0.9 0.1 0.9 0.1 0.9 0.1 0.6904120008252235 0.3095879991747764 0.7386442479014367 0.2613557520985632 0.7047292080085862 0.2952707919914138 0.7992440096749057 0.2007559903250943 0.892959252222998 0.107040747777002 0.5055215424073242 0.494478457592676</probabilities>
		</cpt>
		<cpt id="InfantryArmor2">
			<state id="Absent" />
			<state id="Present" />
			<parents>TimePeriod InfantryArmor1 ScienceFacility</parents>
			<probabilities>0.5369271155301726 0.4630728844698273 0.9 0.1 0.4817352362374868 0.5182647637625131 0.9 0.1 0.5701831159893059 0.4298168840106942 0.9 0.1 0.4909981244944932 0.5090018755055069 0.9 0.1 0.9246650317738174 0.07533496822618252 0.9 0.1 0.2609140181769518 0.7390859818230483 0.9 0.1 0.7935068712073906 0.2064931287926094 0.9 0.1 0.6814283479166833 0.3185716520833166 0.9 0.1 0.496944153507496 0.503055846492504 0.9 0.1 0.5321644427658714 0.4678355572341287 0.9 0.1 0.9714634136818172 0.02853658631818285 0.9 0.1 0.533116120470271 0.4668838795297289 0.9 0.1 0.4881958624243672 0.5118041375756328 0.9 0.1 0.5972651103575951 0.4027348896424048 0.9 0.1 0.6762680213612107 0.3237319786387893 0.9 0.1 0.3124252378612843 0.6875747621387156 0.9 0.1 0.6536300527745902 0.3463699472254097 0.9 0.1 0.4176041426300426 0.5823958573699574 0.9 0.1 0.2348264444264068 0.7651735555735932 0.8944466724914509 0.105553327508549 0.94192522379112 0.0580747762088801 0.8578689083468745 0.1421310916531256 0.2779630115286371 0.722036988471363 0.7593419968080893 0.2406580031919107 0.6085511201725263 0.3914488798274737 0.8998673845807497 0.1001326154192504 0.519559248487007 0.480440751512993 0.6267186269500945 0.3732813730499053 0.7706335132339234 0.2293664867660767 0.7938973176876956 0.2061026823123044 0.2901584068696794 0.7098415931303206 0.8433611606082324 0.1566388393917675 0.359189531429117 0.6408104685708831 0.7728123848735636 0.2271876151264363 0.3621341652925809 0.6378658347074192 0.6701040948283571 0.329895905171643 0.26567974974512 0.7343202502548799 0.6726158895821751 0.3273841104178251 0.764345950498229 0.2356540495017712 0.471377474106113 0.5286225258938869 0.4054729721591019 0.5945270278408982 0.1374611897488118 0.8625388102511883 0.536699154288445 0.4633008457115551 0.3044543453564649 0.695545654643535 0.4764128119333327 0.5235871880666672 0.5332946082039937 0.4667053917960063 0.1902016382757203 0.8097983617242797 0.2950826079254868 0.7049173920745132 0.7786313501027498 0.2213686498972503 0.917408220268667 0.08259177973133292 0.6583971392833015 0.3416028607166987 0.3136432344609464 0.6863567655390536 0.1641167445294308 0.8358832554705693 0.5124693981617808 0.4875306018382192 0.1111656757108612 0.8888343242891388 0.3548621029338621 0.6451378970661381 0.8885465596945267 0.1114534403054732 0.8255084268404522 0.1744915731595477 0.5414367432633261 0.4585632567366738 0.1655708102053704 0.8344291897946297 0.5251424575091389 0.4748575424908612 0.5053140169130599 0.4946859830869402 0.530023843701519 0.4699761562984809 0.7504995291871254 0.2495004708128746 0.7425273781571139 0.2574726218428861 0.648347625102472 0.3516523748975278 0.5541160934934252 0.445883906506575 0.6610621925526549 0.3389378074473451 0.6943626021837024 0.3056373978162975 0.5742156282631162 0.4257843717368838 0.6130921264709153 0.3869078735290848 0.9193686127367916 0.08063138726320843 0.6963925053435969 0.3036074946564031 0.8395345142104659 0.1604654857895342 0.7665003641185713 0.2334996358814288 0.68792673562744 0.3120732643725599 0.8455342319497149 0.1544657680502851 0.7492834203971738 0.2507165796028262 0.4386193025277109 0.5613806974722891 0.521728390272866 0.478271609727134 0.5258141063007014 0.4741858936992986 0.548632653592473 0.4513673464075268</probabilities>
		</cpt>
		<cpt id="InfantryArmor3">
			<state id="Absent" />
			<state id="Present" />
			<parents>TimePeriod InfantryArmor2</parents>
			<probabilities>0.4414164747055949 0.5585835252944053 0.04878353622943987 0.9512164637705601 0.7051698154598447 0.2948301845401553 0.5442768312779248 0.4557231687220751 0.3740968073077979 0.625903192692202 0.6301595425279966 0.3698404574720035 0.5677344527541556 0.4322655472458444 0.6333010427945515 0.3666989572054487 0.2105232558467937 0.7894767441532065 0.3210347924062337 0.6789652075937662 0.8173729831793897 0.1826270168206104 0.2950122799638136 0.7049877200361863 0.6263783915838315 0.3736216084161685 0.2160335249589051 0.783966475041095 0.2721465576928617 0.7278534423071383 0.1691117104150977 0.8308882895849022 0.02633725341440086 0.9736627465855993 0.9181496434271266 0.0818503565728734 0.2470205121719537 0.7529794878280465 0.4313281300173807 0.5686718699826194 0.08137327927716172 0.9186267207228382 0.5804677264776101 0.4195322735223898 0.8286757731399653 0.1713242268600347 0.5356287330012008 0.4643712669987991 0.8071475241874184 0.1928524758125815 0.5319524743397447 0.4680475256602553 0.5275362659983036 0.4724637340016963 0.2192941422062697 0.7807058577937303 0.5672545788014298 0.4327454211985702 0.3979697840757574 0.6020302159242427 0.5672017654772779 0.4327982345227221 0.73753665984012 0.26246334015988 0.5024235064984201 0.49757649350158 0.5400959280574702 0.45990407194253 0.2584427281685295 0.7415572718314706 0.4504120271769472 0.5495879728230527 0.5685504043156885 0.4314495956843115 0.8008430889997042 0.1991569110002958 0.3291634366265921 0.670836563373408 0.1102393912902405 0.8897606087097595 0.5606536532406778 0.4393463467593223 0.2332794395112969 0.7667205604887031 0.9024286669560362 0.09757133304396379 0.3852780611187675 0.6147219388812325 0.6538762395491787 0.3461237604508213 0.2098267344393123 0.7901732655606877 0.8042349625472783 0.1957650374527216 0.3839804712620251 0.6160195287379748 0.4618463407671735 0.5381536592328264 0.6661099928148527 0.3338900071851475</probabilities>
		</cpt>
		<cpt id="InfantryWeapons2">
			<state id="Absent" />
			<state id="Present" />
			<parents>TimePeriod InfantryWeapons1 ScienceFacility</parents>
			<probabilities>0.4254810626055062 0.5745189373944937 0.9 0.1 0.5645137797152918 0.4354862202847083 0.9 0.1 0.5309906635291534 0.4690093364708466 0.9 0.1 0.305134524680383 0.694865475319617 0.9 0.1 0.2852082581837294 0.7147917418162707 0.9 0.1 0.5095683952199586 0.4904316047800414 0.9 0.1 0.5465176578835754 0.4534823421164245 0.9 0.1 0.8484474330573677 0.1515525669426322 0.9 0.1 0.4177316814828025 0.5822683185171974 0.9 0.1 0.4146235685952751 0.5853764314047248 0.9 0.1 0.8197143823478987 0.1802856176521012 0.9 0.1 0.1776196070359154 0.8223803929640845 0.9 0.1 0.6644320661934431 0.335567933806557 0.9 0.1 0.3932967752305058 0.6067032247694942 0.9 0.1 0.7217189439924233 0.2782810560075769 0.9 0.1 0.8328602602287891 0.1671397397712107 0.9 0.1 0.5254786780000593 0.4745213219999406 0.9 0.1 0.2237687670603415 0.7762312329396586 0.9 0.1 0.9043650606604953 0.09563493933950462 0.8617575879616304 0.1382424120383697 0.7437486760883114 0.2562513239116885 0.8947886135464573 0.1052113864535426 0.4749404005858876 0.5250595994141125 0.8181283153992676 0.1818716846007324 0.5741152424612562 0.4258847575387437 0.8999807493833021 0.1000192506166979 0.9296478954463872 0.07035210455361281 0.917682528209861 0.08231747179013899 0.9715694759785089 0.0284305240214912 0.5056933423011076 0.4943066576988925 0.6351166826629391 0.3648833173370609 0.4810398192715703 0.5189601807284299 0.5826927193114135 0.4173072806885864 0.4165803063263415 0.5834196936736587 0.4357908742976097 0.5642091257023904 0.290262718049925 0.7097372819500749 0.3292454372807341 0.6707545627192659 0.6448799743457566 0.3551200256542433 0.6438191454446172 0.3561808545553828 0.8518779991066451 0.1481220008933549 0.3700970976055618 0.6299029023944381 0.468451758497671 0.5315482415023292 0.07370755382091375 0.9262924461790862 0.4380563763379797 0.5619436236620203 0.5634593144392643 0.4365406855607357 0.6746450351110416 0.3253549648889585 0.6742200990231543 0.3257799009768457 0.2253385443578801 0.7746614556421199 0.5275073001059399 0.4724926998940601 0.3983983915756977 0.6016016084243023 0.8483231640489103 0.1516768359510898 0.0492897062491282 0.9507102937508717 0.3823552044645529 0.6176447955354472 0.5442140359629754 0.4557859640370246 0.2206065122772122 0.7793934877227877 0.3432033262102273 0.6567966737897728 0.4356106415936554 0.5643893584063446 0.07023053823873958 0.9297694617612604 0.7619876059673596 0.2380123940326404 0.09391251971746772 0.9060874802825323 0.3380801158520502 0.6619198841479499 0.5405734853419901 0.4594265146580099 0.6393564833846092 0.3606435166153908 0.5250066349418234 0.4749933650581765 0.3857890779918463 0.6142109220081536 0.9559771312293971 0.04402286877060295 0.5876479013645151 0.4123520986354849 0.3234384740940747 0.6765615259059253 0.3752072984991143 0.6247927015008857 0.3348846394485336 0.6651153605514664 0.5215308374789753 0.4784691625210247 0.5225512033258606 0.4774487966741394 0.3566268482323822 0.6433731517676178 0.6126956003870293 0.3873043996129707 0.4504590747026823 0.5495409252973176 0.9869691774933682 0.01303082250663176 0.190056560437318 0.8099434395626821 0.719063415225486 0.2809365847745141 0.7043992755267428 0.2956007244732573 0.4731830239795041 0.526816976020496 0.472533917035331 0.5274660829646689 0.2517068889705809 0.7482931110294191</probabilities>
		</cpt>
		<cpt id="InfantryWeapons3">
			<state id="Absent" />
			<state id="Present" />
			<parents>TimePeriod InfantryWeapons2</parents>
