<?xml version="1.0" encoding="ISO-8859-1"?>
<smile version="1.0" id="Network1" numsamples="1000" discsamples="10000">
	<nodes>
		<cpt id="TimePeriod">
			<state id="Period1" />
			<state id="Period2" />
			<state id="Period3" />
			<state id="Period4" />
			<state id="Period5" />
			<state id="Period6" />
			<state id="Period7" />
			<state id="Period8" />
			<state id="Period9" />
			<state id="Period10" />
			<state id="Period11" />
			<state id="Period12" />
			<state id="Period13" />
			<state id="Period14" />
			<state id="Period15" />
			<state id="Period16" />
			<state id="Period17" />
			<state id="Period18" />
			<state id="Period19" />
			<state id="Period20" />
			<state id="Period21" />
			<state id="Period22" />
			<state id="Period23" />
			<state id="Period24" />
			<state id="Period25" />
			<probabilities>0.04059028489444558 0.04059028489444558 0.04059028489444558 0.04059028489444558 0.04059028489444558 0.04059028489444558 0.04059028489444558 0.04059028489444558 0.04059028489444558 0.04059028489444558 0.04059028489444558 0.04059028489444558 0.04059028489444558 0.04059028489444558 0.04059028489444558 0.04038532486165198 0.04018036482885837 0.04018036482885837 0.03997540479606477 0.03956548473047756 0.03915556466489035 0.03874564459930314 0.03813076450092232 0.03772084443533511 0.0371059643369543</probabilities>
		</cpt>
		<cpt id="SpawningPool">
			<state id="Absent" />
			<state id="Present" />
			<parents>TimePeriod</parents>
			<probabilities>0.999497487437186 0.0005025125628140704 0.999497487437186 0.0005025125628140704 0.8386934673366835 0.1613065326633166 0.2658291457286432 0.7341708542713568 0.009547738693467336 0.9904522613065326 0.009547738693467336 0.9904522613065326 0.009547738693467336 0.9904522613065326 0.009547738693467336 0.9904522613065326 0.009547738693467336 0.9904522613065326 0.009547738693467336 0.9904522613065326 0.009547738693467336 0.9904522613065326 0.009547738693467336 0.9904522613065326 0.009547738693467336 0.9904522613065326 0.009547738693467336 0.9904522613065326 0.009547738693467336 0.9904522613065326 0.009595959595959597 0.9904040404040405 0.00964467005076142 0.9903553299492385 0.00964467005076142 0.9903553299492385 0.009693877551020406 0.9903061224489795 0.009793814432989691 0.9902061855670102 0.009895833333333333 0.9901041666666666 0.009999999999999999 0.99 0.01016042780748663 0.9898395721925133 0.01027027027027027 0.9897297297297297 0.01043956043956044 0.9895604395604396</probabilities>
		</cpt>
		<cpt id="Zergling">
			<state id="Absent" />
			<state id="Present" />
			<parents>SpawningPool TimePeriod</parents>
			<probabilities>0.999497487437186 0.0005025125628140704 0.999497487437186 0.0005025125628140704 0.9994011976047905 0.0005988023952095809 0.9981132075471697 0.001886792452830189 0.95 0.05 0.95 0.05 0.95 0.05 0.95 0.05 0.95 0.05 0.95 0.05 0.95 0.05 0.95 0.05 0.95 0.05 0.95 0.05 0.95 0.05 0.95 0.05 0.95 0.05 0.95 0.05 0.95 0.05 0.95 0.05 0.95 0.05 0.95 0.05 0.95 0.05 0.95 0.05 0.95 0.05 0.9 0.1 0.9 0.1 0.906060606060606 0.09393939393939395 0.08095238095238096 0.919047619047619 0.06010101010101011 0.9398989898989899 0.009595959595959597 0.9904040404040405 0.004545454545454546 0.9954545454545455 0.004545454545454546 0.9954545454545455 0.004545454545454546 0.9954545454545455 0.004545454545454546 0.9954545454545455 0.004545454545454546 0.9954545454545455 0.004545454545454546 0.9954545454545455 0.004545454545454546 0.9954545454545455 0.004545454545454546 0.9954545454545455 0.004545454545454546 0.9954545454545455 0.004568527918781725 0.9954314720812182 0.004591836734693877 0.995408163265306 0.004591836734693877 0.995408163265306 0.004615384615384616 0.9953846153846153 0.004663212435233161 0.9953367875647669 0.004712041884816755 0.9952879581151832 0.004761904761904762 0.9952380952380951 0.004838709677419355 0.9951612903225807 0.004891304347826087 0.9951086956521739 0.004972375690607734 0.9950276243093922</probabilities>
		</cpt>
		<cpt id="EvolutionChamber">
			<state id="Absent" />
			<state id="Present" />
			<parents>TimePeriod</parents>
			<probabilities>0.999497487437186 0.0005025125628140704 0.999497487437186 0.0005025125628140704 0.999497487437186 0.0005025125628140704 0.999497487437186 0.0005025125628140704 0.999497487437186 0.0005025125628140704 0.999497487437186 0.0005025125628140704 0.999497487437186 0.0005025125628140704 0.9944723618090453 0.005527638190954774 0.9743718592964824 0.02562814070351759 0.692964824120603 0.307035175879397 0.4316582914572865 0.5683417085427136 0.3110552763819096 0.6889447236180905 0.2306532663316583 0.7693467336683417 0.1753768844221106 0.8246231155778895 0.1351758793969849 0.8648241206030151 0.1207070707070707 0.8792929292929294 0.1010152284263959 0.898984771573604 0.08071065989847716 0.9192893401015228 0.07091836734693877 0.9290816326530611 0.07164948453608247 0.9283505154639175 0.07239583333333333 0.9276041666666666 0.05736842105263158 0.9426315789473684 0.05828877005347594 0.941711229946524 0.0427027027027027 0.9572972972972973 0.03791208791208792 0.9620879120879121</probabilities>
		</cpt>
		<cpt id="CreepColony">
			<state id="Absent" />
			<state id="Present" />
			<parents>TimePeriod</parents>
			<probabilities>0.999497487437186 0.0005025125628140704 0.999497487437186 0.0005025125628140704 0.999497487437186 0.0005025125628140704 0.9944723618090453 0.005527638190954774 0.9793969849246231 0.02060301507537688 0.9341708542713568 0.06582914572864322 0.9040201005025126 0.09597989949748745 0.8738693467336683 0.1261306532663317 0.7683417085427136 0.2316582914572865 0.3864321608040202 0.6135678391959799 0.1402010050251256 0.8597989949748743 0.1050251256281407 0.8949748743718593 0.08994974874371858 0.9100502512562814 0.07989949748743719 0.9201005025125628 0.07487437185929649 0.9251256281407035 0.06010101010101011 0.9398989898989899 0.05532994923857868 0.9446700507614212 0.04517766497461929 0.9548223350253806 0.04540816326530612 0.9545918367346937 0.04587628865979382 0.9541237113402061 0.04114583333333333 0.9588541666666666 0.03631578947368421 0.9636842105263157 0.03689839572192513 0.9631016042780748 0.0372972972972973 0.9627027027027028 0.03241758241758242 0.9675824175824176</probabilities>
		</cpt>
		<cpt id="SporeColony">
			<state id="Absent" />
			<state id="Present" />
			<parents>EvolutionChamber CreepColony TimePeriod</parents>
			<probabilities>0.999497487437186 0.0005025125628140704 0.999497487437186 0.0005025125628140704 0.999497487437186 0.0005025125628140704 0.9994949494949497 0.0005050505050505052 0.9994871794871795 0.0005128205128205128 0.999462365591398 0.0005376344086021507 0.9994444444444445 0.0005555555555555556 0.9994219653179191 0.0005780346820809249 0.9993333333333334 0.0006666666666666668 0.9983870967741935 0.001612903225806452 0.9958333333333332 0.004166666666666667 0.9944444444444444 0.005555555555555556 0.9928571428571429 0.007142857142857143 0.9916666666666667 0.008333333333333333 0.9916666666666667 0.008333333333333333 0.990909090909091 0.009090909090909092 0.9888888888888889 0.01111111111111111 0.9857142857142858 0.01428571428571429 0.9857142857142858 0.01428571428571429 0.9857142857142858 0.01428571428571429 0.9833333333333334 0.01666666666666667 0.975 0.025 0.975 0.025 0.975 0.025 0.975 0.025 0.9 0.1 0.9 0.1 0.9 0.1 0.95 0.05 0.9800000000000001 0.02 0.9928571428571429 0.007142857142857143 0.995 0.005000000000000001 0.9961538461538462 0.003846153846153846 0.9977777777777778 0.002222222222222222 0.9987012987012989 0.001298701298701299 0.9984126984126983 0.001587301587301587 0.9977777777777778 0.002222222222222222 0.996969696969697 0.003030303030303031 0.9958333333333332 0.004166666666666667 0.99375 0.00625 0.9928571428571429 0.007142857142857143 0.9916666666666667 0.008333333333333333 0.9900000000000001 0.01 0.9875 0.0125 0.9875 0.0125 0.9888888888888889 0.01111111111111111 0.9875 0.0125 0.9875 0.0125 0.9800000000000001 0.02 0.975 0.025 0.9 0.1 0.9 0.1 0.9 0.1 0.9 0.1 0.9 0.1 0.9 0.1 0.9 0.1 0.95 0.05 0.975 0.025 0.99375 0.00625 0.9800000000000001 0.02 0.975 0.025 0.9800000000000001 0.02 0.9800000000000001 0.02 0.975 0.025 0.95 0.05 0.9666666666666666 0.03333333333333333 0.9666666666666666 0.03333333333333333 0.9666666666666666 0.03333333333333333 0.9666666666666666 0.03333333333333333 0.9666666666666666 0.03333333333333333 0.975 0.025 0.975 0.025 0.975 0.025 0.9666666666666666 0.03333333333333333 0.9 0.1 0.9 0.1 0.9 0.1 0.9 0.1 0.9 0.1 0.9 0.1 0.9 0.1 0.9 0.1 0.6333333333333333 0.3666666666666667 0.9553191489361702 0.04468085106382979 0.9445454545454546 0.05545454545454545 0.8585185185185186 0.1414814814814815 0.8126666666666668 0.1873333333333334 0.7447204968944099 0.2552795031055901 0.7170588235294118 0.2829411764705883 0.7005747126436782 0.2994252873563219 0.68125 0.31875 0.6605555555555556 0.3394444444444445 0.618232044198895 0.381767955801105 0.5916201117318436 0.4083798882681564 0.5700564971751413 0.4299435028248587 0.5474576271186441 0.4525423728813559 0.5281609195402299 0.4718390804597701 0.5194285714285715 0.4805714285714285 0.3097701149425287 0.6902298850574712</probabilities>
		</cpt>
		<cpt id="SunkenColony">
			<state id="Absent" />
			<state id="Present" />
			<parents>CreepColony SpawningPool TimePeriod</parents>
			<probabilities>0.999497487437186 0.0005025125628140704 0.999497487437186 0.0005025125628140704 0.9994011976047905 0.0005988023952095809 0.9981132075471697 0.001886792452830189 0.95 0.05 0.95 0.05 0.95 0.05 0.95 0.05 0.95 0.05 0.95 0.05 0.95 0.05 0.95 0.05 0.95 0.05 0.95 0.05 0.95 0.05 0.95 0.05 0.95 0.05 0.95 0.05 0.95 0.05 0.95 0.05 0.95 0.05 0.95 0.05 0.95 0.05 0.95 0.05 0.95 0.05 0.9 0.1 0.9 0.1 0.996969696969697 0.003030303030303031 0.9993150684931507 0.0006849315068493151 0.9994845360824742 0.0005154639175257732 0.9994594594594596 0.0005405405405405406 0.999441340782123 0.000558659217877095 0.9994219653179191 0.0005780346820809249 0.9993421052631579 0.0006578947368421053 0.9986842105263158 0.001315789473684211 0.9962962962962962 0.003703703703703704 0.995 0.005000000000000001 0.9941176470588234 0.005882352941176471 0.9933333333333333 0.006666666666666667 0.9928571428571429 0.007142857142857143 0.990909090909091 0.009090909090909092 0.9900000000000001 0.01 0.9875 0.0125 0.9875 0.0125 0.9875 0.0125 0.9857142857142858 0.01428571428571429 0.9833333333333334 0.01666666666666667 0.9833333333333334 0.01666666666666667 0.9833333333333334 0.01666666666666667 0.9800000000000001 0.02 0.9 0.1 0.9 0.1 0.9 0.1 0.9 0.1 0.9 0.1 0.9 0.1 0.9 0.1 0.9 0.1 0.9 0.1 0.9 0.1 0.9 0.1 0.9 0.1 0.9 0.1 0.9 0.1 0.9 0.1 0.9 0.1 0.9 0.1 0.9 0.1 0.9 0.1 0.9 0.1 0.9 0.1 0.9 0.1 0.9 0.1 0.9 0.1 0.9 0.1 0.9 0.1 0.9 0.1 0.9 0.1 0.95 0.05 0.18 0.82 0.2071428571428571 0.7928571428571428 0.195 0.8050000000000002 0.07307692307692308 0.9269230769230771 0.3170212765957447 0.6829787234042554 0.275609756097561 0.724390243902439 0.08662790697674419 0.9133720930232557 0.03854748603351955 0.9614525139664805 0.02692307692307693 0.9730769230769232 0.0266304347826087 0.9733695652173913 0.01567567567567568 0.9843243243243244 0.02620320855614973 0.9737967914438502 0.01550802139037433 0.9844919786096256 0.01534391534391534 0.9846560846560846 0.0101063829787234 0.9898936170212765 0.01021505376344086 0.9897849462365592 0.01027027027027027 0.9897297297297297 0.01032608695652174 0.9896739130434782 0.01049723756906077 0.9895027624309392 0.0106145251396648 0.9893854748603352 0.01073446327683616 0.9892655367231638</probabilities>
		</cpt>
		<cpt id="Extractor">
			<state id="Absent" />
			<state id="Present" />
			<parents>TimePeriod</parents>
			<probabilities>0.999497487437186 0.0005025125628140704 0.999497487437186 0.0005025125628140704 0.9040201005025126 0.09597989949748745 0.8788944723618091 0.121105527638191 0.4266331658291458 0.5733668341708542 0.1402010050251256 0.8597989949748743 0.03467336683417086 0.9653266331658291 0.01457286432160804 0.9854271356783919 0.01457286432160804 0.9854271356783919 0.01457286432160804 0.9854271356783919 0.01457286432160804 0.9854271356783919 0.01457286432160804 0.9854271356783919 0.01457286432160804 0.9854271356783919 0.01457286432160804 0.9854271356783919 0.01457286432160804 0.9854271356783919 0.009595959595959597 0.9904040404040405 0.00964467005076142 0.9903553299492385 0.00964467005076142 0.9903553299492385 0.009693877551020406 0.9903061224489795 0.009793814432989691 0.9902061855670102 0.009895833333333333 0.9901041666666666 0.009999999999999999 0.99 0.01016042780748663 0.9898395721925133 0.01027027027027027 0.9897297297297297 0.01043956043956044 0.9895604395604396</probabilities>
		</cpt>
		<cpt id="HydraliskDen">
			<state id="Absent" />
			<state id="Present" />
			<parents>Extractor SpawningPool TimePeriod</parents>
			<probabilities>0.999497487437186 0.0005025125628140704 0.999497487437186 0.0005025125628140704 0.9993464052287583 0.0006535947712418301 0.9981132075471697 0.001886792452830189 0.95 0.05 0.95 0.05 0.95 0.05 0.95 0.05 0.95 0.05 0.95 0.05 0.95 0.05 0.95 0.05 0.95 0.05 0.95 0.05 0.95 0.05 0.95 0.05 0.95 0.05 0.95 0.05 0.95 0.05 0.95 0.05 0.95 0.05 0.95 0.05 0.95 0.05 0.95 0.05 0.95 0.05 0.9 0.1 0.9 0.1 0.9964285714285713 0.003571428571428571 0.9991869918699189 0.0008130081300813009 0.9988095238095238 0.001190476190476191 0.9962962962962962 0.003703703703703704 0.9833333333333334 0.01666666666666667 0.95 0.05 0.95 0.05 0.95 0.05 0.95 0.05 0.95 0.05 0.95 0.05 0.95 0.05 0.95 0.05 0.9 0.1 0.9 0.1 0.9 0.1 0.9 0.1 0.9 0.1 0.9 0.1 0.9 0.1 0.9 0.1 0.9 0.1 0.9 0.1 0.9 0.1 0.9 0.1 0.9933333333333333 0.006666666666666667 0.9 0.1 0.9 0.1 0.9 0.1 0.9 0.1 0.9 0.1 0.9 0.1 0.9 0.1 0.9 0.1 0.9 0.1 0.9 0.1 0.9 0.1 0.9 0.1 0.9 0.1 0.9 0.1 0.9 0.1 0.9 0.1 0.9 0.1 0.9 0.1 0.9 0.1 0.9 0.1 0.9 0.1 0.9 0.1 0.9 0.1 0.9 0.1 0.9833333333333334 0.01666666666666667 0.996 0.004 0.9991304347826088 0.0008695652173913044 0.9877906976744186 0.0122093023255814 0.9217616580310881 0.07823834196891191 0.8472081218274111 0.1527918781725888 0.6746192893401015 0.3253807106598984 0.3294416243654822 0.6705583756345177 0.1873096446700507 0.8126903553299492 0.1416243654822335 0.8583756345177664 0.08578680203045684 0.914213197969543 0.07055837563451776 0.9294416243654822 0.06548223350253807 0.9345177664974619 0.06548223350253807 0.9345177664974619 0.06581632653061224 0.9341836734693877 0.05561224489795918 0.9443877551020408 0.0558974358974359 0.9441025641025641 0.05647668393782384 0.9435233160621762 0.0518324607329843 0.9481675392670157 0.04708994708994709 0.9529100529100528 0.04784946236559141 0.9521505376344086 0.0483695652173913 0.9516304347826087 0.04364640883977901 0.9563535911602209</probabilities>
		</cpt>
		<cpt id="Lair">
			<state id="Absent" />
			<state id="Present" />
			<parents>Extractor SpawningPool TimePeriod</parents>
			<probabilities>0.999497487437186 0.0005025125628140704 0.999497487437186 0.0005025125628140704 0.9993464052287583 0.0006535947712418301 0.9981132075471697 0.001886792452830189 0.95 0.05 0.95 0.05 0.95 0.05 0.95 0.05 0.95 0.05 0.95 0.05 0.95 0.05 0.95 0.05 0.95 0.05 0.95 0.05 0.95 0.05 0.95 0.05 0.95 0.05 0.95 0.05 0.95 0.05 0.95 0.05 0.95 0.05 0.95 0.05 0.95 0.05 0.95 0.05 0.95 0.05 0.9 0.1 0.9 0.1 0.9964285714285713 0.003571428571428571 0.9991869918699189 0.0008130081300813009 0.9988095238095238 0.001190476190476191 0.9962962962962962 0.003703703703703704 0.9833333333333334 0.01666666666666667 0.95 0.05 0.95 0.05 0.95 0.05 0.95 0.05 0.95 0.05 0.95 0.05 0.95 0.05 0.95 0.05 0.9 0.1 0.9 0.1 0.9 0.1 0.9 0.1 0.9 0.1 0.9 0.1 0.9 0.1 0.9 0.1 0.9 0.1 0.9 0.1 0.9 0.1 0.9 0.1 0.9933333333333333 0.006666666666666667 0.9 0.1 0.9 0.1 0.9 0.1 0.9 0.1 0.9 0.1 0.9 0.1 0.9 0.1 0.9 0.1 0.9 0.1 0.9 0.1 0.9 0.1 0.9 0.1 0.9 0.1 0.9 0.1 0.9 0.1 0.9 0.1 0.9 0.1 0.9 0.1 0.9 0.1 0.9 0.1 0.9 0.1 0.9 0.1 0.9 0.1 0.9 0.1 0.9833333333333334 0.01666666666666667 0.996 0.004 0.9991304347826088 0.0008695652173913044 0.9936046511627907 0.006395348837209303 0.6834196891191711 0.3165803108808291 0.2685279187817259 0.731472081218274 0.1416243654822335 0.8583756345177664 0.08578680203045684 0.914213197969543 0.06548223350253807 0.9345177664974619 0.0299492385786802 0.9700507614213197 0.0299492385786802 0.9700507614213197 0.02487309644670051 0.9751269035532993 0.02487309644670051 0.9751269035532993 0.01979695431472081 0.9802030456852791 0.01479591836734694 0.9852040816326529 0.01479591836734694 0.9852040816326529 0.01487179487179487 0.9851282051282051 0.0150259067357513 0.9849740932642487 0.01518324607329843 0.9848167539267017 0.01534391534391534 0.9846560846560846 0.01021505376344086 0.9897849462365592 0.01032608695652174 0.9896739130434782 0.01049723756906077 0.9895027624309392</probabilities>
		</cpt>
		<cpt id="QueensNest">
			<state id="Absent" />
			<state id="Present" />
			<parents>Lair TimePeriod</parents>
			<probabilities>0.999497487437186 0.0005025125628140704 0.999497487437186 0.0005025125628140704 0.999497487437186 0.0005025125628140704 0.999497487437186 0.0005025125628140704 0.999497487437186 0.0005025125628140704 0.9994949494949497 0.0005050505050505052 0.9992753623188406 0.0007246376811594203 0.9981818181818181 0.001818181818181818 0.9966666666666666 0.003333333333333334 0.994736842105263 0.005263157894736842 0.9933333333333333 0.006666666666666667 0.9875 0.0125 0.9875 0.0125 0.9857142857142858 0.01428571428571429 0.9857142857142858 0.01428571428571429 0.9800000000000001 0.02 0.975 0.025 0.975 0.025 0.975 0.025 0.975 0.025 0.975 0.025 0.975 0.025 0.9666666666666666 0.03333333333333333 0.9666666666666666 0.03333333333333333 0.9666666666666666 0.03333333333333333 0.9 0.1 0.9 0.1 0.9 0.1 0.9 0.1 0.9 0.1 0.95 0.05 0.9983870967741935 0.001612903225806452 0.9993103448275862 0.0006896551724137932 0.9994117647058823 0.0005882352941176471 0.9994475138121547 0.0005524861878453039 0.9940540540540541 0.005945945945945947 0.9838541666666667 0.01614583333333333 0.9682291666666667 0.03177083333333333 0.8803108808290157 0.1196891191709845 0.8129533678756478 0.1870466321243524 0.7365979381443299 0.2634020618556701 0.6644329896907216 0.3355670103092783 0.5716494845360824 0.4283505154639175 0.4865284974093265 0.5134715025906735 0.3764397905759163 0.6235602094240837 0.301058201058201 0.6989417989417989 0.2401069518716577 0.7598930481283421 0.2102702702702703 0.7897297297297298 0.1688524590163934 0.8311475409836066 0.05500000000000001 0.945</probabilities>
		</cpt>
		<cpt id="Hive">
			<state id="Absent" />
			<state id="Present" />
			<parents>QueensNest TimePeriod</parents>
			<probabilities>0.999497487437186 0.0005025125628140704 0.999497487437186 0.0005025125628140704 0.999497487437186 0.0005025125628140704 0.999497487437186 0.0005025125628140704 0.999497487437186 0.0005025125628140704 0.999497487437186 0.0005025125628140704 0.999497487437186 0.0005025125628140704 0.999497487437186 0.0005025125628140704 0.999497487437186 0.0005025125628140704 0.999497487437186 0.0005025125628140704 0.9994949494949497 0.0005050505050505052 0.9994897959183673 0.000510204081632653 0.9994818652849742 0.0005181347150259068 0.9994318181818183 0.0005681818181818183 0.9993865030674847 0.0006134969325153375 0.9993197278911564 0.0006802721088435375 0.9992424242424243 0.0007575757575757577 0.9991228070175439 0.0008771929824561404 0.9989690721649485 0.001030927835051546 0.9986666666666668 0.001333333333333334 0.9983333333333333 0.001666666666666667 0.9979166666666666 0.002083333333333333 0.9975609756097561 0.002439024390243903 0.996969696969697 0.003030303030303031 0.9916666666666667 0.008333333333333333 0.9 0.1 0.9 0.1 0.9 0.1 0.9 0.1 0.9 0.1 0.9 0.1 0.9 0.1 0.9 0.1 0.9 0.1 0.9 0.1 0.95 0.05 0.975 0.025 0.9857142857142858 0.01428571428571429 0.9124999999999999 0.08749999999999999 0.8351351351351352 0.1648648648648649 0.5942307692307692 0.4057692307692308 0.4984848484848485 0.5015151515151516 0.4511904761904761 0.5488095238095238 0.379 0.621 0.3325 0.6675 0.3300751879699248 0.6699248120300752 0.251048951048951 0.7489510489510489 0.1285714285714286 0.8714285714285713 0.1366013071895425 0.8633986928104576 0.01695906432748538 0.9830409356725145</probabilities>
		</cpt>
		<cpt id="DefilerMound">
			<state id="Absent" />
			<state id="Present" />
			<parents>Hive TimePeriod</parents>
			<probabilities>0.999497487437186 0.0005025125628140704 0.999497487437186 0.0005025125628140704 0.999497487437186 0.0005025125628140704 0.999497487437186 0.0005025125628140704 0.999497487437186 0.0005025125628140704 0.999497487437186 0.0005025125628140704 0.999497487437186 0.0005025125628140704 0.999497487437186 0.0005025125628140704 0.999497487437186 0.0005025125628140704 0.999497487437186 0.0005025125628140704 0.999497487437186 0.0005025125628140704 0.999497487437186 0.0005025125628140704 0.999497487437186 0.0005025125628140704 0.999492385786802 0.0005076142131979696 0.9994818652849742 0.0005181347150259068 0.9994350282485877 0.0005649717514124294 0.9993902439024391 0.0006097560975609757 0.999337748344371 0.0006622516556291391 0.9992537313432837 0.0007462686567164179 0.9991228070175439 0.0008771929824561404 0.9990291262135922 0.000970873786407767 0.9987951807228916 0.001204819277108434 0.9983050847457627 0.001694915254237288 0.9981132075471697 0.001886792452830189 0.9928571428571429 0.007142857142857143 0.9 0.1 0.9 0.1 0.9 0.1 0.9 0.1 0.9 0.1 0.9 0.1 0.9 0.1 0.9 0.1 0.9 0.1 0.9 0.1 0.9 0.1 0.9 0.1 0.9 0.1 0.9666666666666666 0.03333333333333333 0.8428571428571429 0.1571428571428571 0.9045454545454545 0.09545454545454546 0.6735294117647058 0.3264705882352941 0.5297872340425531 0.4702127659574468 0.4904761904761904 0.5095238095238095 0.4925925925925925 0.5074074074074074 0.3877777777777778 0.6122222222222222 0.3694444444444444 0.6305555555555554 0.3635658914728682 0.6364341085271318 0.262406015037594 0.7375939849624059 0.1710059171597633 0.8289940828402367</probabilities>
		</cpt>
		<cpt id="NydusCanal">
			<state id="Absent" />
			<state id="Present" />
			<parents>Hive TimePeriod</parents>
			<probabilities>0.999497487437186 0.0005025125628140704 0.999497487437186 0.0005025125628140704 0.999497487437186 0.0005025125628140704 0.999497487437186 0.0005025125628140704 0.999497487437186 0.0005025125628140704 0.999497487437186 0.0005025125628140704 0.999497487437186 0.0005025125628140704 0.999497487437186 0.0005025125628140704 0.999497487437186 0.0005025125628140704 0.999497487437186 0.0005025125628140704 0.999497487437186 0.0005025125628140704 0.999497487437186 0.0005025125628140704 0.999497487437186 0.0005025125628140704 0.999492385786802 0.0005076142131979696 0.9994818652849742 0.0005181347150259068 0.9994350282485877 0.0005649717514124294 0.9993902439024391 0.0006097560975609757 0.999337748344371 0.0006622516556291391 0.9992537313432837 0.0007462686567164179 0.9991228070175439 0.0008771929824561404 0.9990291262135922 0.000970873786407767 0.9987951807228916 0.001204819277108434 0.9983050847457627 0.001694915254237288 0.9981132075471697 0.001886792452830189 0.9928571428571429 0.007142857142857143 0.9 0.1 0.9 0.1 0.9 0.1 0.9 0.1 0.9 0.1 0.9 0.1 0.9 0.1 0.9 0.1 0.9 0.1 0.9 0.1 0.9 0.1 0.9 0.1 0.9 0.1 0.9666666666666666 0.03333333333333333 0.9857142857142858 0.01428571428571429 0.95 0.05 0.9676470588235293 0.03235294117647059 0.8702127659574468 0.1297872340425532 0.8555555555555555 0.1444444444444444 0.8506172839506173 0.1493827160493827 0.8433333333333334 0.1566666666666667 0.8601851851851852 0.1398148148148148 0.8286821705426357 0.1713178294573644 0.8112781954887218 0.1887218045112782 0.7627218934911243 0.2372781065088757</probabilities>
		</cpt>
		<cpt id="UltraliskCavern">
			<state id="Absent" />
			<state id="Present" />
			<parents>Hive TimePeriod</parents>
			<probabilities>0.999497487437186 0.0005025125628140704 0.999497487437186 0.0005025125628140704 0.999497487437186 0.0005025125628140704 0.999497487437186 0.0005025125628140704 0.999497487437186 0.0005025125628140704 0.999497487437186 0.0005025125628140704 0.999497487437186 0.0005025125628140704 0.999497487437186 0.0005025125628140704 0.999497487437186 0.0005025125628140704 0.999497487437186 0.0005025125628140704 0.999497487437186 0.0005025125628140704 0.999497487437186 0.0005025125628140704 0.999497487437186 0.0005025125628140704 0.999492385786802 0.0005076142131979696 0.9994818652849742 0.0005181347150259068 0.9994350282485877 0.0005649717514124294 0.9993902439024391 0.0006097560975609757 0.999337748344371 0.0006622516556291391 0.9992537313432837 0.0007462686567164179 0.9991228070175439 0.0008771929824561404 0.9990291262135922 0.000970873786407767 0.9987951807228916 0.001204819277108434 0.9983050847457627 0.001694915254237288 0.9981132075471697 0.001886792452830189 0.9928571428571429 0.007142857142857143 0.9 0.1 0.9 0.1 0.9 0.1 0.9 0.1 0.9 0.1 0.9 0.1 0.9 0.1 0.9 0.1 0.9 0.1 0.9 0.1 0.9 0.1 0.9 0.1 0.9 0.1 0.9666666666666666 0.03333333333333333 0.9857142857142858 0.01428571428571429 0.9045454545454545 0.09545454545454546 0.9382352941176471 0.06176470588235294 0.8914893617021276 0.1085106382978723 0.8555555555555555 0.1444444444444444 0.7641975308641975 0.2358024691358025 0.7544444444444446 0.2455555555555556 0.7398148148148148 0.2601851851851852 0.7046511627906977 0.2953488372093023 0.6609022556390978 0.3390977443609022 0.31301775147929 0.68698224852071</probabilities>
		</cpt>
		<cpt id="Spire">
			<state id="Absent" />
			<state id="Present" />
			<parents>Lair TimePeriod</parents>
			<probabilities>0.999497487437186 0.0005025125628140704 0.999497487437186 0.0005025125628140704 0.999497487437186 0.0005025125628140704 0.999497487437186 0.0005025125628140704 0.999497487437186 0.0005025125628140704 0.9994949494949497 0.0005050505050505052 0.9992753623188406 0.0007246376811594203 0.9981818181818181 0.001818181818181818 0.9966666666666666 0.003333333333333334 0.994736842105263 0.005263157894736842 0.9933333333333333 0.006666666666666667 0.9875 0.0125 0.9875 0.0125 0.9857142857142858 0.01428571428571429 0.9857142857142858 0.01428571428571429 0.9800000000000001 0.02 0.975 0.025 0.975 0.025 0.975 0.025 0.975 0.025 0.975 0.025 0.975 0.025 0.9666666666666666 0.03333333333333333 0.9666666666666666 0.03333333333333333 0.9666666666666666 0.03333333333333333 0.9 0.1 0.9 0.1 0.9 0.1 0.9 0.1 0.9 0.1 0.95 0.05 0.9983870967741935 0.001612903225806452 0.9924137931034484 0.007586206896551725 0.6052941176470589 0.3947058823529411 0.2480662983425414 0.7519337016574585 0.1724324324324325 0.8275675675675676 0.1661458333333333 0.8338541666666666 0.1348958333333333 0.8651041666666666 0.1031088082901554 0.8968911917098446 0.09792746113989637 0.9020725388601036 0.09226804123711339 0.9077319587628866 0.09226804123711339 0.9077319587628866 0.07680412371134021 0.9231958762886597 0.0616580310880829 0.9383419689119171 0.05706806282722514 0.9429319371727749 0.05767195767195767 0.9423280423280422 0.05294117647058824 0.9470588235294117 0.05891891891891892 0.9410810810810811 0.05409836065573771 0.9459016393442623 0.03277777777777778 0.9672222222222222</probabilities>
		</cpt>
		<cpt id="GreaterSpire">
			<state id="Absent" />
			<state id="Present" />
			<parents>Spire Hive TimePeriod</parents>
			<probabilities>0.999497487437186 0.0005025125628140704 0.999497487437186 0.0005025125628140704 0.999497487437186 0.0005025125628140704 0.999497487437186 0.0005025125628140704 0.999497487437186 0.0005025125628140704 0.999497487437186 0.0005025125628140704 0.999497487437186 0.0005025125628140704 0.9994949494949497 0.0005050505050505052 0.9992424242424243 0.0007575757575757577 0.9984126984126983 0.001587301587301587 0.9978260869565216 0.002173913043478261 0.9974358974358973 0.002564102564102564 0.996969696969697 0.003030303030303031 0.9961538461538462 0.003846153846153846 0.996 0.004 0.9954545454545454 0.004545454545454546 0.9952380952380951 0.004761904761904762 0.9944444444444444 0.005555555555555556 0.9933333333333333 0.006666666666666667 0.9928571428571429 0.007142857142857143 0.9928571428571429 0.007142857142857143 0.9916666666666667 0.008333333333333333 0.9916666666666667 0.008333333333333333 0.9916666666666667 0.008333333333333333 0.9857142857142858 0.01428571428571429 0.9 0.1 0.9 0.1 0.9 0.1 0.9 0.1 0.9 0.1 0.9 0.1 0.9 0.1 0.9 0.1 0.9 0.1 0.9 0.1 0.9 0.1 0.9 0.1 0.9 0.1 0.9 0.1 0.9 0.1 0.9 0.1 0.9 0.1 0.9 0.1 0.9 0.1 0.9 0.1 0.9 0.1 0.95 0.05 0.95 0.05 0.9 0.1 0.95 0.05 0.9 0.1 0.9 0.1 0.9 0.1 0.9 0.1 0.9 0.1 0.9 0.1 0.9 0.1 0.95 0.05 0.998529411764706 0.001470588235294118 0.9992700729927008 0.0007299270072992701 0.9993506493506494 0.0006493506493506495 0.9993788819875776 0.0006211180124223603 0.9994011976047905 0.0005988023952095809 0.9994186046511628 0.0005813953488372093 0.9994082840236687 0.000591715976331361 0.9993589743589744 0.000641025641025641 0.9993055555555556 0.0006944444444444445 0.9992537313432837 0.0007462686567164179 0.9991666666666667 0.0008333333333333334 0.9990099009900991 0.0009900990099009901 0.9988888888888889 0.001111111111111111 0.9986111111111111 0.001388888888888889 0.9979166666666666 0.002083333333333333 0.9976190476190475 0.002380952380952381 0.9875 0.0125 0.9 0.1 0.9 0.1 0.9 0.1 0.9 0.1 0.9 0.1 0.9 0.1 0.9 0.1 0.9 0.1 0.9 0.1 0.9 0.1 0.9 0.1 0.9 0.1 0.9 0.1 0.9666666666666666 0.03333333333333333 0.9857142857142858 0.01428571428571429 0.9954545454545454 0.004545454545454546 0.9676470588235293 0.03235294117647059 0.9340425531914893 0.06595744680851064 0.919047619047619 0.08095238095238094 0.9246913580246914 0.07530864197530864 0.9322222222222223 0.06777777777777777 0.9336448598130841 0.06635514018691588 0.92890625 0.07109375 0.9165413533834587 0.08345864661654134 0.8089285714285714 0.1910714285714286</probabilities>
		</cpt>
		<cpt id="Hydralisk">
			<state id="Absent" />
			<state id="Present" />
			<parents>HydraliskDen TimePeriod</parents>
			<probabilities>0.999497487437186 0.0005025125628140704 0.999497487437186 0.0005025125628140704 0.999497487437186 0.0005025125628140704 0.999497487437186 0.0005025125628140704 0.999497487437186 0.0005025125628140704 0.999492385786802 0.0005076142131979696 0.9994565217391305 0.0005434782608695652 0.9994082840236687 0.000591715976331361 0.9992592592592593 0.0007407407407407408 0.9985074626865672 0.001492537313432836 0.9974358974358973 0.002564102564102564 0.9966666666666666 0.003333333333333334 0.994736842105263 0.005263157894736842 0.99375 0.00625 0.9933333333333333 0.006666666666666667 0.9928571428571429 0.007142857142857143 0.9928571428571429 0.007142857142857143 0.9916666666666667 0.008333333333333333 0.9916666666666667 0.008333333333333333 0.9916666666666667 0.008333333333333333 0.990909090909091 0.009090909090909092 0.9900000000000001 0.01 0.9900000000000001 0.01 0.9900000000000001 0.01 0.9888888888888889 0.01111111111111111 0.9 0.1 0.9 0.1 0.9 0.1 0.9 0.1 0.9 0.1 0.9666666666666666 0.03333333333333333 0.61875 0.38125 0.4806451612903226 0.5193548387096775 0.4753846153846154 0.5246153846153847 0.5631578947368421 0.4368421052631579 0.3720496894409938 0.6279503105590062 0.1935294117647059 0.8064705882352941 0.1651933701657458 0.8348066298342541 0.09184782608695651 0.9081521739130434 0.06432432432432433 0.9356756756756757 0.05891891891891892 0.9410810810810811 0.05380434782608696 0.946195652173913 0.05860215053763442 0.9413978494623656 0.05351351351351352 0.9464864864864865 0.04316939890710383 0.9568306010928962 0.04340659340659341 0.9565934065934066 0.04917127071823205 0.9508287292817679 0.05 0.95 0.03920454545454546 0.9607954545454546 0.02816091954022989 0.9718390804597701</probabilities>
		</cpt>
		<cpt id="Lurker">
			<state id="Absent" />
			<state id="Present" />
			<parents>Lair Hydralisk TimePeriod</parents>
			<probabilities>0.999497487437186 0.0005025125628140704 0.999497487437186 0.0005025125628140704 0.999497487437186 0.0005025125628140704 0.999497487437186 0.0005025125628140704 0.999497487437186 0.0005025125628140704 0.9994949494949497 0.0005050505050505052 0.9992424242424243 0.0007575757575757577 0.9977272727272727 0.002272727272727273 0.9941176470588234 0.005882352941176471 0.9875 0.0125 0.9857142857142858 0.01428571428571429 0.9833333333333334 0.01666666666666667 0.9833333333333334 0.01666666666666667 0.9833333333333334 0.01666666666666667 0.9800000000000001 0.02 0.975 0.025 0.9666666666666666 0.03333333333333333 0.9666666666666666 0.03333333333333333 0.9666666666666666 0.03333333333333333 0.9666666666666666 0.03333333333333333 0.9666666666666666 0.03333333333333333 0.9666666666666666 0.03333333333333333 0.9666666666666666 0.03333333333333333 0.9666666666666666 0.03333333333333333 0.9666666666666666 0.03333333333333333 0.9 0.1 0.9 0.1 0.9 0.1 0.9 0.1 0.9 0.1 0.9 0.1 0.9857142857142858 0.01428571428571429 0.9916666666666667 0.008333333333333333 0.9928571428571429 0.007142857142857143 0.9916666666666667 0.008333333333333333 0.9888888888888889 0.01111111111111111 0.9666666666666666 0.03333333333333333 0.9666666666666666 0.03333333333333333 0.95 0.05 0.9666666666666666 0.03333333333333333 0.95 0.05 0.95 0.05 0.95 0.05 0.95 0.05 0.95 0.05 0.95 0.05 0.95 0.05 0.9 0.1 0.9 0.1 0.9 0.1 0.9 0.1 0.9 0.1 0.9 0.1 0.9 0.1 0.9 0.1 0.95 0.05 0.9983870967741935 0.001612903225806452 0.9992857142857143 0.0007142857142857143 0.9993288590604027 0.0006711409395973155 0.9992537313432837 0.0007462686567164179 0.9989130434782609 0.00108695652173913 0.9982456140350876 0.001754385964912281 0.9976744186046511 0.002325581395348837 0.9962962962962962 0.003703703703703704 0.9954545454545454 0.004545454545454546 0.9952380952380951 0.004761904761904762 0.9952380952380951 0.004761904761904762 0.995 0.005000000000000001 0.994736842105263 0.005263157894736842 0.9941176470588234 0.005882352941176471 0.99375 0.00625 0.99375 0.00625 0.99375 0.00625 0.9928571428571429 0.007142857142857143 0.990909090909091 0.009090909090909092 0.9 0.1 0.9 0.1 0.9 0.1 0.9 0.1 0.9 0.1 0.9 0.1 0.9 0.1 0.9833333333333334 0.01666666666666667 0.9954545454545454 0.004545454545454546 0.9562499999999999 0.04375 0.9457446808510639 0.05425531914893617 0.8007352941176471 0.199264705882353 0.6060000000000001 0.394 0.5323353293413174 0.4676646706586826 0.4936046511627907 0.5063953488372093 0.4074712643678161 0.5925287356321839 0.3270114942528736 0.6729885057471264 0.2622857142857143 0.7377142857142857 0.2051428571428571 0.7948571428571428 0.1594285714285714 0.8405714285714285 0.1258620689655172 0.8741379310344827 0.09244186046511628 0.9075581395348836 0.09352941176470589 0.906470588235294 0.09941176470588234 0.9005882352941176 0.05235294117647059 0.9476470588235294</probabilities>
		</cpt>
		<cpt id="Queen">
			<state id="Absent" />
			<state id="Present" />
			<parents>QueensNest TimePeriod</parents>
			<probabilities>0.999497487437186 0.0005025125628140704 0.999497487437186 0.0005025125628140704 0.999497487437186 0.0005025125628140704 0.999497487437186 0.0005025125628140704 0.999497487437186 0.0005025125628140704 0.999497487437186 0.0005025125628140704 0.999497487437186 0.0005025125628140704 0.999497487437186 0.0005025125628140704 0.999497487437186 0.0005025125628140704 0.999497487437186 0.0005025125628140704 0.9994949494949497 0.0005050505050505052 0.9994897959183673 0.000510204081632653 0.9994818652849742 0.0005181347150259068 0.9994318181818183 0.0005681818181818183 0.9993865030674847 0.0006134969325153375 0.9993197278911564 0.0006802721088435375 0.9992424242424243 0.0007575757575757577 0.9991228070175439 0.0008771929824561404 0.9989690721649485 0.001030927835051546 0.9986666666666668 0.001333333333333334 0.9983333333333333 0.001666666666666667 0.9979166666666666 0.002083333333333333 0.9975609756097561 0.002439024390243903 0.996969696969697 0.003030303030303031 0.9916666666666667 0.008333333333333333 0.9 0.1 0.9 0.1 0.9 0.1 0.9 0.1 0.9 0.1 0.9 0.1 0.9 0.1 0.9 0.1 0.9 0.1 0.9 0.1 0.95 0.05 0.975 0.025 0.9857142857142858 0.01428571428571429 0.9958333333333332 0.004166666666666667 0.9972972972972973 0.002702702702702703 0.9980769230769231 0.001923076923076923 0.9984848484848486 0.001515151515151515 0.9988095238095238 0.001190476190476191 0.9990000000000001 0.001 0.9908333333333333 0.009166666666666667 0.9917293233082707 0.008270676691729324 0.9923076923076923 0.007692307692307693 0.992517006802721 0.007482993197278912 0.9928104575163399 0.007189542483660131 0.9058479532163742 0.09415204678362574</probabilities>
		</cpt>
		<cpt id="Defiler">
			<state id="Absent" />
			<state id="Present" />
			<parents>DefilerMound TimePeriod</parents>
			<probabilities>0.999497487437186 0.0005025125628140704 0.999497487437186 0.0005025125628140704 0.999497487437186 0.0005025125628140704 0.999497487437186 0.0005025125628140704 0.999497487437186 0.0005025125628140704 0.999497487437186 0.0005025125628140704 0.999497487437186 0.0005025125628140704 0.999497487437186 0.0005025125628140704 0.999497487437186 0.0005025125628140704 0.999497487437186 0.0005025125628140704 0.999497487437186 0.0005025125628140704 0.999497487437186 0.0005025125628140704 0.999497487437186 0.0005025125628140704 0.999497487437186 0.0005025125628140704 0.9994949494949497 0.0005050505050505052 0.9994897959183673 0.000510204081632653 0.999462365591398 0.0005376344086021507 0.9994285714285714 0.0005714285714285715 0.9993902439024391 0.0006097560975609757 0.9993464052287583 0.0006535947712418301 0.9992700729927008 0.0007299270072992701 0.9991803278688526 0.0008196721311475411 0.9990476190476192 0.0009523809523809525 0.9988505747126437 0.001149425287356322 0.9976190476190475 0.002380952380952381 0.9 0.1 0.9 0.1 0.9 0.1 0.9 0.1 0.9 0.1 0.9 0.1 0.9 0.1 0.9 0.1 0.9 0.1 0.9 0.1 0.9 0.1 0.9 0.1 0.9 0.1 0.9 0.1 0.95 0.05 0.6333333333333333 0.3666666666666667 0.9083333333333333 0.09166666666666667 0.8652173913043477 0.1347826086956522 0.603030303030303 0.396969696969697 0.4976190476190476 0.5023809523809524 0.4803571428571428 0.5196428571428572 0.4043478260869565 0.5956521739130435 0.372289156626506 0.627710843373494 0.3626262626262626 0.6373737373737375 0.02765957446808511 0.9723404255319148</probabilities>
		</cpt>
		<cpt id="Mutalisk">
			<state id="Absent" />
			<state id="Present" />
			<parents>Spire TimePeriod</parents>
			<probabilities>0.999497487437186 0.0005025125628140704 0.999497487437186 0.0005025125628140704 0.999497487437186 0.0005025125628140704 0.999497487437186 0.0005025125628140704 0.999497487437186 0.0005025125628140704 0.999497487437186 0.0005025125628140704 0.999497487437186 0.0005025125628140704 0.9994949494949497 0.0005050505050505052 0.9992424242424243 0.0007575757575757577 0.9984126984126983 0.001587301587301587 0.9978260869565216 0.002173913043478261 0.9974358974358973 0.002564102564102564 0.996969696969697 0.003030303030303031 0.9961538461538462 0.003846153846153846 0.996 0.004 0.9954545454545454 0.004545454545454546 0.9952380952380951 0.004761904761904762 0.9944444444444444 0.005555555555555556 0.9933333333333333 0.006666666666666667 0.9928571428571429 0.007142857142857143 0.9928571428571429 0.007142857142857143 0.9923076923076923 0.007692307692307693 0.9923076923076923 0.007692307692307693 0.9916666666666667 0.008333333333333333 0.9875 0.0125 0.9 0.1 0.9 0.1 0.9 0.1 0.9 0.1 0.9 0.1 0.9 0.1 0.9 0.1 0.95 0.05 0.9838235294117648 0.0161764705882353 0.9043795620437957 0.09562043795620437 0.8370129870129871 0.162987012987013 0.7136645962732919 0.2863354037267081 0.6041916167664672 0.3958083832335329 0.5856321839080461 0.414367816091954 0.5537142857142857 0.4462857142857142 0.5248587570621469 0.4751412429378531 0.5079096045197741 0.4920903954802259 0.5161111111111112 0.4838888888888889 0.5104395604395605 0.4895604395604395 0.4911602209944752 0.5088397790055248 0.4798882681564246 0.5201117318435754 0.4769662921348315 0.5230337078651685 0.4622857142857143 0.5377142857142857 0.4649425287356322 0.5350574712643678 0.4051428571428572 0.5948571428571429</probabilities>
		</cpt>
		<cpt id="Scourge">
			<state id="Absent" />
			<state id="Present" />
			<parents>Spire TimePeriod</parents>
			<probabilities>0.999497487437186 0.0005025125628140704 0.999497487437186 0.0005025125628140704 0.999497487437186 0.0005025125628140704 0.999497487437186 0.0005025125628140704 0.999497487437186 0.0005025125628140704 0.999497487437186 0.0005025125628140704 0.999497487437186 0.0005025125628140704 0.9994949494949497 0.0005050505050505052 0.9992424242424243 0.0007575757575757577 0.9984126984126983 0.001587301587301587 0.9978260869565216 0.002173913043478261 0.9974358974358973 0.002564102564102564 0.996969696969697 0.003030303030303031 0.9961538461538462 0.003846153846153846 0.996 0.004 0.9954545454545454 0.004545454545454546 0.9952380952380951 0.004761904761904762 0.9944444444444444 0.005555555555555556 0.9933333333333333 0.006666666666666667 0.9928571428571429 0.007142857142857143 0.9928571428571429 0.007142857142857143 0.9923076923076923 0.007692307692307693 0.9923076923076923 0.007692307692307693 0.9916666666666667 0.008333333333333333 0.9875 0.0125 0.9 0.1 0.9 0.1 0.9 0.1 0.9 0.1 0.9 0.1 0.9 0.1 0.9 0.1 0.95 0.05 0.8661764705882352 0.1338235294117647 0.2036496350364963 0.7963503649635035 0.1292207792207792 0.8707792207792208 0.09254658385093167 0.9074534161490683 0.08922155688622756 0.9107784431137724 0.1028735632183908 0.8971264367816092 0.07942857142857143 0.9205714285714285 0.06158192090395481 0.9384180790960451 0.05593220338983051 0.9440677966101695 0.06611111111111112 0.9338888888888889 0.07087912087912089 0.9291208791208792 0.06574585635359116 0.9342541436464088 0.06089385474860336 0.9391061452513967 0.05561797752808989 0.9443820224719101 0.05085714285714286 0.9491428571428571 0.05689655172413793 0.943103448275862 0.01657142857142857 0.9834285714285714</probabilities>
		</cpt>
		<cpt id="Guardian">
			<state id="Absent" />
			<state id="Present" />
			<parents>Mutalisk GreaterSpire TimePeriod</parents>
			<probabilities>0.999497487437186 0.0005025125628140704 0.999497487437186 0.0005025125628140704 0.999497487437186 0.0005025125628140704 0.999497487437186 0.0005025125628140704 0.999497487437186 0.0005025125628140704 0.999497487437186 0.0005025125628140704 0.999497487437186 0.0005025125628140704 0.999497487437186 0.0005025125628140704 0.9994949494949497 0.0005050505050505052 0.999462365591398 0.0005376344086021507 0.9994252873563219 0.0005747126436781609 0.9993464052287583 0.0006535947712418301 0.9992481203007518 0.0007518796992481204 0.9992125984251968 0.0007874015748031496 0.9991735537190083 0.0008264462809917356 0.9991228070175439 0.0008771929824561404 0.9990909090909091 0.0009090909090909091 0.9990909090909091 0.0009090909090909091 0.9990654205607477 0.0009345794392523364 0.9990196078431373 0.0009803921568627451 0.9989898989898991 0.00101010101010101 0.9989690721649485 0.001030927835051546 0.9989247311827958 0.001075268817204301 0.998901098901099 0.001098901098901099 0.9987179487179487 0.001282051282051282 0.9 0.1 0.9 0.1 0.9 0.1 0.9 0.1 0.9 0.1 0.9 0.1 0.9 0.1 0.9 0.1 0.9 0.1 0.9 0.1 0.9 0.1 0.9 0.1 0.9 0.1 0.9 0.1 0.9 0.1 0.9 0.1 0.9 0.1 0.9 0.1 0.9 0.1 0.9 0.1 0.9 0.1 0.9 0.1 0.9 0.1 0.95 0.05 0.9 0.1 0.9 0.1 0.9 0.1 0.9 0.1 0.9 0.1 0.9 0.1 0.9 0.1 0.9 0.1 0.9 0.1 0.95 0.05 0.9928571428571429 0.007142857142857143 0.9961538461538462 0.003846153846153846 0.9978723404255319 0.002127659574468085 0.9985074626865672 0.001492537313432836 0.9986301369863014 0.00136986301369863 0.99873417721519 0.001265822784810127 0.9988235294117648 0.001176470588235294 0.9988505747126437 0.001149425287356322 0.9988235294117648 0.001176470588235294 0.9988235294117648 0.001176470588235294 0.9988505747126437 0.001149425287356322 0.9988636363636365 0.001136363636363637 0.9988505747126437 0.001149425287356322 0.9988372093023257 0.001162790697674419 0.9988095238095238 0.001190476190476191 0.9986301369863014 0.00136986301369863 0.9 0.1 0.9 0.1 0.9 0.1 0.9 0.1 0.9 0.1 0.9 0.1 0.9 0.1 0.9 0.1 0.9 0.1 0.9 0.1 0.9 0.1 0.9 0.1 0.9 0.1 0.9 0.1 0.9 0.1 0.9 0.1 0.95 0.05 0.725 0.275 0.4833333333333333 0.5166666666666666 0.4142857142857143 0.5857142857142856 0.2714285714285714 0.7285714285714284 0.3625 0.6375 0.39 0.61 0.4454545454545455 0.5545454545454546 0.08787878787878788 0.9121212121212122</probabilities>
		</cpt>
		<cpt id="Devourer">
			<state id="Absent" />
			<state id="Present" />
			<parents>Mutalisk GreaterSpire TimePeriod</parents>
			<probabilities>0.999497487437186 0.0005025125628140704 0.999497487437186 0.0005025125628140704 0.999497487437186 0.0005025125628140704 0.999497487437186 0.0005025125628140704 0.999497487437186 0.0005025125628140704 0.999497487437186 0.0005025125628140704 0.999497487437186 0.0005025125628140704 0.999497487437186 0.0005025125628140704 0.9994949494949497 0.0005050505050505052 0.999462365591398 0.0005376344086021507 0.9994252873563219 0.0005747126436781609 0.9993464052287583 0.0006535947712418301 0.9992481203007518 0.0007518796992481204 0.9992125984251968 0.0007874015748031496 0.9991735537190083 0.0008264462809917356 0.9991228070175439 0.0008771929824561404 0.9990909090909091 0.0009090909090909091 0.9990909090909091 0.0009090909090909091 0.9990654205607477 0.0009345794392523364 0.9990196078431373 0.0009803921568627451 0.9989898989898991 0.00101010101010101 0.9989690721649485 0.001030927835051546 0.9989247311827958 0.001075268817204301 0.998901098901099 0.001098901098901099 0.9987179487179487 0.001282051282051282 0.9 0.1 0.9 0.1 0.9 0.1 0.9 0.1 0.9 0.1 0.9 0.1 0.9 0.1 0.9 0.1 0.9 0.1 0.9 0.1 0.9 0.1 0.9 0.1 0.9 0.1 0.9 0.1 0.9 0.1 0.9 0.1 0.9 0.1 0.9 0.1 0.9 0.1 0.9 0.1 0.9 0.1 0.9 0.1 0.9 0.1 0.95 0.05 0.9 0.1 0.9 0.1 0.9 0.1 0.9 0.1 0.9 0.1 0.9 0.1 0.9 0.1 0.9 0.1 0.9 0.1 0.95 0.05 0.9928571428571429 0.007142857142857143 0.9961538461538462 0.003846153846153846 0.9978723404255319 0.002127659574468085 0.9985074626865672 0.001492537313432836 0.9986301369863014 0.00136986301369863 0.99873417721519 0.001265822784810127 0.9988235294117648 0.001176470588235294 0.9988505747126437 0.001149425287356322 0.9988235294117648 0.001176470588235294 0.9988235294117648 0.001176470588235294 0.9988505747126437 0.001149425287356322 0.9988636363636365 0.001136363636363637 0.9988505747126437 0.001149425287356322 0.9988372093023257 0.001162790697674419 0.9988095238095238 0.001190476190476191 0.9986301369863014 0.00136986301369863 0.9 0.1 0.9 0.1 0.9 0.1 0.9 0.1 0.9 0.1 0.9 0.1 0.9 0.1 0.9 0.1 0.9 0.1 0.9 0.1 0.9 0.1 0.9 0.1 0.9 0.1 0.9 0.1 0.9 0.1 0.9 0.1 0.95 0.05 0.975 0.025 0.8166666666666667 0.1833333333333334 0.5571428571428571 0.4428571428571428 0.5571428571428571 0.4428571428571428 0.6125 0.3875 0.6900000000000001 0.3100000000000001 0.7181818181818183 0.2818181818181819 0.6636363636363636 0.3363636363636364</probabilities>
		</cpt>
		<cpt id="Ultralisk">
			<state id="Absent" />
			<state id="Present" />
			<parents>UltraliskCavern TimePeriod</parents>
			<probabilities>0.999497487437186 0.0005025125628140704 0.999497487437186 0.0005025125628140704 0.999497487437186 0.0005025125628140704 0.999497487437186 0.0005025125628140704 0.999497487437186 0.0005025125628140704 0.999497487437186 0.0005025125628140704 0.999497487437186 0.0005025125628140704 0.999497487437186 0.0005025125628140704 0.999497487437186 0.0005025125628140704 0.999497487437186 0.0005025125628140704 0.999497487437186 0.0005025125628140704 0.999497487437186 0.0005025125628140704 0.999497487437186 0.0005025125628140704 0.999497487437186 0.0005025125628140704 0.999497487437186 0.0005025125628140704 0.9994897959183673 0.000510204081632653 0.9994871794871795 0.0005128205128205128 0.9994791666666667 0.0005208333333333333 0.9994652406417112 0.0005347593582887701 0.9994285714285714 0.0005714285714285715 0.9994117647058823 0.0005882352941176471 0.9993827160493827 0.0006172839506172839 0.9993288590604027 0.0006711409395973155 0.9992857142857143 0.0007142857142857143 0.9984848484848486 0.001515151515151515 0.9 0.1 0.9 0.1 0.9 0.1 0.9 0.1 0.9 0.1 0.9 0.1 0.9 0.1 0.9 0.1 0.9 0.1 0.9 0.1 0.9 0.1 0.9 0.1 0.9 0.1 0.9 0.1 0.9 0.1 0.9666666666666666 0.03333333333333333 0.6333333333333333 0.3666666666666667 0.8166666666666667 0.1833333333333334 0.6900000000000001 0.3100000000000001 0.795 0.205 0.734782608695652 0.2652173913043478 0.6172413793103447 0.3827586206896552 0.5358974358974359 0.4641025641025641 0.4326086956521739 0.5673913043478261 0.07606837606837608 0.923931623931624</probabilities>
		</cpt>
		<cpt id="MeleeAttacks1">
			<state id="Absent" />
			<state id="Present" />
			<parents>EvolutionChamber TimePeriod</parents>
			<probabilities>0.7974217406843115 0.2025782593156886 0.4310068734372564 0.5689931265627436 0.6703639510339684 0.3296360489660316 0.5639219487228296 0.4360780512771703 0.4355072525685272 0.5644927474314729 0.4792377659826301 0.52076223401737 0.707795510559478 0.2922044894405221 0.1382710233430139 0.8617289766569861 0.7699820059983606 0.2300179940016394 0.1660868653970361 0.8339131346029639 0.660612530319032 0.339387469680968 0.5028940256290698 0.4971059743709302 0.5407055553906688 0.4592944446093311 0.8448398417263813 0.1551601582736187 0.7849779599514416 0.2150220400485584 0.1128562778233351 0.8871437221766649 0.8861176569808261 0.113882343019174 0.6356945770752783 0.3643054229247217 0.6452713210528803 0.3547286789471197 0.4455268474516001 0.5544731525483999 0.4520507455049602 0.5479492544950397 0.9710790994353307 0.02892090056466938 0.9127301744729709 0.08726982552702911 0.4240038472255745 0.5759961527744255 0.4930281453127058 0.5069718546872941 0.9 0.1 0.9 0.1 0.9 0.1 0.9 0.1 0.9 0.1 0.9 0.1 0.9 0.1 0.843938022878465 0.156061977121535 0.8559309582430942 0.1440690417569058 0.3231291168671961 0.676870883132804 0.4662363555839219 0.5337636444160782 0.5277449493129158 0.4722550506870842 0.3793939050488603 0.6206060949511397 0.3175220736340493 0.6824779263659507 0.3583118239016195 0.6416881760983805 0.3187782183240874 0.6812217816759127 0.3002090935184646 0.6997909064815355 0.9892709838970645 0.01072901610293551 0.4538588285771678 0.5461411714228323 0.3522741374147969 0.6477258625852032 0.5667127674508278 0.4332872325491721 0.930860831294651 0.06913916870534889 0.4261368767796052 0.5738631232203949 0.8001960926327331 0.1998039073672669 0.3712002673082895 0.6287997326917104</probabilities>
		</cpt>
		<cpt id="MissileAttacks1">
			<state id="Absent" />
			<state id="Present" />
			<parents>EvolutionChamber TimePeriod</parents>
			<probabilities>0.3937526201389044 0.6062473798610955 0.6116560438729608 0.3883439561270392 0.9174625624930799 0.08253743750692008 0.963392619624362 0.03660738037563804 0.8428314068196272 0.1571685931803728 0.1807625569923256 0.8192374430076743 0.4836815976705581 0.516318402329442 0.7132251194758441 0.2867748805241558 0.2175074193972827 0.7824925806027173 0.4976964978794505 0.5023035021205495 0.5577149107816266 0.4422850892183734 0.940491432203977 0.05950856779602309 0.4465774340253734 0.5534225659746266 0.8782089308826456 0.1217910691173543 0.3680971477257267 0.6319028522742732 0.3775030658672035 0.6224969341327966 0.141701788297897 0.8582982117021031 0.6779020498912077 0.3220979501087923 0.6301715640331479 0.3698284359668522 0.6737825871020395 0.3262174128979605 0.9127050980755749 0.08729490192442502 0.73879461826682 0.26120538173318 0.2565066311037298 0.7434933688962702 0.8387207897393364 0.1612792102606636 0.5486550323252386 0.4513449676747614 0.9 0.1 0.9 0.1 0.9 0.1 0.9 0.1 0.9 0.1 0.9 0.1 0.9 0.1 0.8670198850690418 0.1329801149309582 0.6331225907053338 0.3668774092946661 0.8583882903574056 0.1416117096425944 0.4267753813158788 0.573224618684121 0.4061791967253446 0.5938208032746555 0.9221672811342567 0.0778327188657431 0.9371237293240149 0.06287627067598509 0.8318531411960997 0.1681468588039004 0.7517708054652594 0.2482291945347406 0.478565361518863 0.5214346384811369 0.1313066070640357 0.8686933929359643 0.1896299511604887 0.8103700488395114 0.7944058579870746 0.2055941420129253 0.3189049216084888 0.6810950783915114 0.619280710092556 0.3807192899074439 0.03280900220795736 0.9671909977920427 0.250065028913714 0.749934971086286 0.7940214561342917 0.2059785438657085</probabilities>
		</cpt>
		<cpt id="Carapace1">
			<state id="Absent" />
			<state id="Present" />
			<parents>EvolutionChamber TimePeriod</parents>
			<probabilities>0.9673786827802759 0.03262131721972413 0.4452785133575743 0.5547214866424257 0.6230946683286733 0.3769053316713267 0.3758558554981931 0.6241441445018069 0.6972870215708523 0.3027129784291477 0.3463195449377901 0.6536804550622098 0.3364961458411193 0.6635038541588807 0.3966600582657283 0.6033399417342716 0.4823766383714964 0.5176233616285035 0.1765172725721442 0.8234827274278559 0.8804019089054387 0.1195980910945614 0.6909351203367506 0.3090648796632493 0.5184985508195863 0.4815014491804137 0.580275648665145 0.419724351334855 0.6951789708480611 0.3048210291519389 0.47715107530388 0.52284892469612 0.3223895598509622 0.6776104401490379 0.6136613065873046 0.3863386934126956 0.3148106399886361 0.685189360011364 0.6689427067167136 0.3310572932832863 0.9672066327010219 0.03279336729897813 0.5235383039571894 0.4764616960428107 0.5303552815437195 0.4696447184562805 0.5779246957335124 0.4220753042664877 0.5242429426406943 0.4757570573593057 0.9 0.1 0.9 0.1 0.9 0.1 0.9 0.1 0.9 0.1 0.9 0.1 0.9 0.1 0.8609503181912486 0.1390496818087516 0.6828959298535829 0.3171040701464171 0.6616469993758695 0.3383530006241305 0.9928297101626371 0.007170289837362926 0.700585607957517 0.299414392042483 0.4268181876335362 0.5731818123664639 0.3202983950844963 0.6797016049155037 0.4717446201771098 0.5282553798228902 0.6660943183494739 0.3339056816505263 0.3088337725631704 0.6911662274368295 0.9822183115943218 0.01778168840567816 0.3150873294108014 0.6849126705891987 0.5147305131834374 0.4852694868165625 0.7655451762524284 0.2344548237475717 0.4064632483842912 0.5935367516157087 0.1248823013965716 0.8751176986034284 0.2420312870903117 0.7579687129096883 0.2298043736609884 0.7701956263390117</probabilities>
		</cpt>
		<cpt id="SpawnBroodlings">
			<state id="Absent" />
			<state id="Present" />
			<parents>QueensNest TimePeriod</parents>
			<probabilities>0.5196619553640977 0.4803380446359023 0.2193707948791963 0.7806292051208038 0.6520432118762001 0.3479567881238 0.3983563712655618 0.6016436287344382 0.9522001201321098 0.04779987986789026 0.2465613043509239 0.7534386956490763 0.4689027899401853 0.5310972100598146 0.6233369811698026 0.3766630188301973 0.03221296515192752 0.9677870348480724 0.6110271589165206 0.3889728410834793 0.4340748521614499 0.5659251478385502 0.4257536838144014 0.5742463161855985 0.5676619359165109 0.4323380640834891 0.7919055516376056 0.2080944483623944 0.1233282364230048 0.8766717635769953 0.5595198858449071 0.4404801141550928 0.6430376565414065 0.3569623434585935 0.78860172764834 0.21139827235166 0.4034748644029433 0.5965251355970567 0.2038496454693499 0.7961503545306502 0.5595796312774509 0.440420368722549 0.7566300899181213 0.2433699100818788 0.9100229528075311 0.08997704719246896 0.3260634316852986 0.6739365683147015 0.4257359512678314 0.5742640487321686 0.9 0.1 0.9 0.1 0.9 0.1 0.9 0.1 0.9 0.1 0.9 0.1 0.9 0.1 0.9 0.1 0.9 0.1 0.9 0.1 0.8422940472862035 0.1577059527137965 0.8024485288110667 0.1975514711889332 0.6438975171587069 0.3561024828412931 0.1607377486201446 0.8392622513798554 0.6243868797456406 0.3756131202543596 0.2368082817028806 0.7631917182971193 0.5553079245726008 0.4446920754273993 0.7176718511600642 0.282328148839936 0.5606525225513592 0.4393474774486408 0.5994312977554145 0.4005687022445854 0.4509433210404277 0.5490566789595722 0.8024073364454963 0.1975926635545036 0.8331071980093181 0.1668928019906817 0.3615896153457696 0.6384103846542304 0.1553918264961413 0.8446081735038589</probabilities>
		</cpt>
		<cpt id="Ensnare">
			<state id="Absent" />
			<state id="Present" />
			<parents>QueensNest TimePeriod</parents>
			<probabilities>0.5806136647064971 0.419386335293503 0.7068967053444721 0.2931032946555279 0.3914615895564079 0.6085384104435921 0.7082905338058481 0.2917094661941521 0.2160175541608739 0.783982445839126 0.4495774680486024 0.5504225319513975 0.07015894536878173 0.9298410546312184 0.522954013943173 0.477045986056827 0.5045813922470072 0.4954186077529929 0.1029916484925151 0.8970083515074848 0.3305153888141889 0.6694846111858112 0.7453777715462114 0.2546222284537885 0.5609337663883037 0.4390662336116963 0.7045789132872565 0.2954210867127434 0.569578126309759 0.430421873690241 0.5917029328375943 0.4082970671624057 0.462031622434025 0.537968377565975 0.2728784477131002 0.7271215522868998 0.9426415075095848 0.05735849249041525 0.3626869343990491 0.637313065600951 0.388345179309345 0.611654820690655 0.9876306222654238 0.01236937773457634 0.4510044919970885 0.5489955080029115 0.7305276264503542 0.2694723735496458 0.5921568538738948 0.4078431461261052 0.9 0.1 0.9 0.1 0.9 0.1 0.9 0.1 0.9 0.1 0.9 0.1 0.9 0.1 0.9 0.1 0.9 0.1 0.9 0.1 0.8386689129197416 0.1613310870802584 0.7728277750247264 0.2271722249752736 0.3810997653423559 0.618900234657644 0.5360489146938541 0.4639510853061458 0.4780939745339049 0.5219060254660951 0.6143042222630447 0.3856957777369554 0.6833079095894078 0.3166920904105922 0.7135190103517168 0.2864809896482832 0.8413158896751899 0.1586841103248101 0.5617544642946163 0.4382455357053837 0.777047084978474 0.2229529150215259 0.1401276622098419 0.8598723377901582 0.2533801580743614 0.7466198419256386 0.195573850949205 0.8044261490507949 0.3686942758694403 0.6313057241305596</probabilities>
		</cpt>
		<cpt id="Plague">
			<state id="Absent" />
			<state id="Present" />
			<parents>DefilerMound TimePeriod</parents>
			<probabilities>0.07343498779676458 0.9265650122032355 0.3924553860762775 0.6075446139237225 0.9633858174317003 0.03661418256829969 0.1112143246246277 0.8887856753753723 0.1258076229490898 0.8741923770509101 0.2137681912114939 0.7862318087885061 0.8705730002824439 0.1294269997175562 0.7238650180202552 0.2761349819797448 0.1271922287542353 0.8728077712457648 0.6556517704916337 0.3443482295083662 0.07209749417251218 0.9279025058274879 0.6243055739102741 0.375694426089726 0.7077836920826339 0.292216307917366 0.4077154904736806 0.5922845095263194 0.8078385572130779 0.1921614427869223 0.7220748175356923 0.2779251824643078 0.6783366457685188 0.3216633542314811 0.8691302809825012 0.1308697190174989 0.2508812905171353 0.7491187094828649 0.1345889498060058 0.8654110501939942 0.3776463751122352 0.6223536248877648 0.4811797305802159 0.5188202694197842 0.8873744663480282 0.1126255336519717 0.7228596677797036 0.2771403322202963 0.8114759052846159 0.1885240947153842 0.9 0.1 0.9 0.1 0.9 0.1 0.9 0.1 0.9 0.1 0.9 0.1 0.9 0.1 0.9 0.1 0.9 0.1 0.9 0.1 0.9 0.1 0.9 0.1 0.9 0.1 0.9 0.1 0.8897974925996035 0.1102025074003967 0.6800578129891581 0.3199421870108418 0.4652944029058785 0.5347055970941215 0.6505426438425245 0.3494573561574756 0.3876424801683113 0.6123575198316887 0.4479625467177327 0.5520374532822672 0.6823373016247107 0.3176626983752892 0.4155920930345983 0.5844079069654016 0.8377756912535344 0.1622243087464657 0.4944038822901531 0.505596117709847 0.4024180961747874 0.5975819038252127</probabilities>
		</cpt>
		<cpt id="Burrowing">
			<state id="Absent" />
			<state id="Present" />
			<parents>TimePeriod</parents>
			<probabilities>0.941990957892799 0.05800904210720089 0.7692976970808969 0.2307023029191032 0.5592424451421458 0.4407575548578541 0.9675933711918696 0.03240662880813044 0.6963781378210394 0.3036218621789605 0.2010762246426171 0.7989237753573829 0.3753588058765681 0.6246411941234319 0.4135000292696784 0.5864999707303217 0.1993259265222354 0.8006740734777644 0.4726035371605653 0.5273964628394348 0.8742819971870436 0.1257180028129565 0.7163112393702832 0.2836887606297168 0.5688525279700681 0.4311474720299319 0.3489765759250411 0.6510234240749591 0.3123164214490811 0.6876835785509188 0.64916264046428 0.3508373595357202 0.3664346637108308 0.6335653362891692 0.05211734738669638 0.9478826526133036 0.6864246025701566 0.3135753974298433 0.255714594557283 0.7442854054427172 0.6210182932638182 0.3789817067361818 0.4213611325939969 0.578638867406003 0.105166980196635 0.8948330198033649 0.5443836165150814 0.4556163834849186 0.5555706850824663 0.4444293149175337</probabilities>
		</cpt>
		<cpt id="VentralSacs">
			<state id="Absent" />
			<state id="Present" />
			<parents>Lair TimePeriod</parents>
			<probabilities>0.3592919871321211 0.6407080128678789 0.7923049356652534 0.2076950643347468 0.6081673316550548 0.3918326683449452 0.3540653803301903 0.6459346196698097 0.1717485688933506 0.8282514311066495 0.6621362648147872 0.3378637351852129 0.8845584328708382 0.1154415671291619 0.7175261285467668 0.2824738714532334 0.4604239337082489 0.5395760662917511 0.414814486473837 0.5851855135261631 0.3583321708959015 0.6416678291040985 0.8244453333245925 0.1755546666754075 0.4401726715129883 0.5598273284870117 0.3742289251338017 0.6257710748661982 0.6724230157252038 0.3275769842747961 0.6055251859185479 0.3944748140814522 0.6922627339557855 0.3077372660442145 0.9150513482583049 0.08494865174169504 0.7466300067537443 0.2533699932462558 0.6116319098806651 0.388368090119335 0.5268400835253613 0.4731599164746387 0.6820059702954103 0.3179940297045897 0.8428447090230572 0.1571552909769427 0.7872933933108973 0.2127066066891027 0.778716011974651 0.2212839880253489 0.9 0.1 0.9 0.1 0.9 0.1 0.9 0.1 0.9 0.1 0.8494280100736369 0.1505719899263632 0.5248306949783093 0.4751693050216909 0.4884073094609473 0.5115926905390527 0.4691584801485356 0.5308415198514644 0.4628687718465405 0.5371312281534595 0.8153529720655889 0.1846470279344112 0.2975627163244927 0.7024372836755074 0.6795376038477143 0.3204623961522856 0.3534628423206951 0.6465371576793049 0.7278454726386995 0.2721545273613006 0.4488730952600638 0.5511269047399362 0.7817488257586241 0.2182511742413758 0.3048844653495937 0.6951155346504063 0.5672272243027798 0.4327727756972202 0.07261889053634235 0.9273811094636577 0.4481559502486794 0.5518440497513205 0.5596375236605679 0.4403624763394323 0.822716708431961 0.177283291568039 0.4704670794239392 0.5295329205760608 0.5953681734347696 0.4046318265652304</probabilities>
		</cpt>
		<cpt id="FlyerAttacks1">
			<state id="Absent" />
			<state id="Present" />
			<parents>Spire TimePeriod</parents>
			<probabilities>0.6979568509007055 0.3020431490992946 0.5634091076321226 0.4365908923678775 0.5037337692465436 0.4962662307534564 0.7524983668607693 0.2475016331392306 0.2375236948180962 0.7624763051819038 0.5985756034338938 0.4014243965661063 0.01995645940932238 0.9800435405906776 0.8902426381214855 0.1097573618785145 0.4581103521782112 0.5418896478217887 0.2982517467948647 0.7017482532051352 0.7826488318864361 0.2173511681135639 0.2563217298703456 0.7436782701296543 0.806664988126495 0.1933350118735049 0.4044486176368303 0.5955513823631697 0.8441950041257598 0.1558049958742402 0.6964836547106541 0.303516345289346 0.6643378540536883 0.3356621459463117 0.714067445471729 0.2859325545282712 0.7228345668783044 0.2771654331216957 0.4744298660572207 0.5255701339427794 0.3138884176108025 0.6861115823891975 0.6452940173806229 0.3547059826193771 0.9008599293639673 0.09914007063603283 0.6105657531645 0.3894342468354999 0.6873662638034276 0.3126337361965724 0.9 0.1 0.9 0.1 0.9 0.1 0.9 0.1 0.9 0.1 0.9 0.1 0.9 0.1 0.7946938448525505 0.2053061551474497 0.3709324841388252 0.6290675158611748 0.7751478799239536 0.2248521200760465 0.4045783438793849 0.5954216561206152 0.1893994411070167 0.8106005588929834 0.1932540605797358 0.8067459394202642 0.2847198788146458 0.715280121185354 0.2792817883181705 0.7207182116818295 0.6324816128734156 0.3675183871265843 0.5286354470297204 0.4713645529702796 0.6778202876865033 0.3221797123134968 0.5598186417326725 0.4401813582673275 0.5664453950641146 0.4335546049358853 0.6472391317784156 0.3527608682215845 0.7000814656708261 0.2999185343291739 0.878983578752762 0.121016421247238 0.7688930960185724 0.2311069039814275 0.2686648458875983 0.7313351541124018</probabilities>
		</cpt>
		<cpt id="FlyerCarapace1">
			<state id="Absent" />
			<state id="Present" />
			<parents>Spire TimePeriod</parents>
			<probabilities>0.6544272919431362 0.3455727080568638 0.5994894440321081 0.400510555967892 0.100376494328209 0.8996235056717911 0.816389876709347 0.1836101232906531 0.5494059510330573 0.4505940489669426 0.7504751035435187 0.2495248964564813 0.6282972088650964 0.3717027911349037 0.5133151020871416 0.4866848979128585 0.6870061715720162 0.3129938284279838 0.5191292758695643 0.4808707241304357 0.1552360239566281 0.8447639760433718 0.1350266391577828 0.8649733608422173 0.8505486532327594 0.1494513467672405 0.4044767918037124 0.5955232081962876 0.5907469968906444 0.4092530031093557 0.6828180946122544 0.3171819053877455 0.3061435189358625 0.6938564810641374 0.6706976108491568 0.3293023891508433 0.6542038646733632 0.3457961353266367 0.4242897454181466 0.5757102545818533 0.5929013423751981 0.4070986576248019 0.8003166390326756 0.1996833609673244 0.216138279351953 0.7838617206480472 0.6591310260435204 0.3408689739564795 0.8237947901722672 0.1762052098277328 0.9 0.1 0.9 0.1 0.9 0.1 0.9 0.1 0.9 0.1 0.9 0.1 0.9 0.1 0.7926460585359729 0.2073539414640271 0.1695218196642551 0.8304781803357451 0.6669822884220573 0.3330177115779426 0.5083986631807326 0.4916013368192674 0.694576689165254 0.3054233108347459 0.7231076014060188 0.2768923985939812 0.9853495127692256 0.01465048723077446 0.05066156675764847 0.9493384332423515 0.7047774784298854 0.2952225215701146 0.3005640024542594 0.6994359975457405 0.9064446329903025 0.09355536700969741 0.8249532157951618 0.1750467842048383 0.2522346928832651 0.7477653071167348 0.5921443094314306 0.4078556905685695 0.3337316438053464 0.6662683561946537 0.382025452584364 0.6179745474156362 0.272150843651349 0.727849156348651 0.4204282798706752 0.5795717201293248</probabilities>
		</cpt>
		<cpt id="MetabolicBoost">
			<state id="Absent" />
			<state id="Present" />
			<parents>SpawningPool TimePeriod</parents>
			<probabilities>0.6023138959850332 0.3976861040149668 0.04745098287244637 0.9525490171275537 0.4149340287085667 0.5850659712914332 0.4965043625759983 0.5034956374240016 0.8965625123429648 0.1034374876570352 0.8943925064032463 0.1056074935967537 0.8680339961040682 0.1319660038959319 0.8553366689812496 0.1446633310187505 0.8302015955130471 0.169798404486953 0.7990120929017358 0.2009879070982642 0.829078907115987 0.170921092884013 0.8919516384465591 0.1080483615534408 0.9008243557407896 0.09917564425921042 0.8318173770890167 0.1681826229109833 0.8022912689293678 0.1977087310706322 0.8351133219670489 0.1648866780329511 0.8524852198870723 0.1475147801129277 0.8308593174558747 0.1691406825441254 0.823057484422097 0.176942515577903 0.8520614202615617 0.1479385797384384 0.8863072360344899 0.1136927639655102 0.8598831277273116 0.1401168722726885 0.8559357334164921 0.144064266583508 0.8599110515127406 0.1400889484872594 0.8495908999929616 0.1504091000070384 0.9 0.1 0.9 0.1 0.7527609421401651 0.247239057859835 0.3239207188466686 0.6760792811533315 0.864924846875745 0.1350751531242549 0.6817186039145199 0.3182813960854801 0.4709088010704274 0.5290911989295726 0.7454432849059369 0.2545567150940631 0.5647447787013192 0.4352552212986808 0.1834373495075217 0.8165626504924783 0.7343077380331123 0.2656922619668876 0.5120994536424328 0.4879005463575674 0.5610424098149938 0.4389575901850062 0.7505854112015613 0.2494145887984387 0.2195841424488918 0.7804158575511082 0.7489610311341054 0.2510389688658946 0.5256496637812679 0.474350336218732 0.6043118864666144 0.3956881135333855 0.2871091801295067 0.7128908198704933 0.8617090783793056 0.1382909216206943 0.562416258371662 0.437583741628338 0.3077199300690036 0.6922800699309963 0.5035918113550214 0.4964081886449787 0.6905043727073545 0.3094956272926455 0.6284014991096317 0.3715985008903683</probabilities>
		</cpt>
		<cpt id="AdrenalGlands">
			<state id="Absent" />
			<state id="Present" />
			<parents>SpawningPool TimePeriod</parents>
			<probabilities>0.7332169116119793 0.2667830883880206 0.6224530690857364 0.3775469309142636 0.4295922520004589 0.5704077479995411 0.4373046845844471 0.562695315415553 0.8178508079336395 0.1821491920663604 0.8794462683853352 0.1205537316146649 0.8474127689749975 0.1525872310250026 0.8587200651336326 0.1412799348663674 0.8582161124216317 0.1417838875783684 0.8088080917849562 0.1911919082150439 0.8205800951019746 0.1794199048980254 0.8639401391299033 0.1360598608700968 0.791983682981699 0.208016317018301 0.8177296075625078 0.1822703924374923 0.8484400703148973 0.1515599296851026 0.8895791178215464 0.1104208821784536 0.8474479171683349 0.1525520828316651 0.8505690502229466 0.1494309497770535 0.9105023924488298 0.08949760755117028 0.8379759942031033 0.1620240057968967 0.8372717787278061 0.162728221272194 0.8106313022884404 0.1893686977115596 0.8262078761290943 0.1737921238709058 0.878223315862867 0.1217766841371329 0.8536702050650356 0.1463297949349646 0.9 0.1 0.9 0.1 0.4956322503710158 0.5043677496289842 0.4083342116310995 0.5916657883689004 0.9501853483806291 0.04981465161937097 0.6379508065721536 0.3620491934278463 0.1692866017488598 0.8307133982511401 0.5302153005129737 0.4697846994870263 0.4549339087177157 0.5450660912822845 0.5570777089136627 0.4429222910863373 0.6225853964458482 0.3774146035541519 0.7936203198353536 0.2063796801646463 0.2894792179190029 0.7105207820809971 0.7458885718774392 0.254111428122561 0.54113700884404 0.4588629911559601 0.6766737048164919 0.323326295183508 0.5861042372504443 0.4138957627495558 0.7040393754174291 0.2959606245825709 0.4710845280376317 0.5289154719623683 0.5282270291425777 0.4717729708574223 0.3963797220371856 0.6036202779628145 0.6566982910697713 0.3433017089302288 0.2049847896310691 0.7950152103689311 0.2190128979317501 0.7809871020682498 0.5194843469119068 0.4805156530880932</probabilities>
		</cpt>
		<cpt id="LurkerAspect">
			<state id="Absent" />
			<state id="Present" />
			<parents>HydraliskDen TimePeriod</parents>
			<probabilities>0.4279009211369405 0.5720990788630596 0.5946426745458553 0.4053573254541448 0.1573583129018145 0.8426416870981854 0.771324142431652 0.228675857568348 0.4538571525119908 0.5461428474880092 0.3636591043827009 0.6363408956172991 0.3103841225901002 0.6896158774098997 0.3991489005538046 0.6008510994461953 0.3252692434854239 0.6747307565145763 0.5751974725039918 0.4248025274960082 0.8407822540820586 0.1592177459179413 0.641563781202809 0.358436218797191 0.2731606372264834 0.7268393627735167 0.3050731485302214 0.6949268514697787 0.9653811177728485 0.03461888222715129 0.1980390848771641 0.8019609151228359 0.6662754764416112 0.3337245235583887 0.624715125236463 0.375284874763537 0.4584897077792006 0.5415102922207993 0.7702348264326951 0.2297651735673049 0.8130020179252561 0.1869979820747439 0.5640119762734545 0.4359880237265456 0.3529820860271368 0.6470179139728632 0.6504254366995244 0.3495745633004756 0.6234801368463335 0.3765198631536665 0.9 0.1 0.9 0.1 0.9 0.1 0.9 0.1 0.9 0.1 0.7262134394905644 0.2737865605094356 0.2269767958513517 0.7730232041486483 0.5557599260475529 0.4442400739524471 0.5533558711764249 0.4466441288235751 0.5142693998743635 0.4857306001256366 0.4966754861977869 0.503324513802213 0.5676136820758719 0.4323863179241281 0.3449595458447185 0.6550404541552815 0.6685455626017071 0.331454437398293 0.5873720388107553 0.4126279611892448 0.6539401611135033 0.3460598388864968 0.4219994767190106 0.5780005232809893 0.5195734439871521 0.480426556012848 0.2055008995403839 0.794499100459616 0.4412186283788281 0.5587813716211719 0.5869121857918237 0.4130878142081764 0.5124762391538824 0.4875237608461175 0.9115628273130788 0.08843717268692124 0.6880496843952277 0.3119503156047722 0.2857431689961409 0.7142568310038592</probabilities>
		</cpt>
		<cpt id="GroovedSpines">
			<state id="Absent" />
			<state id="Present" />
			<parents>HydraliskDen TimePeriod</parents>
			<probabilities>0.5337832689856152 0.4662167310143848 0.1813933603986467 0.8186066396013533 0.9681120085532808 0.03188799144671925 0.8810400100345539 0.1189599899654462 0.662622889307511 0.3373771106924891 0.9767442693657676 0.02325573063423237 0.5975967719159568 0.4024032280840432 0.8531395374784575 0.1468604625215425 0.4813205378310441 0.5186794621689559 0.5338268194402429 0.4661731805597571 0.1857506540697211 0.8142493459302789 0.2503776930858055 0.7496223069141944 0.5251500817935392 0.4748499182064608 0.3286801688095022 0.6713198311904978 0.2869657178363577 0.7130342821636423 0.4709969031864987 0.5290030968135012 0.7347261053667725 0.2652738946332275 0.462492040253736 0.537507959746264 0.3704505228788822 0.6295494771211178 0.5842594064692301 0.4157405935307699 0.3694667974582703 0.6305332025417297 0.9726410747198313 0.02735892528016861 0.8134580424912237 0.1865419575087764 0.4621055164103967 0.5378944835896033 0.3256877199137448 0.6743122800862552 0.9 0.1 0.9 0.1 0.9 0.1 0.9 0.1 0.9 0.1 0.6343187677132046 0.3656812322867953 0.5635016628948636 0.4364983371051364 0.816838843179859 0.183161156820141 0.8331544684202465 0.1668455315797535 0.6407891642684673 0.3592108357315327 0.3111123805186382 0.6888876194813619 0.4918915775053079 0.5081084224946921 0.5269451328016617 0.4730548671983383 0.3215779343813782 0.6784220656186218 0.9793492843838317 0.02065071561616833 0.4486933372071723 0.5513066627928278 0.5243487870067795 0.4756512129932206 0.5269326441523625 0.4730673558476375 0.1128819418640305 0.8871180581359693 0.5920576445985639 0.407942355401436 0.8305136067958017 0.1694863932041983 0.5769686501865554 0.4230313498134446 0.7770141508593382 0.2229858491406618 0.1554600019327836 0.8445399980672165 0.07925217433218472 0.9207478256678153</probabilities>
		</cpt>
		<cpt id="Carapace2">
			<state id="Absent" />
			<state id="Present" />
			<parents>TimePeriod Carapace1 Lair</parents>
			<probabilities>0.8061726876450638 0.1938273123549364 0.9 0.1 0.5221010426087225 0.4778989573912776 0.9 0.1 0.3583318884382044 0.6416681115617956 0.9 0.1 0.7128135199502493 0.2871864800497506 0.9 0.1 0.8706436733615772 0.1293563266384229 0.9 0.1 0.4116478765558845 0.5883521234441156 0.9 0.1 0.3921254891887697 0.6078745108112302 0.9 0.1 0.7092247782177792 0.2907752217822208 0.9 0.1 0.9253620502597721 0.07463794974022792 0.9 0.1 0.7247147721564784 0.2752852278435216 0.9 0.1 0.4568715779195451 0.5431284220804549 0.8854053359847564 0.1145946640152437 0.4987903137177727 0.5012096862822274 0.8871204933551492 0.112879506644851 0.5016137904463267 0.4983862095536734 0.6206999246230968 0.3793000753769033 0.661900844973316 0.3380991550266839 0.5149695698465695 0.4850304301534305 0.5651847569576294 0.4348152430423706 0.6429820732425194 0.3570179267574806 0.8107308785521591 0.189269121447841 0.4954806436578085 0.5045193563421914 0.9241828601518031 0.07581713984819696 0.425818075916192 0.574181924083808 0.8801559018772054 0.1198440981227945 0.4139298363619579 0.5860701636380421 0.761835642732034 0.2381643572679661 0.5331644188757828 0.4668355811242172 0.34420243053966 0.6557975694603401 0.90744752247502 0.09255247752498001 0.7082919049603019 0.291708095039698 0.4744320593503855 0.5255679406496144 0.746136868013805 0.253863131986195 0.3551645064594557 0.6448354935405443 0.9509963022772051 0.04900369772279484 0.2655676938700643 0.7344323061299357 0.7204541170662376 0.2795458829337625 0.4731292632854492 0.5268707367145507 0.4956890618378556 0.5043109381621443 0.3142041866679235 0.6857958133320766 0.5843198270540193 0.4156801729459806 0.6612932963305174 0.3387067036694825 0.5604720778715199 0.43952792212848 0.5533346299762513 0.4466653700237488 0.6979210931933098 0.3020789068066904 0.221831305175003 0.778168694824997 0.635345221474482 0.3646547785255181 0.7592122083662463 0.2407877916337537 0.7288919630359454 0.2711080369640545 0.8482499658303156 0.1517500341696843 0.8134241309708042 0.1865758690291958 0.4032670065399889 0.5967329934600112 0.8916447287968042 0.1083552712031959 0.633565970596685 0.366434029403315 0.8587979312571589 0.1412020687428411 0.4572406211737554 0.5427593788262446 0.7997399969005365 0.2002600030994635 0.6082858952254699 0.3917141047745302 0.8720022060785022 0.1279977939214978 0.4583452630480715 0.5416547369519286 0.7695490848687278 0.2304509151312724 0.3474851225899541 0.652514877410046 0.8708378122444388 0.1291621877555612 0.5228233914488007 0.4771766085511992 0.7742132353765625 0.2257867646234375 0.5137934641490473 0.4862065358509527 0.721822271920331 0.2781777280796689 0.4530452709347623 0.5469547290652377 0.8325816893250337 0.1674183106749662 0.5671388920211471 0.4328611079788529 0.675840172841901 0.3241598271580989 0.8606282780689912 0.1393717219310089 0.8999983619984449 0.1000016380015551 0.7562921693031933 0.2437078306968068 0.8264703493760673 0.1735296506239328 0.8977930303134354 0.1022069696865647 0.8369776306209281 0.1630223693790719 0.2743164262388407 0.7256835737611593 0.8651397895646102 0.1348602104353897 0.6160135738910352 0.3839864261089648 0.838146986988221 0.161853013011779 0.7730843974569467 0.2269156025430533 0.9044499611763964 0.09555003882360359 0.3038267248584544 0.6961732751415456 0.8804000414155569 0.119599958584443 0.6426361923404133 0.3573638076595867 0.8831926731274821 0.1168073268725179 0.3965901383461538 0.6034098616538463 0.762532350079742 0.2374676499202581 0.5253327977083869 0.474667202291613</probabilities>
		</cpt>
		<cpt id="Carapace3">
			<state id="Absent" />
			<state id="Present" />
			<parents>TimePeriod Carapace2 Hive</parents>
			<probabilities>0.2186145552243702 0.7813854447756299 0.9 0.1 0.2626553800137951 0.737344619986205 0.9 0.1 0.3878682803840926 0.6121317196159073 0.9 0.1 0.7208054633480817 0.2791945366519183 0.9 0.1 0.6416051806368882 0.3583948193631118 0.9 0.1 0.318969747615963 0.6810302523840371 0.9 0.1 0.3138938446067031 0.6861061553932969 0.9 0.1 0.9343197157357198 0.06568028426428021 0.9 0.1 0.7191460323316664 0.2808539676683335 0.9 0.1 0.7842620958415633 0.2157379041584367 0.9 0.1 0.611510636655322 0.388489363344678 0.9 0.1 0.4490835986392674 0.5509164013607325 0.9 0.1 0.07213774099210459 0.9278622590078952 0.9 0.1 0.5815218751589265 0.4184781248410736 0.9 0.1 0.1376799999845008 0.8623200000154992 0.9 0.1 0.243441348439825 0.756558651560175 0.9 0.1 0.0432106705687985 0.9567893294312015 0.9 0.1 0.453146652111127 0.546853347888873 0.9 0.1 0.4705957084125355 0.5294042915874646 0.9 0.1 0.5492819295986524 0.4507180704013476 0.9 0.1 0.2322986125108063 0.7677013874891937 0.9 0.1 0.6652714458235717 0.3347285541764283 0.9 0.1 0.8001209355289369 0.199879064471063 0.9 0.1 0.4306792205220194 0.5693207794779807 0.9 0.1 0.3271806783577781 0.6728193216422217 0.9 0.1 0.6799215555378714 0.3200784444621287 0.9 0.1 0.371227143575843 0.628772856424157 0.8897759653454196 0.1102240346545805 0.8334058880061016 0.1665941119938983 0.8009724912559452 0.1990275087440548 0.2556122687600827 0.7443877312399173 0.7255462171138946 0.2744537828861055 0.4047942049378866 0.5952057950621135 0.8338251218940512 0.1661748781059489 0.4582280297073985 0.5417719702926015 0.3697982930285095 0.6302017069714905 0.6350727070823337 0.3649272929176664 0.6144677863859827 0.3855322136140174 0.4552048494651441 0.5447951505348561 0.607648622335132 0.3923513776648682 0.1729199609895704 0.8270800390104296 0.8079757036084562 0.1920242963915437 0.8758272545675141 0.1241727454324858 0.9483991447072051 0.05160085529279501 0.3381861301179873 0.6618138698820126 0.3375002406436747 0.6624997593563252 0.6229357270548939 0.377064272945106 0.7890670652125982 0.210932934787402 0.9869200513377771 0.01307994866222306 0.5171691586679621 0.4828308413320378 0.1154385842446363 0.8845614157553637 0.2776979128638119 0.7223020871361882 0.1753998076013073 0.8246001923986928 0.3568470890288127 0.6431529109711872 0.4444304846214231 0.5555695153785768 0.2528250870014218 0.7471749129985783 0.6015756730674727 0.3984243269325272 0.9243522957893622 0.07564770421063771 0.2364812300212142 0.7635187699787858 0.4414707336433917 0.5585292663566082 0.3910717391374756 0.6089282608625244 0.8869479442024073 0.1130520557975926 0.7700870592164819 0.229912940783518 0.379465627413236 0.620534372586764 0.206113338454343 0.793886661545657 0.4251329378059128 0.5748670621940872 0.4364103066814414 0.5635896933185587 0.9916859028876252 0.008314097112374838 0.142154473185609 0.8578455268143911 0.5911685964229573 0.4088314035770427 0.4132342635187262 0.5867657364812738 0.4533105004778788 0.5466894995221212 0.6222068569031504 0.3777931430968496 0.2705281504365825 0.7294718495634176</probabilities>
		</cpt>
		<cpt id="MissileAttacks2">
			<state id="Absent" />
			<state id="Present" />
			<parents>TimePeriod MissileAttacks1 Lair</parents>
			<probabilities>0.1757004110882137 0.8242995889117862 0.9 0.1 0.7204133750671997 0.2795866249328004 0.9 0.1 0.3075021752522064 0.6924978247477935 0.9 0.1 0.6202770078796684 0.3797229921203316 0.9 0.1 0.3976621627863869 0.6023378372136132 0.9 0.1 0.3983044904889583 0.6016955095110418 0.9 0.1 0.4643137105840756 0.5356862894159244 0.9 0.1 0.5904982409322668 0.4095017590677332 0.9 0.1 0.7390391189841578 0.2609608810158422 0.9 0.1 0.477471127553032 0.5225288724469682 0.9 0.1 0.6215341949171989 0.3784658050828013 0.8984925561398494 0.1015074438601507 0.4375855579763295 0.5624144420236705 0.8600120246062405 0.1399879753937595 0.2360515661478468 0.7639484338521533 0.5399325859194221 0.4600674140805779 0.7532340753660514 0.2467659246339486 0.6170167675004595 0.3829832324995405 0.3712297041078188 0.6287702958921811 0.8516462517519834 0.1483537482480167 0.461686756277165 0.5383132437228351 0.06320179711101262 0.9367982028889873 0.644126751979849 0.355873248020151 0.9453913534083781 0.05460864659162186 0.5202748794503331 0.4797251205496668 0.6724825827377822 0.327517417262218 0.4573293255038031 0.5426706744961968 0.3599277186202065 0.6400722813797936 0.4285883758623998 0.5714116241376002 0.4984522398124756 0.5015477601875246 0.8645398572605997 0.1354601427394003 0.7365733981277045 0.2634266018722957 0.3519720520340933 0.6480279479659069 0.4910138339713061 0.5089861660286941 0.3375392007300778 0.6624607992699222 0.04256327250932876 0.9574367274906712 0.8888828424486992 0.1111171575513007 0.3226044746127212 0.6773955253872788 0.91564028081454 0.08435971918545998 0.4534694686872647 0.5465305313127353 0.7200018115001021 0.2799981884998979 0.3144032463074927 0.6855967536925074 0.5942234646804189 0.4057765353195811 0.3997248200814109 0.6002751799185891 0.8700031798202199 0.1299968201797801 0.7534359973479459 0.2465640026520542 0.7467427048503457 0.2532572951496545 0.7332208994702051 0.266779100529795 0.7877854510335698 0.2122145489664302 0.8055206572337563 0.1944793427662437 0.7995842304634772 0.2004157695365228 0.4446877985372117 0.5553122014627884 0.9067850013589021 0.093214998641098 0.5325112940223458 0.4674887059776542 0.8993485474540576 0.1006514525459424 0.5195049558163941 0.4804950441836058 0.5760979221902173 0.4239020778097827 0.4640349981194588 0.5359650018805412 0.7038519696017639 0.296148030398236 0.5560325139492554 0.4439674860507447 0.8394875157774249 0.1605124842225752 0.310864451062729 0.689135548937271 0.7315821674181187 0.2684178325818815 0.968722429811179 0.03127757018882107 0.8294873382755188 0.1705126617244811 0.3137801104706968 0.6862198895293032 0.8453810466241024 0.1546189533758975 0.7347892536110087 0.2652107463889912 0.8062138672337943 0.1937861327662057 0.5454917709441265 0.4545082290558734 0.6735507994870125 0.3264492005129875 0.3470351247335998 0.6529648752664001 0.8965106008474937 0.1034893991525062 0.7660165323893219 0.2339834676106781 0.7937692734377961 0.206230726562204 0.5560687135523372 0.4439312864476626 0.8760153025414512 0.1239846974585489 0.5163252728439478 0.4836747271560524 0.899361074761954 0.100638925238046 0.6513004785882113 0.3486995214117887 0.741029619116829 0.2589703808831712 0.332276049815183 0.6677239501848169 0.8134875135702567 0.1865124864297433 0.5896138417272714 0.4103861582727286 0.8666419918807149 0.1333580081192851 0.2459544017648059 0.754045598235194 0.8100382136930675 0.1899617863069325 0.9218282211717236 0.0781717788282764 0.8586221013933971 0.1413778986066029 0.1719294256880096 0.8280705743119904</probabilities>
		</cpt>
		<cpt id="MissileAttacks3">
			<state id="Absent" />
			<state id="Present" />
			<parents>TimePeriod MissileAttacks2 Hive</parents>
			<probabilities>0.207201927213097 0.7927980727869031 0.9 0.1 0.1516809255691832 0.848319074430817 0.9 0.1 0.2812794593407476 0.7187205406592524 0.9 0.1 0.3492118682055946 0.6507881317944054 0.9 0.1 0.4947738664930127 0.5052261335069873 0.9 0.1 0.5037825099616515 0.4962174900383485 0.9 0.1 0.3647517473158162 0.6352482526841838 0.9 0.1 0.3730360329847907 0.6269639670152095 0.9 0.1 0.7208798608678835 0.2791201391321165 0.9 0.1 0.5043858914508828 0.4956141085491173 0.9 0.1 0.6712203319881001 0.3287796680119 0.9 0.1 0.4545833085511167 0.5454166914488833 0.9 0.1 0.6070359489929295 0.3929640510070706 0.9 0.1 0.5623704844810211 0.4376295155189788 0.9 0.1 0.4567358432510141 0.5432641567489859 0.9 0.1 0.5108608012784108 0.4891391987215892 0.9 0.1 0.4903659462299371 0.509634053770063 0.9 0.1 0.2860775639595663 0.7139224360404337 0.9 0.1 0.9763460474497879 0.02365395255021208 0.9 0.1 0.4837045668429544 0.5162954331570455 0.9 0.1 0.5262564400504983 0.4737435599495017 0.9 0.1 0.9704872275517563 0.02951277244824369 0.9 0.1 0.6496226398276431 0.3503773601723569 0.9 0.1 0.4793491795136432 0.5206508204863567 0.9 0.1 0.4516680072139666 0.5483319927860334 0.9 0.1 0.3961497238444399 0.6038502761555602 0.9 0.1 0.5242147026568901 0.4757852973431098 0.8314366466458028 0.1685633533541972 0.9082830232610264 0.09171697673897353 0.823097604276035 0.1769023957239651 0.8594156177337002 0.1405843822662999 0.6744886644505549 0.3255113355494451 0.4669155180633514 0.5330844819366485 0.808302024262189 0.1916979757378111 0.8016917064158949 0.1983082935841052 0.8399752914230249 0.1600247085769751 0.3456510008782832 0.6543489991217169 0.5560656574290335 0.4439343425709664 0.7843928461269473 0.2156071538730527 0.3188806796446855 0.6811193203553143 0.4453916632980543 0.5546083367019459 0.6293667597565771 0.3706332402434229 0.4167415082911716 0.5832584917088284 0.5039508261252601 0.4960491738747399 0.5420073153368278 0.4579926846631722 0.6002169087498265 0.3997830912501736 0.7915018886393902 0.2084981113606098 0.5060692544499931 0.4939307455500069 0.6523418256357003 0.3476581743642996 0.1594067233420327 0.8405932766579675 0.2535363852998448 0.7464636147001552 0.6830516630329375 0.3169483369670624 0.1160487551789483 0.8839512448210518 0.6457116039797817 0.3542883960202184 0.6619899622164789 0.3380100377835211 0.7784943520822224 0.2215056479177777 0.7092177678786646 0.2907822321213354 0.6389176818972956 0.3610823181027043 0.4539342999936466 0.5460657000063534 0.1814223789861938 0.8185776210138062 0.5561034907306818 0.4438965092693181 0.3234449160697318 0.6765550839302683 0.7843437531438169 0.2156562468561831 0.5219309825980987 0.4780690174019012 0.2339853867297442 0.7660146132702559 0.4033973724273863 0.5966026275726136 0.882540665197771 0.1174593348022289 0.1208332661416885 0.8791667338583116 0.6718965202232666 0.3281034797767333 0.860102532676142 0.1398974673238581 0.3832132063434814 0.6167867936565188 0.5456411956797339 0.4543588043202661 0.7037154800518395 0.2962845199481605 0.4070759556727009 0.5929240443272992</probabilities>
		</cpt>
		<cpt id="MeleeAttacks2">
			<state id="Absent" />
			<state id="Present" />
			<parents>TimePeriod MeleeAttacks1 Lair</parents>
			<probabilities>0.6094190689151363 0.3905809310848636 0.9 0.1 0.2455619408850254 0.7544380591149748 0.9 0.1 0.6056128452477793 0.3943871547522208 0.9 0.1 0.2276957361922857 0.7723042638077143 0.9 0.1 0.6129424626741874 0.3870575373258125 0.9 0.1 0.4800510611178349 0.5199489388821651 0.9 0.1 0.7275880476693301 0.2724119523306699 0.9 0.1 0.6903169842973336 0.3096830157026664 0.9 0.1 0.7584392766495568 0.2415607233504432 0.9 0.1 0.7601179573242286 0.2398820426757714 0.9 0.1 0.7113345424892205 0.2886654575107795 0.8963188228900693 0.1036811771099307 0.8959051297989293 0.1040948702010706 0.8815516022085953 0.1184483977914046 0.7255668380625144 0.2744331619374855 0.7665310753752808 0.2334689246247192 0.5697012948581172 0.430298705141883 0.5670588583380389 0.4329411416619611 0.8574006995885454 0.1425993004114548 0.383925623891725 0.6160743761082749 0.57387015935414 0.4261298406458601 0.1831450562353679 0.8168549437646323 0.6292830810879042 0.3707169189120959 0.6802626991874072 0.3197373008125928 0.5670138879221364 0.4329861120778637 0.1508408996502378 0.8491591003497622 0.6622242377427432 0.3377757622572569 0.4842062061961753 0.5157937938038246 0.6887022870344673 0.3112977129655327 0.5055705631291796 0.4944294368708205 0.8003457044003929 0.199654295599607 0.5408061914001527 0.4591938085998473 0.6756700348001838 0.3243299651998161 0.8232354173164888 0.1767645826835113 0.7124888639721454 0.2875111360278548 0.5190165565560183 0.4809834434439818 0.7070524524281999 0.2929475475718001 0.7043495340203065 0.2956504659796935 0.5264721705365658 0.4735278294634344 0.558241072133197 0.441758927866803 0.8908497544202167 0.1091502455797832 0.4863505977472452 0.5136494022527549 0.7140265247993939 0.2859734752006061 0.6076529186192468 0.3923470813807533 0.733462012436345 0.266537987563655 0.7281062093048493 0.2718937906951507 0.7307815249044434 0.2692184750955566 0.2697158998576175 0.7302841001423825 0.7377982570437144 0.2622017429562856 0.1006457475341793 0.8993542524658208 0.8859516337958087 0.1140483662041913 0.4339431990132868 0.5660568009867133 0.6375543094157075 0.3624456905842926 0.4924752974476583 0.5075247025523417 0.709017934395205 0.2909820656047948 0.1898201007354401 0.8101798992645599 0.8978308575948804 0.1021691424051197 0.1761919329034844 0.8238080670965156 0.8696794149499731 0.1303205850500269 0.1115130858176495 0.8884869141823505 0.801195992223626 0.1988040077763739 0.6075307498465298 0.3924692501534701 0.6947574217422889 0.3052425782577111 0.6998580528456142 0.3001419471543859 0.82645366688681 0.17354633311319 0.4824040529480624 0.5175959470519377 0.8592243126534567 0.1407756873465434 0.4821209651573818 0.5178790348426182 0.6970167107935178 0.3029832892064823 0.08002471711645029 0.9199752828835497 0.8633834574294443 0.1366165425705556 0.4708121497700484 0.5291878502299515 0.7061006601899234 0.2938993398100768 0.2358298879593304 0.7641701120406695 0.7089327844372825 0.2910672155627175 0.7316369686505565 0.2683630313494435 0.8997772626281891 0.1002227373718108 0.5696042479680261 0.4303957520319738 0.8616934804115327 0.1383065195884673 0.7899243525583215 0.2100756474416784 0.8918750267172043 0.1081249732827957 0.8081626984565329 0.1918373015434672 0.8677172577183555 0.1322827422816445 0.4831877585900821 0.5168122414099178 0.8562782351323396 0.1437217648676606 0.8304357525646741 0.169564247435326 0.8948288188891526 0.1051711811108473 0.1049210735372403 0.8950789264627598 0.8217853868752736 0.1782146131247263 0.6403584303306302 0.3596415696693697</probabilities>
		</cpt>
		<cpt id="MeleeAttacks3">
			<state id="Absent" />
			<state id="Present" />
			<parents>TimePeriod MeleeAttacks2 Hive</parents>
			<probabilities>0.3621143269221028 0.6378856730778972 0.9 0.1 0.4751761190195555 0.5248238809804445 0.9 0.1 0.9181570841185893 0.08184291588141077 0.9 0.1 0.5049070345531567 0.4950929654468435 0.9 0.1 0.7094405596994685 0.2905594403005314 0.9 0.1 0.9788130162286721 0.02118698377132782 0.9 0.1 0.5695859610674385 0.4304140389325614 0.9 0.1 0.5083126616235487 0.4916873383764514 0.9 0.1 0.5153907665417652 0.4846092334582348 0.9 0.1 0.7014245619537733 0.2985754380462267 0.9 0.1 0.9758125852616506 0.02418741473834936 0.9 0.1 0.5685253068568466 0.4314746931431534 0.9 0.1 0.6053787156620402 0.3946212843379598 0.9 0.1 0.5145805550585425 0.4854194449414576 0.9 0.1 0.834220949460692 0.1657790505393081 0.9 0.1 0.6360956801191986 0.3639043198808015 0.9 0.1 0.5372636218292554 0.4627363781707448 0.9 0.1 0.457376280429443 0.5426237195705571 0.9 0.1 0.2404345247384065 0.7595654752615935 0.9 0.1 0.3950832564751081 0.604916743524892 0.9 0.1 0.8473435926586133 0.1526564073413867 0.9 0.1 0.7640389545156718 0.235961045484328 0.9 0.1 0.1457475423084671 0.8542524576915329 0.9 0.1 0.5579325717472881 0.442067428252712 0.9 0.1 0.9699351420223149 0.03006485797768515 0.9 0.1 0.5910822028679829 0.4089177971320172 0.9 0.1 0.6463091109599907 0.3536908890400094 0.8984052743415173 0.1015947256584828 0.7831994115844275 0.2168005884155725 0.8762275216753067 0.1237724783246934 0.8090573556360824 0.1909426443639176 0.863227276562607 0.1367727234373929 0.5006808585575412 0.4993191414424588 0.6046889367802524 0.3953110632197478 0.2326318626869084 0.7673681373130917 0.759375068809957 0.240624931190043 0.3043536573175073 0.6956463426824926 0.3217678769635046 0.6782321230364955 0.115138420523765 0.884861579476235 0.5902910822389955 0.4097089177610044 0.3472996001811582 0.6527003998188419 0.2457101050706709 0.754289894929329 0.1988525696221673 0.8011474303778328 0.7862468195976757 0.2137531804023245 0.8090836622898937 0.1909163377101063 0.519535422575547 0.4804645774244532 0.5536305879852639 0.446369412014736 0.350102417199184 0.649897582800816 0.4967795046176399 0.5032204953823601 0.528538041571803 0.4714619584281971 0.7996443071071299 0.2003556928928701 0.5605302400467267 0.4394697599532734 0.6661628748543894 0.3338371251456106 0.2432567238228091 0.756743276177191 0.6840792902154989 0.3159207097845011 0.6877926562398078 0.3122073437601922 0.9635957417075779 0.0364042582924221 0.6163413626896508 0.3836586373103492 0.8189421249952557 0.1810578750047444 0.5129393742768323 0.4870606257231677 0.5768347513159126 0.4231652486840874 0.2151379768002837 0.7848620231997164 0.5862279886436959 0.4137720113563043 0.5373846562455916 0.4626153437544083 0.5865765629254497 0.4134234370745503 0.399086368511687 0.600913631488313 0.3476447675534485 0.6523552324465516 0.8613125320228102 0.1386874679771898 0.5409962485030194 0.4590037514969807 0.4760231150172691 0.5239768849827308 0.645219116846076 0.3547808831539238 0.4796627380116788 0.5203372619883213 0.4889226514565748 0.5110773485434252 0.5662483675581506 0.4337516324418493</probabilities>
		</cpt>
		<cpt id="FlyerAttacks2">
			<state id="Absent" />
			<state id="Present" />
			<parents>TimePeriod FlyerAttacks1 Lair</parents>
			<probabilities>0.5653107431652089 0.4346892568347912 0.9 0.1 0.4300025297341409 0.5699974702658591 0.9 0.1 0.1737244700635766 0.8262755299364234 0.9 0.1 0.2074508504069218 0.7925491495930782 0.9 0.1 0.4839169370370214 0.5160830629629788 0.9 0.1 0.2543961113601734 0.7456038886398265 0.9 0.1 0.4363835583015319 0.5636164416984681 0.9 0.1 0.1745218106444824 0.8254781893555175 0.9 0.1 0.6215010320005991 0.3784989679994009 0.9 0.1 0.3947681133925217 0.6052318866074784 0.9 0.1 0.891242727440013 0.108757272559987 0.8582660613047888 0.1417339386952111 0.7422274859526534 0.2577725140473467 0.8812398257728585 0.1187601742271416 0.7368510967113854 0.2631489032886146 0.9043863540318088 0.09561364596819108 0.3211073350069438 0.6788926649930563 0.414613855736916 0.5853861442630841 0.5472475131656756 0.4527524868343245 0.9436048157288836 0.05639518427111655 0.8446715726675717 0.1553284273324283 0.578989244390612 0.4210107556093881 0.6356805429714036 0.3643194570285964 0.07396666760362093 0.9260333323963791 0.6813969997408782 0.3186030002591217 0.1234381143310599 0.8765618856689402 0.510304862889107 0.489695137110893 0.6700991983316353 0.3299008016683647 0.4815153476655213 0.5184846523344787 0.8021524521927584 0.1978475478072415 0.5542969989505215 0.4457030010494786 0.9664960406037947 0.03350395939620521 0.8680620850485411 0.1319379149514588 0.1601426378593716 0.8398573621406283 0.8131326336768981 0.1868673663231018 0.5922833604745124 0.4077166395254876 0.5130728740508377 0.4869271259491623 0.2587793809318784 0.7412206190681216 0.6520136757604309 0.347986324239569 0.5695194624860368 0.4304805375139633 0.8891286460359709 0.1108713539640291 0.1785621271177401 0.8214378728822599 0.6794558419501461 0.320544158049854 0.1527401217009686 0.8472598782990315 0.474321987389387 0.5256780126106131 0.9735393161922438 0.02646068380775627 0.8722409250895634 0.1277590749104365 0.459946691798004 0.5400533082019962 0.8156674584354666 0.1843325415645333 0.6682530040740382 0.3317469959259618 0.5907933060824758 0.4092066939175243 0.633648718926764 0.366351281073236 0.8733493524983027 0.1266506475016972 0.6136769798699053 0.3863230201300947 0.8119739899436423 0.1880260100563576 0.6599805441754538 0.3400194558245462 0.8307776077684005 0.1692223922315994 0.7961904469006986 0.2038095530993013 0.7003488948972573 0.2996511051027429 0.4358673793514991 0.564132620648501 0.8518855894141693 0.1481144105858308 0.7919158643936211 0.208084135606379 0.9137794002639563 0.08622059973604372 0.8852158367218314 0.1147841632781686 0.8739949424830678 0.1260050575169322 0.5342257813444694 0.4657742186555305 0.8248853361884352 0.1751146638115648 0.4855108572215823 0.5144891427784177 0.741836785664365 0.2581632143356352 0.223213232074603 0.776786767925397 0.8852192574046892 0.1147807425953109 0.7061038032402167 0.2938961967597833 0.7613754919193934 0.2386245080806066 0.4388158250696012 0.5611841749303989 0.804326014188547 0.1956739858114528 0.133469205651817 0.866530794348183 0.8265981760914357 0.1734018239085642 0.48519206540529 0.51480793459471 0.7290850009355719 0.2709149990644281 0.4482398550768386 0.5517601449231616 0.8983808913068991 0.1016191086931009 0.5203250083194407 0.4796749916805593 0.8114528877747985 0.1885471122252014 0.4751144419058883 0.5248855580941116 0.840726841627108 0.159273158372892 0.3817518848649922 0.6182481151350078 0.8594445373320013 0.1405554626679986 0.4535033679974684 0.5464966320025316 0.8562425913882465 0.1437574086117535 0.06927623474883611 0.9307237652511637</probabilities>
		</cpt>
		<cpt id="FlyerAttacks3">
			<state id="Absent" />
			<state id="Present" />
			<parents>TimePeriod FlyerAttacks2 Hive</parents>
